~o
<STREAMINFO> 1 39
<VECSIZE> 39<NULLD><MFCC_E_D_A><DIAGC>
~h "Sil"
<BEGINHMM>
<NUMSTATES> 3
<STATE> 2
<MEAN> 39
 -5.543148e+02 -1.215749e-02 1.757734e-03 1.795635e-01 1.717366e-01 1.711307e-01 1.607125e-01 1.950729e-01 1.976779e-01 1.895084e-01 1.935704e-01 1.836930e-01 1.885850e-01 1.677245e-01 1.762626e-01 1.042090e-05 1.097034e-05 8.004687e-06 4.022453e-06 -6.402593e-06 -2.987635e-06 1.199845e-05 1.762885e-05 5.312831e-06 -6.238558e-06 3.644664e-07 6.408254e-06 5.300398e-06 5.175393e-06 6.583673e-06 5.467525e-06 3.822423e-06 3.033824e-06 6.143758e-06 7.914623e-06 5.109812e-06 4.114579e-06 5.802890e-06 6.510916e-06
<VARIANCE> 39
 3.252899e+04 9.135513e+01 5.088916e+00 8.204169e-02 6.437445e-02 8.666049e-02 5.561354e-02 9.676844e-02 8.577419e-02 7.607945e-02 9.876730e-02 6.449518e-02 9.477687e-02 6.302790e-02 7.493725e-02 5.327464e-04 3.848535e-04 5.653332e-04 3.417323e-04 5.927517e-04 5.296323e-04 4.852170e-04 6.420278e-04 4.261503e-04 5.642036e-04 4.023535e-04 5.285922e-04 2.655951e-05 1.988184e-05 2.861829e-05 1.765013e-05 2.974419e-05 2.732892e-05 2.593326e-05 3.295566e-05 2.253557e-05 2.845307e-05 2.075203e-05 2.747875e-05
<GCONST> -1.609561e+02
<TRANSP> 3
 0.000000e+00 1.000000e+00 0.000000e+00
 0.000000e+00 9.994608e-01 5.391609e-04
 0.000000e+00 0.000000e+00 0.000000e+00
<ENDHMM>
~h "Tab0000"
<BEGINHMM>
<NUMSTATES> 3
<STATE> 2
<MEAN> 39
 -2.921859e+02 -1.409342e-01 8.490515e-02 2.421172e-01 2.259079e-01 2.957876e-01 4.330601e-01 5.922539e-01 5.215099e-01 4.198363e-01 3.700815e-01 3.664954e-01 3.925390e-01 3.337726e-01 3.054617e-01 9.293023e-04 2.863200e-04 1.418560e-04 5.733845e-04 1.046270e-03 6.701818e-04 1.088020e-04 -5.880622e-04 -1.541061e-03 -1.706685e-03 -3.107337e-04 9.353985e-04 4.775388e-04 4.665914e-04 4.544358e-04 3.712485e-07 -5.423614e-04 -3.543218e-04 8.776489e-05 3.977545e-04 7.192893e-04 8.318014e-04 6.411172e-04 5.091236e-04
<VARIANCE> 39
 1.430070e+04 2.613344e+02 1.954112e+01 5.936061e-02 4.757895e-02 8.105218e-02 8.010083e-02 1.366759e-01 8.126469e-02 8.373251e-02 7.479801e-02 7.223202e-02 1.358200e-01 6.131490e-02 9.363177e-02 9.869398e-04 7.981015e-04 1.286080e-03 1.634975e-03 3.232179e-03 1.855748e-03 1.644639e-03 1.391149e-03 1.324355e-03 1.626411e-03 9.792023e-04 1.451389e-03 5.819172e-05 4.422056e-05 7.092096e-05 9.632194e-05 2.033742e-04 1.193658e-04 1.024150e-04 8.463953e-05 8.330366e-05 9.039250e-05 5.864211e-05 9.419089e-05
<GCONST> -1.315271e+02
<TRANSP> 3
 0.000000e+00 1.000000e+00 0.000000e+00
 0.000000e+00 9.327390e-01 6.726100e-02
 0.000000e+00 0.000000e+00 0.000000e+00
<ENDHMM>
~h "Tab0001"
<BEGINHMM>
<NUMSTATES> 3
<STATE> 2
<MEAN> 39
 -2.760036e+02 -4.193672e-01 7.597812e-02 7.826811e-02 1.613886e-01 4.317812e-01 5.610515e-01 3.995412e-01 3.145067e-01 3.941933e-01 5.210378e-01 5.007148e-01 2.779243e-01 1.454979e-01 9.989621e-02 6.055210e-04 7.639780e-04 1.769229e-03 3.383023e-03 2.710718e-03 1.808788e-03 1.154359e-03 -8.781945e-04 -1.932916e-03 -6.790260e-04 3.344967e-04 2.688452e-04 3.502281e-04 1.365877e-04 -1.686643e-04 -2.425959e-04 9.239884e-07 -4.895948e-05 -1.292649e-04 -5.592928e-05 4.000243e-04 5.569471e-04 4.180750e-04 3.903056e-04
<VARIANCE> 39
 6.604112e+03 1.737175e+02 1.270067e+01 7.482458e-03 3.243017e-02 1.083778e-01 1.352422e-01 8.147196e-02 5.631574e-02 9.345231e-02 8.798496e-02 1.047468e-01 3.797092e-02 1.452118e-02 8.382423e-03 1.097917e-04 3.078342e-04 7.200543e-04 1.216962e-03 1.694396e-03 1.191870e-03 1.588080e-03 1.589637e-03 1.922356e-03 6.588107e-04 1.511375e-04 1.125271e-04 8.625248e-06 1.842206e-05 3.741385e-05 6.102576e-05 9.095668e-05 7.296931e-05 8.246292e-05 8.959318e-05 1.069124e-04 3.955739e-05 1.179413e-05 7.888802e-06
<GCONST> -1.601162e+02
<TRANSP> 3
 0.000000e+00 1.000000e+00 0.000000e+00
 0.000000e+00 9.254643e-01 7.453569e-02
 0.000000e+00 0.000000e+00 0.000000e+00
<ENDHMM>
~h "Tab0002"
<BEGINHMM>
<NUMSTATES> 3
<STATE> 2
<MEAN> 39
 -3.732206e+02 2.121301e+00 -5.773529e-03 4.637762e-01 3.605279e-01 2.764480e-01 2.149547e-01 1.934126e-01 2.310618e-01 3.644665e-01 4.775889e-01 4.196963e-01 3.515044e-01 2.918674e-01 3.757200e-01 -3.486646e-03 -3.632156e-03 -4.540808e-03 -6.540485e-03 -9.598685e-03 -7.317456e-03 -3.090271e-04 2.702084e-03 1.036460e-03 -1.037864e-04 -3.980687e-03 -5.085092e-03 -4.551152e-04 -5.774442e-04 -2.733334e-04 2.462446e-04 7.179187e-04 -5.604571e-05 -1.508616e-03 -1.866892e-03 -1.452941e-03 -8.421870e-04 -4.252730e-04 -3.697472e-04
<VARIANCE> 39
 2.244608e+04 2.852391e+02 1.863362e+01 1.657316e-01 7.073290e-02 9.765822e-02 5.090721e-02 5.299600e-02 6.619433e-02 6.986045e-02 1.298805e-01 7.017464e-02 1.186467e-01 6.830255e-02 9.626479e-02 5.540241e-03 2.442137e-03 2.439538e-03 1.383120e-03 1.461515e-03 1.442147e-03 1.667490e-03 3.447156e-03 2.179919e-03 3.738784e-03 1.897184e-03 2.818379e-03 2.897475e-04 1.319793e-04 1.123953e-04 7.571964e-05 8.564647e-05 7.924789e-05 8.555945e-05 1.719537e-04 1.125379e-04 1.809204e-04 8.872466e-05 1.405888e-04
<GCONST> -1.208602e+02
<TRANSP> 3
 0.000000e+00 1.000000e+00 0.000000e+00
 0.000000e+00 8.392090e-01 1.607910e-01
 0.000000e+00 0.000000e+00 0.000000e+00
<ENDHMM>
~h "Tab0003"
<BEGINHMM>
<NUMSTATES> 3
<STATE> 2
<MEAN> 39
 -3.844821e+02 -4.734317e-01 -2.852955e-02 1.695237e-01 4.879279e-01 7.501482e-01 5.070099e-01 3.301901e-01 3.133228e-01 2.843204e-01 2.644871e-01 3.536117e-01 4.620995e-01 2.898929e-01 1.321425e-01 4.070638e-04 5.892699e-04 5.575714e-04 8.967779e-04 1.153955e-03 2.655294e-04 -6.493513e-04 -2.622226e-04 7.857569e-04 1.033963e-03 4.951641e-04 3.615893e-04 4.216535e-04 -3.717451e-04 -1.181170e-03 -5.079989e-04 2.313141e-04 3.211463e-04 3.981183e-04 4.350076e-04 2.573344e-04 1.384879e-04 2.135425e-04 3.973296e-04
<VARIANCE> 39
 1.976983e+04 1.792927e+02 1.168501e+01 3.209106e-02 4.835393e-02 1.093450e-01 4.333450e-02 8.650543e-02 6.894288e-02 5.435809e-02 7.593000e-02 5.416001e-02 1.193778e-01 4.433084e-02 1.695951e-02 6.626512e-04 6.978511e-04 1.320334e-03 6.501784e-04 1.315755e-03 1.178043e-03 7.773959e-04 8.967061e-04 7.509437e-04 1.091184e-03 5.027482e-04 3.347538e-04 3.738705e-05 3.859637e-05 7.145893e-05 3.728762e-05 7.859724e-05 6.967846e-05 4.457132e-05 5.429598e-05 4.614891e-05 6.387845e-05 2.982191e-05 2.089689e-05
<GCONST> -1.509715e+02
<TRANSP> 3
 0.000000e+00 1.000000e+00 0.000000e+00
 0.000000e+00 9.359620e-01 6.403797e-02
 0.000000e+00 0.000000e+00 0.000000e+00
<ENDHMM>
~h "Tab0004"
<BEGINHMM>
<NUMSTATES> 3
<STATE> 2
<MEAN> 39
 -3.777576e+02 1.869254e-01 -7.326502e-02 3.828541e-01 3.657267e-01 3.821582e-01 4.091156e-01 4.664539e-01 4.139005e-01 4.149981e-01 4.506967e-01 4.795163e-01 5.117760e-01 4.367450e-01 4.261891e-01 -3.552324e-04 -1.216172e-03 -9.706384e-04 -6.208193e-04 1.585177e-04 1.247225e-03 2.464844e-03 2.768332e-03 -6.661087e-04 -3.541811e-03 -2.078559e-03 -2.389275e-04 -2.246078e-04 -2.677140e-04 -3.660434e-04 -8.140258e-04 -1.093512e-03 -9.245457e-04 -6.455012e-04 -6.223139e-04 -1.028839e-03 -8.662365e-04 -6.140818e-04 -4.333474e-04
<VARIANCE> 39
 3.092996e+04 4.513143e+02 2.357372e+01 9.608766e-02 7.315385e-02 1.053471e-01 6.288770e-02 1.115123e-01 6.757903e-02 7.805832e-02 8.688261e-02 7.501075e-02 1.149447e-01 7.503036e-02 9.077227e-02 1.914711e-03 1.647209e-03 2.572061e-03 1.846034e-03 2.923004e-03 1.861422e-03 2.278609e-03 2.750700e-03 1.840301e-03 2.772771e-03 2.005187e-03 2.254339e-03 9.780707e-05 8.694713e-05 1.270759e-04 9.769537e-05 1.523399e-04 1.020704e-04 1.186816e-04 1.399962e-04 1.024397e-04 1.390571e-04 1.100435e-04 1.157481e-04
<GCONST> -1.207537e+02
<TRANSP> 3
 0.000000e+00 1.000000e+00 0.000000e+00
 0.000000e+00 9.241321e-01 7.586785e-02
 0.000000e+00 0.000000e+00 0.000000e+00
<ENDHMM>
~h "Tab0008"
<BEGINHMM>
<NUMSTATES> 3
<STATE> 2
<MEAN> 39
 -3.577823e+02 -6.210896e-01 -3.290595e-02 8.704798e-02 1.014955e-01 1.582006e-01 5.621688e-01 8.446214e-01 6.257899e-01 3.058769e-01 1.892292e-01 1.098007e-01 8.685358e-02 7.150467e-02 9.040065e-02 1.478569e-03 1.977421e-03 1.599574e-03 6.168007e-04 -3.830786e-04 2.205902e-04 4.825198e-04 1.586673e-04 -3.596066e-04 -1.184529e-03 -2.373780e-04 1.154740e-03 6.975504e-04 8.615600e-04 4.739424e-04 -4.264359e-04 -8.377624e-04 -3.949283e-04 -2.632523e-04 2.597270e-04 7.977259e-04 8.373019e-04 5.767868e-04 4.784511e-04
<VARIANCE> 39
 5.368591e+03 1.542687e+02 1.004810e+01 9.970119e-03 2.132746e-02 3.487865e-02 5.980532e-02 8.935581e-02 3.253683e-02 9.136333e-02 3.401369e-02 1.689056e-02 2.068179e-02 1.309295e-02 1.451795e-02 2.570790e-04 3.133501e-04 6.163079e-04 1.257611e-03 6.723362e-04 9.978807e-04 7.496418e-04 2.758484e-04 3.324488e-04 4.679668e-04 2.675479e-04 3.365296e-04 1.418091e-05 2.135958e-05 4.292946e-05 9.246066e-05 4.490589e-05 7.322007e-05 5.532566e-05 1.333286e-05 1.745953e-05 2.091924e-05 1.313355e-05 1.785290e-05
<GCONST> -1.727958e+02
<TRANSP> 3
 0.000000e+00 1.000000e+00 0.000000e+00
 0.000000e+00 8.459185e-01 1.540815e-01
 0.000000e+00 0.000000e+00 0.000000e+00
<ENDHMM>
~h "Tab0011"
<BEGINHMM>
<NUMSTATES> 3
<STATE> 2
<MEAN> 39
 -4.931303e+02 1.497537e+00 5.303088e-02 4.383894e-01 3.333875e-01 2.758332e-01 2.653150e-01 3.013876e-01 3.123155e-01 4.230379e-01 5.266777e-01 4.362312e-01 3.585336e-01 3.319380e-01 4.007165e-01 1.761018e-03 6.451638e-04 -5.387865e-04 -7.696363e-04 9.528943e-06 -3.522506e-04 -1.894148e-03 -1.692221e-03 -2.604821e-04 1.999288e-05 1.567427e-04 9.172230e-04 -4.728448e-04 -5.819678e-05 3.593814e-04 1.775634e-04 5.091482e-05 -1.297487e-04 -3.888424e-04 -5.881019e-04 -6.059628e-04 -2.409673e-04 -2.901218e-04 -5.074390e-04
<VARIANCE> 39
 2.327118e+04 3.575430e+02 1.732526e+01 1.385216e-01 6.605227e-02 8.743112e-02 7.158052e-02 9.736603e-02 8.534107e-02 8.101729e-02 1.446204e-01 7.073874e-02 1.094393e-01 8.761484e-02 9.364045e-02 4.702174e-03 1.912551e-03 2.037217e-03 1.408769e-03 1.785482e-03 2.252942e-03 1.869488e-03 3.811625e-03 1.805463e-03 3.079427e-03 2.945297e-03 3.142875e-03 2.517377e-04 1.036740e-04 1.043733e-04 7.698938e-05 9.536476e-05 1.139339e-04 1.000696e-04 1.983254e-04 9.637563e-05 1.655325e-04 1.776681e-04 1.678835e-04
<GCONST> -1.180065e+02
<TRANSP> 3
 0.000000e+00 1.000000e+00 0.000000e+00
 0.000000e+00 9.284477e-01 7.155234e-02
 0.000000e+00 0.000000e+00 0.000000e+00
<ENDHMM>
~h "Tab0024"
<BEGINHMM>
<NUMSTATES> 3
<STATE> 2
<MEAN> 39
 -3.499681e+02 -1.147833e-01 -7.124791e-02 4.988058e-01 6.158546e-01 5.012981e-01 2.904717e-01 2.340737e-01 2.463147e-01 3.702822e-01 5.051009e-01 4.841065e-01 3.912465e-01 3.383235e-01 3.846079e-01 5.514271e-04 7.425115e-04 2.161613e-04 -1.150588e-03 -8.652230e-04 -2.540308e-04 1.585815e-04 6.939391e-05 5.579015e-05 4.371412e-04 4.025376e-04 7.109949e-04 -3.308415e-04 -7.946943e-04 -1.894270e-04 4.402977e-04 3.662295e-04 2.743479e-04 2.645331e-04 1.614378e-04 5.204225e-05 8.295407e-05 2.207250e-04 2.493705e-04
<VARIANCE> 39
 1.482894e+04 9.883825e+01 6.369570e+00 7.565513e-02 1.074112e-01 7.300864e-02 5.019913e-02 4.135168e-02 5.274586e-02 9.108961e-02 1.390381e-01 9.481514e-02 7.581800e-02 6.066409e-02 8.931176e-02 1.046796e-03 1.583812e-03 1.118782e-03 7.229132e-04 5.876673e-04 6.020194e-04 9.794314e-04 1.156186e-03 1.061211e-03 1.218044e-03 1.134587e-03 1.718540e-03 6.020168e-05 7.901913e-05 5.861375e-05 4.005989e-05 3.495568e-05 3.557574e-05 5.855021e-05 6.685084e-05 6.371771e-05 7.224345e-05 6.364394e-05 8.940711e-05
<GCONST> -1.430135e+02
<TRANSP> 3
 0.000000e+00 1.000000e+00 0.000000e+00
 0.000000e+00 9.476401e-01 5.235990e-02
 0.000000e+00 0.000000e+00 0.000000e+00
<ENDHMM>
~h "Tab0030"
<BEGINHMM>
<NUMSTATES> 3
<STATE> 2
<MEAN> 39
 -3.425342e+02 8.914476e-01 -1.933212e-01 3.734410e-01 2.116233e-01 2.110959e-01 2.797443e-01 3.074904e-01 2.412472e-01 2.606919e-01 3.138876e-01 3.839169e-01 3.876823e-01 4.239373e-01 5.294862e-01 -7.812718e-04 -4.135275e-04 -8.277700e-04 -2.008904e-03 -1.479846e-03 -7.309328e-05 -1.452687e-04 -3.642573e-04 1.095081e-03 2.452739e-03 1.231789e-03 -3.433828e-04 -3.472800e-04 9.131663e-05 2.306885e-05 -1.260983e-04 -1.414785e-04 -2.557426e-04 -4.537145e-04 -4.790835e-04 -1.301163e-04 4.122549e-05 -5.277527e-04 -8.971315e-04
<VARIANCE> 39
 1.555044e+04 3.160449e+02 2.203705e+01 8.315584e-02 6.363607e-02 6.899168e-02 7.844403e-02 1.191006e-01 4.847546e-02 6.110336e-02 6.559387e-02 9.146907e-02 9.912279e-02 6.275912e-02 1.552849e-01 2.425432e-03 1.324342e-03 1.607910e-03 2.170020e-03 3.225896e-03 1.313500e-03 1.565053e-03 1.664655e-03 2.268370e-03 2.678964e-03 1.379207e-03 4.304264e-03 1.114241e-04 6.107008e-05 7.818740e-05 1.096126e-04 1.518100e-04 6.799621e-05 8.699411e-05 9.646105e-05 1.245428e-04 1.303776e-04 6.993007e-05 2.001593e-04
<GCONST> -1.251665e+02
<TRANSP> 3
 0.000000e+00 1.000000e+00 0.000000e+00
 0.000000e+00 7.452508e-01 2.547493e-01
 0.000000e+00 0.000000e+00 0.000000e+00
<ENDHMM>
~h "Tab0031"
<BEGINHMM>
<NUMSTATES> 3
<STATE> 2
<MEAN> 39
 -4.462040e+02 3.267998e-01 -1.409689e-01 4.373311e-01 4.228090e-01 3.546145e-01 3.152554e-01 3.467942e-01 2.723844e-01 2.423484e-01 3.008506e-01 3.698319e-01 4.047074e-01 3.447863e-01 3.773603e-01 -1.891745e-03 -4.946198e-04 1.364529e-03 2.077075e-03 2.044650e-03 2.522530e-04 -9.562871e-04 -9.295024e-04 -4.935222e-04 -2.250534e-03 -2.045983e-03 -1.513629e-03 -4.830450e-04 -4.444745e-04 9.170317e-05 -4.230568e-04 -1.161591e-03 -6.415156e-04 5.147201e-05 1.764148e-04 -2.145637e-05 1.523038e-04 9.546863e-05 -8.662776e-05
<VARIANCE> 39
 3.033445e+04 6.102317e+02 3.442933e+01 1.228834e-01 1.086074e-01 1.141122e-01 6.717768e-02 1.163911e-01 6.603616e-02 6.272473e-02 9.429993e-02 8.751985e-02 1.296864e-01 7.268539e-02 1.007112e-01 2.641552e-03 2.975778e-03 2.863157e-03 1.539336e-03 2.859728e-03 1.511741e-03 9.867735e-04 1.988183e-03 1.739956e-03 2.517973e-03 1.631340e-03 2.190214e-03 1.305856e-04 1.465288e-04 1.398879e-04 8.211743e-05 1.443371e-04 7.917938e-05 5.084215e-05 1.062273e-04 9.169649e-05 1.165732e-04 8.042813e-05 1.175608e-04
<GCONST> -1.212995e+02
<TRANSP> 3
 0.000000e+00 1.000000e+00 0.000000e+00
 0.000000e+00 8.742840e-01 1.257159e-01
 0.000000e+00 0.000000e+00 0.000000e+00
<ENDHMM>
~h "Tab0033"
<BEGINHMM>
<NUMSTATES> 3
<STATE> 2
<MEAN> 39
 -4.025185e+02 -5.386836e-01 1.040515e-01 1.025408e-01 3.228719e-01 5.206571e-01 3.452494e-01 1.730851e-01 1.142402e-01 9.733662e-02 1.274510e-01 3.629429e-01 5.855444e-01 3.354659e-01 1.064030e-01 -6.372015e-04 1.356851e-03 2.209002e-03 3.784953e-04 -9.922988e-04 -1.033645e-03 -1.204874e-03 -5.735336e-04 -1.507538e-04 -4.221488e-04 -2.818799e-04 -3.801508e-04 7.943116e-04 2.961593e-04 -1.178021e-04 2.621760e-04 6.792626e-04 6.542777e-04 5.949911e-04 4.939131e-04 -1.704426e-04 -5.377381e-04 -2.441109e-05 6.845396e-04
<VARIANCE> 39
 7.291326e+03 6.645883e+01 3.963479e+00 2.793454e-02 5.475723e-02 1.788741e-01 5.203683e-02 5.363078e-02 2.039138e-02 1.933756e-02 4.242599e-02 6.047061e-02 1.746164e-01 5.414923e-02 1.605780e-02 2.875471e-04 1.571820e-03 4.171880e-03 1.373030e-03 9.468042e-04 3.460566e-04 2.275120e-04 4.570217e-04 1.458323e-03 4.183074e-03 1.201462e-03 1.474248e-04 2.566870e-05 9.952371e-05 2.659315e-04 8.555147e-05 6.009635e-05 2.283222e-05 1.618992e-05 3.121777e-05 9.333495e-05 2.601385e-04 7.321333e-05 1.418452e-05
<GCONST> -1.531960e+02
<TRANSP> 3
 0.000000e+00 1.000000e+00 0.000000e+00
 0.000000e+00 8.681515e-01 1.318485e-01
 0.000000e+00 0.000000e+00 0.000000e+00
<ENDHMM>
~h "Tab0036"
<BEGINHMM>
<NUMSTATES> 3
<STATE> 2
<MEAN> 39
 -2.941170e+02 3.523356e-02 -3.085127e-02 4.531022e-01 1.454837e-01 1.524842e-01 2.606951e-01 2.266975e-01 1.780817e-01 2.123020e-01 1.969417e-01 2.240131e-01 2.610480e-01 5.376468e-01 7.576216e-01 2.180050e-04 5.128924e-05 -4.850735e-06 1.724252e-04 2.114495e-04 2.143746e-05 -1.077947e-04 -2.456285e-04 -2.153465e-04 -9.382573e-05 1.245173e-04 2.834953e-04 -2.051490e-04 2.290496e-05 1.578548e-06 -3.677925e-05 -9.348827e-06 2.264020e-04 4.193070e-04 1.979796e-04 4.378571e-05 2.165685e-05 -1.776571e-04 -4.034675e-04
<VARIANCE> 39
 2.007715e+03 3.972304e+01 1.800085e+00 4.443864e-02 9.269714e-03 2.574860e-02 8.700242e-02 8.879525e-02 2.370246e-02 3.144771e-02 2.041328e-02 6.659377e-02 6.559543e-02 4.156815e-02 1.225494e-01 1.616694e-03 1.511645e-04 1.135474e-03 3.640080e-03 3.712665e-03 1.116212e-03 1.517574e-03 8.901006e-04 2.802000e-03 2.432415e-03 1.006471e-03 5.814068e-03 8.381633e-05 5.542414e-06 7.192353e-05 2.206723e-04 2.253435e-04 6.904081e-05 9.145279e-05 5.500456e-05 1.717258e-04 1.433258e-04 4.570714e-05 3.292044e-04
<GCONST> -1.441137e+02
<TRANSP> 3
 0.000000e+00 1.000000e+00 0.000000e+00
 0.000000e+00 9.576877e-01 4.231222e-02
 0.000000e+00 0.000000e+00 0.000000e+00
<ENDHMM>
~h "Tab0040"
<BEGINHMM>
<NUMSTATES> 3
<STATE> 2
<MEAN> 39
 -3.519634e+02 4.810215e+00 3.037638e-01 4.573410e-01 6.133022e-01 3.822508e-01 2.129048e-01 2.822255e-01 3.951950e-01 4.565562e-01 4.382634e-01 4.946972e-01 4.141916e-01 3.153787e-01 3.041843e-01 1.696396e-03 -3.681475e-04 -1.350708e-03 -1.805327e-03 -2.671832e-03 -1.302686e-03 2.553734e-03 3.993773e-03 -9.351241e-04 -3.354806e-03 -6.647639e-04 5.870609e-04 -1.371122e-03 -2.163363e-03 -1.642790e-03 -1.436638e-03 -1.734491e-03 -2.438722e-03 -1.439000e-03 -1.639075e-03 -3.182802e-03 -2.607737e-03 -9.647309e-04 -2.691587e-04
<VARIANCE> 39
 1.255815e+04 3.132519e+02 1.978426e+01 5.102355e-02 1.335657e-01 4.916752e-02 2.496151e-02 4.217428e-02 7.095754e-02 1.104841e-01 5.457466e-02 9.770641e-02 7.712711e-02 9.643979e-02 1.113168e-01 1.670338e-03 4.001139e-03 1.452615e-03 6.928676e-04 1.427336e-03 2.217124e-03 3.311104e-03 1.717643e-03 3.569771e-03 2.575348e-03 1.327046e-03 1.271942e-03 8.125362e-05 2.051689e-04 7.731168e-05 3.547033e-05 7.594775e-05 1.362060e-04 2.131783e-04 9.817266e-05 1.851464e-04 1.314846e-04 6.881660e-05 5.971201e-05
<GCONST> -1.280782e+02
<TRANSP> 3
 0.000000e+00 1.000000e+00 0.000000e+00
 0.000000e+00 9.067094e-01 9.329054e-02
 0.000000e+00 0.000000e+00 0.000000e+00
<ENDHMM>
~h "Tab0042"
<BEGINHMM>
<NUMSTATES> 3
<STATE> 2
<MEAN> 39
 -2.825392e+02 -4.963303e-01 5.157705e-02 9.111182e-02 1.856925e-01 3.080615e-01 3.112233e-01 2.705247e-01 2.786063e-01 1.718522e-01 8.354620e-02 1.355316e-01 5.993421e-01 8.518183e-01 4.104232e-01 2.856147e-04 4.514657e-04 -6.930492e-05 -8.522652e-04 -9.873539e-04 -5.509724e-04 1.626419e-04 -2.234796e-04 -1.038460e-03 -4.066102e-04 2.359262e-04 1.060507e-04 1.976925e-04 4.971851e-05 1.082553e-04 2.957695e-04 3.310167e-04 3.757105e-04 4.013007e-04 4.340664e-04 3.967430e-04 -1.023858e-04 -2.460636e-04 1.285307e-04
<VARIANCE> 39
 1.418337e+04 5.869213e+01 4.397532e+00 1.090950e-02 4.395862e-02 8.100978e-02 6.552421e-02 4.173476e-02 3.602204e-02 1.724829e-02 8.310377e-03 2.492339e-02 3.821473e-02 6.381121e-02 3.120470e-02 1.179782e-04 2.089817e-04 3.073438e-04 3.976964e-04 5.237519e-04 7.506807e-04 4.143644e-04 1.659524e-04 1.839273e-04 2.023332e-04 2.929290e-04 1.347652e-04 8.171124e-06 1.323037e-05 1.908873e-05 2.222814e-05 3.066432e-05 4.535182e-05 2.776983e-05 1.499115e-05 1.446077e-05 1.209570e-05 1.623028e-05 9.438713e-06
<GCONST> -1.850355e+02
<TRANSP> 3
 0.000000e+00 1.000000e+00 0.000000e+00
 0.000000e+00 9.560224e-01 4.397760e-02
 0.000000e+00 0.000000e+00 0.000000e+00
<ENDHMM>
~h "Tab0045"
<BEGINHMM>
<NUMSTATES> 3
<STATE> 2
<MEAN> 39
 -4.657403e+02 -1.365355e+00 1.726747e-01 1.336603e-01 1.263955e-01 1.237223e-01 2.021222e-01 3.137294e-01 2.846045e-01 2.383813e-01 2.468922e-01 4.277644e-01 6.030933e-01 3.710748e-01 1.577164e-01 -3.508680e-04 -4.891363e-04 -6.518551e-04 3.407546e-05 8.014948e-04 5.443426e-04 -8.319624e-05 -1.075260e-03 -8.626455e-04 5.966082e-05 5.628667e-04 2.520969e-04 6.831572e-04 5.604003e-04 4.774984e-04 4.993704e-04 5.121661e-04 5.084139e-04 7.307798e-04 9.567107e-04 2.063306e-04 -8.157501e-04 -8.485110e-05 7.309827e-04
<VARIANCE> 39
 3.195988e+04 1.130673e+02 7.438947e+00 4.195268e-02 2.381121e-02 3.769677e-02 5.329459e-02 1.027253e-01 8.874085e-02 7.292993e-02 7.748113e-02 9.347218e-02 1.836608e-01 7.039148e-02 4.090723e-02 2.797257e-04 2.210464e-04 3.195473e-04 6.998521e-04 1.244014e-03 8.483578e-04 7.072254e-04 9.452492e-04 8.438296e-04 6.059900e-04 4.459382e-04 4.756441e-04 2.262880e-05 1.549906e-05 2.084617e-05 3.910807e-05 7.164187e-05 5.207900e-05 4.658073e-05 6.374328e-05 5.696930e-05 4.754566e-05 3.047930e-05 3.391511e-05
<GCONST> -1.560247e+02
<TRANSP> 3
 0.000000e+00 1.000000e+00 0.000000e+00
 0.000000e+00 8.638358e-01 1.361642e-01
 0.000000e+00 0.000000e+00 0.000000e+00
<ENDHMM>
~h "Tab0053"
<BEGINHMM>
<NUMSTATES> 3
<STATE> 2
<MEAN> 39
 -4.427204e+02 -7.464743e-01 -8.538679e-02 3.681589e-01 4.004528e-01 4.532281e-01 3.431750e-01 3.042553e-01 3.068874e-01 1.975359e-01 1.218221e-01 1.184388e-01 1.488845e-01 1.466942e-01 2.665806e-01 5.719156e-04 -6.094418e-04 -1.165105e-03 7.575506e-05 1.332108e-03 5.986107e-04 -8.821514e-05 -1.106709e-04 -2.478395e-04 -4.693650e-04 8.185254e-05 3.189684e-04 2.429308e-04 2.763819e-04 8.046807e-05 1.409662e-04 3.797045e-04 4.247849e-04 3.383408e-04 3.176169e-04 4.280079e-04 5.285961e-04 5.032750e-04 2.665321e-04
<VARIANCE> 39
 1.964308e+04 8.912162e+01 4.964321e+00 1.471633e-01 6.836639e-02 1.913709e-01 7.545814e-02 1.054756e-01 1.201338e-01 4.217641e-02 2.207767e-02 1.755248e-02 3.332326e-02 2.707081e-02 7.797671e-02 2.176221e-03 6.881928e-04 2.083886e-03 8.815722e-04 9.790856e-04 6.043853e-04 2.718928e-04 2.468485e-04 1.776316e-04 3.241365e-04 3.390607e-04 9.076345e-04 1.126619e-04 4.165572e-05 1.071700e-04 4.826362e-05 5.357066e-05 2.971339e-05 1.706599e-05 1.694885e-05 1.277411e-05 2.009921e-05 2.072173e-05 4.921414e-05
<GCONST> -1.585400e+02
<TRANSP> 3
 0.000000e+00 1.000000e+00 0.000000e+00
 0.000000e+00 9.333576e-01 6.664240e-02
 0.000000e+00 0.000000e+00 0.000000e+00
<ENDHMM>
~h "Tab0059"
<BEGINHMM>
<NUMSTATES> 3
<STATE> 2
<MEAN> 39
 -4.750283e+02 -1.135961e+00 8.835641e-02 2.590915e-01 3.273517e-01 2.057137e-01 9.202862e-02 7.961812e-02 4.195218e-02 2.943814e-02 2.793776e-01 6.297867e-01 5.074340e-01 2.290210e-01 2.047565e-01 6.953180e-05 -1.768455e-04 -1.479011e-04 3.017242e-05 7.314957e-05 -4.999361e-06 -1.460445e-04 -5.051156e-05 -9.038215e-05 -1.037354e-04 -9.015007e-05 2.056434e-05 2.257667e-05 3.694688e-05 1.074758e-04 1.501518e-04 1.252450e-04 8.881138e-05 7.742352e-05 5.941652e-05 -2.515897e-05 -4.317168e-05 4.434428e-05 1.294744e-04
<VARIANCE> 39
 7.555709e+03 1.940526e+02 1.210573e+01 3.049109e-02 1.804719e-01 5.507053e-02 4.741427e-03 8.386798e-03 2.825838e-03 1.339939e-03 6.227147e-02 1.563700e-01 1.131419e-01 3.552073e-02 2.820999e-02 1.857089e-05 8.141136e-05 2.743563e-05 1.865074e-05 3.153092e-05 1.240888e-05 2.707747e-05 4.879039e-05 1.617429e-05 3.841882e-05 4.293110e-05 1.574907e-04 1.223495e-06 5.588274e-06 1.959409e-06 1.882329e-06 2.612414e-06 1.000878e-06 1.793891e-06 2.812993e-06 1.165690e-06 2.906989e-06 2.662833e-06 9.220156e-06
<GCONST> -2.354441e+02
<TRANSP> 3
 0.000000e+00 1.000000e+00 0.000000e+00
 0.000000e+00 9.170253e-01 8.297463e-02
 0.000000e+00 0.000000e+00 0.000000e+00
<ENDHMM>
~h "Tab0060"
<BEGINHMM>
<NUMSTATES> 3
<STATE> 2
<MEAN> 39
 -3.703145e+02 2.727412e+00 -4.707165e-01 2.704157e-01 1.745682e-01 1.818354e-01 3.008578e-01 3.861259e-01 3.084523e-01 2.656454e-01 2.815430e-01 3.762945e-01 4.381942e-01 3.885930e-01 3.645689e-01 1.946754e-03 1.837162e-04 6.918154e-04 1.755746e-03 1.923892e-03 1.315614e-03 2.781672e-04 -4.277689e-04 -2.519142e-03 -4.498672e-03 -2.230902e-03 1.477720e-03 4.788628e-05 -8.954530e-05 -2.474126e-04 -8.507475e-04 -1.146631e-03 -1.166001e-03 -1.092772e-03 -9.653256e-04 -4.472861e-04 2.020046e-05 -8.117902e-06 -2.496203e-05
<VARIANCE> 39
 1.457908e+04 3.739462e+02 2.402584e+01 8.346596e-02 4.526509e-02 6.596509e-02 7.323948e-02 1.468429e-01 6.549576e-02 7.400252e-02 6.607649e-02 8.545554e-02 1.366127e-01 7.360696e-02 1.370774e-01 2.012055e-03 1.060018e-03 1.640688e-03 2.154195e-03 4.632164e-03 1.936122e-03 1.935655e-03 2.070841e-03 2.682579e-03 3.667607e-03 1.701823e-03 3.240284e-03 9.432888e-05 5.227129e-05 8.257893e-05 1.181498e-04 2.047376e-04 9.552810e-05 1.333507e-04 1.145332e-04 1.321613e-04 1.607413e-04 8.085874e-05 1.718014e-04
<GCONST> -1.219314e+02
<TRANSP> 3
 0.000000e+00 1.000000e+00 0.000000e+00
 0.000000e+00 7.643510e-01 2.356491e-01
 0.000000e+00 0.000000e+00 0.000000e+00
<ENDHMM>
~h "Tab0061"
<BEGINHMM>
<NUMSTATES> 3
<STATE> 2
<MEAN> 39
 -4.872090e+02 -1.405749e+00 5.266144e-01 1.724968e-01 2.250978e-01 1.818419e-01 2.864720e-01 4.762484e-01 3.055909e-01 1.464498e-01 1.481065e-01 4.365578e-01 7.403868e-01 4.475386e-01 1.867756e-01 1.249148e-04 1.445894e-03 1.372078e-03 -5.443222e-03 -1.307610e-02 -8.036273e-03 -4.836004e-04 5.457280e-04 6.121312e-03 1.166666e-02 6.104589e-03 -2.709030e-04 6.384377e-04 1.091033e-03 2.408275e-03 6.976048e-04 -1.533041e-03 -4.394255e-04 2.333006e-03 4.058173e-03 3.350039e-04 -3.163040e-03 -7.708218e-04 1.446629e-03
<VARIANCE> 39
 1.009569e+04 1.594084e+02 1.050942e+01 3.173131e-02 4.285417e-02 5.979702e-02 2.851012e-02 8.668564e-02 4.108525e-02 3.062944e-02 2.967095e-02 4.252230e-02 1.527673e-01 3.957614e-02 2.649353e-02 5.281309e-04 1.054086e-03 1.113085e-03 5.549280e-04 1.373154e-03 7.010723e-04 8.204618e-04 1.725253e-03 9.456658e-04 3.478392e-03 8.640101e-04 7.249536e-04 2.930731e-05 6.365701e-05 6.279205e-05 3.797240e-05 9.979813e-05 4.549916e-05 4.271476e-05 9.277544e-05 6.641661e-05 1.949668e-04 4.999034e-05 3.581722e-05
<GCONST> -1.489335e+02
<TRANSP> 3
 0.000000e+00 1.000000e+00 0.000000e+00
 0.000000e+00 8.765260e-01 1.234740e-01
 0.000000e+00 0.000000e+00 0.000000e+00
<ENDHMM>
~h "Tab0062"
<BEGINHMM>
<NUMSTATES> 3
<STATE> 2
<MEAN> 39
 -5.216409e+02 5.725799e-01 -6.780519e-02 3.170464e-01 3.538384e-01 4.213079e-01 4.734864e-01 5.229939e-01 3.460793e-01 1.942342e-01 1.925124e-01 1.596197e-01 1.377899e-01 1.720274e-01 2.700257e-01 -7.586962e-04 1.373103e-03 3.415212e-03 1.956528e-03 4.339843e-04 4.737343e-04 2.634499e-04 -3.273709e-04 -1.413436e-04 1.117766e-04 -6.577064e-05 -6.286189e-04 1.399007e-04 -3.522974e-04 -5.998387e-04 -8.996711e-04 -1.136439e-03 -8.369802e-04 -6.107666e-05 4.427489e-04 3.732838e-04 2.478638e-04 5.836379e-05 2.251996e-04
<VARIANCE> 39
 1.784845e+04 1.904724e+02 1.089632e+01 1.236448e-01 8.161043e-02 1.596980e-01 7.651258e-02 1.647433e-01 7.892278e-02 4.023049e-02 6.616054e-02 4.040771e-02 3.247686e-02 5.166859e-02 8.856963e-02 3.924466e-03 2.727106e-03 4.870770e-03 1.864591e-03 5.524128e-03 2.606248e-03 1.471640e-03 2.569170e-03 1.518898e-03 1.137391e-03 1.632166e-03 2.948037e-03 2.033059e-04 1.438985e-04 2.431911e-04 8.572987e-05 2.637786e-04 1.309448e-04 8.663607e-05 1.497122e-04 9.157237e-05 6.982141e-05 8.692892e-05 1.562643e-04
<GCONST> -1.217491e+02
<TRANSP> 3
 0.000000e+00 1.000000e+00 0.000000e+00
 0.000000e+00 9.187737e-01 8.122639e-02
 0.000000e+00 0.000000e+00 0.000000e+00
<ENDHMM>
~h "Tab0063"
<BEGINHMM>
<NUMSTATES> 3
<STATE> 2
<MEAN> 39
 -3.376254e+02 2.423012e+00 -1.197316e-01 3.518114e-01 2.957430e-01 2.359436e-01 2.741162e-01 3.182196e-01 3.522860e-01 3.679668e-01 3.423372e-01 3.456436e-01 3.301492e-01 3.477759e-01 3.747182e-01 3.024528e-03 4.376743e-03 2.550861e-03 2.069275e-03 1.879490e-03 2.303949e-04 9.691739e-05 2.487398e-03 2.883151e-03 1.237750e-03 2.280403e-03 2.948358e-03 -1.303379e-04 -1.651406e-04 -2.477808e-04 -3.472533e-04 -2.731740e-04 -9.581599e-05 -9.709346e-05 -2.235289e-04 -3.075525e-05 9.817004e-05 8.379087e-05 1.335639e-04
<VARIANCE> 39
 1.620868e+04 3.245183e+02 1.916811e+01 1.092628e-01 1.128092e-01 5.585119e-02 9.559291e-02 7.494641e-02 9.460363e-02 8.281437e-02 6.926955e-02 9.798836e-02 7.215197e-02 9.683242e-02 1.104500e-01 2.770971e-03 2.568106e-03 1.309427e-03 2.900830e-03 1.754357e-03 2.067424e-03 2.081383e-03 1.702000e-03 2.718571e-03 1.814498e-03 1.888810e-03 2.401895e-03 1.328066e-04 1.234879e-04 7.537856e-05 1.440455e-04 9.627727e-05 1.112050e-04 1.107271e-04 1.027316e-04 1.671562e-04 1.004022e-04 1.000382e-04 1.286936e-04
<GCONST> -1.220368e+02
<TRANSP> 3
 0.000000e+00 1.000000e+00 0.000000e+00
 0.000000e+00 7.151167e-01 2.848833e-01
 0.000000e+00 0.000000e+00 0.000000e+00
<ENDHMM>
~h "Tab0064"
<BEGINHMM>
<NUMSTATES> 3
<STATE> 2
<MEAN> 39
 -4.842099e+02 2.481179e+00 -2.248462e-01 3.998245e-01 4.185691e-01 4.711661e-01 4.320515e-01 4.157734e-01 3.221245e-01 3.796344e-01 4.939816e-01 3.806492e-01 2.903463e-01 3.300899e-01 4.318034e-01 -4.882839e-03 -3.990923e-03 -1.240621e-03 -2.300728e-03 -5.604594e-03 -1.310864e-03 1.956293e-03 -2.257335e-04 -1.097049e-03 -1.026331e-03 -2.499895e-03 -3.966223e-03 -3.244912e-04 -2.695106e-04 1.319832e-04 9.166518e-05 -1.289746e-04 9.533556e-06 -5.874948e-05 -4.205645e-04 -9.700298e-05 2.405830e-04 -1.804747e-04 -5.127832e-04
<VARIANCE> 39
 2.386698e+04 5.698079e+02 3.076241e+01 1.074473e-01 8.615062e-02 1.352337e-01 6.328547e-02 1.292979e-01 4.822318e-02 5.657409e-02 1.024192e-01 5.534584e-02 6.688003e-02 6.484122e-02 1.075536e-01 2.186295e-03 1.497291e-03 2.380350e-03 9.582454e-04 1.603654e-03 8.712943e-04 9.961927e-04 1.842671e-03 1.388348e-03 1.392970e-03 1.547579e-03 1.991317e-03 9.874600e-05 7.328859e-05 1.046898e-04 4.521096e-05 7.242721e-05 4.506297e-05 4.962928e-05 9.304382e-05 6.621143e-05 6.570609e-05 7.183963e-05 9.479714e-05
<GCONST> -1.315672e+02
<TRANSP> 3
 0.000000e+00 1.000000e+00 0.000000e+00
 0.000000e+00 8.760746e-01 1.239254e-01
 0.000000e+00 0.000000e+00 0.000000e+00
<ENDHMM>
~h "Tab0066"
<BEGINHMM>
<NUMSTATES> 3
<STATE> 2
<MEAN> 39
 -4.303599e+02 1.311565e+00 2.154510e-01 3.772917e-01 4.379078e-01 5.082743e-01 4.054739e-01 3.690398e-01 3.986576e-01 4.203219e-01 3.779660e-01 3.534464e-01 3.696851e-01 3.530666e-01 3.800576e-01 -2.985065e-04 2.632891e-04 7.369503e-05 -1.173477e-04 8.728819e-04 8.733372e-04 3.108401e-04 3.981861e-05 3.668558e-04 8.368496e-04 1.372607e-03 8.704665e-04 -6.854815e-04 -1.413428e-03 -1.086115e-03 -9.931653e-04 -1.151699e-03 -8.635103e-04 -5.751238e-04 -6.018999e-04 -1.062812e-03 -1.445074e-03 -8.415253e-04 9.882226e-05
<VARIANCE> 39
 2.888811e+04 3.763627e+02 1.929894e+01 1.005625e-01 7.988150e-02 1.365248e-01 6.412131e-02 9.669749e-02 8.532123e-02 8.698674e-02 8.713081e-02 7.179689e-02 9.112125e-02 7.102170e-02 1.074613e-01 2.326166e-03 1.686609e-03 3.491668e-03 1.588278e-03 2.520789e-03 1.852695e-03 2.131634e-03 2.222704e-03 1.972285e-03 2.556461e-03 1.806896e-03 3.008908e-03 1.161910e-04 8.202947e-05 1.656585e-04 7.689551e-05 1.203318e-04 9.826657e-05 1.112637e-04 1.170529e-04 1.054609e-04 1.324234e-04 9.395613e-05 1.369055e-04
<GCONST> -1.210259e+02
<TRANSP> 3
 0.000000e+00 1.000000e+00 0.000000e+00
 0.000000e+00 9.217436e-01 7.825642e-02
 0.000000e+00 0.000000e+00 0.000000e+00
<ENDHMM>
~h "Tab0068"
<BEGINHMM>
<NUMSTATES> 3
<STATE> 2
<MEAN> 39
 -3.485812e+02 -1.441555e+00 -1.726461e-01 1.914649e-01 2.829147e-01 2.126242e-01 1.466860e-01 1.775476e-01 3.036683e-01 4.556910e-01 5.493173e-01 6.780067e-01 4.573983e-01 1.666414e-01 1.102547e-01 -1.671681e-03 -2.970899e-03 -2.639287e-03 -1.602013e-03 -9.891733e-04 3.523832e-03 6.082447e-03 -1.458626e-03 -4.998376e-03 -4.969400e-03 -3.342122e-03 -9.541316e-04 2.014345e-03 1.304480e-03 2.171308e-04 -1.093055e-04 -1.889197e-05 -9.719835e-05 -1.048408e-04 -3.685695e-04 -9.466519e-04 -7.965527e-04 -4.033644e-05 9.698593e-04
<VARIANCE> 39
 9.020087e+03 1.172179e+02 7.681803e+00 4.565925e-02 1.150422e-01 5.229749e-02 1.474700e-02 3.005596e-02 8.719738e-02 1.225744e-01 4.540247e-02 1.426536e-01 6.171953e-02 3.624630e-02 1.881161e-02 9.928893e-04 1.894486e-03 9.042047e-04 3.970823e-04 6.715200e-04 1.883528e-03 3.146457e-03 1.390069e-03 2.931052e-03 1.521199e-03 4.181562e-04 3.278059e-04 5.804967e-05 9.380072e-05 4.552328e-05 2.245299e-05 4.033280e-05 1.009959e-04 1.454177e-04 8.224060e-05 1.398655e-04 7.356281e-05 2.078210e-05 2.106917e-05
<GCONST> -1.472871e+02
<TRANSP> 3
 0.000000e+00 1.000000e+00 0.000000e+00
 0.000000e+00 8.778249e-01 1.221751e-01
 0.000000e+00 0.000000e+00 0.000000e+00
<ENDHMM>
~h "Tab0072"
<BEGINHMM>
<NUMSTATES> 3
<STATE> 2
<MEAN> 39
 -3.283952e+02 -1.576881e+00 1.597431e-01 3.796383e-01 2.271244e-01 2.134267e-01 3.648543e-01 5.499572e-01 3.685085e-01 2.801459e-01 3.661204e-01 3.898190e-01 4.397068e-01 5.263215e-01 5.709311e-01 1.446799e-04 2.072245e-04 -1.109114e-04 -1.064097e-03 -1.400916e-03 -1.568190e-03 -1.373980e-03 -1.431664e-03 -1.415609e-03 -8.455493e-04 -9.098137e-05 -3.230739e-04 8.564131e-05 2.544114e-04 3.805422e-04 3.346905e-04 2.175828e-04 2.631170e-04 3.983136e-04 3.433986e-04 2.815962e-04 1.954590e-04 4.473540e-05 -9.220914e-05
<VARIANCE> 39
 1.282424e+04 4.647671e+01 2.553428e+00 6.735134e-02 3.419260e-02 3.368254e-02 3.980591e-02 1.234968e-01 3.989403e-02 3.770457e-02 1.090006e-01 6.369786e-02 1.249138e-01 5.357672e-02 1.179052e-01 3.851768e-04 2.631842e-04 1.495269e-04 2.996731e-04 5.538995e-04 3.008234e-04 2.295135e-04 3.664145e-04 2.420342e-04 1.698708e-04 2.410398e-04 5.671643e-04 2.396389e-05 1.800700e-05 1.109234e-05 1.787913e-05 3.484245e-05 1.756142e-05 1.339493e-05 2.194862e-05 1.438261e-05 1.166303e-05 1.455531e-05 4.124156e-05
<GCONST> -1.760265e+02
<TRANSP> 3
 0.000000e+00 1.000000e+00 0.000000e+00
 0.000000e+00 9.314727e-01 6.852729e-02
 0.000000e+00 0.000000e+00 0.000000e+00
<ENDHMM>
~h "Tab0074"
<BEGINHMM>
<NUMSTATES> 3
<STATE> 2
<MEAN> 39
 -3.446098e+02 -2.064640e+00 -1.103579e-01 5.285346e-01 6.728030e-01 4.220556e-01 1.418202e-01 1.139731e-01 1.799750e-01 3.218894e-01 3.557389e-01 2.814618e-01 2.007661e-01 2.584430e-01 3.699082e-01 -9.486178e-05 5.061750e-04 6.114516e-04 1.725950e-04 8.110184e-05 -1.301988e-03 -4.250768e-03 -3.156104e-03 7.118852e-04 1.179143e-03 -1.005805e-03 -7.351640e-04 -3.174371e-04 1.047138e-05 5.795378e-04 1.038870e-03 1.402113e-03 1.294300e-03 1.665713e-04 4.822917e-04 2.093032e-03 2.122110e-03 7.996058e-04 -3.503597e-04
<VARIANCE> 39
 1.130745e+04 1.316224e+02 8.465858e+00 3.764688e-02 1.390491e-01 4.656782e-02 1.346282e-02 9.763705e-03 2.612957e-02 7.701446e-02 7.240539e-02 5.187116e-02 2.862272e-02 7.100666e-02 1.433758e-01 4.412136e-04 2.973634e-04 3.461027e-04 2.722151e-04 3.638449e-04 5.184022e-04 6.474520e-04 7.292518e-04 1.180310e-03 1.004201e-03 4.594748e-04 6.031338e-04 2.592314e-05 2.161671e-05 2.221710e-05 1.745835e-05 2.762147e-05 3.254057e-05 3.678609e-05 4.236023e-05 6.993526e-05 5.865841e-05 2.501615e-05 4.358506e-05
<GCONST> -1.640125e+02
<TRANSP> 3
 0.000000e+00 1.000000e+00 0.000000e+00
 0.000000e+00 8.501558e-01 1.498442e-01
 0.000000e+00 0.000000e+00 0.000000e+00
<ENDHMM>
~h "Tab0075"
<BEGINHMM>
<NUMSTATES> 3
<STATE> 2
<MEAN> 39
 -5.006084e+02 -6.876897e-01 2.927577e-02 5.145358e-02 8.158826e-02 8.315022e-02 7.382083e-02 6.792317e-02 1.433855e-01 2.558046e-01 4.618303e-01 5.646268e-01 3.334534e-01 1.545838e-01 8.203837e-02 3.511209e-04 3.783094e-04 4.897375e-04 4.045669e-04 1.665096e-04 -1.339696e-03 -2.128092e-03 1.538480e-03 5.104690e-03 1.853798e-03 -6.011276e-04 -6.537052e-05 3.404745e-04 4.575969e-04 4.248193e-04 3.559429e-04 4.243620e-04 4.428646e-04 2.863523e-04 -2.911360e-05 -1.295572e-04 7.116501e-05 2.386832e-04 3.347548e-04
<VARIANCE> 39
 2.036352e+04 4.909510e+01 3.062965e+00 4.238800e-03 1.640296e-02 1.175729e-02 5.429642e-03 5.690532e-03 3.121241e-02 9.120227e-02 1.370878e-01 2.103035e-01 7.743986e-02 5.355363e-02 1.436819e-02 3.742787e-05 1.234908e-04 8.987770e-05 5.934837e-05 8.381369e-05 5.068094e-04 1.483266e-03 5.980601e-04 1.075356e-03 4.151640e-04 8.662120e-04 2.325587e-04 3.766322e-06 8.458048e-06 6.383120e-06 4.769339e-06 7.523141e-06 3.186200e-05 9.474800e-05 3.218793e-05 5.863091e-05 2.573776e-05 4.531210e-05 1.103669e-05
<GCONST> -1.879898e+02
<TRANSP> 3
 0.000000e+00 1.000000e+00 0.000000e+00
 0.000000e+00 9.422340e-01 5.776603e-02
 0.000000e+00 0.000000e+00 0.000000e+00
<ENDHMM>
~h "Tab0079"
<BEGINHMM>
<NUMSTATES> 3
<STATE> 2
<MEAN> 39
 -4.402591e+02 2.917807e+00 -3.915758e-01 5.254295e-01 3.594498e-01 1.953577e-01 2.110034e-01 3.036248e-01 3.328076e-01 3.301007e-01 3.593906e-01 3.787311e-01 3.563658e-01 3.266176e-01 4.226752e-01 -4.578349e-04 6.575440e-05 2.335780e-04 -1.015420e-03 -2.481067e-03 -4.607583e-04 2.492080e-03 3.430924e-03 3.066087e-03 9.791934e-04 -8.341912e-04 -1.039629e-03 -1.530019e-03 -1.107820e-03 -1.137101e-04 -3.266638e-04 -5.223313e-04 -4.933941e-04 -7.016198e-04 -1.177439e-03 -9.003711e-04 -3.202254e-04 -5.992920e-04 -8.221561e-04
<VARIANCE> 39
 3.788631e+04 3.648713e+02 2.245822e+01 1.538213e-01 7.379256e-02 6.263237e-02 4.713799e-02 9.145346e-02 1.048751e-01 7.719523e-02 1.165663e-01 8.988079e-02 1.156490e-01 7.537813e-02 9.385815e-02 3.521481e-03 1.766368e-03 1.422324e-03 1.124811e-03 2.523024e-03 2.474841e-03 1.673352e-03 3.456081e-03 2.655923e-03 3.041231e-03 2.171147e-03 2.468739e-03 1.466565e-04 8.443538e-05 6.807412e-05 5.364066e-05 1.158982e-04 1.022838e-04 8.029146e-05 1.669681e-04 1.425603e-04 1.438520e-04 1.107636e-04 1.172407e-04
<GCONST> -1.210639e+02
<TRANSP> 3
 0.000000e+00 1.000000e+00 0.000000e+00
 0.000000e+00 8.043628e-01 1.956373e-01
 0.000000e+00 0.000000e+00 0.000000e+00
<ENDHMM>
~h "Tab0084"
<BEGINHMM>
<NUMSTATES> 3
<STATE> 2
<MEAN> 39
 -4.331387e+02 -8.304118e-01 4.267192e-02 2.642691e-01 2.430174e-01 2.806798e-01 2.876566e-01 2.900637e-01 4.270608e-01 5.605820e-01 3.523650e-01 1.711878e-01 1.622926e-01 2.529030e-01 3.333354e-01 -2.020939e-03 -2.163925e-03 -1.834642e-03 -2.366800e-03 -3.914575e-03 -8.871991e-04 3.827410e-03 2.003020e-03 -1.034390e-03 -1.786866e-04 9.652593e-04 -5.156460e-05 3.865664e-04 1.133542e-03 1.669233e-03 1.186693e-03 5.991007e-04 -8.414384e-04 -1.672707e-03 -1.417516e-04 8.776622e-04 6.959159e-04 2.441986e-04 -1.805523e-04
<VARIANCE> 39
 2.377305e+04 2.357558e+02 1.430338e+01 5.715914e-02 6.761578e-02 7.291710e-02 8.721373e-02 7.980380e-02 7.078777e-02 1.603198e-01 5.357230e-02 3.347954e-02 3.213211e-02 5.140299e-02 1.477382e-01 6.818440e-04 7.319924e-04 9.529763e-04 2.170274e-03 1.398779e-03 1.231231e-03 1.761390e-03 9.265480e-04 5.727535e-04 4.243345e-04 3.555526e-04 1.160915e-03 4.042492e-05 4.986643e-05 7.827709e-05 1.316654e-04 9.380715e-05 7.775297e-05 1.059378e-04 5.865169e-05 5.202617e-05 3.889764e-05 2.230358e-05 8.083262e-05
<GCONST> -1.427106e+02
<TRANSP> 3
 0.000000e+00 1.000000e+00 0.000000e+00
 0.000000e+00 6.126853e-01 3.873147e-01
 0.000000e+00 0.000000e+00 0.000000e+00
<ENDHMM>
~h "Tab0085"
<BEGINHMM>
<NUMSTATES> 3
<STATE> 2
<MEAN> 39
 -3.111549e+02 -8.482941e-01 2.664545e-01 4.160225e-01 2.333285e-01 3.644325e-01 2.709077e-01 2.062241e-01 3.226032e-01 4.508347e-01 4.069405e-01 2.620909e-01 2.235220e-01 5.298998e-01 7.616858e-01 1.717519e-04 4.299663e-04 3.074156e-04 -3.724025e-04 -7.280958e-04 -5.737639e-04 4.652275e-04 7.137692e-04 -1.242259e-04 -9.395856e-04 -5.703919e-04 1.103077e-04 -7.010001e-05 3.879300e-04 4.798130e-04 6.353959e-04 6.222076e-04 5.278928e-04 4.966299e-04 3.766626e-04 5.047522e-04 5.842936e-04 1.522406e-04 -3.351772e-04
<VARIANCE> 39
 1.216156e+04 2.026706e+02 1.111856e+01 4.741576e-02 1.672670e-02 5.846644e-02 1.819535e-02 4.399602e-02 5.676638e-02 8.181437e-02 6.547681e-02 4.689898e-02 5.583289e-02 5.906098e-02 1.134410e-01 2.426121e-04 1.093168e-04 2.065289e-04 1.811953e-04 3.546353e-04 8.272294e-04 1.376010e-03 1.192188e-03 8.560860e-04 3.716310e-04 2.878937e-04 4.574142e-04 1.573739e-05 7.586338e-06 1.694236e-05 1.234875e-05 2.022938e-05 3.993218e-05 7.267510e-05 6.720646e-05 4.844659e-05 2.546537e-05 1.822946e-05 2.883629e-05
<GCONST> -1.681567e+02
<TRANSP> 3
 0.000000e+00 1.000000e+00 0.000000e+00
 0.000000e+00 9.280280e-01 7.197200e-02
 0.000000e+00 0.000000e+00 0.000000e+00
<ENDHMM>
~h "Tab0086"
<BEGINHMM>
<NUMSTATES> 3
<STATE> 2
<MEAN> 39
 -3.332781e+02 1.720585e+00 -3.274710e-01 3.586194e-01 1.576329e-01 1.760229e-01 2.647089e-01 2.784773e-01 2.626030e-01 3.077379e-01 3.012077e-01 3.083398e-01 3.193516e-01 4.615183e-01 5.871313e-01 -2.604392e-04 -6.136473e-04 -9.325561e-04 -1.784799e-04 9.784929e-04 1.441096e-03 1.597332e-03 1.174548e-03 1.625707e-03 3.226555e-03 1.955286e-03 -2.019643e-05 -1.105345e-04 1.601639e-04 2.171884e-04 -3.222559e-05 -3.151995e-04 -5.236728e-04 -6.200848e-04 -4.196398e-04 -3.265061e-04 -2.928303e-04 -3.658934e-04 -3.463008e-04
<VARIANCE> 39
 1.165317e+04 2.510224e+02 1.486029e+01 6.836862e-02 2.426003e-02 4.846364e-02 7.316699e-02 1.051197e-01 5.247091e-02 7.953329e-02 7.288113e-02 8.801150e-02 8.764179e-02 6.265323e-02 1.639611e-01 1.783584e-03 5.375416e-04 1.415794e-03 2.704179e-03 3.651336e-03 1.609047e-03 2.208538e-03 1.869195e-03 2.780018e-03 2.818616e-03 1.470782e-03 4.888339e-03 8.546724e-05 2.426540e-05 7.840019e-05 1.544215e-04 1.940873e-04 8.766350e-05 1.251836e-04 9.999068e-05 1.550734e-04 1.511404e-04 6.803653e-05 2.627951e-04
<GCONST> -1.266627e+02
<TRANSP> 3
 0.000000e+00 1.000000e+00 0.000000e+00
 0.000000e+00 9.234447e-01 7.655527e-02
 0.000000e+00 0.000000e+00 0.000000e+00
<ENDHMM>
~h "Tab0087"
<BEGINHMM>
<NUMSTATES> 3
<STATE> 2
<MEAN> 39
 -6.156927e+02 -1.623717e+00 1.598406e-01 4.642980e-02 9.707015e-02 1.710958e-01 2.428499e-01 1.928724e-01 1.867915e-01 2.182395e-01 1.133881e-01 3.174343e-02 3.216671e-02 3.636178e-02 2.401002e-02 -3.604445e-04 -4.587938e-04 -1.045409e-04 -1.849911e-04 -4.931319e-04 -4.881516e-04 -4.490102e-04 -5.956894e-04 -7.519957e-04 -8.352780e-04 -9.627105e-04 -6.652279e-04 9.349792e-05 1.053281e-04 7.010207e-05 3.807921e-05 6.426599e-05 5.414554e-05 2.897808e-05 4.043000e-05 6.982662e-05 7.132871e-05 8.103027e-05 8.664229e-05
<VARIANCE> 39
 1.301639e+04 1.183256e+01 8.311586e-01 1.492135e-02 5.993746e-02 7.197192e-02 1.501013e-01 8.005412e-02 7.787643e-02 1.433263e-01 3.862271e-02 3.347699e-03 2.527786e-03 3.558567e-03 1.798458e-03 7.738464e-06 8.846054e-06 8.173934e-06 6.020874e-06 1.857626e-05 2.376481e-05 1.313630e-05 9.380564e-06 1.494851e-05 1.410834e-05 2.224692e-05 1.019213e-05 8.629509e-07 1.459610e-06 6.267239e-07 6.829925e-07 1.666815e-06 2.303936e-06 1.089963e-06 6.122678e-07 8.612005e-07 8.847452e-07 1.451312e-06 7.287744e-07
<GCONST> -2.636866e+02
<TRANSP> 3
 0.000000e+00 1.000000e+00 0.000000e+00
 0.000000e+00 9.790992e-01 2.090080e-02
 0.000000e+00 0.000000e+00 0.000000e+00
<ENDHMM>
~h "Tab0088"
<BEGINHMM>
<NUMSTATES> 3
<STATE> 2
<MEAN> 39
 -5.421151e+02 -2.367557e+00 4.398164e-01 1.559427e-01 3.270882e-02 3.507820e-02 5.667093e-02 5.781903e-02 5.136484e-02 7.677940e-02 1.724948e-01 3.362574e-01 3.274733e-01 2.539977e-01 2.778014e-01 -3.216541e-05 -2.731187e-04 -2.271332e-04 -2.899257e-04 -5.151408e-04 -7.806111e-04 -1.478224e-03 -1.833306e-03 -1.487838e-03 -1.464342e-03 -9.415079e-04 -1.648805e-04 1.497200e-04 2.637724e-04 2.901172e-04 2.579976e-04 3.189947e-04 3.589438e-04 4.448833e-04 4.033256e-04 1.954173e-04 2.657642e-04 2.606753e-04 1.666128e-04
<VARIANCE> 39
 1.250522e+04 7.854799e+01 4.672937e+00 4.837438e-02 4.441265e-03 4.669738e-03 9.967837e-03 2.069982e-02 1.029201e-02 1.907782e-02 5.651858e-02 1.537899e-01 1.518591e-01 6.013514e-02 1.509406e-01 6.931047e-05 2.554077e-05 6.295284e-05 1.794154e-04 1.571643e-04 5.902226e-05 1.204610e-04 8.825560e-05 1.031466e-04 1.078129e-04 6.721239e-05 2.091093e-04 5.720124e-06 2.319175e-06 3.609450e-06 6.249657e-06 9.456972e-06 5.151388e-06 9.879454e-06 8.981412e-06 9.141037e-06 9.817502e-06 4.916570e-06 1.753001e-05
<GCONST> -2.096104e+02
<TRANSP> 3
 0.000000e+00 1.000000e+00 0.000000e+00
 0.000000e+00 9.116898e-01 8.831026e-02
 0.000000e+00 0.000000e+00 0.000000e+00
<ENDHMM>
~h "Tab0090"
<BEGINHMM>
<NUMSTATES> 3
<STATE> 2
<MEAN> 39
 -4.736392e+02 -1.899809e+00 4.707509e-01 5.984282e-01 3.030285e-01 9.671644e-02 1.663523e-01 2.630803e-01 1.879463e-01 1.232575e-01 1.172942e-01 9.404714e-02 9.886809e-02 2.376596e-01 5.596805e-01 -8.852689e-04 -4.581206e-05 -4.407206e-04 9.252033e-04 1.497951e-03 -1.787345e-04 -8.387432e-04 -3.502499e-04 -3.161790e-04 -5.660882e-04 -8.415398e-04 -1.381236e-03 -2.131487e-04 2.485601e-04 4.867523e-04 3.631350e-04 1.643483e-04 3.549089e-04 6.802470e-04 6.901835e-04 4.604116e-04 4.099223e-04 2.873780e-04 -1.202754e-04
<VARIANCE> 39
 9.534922e+03 1.292189e+02 8.647745e+00 1.459397e-01 7.225849e-02 2.926674e-02 3.873179e-02 1.488500e-01 5.423416e-02 3.388168e-02 1.786469e-02 1.374552e-02 2.546767e-02 5.992819e-02 9.080160e-02 4.701468e-04 4.451151e-04 4.597031e-04 2.605894e-04 5.515423e-04 3.160890e-04 4.976242e-04 2.055403e-04 1.713599e-04 3.604059e-04 3.504522e-04 1.111171e-03 3.297861e-05 2.861204e-05 3.290770e-05 1.718386e-05 3.130341e-05 1.790871e-05 3.294390e-05 1.744281e-05 1.339674e-05 2.515639e-05 2.181480e-05 6.809608e-05
<GCONST> -1.700019e+02
<TRANSP> 3
 0.000000e+00 1.000000e+00 0.000000e+00
 0.000000e+00 8.780638e-01 1.219363e-01
 0.000000e+00 0.000000e+00 0.000000e+00
<ENDHMM>
~h "Tab0097"
<BEGINHMM>
<NUMSTATES> 3
<STATE> 2
<MEAN> 39
 -5.097482e+02 -1.045619e+00 3.386011e-01 1.767271e-01 1.318237e-01 8.657005e-02 4.032007e-02 9.717813e-02 4.252922e-01 6.939476e-01 4.724420e-01 1.872846e-01 1.965104e-01 3.165248e-01 3.203635e-01 -2.489297e-04 -1.207011e-03 -6.029309e-04 -4.697156e-05 1.088459e-03 1.277115e-03 -1.365745e-03 -1.671218e-03 -1.571029e-04 7.434902e-04 2.562898e-03 2.239084e-03 1.583125e-04 1.741350e-04 1.044654e-04 6.359760e-05 9.425238e-05 8.637278e-05 7.191525e-05 8.832882e-05 6.346309e-05 1.035142e-04 9.662081e-05 3.150629e-05
<VARIANCE> 39
 6.897686e+03 2.307738e+02 1.492212e+01 3.265868e-02 8.118770e-03 3.200708e-03 1.589599e-03 2.058418e-02 8.347227e-02 9.769433e-02 8.884357e-02 7.232117e-02 5.842568e-02 9.846178e-02 1.439366e-01 3.966320e-04 1.341592e-04 4.697053e-05 1.720417e-05 2.037293e-04 9.811929e-04 1.331236e-03 6.754926e-04 1.288300e-03 4.297640e-04 6.952533e-04 1.216565e-03 1.875593e-05 6.707498e-06 2.522242e-06 8.246634e-07 8.959353e-06 3.921283e-05 6.255994e-05 3.550388e-05 5.315776e-05 2.307914e-05 3.094902e-05 5.110517e-05
<GCONST> -1.801951e+02
<TRANSP> 3
 0.000000e+00 1.000000e+00 0.000000e+00
 0.000000e+00 9.618794e-01 3.812053e-02
 0.000000e+00 0.000000e+00 0.000000e+00
<ENDHMM>
~h "Tab0098"
<BEGINHMM>
<NUMSTATES> 3
<STATE> 2
<MEAN> 39
 -7.212753e+02 -2.706244e-01 4.216930e-02 9.716150e-02 5.243380e-02 2.115412e-02 1.391666e-02 9.370232e-03 7.368334e-03 1.830466e-02 3.064553e-02 2.050662e-02 1.137140e-02 2.726780e-02 7.768151e-02 -2.050187e-05 5.006052e-05 7.522140e-06 -2.721311e-05 -1.842271e-06 -2.121815e-06 -4.977069e-05 -7.008728e-05 -1.386691e-04 -1.604165e-04 -4.745408e-05 -5.785785e-05 -9.905903e-06 3.387373e-05 7.764803e-05 5.634778e-05 5.332810e-05 4.891508e-05 4.026351e-05 4.912337e-05 6.574770e-05 7.287801e-05 7.363850e-05 4.098261e-05
<VARIANCE> 39
 1.673896e+04 6.002903e+00 3.452336e-01 7.900634e-02 2.569506e-02 1.111760e-02 3.425757e-03 1.360963e-03 9.270209e-04 5.078529e-03 1.784627e-02 6.825869e-03 1.861603e-03 9.351605e-03 5.234570e-02 7.947160e-06 1.137853e-05 8.173934e-06 6.020874e-06 9.842092e-06 7.769793e-06 7.680384e-06 9.924008e-06 7.848591e-06 9.182538e-06 1.498534e-05 1.216909e-05 7.600553e-07 6.824917e-07 6.924085e-07 3.326209e-07 5.388900e-07 4.357443e-07 6.044901e-07 1.140469e-06 7.232252e-07 8.456089e-07 1.324651e-06 8.789619e-07
<GCONST> -2.853337e+02
<TRANSP> 3
 0.000000e+00 1.000000e+00 0.000000e+00
 0.000000e+00 9.778665e-01 2.213354e-02
 0.000000e+00 0.000000e+00 0.000000e+00
<ENDHMM>
~h "Tab0100"
<BEGINHMM>
<NUMSTATES> 3
<STATE> 2
<MEAN> 39
 -3.617936e+02 1.999229e+00 -2.378727e-01 9.617934e-02 3.141542e-01 5.365850e-01 3.488840e-01 1.785966e-01 3.129608e-01 5.414767e-01 5.231692e-01 3.268885e-01 2.382443e-01 1.669551e-01 1.182520e-01 8.939636e-04 -7.969938e-04 -2.585125e-03 -7.800239e-04 2.158293e-03 3.198717e-03 3.361566e-03 2.647360e-03 1.816295e-03 1.472583e-03 1.566794e-03 1.621704e-03 2.200307e-04 -2.844524e-04 -5.966742e-04 -1.861587e-04 2.515162e-04 1.906911e-04 -3.261680e-04 -6.042470e-04 -3.094664e-04 1.475233e-04 3.694711e-04 4.943520e-04
<VARIANCE> 39
 1.221756e+04 2.826505e+02 1.764855e+01 1.734384e-02 4.950270e-02 1.711672e-01 5.777247e-02 3.439629e-02 6.755705e-02 1.107346e-01 1.455208e-01 5.430290e-02 7.101265e-02 2.839296e-02 2.472277e-02 1.909377e-04 7.306582e-04 2.533103e-03 9.213981e-04 7.656456e-04 1.696544e-03 1.887507e-03 2.330326e-03 1.295181e-03 8.627423e-04 3.134640e-04 3.039076e-04 1.173933e-05 3.395267e-05 1.108652e-04 4.410563e-05 3.908864e-05 7.814860e-05 8.423450e-05 1.025545e-04 6.189072e-05 4.537161e-05 1.654718e-05 1.980633e-05
<GCONST> -1.500810e+02
<TRANSP> 3
 0.000000e+00 1.000000e+00 0.000000e+00
 0.000000e+00 8.799282e-01 1.200718e-01
 0.000000e+00 0.000000e+00 0.000000e+00
<ENDHMM>
~h "Tab0101"
<BEGINHMM>
<NUMSTATES> 3
<STATE> 2
<MEAN> 39
 -4.076240e+02 -1.242490e+00 1.467468e-01 4.687456e-01 2.873128e-01 1.136031e-01 2.143028e-01 4.223949e-01 3.943205e-01 2.605249e-01 2.164119e-01 2.406482e-01 3.207833e-01 2.369666e-01 3.367450e-01 -8.360343e-05 8.184806e-05 4.731506e-05 -3.332068e-05 -1.105446e-04 -2.443382e-05 -6.342256e-04 -1.312664e-03 -7.652455e-04 -2.404832e-04 -1.271035e-04 -1.282200e-04 -4.344338e-05 1.257693e-04 2.857879e-04 1.289981e-04 1.744363e-05 1.113421e-04 2.930063e-04 3.441501e-04 3.069293e-04 2.265197e-04 2.488123e-04 1.265455e-04
<VARIANCE> 39
 2.217664e+04 4.121328e+01 2.421727e+00 1.741073e-01 4.263757e-02 3.007929e-02 3.192397e-02 1.148826e-01 1.158232e-01 6.373022e-02 5.261160e-02 4.133756e-02 1.257158e-01 5.935321e-02 6.631574e-02 7.206580e-05 3.266655e-05 3.703387e-05 6.213244e-05 9.677466e-05 5.449963e-05 5.007295e-05 1.040061e-04 1.106052e-04 4.913310e-05 3.851623e-05 7.691832e-05 5.559455e-06 2.488051e-06 3.791965e-06 5.356837e-06 7.763992e-06 5.023559e-06 3.961956e-06 5.986369e-06 7.230274e-06 3.357217e-06 3.241831e-06 5.891422e-06
<GCONST> -2.101162e+02
<TRANSP> 3
 0.000000e+00 1.000000e+00 0.000000e+00
 0.000000e+00 8.483375e-01 1.516625e-01
 0.000000e+00 0.000000e+00 0.000000e+00
<ENDHMM>
~h "Tab0102"
<BEGINHMM>
<NUMSTATES> 3
<STATE> 2
<MEAN> 39
 -5.141080e+02 -8.783101e-01 1.220785e-01 3.304178e-02 8.969826e-02 1.422760e-01 1.028103e-01 5.145663e-02 6.113914e-02 1.266073e-01 1.465588e-01 9.475023e-02 7.880498e-02 6.720185e-02 4.128583e-02 -2.540488e-04 -1.234205e-04 2.495098e-05 9.490844e-05 -1.901673e-04 -8.938876e-04 -1.258967e-03 -5.486837e-04 -4.719676e-04 -6.692848e-04 -1.805829e-04 -1.056701e-04 9.491575e-05 4.719966e-05 -1.124458e-05 6.671903e-05 1.627458e-04 2.411582e-04 2.026536e-04 1.237368e-04 1.806942e-04 1.680019e-04 1.062522e-04 8.493572e-05
<VARIANCE> 39
 8.805701e+03 1.306216e+01 5.917754e-01 9.008437e-03 3.744456e-02 8.650915e-02 4.891385e-02 1.997015e-02 1.857016e-02 6.995412e-02 1.006693e-01 3.671667e-02 3.656407e-02 2.720547e-02 1.144680e-02 3.469377e-05 2.746162e-05 4.451632e-05 2.556772e-05 1.882940e-05 2.639036e-05 6.514542e-05 1.356266e-05 4.366580e-05 3.560263e-05 1.281859e-05 1.845496e-05 1.464238e-06 1.613654e-06 1.921265e-06 1.509125e-06 1.427316e-06 1.878401e-06 4.330261e-06 1.258849e-06 2.727257e-06 1.792648e-06 7.805794e-07 9.903966e-07
<GCONST> -2.441295e+02
<TRANSP> 3
 0.000000e+00 1.000000e+00 0.000000e+00
 0.000000e+00 9.564696e-01 4.353041e-02
 0.000000e+00 0.000000e+00 0.000000e+00
<ENDHMM>
~h "Tab0104"
<BEGINHMM>
<NUMSTATES> 3
<STATE> 2
<MEAN> 39
 -4.431403e+02 1.277204e+00 -3.867911e-01 3.148853e-01 3.022561e-01 3.367331e-01 3.365180e-01 3.493551e-01 2.435244e-01 2.428012e-01 3.302178e-01 2.726892e-01 2.294586e-01 2.226599e-01 2.983940e-01 1.195643e-04 4.630307e-04 1.448716e-03 9.751075e-04 3.785000e-04 -2.739046e-04 -8.843467e-05 5.869924e-04 4.898009e-04 3.142096e-04 2.762736e-04 -1.010515e-03 -1.475387e-04 -1.614688e-04 -1.143180e-04 -4.063223e-04 -5.582325e-04 -1.649270e-04 -7.042480e-05 -1.667023e-04 -1.561992e-04 -2.457024e-04 -1.377099e-04 -3.509329e-05
<VARIANCE> 39
 1.208071e+04 3.315066e+02 1.993842e+01 1.490472e-01 6.500106e-02 1.502888e-01 6.626984e-02 1.477838e-01 6.365812e-02 4.965598e-02 1.305701e-01 4.800874e-02 7.774650e-02 4.460654e-02 6.674947e-02 4.439613e-03 1.395018e-03 4.180325e-03 1.762826e-03 4.226208e-03 1.901451e-03 1.573956e-03 3.740400e-03 1.199143e-03 2.329709e-03 1.139005e-03 1.893822e-03 2.238658e-04 6.619794e-05 2.181938e-04 9.301525e-05 2.093154e-04 9.445126e-05 8.792229e-05 2.009624e-04 6.305751e-05 1.352279e-04 6.274588e-05 9.885220e-05
<GCONST> -1.227138e+02
<TRANSP> 3
 0.000000e+00 1.000000e+00 0.000000e+00
 0.000000e+00 9.292640e-01 7.073595e-02
 0.000000e+00 0.000000e+00 0.000000e+00
<ENDHMM>
~h "Tab0106"
<BEGINHMM>
<NUMSTATES> 3
<STATE> 2
<MEAN> 39
 -4.723482e+02 -1.383612e-01 1.928587e-02 5.222409e-01 1.129548e-01 1.130795e-01 5.042645e-01 8.143229e-01 4.389225e-01 1.038604e-01 1.052782e-01 1.494503e-01 1.578114e-01 5.079256e-01 9.181384e-01 -2.447717e-04 -2.698312e-05 1.345389e-05 2.560674e-04 3.651680e-04 1.205149e-04 -7.772770e-05 -8.926998e-05 -1.276097e-04 -1.788663e-04 -3.141503e-04 -4.134277e-04 3.133558e-05 7.739542e-05 6.237644e-05 3.684205e-05 -1.761328e-05 1.845230e-05 4.776054e-05 3.480972e-05 4.430749e-05 5.426495e-05 2.254819e-05 -1.616246e-05
<VARIANCE> 39
 8.216870e+02 2.797669e+01 1.879356e+00 1.723551e-02 9.760809e-03 3.630906e-03 1.713780e-02 3.653403e-02 1.287162e-02 1.363671e-02 3.956799e-03 6.326227e-03 1.895629e-02 1.526907e-02 2.887592e-02 2.354223e-04 4.117343e-05 1.048495e-04 6.582385e-04 1.054794e-03 3.643944e-04 1.571633e-04 4.282736e-05 8.635470e-05 1.381874e-04 3.493437e-04 6.643878e-04 1.476736e-05 2.601460e-06 6.738216e-06 4.671917e-05 7.270888e-05 2.341989e-05 9.115739e-06 2.494357e-06 4.913563e-06 7.768579e-06 2.306809e-05 4.382962e-05
<GCONST> -2.075788e+02
<TRANSP> 3
 0.000000e+00 1.000000e+00 0.000000e+00
 0.000000e+00 9.156385e-01 8.436146e-02
 0.000000e+00 0.000000e+00 0.000000e+00
<ENDHMM>
~h "Tab0111"
<BEGINHMM>
<NUMSTATES> 3
<STATE> 2
<MEAN> 39
 -3.721572e+02 -9.822276e-01 2.558686e-01 6.741408e-02 1.503522e-01 2.238259e-01 1.990271e-01 1.969771e-01 2.329970e-01 3.149213e-01 3.495846e-01 5.084872e-01 5.939810e-01 3.003584e-01 7.799264e-02 3.520417e-04 7.055836e-04 5.245802e-04 4.474336e-04 5.219504e-04 5.126542e-04 -1.139116e-03 -2.047185e-03 -9.810731e-04 1.664401e-03 1.347789e-03 2.699978e-04 2.920523e-04 2.457741e-04 1.327731e-04 3.150697e-04 4.628397e-04 4.828814e-04 3.924310e-04 5.747356e-04 4.175718e-04 1.087162e-04 1.643249e-04 3.103362e-04
<VARIANCE> 39
 1.883880e+04 1.096015e+02 8.247355e+00 1.258434e-02 3.553623e-02 9.064904e-02 3.278949e-02 3.240125e-02 4.421840e-02 1.473958e-01 8.631857e-02 1.058708e-01 1.392447e-01 5.636197e-02 9.096163e-03 5.984269e-05 6.562674e-05 1.550403e-04 1.351599e-04 2.502488e-04 1.915997e-04 1.596557e-04 2.258050e-04 2.458814e-04 3.624193e-04 2.114374e-04 7.284257e-05 4.184477e-06 5.246835e-06 1.416139e-05 1.009435e-05 1.710446e-05 1.451823e-05 1.341580e-05 1.914771e-05 1.859784e-05 2.262201e-05 1.369274e-05 4.945808e-06
<GCONST> -1.895725e+02
<TRANSP> 3
 0.000000e+00 1.000000e+00 0.000000e+00
 0.000000e+00 9.398483e-01 6.015172e-02
 0.000000e+00 0.000000e+00 0.000000e+00
<ENDHMM>
~h "Tab0112"
<BEGINHMM>
<NUMSTATES> 3
<STATE> 2
<MEAN> 39
 -4.377932e+02 2.252703e+00 -1.930639e-01 4.013680e-01 3.791999e-01 3.744804e-01 3.136320e-01 3.031140e-01 2.756565e-01 3.677139e-01 4.958158e-01 4.060020e-01 3.451082e-01 3.218847e-01 4.023811e-01 -2.858589e-04 -1.244409e-03 -3.478105e-03 3.424063e-03 1.059035e-02 6.088514e-03 -3.018998e-03 -7.269362e-03 -3.050814e-03 8.868785e-04 -2.363922e-03 -2.915118e-03 6.043322e-04 6.277405e-05 -1.695799e-03 1.180713e-04 2.405356e-03 1.057258e-03 -2.743024e-03 -5.159659e-03 -1.389744e-03 1.961512e-03 1.135601e-04 -1.182353e-03
<VARIANCE> 39
 2.338263e+04 3.914720e+02 2.225666e+01 1.266032e-01 6.105189e-02 1.038970e-01 4.874896e-02 8.218018e-02 6.976017e-02 5.151631e-02 1.430575e-01 5.825173e-02 9.814267e-02 5.476569e-02 6.375495e-02 2.794736e-03 1.280458e-03 2.556950e-03 1.332875e-03 3.372910e-03 1.654752e-03 1.798570e-03 5.097907e-03 1.710019e-03 3.733109e-03 1.466998e-03 1.527077e-03 1.347576e-04 6.820074e-05 1.238972e-04 6.307328e-05 1.477073e-04 7.658492e-05 8.908744e-05 2.384364e-04 8.433827e-05 1.606286e-04 6.612732e-05 7.289682e-05
<GCONST> -1.244332e+02
<TRANSP> 3
 0.000000e+00 1.000000e+00 0.000000e+00
 0.000000e+00 9.342816e-01 6.571842e-02
 0.000000e+00 0.000000e+00 0.000000e+00
<ENDHMM>
~h "Tab0113"
<BEGINHMM>
<NUMSTATES> 3
<STATE> 2
<MEAN> 39
 -3.769529e+02 1.625561e+00 -2.313729e-01 1.800630e-01 3.170695e-01 4.380783e-01 3.787726e-01 3.853152e-01 3.782350e-01 4.225015e-01 4.338564e-01 4.784523e-01 5.522096e-01 3.505098e-01 1.867850e-01 -7.615581e-04 -3.425230e-04 -9.033649e-05 -1.171187e-03 -2.977400e-03 -2.262352e-03 8.934792e-04 4.050782e-03 4.242218e-03 9.319191e-04 -2.053353e-03 -2.512443e-03 -2.952233e-05 -1.630634e-04 -3.078789e-04 -1.138150e-04 2.346704e-04 -2.431070e-04 -1.203821e-03 -1.920615e-03 -9.947820e-04 2.169244e-04 -3.608297e-05 -1.459793e-04
<VARIANCE> 39
 1.886372e+04 2.448089e+02 1.523753e+01 5.457016e-02 5.304067e-02 1.216383e-01 5.631365e-02 1.024939e-01 7.049644e-02 1.108927e-01 1.131916e-01 6.258190e-02 1.458781e-01 5.541083e-02 3.843785e-02 7.576771e-04 9.184562e-04 2.532442e-03 1.229897e-03 2.076294e-03 1.510298e-03 1.813842e-03 2.971549e-03 1.583537e-03 4.647911e-03 1.903194e-03 7.850302e-04 3.787069e-05 4.322997e-05 1.118728e-04 5.789121e-05 9.392735e-05 7.575397e-05 8.931955e-05 1.340275e-04 8.957856e-05 2.183814e-04 9.655971e-05 4.386696e-05
<GCONST> -1.312491e+02
<TRANSP> 3
 0.000000e+00 1.000000e+00 0.000000e+00
 0.000000e+00 8.377784e-01 1.622215e-01
 0.000000e+00 0.000000e+00 0.000000e+00
<ENDHMM>
~h "Tab0114"
<BEGINHMM>
<NUMSTATES> 3
<STATE> 2
<MEAN> 39
 -3.745591e+02 -1.906502e+00 2.012187e-01 1.026169e-01 1.717494e-01 2.528510e-01 2.134938e-01 2.648047e-01 4.138734e-01 4.623713e-01 4.321461e-01 2.634310e-01 1.453079e-01 1.242106e-01 1.132173e-01 1.607319e-03 3.791348e-04 -8.109483e-04 -7.522944e-04 -5.070676e-04 -3.737874e-04 2.642396e-04 4.345832e-04 2.088854e-04 -3.701601e-04 -1.166223e-03 -1.021231e-03 4.551405e-04 8.027818e-04 9.997881e-04 1.464970e-03 1.580804e-03 1.261290e-03 4.338490e-04 4.577622e-04 7.204473e-04 3.841299e-04 2.969266e-04 3.184091e-04
<VARIANCE> 39
 3.554845e+04 8.155132e+01 5.414939e+00 2.452273e-02 3.943892e-02 1.066782e-01 4.017396e-02 7.451726e-02 1.579343e-01 1.001751e-01 1.541710e-01 4.270420e-02 2.366069e-02 2.252157e-02 2.314549e-02 4.632443e-04 2.446490e-04 5.021094e-04 1.942793e-04 2.868864e-04 4.339391e-04 2.458666e-04 2.545727e-04 1.934242e-04 1.967515e-04 1.582898e-04 3.315375e-04 2.470043e-05 1.649826e-05 3.012511e-05 2.518166e-05 3.605046e-05 3.638307e-05 2.454841e-05 1.989927e-05 1.299256e-05 1.068187e-05 1.088114e-05 1.667849e-05
<GCONST> -1.753255e+02
<TRANSP> 3
 0.000000e+00 1.000000e+00 0.000000e+00
 0.000000e+00 7.798283e-01 2.201717e-01
 0.000000e+00 0.000000e+00 0.000000e+00
<ENDHMM>
~h "Tab0115"
<BEGINHMM>
<NUMSTATES> 3
<STATE> 2
<MEAN> 39
 -3.594050e+02 -2.245251e+00 -1.576092e+00 5.384797e-01 6.344784e-01 6.536063e-01 4.676000e-01 2.559407e-01 1.893644e-01 2.365122e-01 2.548114e-01 2.536825e-01 3.332750e-01 2.822842e-01 3.518377e-01 1.118206e-02 2.612655e-03 -5.297812e-03 -6.154144e-03 -1.982282e-03 -1.927279e-03 1.361738e-03 8.742638e-03 -2.374441e-04 -1.067671e-02 -4.661046e-04 1.196262e-02 -1.482806e-03 -1.412914e-03 -9.979159e-04 -1.558788e-04 5.862056e-04 5.292404e-04 6.678200e-04 1.054233e-03 1.861214e-03 2.372690e-03 1.633917e-03 2.634285e-05
<VARIANCE> 39
 1.798961e+03 2.306335e+02 1.175634e+01 1.581001e-01 3.335496e-02 1.326922e-01 6.288144e-02 9.183173e-03 4.341329e-03 1.212200e-02 2.940258e-02 1.367538e-02 5.573453e-02 1.587563e-02 5.463643e-02 3.384775e-03 1.558551e-03 3.041679e-03 1.487093e-03 4.234077e-04 1.801309e-04 4.308112e-04 8.718747e-04 5.302622e-04 1.282978e-03 5.610505e-04 7.530359e-04 1.653282e-04 9.761974e-05 1.431359e-04 7.575262e-05 2.893329e-05 1.278945e-05 2.135853e-05 4.424563e-05 2.487234e-05 4.941202e-05 2.445704e-05 3.883256e-05
<GCONST> -1.598438e+02
<TRANSP> 3
 0.000000e+00 1.000000e+00 0.000000e+00
 0.000000e+00 9.628814e-01 3.711858e-02
 0.000000e+00 0.000000e+00 0.000000e+00
<ENDHMM>
~h "Tab0116"
<BEGINHMM>
<NUMSTATES> 3
<STATE> 2
<MEAN> 39
 -6.464496e+02 6.333661e+00 2.148272e+00 3.982984e-01 4.739809e-01 5.663224e-01 4.393909e-01 3.355993e-01 3.086353e-01 3.281874e-01 4.632643e-01 4.355772e-01 5.419734e-01 5.652391e-01 6.310213e-01 -1.720808e-02 -2.448510e-03 1.661441e-02 1.407323e-02 1.631156e-03 4.778509e-03 7.057309e-03 6.473347e-04 -9.461353e-05 1.340640e-03 -4.388152e-03 -1.397908e-02 -3.504287e-04 -8.916213e-04 -8.874118e-04 -1.540476e-03 -1.692890e-03 -1.473380e-03 -1.250748e-03 -1.419904e-03 -2.751559e-03 -3.375122e-03 -2.965927e-03 -1.548705e-03
<VARIANCE> 39
 6.513135e+04 1.794797e+03 6.197260e+01 7.187554e-02 8.322790e-02 1.045546e-01 7.444602e-02 6.736422e-02 5.210539e-02 5.768993e-02 7.842805e-02 6.514422e-02 7.560553e-02 6.765512e-02 1.261525e-01 2.364283e-03 3.259836e-03 3.427567e-03 2.495311e-03 2.468138e-03 1.863155e-03 1.650638e-03 2.365563e-03 3.044216e-03 2.754846e-03 2.224274e-03 3.794180e-03 1.030941e-04 1.535940e-04 1.667407e-04 1.480861e-04 1.525711e-04 1.150697e-04 9.698286e-05 1.012185e-04 1.782874e-04 1.382040e-04 9.760381e-05 1.627428e-04
<GCONST> -1.155303e+02
<TRANSP> 3
 0.000000e+00 1.000000e+00 0.000000e+00
 0.000000e+00 8.792233e-01 1.207767e-01
 0.000000e+00 0.000000e+00 0.000000e+00
<ENDHMM>
~h "Tab0126"
<BEGINHMM>
<NUMSTATES> 3
<STATE> 2
<MEAN> 39
 -3.561967e+02 4.566619e-02 -6.396219e-02 4.848233e-01 3.941460e-01 3.635305e-01 4.029630e-01 4.567057e-01 4.138633e-01 5.889102e-01 8.168102e-01 5.323653e-01 2.344008e-01 2.238523e-01 3.975188e-01 -1.250165e-03 -5.098886e-04 3.896066e-05 8.598978e-05 1.104857e-04 5.898721e-04 5.975536e-04 8.590877e-04 5.405209e-04 2.528002e-04 -1.176237e-04 -7.161615e-04 -4.496252e-05 -8.251653e-05 2.235687e-05 -3.571646e-05 -9.434484e-05 -1.143167e-04 -3.395121e-04 -4.779962e-04 -2.132270e-04 1.364484e-04 2.327462e-04 1.677888e-04
<VARIANCE> 39
 1.383577e+04 2.347497e+02 1.443285e+01 1.131482e-01 4.308138e-02 6.716672e-02 5.453568e-02 8.276368e-02 5.892962e-02 5.104009e-02 7.727671e-02 3.479348e-02 3.670210e-02 2.961864e-02 5.776544e-02 1.363524e-03 7.501722e-04 9.116447e-04 1.293985e-03 1.823574e-03 1.432022e-03 9.986272e-04 1.195560e-03 6.769360e-04 8.192767e-04 5.958374e-04 7.516531e-04 7.981153e-05 4.647501e-05 5.560526e-05 8.248643e-05 1.137709e-04 9.419110e-05 6.209525e-05 7.338126e-05 3.982251e-05 4.833888e-05 3.703120e-05 4.641771e-05
<GCONST> -1.448671e+02
<TRANSP> 3
 0.000000e+00 1.000000e+00 0.000000e+00
 0.000000e+00 9.118440e-01 8.815597e-02
 0.000000e+00 0.000000e+00 0.000000e+00
<ENDHMM>
~h "Tab0128"
<BEGINHMM>
<NUMSTATES> 3
<STATE> 2
<MEAN> 39
 -2.554306e+02 -9.344685e-02 -1.858538e-02 3.148778e-01 5.133359e-01 7.219734e-01 4.909876e-01 3.006372e-01 3.044204e-01 4.274117e-01 5.036110e-01 4.904757e-01 5.372562e-01 3.973335e-01 3.185186e-01 -2.905782e-04 3.820374e-04 8.209858e-04 5.534074e-04 1.985009e-04 -2.975661e-04 -1.252484e-03 -1.858069e-03 -9.066138e-04 -7.231854e-05 -1.407849e-04 -2.420720e-04 9.193208e-05 -3.043523e-04 -7.335252e-04 -1.838072e-04 3.208897e-04 2.301511e-04 -8.336540e-05 -1.947086e-04 2.975228e-05 1.952251e-04 1.628713e-04 1.446029e-04
<VARIANCE> 39
 2.649436e+03 1.996667e+01 1.224418e+00 7.277472e-02 3.215487e-02 1.091869e-01 3.622124e-02 3.746131e-02 3.689983e-02 4.523095e-02 1.167646e-01 3.810135e-02 8.059765e-02 3.853838e-02 4.980933e-02 4.628518e-04 5.383220e-04 1.173478e-03 4.736733e-04 5.024077e-04 5.520412e-04 8.828556e-04 1.732560e-03 6.863672e-04 1.216111e-03 5.642102e-04 4.554343e-04 2.826426e-05 3.042711e-05 6.037406e-05 2.671877e-05 3.132710e-05 3.322127e-05 5.311065e-05 9.250102e-05 4.085258e-05 7.177973e-05 3.335738e-05 2.778677e-05
<GCONST> -1.613511e+02
<TRANSP> 3
 0.000000e+00 1.000000e+00 0.000000e+00
 0.000000e+00 9.437922e-01 5.620776e-02
 0.000000e+00 0.000000e+00 0.000000e+00
<ENDHMM>
~h "Tab0150"
<BEGINHMM>
<NUMSTATES> 3
<STATE> 2
<MEAN> 39
 -3.843451e+02 2.325400e-01 -8.484349e-02 8.646680e-02 7.419593e-02 7.419706e-02 8.509844e-02 9.980345e-02 1.019513e-01 1.697127e-01 3.231060e-01 5.576352e-01 8.343784e-01 5.261620e-01 1.751163e-01 3.935501e-05 6.296039e-04 6.212962e-04 1.442125e-03 2.502665e-03 1.240388e-03 1.463507e-03 -7.989353e-04 -1.414309e-03 -1.834787e-03 -1.277617e-03 -1.645792e-03 1.744722e-03 1.060770e-03 7.973242e-04 1.228079e-03 1.586215e-03 1.398276e-03 9.042484e-04 5.101797e-04 -9.440521e-04 -2.511688e-03 -1.045070e-03 1.481359e-03
<VARIANCE> 39
 1.311465e+04 1.081782e+02 8.245827e+00 1.936959e-02 1.700061e-02 1.503324e-02 1.043635e-02 1.375081e-02 1.600186e-02 3.343514e-02 8.709820e-02 4.792564e-02 1.013890e-01 6.025326e-02 2.996145e-02 4.461695e-04 1.501831e-04 1.529637e-04 4.213162e-04 8.043639e-04 5.596262e-04 8.127034e-04 1.733090e-03 1.660168e-03 2.023573e-03 1.218532e-03 9.905432e-04 3.558979e-05 1.237292e-05 1.068040e-05 1.841117e-05 3.401208e-05 2.761820e-05 3.806199e-05 8.427943e-05 1.159856e-04 1.145046e-04 7.662127e-05 5.569548e-05
<GCONST> -1.637703e+02
<TRANSP> 3
 0.000000e+00 1.000000e+00 0.000000e+00
 0.000000e+00 7.398007e-01 2.601993e-01
 0.000000e+00 0.000000e+00 0.000000e+00
<ENDHMM>
~h "Tab0164"
<BEGINHMM>
<NUMSTATES> 3
<STATE> 2
<MEAN> 39
 -3.265905e+02 1.006000e-03 -8.013285e-02 2.881562e-01 2.231481e-01 2.291212e-01 3.910127e-01 5.886650e-01 4.029458e-01 2.495457e-01 2.814882e-01 5.192723e-01 7.424709e-01 5.642447e-01 4.314240e-01 -1.196086e-03 -1.766644e-03 -2.331051e-03 -3.311239e-04 1.189612e-03 1.004889e-04 -1.221809e-03 -1.170904e-03 7.317339e-04 2.686386e-03 1.533005e-03 -6.535809e-04 3.229932e-04 7.736839e-04 1.138329e-03 1.749592e-04 -5.445705e-04 5.263935e-05 9.982183e-04 1.421722e-03 4.011286e-04 -8.083762e-04 -3.035717e-04 2.875101e-04
<VARIANCE> 39
 1.868389e+04 1.568416e+02 9.942801e+00 3.605902e-02 2.665224e-02 5.055698e-02 2.926483e-02 8.435285e-02 3.400766e-02 4.819281e-02 5.025103e-02 5.193599e-02 1.253374e-01 4.225275e-02 8.168557e-02 5.323341e-04 6.590453e-04 1.049261e-03 6.450303e-04 1.787059e-03 6.990297e-04 9.732646e-04 9.348026e-04 7.223386e-04 8.453521e-04 6.448443e-04 1.167290e-03 3.179285e-05 3.724227e-05 5.753645e-05 3.804693e-05 1.078544e-04 4.169904e-05 6.060143e-05 6.096278e-05 3.908887e-05 5.026352e-05 3.900949e-05 7.096115e-05
<GCONST> -1.510430e+02
<TRANSP> 3
 0.000000e+00 1.000000e+00 0.000000e+00
 0.000000e+00 8.855574e-01 1.144426e-01
 0.000000e+00 0.000000e+00 0.000000e+00
<ENDHMM>
~h "Tab0166"
<BEGINHMM>
<NUMSTATES> 3
<STATE> 2
<MEAN> 39
 -2.353391e+02 -5.959886e-01 -5.344206e-02 3.697619e-01 3.104104e-01 3.108290e-01 3.905248e-01 4.875772e-01 4.205668e-01 4.265304e-01 4.120280e-01 4.978124e-01 6.427445e-01 5.667349e-01 5.036830e-01 1.072070e-03 2.645043e-04 -1.780217e-04 -6.302989e-04 4.999412e-06 4.609269e-04 -1.256261e-04 -1.070103e-03 4.752500e-04 2.401072e-03 2.517108e-03 1.870853e-03 -1.877842e-04 1.364164e-04 4.156368e-04 -2.414911e-05 -3.820782e-04 -3.850973e-04 -2.496230e-04 -5.141261e-05 -4.904262e-04 -8.423512e-04 -3.119696e-04 -9.406309e-05
<VARIANCE> 39
 3.255933e+03 3.154774e+01 1.627805e+00 7.053889e-02 3.339283e-02 5.030209e-02 5.098392e-02 8.872012e-02 3.639623e-02 6.470016e-02 6.483775e-02 6.448232e-02 1.149569e-01 4.311280e-02 1.275306e-01 5.599090e-04 6.580619e-04 9.895493e-04 8.095923e-04 1.271113e-03 7.509307e-04 1.252365e-03 1.756117e-03 1.185909e-03 1.079226e-03 8.697025e-04 7.466327e-04 3.030644e-05 3.616020e-05 5.339923e-05 3.775912e-05 6.026502e-05 3.892541e-05 6.753878e-05 8.786404e-05 6.641183e-05 4.963013e-05 4.752148e-05 3.657565e-05
<GCONST> -1.523546e+02
<TRANSP> 3
 0.000000e+00 1.000000e+00 0.000000e+00
 0.000000e+00 8.823394e-01 1.176607e-01
 0.000000e+00 0.000000e+00 0.000000e+00
<ENDHMM>
~h "Tab0169"
<BEGINHMM>
<NUMSTATES> 3
<STATE> 2
<MEAN> 39
 -3.691684e+02 2.270505e-02 1.894063e-01 2.867094e-01 5.922756e-01 3.812037e-01 1.029337e-01 6.771524e-02 7.451306e-02 1.166554e-01 2.844720e-01 5.017927e-01 5.596773e-01 2.842350e-01 8.745757e-02 3.441877e-04 9.551152e-05 -1.539980e-05 2.362362e-04 2.531047e-04 2.871384e-04 1.923877e-04 -3.335641e-04 4.815270e-04 3.881397e-04 1.104601e-04 4.301036e-04 1.408847e-04 -7.299981e-05 -4.568714e-05 1.396133e-04 2.125332e-04 2.403820e-04 2.502660e-04 5.039763e-04 4.420331e-04 1.036007e-04 4.673412e-05 1.715592e-04
<VARIANCE> 39
 4.749458e+03 1.445691e+02 1.118649e+01 5.004460e-02 2.121378e-01 8.856355e-02 9.952161e-03 2.991295e-03 4.322314e-03 6.860837e-03 3.287072e-02 3.506701e-02 1.609268e-01 6.854682e-02 5.331773e-03 1.303728e-04 1.105728e-05 1.651389e-04 9.782059e-05 1.503859e-04 2.042194e-04 2.372931e-04 1.415779e-03 1.360020e-03 8.886731e-05 3.914791e-04 1.737271e-04 1.102960e-05 3.318206e-06 1.325876e-05 6.714388e-06 1.018328e-05 1.396397e-05 1.733244e-05 1.098345e-04 1.067383e-04 6.123309e-06 3.190192e-05 1.492179e-05
<GCONST> -1.922688e+02
<TRANSP> 3
 0.000000e+00 1.000000e+00 0.000000e+00
 0.000000e+00 9.564427e-01 4.355739e-02
 0.000000e+00 0.000000e+00 0.000000e+00
<ENDHMM>
~h "Tab0170"
<BEGINHMM>
<NUMSTATES> 3
<STATE> 2
<MEAN> 39
 -3.899671e+02 -5.432532e-01 -6.225986e-02 6.191283e-01 1.714079e-01 1.356344e-01 9.739254e-02 1.098217e-01 3.350300e-01 4.672970e-01 2.567892e-01 1.254505e-01 1.170265e-01 4.563574e-01 9.603463e-01 8.120945e-04 1.356690e-03 3.500198e-04 1.314126e-04 3.891765e-04 -9.587825e-04 -1.494671e-03 4.680021e-04 1.058156e-03 6.357734e-04 -9.168632e-04 -1.278290e-03 -2.915077e-04 8.748953e-04 4.781496e-04 3.894541e-04 5.033459e-04 -8.940011e-05 -3.366011e-04 2.342637e-04 6.724059e-04 8.620491e-04 -1.270804e-05 -1.211739e-03
<VARIANCE> 39
 8.088397e+03 1.542237e+02 1.096132e+01 1.702743e-02 3.338758e-02 4.680724e-02 1.403160e-02 6.155245e-03 3.585568e-02 4.603909e-02 2.580288e-02 1.798327e-02 1.476483e-02 2.088751e-02 2.570610e-02 4.359456e-04 7.352423e-04 3.299036e-04 1.360128e-04 2.417628e-04 1.469245e-03 1.225571e-03 4.510904e-04 7.131395e-04 7.240452e-04 4.659719e-04 6.095860e-04 2.960620e-05 3.437952e-05 1.685923e-05 9.664177e-06 1.714442e-05 1.121413e-04 8.813948e-05 3.048013e-05 4.777815e-05 4.804003e-05 2.601417e-05 2.977534e-05
<GCONST> -1.722113e+02
<TRANSP> 3
 0.000000e+00 1.000000e+00 0.000000e+00
 0.000000e+00 9.107085e-01 8.929148e-02
 0.000000e+00 0.000000e+00 0.000000e+00
<ENDHMM>
~h "Tab0172"
<BEGINHMM>
<NUMSTATES> 3
<STATE> 2
<MEAN> 39
 -6.420477e+02 -5.758112e-01 9.449393e-02 1.018742e-01 1.307714e-01 1.702827e-01 1.022397e-01 4.681298e-02 7.240200e-02 1.863547e-01 2.673861e-01 1.783406e-01 9.566023e-02 7.371907e-02 8.913340e-02 2.129600e-05 -1.279358e-04 -5.901325e-05 1.544740e-04 9.959202e-05 -2.165545e-04 -2.984302e-04 -1.604316e-04 -5.157965e-04 -3.861145e-04 2.448162e-05 3.737196e-04 3.938400e-04 3.871013e-04 2.844882e-04 2.669527e-04 3.034087e-04 3.084174e-04 3.153276e-04 2.213063e-04 3.202608e-04 3.115780e-04 3.413941e-04 3.134791e-04
<VARIANCE> 39
 3.795463e+04 2.470899e+01 1.485845e+00 5.730408e-02 4.005377e-02 9.112442e-02 2.952539e-02 1.308301e-02 2.567336e-02 7.969309e-02 1.695587e-01 6.766255e-02 4.168130e-02 1.909219e-02 3.115554e-02 4.932785e-05 5.102287e-05 7.990078e-05 3.679273e-05 4.419346e-05 5.415228e-05 9.321448e-05 4.752257e-05 7.994455e-05 8.196400e-05 4.687361e-05 5.568508e-05 5.673710e-06 4.825134e-06 7.768154e-06 3.180971e-06 3.792052e-06 6.096262e-06 8.905668e-06 8.122127e-06 6.259517e-06 8.115850e-06 4.490318e-06 6.015664e-06
<GCONST> -2.135327e+02
<TRANSP> 3
 0.000000e+00 1.000000e+00 0.000000e+00
 0.000000e+00 8.929825e-01 1.070175e-01
 0.000000e+00 0.000000e+00 0.000000e+00
<ENDHMM>
~h "Tab0173"
<BEGINHMM>
<NUMSTATES> 3
<STATE> 2
<MEAN> 39
 -3.505767e+02 6.515601e-01 -1.702031e-01 1.956767e-01 1.704941e-01 1.693020e-01 2.282319e-01 4.371645e-01 5.454699e-01 4.113067e-01 3.172320e-01 3.798550e-01 4.282569e-01 2.618379e-01 1.792792e-01 -1.615469e-03 -7.901145e-04 -9.921310e-05 2.437693e-04 -9.852153e-05 4.123012e-05 1.635664e-04 3.062379e-04 1.744196e-03 1.729521e-03 2.647785e-04 -1.121534e-03 2.002659e-04 2.730323e-04 2.801678e-04 2.066634e-05 -4.508177e-04 -8.579303e-04 -4.296613e-04 2.399165e-04 2.543926e-04 2.968702e-04 2.767927e-04 2.160257e-04
<VARIANCE> 39
 1.093535e+04 2.262001e+02 1.632875e+01 7.374319e-02 3.393028e-02 6.179652e-02 5.317675e-02 1.046215e-01 1.450676e-01 5.575041e-02 8.877768e-02 7.265211e-02 1.485429e-01 5.278565e-02 4.628843e-02 1.340751e-03 6.292778e-04 1.226934e-03 1.177858e-03 2.312496e-03 2.927387e-03 1.418772e-03 1.956681e-03 2.488420e-03 5.117714e-03 1.668343e-03 1.112432e-03 5.800914e-05 2.854764e-05 6.407763e-05 6.252108e-05 1.246998e-04 1.557346e-04 7.905160e-05 1.107373e-04 1.435137e-04 2.738387e-04 8.963946e-05 5.282148e-05
<GCONST> -1.312411e+02
<TRANSP> 3
 0.000000e+00 1.000000e+00 0.000000e+00
 0.000000e+00 9.101810e-01 8.981904e-02
 0.000000e+00 0.000000e+00 0.000000e+00
<ENDHMM>
~h "Tab0174"
<BEGINHMM>
<NUMSTATES> 3
<STATE> 2
<MEAN> 39
 -7.252188e+02 -3.562282e-01 5.093112e-02 1.069473e-01 1.335170e-01 1.342285e-01 8.291593e-02 1.047309e-01 1.754384e-01 1.325560e-01 5.622371e-02 2.591984e-02 2.077360e-02 1.650976e-02 5.437844e-02 -6.757582e-05 4.133384e-06 -4.339711e-05 6.596179e-05 8.972741e-05 -2.504639e-05 -3.100437e-05 4.792039e-05 -2.929675e-05 -1.287855e-04 -1.104133e-04 -1.307777e-04 3.432173e-05 2.454091e-05 -1.240090e-05 9.307720e-06 -2.009279e-06 -1.652579e-05 -1.881343e-05 -2.521243e-05 -7.059465e-06 -4.243011e-07 5.813352e-06 2.154749e-06
<VARIANCE> 39
 1.555163e+04 5.739750e+01 3.762577e+00 6.938139e-02 5.608894e-02 9.782671e-02 3.271009e-02 4.962198e-02 1.179420e-01 7.333945e-02 2.699711e-02 6.316429e-03 4.323245e-03 2.152131e-03 2.063492e-02 1.514418e-05 2.769115e-05 9.202143e-06 1.079013e-05 2.752258e-05 1.876063e-05 7.680384e-06 9.380564e-06 1.048454e-05 1.109443e-05 1.064753e-05 3.323304e-05 1.159419e-06 2.043114e-06 1.117203e-06 8.507392e-07 1.525062e-06 1.191138e-06 6.627693e-07 6.322022e-07 5.860226e-07 5.640867e-07 9.501641e-07 2.704124e-06
<GCONST> -2.558961e+02
<TRANSP> 3
 0.000000e+00 1.000000e+00 0.000000e+00
 0.000000e+00 9.583762e-01 4.162380e-02
 0.000000e+00 0.000000e+00 0.000000e+00
<ENDHMM>
~h "Tab0175"
<BEGINHMM>
<NUMSTATES> 3
<STATE> 2
<MEAN> 39
 -6.221454e+02 5.351481e-02 4.459395e-03 3.860648e-01 3.267265e-01 2.890345e-01 3.831691e-01 5.422724e-01 4.627794e-01 4.309416e-01 4.754672e-01 4.820384e-01 4.318342e-01 3.966356e-01 4.829508e-01 9.359091e-05 7.338407e-05 -5.703041e-06 -4.268576e-05 -1.207514e-04 -1.210966e-04 -1.234630e-04 -2.028480e-04 -8.722467e-05 5.444104e-05 2.969539e-05 -1.397663e-04 6.540858e-06 -2.119514e-06 7.374519e-06 -3.471662e-05 -6.320667e-05 -3.784719e-05 3.101883e-06 2.920644e-05 5.358926e-05 6.887351e-05 3.685119e-05 4.388385e-05
<VARIANCE> 39
 8.716782e+03 4.960760e+02 3.781233e+01 9.018794e-02 6.491286e-02 6.661643e-02 6.442355e-02 1.414236e-01 9.170134e-02 1.004691e-01 1.290236e-01 1.051714e-01 1.127455e-01 6.623419e-02 1.104447e-01 3.019982e-03 1.815247e-03 1.922284e-03 2.280531e-03 5.308773e-03 3.027871e-03 2.298674e-03 3.201844e-03 2.730631e-03 3.314910e-03 2.504933e-03 3.820470e-03 1.842574e-04 1.154120e-04 1.304059e-04 1.561437e-04 3.624305e-04 1.992085e-04 1.334474e-04 1.810502e-04 1.752724e-04 2.241713e-04 1.787408e-04 2.553712e-04
<GCONST> -1.118371e+02
<TRANSP> 3
 0.000000e+00 1.000000e+00 0.000000e+00
 0.000000e+00 9.877489e-01 1.225117e-02
 0.000000e+00 0.000000e+00 0.000000e+00
<ENDHMM>
~h "Tab0176"
<BEGINHMM>
<NUMSTATES> 3
<STATE> 2
<MEAN> 39
 -5.429811e+02 9.104738e-01 2.298255e-01 5.680150e-01 5.152531e-01 4.994903e-01 4.561798e-01 5.037024e-01 5.325437e-01 5.784249e-01 5.908002e-01 5.301288e-01 5.508224e-01 5.134490e-01 5.850188e-01 -4.622839e-04 -1.289078e-03 -1.478558e-03 -7.172417e-04 8.652126e-05 -4.321417e-05 -7.390457e-04 -5.262144e-04 -6.029292e-04 -3.409646e-04 -1.856908e-04 5.041200e-05 -2.451998e-05 -2.983733e-04 -4.487380e-04 -4.109871e-04 -3.136748e-04 -3.529575e-04 -1.988282e-04 -8.749572e-06 -4.202949e-04 -7.821945e-04 -7.739550e-04 -4.906292e-04
<VARIANCE> 39
 5.080338e+04 1.882588e+03 1.081135e+02 8.970084e-02 6.616130e-02 8.238292e-02 5.768529e-02 8.461074e-02 8.843525e-02 7.472597e-02 8.395297e-02 6.532889e-02 7.813767e-02 6.117611e-02 7.902474e-02 2.155589e-03 1.734224e-03 2.447649e-03 1.757326e-03 2.124173e-03 1.926112e-03 1.743721e-03 2.198279e-03 1.575695e-03 2.205624e-03 1.856333e-03 2.336073e-03 1.184233e-04 1.053746e-04 1.464333e-04 1.088604e-04 1.339024e-04 1.085198e-04 9.872838e-05 1.265124e-04 9.550711e-05 1.337247e-04 1.072277e-04 1.348273e-04
<GCONST> -1.195929e+02
<TRANSP> 3
 0.000000e+00 1.000000e+00 0.000000e+00
 0.000000e+00 9.094351e-01 9.056494e-02
 0.000000e+00 0.000000e+00 0.000000e+00
<ENDHMM>
~h "Tab0178"
<BEGINHMM>
<NUMSTATES> 3
<STATE> 2
<MEAN> 39
 -7.246163e+02 3.864631e+00 8.705499e-01 4.628690e-01 4.105709e-01 5.314164e-01 3.908738e-01 3.295893e-01 3.457762e-01 4.466024e-01 4.631804e-01 3.508476e-01 4.189449e-01 4.053994e-01 4.913670e-01 -6.123486e-03 -5.637110e-03 -3.705998e-03 5.800906e-05 8.188919e-04 -1.724544e-03 -6.835369e-03 -5.223667e-03 -2.833536e-03 -1.583744e-03 -2.535634e-03 -4.778896e-03 -6.963659e-04 -5.460241e-04 -5.546233e-04 3.558024e-04 9.757392e-04 9.666523e-04 1.510082e-04 -1.612963e-04 6.444600e-04 3.933309e-04 3.154256e-04 -3.478419e-04
<VARIANCE> 39
 2.395748e+04 5.663959e+02 3.677303e+01 1.223518e-01 6.747041e-02 1.152508e-01 7.241364e-02 7.944452e-02 8.614057e-02 9.877006e-02 1.018761e-01 8.151942e-02 7.503486e-02 8.419542e-02 1.218003e-01 2.719053e-03 1.790683e-03 2.970590e-03 1.868820e-03 1.654180e-03 1.838422e-03 2.920365e-03 3.103007e-03 2.318245e-03 2.183249e-03 2.583895e-03 3.003395e-03 1.214766e-04 8.300878e-05 1.320198e-04 8.893831e-05 8.285433e-05 7.891808e-05 1.555722e-04 1.555788e-04 1.213258e-04 1.158934e-04 1.442656e-04 1.798424e-04
<GCONST> -1.183488e+02
<TRANSP> 3
 0.000000e+00 1.000000e+00 0.000000e+00
 0.000000e+00 8.000694e-01 1.999306e-01
 0.000000e+00 0.000000e+00 0.000000e+00
<ENDHMM>
~h "Tab0182"
<BEGINHMM>
<NUMSTATES> 3
<STATE> 2
<MEAN> 39
 -3.219922e+02 -2.050637e-01 -3.832932e-02 2.247618e-01 6.255843e-01 7.977062e-01 5.062373e-01 3.433129e-01 3.952757e-01 4.001961e-01 3.190041e-01 4.035666e-01 5.354813e-01 3.204724e-01 1.445329e-01 -8.121233e-04 -3.280986e-03 -4.485412e-03 -2.759931e-03 -9.489889e-04 -1.721237e-03 -7.830603e-04 8.745989e-04 8.330638e-04 -3.056856e-04 -2.062920e-04 5.879943e-05 3.211922e-04 8.919258e-06 -2.634543e-04 -1.705455e-04 -7.974973e-06 -1.955233e-05 8.476789e-05 3.856660e-04 1.536741e-04 -1.253560e-04 7.359953e-05 4.212585e-04
<VARIANCE> 39
 2.829429e+04 7.656815e+01 5.020894e+00 3.903088e-02 7.935677e-02 1.164692e-01 5.536268e-02 5.585562e-02 4.267416e-02 5.610714e-02 6.409604e-02 3.437547e-02 6.015477e-02 1.943896e-02 1.288344e-02 6.498140e-04 1.083888e-03 8.076630e-04 8.524472e-04 9.641236e-04 4.685691e-04 9.476228e-04 8.295977e-04 3.900020e-04 3.860820e-04 1.400442e-04 2.231774e-04 4.293320e-05 6.672423e-05 4.362527e-05 5.315898e-05 5.248858e-05 2.253710e-05 5.700900e-05 5.237481e-05 2.295599e-05 2.306822e-05 7.982841e-06 1.574949e-05
<GCONST> -1.629867e+02
<TRANSP> 3
 0.000000e+00 1.000000e+00 0.000000e+00
 0.000000e+00 7.504978e-01 2.495022e-01
 0.000000e+00 0.000000e+00 0.000000e+00
<ENDHMM>
~h "Tab0188"
<BEGINHMM>
<NUMSTATES> 3
<STATE> 2
<MEAN> 39
 -3.489065e+02 8.996788e-01 -4.743532e-01 3.167637e-01 3.003336e-01 3.230049e-01 4.247732e-01 5.486972e-01 3.989787e-01 3.226576e-01 3.913609e-01 4.535183e-01 5.339770e-01 3.703608e-01 3.056774e-01 -2.076574e-03 -4.014767e-04 5.855280e-04 -2.251471e-04 -1.119798e-03 -3.031114e-04 -1.886608e-04 1.024944e-04 1.539243e-03 2.646733e-03 6.238062e-04 -2.429703e-03 -1.100392e-04 1.415479e-04 4.332040e-04 3.565653e-05 2.510506e-05 6.312092e-04 5.396938e-04 2.231385e-04 4.649981e-04 2.677411e-04 3.473933e-04 2.429712e-04
<VARIANCE> 39
 1.609208e+04 1.310262e+02 1.009075e+01 5.783938e-02 3.427393e-02 1.000442e-01 3.899859e-02 1.461659e-01 6.608459e-02 5.775888e-02 1.332165e-01 3.682188e-02 1.356389e-01 4.020165e-02 5.593357e-02 4.569120e-04 3.608007e-04 5.777762e-04 6.187214e-04 8.144297e-04 7.792083e-04 7.922771e-04 7.763255e-04 5.334551e-04 9.901343e-04 3.812461e-04 6.127597e-04 2.556876e-05 2.160605e-05 3.551738e-05 3.830190e-05 5.083863e-05 5.183274e-05 4.503777e-05 4.129754e-05 2.772935e-05 5.924786e-05 2.228887e-05 3.056595e-05
<GCONST> -1.558042e+02
<TRANSP> 3
 0.000000e+00 1.000000e+00 0.000000e+00
 0.000000e+00 8.552295e-01 1.447705e-01
 0.000000e+00 0.000000e+00 0.000000e+00
<ENDHMM>
~h "Tab0191"
<BEGINHMM>
<NUMSTATES> 3
<STATE> 2
<MEAN> 39
 -4.279118e+02 -2.093138e+00 1.771858e-01 1.326107e-01 2.155103e-01 1.904568e-01 1.588706e-01 1.933198e-01 1.971493e-01 1.748230e-01 1.201240e-01 2.823641e-01 5.459611e-01 4.679724e-01 1.983928e-01 1.888030e-04 1.188710e-04 -1.332303e-04 -9.802170e-04 -3.023098e-03 -2.483226e-03 -2.594263e-03 -1.904877e-03 -2.427102e-03 -1.961593e-03 -6.044934e-04 1.736075e-04 1.169564e-04 4.360557e-05 1.878694e-04 4.245917e-04 6.200310e-04 5.905392e-04 5.901139e-04 6.004125e-04 5.236649e-04 2.772509e-04 1.000119e-04 1.745433e-04
<VARIANCE> 39
 1.067669e+04 3.718669e+01 2.147405e+00 1.740554e-02 6.014345e-02 7.408065e-02 3.495949e-02 6.228336e-02 3.698294e-02 8.050612e-02 3.282736e-02 5.625433e-02 1.427522e-01 1.256698e-01 6.413598e-02 3.152351e-05 1.634771e-05 1.381587e-05 3.431259e-05 1.520570e-04 1.583035e-04 8.508882e-05 6.320531e-05 1.849294e-04 7.280782e-05 1.548469e-05 6.501138e-05 2.152295e-06 1.083987e-06 1.333655e-06 3.686567e-06 1.012213e-05 1.201040e-05 6.475043e-06 5.229047e-06 1.325259e-05 3.926220e-06 1.117124e-06 4.622425e-06
<GCONST> -2.168486e+02
<TRANSP> 3
 0.000000e+00 1.000000e+00 0.000000e+00
 0.000000e+00 9.092122e-01 9.078775e-02
 0.000000e+00 0.000000e+00 0.000000e+00
<ENDHMM>
~h "Tab0192"
<BEGINHMM>
<NUMSTATES> 3
<STATE> 2
<MEAN> 39
 -3.852653e+02 -1.558532e+00 1.042000e-01 2.908308e-01 2.785748e-01 3.870761e-01 2.535473e-01 1.451346e-01 1.352460e-01 4.144092e-01 7.376029e-01 5.114216e-01 2.589939e-01 2.892506e-01 3.925467e-01 2.147349e-04 9.236284e-04 1.420890e-03 4.844631e-04 -1.086261e-03 -1.342550e-03 -7.123282e-04 -1.360833e-03 -4.793628e-04 4.974677e-05 4.271497e-04 7.532951e-04 1.627598e-04 2.416566e-04 1.944075e-04 3.950303e-04 5.415215e-04 6.378869e-04 5.981653e-04 1.353032e-04 2.080064e-04 3.143811e-04 2.116780e-04 6.269213e-05
<VARIANCE> 39
 1.086067e+04 2.943808e+01 1.914261e+00 5.075783e-02 2.459645e-02 5.932227e-02 2.592099e-02 3.410416e-02 3.062438e-02 6.029300e-02 1.461802e-01 4.628354e-02 8.280259e-02 2.763526e-02 4.288480e-02 4.399080e-05 9.283932e-05 1.943662e-04 1.022559e-04 1.141483e-04 2.770495e-04 4.012334e-04 1.576109e-04 1.134408e-04 1.150291e-04 5.257266e-05 9.006792e-05 2.963086e-06 6.365696e-06 1.134321e-05 5.972571e-06 8.620994e-06 1.830855e-05 2.592437e-05 9.720622e-06 7.475196e-06 8.799110e-06 3.679226e-06 5.470927e-06
<GCONST> -2.011317e+02
<TRANSP> 3
 0.000000e+00 1.000000e+00 0.000000e+00
 0.000000e+00 8.460621e-01 1.539379e-01
 0.000000e+00 0.000000e+00 0.000000e+00
<ENDHMM>
~h "Tab0193"
<BEGINHMM>
<NUMSTATES> 3
<STATE> 2
<MEAN> 39
 -3.723502e+02 -4.930256e-01 -4.490670e-01 4.306532e-01 4.336188e-01 4.384151e-01 4.719039e-01 5.969773e-01 5.593980e-01 5.245674e-01 5.848927e-01 4.601053e-01 3.546619e-01 2.632907e-01 3.248004e-01 7.689609e-04 1.196871e-03 2.787301e-03 3.097595e-03 1.987860e-03 2.942177e-03 3.908468e-03 3.609658e-03 2.698382e-03 8.523044e-04 1.080170e-03 1.684984e-03 9.091117e-05 3.117545e-04 4.693737e-04 3.410313e-04 -1.151466e-04 4.766815e-06 -2.559273e-04 -3.708586e-04 -3.300699e-04 -3.854718e-05 1.329602e-04 2.819365e-04
<VARIANCE> 39
 1.820522e+04 3.054971e+02 1.959552e+01 9.387999e-02 4.462127e-02 1.052312e-01 6.030946e-02 1.014917e-01 8.960240e-02 3.861449e-02 1.281284e-01 4.541261e-02 8.823436e-02 3.962152e-02 4.627584e-02 1.164544e-03 8.894988e-04 1.333382e-03 1.064735e-03 1.852843e-03 1.848154e-03 1.046523e-03 1.925081e-03 8.478931e-04 1.486939e-03 7.119876e-04 8.369900e-04 5.956821e-05 5.327693e-05 7.814791e-05 6.453686e-05 1.044666e-04 9.535636e-05 5.395335e-05 9.667315e-05 4.861064e-05 7.587967e-05 3.952141e-05 4.403792e-05
<GCONST> -1.388003e+02
<TRANSP> 3
 0.000000e+00 1.000000e+00 0.000000e+00
 0.000000e+00 7.691627e-01 2.308374e-01
 0.000000e+00 0.000000e+00 0.000000e+00
<ENDHMM>
~h "Tab0194"
<BEGINHMM>
<NUMSTATES> 3
<STATE> 2
<MEAN> 39
 -3.956696e+02 -1.959588e+00 9.884737e-02 4.543643e-01 4.222090e-01 3.820634e-01 2.349623e-01 2.462844e-01 4.354512e-01 2.993130e-01 2.279181e-01 3.128546e-01 5.299228e-01 4.835505e-01 3.626562e-01 1.171248e-03 1.480883e-03 1.127019e-03 -2.192080e-04 -1.402549e-03 -2.119138e-03 -1.351166e-03 -3.131295e-04 -4.767360e-04 -6.486098e-04 -2.167428e-04 5.215579e-04 -5.018013e-05 7.589755e-06 2.495351e-05 1.141360e-04 7.473369e-05 4.059477e-05 1.204448e-04 8.118914e-05 5.261428e-05 -2.779237e-05 -2.053950e-06 4.001122e-06
<VARIANCE> 39
 6.925293e+03 6.081614e+00 2.930590e-01 1.738683e-01 2.032972e-02 1.105653e-01 2.935427e-02 3.092850e-02 9.502184e-02 4.613598e-02 1.373726e-01 4.445115e-02 1.180224e-01 1.236400e-01 3.987148e-02 5.826257e-05 2.284735e-05 1.825912e-05 2.390517e-05 6.510537e-05 1.470983e-04 5.704843e-05 2.783613e-05 2.433427e-05 5.193847e-05 2.941737e-05 2.826322e-05 2.015882e-06 7.914199e-07 8.673886e-07 1.165234e-06 2.329886e-06 3.969485e-06 1.978171e-06 2.186889e-06 1.405910e-06 2.075456e-06 1.495263e-06 1.631128e-06
<GCONST> -2.334992e+02
<TRANSP> 3
 0.000000e+00 1.000000e+00 0.000000e+00
 0.000000e+00 9.584388e-01 4.156120e-02
 0.000000e+00 0.000000e+00 0.000000e+00
<ENDHMM>
~h "Tab0195"
<BEGINHMM>
<NUMSTATES> 3
<STATE> 2
<MEAN> 39
 -3.671520e+02 8.609915e-02 3.636900e-03 2.643165e-01 3.408625e-01 3.975615e-01 4.852788e-01 6.082125e-01 5.077426e-01 4.714052e-01 5.493500e-01 5.936517e-01 6.415698e-01 4.240510e-01 2.758257e-01 3.784922e-04 8.607850e-04 2.080642e-03 5.214250e-04 -5.143924e-04 5.569668e-04 2.542082e-03 3.552560e-03 7.687540e-04 -1.150706e-03 -4.101251e-05 9.556905e-04 4.366481e-05 2.887299e-05 8.564821e-07 -1.610990e-04 -2.984682e-04 -4.387760e-04 -3.841121e-04 -3.211659e-04 -2.951205e-04 -1.395791e-04 -8.323401e-05 -2.235640e-05
<VARIANCE> 39
 2.327254e+04 9.333645e+02 7.043365e+01 2.578444e-02 3.507258e-02 7.702664e-02 4.052996e-02 9.413754e-02 6.206966e-02 6.355553e-02 1.013200e-01 6.184549e-02 1.358866e-01 5.803066e-02 2.895588e-02 7.349209e-04 7.466525e-04 1.725453e-03 8.711738e-04 1.817868e-03 1.264828e-03 1.707627e-03 2.353035e-03 9.688073e-04 1.297177e-03 5.270795e-04 6.644439e-04 3.841020e-05 3.129884e-05 6.959025e-05 4.768645e-05 9.227070e-05 7.726737e-05 1.040082e-04 1.319036e-04 5.885988e-05 7.179195e-05 2.610632e-05 3.531012e-05
<GCONST> -1.400036e+02
<TRANSP> 3
 0.000000e+00 1.000000e+00 0.000000e+00
 0.000000e+00 9.400970e-01 5.990297e-02
 0.000000e+00 0.000000e+00 0.000000e+00
<ENDHMM>
~h "Tab0196"
<BEGINHMM>
<NUMSTATES> 3
<STATE> 2
<MEAN> 39
 -6.347603e+02 -5.383968e-03 8.789909e-03 1.194917e-03 1.721049e-03 2.087198e-03 1.814557e-03 1.750786e-03 1.534322e-03 2.457149e-03 3.649343e-03 2.629388e-03 1.442881e-03 1.666273e-03 1.735829e-03 2.589938e-05 3.771565e-05 5.029555e-05 7.575407e-05 3.711885e-05 3.143451e-05 3.685196e-05 7.606228e-06 5.916300e-05 5.548695e-05 2.428711e-05 3.573949e-05 1.326618e-05 1.198787e-07 3.288980e-06 4.947564e-06 8.873758e-06 7.385795e-06 2.249915e-06 -2.866087e-06 -1.713571e-05 -1.807978e-05 -1.196083e-05 -3.879679e-06
<VARIANCE> 39
 3.872017e+02 1.648368e+00 9.713050e-02 9.574931e-04 8.710981e-04 1.202671e-03 8.305650e-04 1.072329e-03 8.484249e-04 1.449845e-03 3.195780e-03 1.691994e-03 1.215130e-03 1.157038e-03 1.099575e-03 7.738464e-06 5.756516e-06 8.173934e-06 6.020874e-06 9.842092e-06 7.769793e-06 7.680384e-06 9.380564e-06 7.747504e-06 9.102586e-06 6.066088e-06 8.300907e-06 4.039318e-07 3.075810e-07 4.262554e-07 3.611576e-07 5.388900e-07 4.357443e-07 4.302722e-07 5.102124e-07 4.449722e-07 6.089987e-07 3.307438e-07 4.497233e-07
<GCONST> -3.220945e+02
<TRANSP> 3
 0.000000e+00 1.000000e+00 0.000000e+00
 0.000000e+00 9.853666e-01 1.463339e-02
 0.000000e+00 0.000000e+00 0.000000e+00
<ENDHMM>
~h "Tab0197"
<BEGINHMM>
<NUMSTATES> 3
<STATE> 2
<MEAN> 39
 -5.630703e+02 -2.703704e-01 -4.023157e-03 1.643856e-01 4.614972e-01 6.353620e-01 4.326752e-01 3.958413e-01 3.408097e-01 1.621852e-01 1.135096e-01 2.336254e-01 3.621466e-01 2.240172e-01 7.891521e-02 -2.959834e-04 -9.316776e-04 -1.727842e-03 -1.307130e-03 6.422399e-04 1.774541e-03 8.818964e-04 1.590609e-04 -1.462348e-04 3.082346e-04 -8.113752e-05 -4.436982e-04 1.806627e-04 1.421201e-04 7.391203e-05 -1.047409e-05 -2.705838e-04 -4.041911e-04 2.988570e-05 4.554024e-04 2.687427e-04 -1.122753e-05 3.270352e-05 2.109632e-04
<VARIANCE> 39
 7.201788e+03 6.777774e+01 3.705400e+00 3.505928e-02 8.572008e-02 1.112642e-01 5.598620e-02 1.297659e-01 1.087166e-01 4.080902e-02 4.454014e-02 4.683401e-02 1.495112e-01 4.897753e-02 6.739679e-03 3.868723e-04 6.203642e-04 8.395177e-04 5.337799e-04 8.391553e-04 7.448400e-04 3.677002e-04 1.891122e-04 1.445767e-04 1.600409e-04 9.342287e-05 7.722325e-05 2.056822e-05 3.039704e-05 4.545243e-05 2.691708e-05 3.956217e-05 3.880596e-05 1.642461e-05 1.451269e-05 8.368050e-06 8.865210e-06 4.266375e-06 5.756941e-06
<GCONST> -1.772268e+02
<TRANSP> 3
 0.000000e+00 1.000000e+00 0.000000e+00
 0.000000e+00 8.608009e-01 1.391991e-01
 0.000000e+00 0.000000e+00 0.000000e+00
<ENDHMM>
~h "Tab0206"
<BEGINHMM>
<NUMSTATES> 3
<STATE> 2
<MEAN> 39
 -4.246920e+02 1.731478e+00 -9.608547e-02 2.240808e-01 4.340666e-01 3.879081e-01 2.212755e-01 3.731040e-01 5.565509e-01 4.031723e-01 1.926814e-01 1.498058e-01 1.022542e-01 7.788402e-02 9.221476e-02 -2.095684e-03 -3.481997e-03 -1.366958e-03 6.550523e-04 2.456820e-03 2.346447e-03 3.293466e-04 -1.918375e-03 -2.042464e-03 -8.155587e-04 -1.548061e-04 -5.043179e-04 -3.839831e-05 -4.442036e-04 -3.544579e-04 8.127483e-05 -1.156915e-04 -1.532881e-04 5.345533e-04 5.855329e-04 3.226640e-04 4.546550e-04 3.982739e-04 3.323593e-04
<VARIANCE> 39
 8.068250e+03 1.847709e+02 1.319528e+01 5.613204e-02 1.608552e-01 1.242138e-01 6.819645e-02 6.380848e-02 9.808310e-02 9.380864e-02 4.303183e-02 2.351149e-02 1.021557e-02 4.416208e-03 7.245686e-03 8.046511e-04 2.825972e-03 1.313333e-03 1.737143e-04 1.150531e-03 1.158996e-03 2.473678e-03 5.760471e-04 5.595094e-04 1.591290e-04 5.227091e-05 8.146597e-05 3.836741e-05 1.119318e-04 5.791118e-05 1.217088e-05 5.741467e-05 6.914720e-05 1.092155e-04 2.585021e-05 3.826413e-05 1.345377e-05 4.309754e-06 6.807328e-06
<GCONST> -1.660699e+02
<TRANSP> 3
 0.000000e+00 1.000000e+00 0.000000e+00
 0.000000e+00 8.965432e-01 1.034568e-01
 0.000000e+00 0.000000e+00 0.000000e+00
<ENDHMM>
~h "Tab0209"
<BEGINHMM>
<NUMSTATES> 3
<STATE> 2
<MEAN> 39
 -3.967270e+02 1.450508e+00 2.928672e-01 2.915829e-01 4.989618e-01 6.177096e-01 4.482570e-01 3.337212e-01 3.296104e-01 3.889945e-01 4.089769e-01 4.960664e-01 5.965031e-01 4.481455e-01 2.926425e-01 2.396236e-03 -1.411664e-03 -5.161831e-03 -4.078721e-04 6.680144e-03 6.541907e-03 2.415088e-03 5.732359e-04 1.262539e-03 -6.919663e-05 9.645888e-04 2.596343e-03 -5.452923e-04 -1.652183e-03 -1.723182e-03 -1.477162e-03 -6.835895e-04 -4.339756e-04 -2.691036e-04 -3.753431e-04 -8.772332e-04 -7.163474e-04 -8.170938e-04 -5.837001e-04
<VARIANCE> 39
 2.658946e+04 2.405781e+02 1.237327e+01 5.383087e-02 7.618097e-02 1.200033e-01 5.486432e-02 5.792555e-02 6.208833e-02 8.024272e-02 1.001112e-01 6.234824e-02 1.046866e-01 5.694567e-02 6.400505e-02 1.537321e-03 2.160874e-03 3.418381e-03 1.233959e-03 2.109668e-03 1.798173e-03 2.400355e-03 3.079314e-03 1.758878e-03 2.713962e-03 1.705367e-03 1.991716e-03 7.694212e-05 1.138023e-04 1.630420e-04 6.595310e-05 1.021183e-04 9.084990e-05 1.251149e-04 1.498928e-04 9.506207e-05 1.308425e-04 8.699916e-05 1.006144e-04
<GCONST> -1.258329e+02
<TRANSP> 3
 0.000000e+00 1.000000e+00 0.000000e+00
 0.000000e+00 8.267965e-01 1.732035e-01
 0.000000e+00 0.000000e+00 0.000000e+00
<ENDHMM>
~h "Tab0216"
<BEGINHMM>
<NUMSTATES> 3
<STATE> 2
<MEAN> 39
 -4.857053e+02 -1.589000e+00 -1.011086e-02 4.088582e-01 3.522872e-01 3.787661e-01 2.768776e-01 1.853130e-01 1.611825e-01 2.087576e-01 2.459881e-01 2.858382e-01 3.650187e-01 3.159764e-01 3.895449e-01 -2.977275e-03 -5.745203e-04 1.629994e-03 1.528740e-03 1.232616e-03 -4.876631e-04 -2.190044e-03 -2.173473e-03 -2.029632e-03 -1.574728e-03 -7.798595e-04 -1.808415e-03 -3.373120e-04 1.299556e-04 3.694714e-04 4.890917e-04 9.154599e-04 7.965598e-04 4.191183e-04 5.075900e-04 5.692539e-04 5.789021e-04 1.146548e-03 5.302859e-04
<VARIANCE> 39
 1.251882e+04 1.350135e+02 7.757767e+00 1.404178e-01 5.028677e-02 1.461883e-01 5.615640e-02 4.464890e-02 2.174287e-02 3.560586e-02 9.558804e-02 4.677536e-02 1.434249e-01 5.863040e-02 1.030453e-01 1.555970e-03 7.273790e-04 1.137717e-03 6.416476e-04 3.797183e-04 1.957213e-04 1.761724e-04 1.252642e-04 3.230527e-04 6.672387e-04 3.915592e-04 1.164121e-03 8.825516e-05 4.266214e-05 7.007374e-05 4.074519e-05 2.618200e-05 1.267423e-05 1.232329e-05 1.112464e-05 1.710047e-05 3.732619e-05 2.532347e-05 6.319048e-05
<GCONST> -1.612740e+02
<TRANSP> 3
 0.000000e+00 1.000000e+00 0.000000e+00
 0.000000e+00 7.080750e-01 2.919250e-01
 0.000000e+00 0.000000e+00 0.000000e+00
<ENDHMM>
~h "Tab0221"
<BEGINHMM>
<NUMSTATES> 3
<STATE> 2
<MEAN> 39
 -2.914913e+02 -2.358735e-01 2.801180e-02 5.634193e-01 4.115684e-01 2.574654e-01 1.758911e-01 3.436046e-01 5.529366e-01 3.420587e-01 1.755583e-01 2.152587e-01 4.170488e-01 4.861595e-01 4.956657e-01 8.402743e-05 4.043663e-05 -1.405183e-05 -8.752101e-05 1.071340e-04 2.269190e-04 8.663365e-05 -1.911440e-05 -1.567606e-04 -1.629493e-04 -2.182310e-05 5.071468e-05 4.114402e-05 2.725363e-05 2.533075e-05 2.213981e-05 -2.317589e-06 -2.519121e-05 1.564866e-05 3.527516e-05 7.777721e-05 9.318696e-05 5.831080e-05 5.321001e-05
<VARIANCE> 39
 5.068573e+03 2.720156e+02 1.966106e+01 2.022824e-01 2.310094e-02 4.370894e-02 1.366643e-02 1.883202e-02 7.114781e-02 1.866757e-02 2.064087e-02 3.209184e-02 9.641003e-02 1.588163e-01 3.035351e-02 4.378993e-04 1.233012e-04 1.976732e-04 1.468643e-04 3.180449e-04 1.297232e-03 4.610521e-04 2.216087e-04 2.291644e-04 4.011708e-04 3.661289e-04 3.555623e-04 2.264644e-05 7.708275e-06 1.156311e-05 9.938983e-06 2.206329e-05 9.046144e-05 3.276178e-05 1.505274e-05 1.423310e-05 2.346621e-05 1.870888e-05 2.338500e-05
<GCONST> -1.767172e+02
<TRANSP> 3
 0.000000e+00 1.000000e+00 0.000000e+00
 0.000000e+00 9.654786e-01 3.452141e-02
 0.000000e+00 0.000000e+00 0.000000e+00
<ENDHMM>
~h "Tab0222"
<BEGINHMM>
<NUMSTATES> 3
<STATE> 2
<MEAN> 39
 -3.643556e+02 -9.157214e-01 5.723660e-02 3.977397e-01 1.727888e-01 1.719345e-01 4.017802e-01 5.856048e-01 3.443579e-01 4.050758e-01 6.476867e-01 3.613401e-01 7.322901e-02 2.488262e-01 5.171570e-01 1.415863e-03 9.216116e-05 -2.191090e-04 1.414609e-04 -6.422437e-04 -1.930327e-03 -1.533913e-03 -3.137967e-04 -2.144196e-05 -1.892450e-04 1.357335e-03 2.642596e-03 3.644372e-05 1.895077e-04 9.205875e-05 6.845409e-05 1.772470e-04 5.864581e-04 2.692658e-04 -4.319226e-04 -5.721330e-05 2.314326e-04 1.514537e-05 -1.931318e-04
<VARIANCE> 39
 1.509325e+04 4.049954e+01 3.178110e+00 7.325300e-02 2.145875e-02 1.013191e-02 6.853788e-02 1.849169e-01 5.479583e-02 5.282054e-02 1.441966e-01 4.013778e-02 7.481547e-03 4.220045e-02 9.696245e-02 6.397524e-04 4.954011e-05 5.133326e-05 2.368484e-04 1.287394e-04 6.997125e-04 7.895803e-04 2.544364e-03 4.326197e-04 1.626476e-05 6.464966e-04 2.358429e-03 4.990427e-05 3.707887e-06 3.474825e-06 1.764689e-05 1.310870e-05 5.247962e-05 5.923728e-05 2.016588e-04 3.401960e-05 1.482175e-06 5.121660e-05 1.851140e-04
<GCONST> -1.750989e+02
<TRANSP> 3
 0.000000e+00 1.000000e+00 0.000000e+00
 0.000000e+00 8.338274e-01 1.661725e-01
 0.000000e+00 0.000000e+00 0.000000e+00
<ENDHMM>
~h "Tab0224"
<BEGINHMM>
<NUMSTATES> 3
<STATE> 2
<MEAN> 39
 -3.281429e+02 -1.194386e+00 5.326034e-02 2.271082e-01 1.478031e-01 1.279670e-01 2.083870e-01 3.818108e-01 4.530727e-01 4.469895e-01 3.366491e-01 3.402985e-01 4.495873e-01 3.491541e-01 2.684914e-01 -5.231305e-04 -6.444217e-04 -1.842465e-03 -2.541628e-03 -1.677616e-03 -4.239941e-04 -1.508912e-03 -5.351000e-03 -1.048834e-03 1.528270e-03 -4.500861e-05 -1.197629e-03 1.062193e-04 2.008644e-04 5.006319e-04 7.114804e-04 5.884813e-04 1.528476e-04 2.398301e-04 8.625327e-04 4.592945e-04 -1.128340e-04 9.827767e-05 2.588611e-04
<VARIANCE> 39
 1.217456e+04 3.762303e+01 2.682626e+00 1.311971e-02 4.426555e-03 6.868043e-03 2.736153e-02 7.363329e-02 1.123691e-01 1.289852e-01 1.195875e-01 5.991151e-02 1.874628e-01 5.480654e-02 4.531564e-02 8.089556e-05 6.646715e-05 1.630500e-04 6.191472e-04 1.418251e-03 9.816815e-04 3.982296e-04 5.905752e-04 3.858242e-04 1.569668e-04 1.454801e-04 4.352235e-04 8.877838e-06 5.732773e-06 1.156369e-05 3.908217e-05 8.948686e-05 5.886762e-05 1.818816e-05 2.986018e-05 2.200188e-05 7.223719e-06 1.036143e-05 3.063059e-05
<GCONST> -1.792276e+02
<TRANSP> 3
 0.000000e+00 1.000000e+00 0.000000e+00
 0.000000e+00 6.600628e-01 3.399372e-01
 0.000000e+00 0.000000e+00 0.000000e+00
<ENDHMM>
~h "Tab0226"
<BEGINHMM>
<NUMSTATES> 3
<STATE> 2
<MEAN> 39
 -3.174134e+02 1.108588e+00 -7.407479e-01 3.973193e-01 3.520303e-01 2.920991e-01 2.067960e-01 2.763171e-01 4.045254e-01 2.887371e-01 2.237259e-01 4.397646e-01 6.954231e-01 4.547224e-01 3.087183e-01 -1.852563e-03 -5.375835e-04 4.258483e-04 1.016383e-03 -9.621228e-04 -4.782736e-04 7.450345e-04 -8.254230e-04 -7.990733e-04 7.109810e-04 1.282941e-03 -7.418961e-04 -5.622553e-04 2.065781e-04 1.122327e-03 1.073656e-03 8.827609e-04 7.215614e-04 9.926554e-04 7.382567e-04 -1.903077e-04 -9.309808e-04 -1.331333e-04 2.534350e-04
<VARIANCE> 39
 9.948013e+03 1.752070e+02 1.254033e+01 1.735350e-01 2.492638e-02 4.614005e-02 2.012109e-02 5.162242e-02 9.842131e-02 3.699662e-02 6.875160e-02 3.800960e-02 1.173389e-01 5.743382e-02 5.227478e-02 9.741642e-04 2.781495e-04 4.488106e-04 1.986077e-04 2.369398e-04 6.217631e-04 3.467949e-04 5.079855e-04 6.594618e-04 8.245482e-04 8.197018e-04 5.371512e-04 4.656970e-05 1.818615e-05 3.862213e-05 2.132653e-05 2.407141e-05 3.950958e-05 2.358153e-05 4.455975e-05 3.716800e-05 4.249289e-05 3.985107e-05 3.302182e-05
<GCONST> -1.619916e+02
<TRANSP> 3
 0.000000e+00 1.000000e+00 0.000000e+00
 0.000000e+00 7.699934e-01 2.300067e-01
 0.000000e+00 0.000000e+00 0.000000e+00
<ENDHMM>
~h "Tab0227"
<BEGINHMM>
<NUMSTATES> 3
<STATE> 2
<MEAN> 39
 -2.749275e+02 -1.790166e-01 4.105064e-02 4.247231e-01 2.580022e-01 1.431282e-01 1.839612e-01 3.279266e-01 4.245063e-01 3.548892e-01 2.624961e-01 3.493661e-01 5.255206e-01 4.470687e-01 4.268795e-01 2.496740e-04 4.333885e-04 1.816188e-04 1.708442e-04 1.454742e-04 -3.900559e-05 -5.340154e-04 -6.575444e-04 -1.274837e-04 -1.130901e-04 3.928227e-05 -5.890162e-06 3.054778e-05 7.793871e-05 1.432647e-04 1.665652e-04 8.289818e-05 1.749472e-04 1.506031e-04 1.969745e-04 1.882675e-04 -4.684676e-05 -1.620176e-05 2.351967e-05
<VARIANCE> 39
 7.318705e+03 1.460906e+02 9.548631e+00 1.576711e-01 3.593696e-02 1.056317e-02 1.596104e-02 4.978006e-02 7.639699e-02 5.621581e-02 3.977586e-02 7.068780e-02 1.571469e-01 9.357228e-02 1.025210e-01 4.321513e-04 1.876849e-04 1.591045e-04 3.710671e-04 8.379572e-04 1.387031e-03 1.261676e-03 9.302159e-04 8.930761e-04 3.326040e-04 3.910350e-04 2.863646e-04 2.369117e-05 1.002770e-05 9.319474e-06 2.358987e-05 4.710905e-05 9.379851e-05 8.633077e-05 6.367142e-05 6.495962e-05 1.933637e-05 2.307696e-05 1.814646e-05
<GCONST> -1.629386e+02
<TRANSP> 3
 0.000000e+00 1.000000e+00 0.000000e+00
 0.000000e+00 9.801087e-01 1.989130e-02
 0.000000e+00 0.000000e+00 0.000000e+00
<ENDHMM>
~h "Tab0240"
<BEGINHMM>
<NUMSTATES> 3
<STATE> 2
<MEAN> 39
 -2.251354e+02 3.958526e-02 8.327184e-03 5.144843e-01 8.868682e-01 5.636806e-01 1.685135e-01 1.949097e-01 3.158118e-01 4.663255e-01 5.913207e-01 7.694331e-01 4.597137e-01 1.314172e-01 1.227126e-01 2.600886e-03 3.098576e-03 1.813011e-03 9.267990e-04 -1.893578e-03 -3.561092e-03 -4.432531e-03 5.275975e-04 5.546950e-03 2.762351e-03 -6.741544e-05 3.679702e-04 -5.829574e-04 -1.308295e-03 -6.789974e-04 2.644543e-04 2.418885e-04 -1.037645e-04 -1.797178e-04 -2.296738e-05 -2.930102e-04 -1.338953e-04 2.234476e-05 1.009895e-05
<VARIANCE> 39
 1.173501e+03 4.826772e+01 3.164938e+00 1.929033e-02 3.289291e-02 1.550462e-02 8.050550e-03 5.938494e-03 1.594329e-02 4.803923e-02 3.487028e-02 5.456648e-02 2.359194e-02 5.076374e-03 1.056142e-02 5.783499e-04 1.496681e-03 3.418095e-04 2.540440e-04 1.987159e-04 4.140142e-04 1.498865e-03 1.101105e-03 1.948282e-03 8.680156e-04 1.496000e-04 2.764151e-04 3.052956e-05 8.594552e-05 1.425916e-05 1.617409e-05 1.151427e-05 2.221127e-05 8.560162e-05 7.391325e-05 1.170944e-04 5.272398e-05 9.475247e-06 1.770624e-05
<GCONST> -1.791868e+02
<TRANSP> 3
 0.000000e+00 1.000000e+00 0.000000e+00
 0.000000e+00 8.784907e-01 1.215094e-01
 0.000000e+00 0.000000e+00 0.000000e+00
<ENDHMM>
~h "Tab0242"
<BEGINHMM>
<NUMSTATES> 3
<STATE> 2
<MEAN> 39
