~o
<STREAMINFO> 1 39
<VECSIZE> 39<NULLD><MFCC_E_D_A><DIAGC>
~h "Sil"
<BEGINHMM>
<NUMSTATES> 3
<STATE> 2
<MEAN> 39
 -5.470175e+02 -2.273709e-02 1.994826e-03 1.651771e-01 1.540288e-01 1.580854e-01 1.540749e-01 1.879866e-01 1.877967e-01 1.858775e-01 1.922059e-01 1.786596e-01 1.821600e-01 1.636918e-01 1.715034e-01 -1.459252e-06 7.901544e-06 1.371469e-05 2.795612e-06 -1.597022e-05 -1.435992e-05 -8.051851e-06 -2.608198e-06 5.063453e-06 -2.242887e-06 -3.638786e-06 -5.395867e-06 5.899608e-06 5.212540e-06 5.983893e-06 5.338559e-06 4.459202e-06 4.052272e-06 5.953363e-06 8.374453e-06 4.757152e-06 2.732617e-06 5.152528e-06 4.814297e-06
<VARIANCE> 39
 3.513972e+04 8.870258e+01 4.906401e+00 7.214308e-02 5.721836e-02 7.915793e-02 5.319625e-02 9.390245e-02 8.089266e-02 7.751366e-02 9.878929e-02 6.377280e-02 9.550663e-02 6.143678e-02 7.730576e-02 4.468068e-04 3.426605e-04 4.927886e-04 3.272004e-04 5.710715e-04 5.102611e-04 4.862770e-04 5.982665e-04 4.196333e-04 5.277039e-04 3.540532e-04 4.889141e-04 2.181261e-05 1.740747e-05 2.462204e-05 1.700671e-05 2.878844e-05 2.628382e-05 2.570423e-05 3.047309e-05 2.228070e-05 2.607581e-05 1.814327e-05 2.510844e-05
<GCONST> -1.632975e+02
<TRANSP> 3
 0.000000e+00 1.000000e+00 0.000000e+00
 0.000000e+00 9.994201e-01 5.799067e-04
 0.000000e+00 0.000000e+00 0.000000e+00
<ENDHMM>
~h "Tab0000"
<BEGINHMM>
<NUMSTATES> 3
<STATE> 2
<MEAN> 39
 -4.542797e+02 3.489377e-01 3.603100e-01 1.397929e-01 1.376666e-01 1.500143e-01 2.685083e-01 4.396307e-01 4.167209e-01 3.226216e-01 2.686682e-01 2.252209e-01 2.135624e-01 2.003206e-01 1.675585e-01 1.739483e-03 2.911836e-03 3.365820e-03 1.860422e-06 -2.152569e-03 -1.848104e-03 7.587259e-04 4.285213e-03 2.558228e-03 8.993344e-04 4.098763e-03 2.043911e-03 7.722449e-04 5.567500e-04 5.690368e-04 1.507269e-04 -8.171900e-04 -8.480229e-04 -1.468595e-04 7.300595e-04 1.251770e-03 1.333938e-03 1.152770e-03 9.146885e-04
<VARIANCE> 39
 2.355393e+04 1.524329e+02 1.090450e+01 4.083036e-02 3.318525e-02 4.613685e-02 6.772339e-02 1.658353e-01 1.252153e-01 9.158389e-02 1.000706e-01 6.190237e-02 8.789485e-02 7.577996e-02 5.877815e-02 6.856772e-04 5.697440e-04 7.529192e-04 1.238846e-03 2.774551e-03 1.262219e-03 1.329840e-03 1.624125e-03 1.228674e-03 1.190416e-03 1.138620e-03 7.996958e-04 3.830663e-05 2.762147e-05 4.710981e-05 6.017942e-05 1.373752e-04 7.686712e-05 6.871559e-05 7.783213e-05 6.208058e-05 7.478483e-05 7.061611e-05 5.638040e-05
<GCONST> -1.402899e+02
<TRANSP> 3
 0.000000e+00 1.000000e+00 0.000000e+00
 0.000000e+00 5.692504e-01 4.307496e-01
 0.000000e+00 0.000000e+00 0.000000e+00
<ENDHMM>
~h "Tab0001"
<BEGINHMM>
<NUMSTATES> 3
<STATE> 2
<MEAN> 39
 -2.784713e+02 -3.475260e-02 1.641531e-02 9.345224e-02 1.518639e-01 4.844566e-01 6.201147e-01 3.598946e-01 2.604664e-01 3.351339e-01 4.819856e-01 5.300554e-01 3.019665e-01 1.775166e-01 1.285999e-01 1.007306e-03 8.772534e-04 -2.902521e-04 -6.912281e-04 9.574350e-05 1.658843e-03 3.518739e-03 2.994700e-03 9.257535e-04 -2.119580e-05 8.547441e-04 1.002027e-03 2.178459e-04 1.683584e-04 4.746172e-05 4.255681e-05 1.210755e-04 -6.416361e-05 -2.726478e-04 -3.769970e-04 -6.532294e-05 1.272616e-04 1.746582e-04 2.799378e-04
<VARIANCE> 39
 9.588372e+03 1.056622e+02 6.634618e+00 1.250293e-02 2.783045e-02 1.072927e-01 1.604125e-01 4.529936e-02 4.382821e-02 8.194364e-02 6.524274e-02 1.186437e-01 4.567971e-02 2.709808e-02 2.288181e-02 1.429847e-04 3.211042e-04 5.899462e-04 6.834256e-04 9.195312e-04 1.115385e-03 1.525371e-03 1.922049e-03 2.619904e-03 8.235901e-04 1.920074e-04 1.874331e-04 7.941299e-06 1.780910e-05 2.956828e-05 3.357838e-05 5.485634e-05 7.175718e-05 8.279460e-05 1.125377e-04 1.469537e-04 4.451150e-05 1.147072e-05 9.662206e-06
<GCONST> -1.600435e+02
<TRANSP> 3
 0.000000e+00 1.000000e+00 0.000000e+00
 0.000000e+00 8.655969e-01 1.344031e-01
 0.000000e+00 0.000000e+00 0.000000e+00
<ENDHMM>
~h "Tab0002"
<BEGINHMM>
<NUMSTATES> 3
<STATE> 2
<MEAN> 39
 -4.419455e+02 5.360402e-01 -1.258109e-01 3.045206e-01 2.413889e-01 2.076250e-01 1.576203e-01 1.453634e-01 1.569339e-01 3.400435e-01 5.664334e-01 4.325107e-01 2.560986e-01 2.051673e-01 2.365667e-01 2.492046e-03 2.902408e-04 -7.311379e-04 6.984493e-04 2.093998e-03 -5.085297e-04 -1.325478e-03 2.523929e-04 2.155833e-03 5.584832e-03 7.032902e-03 2.987124e-03 2.641768e-04 9.884705e-05 -1.537769e-04 2.853131e-04 2.880315e-04 2.724590e-04 -5.800200e-04 -1.639061e-03 -1.088249e-03 1.507361e-04 2.318293e-04 1.393128e-04
<VARIANCE> 39
 1.038945e+04 7.298769e+01 4.176511e+00 1.422496e-01 5.782337e-02 8.283967e-02 4.360945e-02 4.997436e-02 5.488857e-02 5.441231e-02 1.759387e-01 6.548087e-02 1.040170e-01 6.918483e-02 6.577301e-02 5.858055e-03 1.920916e-03 1.892238e-03 1.062999e-03 9.494757e-04 1.066184e-03 1.553764e-03 5.263106e-03 1.981941e-03 3.068807e-03 1.715900e-03 2.148658e-03 3.528794e-04 1.150999e-04 9.671976e-05 4.907227e-05 4.126308e-05 5.618612e-05 8.701706e-05 2.756699e-04 1.018968e-04 1.332710e-04 6.262185e-05 1.138434e-04
<GCONST> -1.297442e+02
<TRANSP> 3
 0.000000e+00 1.000000e+00 0.000000e+00
 0.000000e+00 7.483093e-01 2.516908e-01
 0.000000e+00 0.000000e+00 0.000000e+00
<ENDHMM>
~h "Tab0003"
<BEGINHMM>
<NUMSTATES> 3
<STATE> 2
<MEAN> 39
 -4.210421e+02 1.544991e-02 1.365756e-01 1.262953e-01 4.215299e-01 6.637504e-01 4.281512e-01 2.693015e-01 2.815780e-01 3.003437e-01 3.015440e-01 3.377530e-01 4.059920e-01 2.409694e-01 9.897135e-02 1.435899e-04 6.859893e-04 1.721101e-03 3.069787e-03 2.450306e-03 -1.511236e-03 -3.007349e-03 -9.981514e-04 1.795023e-03 3.667575e-03 2.905736e-03 1.166968e-03 3.891761e-04 -4.602166e-04 -1.188939e-03 -3.118038e-04 7.194866e-04 7.207774e-04 8.431968e-04 7.668687e-04 5.584594e-04 4.095042e-04 4.531963e-04 4.844222e-04
<VARIANCE> 39
 2.281005e+04 1.261329e+02 8.089666e+00 2.584726e-02 6.351563e-02 1.434982e-01 4.847798e-02 5.877010e-02 7.077944e-02 8.786175e-02 1.131867e-01 5.908641e-02 1.253011e-01 4.229661e-02 1.848182e-02 5.022587e-04 8.415557e-04 1.653396e-03 7.534652e-04 1.022317e-03 8.708167e-04 6.890700e-04 9.072808e-04 7.307671e-04 9.110359e-04 3.914008e-04 2.903863e-04 2.596579e-05 4.392475e-05 8.733993e-05 4.268968e-05 6.309259e-05 5.122852e-05 3.587379e-05 5.108261e-05 4.073471e-05 5.044346e-05 2.182476e-05 1.829526e-05
<GCONST> -1.529058e+02
<TRANSP> 3
 0.000000e+00 1.000000e+00 0.000000e+00
 0.000000e+00 8.536877e-01 1.463123e-01
 0.000000e+00 0.000000e+00 0.000000e+00
<ENDHMM>
~h "Tab0004"
<BEGINHMM>
<NUMSTATES> 3
<STATE> 2
<MEAN> 39
 -3.561071e+02 9.871565e-01 -7.938550e-02 3.344572e-01 2.733205e-01 2.536956e-01 3.083125e-01 3.767269e-01 3.355548e-01 3.119042e-01 3.458772e-01 4.249610e-01 5.222418e-01 4.293090e-01 3.742477e-01 3.509529e-03 1.741468e-04 -1.985047e-03 -1.412269e-03 5.177981e-05 7.073403e-04 1.408347e-03 8.613840e-05 -4.766512e-04 4.230791e-04 9.625241e-04 3.484350e-03 3.886506e-04 4.551854e-04 3.406469e-04 9.220570e-05 7.934473e-05 3.093388e-05 1.692185e-05 -1.283238e-04 -3.952214e-04 -8.708781e-04 -5.588664e-04 5.261642e-05
<VARIANCE> 39
 1.858767e+04 2.732319e+02 1.595251e+01 1.108561e-01 4.799857e-02 8.008648e-02 5.305913e-02 9.098549e-02 6.985977e-02 6.788483e-02 8.324548e-02 8.246165e-02 1.326611e-01 8.179067e-02 8.413655e-02 2.121889e-03 9.100256e-04 1.529056e-03 1.141972e-03 1.661085e-03 1.301870e-03 1.568505e-03 2.417173e-03 1.467509e-03 2.524138e-03 1.917100e-03 1.564535e-03 1.200834e-04 4.693592e-05 7.976982e-05 6.412826e-05 9.888052e-05 7.936906e-05 8.733451e-05 1.285578e-04 7.799869e-05 1.290800e-04 1.052064e-04 7.583817e-05
<GCONST> -1.298173e+02
<TRANSP> 3
 0.000000e+00 1.000000e+00 0.000000e+00
 0.000000e+00 8.174068e-01 1.825932e-01
 0.000000e+00 0.000000e+00 0.000000e+00
<ENDHMM>
~h "Tab0005"
<BEGINHMM>
<NUMSTATES> 3
<STATE> 2
<MEAN> 39
 -3.511962e+02 4.218158e-01 -3.860060e-02 1.989670e-01 3.126864e-01 4.066005e-01 5.006317e-01 6.031537e-01 6.178420e-01 6.162282e-01 4.854868e-01 3.064500e-01 2.357355e-01 1.932825e-01 1.904066e-01 -8.761686e-05 2.229441e-04 5.516905e-05 9.267751e-05 1.048447e-03 6.278880e-04 -1.925023e-04 3.365688e-04 7.805651e-04 6.074740e-04 -6.129200e-04 -1.105889e-03 -5.940503e-05 -1.240310e-04 -2.175539e-04 -3.009104e-04 -3.552755e-04 -3.485854e-04 -2.461702e-04 -8.753053e-05 -1.174822e-04 1.704837e-04 7.158223e-05 -1.598248e-04
<VARIANCE> 39
 6.488086e+03 1.182462e+02 8.656316e+00 4.194387e-02 7.522864e-02 1.076644e-01 8.890835e-02 1.242495e-01 4.816784e-02 1.032322e-01 7.668806e-02 5.911738e-02 7.172107e-02 3.604128e-02 5.256173e-02 9.495128e-04 1.736984e-03 2.317692e-03 2.350892e-03 5.774081e-03 1.852291e-03 3.325748e-03 2.722517e-03 1.781938e-03 1.140492e-03 3.561540e-04 9.882924e-04 5.907544e-05 8.251043e-05 9.703515e-05 1.210505e-04 3.680511e-04 1.083660e-04 2.026804e-04 1.588282e-04 1.122049e-04 6.643875e-05 2.065634e-05 6.447693e-05
<GCONST> -1.320092e+02
<TRANSP> 3
 0.000000e+00 1.000000e+00 0.000000e+00
 0.000000e+00 9.774930e-01 2.250694e-02
 0.000000e+00 0.000000e+00 0.000000e+00
<ENDHMM>
~h "Tab0006"
<BEGINHMM>
<NUMSTATES> 3
<STATE> 2
<MEAN> 39
 -2.198263e+02 3.271333e+00 4.123128e-01 3.402834e-01 2.881751e-01 3.123845e-01 5.085304e-01 7.288840e-01 5.529394e-01 2.889618e-01 2.633236e-01 4.463030e-01 6.335826e-01 4.601329e-01 3.448755e-01 -1.743128e-03 1.862883e-03 1.287519e-02 1.365570e-02 1.253408e-02 1.670289e-02 1.694293e-02 1.492356e-02 3.894192e-03 -1.280674e-02 -3.690211e-03 5.823195e-03 -3.734983e-04 1.350204e-04 4.960391e-04 -4.831154e-04 5.313564e-04 3.789979e-04 1.173081e-03 1.306931e-03 -9.822696e-04 -2.210763e-03 -1.525920e-03 2.400618e-06
<VARIANCE> 39
 2.862528e+03 1.446722e+02 1.222759e+01 5.670055e-02 2.893442e-02 4.881435e-02 8.141996e-02 1.346318e-01 6.968854e-02 4.650427e-02 3.640943e-02 3.975394e-02 1.051116e-01 2.035212e-02 5.589536e-02 1.861727e-03 5.842196e-04 1.304659e-03 1.604614e-03 3.048934e-03 2.220319e-03 1.140686e-03 8.886947e-04 8.771690e-04 1.858786e-03 5.092535e-04 1.215958e-03 6.946713e-05 2.622625e-05 7.174820e-05 9.705286e-05 1.298286e-04 1.124494e-04 8.594648e-05 7.926307e-05 6.668584e-05 1.063958e-04 3.549069e-05 5.365122e-05
<GCONST> -1.428629e+02
<TRANSP> 3
 0.000000e+00 1.000000e+00 0.000000e+00
 0.000000e+00 6.382460e-01 3.617540e-01
 0.000000e+00 0.000000e+00 0.000000e+00
<ENDHMM>
~h "Tab0007"
<BEGINHMM>
<NUMSTATES> 3
<STATE> 2
<MEAN> 39
 -2.233521e+02 -2.118465e-01 -2.103688e-01 3.778300e-01 2.768796e-01 3.343983e-01 5.386399e-01 7.683612e-01 6.243619e-01 4.615124e-01 4.139248e-01 4.474046e-01 5.191530e-01 4.653897e-01 4.990309e-01 4.666646e-05 -1.132886e-04 -2.521268e-04 -8.914447e-04 -1.230867e-03 -1.691087e-03 -3.901289e-04 -4.702372e-04 -2.917614e-03 -2.841871e-03 -1.557121e-03 -4.334725e-05 -2.199678e-04 -3.046622e-04 -5.897359e-04 -5.992136e-04 -7.434403e-04 -9.957800e-04 -9.241345e-04 -9.889995e-04 -4.790071e-04 4.791232e-04 1.383021e-04 -3.258414e-04
<VARIANCE> 39
 3.770714e+03 2.050835e+02 1.592746e+01 6.572594e-02 3.666130e-02 4.100669e-02 6.673395e-02 1.002138e-01 5.650416e-02 4.513431e-02 4.292066e-02 7.966296e-02 1.262257e-01 1.563706e-02 9.213267e-02 2.277661e-03 1.486104e-03 1.488429e-03 2.515974e-03 4.630493e-03 2.561298e-03 8.764484e-04 1.140216e-03 2.066872e-03 3.334225e-03 4.595126e-04 3.043717e-03 1.451762e-04 9.345511e-05 8.824017e-05 1.437761e-04 2.771403e-04 1.476170e-04 4.561252e-05 6.799731e-05 1.183117e-04 1.867051e-04 2.812536e-05 2.010904e-04
<GCONST> -1.316237e+02
<TRANSP> 3
 0.000000e+00 1.000000e+00 0.000000e+00
 0.000000e+00 9.096309e-01 9.036913e-02
 0.000000e+00 0.000000e+00 0.000000e+00
<ENDHMM>
~h "Tab0008"
<BEGINHMM>
<NUMSTATES> 3
<STATE> 2
<MEAN> 39
 -3.139121e+02 -1.724369e+00 -1.953582e-01 2.356358e-01 2.190318e-01 2.657680e-01 4.278802e-01 5.776440e-01 4.816985e-01 4.121902e-01 3.390253e-01 2.624485e-01 2.232096e-01 2.371836e-01 2.976512e-01 2.485749e-03 3.581160e-03 4.011193e-04 -5.622615e-03 -3.979887e-03 -2.613867e-04 -1.134843e-04 8.925896e-04 -1.936480e-04 -3.895057e-03 -2.117575e-03 5.710790e-04 8.277153e-04 9.823270e-04 5.200639e-04 -7.558080e-04 -1.474201e-03 2.608188e-04 3.343634e-04 6.426059e-04 1.325927e-03 1.021093e-03 3.964524e-04 4.805274e-04
<VARIANCE> 39
 9.317023e+03 1.715985e+02 1.067895e+01 5.231701e-02 7.146421e-02 7.740051e-02 8.575080e-02 1.423083e-01 5.467283e-02 1.234055e-01 6.650777e-02 5.261375e-02 6.495351e-02 5.300725e-02 1.178254e-01 1.003640e-03 8.025119e-04 8.571654e-04 1.560521e-03 2.698291e-03 1.339073e-03 1.470839e-03 1.037392e-03 1.119029e-03 1.205048e-03 1.090317e-03 2.168084e-03 4.876771e-05 4.774496e-05 5.304629e-05 7.609793e-05 1.323206e-04 9.242899e-05 1.063730e-04 5.735691e-05 5.302864e-05 5.335197e-05 5.134680e-05 8.754826e-05
<GCONST> -1.378831e+02
<TRANSP> 3
 0.000000e+00 1.000000e+00 0.000000e+00
 0.000000e+00 6.356217e-01 3.643782e-01
 0.000000e+00 0.000000e+00 0.000000e+00
<ENDHMM>
~h "Tab0009"
<BEGINHMM>
<NUMSTATES> 3
<STATE> 2
<MEAN> 39
 -2.107695e+02 -2.296212e-02 -8.229738e-02 3.352597e-01 2.693824e-01 4.454938e-01 5.869708e-01 7.782190e-01 6.622724e-01 4.299369e-01 3.111615e-01 3.088547e-01 3.762185e-01 4.720195e-01 5.208260e-01 -9.628720e-04 -9.381446e-04 -1.286269e-03 -2.386706e-03 -2.888632e-03 -7.871139e-04 1.393419e-03 2.515380e-03 3.122937e-04 -1.799956e-03 -1.489844e-03 -1.282907e-03 -4.323343e-04 -3.804632e-04 -5.769996e-04 -4.444579e-04 -3.465336e-04 -9.650688e-04 -8.778276e-04 -2.973170e-04 -3.454519e-04 -3.676409e-04 -3.994673e-04 -4.377888e-04
<VARIANCE> 39
 4.644575e+03 2.478431e+02 1.909181e+01 4.260812e-02 4.271787e-02 7.258990e-02 5.502883e-02 6.585515e-02 5.732470e-02 4.644905e-02 3.876535e-02 5.723792e-02 1.210735e-01 5.068064e-02 1.289769e-01 1.006748e-03 7.634189e-04 1.661153e-03 1.618225e-03 2.707391e-03 2.830405e-03 1.763222e-03 9.729565e-04 9.512250e-04 1.856119e-03 2.015826e-03 2.803966e-03 5.724347e-05 4.547035e-05 9.787744e-05 1.055400e-04 1.650322e-04 1.734348e-04 1.048637e-04 5.747328e-05 6.095840e-05 1.135542e-04 1.220104e-04 1.728166e-04
<GCONST> -1.333551e+02
<TRANSP> 3
 0.000000e+00 1.000000e+00 0.000000e+00
 0.000000e+00 9.636678e-01 3.633218e-02
 0.000000e+00 0.000000e+00 0.000000e+00
<ENDHMM>
~h "Tab0010"
<BEGINHMM>
<NUMSTATES> 3
<STATE> 2
<MEAN> 39
 -2.346152e+02 4.014350e-02 1.308214e-02 2.027314e-01 2.283506e-01 2.891811e-01 4.734018e-01 6.830350e-01 5.486468e-01 4.307704e-01 4.895460e-01 6.016852e-01 6.857473e-01 4.340681e-01 2.452819e-01 -5.833580e-04 -1.206539e-03 -2.021323e-03 -2.292492e-03 -1.787909e-03 -4.219022e-04 -6.232634e-04 -1.971374e-03 7.497738e-04 5.475483e-03 2.551200e-03 -6.881398e-04 -3.034145e-04 -4.283880e-04 -6.008168e-04 -9.877711e-04 -1.187308e-03 -1.306671e-03 -9.470147e-04 -8.926485e-04 -9.379333e-04 1.042879e-04 -9.322566e-05 -5.611666e-04
<VARIANCE> 39
 4.940724e+03 2.669211e+02 2.055124e+01 1.919777e-02 2.286430e-02 3.153093e-02 6.537542e-02 1.162912e-01 5.527639e-02 6.252639e-02 1.160869e-01 4.245824e-02 7.751009e-02 3.304891e-02 1.880917e-02 6.748755e-04 8.901817e-04 1.277317e-03 2.402163e-03 4.218164e-03 2.180520e-03 9.012243e-04 1.294487e-03 1.420349e-03 1.395115e-03 4.053186e-04 7.030212e-04 4.418972e-05 5.473781e-05 7.582954e-05 1.346100e-04 2.322658e-04 1.091537e-04 4.648846e-05 6.330334e-05 9.575769e-05 7.669155e-05 2.382173e-05 4.419858e-05
<GCONST> -1.434511e+02
<TRANSP> 3
 0.000000e+00 1.000000e+00 0.000000e+00
 0.000000e+00 9.556943e-01 4.430575e-02
 0.000000e+00 0.000000e+00 0.000000e+00
<ENDHMM>
~h "Tab0011"
<BEGINHMM>
<NUMSTATES> 3
<STATE> 2
<MEAN> 39
 -4.773988e+02 1.006035e+00 -1.367659e-01 3.665852e-01 2.640451e-01 1.988096e-01 1.770259e-01 2.125857e-01 2.557005e-01 4.213906e-01 5.768876e-01 4.619692e-01 3.354200e-01 2.750466e-01 3.245935e-01 -1.525243e-04 2.140038e-04 5.235379e-04 5.163656e-04 1.037404e-03 1.012135e-03 2.898229e-04 -3.129040e-04 3.611399e-04 -5.708315e-04 -6.152439e-04 -1.326009e-04 -5.904837e-04 -2.959529e-04 4.243052e-05 1.250250e-05 7.183006e-05 2.817134e-04 -3.757630e-04 -1.045438e-03 -6.260473e-04 3.494164e-05 -1.330767e-04 -5.353499e-04
<VARIANCE> 39
 1.894031e+04 2.284365e+02 1.260325e+01 1.481406e-01 6.196379e-02 6.219693e-02 4.189190e-02 6.114003e-02 8.409736e-02 7.095889e-02 1.541108e-01 6.551258e-02 1.213739e-01 7.668609e-02 9.934186e-02 5.111478e-03 1.870369e-03 1.272790e-03 8.108769e-04 1.401700e-03 2.957663e-03 1.907004e-03 4.676877e-03 1.936560e-03 3.467536e-03 2.204251e-03 3.665854e-03 2.718020e-04 1.036750e-04 6.744980e-05 4.733157e-05 7.573505e-05 1.533864e-04 1.010119e-04 2.191478e-04 9.628211e-05 1.738333e-04 1.091605e-04 1.981816e-04
<GCONST> -1.220456e+02
<TRANSP> 3
 0.000000e+00 1.000000e+00 0.000000e+00
 0.000000e+00 9.253063e-01 7.469365e-02
 0.000000e+00 0.000000e+00 0.000000e+00
<ENDHMM>
~h "Tab0012"
<BEGINHMM>
<NUMSTATES> 3
<STATE> 2
<MEAN> 39
 -2.275802e+02 2.910651e-01 -6.365436e-02 2.424337e-01 2.572866e-01 2.877744e-01 4.896092e-01 7.347011e-01 5.655085e-01 3.252347e-01 3.120233e-01 5.528500e-01 7.634693e-01 4.913072e-01 2.739877e-01 8.229263e-04 -4.799151e-04 -1.576678e-03 5.607805e-04 3.260721e-03 3.755767e-03 3.610460e-03 2.200541e-03 -4.328584e-04 -1.658232e-03 -6.432785e-04 6.187044e-04 -7.998892e-05 -1.747419e-04 -2.196675e-04 -5.119718e-04 -7.992233e-04 -6.626300e-04 -2.093217e-04 6.623204e-05 -7.888772e-06 1.478747e-04 -6.747959e-06 -2.107115e-04
<VARIANCE> 39
 3.792901e+03 1.966399e+02 1.484168e+01 2.453467e-02 3.375160e-02 4.257222e-02 7.196300e-02 1.267602e-01 5.646957e-02 4.842849e-02 5.173464e-02 5.202241e-02 5.500275e-02 1.844016e-02 2.087265e-02 9.961191e-04 1.283584e-03 1.622017e-03 2.770279e-03 5.447487e-03 2.302188e-03 1.172969e-03 1.434095e-03 1.530928e-03 1.229447e-03 4.351618e-04 8.250909e-04 6.590529e-05 7.788247e-05 9.922211e-05 1.645811e-04 3.056195e-04 1.188174e-04 6.252809e-05 8.003197e-05 1.039182e-04 8.262249e-05 2.969874e-05 5.069586e-05
<GCONST> -1.402720e+02
<TRANSP> 3
 0.000000e+00 1.000000e+00 0.000000e+00
 0.000000e+00 9.318075e-01 6.819259e-02
 0.000000e+00 0.000000e+00 0.000000e+00
<ENDHMM>
~h "Tab0014"
<BEGINHMM>
<NUMSTATES> 3
<STATE> 2
<MEAN> 39
 -2.542183e+02 -4.068174e-01 -1.189229e-02 3.649510e-01 2.343550e-01 1.498798e-01 1.572965e-01 2.029971e-01 2.771085e-01 4.152363e-01 5.312597e-01 5.147460e-01 4.413583e-01 3.368540e-01 3.490053e-01 -5.097584e-03 -3.827993e-03 -1.919274e-03 -5.145702e-04 4.372350e-04 3.257415e-04 1.990507e-03 3.702127e-03 2.206814e-03 9.786442e-04 4.434731e-05 -2.714357e-03 -2.716501e-05 2.054382e-04 4.389664e-04 4.819391e-04 4.226064e-04 2.418700e-04 -1.139099e-04 -3.713475e-04 -3.922492e-04 1.885245e-05 -6.110965e-05 -9.625540e-05
<VARIANCE> 39
 1.167025e+04 6.423253e+02 4.468624e+01 1.673487e-01 6.070735e-02 1.847011e-02 1.731500e-02 2.551956e-02 3.529511e-02 6.901821e-02 1.327244e-01 6.559645e-02 1.264528e-01 6.962174e-02 1.176360e-01 1.323979e-03 6.420041e-04 7.509172e-04 7.164811e-04 8.492736e-04 1.088942e-03 1.094098e-03 1.582802e-03 9.664533e-04 2.127213e-03 1.519602e-03 1.169094e-03 6.268771e-05 3.362784e-05 4.846653e-05 4.737799e-05 5.562373e-05 6.993885e-05 5.441067e-05 6.826031e-05 5.425262e-05 1.093308e-04 7.720517e-05 5.469755e-05
<GCONST> -1.414128e+02
<TRANSP> 3
 0.000000e+00 1.000000e+00 0.000000e+00
 0.000000e+00 9.410012e-01 5.899885e-02
 0.000000e+00 0.000000e+00 0.000000e+00
<ENDHMM>
~h "Tab0015"
<BEGINHMM>
<NUMSTATES> 3
<STATE> 2
<MEAN> 39
 -2.443806e+02 2.118181e+00 -4.575916e-02 4.074753e-01 4.024736e-01 4.120614e-01 4.813990e-01 5.088521e-01 4.309033e-01 3.049164e-01 3.091715e-01 3.880777e-01 3.612994e-01 2.131910e-01 2.617135e-01 5.264003e-03 4.939735e-03 3.335386e-03 -4.526371e-04 -4.077325e-03 -2.412611e-03 -2.316112e-03 -2.907913e-03 -4.289773e-03 -3.003894e-03 -1.958340e-03 1.561566e-03 -2.156998e-03 -1.033729e-03 -2.442045e-04 -1.082288e-03 -1.954977e-03 -1.581600e-03 -4.394932e-04 -4.775818e-05 4.560768e-04 1.042720e-03 6.012684e-04 -1.116496e-03
<VARIANCE> 39
 1.177399e+04 6.774409e+02 5.052186e+01 1.683981e-01 7.565250e-02 1.212256e-01 8.829763e-02 1.156037e-01 5.659311e-02 4.188523e-02 4.582449e-02 5.759133e-02 1.065772e-01 3.748035e-02 5.015841e-02 4.181750e-03 1.372278e-03 2.298287e-03 1.997625e-03 2.896004e-03 1.808788e-03 1.395594e-03 1.610647e-03 2.036006e-03 3.511707e-03 1.146648e-03 1.144514e-03 1.523259e-04 5.667026e-05 1.154634e-04 1.119732e-04 1.781295e-04 1.232399e-04 9.109130e-05 9.686089e-05 1.097692e-04 1.552733e-04 5.353658e-05 4.725140e-05
<GCONST> -1.255749e+02
<TRANSP> 3
 0.000000e+00 1.000000e+00 0.000000e+00
 0.000000e+00 9.407542e-01 5.924575e-02
 0.000000e+00 0.000000e+00 0.000000e+00
<ENDHMM>
~h "Tab0016"
<BEGINHMM>
<NUMSTATES> 3
<STATE> 2
<MEAN> 39
 -2.746652e+02 -3.786630e-01 -1.546831e-02 2.649371e-01 4.138542e-01 5.760059e-01 4.192495e-01 2.600855e-01 2.462379e-01 2.600485e-01 2.468348e-01 3.449885e-01 4.368982e-01 2.740786e-01 1.920652e-01 4.996488e-04 -4.547331e-04 -1.342585e-03 -6.596380e-04 1.003041e-04 -2.513227e-04 -7.307419e-04 -6.861647e-04 3.011618e-04 9.503067e-04 7.046643e-04 4.757049e-04 4.686336e-04 1.048899e-04 -2.256438e-04 -1.566633e-05 2.750806e-04 2.519506e-04 1.182037e-04 8.558422e-05 5.950074e-05 -4.878713e-05 -2.214088e-05 2.780555e-04
<VARIANCE> 39
 1.104682e+04 6.332307e+02 4.399576e+01 1.154896e-01 5.121323e-02 1.883443e-01 6.244119e-02 4.051247e-02 4.517484e-02 3.445625e-02 2.887424e-02 5.621286e-02 1.459174e-01 5.110689e-02 3.316746e-02 1.667323e-03 3.908876e-04 1.078349e-03 7.015042e-04 1.902106e-03 1.950570e-03 1.224490e-03 1.030706e-03 8.243982e-04 7.374981e-04 3.883223e-04 5.927670e-04 7.645207e-05 2.058569e-05 5.856275e-05 4.696927e-05 1.311105e-04 1.320937e-04 8.106146e-05 6.552994e-05 5.163228e-05 3.621622e-05 2.054737e-05 3.067592e-05
<GCONST> -1.449619e+02
<TRANSP> 3
 0.000000e+00 1.000000e+00 0.000000e+00
 0.000000e+00 9.717752e-01 2.822486e-02
 0.000000e+00 0.000000e+00 0.000000e+00
<ENDHMM>
~h "Tab0017"
<BEGINHMM>
<NUMSTATES> 3
<STATE> 2
<MEAN> 39
 -4.812841e+02 -2.012187e-02 1.778803e-02 5.410270e-02 3.082027e-02 2.621873e-02 5.469216e-02 8.231396e-02 7.823273e-02 1.013999e-01 2.072104e-01 4.751754e-01 6.232433e-01 3.482504e-01 1.242610e-01 -4.747485e-05 -7.538570e-05 -5.259630e-05 -1.622869e-04 -2.679792e-04 -1.442361e-04 -3.006262e-05 -6.369590e-05 -8.774822e-05 6.554881e-06 7.923751e-06 -7.116334e-05 5.898353e-05 1.169169e-04 2.458447e-04 1.179792e-04 2.321207e-05 5.692841e-05 1.761381e-04 2.125575e-04 1.586662e-04 -1.469081e-05 1.383747e-05 3.528998e-05
<VARIANCE> 39
 9.240803e+04 4.508473e+02 3.104204e+01 4.592309e-03 1.077777e-03 1.011769e-03 2.749582e-03 6.037325e-03 6.781415e-03 1.814893e-02 5.322632e-02 1.520410e-01 2.298947e-01 7.848899e-02 2.051824e-02 1.079467e-04 2.077902e-05 2.581896e-05 4.517023e-05 6.713810e-05 9.793257e-05 3.585034e-04 8.859438e-04 8.337868e-04 1.196787e-05 1.411632e-04 4.791079e-04 7.294811e-06 2.008588e-06 5.075308e-06 3.699830e-06 4.123006e-06 6.202496e-06 2.426706e-05 5.665158e-05 5.666443e-05 2.962568e-06 8.296385e-06 3.190133e-05
<GCONST> -2.074006e+02
<TRANSP> 3
 0.000000e+00 1.000000e+00 0.000000e+00
 0.000000e+00 9.745280e-01 2.547208e-02
 0.000000e+00 0.000000e+00 0.000000e+00
<ENDHMM>
~h "Tab0020"
<BEGINHMM>
<NUMSTATES> 3
<STATE> 2
<MEAN> 39
 -6.448423e+02 6.550878e-02 1.079194e-02 2.557943e-01 1.508227e-01 5.066901e-02 4.203538e-02 3.918694e-02 2.715608e-02 5.653998e-02 9.681945e-02 8.401228e-02 7.513897e-02 7.124668e-02 1.645114e-01 5.115255e-05 1.434992e-04 6.350495e-05 1.559572e-05 -1.024524e-04 -1.725630e-04 -1.712187e-04 -2.198465e-04 4.069948e-05 -1.638492e-04 -1.941605e-04 3.067402e-04 4.083583e-05 1.039034e-04 4.268217e-05 4.949319e-05 8.219377e-05 8.612171e-05 4.286079e-05 3.724759e-05 1.749466e-05 8.303686e-06 3.907312e-05 -1.176030e-05
<VARIANCE> 39
 4.260408e+04 2.331813e+01 1.183284e+00 1.870047e-01 6.047425e-02 1.301131e-02 6.217983e-03 5.272403e-03 2.598291e-03 1.005561e-02 3.732689e-02 2.578420e-02 3.516115e-02 1.957236e-02 7.587925e-02 7.738464e-06 4.587095e-05 3.155362e-05 1.670984e-05 2.104234e-05 1.347382e-05 3.696819e-05 9.360813e-05 6.146578e-05 4.452177e-05 7.406052e-05 6.928803e-05 5.793972e-07 2.901473e-06 1.792840e-06 1.070853e-06 1.677422e-06 1.130247e-06 2.419651e-06 5.903481e-06 3.004386e-06 2.810290e-06 4.828029e-06 4.275406e-06
<GCONST> -2.404010e+02
<TRANSP> 3
 0.000000e+00 1.000000e+00 0.000000e+00
 0.000000e+00 9.758062e-01 2.419374e-02
 0.000000e+00 0.000000e+00 0.000000e+00
<ENDHMM>
~h "Tab0021"
<BEGINHMM>
<NUMSTATES> 3
<STATE> 2
<MEAN> 39
 -2.329258e+02 6.399018e-02 -2.043502e-03 6.454008e-01 3.542810e-01 2.110963e-01 2.745647e-01 3.397343e-01 3.375737e-01 4.279718e-01 4.077160e-01 3.669643e-01 4.453234e-01 5.849289e-01 7.925048e-01 2.009618e-04 -5.596667e-05 -2.597086e-04 -1.997607e-04 1.227699e-05 2.212366e-04 -3.672835e-04 -5.842555e-04 9.571224e-04 2.480613e-03 1.265641e-03 5.914650e-04 -5.314695e-05 -2.981759e-05 1.843175e-06 4.500685e-06 -2.051144e-05 -4.032343e-05 -4.632515e-06 6.541037e-06 -7.934648e-05 8.131705e-06 -7.175811e-05 -1.110389e-04
<VARIANCE> 39
 5.368926e+02 1.100560e+01 4.198495e-01 7.761421e-02 4.758589e-02 6.964501e-03 4.043477e-02 8.235242e-02 1.976755e-02 4.328217e-02 4.380782e-02 4.023482e-02 7.491357e-02 5.614427e-02 5.439202e-02 7.941065e-04 4.789292e-04 1.910088e-04 3.842716e-04 6.419505e-04 4.150539e-04 9.763844e-04 1.069359e-03 8.818621e-04 6.977816e-04 9.671028e-04 6.349585e-04 4.573429e-05 2.666792e-05 1.153930e-05 1.960999e-05 3.016884e-05 2.471861e-05 6.146429e-05 6.262089e-05 5.547044e-05 4.105730e-05 5.411285e-05 3.766440e-05
<GCONST> -1.703287e+02
<TRANSP> 3
 0.000000e+00 1.000000e+00 0.000000e+00
 0.000000e+00 9.481546e-01 5.184547e-02
 0.000000e+00 0.000000e+00 0.000000e+00
<ENDHMM>
~h "Tab0023"
<BEGINHMM>
<NUMSTATES> 3
<STATE> 2
<MEAN> 39
 -2.782861e+02 4.154176e+00 1.236746e+00 1.087727e-01 9.414214e-02 8.746007e-02 1.432905e-01 2.254220e-01 2.337971e-01 2.294885e-01 2.530675e-01 6.777800e-01 9.837707e-01 5.337412e-01 1.843683e-01 1.228817e-02 1.283461e-02 1.257611e-02 1.413632e-02 1.972658e-02 1.794429e-02 1.132403e-02 2.441544e-03 -9.979711e-03 -8.398160e-03 1.464478e-03 2.678211e-03 5.088947e-03 3.224278e-03 1.558421e-03 2.248015e-03 2.730736e-03 2.150540e-03 6.980544e-04 1.421040e-04 -1.129427e-03 -4.583625e-03 -1.499564e-03 2.833144e-03
<VARIANCE> 39
 1.258602e+04 7.334630e+02 6.581071e+01 3.423460e-03 1.743292e-03 3.043067e-03 7.630149e-03 1.846565e-02 1.383605e-02 1.609632e-02 3.784125e-02 2.163078e-02 1.358514e-02 1.759328e-02 1.088569e-02 1.074073e-03 4.074178e-04 4.638637e-04 8.966033e-04 1.386822e-03 1.164230e-03 9.420429e-04 1.036651e-03 5.856198e-04 6.555088e-04 3.675732e-04 5.956499e-04 7.159756e-05 2.026412e-05 2.534198e-05 5.048369e-05 8.363149e-05 8.574576e-05 6.790961e-05 5.780188e-05 5.672389e-05 6.170200e-05 3.819243e-05 2.576654e-05
<GCONST> -1.689310e+02
<TRANSP> 3
 0.000000e+00 1.000000e+00 0.000000e+00
 0.000000e+00 4.027795e-01 5.972205e-01
 0.000000e+00 0.000000e+00 0.000000e+00
<ENDHMM>
~h "Tab0024"
<BEGINHMM>
<NUMSTATES> 3
<STATE> 2
<MEAN> 39
 -4.227573e+02 -6.027850e-01 1.206926e-01 5.200829e-01 7.761453e-01 4.672981e-01 1.466451e-01 8.471768e-02 6.842037e-02 1.189723e-01 2.209406e-01 2.512043e-01 1.765365e-01 1.793922e-01 2.271871e-01 1.114021e-03 2.866807e-03 2.708100e-03 5.874666e-04 -2.283900e-04 -2.226907e-04 -1.714733e-03 -3.256790e-03 -1.546901e-03 5.437183e-05 -1.275898e-03 -1.354384e-03 -1.842664e-04 -1.764055e-03 5.417979e-05 1.475868e-03 1.239126e-03 1.397501e-03 1.348615e-03 1.088105e-03 8.447694e-04 7.453507e-04 1.057093e-03 1.652929e-03
<VARIANCE> 39
 8.391813e+03 9.061528e+01 6.849002e+00 6.354356e-02 1.456784e-01 4.448447e-02 2.410147e-02 1.279970e-02 8.623538e-03 3.252887e-02 7.405136e-02 6.968882e-02 2.573398e-02 3.244119e-02 5.468769e-02 4.201696e-04 1.729758e-03 7.419580e-04 3.998694e-04 1.596730e-04 1.979286e-04 4.365273e-04 4.152870e-04 4.014037e-04 3.767653e-04 9.958064e-04 2.076833e-03 2.804486e-05 7.134564e-05 3.060284e-05 3.355761e-05 1.579316e-05 2.115415e-05 3.089321e-05 2.982965e-05 3.663723e-05 3.086788e-05 4.818384e-05 8.660136e-05
<GCONST> -1.661734e+02
<TRANSP> 3
 0.000000e+00 1.000000e+00 0.000000e+00
 0.000000e+00 8.236730e-01 1.763270e-01
 0.000000e+00 0.000000e+00 0.000000e+00
<ENDHMM>
~h "Tab0025"
<BEGINHMM>
<NUMSTATES> 3
<STATE> 2
<MEAN> 39
 -2.346377e+02 5.085480e-01 -1.403364e-01 4.951752e-01 3.455117e-01 2.650896e-01 2.378453e-01 2.685784e-01 2.887669e-01 5.468943e-01 7.438985e-01 7.937409e-01 5.055040e-01 3.568958e-01 5.903057e-01 -1.275586e-03 -3.114726e-03 -1.152610e-03 5.431522e-04 9.399327e-04 1.436162e-03 3.693810e-03 4.363066e-03 3.496195e-03 2.333795e-03 1.566493e-03 1.918722e-03 2.286580e-04 3.744813e-04 -6.552971e-05 -3.174424e-04 -1.651710e-04 -1.619271e-04 -2.656356e-04 -5.462475e-04 -8.493421e-04 -5.434758e-04 -2.276772e-04 -1.909881e-04
<VARIANCE> 39
 3.856171e+03 2.083487e+02 1.607891e+01 2.601332e-02 1.243888e-01 4.009522e-02 9.981726e-03 1.478101e-02 2.151483e-02 4.636060e-02 4.716171e-02 6.068483e-02 3.483660e-02 2.993254e-02 1.112024e-01 1.043707e-03 4.517810e-03 1.293280e-03 3.879677e-04 6.852686e-04 8.642271e-04 1.903836e-03 1.746541e-03 2.307825e-03 1.357916e-03 1.100967e-03 4.176162e-03 6.698808e-05 2.712776e-04 8.027995e-05 2.077898e-05 4.187412e-05 5.133043e-05 1.157798e-04 1.084278e-04 1.358410e-04 7.648916e-05 6.939415e-05 2.756524e-04
<GCONST> -1.425760e+02
<TRANSP> 3
 0.000000e+00 1.000000e+00 0.000000e+00
 0.000000e+00 9.381629e-01 6.183711e-02
 0.000000e+00 0.000000e+00 0.000000e+00
<ENDHMM>
~h "Tab0026"
<BEGINHMM>
<NUMSTATES> 3
<STATE> 2
<MEAN> 39
 -2.148102e+02 7.414531e-01 -7.920067e-02 2.843619e-01 3.925911e-01 3.664060e-01 4.524058e-01 5.125314e-01 5.148338e-01 5.843756e-01 5.976464e-01 4.980132e-01 5.419220e-01 6.865922e-01 4.810931e-01 -1.628397e-03 -3.204603e-04 1.177199e-04 2.117235e-03 2.422336e-03 1.677829e-03 3.706575e-04 -2.414302e-04 -3.853743e-04 1.074555e-03 3.590500e-03 9.036811e-05 -1.394109e-04 1.152288e-04 -2.146389e-04 -5.275241e-04 -4.080959e-04 -6.354961e-04 -7.718176e-04 -6.875829e-04 -4.874398e-04 -3.169246e-04 -4.100431e-04 -5.000792e-04
<VARIANCE> 39
 4.133698e+03 2.115906e+02 1.685741e+01 4.734163e-02 1.235255e-01 4.282454e-02 5.317044e-02 7.346845e-02 6.377278e-02 7.019775e-02 7.914212e-02 4.044375e-02 4.945024e-02 1.466662e-01 5.120004e-02 1.624010e-03 4.988335e-03 1.602738e-03 2.398229e-03 3.293442e-03 3.205516e-03 4.409005e-03 4.206234e-03 1.974152e-03 1.944516e-03 5.696395e-03 2.069547e-03 1.030875e-04 2.845201e-04 1.067619e-04 1.509867e-04 2.044924e-04 1.909657e-04 3.333281e-04 3.080796e-04 1.257022e-04 1.075658e-04 3.644351e-04 1.215008e-04
<GCONST> -1.185603e+02
<TRANSP> 3
 0.000000e+00 1.000000e+00 0.000000e+00
 0.000000e+00 9.353646e-01 6.463537e-02
 0.000000e+00 0.000000e+00 0.000000e+00
<ENDHMM>
~h "Tab0027"
<BEGINHMM>
<NUMSTATES> 3
<STATE> 2
<MEAN> 39
 -2.121211e+02 -3.183688e-01 -1.436720e-01 2.412756e-01 1.906672e-01 2.749860e-01 5.041326e-01 7.657002e-01 6.137134e-01 3.742239e-01 3.438959e-01 5.890257e-01 8.206412e-01 5.992184e-01 4.238248e-01 2.171348e-04 5.956767e-04 1.088817e-03 1.305796e-04 -3.668594e-04 3.475939e-04 2.142545e-03 2.393380e-03 2.680352e-04 -2.667547e-05 -2.541740e-03 -1.825612e-03 -3.160326e-04 -1.104398e-04 -2.060858e-04 -6.516358e-04 -1.253534e-03 -1.350249e-03 -4.425463e-04 -5.330793e-04 -7.736371e-04 8.904999e-05 -2.142258e-04 -5.754510e-04
<VARIANCE> 39
 4.511416e+03 2.401856e+02 1.819711e+01 1.628933e-02 1.329763e-02 3.056647e-02 6.568593e-02 1.013175e-01 4.811338e-02 3.834658e-02 5.610190e-02 3.702405e-02 3.084029e-02 3.145762e-02 3.571958e-02 5.822365e-04 5.009603e-04 1.284189e-03 2.855426e-03 4.965426e-03 2.427846e-03 1.159046e-03 1.797468e-03 1.324499e-03 1.163074e-03 6.988884e-04 1.491935e-03 3.669791e-05 2.872819e-05 7.635410e-05 1.638564e-04 2.845070e-04 1.242934e-04 7.199730e-05 1.193158e-04 8.975377e-05 7.698579e-05 4.559276e-05 8.950779e-05
<GCONST> -1.430386e+02
<TRANSP> 3
 0.000000e+00 1.000000e+00 0.000000e+00
 0.000000e+00 9.371167e-01 6.288327e-02
 0.000000e+00 0.000000e+00 0.000000e+00
<ENDHMM>
~h "Tab0028"
<BEGINHMM>
<NUMSTATES> 3
<STATE> 2
<MEAN> 39
 -2.188581e+02 1.094252e-01 -1.922998e-01 4.477204e-01 6.037378e-01 5.957644e-01 6.437395e-01 7.115624e-01 5.300993e-01 3.611621e-01 4.946486e-01 5.962831e-01 3.811592e-01 2.499446e-01 3.863930e-01 8.863797e-04 1.940927e-03 5.814597e-04 -1.894550e-03 -2.484953e-03 -1.588628e-03 1.244126e-03 2.896135e-03 6.673898e-04 -1.286968e-03 -9.884721e-04 -1.409372e-04 6.449352e-06 1.650859e-04 -2.925780e-04 -8.889804e-04 -7.768862e-04 -5.924366e-04 -3.621574e-04 -3.155000e-04 -5.106062e-04 -1.413128e-04 -6.410021e-05 -2.602998e-04
<VARIANCE> 39
 4.739828e+03 2.608824e+02 1.973152e+01 2.500229e-02 9.122539e-02 5.085263e-02 8.850504e-02 1.208016e-01 5.583008e-02 4.462754e-02 4.027800e-02 7.613295e-02 3.622661e-02 2.183209e-02 3.942131e-02 8.426535e-04 2.500479e-03 1.052858e-03 3.492467e-03 5.125304e-03 2.452968e-03 1.603238e-03 1.566992e-03 2.720921e-03 1.304678e-03 8.939821e-04 1.813798e-03 5.256827e-05 1.537695e-04 6.612416e-05 1.719602e-04 2.985795e-04 1.374213e-04 1.019063e-04 1.037406e-04 1.919078e-04 8.161946e-05 5.388208e-05 1.114747e-04
<GCONST> -1.319157e+02
<TRANSP> 3
 0.000000e+00 1.000000e+00 0.000000e+00
 0.000000e+00 9.452441e-01 5.475597e-02
 0.000000e+00 0.000000e+00 0.000000e+00
<ENDHMM>
~h "Tab0030"
<BEGINHMM>
<NUMSTATES> 3
<STATE> 2
<MEAN> 39
 -3.484988e+02 8.962722e-01 -1.759263e-01 4.103527e-01 2.483366e-01 2.244269e-01 2.849769e-01 3.187308e-01 2.729357e-01 2.823974e-01 2.979637e-01 3.388549e-01 3.626056e-01 3.958827e-01 5.091364e-01 -1.123530e-03 7.705585e-04 1.661687e-03 5.797149e-04 -1.553529e-04 6.982269e-04 8.007925e-04 -8.014144e-05 5.834881e-04 8.649920e-04 -2.365197e-04 -1.199925e-03 -5.234174e-04 1.037393e-04 8.999978e-05 -2.067313e-04 -2.430317e-04 -3.789816e-04 -3.902078e-04 -3.307008e-04 -2.594882e-04 -1.950030e-04 -6.644421e-04 -1.112483e-03
<VARIANCE> 39
 1.627970e+04 1.808929e+02 1.203241e+01 1.036183e-01 6.755799e-02 7.434057e-02 7.339802e-02 1.191472e-01 5.639418e-02 5.932178e-02 5.834602e-02 7.654458e-02 1.046445e-01 6.480805e-02 1.474169e-01 2.906766e-03 1.248151e-03 2.124950e-03 2.468555e-03 3.767386e-03 1.658588e-03 1.734360e-03 1.447999e-03 1.675754e-03 2.573618e-03 1.300304e-03 4.085446e-03 1.400863e-04 6.565207e-05 1.137059e-04 1.339593e-04 1.949460e-04 9.314840e-05 1.081730e-04 8.393184e-05 9.213418e-05 1.246748e-04 6.338150e-05 2.081200e-04
<GCONST> -1.245928e+02
<TRANSP> 3
 0.000000e+00 1.000000e+00 0.000000e+00
 0.000000e+00 7.133288e-01 2.866712e-01
 0.000000e+00 0.000000e+00 0.000000e+00
<ENDHMM>
~h "Tab0031"
<BEGINHMM>
<NUMSTATES> 3
<STATE> 2
<MEAN> 39
 -4.787034e+02 1.795303e+00 -4.624333e-01 3.716283e-01 2.893301e-01 2.485715e-01 2.895499e-01 3.649143e-01 2.743906e-01 2.201794e-01 2.608575e-01 3.116429e-01 3.392939e-01 3.163676e-01 3.619797e-01 -3.902210e-03 -1.525964e-03 2.293722e-03 8.791044e-04 1.073312e-04 1.311816e-03 -1.551009e-05 -3.310800e-03 -2.577154e-03 2.470461e-04 1.210286e-03 -1.449425e-03 -5.607996e-05 2.205190e-04 3.575638e-04 -6.997639e-04 -1.513903e-03 -8.593875e-04 8.803187e-06 3.653131e-04 -8.869855e-05 -1.392198e-04 -3.146065e-06 3.340095e-05
<VARIANCE> 39
 3.078626e+04 2.897740e+02 1.694396e+01 1.345655e-01 6.979335e-02 1.035376e-01 6.375379e-02 1.417904e-01 7.516357e-02 5.458016e-02 8.174401e-02 7.542051e-02 1.298756e-01 8.230136e-02 1.022546e-01 2.191199e-03 1.507591e-03 2.599064e-03 1.280435e-03 3.028172e-03 1.493279e-03 1.118556e-03 1.936261e-03 1.467493e-03 2.076440e-03 1.802910e-03 1.963940e-03 9.596228e-05 7.079815e-05 1.142210e-04 5.723850e-05 1.379115e-04 6.229211e-05 4.735838e-05 8.973596e-05 7.795126e-05 1.060705e-04 8.716247e-05 9.334656e-05
<GCONST> -1.271098e+02
<TRANSP> 3
 0.000000e+00 1.000000e+00 0.000000e+00
 0.000000e+00 7.409831e-01 2.590169e-01
 0.000000e+00 0.000000e+00 0.000000e+00
<ENDHMM>
~h "Tab0033"
<BEGINHMM>
<NUMSTATES> 3
<STATE> 2
<MEAN> 39
 -4.059688e+02 -4.971248e-01 -3.333981e-02 1.632951e-01 2.987969e-01 4.350435e-01 2.912920e-01 1.467350e-01 1.210251e-01 1.500178e-01 1.897493e-01 3.932154e-01 6.082170e-01 3.870652e-01 1.769003e-01 -1.124254e-03 -1.323344e-03 -9.474676e-04 -6.225178e-04 -4.563901e-04 -7.424038e-06 1.042722e-03 5.285023e-04 2.794527e-04 1.124486e-03 1.045091e-03 -2.097152e-04 8.737623e-05 2.098444e-04 3.519559e-04 1.676297e-04 2.388135e-04 4.907421e-04 3.209911e-04 3.129673e-04 -4.030565e-05 -5.747204e-04 -3.895890e-04 8.706049e-06
<VARIANCE> 39
 7.162482e+03 6.684328e+01 4.505596e+00 7.345668e-02 5.825034e-02 1.580874e-01 5.344593e-02 4.571635e-02 3.326564e-02 4.648304e-02 7.243383e-02 5.208480e-02 1.580519e-01 5.602346e-02 5.565080e-02 8.644728e-04 1.712969e-03 5.268503e-03 1.585889e-03 4.183229e-04 2.703559e-04 5.044937e-04 6.386333e-04 1.655709e-03 5.293490e-03 1.609250e-03 6.214820e-04 4.095090e-05 1.062061e-04 3.394992e-04 1.009778e-04 2.454544e-05 1.529934e-05 2.765255e-05 4.103395e-05 1.101775e-04 3.415966e-04 1.031593e-04 3.148237e-05
<GCONST> -1.436199e+02
<TRANSP> 3
 0.000000e+00 1.000000e+00 0.000000e+00
 0.000000e+00 8.145063e-01 1.854938e-01
 0.000000e+00 0.000000e+00 0.000000e+00
<ENDHMM>
~h "Tab0035"
<BEGINHMM>
<NUMSTATES> 3
<STATE> 2
<MEAN> 39
 -3.178604e+02 3.003767e-01 -4.059379e-02 2.730837e-01 1.733367e-01 1.617187e-01 2.743581e-01 3.407289e-01 2.476641e-01 2.429818e-01 3.175713e-01 4.405838e-01 4.197126e-01 3.600504e-01 3.875269e-01 -7.737768e-05 1.855119e-04 -7.566421e-05 7.698967e-05 5.703924e-04 5.563826e-04 2.639217e-04 3.765674e-04 6.417774e-04 4.138434e-04 -1.081024e-04 -3.474925e-04 -5.698953e-05 -3.308367e-05 -1.030541e-05 -7.899984e-05 -1.200969e-04 -7.699588e-05 -5.751293e-05 -9.270767e-05 -7.683840e-05 -2.320665e-05 -2.863890e-05 -4.908361e-05
<VARIANCE> 39
 7.122764e+03 3.786172e+02 2.968377e+01 6.847876e-02 7.821272e-02 4.244504e-02 8.580905e-02 1.424875e-01 5.394432e-02 6.420133e-02 5.975695e-02 1.017926e-01 1.037720e-01 5.960351e-02 1.450804e-01 1.723699e-03 1.631219e-03 9.353538e-04 1.942500e-03 3.400643e-03 1.237354e-03 1.405581e-03 1.685109e-03 3.231779e-03 3.170778e-03 1.717336e-03 3.589929e-03 7.734079e-05 7.163810e-05 4.287537e-05 8.704597e-05 1.448025e-04 6.044671e-05 7.232561e-05 9.916502e-05 1.764919e-04 1.566376e-04 9.144010e-05 1.582971e-04
<GCONST> -1.266978e+02
<TRANSP> 3
 0.000000e+00 1.000000e+00 0.000000e+00
 0.000000e+00 9.951779e-01 4.822105e-03
 0.000000e+00 0.000000e+00 0.000000e+00
<ENDHMM>
~h "Tab0036"
<BEGINHMM>
<NUMSTATES> 3
<STATE> 2
<MEAN> 39
 -2.950447e+02 7.134295e-03 -4.841045e-02 4.505333e-01 1.464246e-01 1.558944e-01 2.647797e-01 2.259197e-01 1.796872e-01 2.183264e-01 1.998102e-01 2.243661e-01 2.602367e-01 5.353299e-01 7.520392e-01 2.596024e-04 -1.031375e-05 -8.848684e-05 -2.972531e-04 -4.456734e-04 -1.576837e-04 7.122390e-05 1.239871e-04 2.600093e-04 1.787781e-04 2.823309e-04 4.262184e-04 -1.733915e-04 2.234891e-05 2.082469e-05 1.394898e-05 8.146116e-05 1.589211e-04 2.046693e-04 1.121587e-04 4.067559e-05 5.018529e-05 -1.309916e-04 -3.226798e-04
<VARIANCE> 39
 2.244898e+03 4.491508e+01 1.927236e+00 4.575788e-02 9.395665e-03 2.672418e-02 8.989713e-02 8.704684e-02 2.431269e-02 3.566477e-02 2.110236e-02 6.765644e-02 6.363433e-02 4.311127e-02 1.256872e-01 1.626716e-03 1.594384e-04 1.176995e-03 3.724386e-03 3.743927e-03 1.157731e-03 1.627949e-03 9.353872e-04 2.810843e-03 2.365523e-03 1.030190e-03 5.857153e-03 8.432460e-05 5.807943e-06 7.489788e-05 2.274322e-04 2.263366e-04 7.104684e-05 9.913895e-05 5.524938e-05 1.696962e-04 1.406931e-04 4.628319e-05 3.314414e-04
<GCONST> -1.429669e+02
<TRANSP> 3
 0.000000e+00 1.000000e+00 0.000000e+00
 0.000000e+00 9.671080e-01 3.289200e-02
 0.000000e+00 0.000000e+00 0.000000e+00
<ENDHMM>
~h "Tab0038"
<BEGINHMM>
<NUMSTATES> 3
<STATE> 2
<MEAN> 39
 -5.892388e+02 -2.490657e-01 1.033280e-01 4.358851e-02 2.776767e-02 2.073580e-02 2.719811e-02 3.792395e-02 3.957493e-02 4.949129e-02 4.497536e-02 5.016632e-02 5.651680e-02 4.692654e-02 5.259728e-02 1.163207e-03 3.660151e-04 -3.656382e-04 -5.663178e-04 -1.008758e-03 -3.273856e-04 -3.186180e-04 -1.120324e-03 -1.459789e-03 -9.672656e-04 8.932337e-05 1.108175e-03 3.780774e-04 2.868751e-04 2.648334e-04 4.547033e-04 5.612936e-04 3.051248e-04 1.409157e-04 2.605754e-04 2.963175e-04 4.970531e-04 7.425947e-04 5.793330e-04
<VARIANCE> 39
 6.068498e+03 2.153008e+01 2.114129e+00 2.419269e-02 1.140810e-02 8.100841e-03 1.270758e-02 2.749022e-02 1.843505e-02 3.298668e-02 2.306030e-02 2.526590e-02 4.182583e-02 2.172584e-02 3.437727e-02 2.618419e-04 1.484323e-04 9.415282e-05 1.162101e-04 2.556577e-04 1.745166e-04 1.814652e-04 2.181637e-04 2.110376e-04 2.387275e-04 2.176063e-04 2.832726e-04 1.690205e-05 8.234016e-06 8.475417e-06 1.127281e-05 2.227105e-05 1.299184e-05 9.948521e-06 1.275406e-05 1.015505e-05 1.734132e-05 1.647323e-05 2.408942e-05
<GCONST> -1.993859e+02
<TRANSP> 3
 0.000000e+00 1.000000e+00 0.000000e+00
 0.000000e+00 8.604355e-01 1.395645e-01
 0.000000e+00 0.000000e+00 0.000000e+00
<ENDHMM>
~h "Tab0040"
<BEGINHMM>
<NUMSTATES> 3
<STATE> 2
<MEAN> 39
 -3.328419e+02 4.515112e+00 2.842124e-01 4.662459e-01 5.493932e-01 3.490780e-01 2.028328e-01 2.684900e-01 3.784139e-01 4.594701e-01 4.304119e-01 4.380462e-01 3.520964e-01 3.248431e-01 3.757568e-01 -4.969571e-04 -1.420104e-03 -1.825600e-03 -1.207785e-03 -1.703415e-03 -1.138455e-03 2.682680e-03 3.552070e-03 -1.607741e-03 -3.217107e-03 -6.747392e-04 -2.810722e-05 -9.992704e-04 -1.771418e-03 -1.297282e-03 -9.409657e-04 -1.094155e-03 -1.894595e-03 -1.646577e-03 -1.787985e-03 -2.980112e-03 -2.557949e-03 -7.779050e-04 1.259387e-04
<VARIANCE> 39
 1.220337e+04 3.075471e+02 2.208191e+01 5.262659e-02 1.479649e-01 5.162424e-02 2.707728e-02 4.479724e-02 7.523848e-02 1.152443e-01 5.394537e-02 9.114183e-02 7.479896e-02 8.833686e-02 1.484196e-01 1.514124e-03 3.346949e-03 1.238608e-03 5.901617e-04 1.194184e-03 2.060925e-03 3.123753e-03 1.520079e-03 3.372801e-03 2.514860e-03 1.064769e-03 1.156079e-03 7.588181e-05 1.761710e-04 6.818058e-05 3.131297e-05 6.642612e-05 1.307052e-04 2.116726e-04 9.121908e-05 1.895832e-04 1.412270e-04 4.826005e-05 5.593338e-05
<GCONST> -1.299792e+02
<TRANSP> 3
 0.000000e+00 1.000000e+00 0.000000e+00
 0.000000e+00 9.000450e-01 9.995501e-02
 0.000000e+00 0.000000e+00 0.000000e+00
<ENDHMM>
~h "Tab0042"
<BEGINHMM>
<NUMSTATES> 3
<STATE> 2
<MEAN> 39
 -3.121747e+02 -2.867526e-01 -1.248316e-03 1.142505e-01 2.660742e-01 3.981448e-01 3.445405e-01 2.600297e-01 2.576773e-01 1.635287e-01 8.961805e-02 1.571424e-01 5.795078e-01 7.654979e-01 3.570688e-01 4.205457e-04 3.066958e-04 -3.684986e-04 -2.865844e-04 -2.920317e-04 -4.043949e-04 -3.430776e-05 -3.132877e-04 -6.229997e-04 -3.239535e-04 -3.429778e-04 -1.843313e-04 4.101703e-05 -4.472990e-04 -2.640509e-04 1.023329e-04 3.139942e-04 3.601946e-04 3.293643e-04 3.052730e-04 1.956967e-04 -1.696658e-04 -1.333865e-04 3.246205e-04
<VARIANCE> 39
 2.017810e+04 6.404533e+01 4.592379e+00 1.834556e-02 7.630975e-02 1.046603e-01 7.715406e-02 3.765590e-02 4.121207e-02 1.994777e-02 1.165901e-02 3.094745e-02 5.889878e-02 1.010981e-01 4.037429e-02 2.738799e-04 7.902508e-04 7.021548e-04 6.102228e-04 6.799426e-04 7.910285e-04 4.428690e-04 2.542686e-04 2.740381e-04 3.036273e-04 4.748845e-04 4.000106e-04 1.501543e-05 4.293607e-05 3.449736e-05 3.040687e-05 3.593663e-05 4.450139e-05 2.713341e-05 1.786763e-05 1.883883e-05 1.747422e-05 2.410397e-05 2.135407e-05
<GCONST> -1.697430e+02
<TRANSP> 3
 0.000000e+00 1.000000e+00 0.000000e+00
 0.000000e+00 9.662953e-01 3.370472e-02
 0.000000e+00 0.000000e+00 0.000000e+00
<ENDHMM>
~h "Tab0045"
<BEGINHMM>
<NUMSTATES> 3
<STATE> 2
<MEAN> 39
 -4.779760e+02 -7.033904e-01 1.618029e-01 2.274402e-01 1.792140e-01 1.572173e-01 2.285416e-01 3.362433e-01 3.272983e-01 2.481302e-01 2.317262e-01 3.243778e-01 4.284747e-01 3.463271e-01 2.351635e-01 -2.502043e-03 -2.017380e-03 -6.172898e-04 -8.494861e-04 -7.258546e-05 7.039988e-04 -5.784509e-04 -3.161894e-03 -3.410462e-03 2.449840e-04 5.426945e-04 -3.711991e-04 1.140896e-03 9.668153e-04 5.460170e-04 -9.972195e-06 -3.800084e-04 -3.870210e-04 4.423513e-05 3.544365e-04 3.418974e-04 1.325330e-04 2.513988e-04 8.304452e-04
<VARIANCE> 39
 3.030361e+04 1.304543e+02 9.171276e+00 9.722347e-02 4.716530e-02 5.637668e-02 6.879057e-02 1.255349e-01 1.292358e-01 6.925491e-02 9.011986e-02 6.647621e-02 1.642742e-01 8.954123e-02 7.333145e-02 8.296701e-04 6.394606e-04 5.898124e-04 9.944021e-04 1.628308e-03 1.343642e-03 8.237652e-04 1.154661e-03 9.226009e-04 1.400892e-03 1.356866e-03 7.654026e-04 4.497976e-05 3.167149e-05 2.941267e-05 5.079269e-05 9.112620e-05 7.379995e-05 4.763024e-05 5.943829e-05 5.214259e-05 8.308588e-05 7.433986e-05 5.040707e-05
<GCONST> -1.414787e+02
<TRANSP> 3
 0.000000e+00 1.000000e+00 0.000000e+00
 0.000000e+00 5.125747e-01 4.874254e-01
 0.000000e+00 0.000000e+00 0.000000e+00
<ENDHMM>
~h "Tab0053"
<BEGINHMM>
<NUMSTATES> 3
<STATE> 2
<MEAN> 39
 -4.490125e+02 -1.578234e+00 2.061493e-01 3.457122e-01 4.145911e-01 5.041707e-01 4.239872e-01 4.157164e-01 3.360579e-01 1.868172e-01 1.448635e-01 1.541332e-01 1.632836e-01 1.667863e-01 2.763033e-01 1.715224e-04 -1.335534e-03 -1.885763e-03 -3.782805e-04 -1.161951e-03 -7.587933e-04 2.626898e-04 1.270382e-04 3.261446e-04 -2.622199e-04 -8.955374e-04 -1.177148e-03 6.204375e-04 1.189821e-03 1.938754e-03 3.210508e-04 -1.479183e-03 -3.957751e-04 6.231461e-04 5.511937e-04 5.440689e-04 6.271460e-04 4.445745e-04 4.080010e-04
<VARIANCE> 39
 1.947577e+04 1.240397e+02 6.189139e+00 1.310618e-01 8.395296e-02 1.894152e-01 5.631988e-02 1.376190e-01 8.419845e-02 3.643483e-02 5.052873e-02 3.633504e-02 4.161851e-02 3.624174e-02 8.139912e-02 2.416004e-03 1.011933e-03 3.232518e-03 1.293278e-03 1.542390e-03 1.097660e-03 4.968712e-04 3.615898e-04 4.184398e-04 5.100707e-04 5.233162e-04 1.283058e-03 1.135311e-04 6.602250e-05 1.839365e-04 7.316784e-05 1.046680e-04 6.419031e-05 2.975179e-05 2.606554e-05 2.597856e-05 3.180188e-05 2.924257e-05 6.761555e-05
<GCONST> -1.452138e+02
<TRANSP> 3
 0.000000e+00 1.000000e+00 0.000000e+00
 0.000000e+00 7.801055e-01 2.198945e-01
 0.000000e+00 0.000000e+00 0.000000e+00
<ENDHMM>
~h "Tab0059"
<BEGINHMM>
<NUMSTATES> 3
<STATE> 2
<MEAN> 39
 -4.907516e+02 -1.507977e+00 1.450832e-01 3.297687e-01 5.878876e-01 3.339687e-01 8.515733e-02 9.391908e-02 7.313358e-02 5.777106e-02 1.393314e-01 3.567311e-01 4.097621e-01 2.364903e-01 1.276033e-01 -1.913012e-04 -3.454167e-04 -1.345153e-04 -9.414731e-05 -1.455302e-04 -2.419476e-04 -3.009016e-04 -9.287843e-05 -1.748376e-04 -7.259470e-05 -2.060307e-05 -1.223934e-04 -6.586160e-06 -1.049957e-04 2.078349e-04 3.967779e-04 2.688423e-04 1.463589e-04 9.311934e-05 3.713988e-05 -1.474230e-04 -1.507085e-04 -1.390139e-07 1.678514e-04
<VARIANCE> 39
 7.468383e+03 1.510494e+02 9.737853e+00 3.867391e-02 2.007467e-01 5.661768e-02 5.128144e-03 1.491902e-02 1.184933e-02 2.205894e-02 3.685574e-02 1.246116e-01 1.588606e-01 6.948170e-02 2.119518e-02 2.449928e-05 5.162082e-05 2.451254e-05 3.800034e-05 7.384425e-05 3.201823e-05 2.668608e-05 2.625644e-05 2.890730e-05 3.029359e-05 3.279077e-05 8.639723e-05 2.748784e-06 6.594730e-06 2.894737e-06 5.861472e-06 8.086786e-06 3.181784e-06 2.065895e-06 2.073032e-06 2.642936e-06 4.178915e-06 3.023423e-06 6.348200e-06
<GCONST> -2.240728e+02
<TRANSP> 3
 0.000000e+00 1.000000e+00 0.000000e+00
 0.000000e+00 9.022222e-01 9.777778e-02
 0.000000e+00 0.000000e+00 0.000000e+00
<ENDHMM>
~h "Tab0060"
<BEGINHMM>
<NUMSTATES> 3
<STATE> 2
<MEAN> 39
 -3.721273e+02 6.076903e-01 -2.730361e-01 2.566069e-01 1.919452e-01 2.295175e-01 3.241043e-01 4.032592e-01 3.453601e-01 3.153062e-01 3.024013e-01 3.719594e-01 4.402882e-01 3.884211e-01 3.589790e-01 -1.020453e-03 -1.182243e-03 -1.359332e-04 2.436833e-03 4.443451e-03 2.465203e-03 -1.336264e-03 -2.056934e-03 -1.762331e-03 -1.219812e-03 -9.569505e-04 -4.332207e-04 4.992904e-04 3.903491e-04 -7.998345e-05 -8.902545e-04 -1.278499e-03 -7.783410e-04 -4.860258e-04 -5.976840e-04 -5.216824e-04 -4.474419e-04 -1.880234e-04 9.730764e-05
<VARIANCE> 39
 1.411934e+04 2.376821e+02 1.499080e+01 7.045191e-02 4.617448e-02 7.954732e-02 6.618010e-02 1.421029e-01 7.062715e-02 8.933263e-02 7.143436e-02 8.117826e-02 1.389510e-01 6.389475e-02 1.347298e-01 1.348635e-03 9.171976e-04 2.121684e-03 2.345241e-03 4.280825e-03 2.050240e-03 2.129301e-03 1.647941e-03 2.206667e-03 4.572157e-03 1.721532e-03 2.716498e-03 6.672073e-05 4.809268e-05 1.065012e-04 1.194668e-04 2.237220e-04 1.130540e-04 1.254963e-04 9.570988e-05 1.343580e-04 2.317184e-04 8.594684e-05 1.392272e-04
<GCONST> -1.232476e+02
<TRANSP> 3
 0.000000e+00 1.000000e+00 0.000000e+00
 0.000000e+00 7.977301e-01 2.022698e-01
 0.000000e+00 0.000000e+00 0.000000e+00
<ENDHMM>
~h "Tab0061"
<BEGINHMM>
<NUMSTATES> 3
<STATE> 2
<MEAN> 39
 -4.399764e+02 -1.056679e-01 5.704382e-02 2.163105e-01 2.866874e-01 2.855635e-01 3.215529e-01 4.390950e-01 3.275091e-01 2.118056e-01 2.084041e-01 3.920114e-01 5.894576e-01 3.705093e-01 2.025942e-01 9.742235e-04 2.143875e-03 1.400504e-04 -4.364502e-03 -9.721885e-03 -7.296687e-03 -1.085630e-03 1.363465e-03 6.409861e-03 1.120894e-02 4.077374e-03 -2.048891e-03 2.643512e-04 2.306181e-04 4.821118e-04 -6.599100e-05 -6.080222e-04 -7.842136e-05 6.699045e-04 1.164849e-03 1.035109e-04 -9.379772e-04 -2.815259e-04 4.675268e-04
<VARIANCE> 39
 1.266611e+04 1.953514e+02 1.337988e+01 6.723542e-02 6.492393e-02 1.141897e-01 4.155204e-02 9.875959e-02 5.992667e-02 5.132690e-02 5.847157e-02 5.665804e-02 1.745596e-01 5.182062e-02 3.386074e-02 1.073381e-03 1.486298e-03 1.875695e-03 9.304670e-04 1.901069e-03 1.344172e-03 9.488148e-04 1.446758e-03 1.580648e-03 4.433330e-03 1.318256e-03 7.116055e-04 4.842128e-05 8.305028e-05 1.011567e-04 5.138384e-05 1.078670e-04 6.923632e-05 5.708138e-05 1.018011e-04 9.431813e-05 2.267771e-04 6.588837e-05 3.700404e-05
<GCONST> -1.359987e+02
<TRANSP> 3
 0.000000e+00 1.000000e+00 0.000000e+00
 0.000000e+00 8.753384e-01 1.246616e-01
 0.000000e+00 0.000000e+00 0.000000e+00
<ENDHMM>
~h "Tab0062"
<BEGINHMM>
<NUMSTATES> 3
<STATE> 2
<MEAN> 39
 -5.347456e+02 4.562075e-01 -1.528023e-01 2.716886e-01 3.530656e-01 4.569407e-01 4.918675e-01 5.119404e-01 3.138432e-01 1.363069e-01 1.287345e-01 1.076665e-01 9.391808e-02 1.182852e-01 2.200810e-01 -6.904380e-04 -4.167005e-05 1.122298e-04 9.527607e-04 2.309127e-03 1.844563e-03 1.138721e-03 9.092148e-04 4.309379e-04 3.178854e-05 -4.133015e-04 -1.027583e-03 3.373901e-04 -1.937618e-04 -6.870400e-04 -5.527986e-04 -1.671563e-05 8.774507e-05 2.325090e-04 4.201668e-04 3.903531e-04 2.944020e-04 2.487281e-04 3.774136e-04
<VARIANCE> 39
 1.087684e+04 1.574373e+02 8.652060e+00 1.165283e-01 8.121294e-02 1.780912e-01 6.889465e-02 1.782530e-01 7.125619e-02 2.784140e-02 4.923216e-02 2.812505e-02 2.175277e-02 3.260537e-02 8.323371e-02 3.277054e-03 2.874479e-03 5.800125e-03 1.444375e-03 5.394693e-03 2.164492e-03 9.835608e-04 1.708827e-03 9.251524e-04 7.003761e-04 1.072267e-03 2.566540e-03 1.804269e-04 1.576532e-04 3.063102e-04 6.961836e-05 2.811783e-04 1.170344e-04 6.166250e-05 1.038634e-04 5.867829e-05 4.462903e-05 6.307077e-05 1.409835e-04
<GCONST> -1.295421e+02
<TRANSP> 3
 0.000000e+00 1.000000e+00 0.000000e+00
 0.000000e+00 9.555404e-01 4.445956e-02
 0.000000e+00 0.000000e+00 0.000000e+00
<ENDHMM>
~h "Tab0063"
<BEGINHMM>
<NUMSTATES> 3
<STATE> 2
<MEAN> 39
 -3.860566e+02 8.300622e-01 -1.335069e-01 3.560148e-01 2.112681e-01 1.588687e-01 2.377321e-01 3.256225e-01 3.736797e-01 3.564797e-01 2.314905e-01 1.593169e-01 1.689285e-01 2.947469e-01 4.419867e-01 2.794836e-03 7.123686e-03 3.533592e-03 8.221650e-04 -1.245951e-04 -1.257528e-03 1.151832e-03 3.359635e-03 2.692448e-03 2.726375e-03 2.534752e-03 6.815589e-04 -4.097300e-04 -2.350495e-04 4.003738e-04 6.078662e-04 1.706511e-04 -1.691476e-04 -3.792896e-04 -2.833146e-04 1.646743e-04 3.437250e-04 2.166242e-04 -2.625569e-04
<VARIANCE> 39
 1.369207e+04 3.626010e+02 2.264101e+01 8.811679e-02 6.071111e-02 3.638639e-02 9.160631e-02 1.113699e-01 9.665594e-02 1.122122e-01 4.038641e-02 3.909065e-02 3.694543e-02 5.980806e-02 1.600794e-01 2.715343e-03 1.244346e-03 6.836051e-04 2.671402e-03 2.764327e-03 1.992630e-03 1.906433e-03 1.180280e-03 1.126671e-03 8.661762e-04 6.495080e-04 3.064947e-03 9.789575e-05 5.197171e-05 4.599252e-05 1.347153e-04 1.731441e-04 9.371893e-05 1.041476e-04 6.523178e-05 6.326912e-05 6.223876e-05 2.720710e-05 1.392358e-04
<GCONST> -1.332124e+02
<TRANSP> 3
 0.000000e+00 1.000000e+00 0.000000e+00
 0.000000e+00 5.067188e-01 4.932812e-01
 0.000000e+00 0.000000e+00 0.000000e+00
<ENDHMM>
~h "Tab0064"
<BEGINHMM>
<NUMSTATES> 3
<STATE> 2
<MEAN> 39
 -4.138024e+02 5.747816e-01 -5.612392e-02 4.181644e-01 3.547143e-01 3.459806e-01 2.792371e-01 2.607053e-01 2.717842e-01 3.550404e-01 3.735127e-01 3.574070e-01 3.894085e-01 4.223727e-01 4.823221e-01 4.777646e-04 -6.363576e-05 2.597254e-04 1.090666e-04 4.764798e-04 6.928184e-04 1.542006e-03 1.646887e-03 -1.165937e-03 -3.767020e-03 -2.002139e-03 5.394687e-04 -1.012874e-04 1.124011e-04 -1.073002e-04 6.031042e-05 3.073394e-04 1.557659e-04 7.732374e-05 5.395350e-04 3.507012e-04 2.055017e-04 1.212506e-04 -3.622036e-04
<VARIANCE> 39
 2.804949e+04 2.746873e+02 1.349743e+01 1.030633e-01 7.803592e-02 9.686669e-02 5.955318e-02 7.691302e-02 5.593672e-02 1.000306e-01 1.075433e-01 7.729496e-02 1.068935e-01 8.323955e-02 1.284542e-01 1.120525e-03 1.292638e-03 1.426635e-03 8.341267e-04 1.062410e-03 7.222322e-04 1.357231e-03 1.255805e-03 1.288860e-03 1.637197e-03 1.215249e-03 1.434122e-03 5.124545e-05 6.084680e-05 6.732798e-05 4.200169e-05 5.365901e-05 3.785524e-05 6.291080e-05 6.110593e-05 6.936279e-05 8.821219e-05 6.181960e-05 7.612346e-05
<GCONST> -1.366817e+02
<TRANSP> 3
 0.000000e+00 1.000000e+00 0.000000e+00
 0.000000e+00 8.295810e-01 1.704190e-01
 0.000000e+00 0.000000e+00 0.000000e+00
<ENDHMM>
~h "Tab0066"
<BEGINHMM>
<NUMSTATES> 3
<STATE> 2
<MEAN> 39
 -4.603689e+02 1.940720e+00 1.863086e-01 3.641103e-01 4.331385e-01 5.397668e-01 3.962013e-01 3.226356e-01 3.261786e-01 3.586527e-01 4.033095e-01 3.698814e-01 3.330451e-01 3.532043e-01 3.813682e-01 2.724107e-03 -6.625116e-04 -6.995012e-04 -3.935551e-03 -7.639046e-03 -4.847450e-03 -2.664729e-03 -1.709381e-03 5.148150e-04 1.489800e-03 3.217689e-03 6.128334e-03 -6.749443e-04 -1.446734e-03 -1.715175e-03 -8.717033e-04 -5.229686e-04 -9.864423e-04 -1.454788e-03 -1.678724e-03 -1.782354e-03 -1.807705e-03 -1.606048e-03 -5.310146e-04
<VARIANCE> 39
 2.663695e+04 2.633269e+02 1.444263e+01 9.506954e-02 6.836630e-02 1.330680e-01 5.542447e-02 1.022383e-01 7.693184e-02 7.684727e-02 1.093853e-01 7.714949e-02 7.268216e-02 7.751614e-02 1.125142e-01 2.166125e-03 1.783767e-03 3.626359e-03 1.717621e-03 2.591264e-03 1.852735e-03 1.781410e-03 2.444802e-03 2.368303e-03 2.145463e-03 1.999457e-03 2.655144e-03 8.742136e-05 8.391377e-05 1.542712e-04 7.168275e-05 1.045186e-04 9.081990e-05 9.856233e-05 1.243882e-04 1.274500e-04 1.051840e-04 9.507836e-05 1.086432e-04
<GCONST> -1.230178e+02
<TRANSP> 3
 0.000000e+00 1.000000e+00 0.000000e+00
 0.000000e+00 8.312126e-01 1.687874e-01
 0.000000e+00 0.000000e+00 0.000000e+00
<ENDHMM>
~h "Tab0068"
<BEGINHMM>
<NUMSTATES> 3
<STATE> 2
<MEAN> 39
 -3.465894e+02 -9.617720e-01 -6.608612e-02 2.662663e-01 3.904482e-01 2.958106e-01 1.846321e-01 1.791784e-01 2.353171e-01 3.661045e-01 4.628500e-01 5.976658e-01 4.476401e-01 2.029842e-01 1.490180e-01 8.822519e-04 7.639219e-04 -1.760383e-03 -1.331991e-03 -2.423360e-05 1.073182e-03 1.132192e-03 -1.877852e-03 -2.994043e-03 -2.365034e-03 -1.712137e-03 -7.419016e-04 1.145019e-03 7.156254e-04 -3.737040e-04 -6.764748e-04 -1.829069e-04 3.359163e-04 4.608811e-04 3.780300e-05 -7.695119e-04 -8.430206e-04 -1.864113e-04 4.818628e-04
<VARIANCE> 39
 8.616920e+03 1.106206e+02 6.411504e+00 6.577555e-02 1.534474e-01 7.405466e-02 4.650469e-02 3.401967e-02 5.538917e-02 1.092971e-01 5.599737e-02 1.498254e-01 7.334035e-02 5.432992e-02 4.566448e-02 1.371916e-03 2.731357e-03 1.316999e-03 9.660799e-04 8.926890e-04 1.534455e-03 2.838675e-03 1.342724e-03 2.469328e-03 1.734239e-03 6.246671e-04 1.092840e-03 7.279964e-05 1.326376e-04 6.426474e-05 4.102257e-05 4.736698e-05 8.450087e-05 1.336984e-04 7.138954e-05 1.149849e-04 8.732055e-05 3.273162e-05 5.818747e-05
<GCONST> -1.379591e+02
<TRANSP> 3
 0.000000e+00 1.000000e+00 0.000000e+00
 0.000000e+00 8.991193e-01 1.008807e-01
 0.000000e+00 0.000000e+00 0.000000e+00
<ENDHMM>
~h "Tab0071"
<BEGINHMM>
<NUMSTATES> 3
<STATE> 2
<MEAN> 39
 -3.163478e+02 4.956852e-01 -1.145326e-01 2.326133e-01 2.344992e-01 3.366709e-01 3.592238e-01 3.686125e-01 4.594509e-01 5.593395e-01 4.609496e-01 3.498888e-01 3.022686e-01 3.421146e-01 3.771531e-01 9.413840e-04 1.658170e-04 -6.596550e-04 2.808889e-04 1.021929e-03 8.333687e-04 4.329892e-04 4.618167e-05 -5.427857e-04 -1.073741e-03 3.047929e-04 1.280402e-03 -4.056253e-05 -9.188239e-06 -2.025188e-05 -2.041509e-04 -2.052047e-04 -2.869042e-04 -5.170620e-04 -4.271981e-04 -2.541239e-04 -2.294304e-04 -1.632588e-04 -5.002652e-05
<VARIANCE> 39
 8.599233e+03 2.757893e+02 1.542094e+01 5.128581e-02 5.635700e-02 1.084814e-01 5.638625e-02 1.006253e-01 6.941785e-02 1.154531e-01 7.842208e-02 8.124673e-02 8.898539e-02 6.474802e-02 1.486157e-01 1.048923e-03 1.181248e-03 2.401830e-03 1.545352e-03 2.216491e-03 2.103787e-03 3.390325e-03 2.375182e-03 2.402634e-03 2.035207e-03 1.752270e-03 3.482352e-03 5.629302e-05 5.948952e-05 1.301923e-04 8.511302e-05 1.192760e-04 1.206270e-04 1.850327e-04 1.247367e-04 1.296933e-04 1.111487e-04 9.289548e-05 1.924316e-04
<GCONST> -1.248072e+02
<TRANSP> 3
 0.000000e+00 1.000000e+00 0.000000e+00
 0.000000e+00 9.876202e-01 1.237983e-02
 0.000000e+00 0.000000e+00 0.000000e+00
<ENDHMM>
~h "Tab0072"
<BEGINHMM>
<NUMSTATES> 3
<STATE> 2
<MEAN> 39
 -3.389485e+02 -1.288876e+00 1.313199e-01 4.046797e-01 2.381617e-01 2.936183e-01 3.773802e-01 4.824948e-01 3.476107e-01 2.927206e-01 3.613395e-01 3.304575e-01 3.084845e-01 4.419773e-01 6.238569e-01 8.040912e-04 7.169055e-04 9.695158e-04 -1.204907e-03 -2.135461e-03 -2.000574e-03 -8.815476e-04 -5.706034e-04 -1.096593e-03 -8.375077e-04 7.807381e-04 1.718474e-03 -8.996371e-06 2.303302e-04 2.682077e-04 3.137758e-04 2.456470e-04 1.760067e-04 3.415368e-04 4.161223e-04 4.174251e-04 4.958016e-04 2.159548e-04 -1.768028e-04
<VARIANCE> 39
 9.827859e+03 3.439465e+01 2.503102e+00 5.217232e-02 2.796681e-02 6.575076e-02 4.668254e-02 1.614849e-01 5.618563e-02 3.721207e-02 8.949631e-02 6.876063e-02 9.574167e-02 4.634216e-02 1.257343e-01 2.495131e-04 2.225707e-04 2.580040e-04 2.831211e-04 3.678894e-04 2.656142e-04 2.814933e-04 3.211932e-04 3.010002e-04 2.413158e-04 1.817434e-04 4.355552e-04 1.345467e-05 1.437243e-05 1.910089e-05 1.811984e-05 2.289050e-05 1.553246e-05 1.594739e-05 1.796450e-05 1.711438e-05 1.579842e-05 1.049444e-05 2.440579e-05
<GCONST> -1.778522e+02
<TRANSP> 3
 0.000000e+00 1.000000e+00 0.000000e+00
 0.000000e+00 9.015537e-01 9.844629e-02
 0.000000e+00 0.000000e+00 0.000000e+00
<ENDHMM>
~h "Tab0074"
<BEGINHMM>
<NUMSTATES> 3
<STATE> 2
<MEAN> 39
 -3.715498e+02 -1.379371e+00 2.286292e-01 5.063900e-01 5.858987e-01 3.824237e-01 1.384165e-01 1.081894e-01 1.850502e-01 3.222169e-01 3.156555e-01 2.282740e-01 1.884268e-01 3.043599e-01 4.265272e-01 -3.152530e-04 4.803630e-04 1.141343e-03 -6.505543e-06 -1.323883e-03 -2.737552e-03 -5.136079e-03 -4.037554e-03 -1.401773e-03 -1.718985e-03 -2.883140e-03 -1.353225e-03 -1.154208e-04 5.160648e-04 8.603033e-04 9.351567e-04 1.097404e-03 1.083025e-03 6.211396e-04 9.507511e-04 1.868609e-03 1.755836e-03 4.167360e-04 -3.712052e-04
<VARIANCE> 39
 1.113411e+04 9.616560e+01 6.709202e+00 5.000902e-02 1.554778e-01 6.358927e-02 1.668932e-02 1.126842e-02 2.672530e-02 8.661068e-02 5.772611e-02 4.174869e-02 3.184413e-02 8.487666e-02 1.605409e-01 6.017539e-04 5.194135e-04 4.680941e-04 2.649432e-04 3.154042e-04 5.008467e-04 7.597728e-04 6.976023e-04 7.664906e-04 7.770177e-04 5.744171e-04 7.535479e-04 3.319513e-05 3.260841e-05 2.815572e-05 1.720713e-05 2.385606e-05 3.251303e-05 4.524500e-05 4.209437e-05 5.309023e-05 4.837874e-05 3.271973e-05 5.494575e-05
<GCONST> -1.616097e+02
<TRANSP> 3
 0.000000e+00 1.000000e+00 0.000000e+00
 0.000000e+00 8.095602e-01 1.904398e-01
 0.000000e+00 0.000000e+00 0.000000e+00
<ENDHMM>
~h "Tab0075"
<BEGINHMM>
<NUMSTATES> 3
<STATE> 2
<MEAN> 39
 -3.658241e+02 -7.997901e-01 1.905040e-01 1.836699e-01 2.408530e-01 1.915394e-01 1.343566e-01 1.080780e-01 1.578411e-01 3.137490e-01 5.178156e-01 6.007345e-01 4.094228e-01 3.004899e-01 2.202859e-01 1.097257e-03 -5.307741e-04 5.842537e-04 1.153621e-03 -8.947574e-05 -1.464888e-03 -2.389227e-03 -1.176827e-03 4.601297e-03 4.327561e-03 -1.863152e-04 2.038518e-03 7.014359e-04 7.765663e-04 1.240472e-03 1.575008e-03 1.418756e-03 4.059016e-04 -8.212477e-04 -3.266098e-04 3.179239e-04 7.335000e-05 -1.857748e-04 4.295298e-04
<VARIANCE> 39
 1.357450e+04 6.108066e+01 3.509037e+00 4.379309e-02 1.005197e-01 4.300268e-02 1.394772e-02 1.030281e-02 3.013721e-02 9.543366e-02 9.951144e-02 1.597297e-01 5.088588e-02 1.036175e-01 7.407385e-02 4.272193e-04 1.133203e-03 7.857209e-04 5.100535e-04 3.238404e-04 3.863566e-04 1.265866e-03 1.091003e-03 1.517888e-03 8.323222e-04 1.895355e-03 1.329791e-03 2.204912e-05 6.613254e-05 3.451003e-05 2.837407e-05 1.937698e-05 2.605331e-05 7.282882e-05 5.066731e-05 8.258755e-05 4.646264e-05 8.739227e-05 5.945684e-05
<GCONST> -1.541992e+02
<TRANSP> 3
 0.000000e+00 1.000000e+00 0.000000e+00
 0.000000e+00 7.606322e-01 2.393678e-01
 0.000000e+00 0.000000e+00 0.000000e+00
<ENDHMM>
~h "Tab0076"
<BEGINHMM>
<NUMSTATES> 3
<STATE> 2
<MEAN> 39
 -5.379243e+02 -2.200822e-01 -3.443599e-02 2.675645e-01 5.887411e-01 6.222331e-01 3.341552e-01 2.240776e-01 2.366188e-01 1.392259e-01 1.062453e-01 4.872857e-01 8.436465e-01 5.055151e-01 1.228467e-01 9.597429e-05 -5.163999e-04 -1.212529e-03 -3.472008e-04 5.308656e-04 1.259614e-07 -1.264675e-04 2.543780e-04 3.734174e-04 4.002563e-04 4.177847e-04 2.837460e-04 1.052423e-04 1.079416e-04 4.370206e-05 3.655162e-05 5.730092e-05 6.505524e-05 9.024509e-05 1.197977e-04 -5.786068e-05 -2.426441e-04 -3.232071e-05 1.249549e-04
<VARIANCE> 39
 5.769867e+03 1.784339e+02 1.027653e+01 6.477954e-02 1.065990e-01 6.833825e-02 4.579160e-02 3.211606e-02 6.181186e-02 2.858211e-02 2.659838e-02 2.194646e-02 3.072467e-02 1.675937e-02 2.114050e-02 9.000886e-04 1.561909e-03 9.491200e-04 6.392798e-04 8.148127e-04 7.551830e-04 5.747019e-04 1.033681e-03 6.387199e-04 8.016266e-04 4.456840e-04 7.295858e-04 4.820646e-05 8.828375e-05 4.767610e-05 3.629840e-05 4.846101e-05 4.165657e-05 3.623240e-05 6.682987e-05 3.854854e-05 4.419696e-05 2.553812e-05 4.780090e-05
<GCONST> -1.574168e+02
<TRANSP> 3
 0.000000e+00 1.000000e+00 0.000000e+00
 0.000000e+00 9.677873e-01 3.221261e-02
 0.000000e+00 0.000000e+00 0.000000e+00
<ENDHMM>
~h "Tab0078"
<BEGINHMM>
<NUMSTATES> 3
<STATE> 2
<MEAN> 39
 -5.444166e+02 -5.386756e-01 -7.735841e-03 7.179957e-02 1.231595e-01 1.005741e-01 6.566934e-02 5.680701e-02 1.317755e-01 2.169039e-01 3.972523e-01 5.294414e-01 2.985200e-01 1.131561e-01 6.366056e-02 2.233302e-04 2.275802e-04 3.781315e-04 4.306173e-04 2.816218e-04 -3.000810e-04 -8.395785e-04 9.920471e-04 2.677517e-03 8.577959e-04 -1.907164e-05 1.454619e-05 1.586920e-04 4.915181e-05 5.037721e-05 2.478161e-05 1.126526e-05 1.185207e-04 2.111730e-04 -1.335377e-04 -3.562985e-04 -9.866844e-05 2.459308e-04 2.847381e-04
<VARIANCE> 39
 1.041423e+04 3.823798e+01 2.253030e+00 1.686923e-02 5.850620e-02 2.257844e-02 5.029322e-03 4.622771e-03 3.407435e-02 9.140906e-02 1.278804e-01 2.265760e-01 7.602504e-02 3.255949e-02 9.051255e-03 5.063235e-05 1.349268e-04 1.300457e-04 7.375595e-05 1.069337e-04 6.211606e-04 1.820847e-03 5.451101e-04 1.337409e-03 5.430761e-04 8.093899e-04 2.055420e-04 3.631817e-06 7.686249e-06 7.515737e-06 4.542635e-06 7.311208e-06 3.527673e-05 1.093431e-04 3.113061e-05 6.358880e-05 2.990308e-05 4.533118e-05 1.045124e-05
<GCONST> -1.849045e+02
<TRANSP> 3
 0.000000e+00 1.000000e+00 0.000000e+00
 0.000000e+00 9.922010e-01 7.798964e-03
 0.000000e+00 0.000000e+00 0.000000e+00
<ENDHMM>
~h "Tab0079"
<BEGINHMM>
<NUMSTATES> 3
<STATE> 2
<MEAN> 39
 -4.606552e+02 1.677590e+00 -3.375620e-01 4.160300e-01 2.947534e-01 1.630338e-01 2.023800e-01 3.541756e-01 3.965365e-01 3.244551e-01 2.947177e-01 3.330369e-01 3.597624e-01 2.841058e-01 3.133008e-01 5.755789e-03 3.859086e-03 9.791547e-04 -2.159687e-04 -3.461941e-03 -1.907241e-03 5.847368e-04 1.042557e-03 5.045136e-04 -7.054453e-04 -1.636465e-03 1.180199e-03 -6.406367e-04 -6.114866e-04 1.190461e-04 -2.308607e-04 -9.120483e-04 -8.271691e-04 -4.323166e-04 -1.905260e-04 -5.069252e-05 2.369096e-05 4.148329e-05 2.928757e-04
<VARIANCE> 39
 3.254939e+04 3.049063e+02 1.769119e+01 1.599992e-01 7.461206e-02 5.307091e-02 4.832824e-02 1.114977e-01 1.397304e-01 6.825678e-02 9.851619e-02 7.610089e-02 1.403132e-01 6.957093e-02 8.573856e-02 3.064594e-03 1.582946e-03 1.146917e-03 1.047509e-03 2.626619e-03 3.294968e-03 1.479906e-03 2.587716e-03 2.098366e-03 2.807607e-03 1.889079e-03 1.956820e-03 1.428602e-04 8.451280e-05 6.241460e-05 5.328780e-05 1.339795e-04 1.366498e-04 7.269550e-05 1.216404e-04 1.043097e-04 1.388334e-04 9.998907e-05 1.122675e-04
<GCONST> -1.235758e+02
<TRANSP> 3
 0.000000e+00 1.000000e+00 0.000000e+00
 0.000000e+00 6.345902e-01 3.654098e-01
 0.000000e+00 0.000000e+00 0.000000e+00
<ENDHMM>
~h "Tab0083"
<BEGINHMM>
<NUMSTATES> 3
<STATE> 2
<MEAN> 39
 -2.749371e+02 -1.925611e-01 8.723507e-03 3.069539e-01 4.070617e-01 6.437880e-01 5.812113e-01 5.280303e-01 3.792205e-01 3.545325e-01 4.086708e-01 4.998757e-01 4.736691e-01 4.262254e-01 4.555469e-01 -8.453723e-04 -4.468198e-04 3.539503e-04 3.051820e-04 -4.573290e-04 -8.281550e-04 -1.742071e-03 -1.893059e-03 -1.715902e-03 -1.532511e-03 -8.494448e-04 -8.935607e-04 1.383957e-05 5.478790e-05 -2.411075e-05 9.528389e-05 1.644722e-04 1.463405e-04 -2.629994e-05 7.637587e-05 1.836351e-04 1.259051e-04 -5.562563e-05 -1.659284e-04
<VARIANCE> 39
 8.953540e+02 1.648368e+00 9.713050e-02 5.039974e-02 2.976402e-02 1.110198e-01 2.879725e-02 1.605880e-01 6.861375e-02 3.625865e-02 9.862989e-02 6.320679e-02 5.510570e-02 5.379112e-02 1.278474e-01 2.712381e-04 1.681079e-04 2.643155e-04 3.093410e-04 2.242600e-04 2.939025e-04 2.036783e-04 2.089981e-04 2.707431e-04 3.600704e-04 5.460695e-04 6.766654e-04 1.799359e-05 1.019963e-05 1.740796e-05 1.668994e-05 1.520104e-05 2.137071e-05 1.228540e-05 1.257766e-05 1.513745e-05 1.965015e-05 3.188180e-05 4.372283e-05
<GCONST> -1.852141e+02
<TRANSP> 3
 0.000000e+00 1.000000e+00 0.000000e+00
 0.000000e+00 9.278320e-01 7.216801e-02
 0.000000e+00 0.000000e+00 0.000000e+00
<ENDHMM>
~h "Tab0084"
<BEGINHMM>
<NUMSTATES> 3
<STATE> 2
<MEAN> 39
 -4.305145e+02 -2.943476e-01 8.068326e-02 3.295612e-01 2.360159e-01 2.641411e-01 2.842943e-01 2.495852e-01 2.683879e-01 3.604642e-01 2.862782e-01 1.849245e-01 1.936040e-01 3.438989e-01 4.626263e-01 4.790188e-04 2.565354e-03 8.559147e-04 -7.014337e-04 1.593021e-03 5.795994e-04 -3.344303e-03 -2.834413e-03 -1.038769e-04 -2.263812e-05 4.915597e-04 3.110376e-05 1.402971e-05 3.677597e-04 6.484369e-04 7.028643e-04 6.465464e-04 3.847059e-05 -4.663410e-04 7.108662e-05 4.598318e-04 3.989916e-04 4.103186e-04 -8.737604e-05
<VARIANCE> 39
 1.933322e+04 2.258344e+02 1.147486e+01 7.296412e-02 7.659189e-02 7.653938e-02 9.559990e-02 7.669298e-02 5.137130e-02 1.224125e-01 5.970054e-02 4.341510e-02 5.108076e-02 7.632975e-02 1.754298e-01 1.056605e-03 1.481105e-03 8.848370e-04 1.820205e-03 1.433378e-03 8.792712e-04 2.309614e-03 1.198481e-03 1.030863e-03 7.864059e-04 8.013572e-04 1.514892e-03 5.817712e-05 6.586959e-05 6.544733e-05 1.271865e-04 9.664741e-05 5.522710e-05 1.145695e-04 6.073356e-05 5.800009e-05 6.212132e-05 3.961285e-05 1.112861e-04
<GCONST> -1.368099e+02
<TRANSP> 3
 0.000000e+00 1.000000e+00 0.000000e+00
 0.000000e+00 3.702266e-01 6.297734e-01
 0.000000e+00 0.000000e+00 0.000000e+00
<ENDHMM>
~h "Tab0085"
<BEGINHMM>
<NUMSTATES> 3
<STATE> 2
<MEAN> 39
 -3.478015e+02 -9.193406e-01 1.885965e-01 3.440460e-01 2.280714e-01 3.228920e-01 2.826221e-01 2.918938e-01 3.776568e-01 4.313251e-01 3.784567e-01 2.541282e-01 2.044003e-01 4.031509e-01 5.895082e-01 1.907409e-03 1.477746e-03 -6.402271e-04 1.141417e-03 4.108976e-03 2.250194e-03 -2.874084e-05 -1.776963e-03 -7.365192e-04 -2.602377e-06 -2.591329e-03 -1.679440e-03 1.165156e-04 6.881373e-04 6.124620e-04 1.028298e-03 1.121835e-03 6.582809e-04 5.767063e-04 7.949471e-04 1.160179e-03 1.313793e-03 4.439577e-04 -4.290937e-04
<VARIANCE> 39
 1.303418e+04 2.490228e+02 1.720949e+01 5.749542e-02 4.174089e-02 1.003361e-01 4.713565e-02 1.002705e-01 8.812509e-02 8.761370e-02 9.930909e-02 6.367585e-02 4.896135e-02 5.872720e-02 1.349975e-01 3.523330e-04 2.664609e-04 6.679889e-04 7.108742e-04 6.750051e-04 1.424731e-03 1.539818e-03 1.153889e-03 7.056293e-04 4.377712e-04 4.515398e-04 1.019556e-03 2.288125e-05 1.803489e-05 4.366402e-05 4.885736e-05 4.250631e-05 7.244626e-05 8.288029e-05 6.422456e-05 4.052077e-05 2.830914e-05 3.317949e-05 6.544949e-05
<GCONST> -1.501278e+02
<TRANSP> 3
 0.000000e+00 1.000000e+00 0.000000e+00
 0.000000e+00 6.140940e-01 3.859060e-01
 0.000000e+00 0.000000e+00 0.000000e+00
<ENDHMM>
~h "Tab0086"
<BEGINHMM>
<NUMSTATES> 3
<STATE> 2
<MEAN> 39
 -4.032471e+02 4.938593e+00 -5.603603e-01 2.646545e-01 1.821980e-01 1.752999e-01 2.685709e-01 3.769001e-01 3.660476e-01 3.620082e-01 3.776280e-01 4.447530e-01 4.294818e-01 3.501030e-01 3.613123e-01 -1.679159e-03 -1.554263e-03 1.533240e-04 1.072075e-03 1.486349e-03 1.018123e-03 1.060909e-03 1.749646e-03 2.712334e-03 2.270570e-03 7.764755e-04 -8.582002e-04 -1.978673e-04 -1.061535e-04 -1.362004e-04 -6.254285e-04 -9.282242e-04 -8.285528e-04 -7.985591e-04 -8.028666e-04 -7.495460e-04 -6.438889e-04 -7.259645e-04 -4.574006e-04
<VARIANCE> 39
 2.041158e+04 6.043887e+02 3.602282e+01 8.197194e-02 4.361720e-02 5.125477e-02 6.475695e-02 1.263367e-01 8.324732e-02 9.455861e-02 8.372866e-02 9.990357e-02 1.215156e-01 6.257036e-02 1.306010e-01 1.765405e-03 8.264074e-04 8.765030e-04 1.847108e-03 3.587970e-03 2.022475e-03 2.805482e-03 2.876967e-03 2.769735e-03 3.915445e-03 1.469772e-03 2.608880e-03 7.440637e-05 3.635606e-05 3.835063e-05 8.072094e-05 1.542052e-04 9.612247e-05 1.498390e-04 1.606509e-04 1.463868e-04 2.001626e-04 7.021197e-05 1.206583e-04
<GCONST> -1.234226e+02
<TRANSP> 3
 0.000000e+00 1.000000e+00 0.000000e+00
 0.000000e+00 8.547279e-01 1.452721e-01
 0.000000e+00 0.000000e+00 0.000000e+00
<ENDHMM>
~h "Tab0087"
<BEGINHMM>
<NUMSTATES> 3
<STATE> 2
<MEAN> 39
 -4.821161e+02 -3.174963e+00 5.060919e-01 1.174141e-01 2.381594e-01 3.069968e-01 3.547542e-01 2.752661e-01 3.488383e-01 4.850195e-01 2.737951e-01 9.146657e-02 9.119994e-02 1.018159e-01 7.349482e-02 -8.410692e-04 -1.615057e-03 -4.959527e-04 -4.451275e-05 -5.101964e-04 3.304329e-04 -2.783880e-04 -1.773588e-03 -2.228303e-03 -1.829430e-03 -1.767029e-03 -1.145766e-03 4.216726e-04 3.877919e-04 1.339467e-04 -4.218936e-06 2.272338e-04 1.963902e-04 1.013570e-04 2.699636e-04 2.866027e-04 1.896928e-04 1.800072e-04 2.482157e-04
<VARIANCE> 39
 6.817973e+03 8.429945e+01 5.328914e+00 3.283408e-02 1.143436e-01 9.230828e-02 1.616736e-01 7.737498e-02 6.057226e-02 2.022862e-01 5.174241e-02 1.374614e-02 1.228186e-02 1.038374e-02 1.379867e-02 1.092269e-04 3.825783e-04 1.079630e-04 6.099695e-05 9.606958e-05 1.766652e-04 2.336770e-04 9.123216e-05 1.740638e-04 9.675839e-05 6.884483e-05 4.931517e-05 1.093979e-05 2.590522e-05 7.516357e-06 7.406750e-06 7.984221e-06 1.258451e-05 1.910711e-05 5.534263e-06 1.254585e-05 5.999579e-06 4.929032e-06 4.813079e-06
<GCONST> -1.987835e+02
<TRANSP> 3
 0.000000e+00 1.000000e+00 0.000000e+00
 0.000000e+00 8.899457e-01 1.100543e-01
 0.000000e+00 0.000000e+00 0.000000e+00
<ENDHMM>
~h "Tab0088"
<BEGINHMM>
<NUMSTATES> 3
<STATE> 2
<MEAN> 39
 -5.631337e+02 -1.243603e+00 3.332110e-01 1.849798e-01 3.390328e-02 3.918310e-02 6.948682e-02 7.077381e-02 5.439858e-02 6.601179e-02 2.012700e-01 3.430440e-01 2.335740e-01 2.132700e-01 3.341987e-01 2.320576e-05 6.234377e-05 -1.893496e-04 -2.125884e-04 -3.200660e-05 -1.262230e-04 -3.636995e-04 -3.819930e-04 -5.532117e-04 -6.868680e-04 -2.754200e-04 -2.478240e-04 9.747408e-05 2.707319e-04 2.834744e-04 3.114052e-04 3.916844e-04 2.588806e-04 1.864718e-04 2.704055e-04 2.897016e-04 4.151449e-04 1.590510e-04 -8.083103e-05
<VARIANCE> 39
 2.125993e+04 1.173268e+02 7.209887e+00 4.728849e-02 5.721944e-03 4.327797e-03 1.296942e-02 3.302783e-02 1.280413e-02 1.721353e-02 6.348625e-02 1.928731e-01 8.718650e-02 5.275759e-02 1.523687e-01 9.089704e-05 5.619429e-05 7.012242e-05 1.691339e-04 2.458139e-04 7.684844e-05 1.141797e-04 8.622556e-05 1.243170e-04 2.311122e-04 8.618773e-05 3.027224e-04 7.462382e-06 4.817945e-06 6.044069e-06 8.512557e-06 1.575727e-05 6.376902e-06 9.886580e-06 8.663067e-06 1.141925e-05 1.391851e-05 6.414271e-06 2.387156e-05
<GCONST> -2.006106e+02
<TRANSP> 3
 0.000000e+00 1.000000e+00 0.000000e+00
 0.000000e+00 9.139912e-01 8.600880e-02
 0.000000e+00 0.000000e+00 0.000000e+00
<ENDHMM>
~h "Tab0089"
<BEGINHMM>
<NUMSTATES> 3
<STATE> 2
<MEAN> 39
 -4.844433e+02 -3.183035e+00 4.704789e-01 3.271014e-01 1.661116e-01 1.381566e-01 2.354359e-01 1.694528e-01 6.179420e-02 1.036426e-01 1.663391e-01 3.489400e-01 5.356657e-01 3.800574e-01 3.009546e-01 7.645492e-04 -4.318376e-04 -1.610356e-04 5.562278e-05 -8.236169e-04 -1.077597e-03 -2.037105e-03 -2.346310e-03 -2.346220e-03 -2.815262e-03 -2.379947e-03 -8.703384e-05 3.278170e-05 1.723158e-04 3.363424e-04 3.650390e-04 6.318698e-04 7.933620e-04 9.669411e-04 8.639805e-04 2.686516e-04 1.868030e-04 4.868590e-04 4.487918e-04
<VARIANCE> 39
 1.007672e+04 1.451076e+02 9.435126e+00 1.756064e-01 4.977237e-02 4.896193e-02 1.361200e-01 4.130458e-02 5.619076e-03 5.833765e-03 2.328295e-02 6.735086e-02 1.670023e-01 4.334050e-02 9.916785e-02 4.377583e-05 2.092079e-05 3.929566e-05 1.245201e-04 1.954996e-04 8.177973e-05 1.496880e-04 1.562832e-04 7.494730e-05 1.299644e-04 2.094970e-04 6.791847e-05 9.645377e-06 1.799720e-06 2.815619e-06 8.590808e-06 1.287457e-05 6.621362e-06 8.432555e-06 7.645580e-06 7.308485e-06 8.650705e-06 1.571248e-05 8.164790e-06
<GCONST> -2.029606e+02
<TRANSP> 3
 0.000000e+00 1.000000e+00 0.000000e+00
 0.000000e+00 7.778678e-01 2.221322e-01
 0.000000e+00 0.000000e+00 0.000000e+00
<ENDHMM>
~h "Tab0090"
<BEGINHMM>
<NUMSTATES> 3
<STATE> 2
<MEAN> 39
 -5.104382e+02 -1.866807e+00 3.941804e-01 3.610333e-01 1.662113e-01 1.288956e-01 2.886811e-01 4.249996e-01 2.665708e-01 1.811865e-01 2.590742e-01 2.202576e-01 1.478657e-01 2.989620e-01 5.145416e-01 -2.525345e-03 1.366116e-03 1.211127e-03 2.453583e-03 4.733084e-03 2.023691e-03 -5.535893e-04 -4.747590e-04 -2.689251e-04 -6.246250e-04 -5.513814e-03 -7.310753e-03 4.058302e-04 2.277391e-04 3.604238e-04 -3.365618e-04 -1.025820e-03 -2.131446e-04 6.823094e-04 6.229772e-04 4.767455e-04 4.859683e-04 8.441539e-04 7.566696e-04
<VARIANCE> 39
 1.780099e+04 2.929700e+02 1.827642e+01 1.081641e-01 5.225795e-02 5.927464e-02 5.973505e-02 1.876655e-01 6.336935e-02 3.743058e-02 9.533128e-02 5.519287e-02 4.607160e-02 6.331594e-02 1.240540e-01 9.843266e-04 6.463986e-04 8.329587e-04 7.264064e-04 2.460981e-03 7.304662e-04 6.925760e-04 5.997056e-04 5.627775e-04 6.248046e-04 8.759839e-04 1.315988e-03 4.925148e-05 3.334222e-05 4.862662e-05 3.777123e-05 9.298290e-05 3.619448e-05 4.176649e-05 3.986222e-05 2.917290e-05 3.154263e-05 3.905514e-05 6.151230e-05
<GCONST> -1.474197e+02
<TRANSP> 3
 0.000000e+00 1.000000e+00 0.000000e+00
 0.000000e+00 6.296659e-01 3.703342e-01
 0.000000e+00 0.000000e+00 0.000000e+00
<ENDHMM>
~h "Tab0091"
<BEGINHMM>
<NUMSTATES> 3
<STATE> 2
<MEAN> 39
 -3.945371e+02 -2.672543e+00 5.421925e-01 2.301614e-01 1.809237e-01 1.186574e-01 1.298636e-01 1.702392e-01 1.368324e-01 2.092640e-01 3.727071e-01 5.432871e-01 5.583476e-01 3.393397e-01 2.275783e-01 -8.247765e-04 -4.284078e-04 -4.907821e-04 7.285296e-05 3.101488e-04 -1.223268e-04 -1.559608e-03 -2.260344e-03 -1.533651e-03 -8.275244e-04 -7.314730e-04 -8.806911e-04 3.984866e-04 3.932832e-04 4.946113e-04 4.521596e-04 4.067812e-04 5.359242e-04 7.448500e-04 5.654249e-04 2.121209e-04 7.935208e-05 3.224894e-04 4.966694e-04
<VARIANCE> 39
 1.847066e+04 4.153826e+01 2.403094e+00 9.455820e-02 6.196589e-02 2.090632e-02 1.523023e-02 4.409743e-02 1.769801e-02 5.197638e-02 1.062606e-01 8.503672e-02 1.629640e-01 5.567716e-02 6.692517e-02 6.194866e-05 6.085039e-05 5.498914e-05 8.039959e-05 1.808236e-04 9.559620e-05 1.467506e-04 1.573264e-04 2.225545e-04 9.772966e-05 2.772608e-04 1.570527e-04 5.824246e-06 4.874334e-06 7.135693e-06 6.584090e-06 1.229800e-05 7.566581e-06 1.423060e-05 1.082133e-05 1.483732e-05 8.321355e-06 1.862228e-05 1.331860e-05
<GCONST> -1.966875e+02
<TRANSP> 3
 0.000000e+00 1.000000e+00 0.000000e+00
 0.000000e+00 9.040504e-01 9.594961e-02
 0.000000e+00 0.000000e+00 0.000000e+00
<ENDHMM>
~h "Tab0092"
<BEGINHMM>
<NUMSTATES> 3
<STATE> 2
<MEAN> 39
 -5.531296e+02 -2.166660e+00 2.141491e-01 8.502239e-02 1.512815e-01 2.525347e-01 4.165995e-01 3.557105e-01 2.996295e-01 3.377326e-01 1.834741e-01 5.523208e-02 4.968335e-02 5.247867e-02 3.527427e-02 -1.676017e-04 -3.602442e-04 1.967686e-04 -3.365873e-06 -5.954417e-04 -4.498962e-04 -1.827431e-04 -4.766186e-04 -9.399737e-04 -9.900241e-04 -1.026522e-03 -5.005729e-04 1.606523e-04 2.580275e-04 2.553742e-04 2.033810e-04 1.962852e-04 1.297915e-04 -3.304261e-05 -2.389857e-05 6.296117e-05 7.390865e-05 1.275791e-04 1.596327e-04
<VARIANCE> 39
 6.443778e+03 1.970119e+01 1.333382e+00 2.727009e-02 9.823670e-02 6.247040e-02 1.925998e-01 1.080073e-01 7.856217e-02 1.844549e-01 5.122190e-02 7.230201e-03 3.268264e-03 4.994893e-03 2.249131e-03 1.131631e-05 1.569645e-05 1.440541e-05 1.831913e-05 3.441191e-05 4.823977e-05 2.260964e-05 1.978385e-05 2.886946e-05 2.274943e-05 3.128899e-05 1.717280e-05 2.321156e-06 6.060306e-06 2.069278e-06 2.994999e-06 3.513698e-06 4.015186e-06 2.990696e-06 1.460479e-06 2.524263e-06 1.581689e-06 2.471713e-06 1.359778e-06
<GCONST> -2.414466e+02
<TRANSP> 3
 0.000000e+00 1.000000e+00 0.000000e+00
 0.000000e+00 9.513184e-01 4.868164e-02
 0.000000e+00 0.000000e+00 0.000000e+00
<ENDHMM>
~h "Tab0094"
<BEGINHMM>
<NUMSTATES> 3
<STATE> 2
<MEAN> 39
 -3.214460e+02 -6.834667e-01 -1.053530e-01 5.007429e-01 4.025517e-01 3.585179e-01 4.733133e-01 6.559153e-01 4.034697e-01 3.091606e-01 4.627650e-01 3.524672e-01 2.199466e-01 2.886810e-01 4.706958e-01 1.729900e-03 8.102997e-04 3.044141e-06 -1.401270e-03 -3.193516e-03 -1.231024e-03 3.431690e-05 -4.824124e-04 -9.130270e-05 2.502638e-04 2.948769e-04 1.073350e-03 3.681038e-05 -9.413337e-06 -1.460467e-04 -3.675485e-05 4.334117e-05 4.167128e-05 1.140881e-05 4.218864e-05 1.357757e-04 2.875261e-04 2.467399e-04 2.622776e-05
<VARIANCE> 39
 7.148875e+03 8.281289e+01 4.992995e+00 1.247197e-01 4.903092e-02 9.996860e-02 2.836559e-02 1.448512e-01 4.904683e-02 2.520469e-02 9.333877e-02 3.843721e-02 1.521771e-02 2.322384e-02 7.405905e-02 4.745016e-04 7.910514e-04 2.328357e-03 3.572739e-04 2.250235e-03 8.221357e-04 1.987390e-04 4.351304e-04 2.222579e-04 1.804807e-04 2.783824e-04 6.264002e-04 2.241861e-05 3.958952e-05 1.080735e-04 2.059287e-05 1.138501e-04 4.325826e-05 1.391493e-05 3.157516e-05 1.389347e-05 1.219025e-05 2.185564e-05 3.793506e-05
<GCONST> -1.648971e+02
<TRANSP> 3
 0.000000e+00 1.000000e+00 0.000000e+00
 0.000000e+00 9.522724e-01 4.772765e-02
 0.000000e+00 0.000000e+00 0.000000e+00
<ENDHMM>
~h "Tab0096"
<BEGINHMM>
<NUMSTATES> 3
<STATE> 2
<MEAN> 39
 -4.742744e+02 1.604054e+00 -1.474670e-01 2.882588e-01 3.611448e-01 3.762489e-01 3.282168e-01 3.546291e-01 3.704447e-01 3.783008e-01 3.337772e-01 4.020220e-01 4.811179e-01 4.046797e-01 3.561168e-01 6.183441e-04 -1.456623e-05 1.448673e-04 6.704625e-04 1.068913e-03 -5.811577e-04 -2.481446e-03 -9.541411e-04 2.193538e-03 1.728463e-03 -7.864962e-04 -1.569972e-04 -4.947187e-04 -2.508409e-04 -2.632484e-04 -3.437994e-04 -3.003301e-04 -2.578768e-04 -6.821738e-06 -3.307520e-05 -2.625820e-04 -1.827148e-05 -4.730382e-05 -1.888161e-04
<VARIANCE> 39
 2.667668e+04 3.452919e+02 1.778042e+01 6.348772e-02 9.203731e-02 1.004516e-01 7.049226e-02 1.080165e-01 5.902350e-02 1.263349e-01 5.153268e-02 8.127292e-02 1.058317e-01 8.528198e-02 1.005350e-01 1.288196e-03 2.083061e-03 2.074223e-03 1.568089e-03 2.891826e-03 1.624399e-03 3.719609e-03 1.701195e-03 1.996495e-03 2.211613e-03 1.503267e-03 2.505295e-03 6.304168e-05 1.078026e-04 9.720850e-05 8.263957e-05 1.669989e-04 9.013770e-05 2.094987e-04 9.910340e-05 1.044468e-04 1.195998e-04 7.415136e-05 1.278148e-04
<GCONST> -1.234504e+02
<TRANSP> 3
 0.000000e+00 1.000000e+00 0.000000e+00
 0.000000e+00 9.737577e-01 2.624224e-02
 0.000000e+00 0.000000e+00 0.000000e+00
<ENDHMM>
~h "Tab0097"
<BEGINHMM>
<NUMSTATES> 3
<STATE> 2
<MEAN> 39
 -5.449092e+02 -1.789558e+00 6.113832e-01 9.912444e-02 1.084840e-01 6.603968e-02 3.289096e-02 4.894462e-02 2.734787e-01 5.230302e-01 3.349699e-01 1.218281e-01 1.372061e-01 1.287213e-01 1.018444e-01 -8.075797e-04 -1.457187e-03 -7.264857e-04 -1.866261e-04 -4.067503e-04 5.931204e-04 5.542755e-04 -7.481145e-04 -9.521119e-04 -9.727243e-04 -9.535524e-04 -2.662246e-04 2.858573e-04 3.950762e-04 3.696817e-04 2.819624e-04 4.566570e-04 1.781462e-04 -7.483240e-05 3.338187e-04 3.733397e-04 2.704744e-04 4.282382e-04 3.182080e-04
<VARIANCE> 39
 2.236566e+04 5.879557e+01 3.962058e+00 2.164559e-02 1.273176e-02 5.027979e-03 2.267875e-03 7.682951e-03 6.777974e-02 2.326905e-01 1.018651e-01 3.057067e-02 7.171009e-02 3.236478e-02 5.532515e-02 4.525200e-05 7.903235e-05 2.633005e-05 2.002226e-05 1.216305e-04 1.146854e-04 4.536337e-05 9.812792e-05 1.088886e-04 3.758308e-05 5.169252e-05 2.453296e-05 2.242507e-06 3.181146e-06 2.083807e-06 1.990405e-06 8.108587e-06 8.824134e-06 2.826362e-06 8.515512e-06 7.035469e-06 2.959150e-06 3.548112e-06 2.562048e-06
<GCONST> -2.238199e+02
<TRANSP> 3
 0.000000e+00 1.000000e+00 0.000000e+00
 0.000000e+00 9.220504e-01 7.794964e-02
 0.000000e+00 0.000000e+00 0.000000e+00
<ENDHMM>
~h "Tab0098"
<BEGINHMM>
<NUMSTATES> 3
<STATE> 2
<MEAN> 39
 -6.943231e+02 -6.123865e-01 1.119187e-01 1.247819e-01 8.015043e-02 4.743072e-02 3.225316e-02 2.322418e-02 1.954737e-02 3.675340e-02 6.547786e-02 4.453687e-02 2.029615e-02 3.195786e-02 9.178693e-02 -5.544980e-05 -1.315485e-04 -2.935453e-05 -4.158946e-05 6.274633e-06 -4.037014e-05 -5.109117e-05 4.956286e-05 -1.535884e-04 -1.271759e-04 2.552555e-05 8.837855e-05 -1.406779e-04 1.342582e-04 3.693361e-04 2.912320e-04 2.524091e-04 2.347534e-04 2.189544e-04 8.148117e-05 1.644712e-04 2.434380e-04 3.323144e-04 1.356540e-04
<VARIANCE> 39
 2.021039e+04 1.190543e+01 7.110427e-01 9.807157e-02 3.726865e-02 3.096842e-02 1.127477e-02 9.688424e-03 6.696436e-03 1.242844e-02 4.700527e-02 2.041805e-02 5.229144e-03 1.059971e-02 5.417253e-02 3.427644e-05 2.986404e-05 2.785016e-05 1.310301e-05 9.842092e-06 1.483105e-05 2.358293e-05 3.132117e-05 3.259087e-05 3.329352e-05 4.855630e-05 2.967125e-05 8.490887e-06 2.646865e-06 6.359958e-06 2.383696e-06 2.312414e-06 1.964964e-06 2.023259e-06 4.244509e-06 3.318905e-06 2.947317e-06 5.463753e-06 3.134221e-06
<GCONST> -2.418149e+02
<TRANSP> 3
 0.000000e+00 1.000000e+00 0.000000e+00
 0.000000e+00 9.444165e-01 5.558356e-02
 0.000000e+00 0.000000e+00 0.000000e+00
<ENDHMM>
~h "Tab0099"
<BEGINHMM>
<NUMSTATES> 3
<STATE> 2
<MEAN> 39
 -3.905402e+02 -4.495645e-01 3.362719e-02 6.113710e-01 3.406582e-01 1.235898e-01 1.392395e-01 1.876638e-01 1.620093e-01 2.405775e-01 3.943067e-01 2.928828e-01 2.411010e-01 2.541873e-01 4.818704e-01 -2.649810e-04 -3.035031e-04 -5.119627e-04 -5.981367e-04 -1.446944e-03 -2.429664e-03 -2.260486e-03 -8.570994e-04 3.267121e-04 4.536758e-04 8.420236e-05 -1.765219e-04 2.407361e-05 5.732298e-05 3.328042e-05 4.964762e-05 1.617111e-04 2.140046e-04 1.862099e-04 3.722013e-05 3.986337e-05 1.653408e-04 2.282869e-04 1.497430e-04
<VARIANCE> 39
 7.414032e+03 9.108356e+01 5.200977e+00 2.002835e-01 3.641781e-02 1.473677e-02 5.633402e-03 1.508919e-02 2.762756e-02 3.076786e-02 1.197370e-01 5.907907e-02 7.393168e-02 7.271631e-02 4.728743e-02 1.222466e-04 6.825393e-05 9.111195e-05 7.200312e-05 1.710536e-04 2.745747e-04 2.630279e-04 6.566413e-04 3.556579e-04 3.539289e-04 4.172954e-04 2.105901e-04 4.184226e-06 3.526026e-06 5.271290e-06 4.316138e-06 1.006537e-05 1.435168e-05 1.396600e-05 3.151788e-05 1.947908e-05 1.684167e-05 1.801405e-05 1.223146e-05
<GCONST> -1.918070e+02
<TRANSP> 3
 0.000000e+00 1.000000e+00 0.000000e+00
 0.000000e+00 9.589142e-01 4.108581e-02
 0.000000e+00 0.000000e+00 0.000000e+00
<ENDHMM>
~h "Tab0100"
<BEGINHMM>
<NUMSTATES> 3
<STATE> 2
<MEAN> 39
 -3.392240e+02 1.431076e+00 -4.588721e-01 2.122998e-01 3.896602e-01 6.274927e-01 4.377126e-01 2.567709e-01 3.247714e-01 5.085236e-01 5.300723e-01 3.681309e-01 2.978103e-01 2.610887e-01 2.585056e-01 -1.127383e-03 2.375028e-04 5.453302e-04 7.326229e-04 2.501854e-04 1.847399e-03 5.787180e-03 5.115565e-03 3.598575e-03 4.360257e-03 1.377681e-03 -1.414498e-03 1.895899e-05 -1.911015e-04 -5.222163e-04 -5.563066e-04 -4.086820e-04 -6.196026e-04 -1.103497e-03 -1.417773e-03 -9.934659e-04 -3.387038e-04 2.225230e-04 1.908847e-04
<VARIANCE> 39
 1.305853e+04 2.062773e+02 1.107791e+01 4.930596e-02 4.565941e-02 1.522911e-01 5.634725e-02 6.009651e-02 5.666562e-02 7.455458e-02 1.281160e-01 5.165933e-02 5.644481e-02 3.799083e-02 6.436275e-02 3.842585e-04 6.624008e-04 2.129795e-03 8.770042e-04 7.053181e-04 1.091117e-03 1.820459e-03 2.539606e-03 9.813417e-04 1.180417e-03 5.309567e-04 6.428828e-04 2.326868e-05 3.438955e-05 1.017365e-04 4.741771e-05 3.848320e-05 5.784137e-05 9.142592e-05 1.085277e-04 4.788850e-05 5.835636e-05 2.651546e-05 3.873898e-05
<GCONST> -1.462851e+02
<TRANSP> 3
 0.000000e+00 1.000000e+00 0.000000e+00
 0.000000e+00 7.739417e-01 2.260582e-01
 0.000000e+00 0.000000e+00 0.000000e+00
<ENDHMM>
~h "Tab0101"
<BEGINHMM>
<NUMSTATES> 3
<STATE> 2
<MEAN> 39
 -4.618842e+02 -1.720315e+00 1.344974e-01 6.375507e-01 3.816388e-01 1.246540e-01 1.695097e-01 2.582010e-01 2.902237e-01 2.952638e-01 2.551805e-01 1.689725e-01 1.778012e-01 1.762604e-01 4.074789e-01 1.332430e-03 7.497469e-04 -5.263686e-04 -6.726020e-04 -1.651385e-04 2.528599e-04 5.397074e-04 3.620076e-04 -6.835919e-05 -2.756733e-04 -4.991661e-04 3.965336e-04 7.692546e-06 2.035891e-04 3.205226e-04 3.201607e-04 4.295327e-04 4.880917e-04 5.741008e-04 5.758414e-04 4.849209e-04 2.750564e-04 1.675300e-04 1.131236e-04
<VARIANCE> 39
 1.447260e+04 1.006010e+02 6.558053e+00 1.651247e-01 3.749863e-02 2.561654e-02 4.643572e-02 6.073005e-02 1.052222e-01 8.906964e-02 5.811458e-02 3.288768e-02 7.148398e-02 5.722046e-02 6.124936e-02 7.067402e-04 1.821525e-04 1.242032e-04 3.058722e-04 3.403238e-04 2.100877e-04 2.049630e-04 3.235983e-04 3.600071e-04 3.848713e-04 4.996309e-04 1.034415e-04 5.553366e-05 1.263745e-05 1.035159e-05 2.046689e-05 2.677300e-05 1.696825e-05 1.419922e-05 2.152562e-05 2.383958e-05 2.881943e-05 3.808906e-05 6.777781e-06
<GCONST> -1.745461e+02
<TRANSP> 3
 0.000000e+00 1.000000e+00 0.000000e+00
 0.000000e+00 7.162809e-01 2.837192e-01
 0.000000e+00 0.000000e+00 0.000000e+00
<ENDHMM>
~h "Tab0102"
<BEGINHMM>
<NUMSTATES> 3
<STATE> 2
<MEAN> 39
 -4.041452e+02 -2.098634e+00 3.031178e-01 2.171786e-01 4.027429e-01 5.925577e-01 3.701965e-01 1.462374e-01 1.867550e-01 3.256642e-01 3.569392e-01 2.835112e-01 2.686056e-01 2.452964e-01 2.539091e-01 -3.968694e-04 -1.007086e-03 -9.522943e-06 9.571672e-04 -8.838142e-04 -2.917760e-03 -3.235395e-03 -2.174793e-03 -1.626142e-03 -1.623781e-03 1.600615e-04 4.083315e-04 7.044101e-04 4.203950e-05 -4.628530e-04 8.033403e-05 6.789597e-04 4.706295e-04 2.994241e-04 5.022471e-04 6.541898e-04 3.679582e-04 1.364101e-04 3.574880e-04
<VARIANCE> 39
 1.405901e+04 1.414444e+02 8.602604e+00 8.805606e-02 6.598875e-02 1.681647e-01 6.465975e-02 3.168477e-02 3.153368e-02 5.915424e-02 1.323760e-01 4.396313e-02 5.532970e-02 4.745985e-02 8.877553e-02 1.332637e-03 4.171174e-04 1.190767e-03 7.531997e-04 7.348433e-04 6.029659e-04 6.089503e-04 5.716733e-04 5.244301e-04 5.983034e-04 4.856533e-04 5.471866e-04 6.293493e-05 2.382903e-05 5.710412e-05 4.277214e-05 5.068686e-05 3.877953e-05 3.930231e-05 3.865722e-05 3.497031e-05 3.687459e-05 3.096156e-05 2.666408e-05
<GCONST> -1.544113e+02
<TRANSP> 3
 0.000000e+00 1.000000e+00 0.000000e+00
 0.000000e+00 7.632974e-01 2.367026e-01
 0.000000e+00 0.000000e+00 0.000000e+00
<ENDHMM>
~h "Tab0103"
<BEGINHMM>
<NUMSTATES> 3
<STATE> 2
<MEAN> 39
 -7.431715e+02 -8.126262e-02 3.273599e-02 4.892812e-02 2.888934e-02 6.029028e-03 4.423771e-03 3.926851e-03 2.331369e-03 8.814596e-03 1.618719e-02 1.166551e-02 7.839512e-03 6.277207e-03 2.679034e-02 3.740981e-05 1.644800e-05 -2.417376e-05 -2.379120e-05 -3.524153e-05 -2.093391e-05 -2.563388e-05 -5.095050e-05 -4.406064e-05 3.193843e-06 4.775600e-06 -3.412342e-05 -1.340327e-05 8.444964e-06 5.674053e-05 3.368488e-05 3.183873e-05 2.108460e-05 2.052206e-05 2.936843e-05 1.878824e-05 2.735959e-05 6.996525e-05 7.254882e-05
<VARIANCE> 39
 6.078527e+03 6.071798e+00 3.854665e-01 4.578365e-02 1.500045e-02 1.011769e-03 7.726664e-04 1.754998e-03 8.484249e-04 4.037937e-03 1.370304e-02 5.666012e-03 5.622978e-03 2.097977e-03 1.304410e-02 7.738464e-06 9.012710e-06 8.173934e-06 6.020874e-06 9.842092e-06 7.769793e-06 7.680384e-06 9.380564e-06 7.292997e-06 9.102586e-06 6.767341e-06 1.690911e-05 4.039318e-07 6.580315e-07 4.976527e-07 3.326209e-07 5.388900e-07 4.357443e-07 4.302722e-07 5.102124e-07 4.137804e-07 4.840364e-07 6.945941e-07 1.135480e-06
<GCONST> -2.980009e+02
<TRANSP> 3
 0.000000e+00 1.000000e+00 0.000000e+00
 0.000000e+00 9.897036e-01 1.029641e-02
 0.000000e+00 0.000000e+00 0.000000e+00
<ENDHMM>
~h "Tab0104"
<BEGINHMM>
<NUMSTATES> 3
<STATE> 2
<MEAN> 39
 -4.939698e+02 2.557132e+00 -3.143874e-01 3.244352e-01 2.612797e-01 2.476500e-01 2.830842e-01 3.316898e-01 2.354403e-01 2.159812e-01 3.031719e-01 2.351746e-01 1.694383e-01 1.941169e-01 3.164718e-01 2.654503e-03 -1.960674e-04 -8.195562e-04 -3.021282e-04 -6.034677e-05 -1.158127e-05 1.536692e-03 2.501976e-03 5.845641e-04 -1.073479e-03 2.339094e-03 3.898463e-03 -5.152775e-04 -3.038789e-04 1.009088e-05 -1.717577e-04 -2.648662e-04 -7.550332e-07 2.710622e-04 4.002621e-04 2.179896e-04 1.596787e-05 1.224799e-04 -1.514091e-04
<VARIANCE> 39
 1.308115e+04 3.905399e+02 2.363616e+01 1.605350e-01 5.849186e-02 1.189341e-01 6.137085e-02 1.493516e-01 8.374246e-02 4.842829e-02 1.398233e-01 4.773397e-02 8.114766e-02 4.650120e-02 7.404593e-02 4.049812e-03 1.593173e-03 2.994940e-03 1.980897e-03 4.124216e-03 2.019781e-03 1.419791e-03 3.549641e-03 1.179370e-03 1.830981e-03 1.455552e-03 1.952273e-03 1.912248e-04 7.784428e-05 1.643956e-04 1.074518e-04 2.088512e-04 9.657202e-05 7.674601e-05 1.760346e-04 6.080243e-05 8.940587e-05 7.005472e-05 9.965482e-05
<GCONST> -1.231236e+02
<TRANSP> 3
 0.000000e+00 1.000000e+00 0.000000e+00
 0.000000e+00 8.973891e-01 1.026109e-01
 0.000000e+00 0.000000e+00 0.000000e+00
<ENDHMM>
~h "Tab0105"
<BEGINHMM>
<NUMSTATES> 3
<STATE> 2
<MEAN> 39
 -4.898981e+02 5.863307e-02 -1.749448e-01 2.842085e-01 2.642531e-01 3.535842e-01 2.968034e-01 2.132470e-01 1.880118e-01 3.123923e-01 4.141982e-01 3.414428e-01 3.178887e-01 3.377928e-01 3.660414e-01 -1.202505e-04 -2.388078e-04 -3.384665e-03 -3.166413e-03 -7.387152e-04 -3.238717e-04 8.933347e-04 4.166509e-03 -5.801231e-04 -4.721706e-03 -9.187791e-04 4.817333e-05 1.096381e-03 3.103575e-04 -1.604777e-04 5.439717e-04 1.026683e-03 8.576852e-04 -2.457083e-04 -1.110466e-03 -5.592208e-04 -3.063286e-04 -3.400022e-04 3.860932e-05
<VARIANCE> 39
 2.095187e+04 2.402778e+02 1.427159e+01 1.121205e-01 6.200615e-02 1.428433e-01 7.649253e-02 7.366534e-02 4.647191e-02 7.218588e-02 1.428617e-01 8.015029e-02 1.095486e-01 7.480616e-02 1.303928e-01 1.805486e-03 1.084739e-03 2.524702e-03 1.862574e-03 2.082670e-03 1.097318e-03 1.216593e-03 2.647194e-03 1.250115e-03 1.957559e-03 1.409105e-03 2.079623e-03 8.690119e-05 5.908072e-05 1.490907e-04 1.066804e-04 1.083752e-04 5.952148e-05 6.405431e-05 1.349599e-04 7.313311e-05 1.240779e-04 7.864606e-05 1.255635e-04
<GCONST> -1.274619e+02
<TRANSP> 3
 0.000000e+00 1.000000e+00 0.000000e+00
 0.000000e+00 8.162239e-01 1.837761e-01
 0.000000e+00 0.000000e+00 0.000000e+00
<ENDHMM>
~h "Tab0106"
<BEGINHMM>
<NUMSTATES> 3
<STATE> 2
<MEAN> 39
 -4.654588e+02 -1.137446e-01 9.789585e-03 5.781268e-01 1.743177e-01 1.204508e-01 4.856373e-01 7.843844e-01 4.289643e-01 1.351809e-01 1.500488e-01 1.959677e-01 2.129730e-01 5.149313e-01 9.034815e-01 -1.119744e-04 -2.897626e-05 2.842780e-05 -3.135230e-05 -3.152812e-05 6.608407e-05 1.655555e-04 1.881098e-04 1.147216e-04 1.629171e-05 -2.544225e-04 -3.400811e-04 -1.842327e-05 -1.002938e-05 3.120516e-05 2.812745e-06 -3.491115e-05 1.145401e-05 3.270009e-05 1.939163e-05 7.101580e-06 2.784424e-06 3.932292e-05 4.309116e-05
<VARIANCE> 39
 1.330358e+03 3.036733e+01 2.054765e+00 3.178334e-02 2.919424e-02 5.035841e-03 2.014236e-02 4.446157e-02 1.487042e-02 2.355128e-02 2.185317e-02 1.892214e-02 4.639998e-02 1.894915e-02 2.751377e-02 3.551339e-04 1.316206e-04 1.440262e-04 6.864787e-04 1.127386e-03 4.098346e-04 1.900840e-04 1.083900e-04 1.466401e-04 2.408374e-04 4.769864e-04 7.637630e-04 2.145983e-05 6.833487e-06 8.959640e-06 4.851022e-05 7.949329e-05 2.635580e-05 1.059726e-05 5.313626e-06 8.634443e-06 1.414230e-05 3.160962e-05 5.052873e-05
<GCONST> -1.908073e+02
<TRANSP> 3
 0.000000e+00 1.000000e+00 0.000000e+00
 0.000000e+00 8.554519e-01 1.445481e-01
 0.000000e+00 0.000000e+00 0.000000e+00
<ENDHMM>
~h "Tab0107"
<BEGINHMM>
<NUMSTATES> 3
<STATE> 2
<MEAN> 39
 -4.687434e+02 -3.911211e-02 1.267744e-02 5.142452e-01 9.064363e-02 1.154961e-01 5.181660e-01 8.231755e-01 4.430739e-01 9.574787e-02 1.003927e-01 1.402909e-01 1.357030e-01 5.165455e-01 9.467851e-01 -1.088716e-06 -2.699683e-05 -4.132704e-05 4.901541e-05 1.238300e-04 5.378498e-05 -3.798574e-06 -4.212113e-05 -3.723285e-05 -1.545443e-05 -1.204948e-05 -1.410491e-05 1.021181e-05 1.129379e-05 1.588595e-05 -9.169593e-06 -4.512282e-05 -1.426003e-05 2.382809e-05 1.440826e-05 1.438281e-05 1.613999e-05 2.598202e-05 2.357834e-05
<VARIANCE> 39
 5.673159e+02 2.684816e+01 1.745210e+00 5.050483e-03 7.507265e-04 2.877038e-03 1.165315e-02 2.330738e-02 9.893860e-03 3.563667e-03 1.088234e-03 2.196778e-03 4.751208e-03 7.478483e-03 1.270117e-02 1.812558e-04 1.636910e-05 8.879974e-05 6.018166e-04 9.610390e-04 3.146134e-04 1.154933e-04 3.357098e-05 6.252198e-05 8.366758e-05 2.522134e-04 5.814279e-04 1.109607e-05 1.066451e-06 5.359632e-06 4.156075e-05 6.232090e-05 1.919643e-05 7.217902e-06 2.184979e-06 3.092425e-06 3.822867e-06 1.596329e-05 3.702238e-05
<GCONST> -2.272639e+02
<TRANSP> 3
 0.000000e+00 1.000000e+00 0.000000e+00
 0.000000e+00 9.661721e-01 3.382791e-02
 0.000000e+00 0.000000e+00 0.000000e+00
<ENDHMM>
~h "Tab0109"
<BEGINHMM>
<NUMSTATES> 3
<STATE> 2
<MEAN> 39
 -4.754991e+02 -9.374184e-02 8.635933e-03 5.073888e-01 1.276324e-01 1.249498e-01 4.994083e-01 7.908327e-01 4.277639e-01 1.323894e-01 1.395448e-01 1.541740e-01 1.399235e-01 4.799942e-01 8.677337e-01 4.244276e-05 1.758619e-04 -2.273432e-04 3.139513e-04 3.742724e-04 3.999347e-05 -7.903224e-05 2.294854e-05 8.937414e-05 8.674283e-05 -1.075303e-04 -4.030715e-04 1.079153e-04 1.620653e-04 7.083293e-05 -1.079693e-05 -8.819326e-05 1.994286e-05 7.124204e-05 7.835247e-05 1.137879e-04 1.334583e-04 -4.686344e-06 -2.951453e-05
<VARIANCE> 39
 1.187166e+03 2.644978e+01 1.809076e+00 3.444151e-02 1.584186e-02 8.235847e-03 2.175231e-02 4.890807e-02 1.226426e-02 1.984703e-02 1.769827e-02 8.668154e-03 1.131020e-02 2.480699e-02 6.348577e-02 3.647851e-04 1.885912e-04 1.906829e-04 7.288597e-04 1.084322e-03 3.468695e-04 1.773113e-04 1.417864e-04 1.243853e-04 2.066687e-04 3.214879e-04 5.461191e-04 2.003878e-05 9.721122e-06 1.149907e-05 4.982468e-05 7.358882e-05 2.158127e-05 1.041096e-05 6.612721e-06 7.278652e-06 1.096657e-05 1.861606e-05 3.564750e-05
<GCONST> -1.938615e+02
<TRANSP> 3
 0.000000e+00 1.000000e+00 0.000000e+00
 0.000000e+00 9.755914e-01 2.440861e-02
 0.000000e+00 0.000000e+00 0.000000e+00
<ENDHMM>
~h "Tab0110"
<BEGINHMM>
<NUMSTATES> 3
<STATE> 2
<MEAN> 39
 -4.674685e+02 4.957849e-02 -5.203026e-02 3.670677e-01 1.800536e-01 1.471557e-01 2.210313e-01 2.895356e-01 4.425241e-01 6.923637e-01 6.155634e-01 5.090648e-01 4.876510e-01 4.695630e-01 5.396882e-01 -1.138048e-03 -4.314269e-04 2.462671e-04 -1.209433e-03 -2.222977e-03 -6.418175e-04 1.071986e-03 2.135308e-04 -2.039918e-04 -1.020822e-04 3.723177e-05 -2.702823e-04 -2.129695e-04 -5.968792e-05 8.455289e-05 1.725152e-04 2.598570e-04 1.822690e-05 -1.994046e-04 -2.152673e-04 -1.302193e-04 5.039188e-05 -3.624274e-05 -1.793101e-04
<VARIANCE> 39
 4.877127e+03 9.403545e+01 4.965956e+00 5.185656e-02 1.587762e-02 1.564900e-02 2.550954e-02 6.564668e-02 4.786981e-02 1.230209e-01 5.572569e-02 6.847693e-02 6.072643e-02 4.536074e-02 1.091629e-01 6.281906e-04 2.205569e-04 2.082024e-04 3.981252e-04 9.251015e-04 5.281509e-04 1.060788e-03 8.754752e-04 1.298195e-03 1.186368e-03 7.896842e-04 1.097969e-03 3.501469e-05 1.173316e-05 1.243362e-05 2.235965e-05 4.842427e-05 3.029436e-05 5.231929e-05 5.248550e-05 7.925568e-05 6.377773e-05 4.949195e-05 6.654201e-05
<GCONST> -1.603130e+02
<TRANSP> 3
 0.000000e+00 1.000000e+00 0.000000e+00
 0.000000e+00 9.756013e-01 2.439868e-02
 0.000000e+00 0.000000e+00 0.000000e+00
<ENDHMM>
~h "Tab0111"
<BEGINHMM>
<NUMSTATES> 3
<STATE> 2
<MEAN> 39
 -3.494167e+02 -6.178496e-01 2.319718e-01 7.215184e-02 1.686056e-01 2.508534e-01 2.004964e-01 1.968671e-01 2.691804e-01 3.633672e-01 3.484436e-01 4.922453e-01 6.044935e-01 3.086829e-01 8.137627e-02 5.868406e-04 4.795297e-04 -3.716466e-05 4.118001e-04 1.383108e-03 1.529804e-03 -7.078826e-04 -2.167753e-03 -1.356928e-03 1.831194e-03 1.960573e-03 7.346018e-04 2.327463e-04 1.814398e-04 7.187916e-05 2.945944e-04 4.292235e-04 3.263120e-04 2.939957e-04 5.806201e-04 5.122295e-04 2.818259e-04 2.424844e-04 2.297578e-04
<VARIANCE> 39
 1.180080e+04 1.265422e+02 9.518539e+00 1.965943e-02 4.166986e-02 1.071596e-01 3.468378e-02 2.426174e-02 4.892866e-02 1.704175e-01 6.480886e-02 1.043535e-01 1.347166e-01 5.526152e-02 1.604297e-02 1.237597e-04 1.257687e-04 3.499633e-04 1.649821e-04 3.454523e-04 3.268966e-04 2.512789e-04 3.578097e-04 3.381440e-04 5.754238e-04 3.214445e-04 1.293797e-04 8.770571e-06 8.790219e-06 2.540520e-05 1.219044e-05 2.375098e-05 2.094142e-05 1.766035e-05 2.583660e-05 2.218940e-05 3.212914e-05 1.872984e-05 8.303270e-06
<GCONST> -1.781613e+02
<TRANSP> 3
 0.000000e+00 1.000000e+00 0.000000e+00
 0.000000e+00 9.133472e-01 8.665287e-02
 0.000000e+00 0.000000e+00 0.000000e+00
<ENDHMM>
~h "Tab0112"
<BEGINHMM>
<NUMSTATES> 3
<STATE> 2
<MEAN> 39
 -3.895810e+02 1.734915e+00 -2.570620e-01 4.269115e-01 3.502073e-01 2.896611e-01 2.808052e-01 3.353474e-01 3.185350e-01 3.202342e-01 3.886384e-01 4.230782e-01 4.315437e-01 3.250121e-01 3.595134e-01 -6.312132e-04 -1.820445e-03 -1.472125e-03 1.693537e-03 4.769811e-03 3.084016e-03 8.665877e-04 1.211467e-03 -1.137327e-04 -3.068439e-03 -1.970961e-03 2.379877e-04 -3.594682e-04 -4.418219e-04 -4.808837e-04 -7.383416e-05 4.305441e-04 2.248141e-04 -5.081191e-04 -9.003931e-04 -5.464036e-04 -2.099836e-04 -3.328189e-04 -4.557783e-04
<VARIANCE> 39
 2.300719e+04 3.722077e+02 2.281788e+01 1.455680e-01 5.692956e-02 1.045506e-01 4.542163e-02 9.539589e-02 7.838501e-02 5.862997e-02 1.229173e-01 6.574534e-02 1.279744e-01 6.179291e-02 7.054602e-02 3.048182e-03 1.231873e-03 2.296458e-03 1.100266e-03 2.828762e-03 1.865053e-03 1.491513e-03 3.849039e-03 2.154465e-03 3.159798e-03 1.398259e-03 1.663605e-03 1.382755e-04 6.081262e-05 1.079947e-04 5.082012e-05 1.215614e-04 8.185104e-05 7.311228e-05 1.852161e-04 1.099604e-04 1.485386e-04 6.740646e-05 8.191088e-05
<GCONST> -1.249897e+02
<TRANSP> 3
 0.000000e+00 1.000000e+00 0.000000e+00
 0.000000e+00 9.532293e-01 4.677069e-02
 0.000000e+00 0.000000e+00 0.000000e+00
<ENDHMM>
~h "Tab0113"
<BEGINHMM>
<NUMSTATES> 3
<STATE> 2
<MEAN> 39
 -3.748993e+02 5.810557e-01 -1.158513e-01 1.885616e-01 2.770611e-01 3.502642e-01 3.204190e-01 3.574845e-01 3.620802e-01 4.057322e-01 3.846977e-01 4.481459e-01 5.610996e-01 3.597531e-01 1.886611e-01 4.718098e-04 -3.591669e-04 -6.685810e-04 3.230645e-04 5.918002e-04 -1.016325e-03 -2.489212e-04 2.912113e-03 3.395221e-03 9.159636e-04 -7.998422e-04 -4.358899e-04 3.617875e-05 1.430667e-05 4.712092e-05 -6.659179e-05 -1.303377e-04 -2.762932e-04 -6.070005e-04 -6.124741e-04 -3.911877e-04 -3.283552e-04 -2.758469e-04 -5.693078e-06
<VARIANCE> 39
 2.163913e+04 2.090541e+02 1.344322e+01 6.535430e-02 5.542553e-02 1.146399e-01 5.885216e-02 9.302314e-02 7.395886e-02 1.240868e-01 1.025023e-01 6.216146e-02 1.548047e-01 6.083673e-02 4.490408e-02 1.012793e-03 8.674336e-04 1.583497e-03 9.375706e-04 1.750879e-03 1.490458e-03 1.690096e-03 2.190865e-03 1.648159e-03 3.895131e-03 1.577796e-03 7.920961e-04 5.355978e-05 4.264250e-05 6.993733e-05 4.668540e-05 8.701831e-05 7.606724e-05 8.989772e-05 1.146077e-04 9.544181e-05 1.877320e-04 7.533276e-05 4.209079e-05
<GCONST> -1.332540e+02
<TRANSP> 3
 0.000000e+00 1.000000e+00 0.000000e+00
 0.000000e+00 8.313727e-01 1.686274e-01
 0.000000e+00 0.000000e+00 0.000000e+00
<ENDHMM>
~h "Tab0114"
<BEGINHMM>
<NUMSTATES> 3
