~o
<STREAMINFO> 1 39
<VECSIZE> 39<NULLD><MFCC_E_D_A><DIAGC>
~s "Silst"
<MEAN> 39
 -4.778670e+02 -1.056005e-01 7.737341e-03 1.615532e-01 2.163144e-01 2.102419e-01 1.614925e-01 1.971181e-01 2.078947e-01 2.098185e-01 1.938125e-01 2.610491e-01 3.207745e-01 2.277896e-01 1.648194e-01 6.372834e-05 -3.356763e-05 -8.759311e-05 2.797945e-05 1.497430e-04 9.753402e-05 -5.722842e-05 -1.284761e-04 -3.383925e-05 -1.818355e-05 3.559411e-05 9.270053e-05 3.648955e-05 4.093271e-05 5.843957e-05 4.510325e-05 2.305768e-05 2.461184e-05 4.094550e-05 5.702207e-05 3.955495e-05 2.668801e-05 3.695601e-05 4.836721e-05
<VARIANCE> 39
 2.031160e+04 1.197177e+02 6.503554e+00 4.458434e-02 7.989743e-02 9.306788e-02 4.926287e-02 8.114526e-02 7.802510e-02 9.527845e-02 6.985761e-02 9.652698e-02 1.398414e-01 7.109373e-02 7.060779e-02 2.198269e-04 2.837024e-04 3.476118e-04 2.793751e-04 4.917354e-04 4.382747e-04 5.702176e-04 5.013358e-04 4.631095e-04 4.793095e-04 2.880634e-04 4.058451e-04 1.044310e-05 1.288601e-05 1.608215e-05 1.298242e-05 2.222684e-05 2.294482e-05 2.805909e-05 2.676294e-05 2.177656e-05 2.245594e-05 1.393049e-05 1.844762e-05
<GCONST> -1.678266e+02
~h "Sil"
<BEGINHMM>
<NUMSTATES> 5
<STATE> 2
<MEAN> 39
 -5.116562e+02 -3.705341e-02 3.679260e-03 3.375659e-01 2.765277e-01 2.435651e-01 2.042487e-01 2.567084e-01 3.123933e-01 2.709194e-01 3.164356e-01 3.088795e-01 3.559399e-01 3.166846e-01 3.031595e-01 -3.426627e-04 -2.973171e-04 -4.132133e-04 -2.805539e-04 -2.986412e-04 -3.039565e-04 -2.805089e-04 -4.484543e-04 -3.647821e-04 -2.709003e-04 -2.794257e-04 -2.967072e-04 1.958577e-05 1.457816e-05 -1.496410e-05 1.293223e-05 2.361403e-05 2.344462e-05 1.344621e-05 1.337549e-05 1.065499e-05 1.572442e-05 3.053307e-05 3.562361e-05
<VARIANCE> 39
 2.770156e+04 1.215700e+02 6.396052e+00 1.367191e-01 5.314788e-02 8.704564e-02 4.263834e-02 8.381760e-02 1.051074e-01 6.050379e-02 1.521203e-01 6.292796e-02 1.405586e-01 1.062977e-01 7.489514e-02 8.968463e-04 5.513113e-04 9.176835e-04 4.489783e-04 7.435007e-04 8.103446e-04 4.733504e-04 1.077074e-03 5.892739e-04 7.444000e-04 6.231080e-04 7.718052e-04 4.185816e-05 2.875449e-05 4.645847e-05 2.407176e-05 3.657881e-05 3.767584e-05 2.452577e-05 4.952353e-05 2.951490e-05 3.399369e-05 2.945578e-05 3.793318e-05
<GCONST> -1.515728e+02
<STATE> 3
~s "Silst"
<STATE> 4
<MEAN> 39
 -7.000748e+02 -3.917532e-03 6.792106e-04 6.380137e-04 8.894354e-04 1.269948e-03 1.549040e-03 1.806446e-03 1.321130e-03 8.512326e-04 8.370746e-04 8.606855e-04 8.683410e-04 9.865277e-04 1.099249e-03 7.028285e-06 1.419176e-05 1.888781e-05 1.400891e-05 2.670761e-06 7.142176e-06 8.464568e-06 4.174188e-06 5.140012e-06 2.782219e-06 6.991370e-06 8.562772e-06 3.538632e-06 3.970574e-06 5.442550e-06 4.182090e-06 3.112726e-06 2.370978e-06 3.115925e-06 4.968804e-06 3.887299e-06 3.520618e-06 4.651062e-06 4.212960e-06
<VARIANCE> 39
 4.723910e+03 1.648368e+00 9.713050e-02 9.574931e-04 7.507265e-04 1.011769e-03 8.625454e-04 1.565452e-03 8.484249e-04 8.535165e-04 1.088234e-03 8.611440e-04 1.215130e-03 7.854612e-04 1.012177e-03 7.738464e-06 5.756516e-06 8.173934e-06 6.020874e-06 9.842092e-06 7.769793e-06 7.680384e-06 9.380564e-06 7.292997e-06 9.102586e-06 6.066088e-06 8.300907e-06 4.039318e-07 3.075810e-07 4.262554e-07 3.326209e-07 5.388900e-07 4.357443e-07 4.302722e-07 5.102124e-07 4.137804e-07 4.840364e-07 3.307438e-07 4.497233e-07
<GCONST> -3.226963e+02
<TRANSP> 5
 0.000000e+00 1.000000e+00 0.000000e+00 0.000000e+00 0.000000e+00
 0.000000e+00 7.910948e-01 8.905247e-03 2.000000e-01 0.000000e+00
 0.000000e+00 0.000000e+00 9.901310e-01 9.868967e-03 0.000000e+00
 0.000000e+00 2.000000e-01 0.000000e+00 7.981924e-01 1.807651e-03
 0.000000e+00 0.000000e+00 0.000000e+00 0.000000e+00 0.000000e+00
<ENDHMM>
~h "Tab0000"
<BEGINHMM>
<NUMSTATES> 5
<STATE> 2
<MEAN> 39
 -4.180930e+02 5.640300e+00 5.332006e-01 1.756271e-01 1.682789e-01 2.005103e-01 3.579657e-01 5.125235e-01 4.120295e-01 2.735020e-01 2.595995e-01 4.141529e-01 5.224756e-01 3.383654e-01 1.857865e-01 -3.220215e-03 -9.533290e-04 4.190132e-03 1.317885e-02 1.769021e-02 1.724655e-02 1.764026e-02 1.221416e-02 -3.757443e-03 -1.385076e-02 -4.409143e-03 3.001929e-04 -8.892230e-04 -8.090833e-04 -8.652594e-04 -9.679013e-04 -7.266923e-04 1.172747e-03 1.582551e-03 2.365551e-04 -1.488387e-03 -2.187703e-03 -1.595109e-03 -7.947052e-04
<VARIANCE> 39
 1.976909e+04 1.704042e+02 9.831107e+00 6.007064e-02 4.035750e-02 5.669037e-02 8.181216e-02 1.609610e-01 9.309343e-02 6.189649e-02 6.380709e-02 8.849568e-02 1.701363e-01 6.357668e-02 4.534283e-02 8.967885e-04 5.787598e-04 1.270886e-03 2.379543e-03 5.581097e-03 3.474058e-03 1.962586e-03 1.907009e-03 2.756639e-03 6.172813e-03 2.049549e-03 1.006193e-03 4.026305e-05 3.074749e-05 6.234788e-05 1.243003e-04 2.627727e-04 1.585473e-04 8.730301e-05 9.718638e-05 1.352183e-04 2.980137e-04 1.067033e-04 4.951803e-05
<GCONST> -1.276322e+02
<STATE> 3
<MEAN> 39
 -3.682234e+02 -2.508221e-01 -1.486530e+00 1.735048e-01 1.262293e-01 1.389267e-01 3.671787e-01 5.677997e-01 4.806968e-01 3.839005e-01 3.442762e-01 3.387456e-01 3.386923e-01 2.540631e-01 2.038790e-01 -2.833330e-03 -2.078304e-03 -4.663454e-03 -1.004701e-02 -8.430432e-03 1.646355e-03 -3.620985e-04 -7.899124e-03 -1.201045e-02 -9.825121e-03 -6.944654e-03 -5.324195e-03 5.646569e-04 1.580697e-04 -6.730657e-04 -1.510256e-03 -1.908685e-03 -3.020187e-03 -3.690419e-03 -2.338406e-03 3.909956e-04 2.086001e-03 8.080943e-04 1.721614e-05
<VARIANCE> 39
 1.887510e+04 2.053076e+02 1.328688e+01 6.263096e-02 2.831222e-02 2.484937e-02 6.819893e-02 1.512195e-01 1.046262e-01 7.244317e-02 8.938613e-02 7.292069e-02 1.220068e-01 6.347212e-02 6.990060e-02 1.725300e-03 5.971476e-04 5.087754e-04 2.414066e-03 5.484696e-03 2.463491e-03 1.834507e-03 2.118173e-03 2.552080e-03 4.352695e-03 1.713443e-03 1.804121e-03 6.631429e-05 2.612972e-05 3.036004e-05 1.077637e-04 2.270029e-04 1.086414e-04 8.433672e-05 1.035456e-04 1.101900e-04 1.604930e-04 7.134976e-05 7.606811e-05
<GCONST> -1.304357e+02
<STATE> 4
<MEAN> 39
 -5.216075e+02 -2.047235e+00 3.505331e-01 8.846305e-02 7.669455e-02 6.199279e-02 1.872494e-01 4.344178e-01 5.410565e-01 3.469856e-01 1.507287e-01 1.611716e-01 1.998076e-01 1.320676e-01 8.210883e-02 1.388096e-04 1.073083e-04 -1.972256e-04 -8.476240e-04 -6.235656e-04 -1.058212e-03 -2.498059e-03 -1.412531e-03 -1.103958e-03 -1.895710e-03 -8.726956e-04 2.044440e-04 9.283866e-04 6.998168e-04 7.789336e-04 7.840308e-04 4.438180e-04 -4.480889e-05 4.274280e-04 9.161732e-04 1.066160e-03 1.002716e-03 9.346786e-04 1.029485e-03
<VARIANCE> 39
 2.158985e+04 7.015336e+01 4.757955e+00 1.853168e-02 1.561749e-02 1.516298e-02 5.096149e-02 1.434968e-01 1.548115e-01 1.114862e-01 4.545318e-02 4.743900e-02 7.415709e-02 3.237185e-02 2.156608e-02 2.363578e-04 1.515446e-04 1.552566e-04 2.176974e-04 3.334087e-04 2.399792e-04 2.611729e-04 2.987608e-04 2.442064e-04 3.865371e-04 2.258832e-04 3.136736e-04 2.197920e-05 1.164537e-05 1.301011e-05 2.002751e-05 3.690941e-05 1.851018e-05 1.676908e-05 1.788845e-05 1.941540e-05 3.136196e-05 1.652928e-05 2.441527e-05
<GCONST> -1.795836e+02
<TRANSP> 5
 0.000000e+00 1.000000e+00 0.000000e+00 0.000000e+00 0.000000e+00
 0.000000e+00 7.103447e-01 2.896553e-01 0.000000e+00 0.000000e+00
 0.000000e+00 0.000000e+00 7.725278e-01 2.274722e-01 0.000000e+00
 0.000000e+00 0.000000e+00 0.000000e+00 8.128337e-01 1.871663e-01
 0.000000e+00 0.000000e+00 0.000000e+00 0.000000e+00 0.000000e+00
<ENDHMM>
~h "Tab0001"
<BEGINHMM>
<NUMSTATES> 5
<STATE> 2
<MEAN> 39
 -3.225093e+02 1.007986e+00 6.135495e-01 1.390245e-01 1.616303e-01 2.915848e-01 4.108589e-01 3.922206e-01 3.038238e-01 2.726388e-01 3.423712e-01 4.239468e-01 3.678033e-01 2.654063e-01 1.794965e-01 2.407045e-04 9.058085e-04 1.997622e-03 1.684248e-03 6.799912e-04 6.544207e-03 1.251566e-02 1.054847e-02 3.181532e-03 -4.749703e-04 3.768501e-04 -1.885509e-05 -1.157972e-04 -1.415759e-04 -5.108751e-04 -1.058195e-03 -1.302701e-03 9.869316e-04 3.045109e-03 2.079818e-03 1.178733e-04 -1.949903e-04 -6.260273e-04 -4.316398e-04
<VARIANCE> 39
 1.142799e+04 1.112832e+02 7.338064e+00 2.823307e-02 4.004017e-02 8.399368e-02 1.369078e-01 1.156565e-01 6.506115e-02 7.393242e-02 8.953691e-02 1.285682e-01 1.151802e-01 8.145811e-02 4.347809e-02 3.177659e-04 4.632846e-04 4.200240e-04 5.472770e-04 1.333372e-03 1.139828e-03 2.173501e-03 2.626890e-03 1.876630e-03 9.336966e-04 6.178070e-04 4.999546e-04 2.111572e-05 2.500199e-05 2.236862e-05 2.989098e-05 6.825192e-05 5.782398e-05 1.366510e-04 1.463964e-04 1.164891e-04 6.638934e-05 4.078532e-05 2.556508e-05
<GCONST> -1.469445e+02
<STATE> 3
<MEAN> 39
 -3.211559e+02 1.147053e+00 -1.008455e+00 1.247219e-01 1.596217e-01 2.280580e-01 2.799389e-01 2.710437e-01 3.673040e-01 4.900461e-01 4.629876e-01 4.111193e-01 3.338203e-01 2.277927e-01 1.463867e-01 -3.841417e-04 -5.653871e-04 -2.962739e-03 -7.082812e-03 -1.044478e-02 -2.295795e-03 8.446678e-03 9.483171e-04 -3.982171e-03 -1.767826e-03 -1.995611e-03 -1.274242e-03 1.890569e-04 -1.745252e-04 -2.563032e-04 -1.947000e-05 2.948967e-04 -2.250285e-03 -4.055872e-03 -2.842719e-03 -8.687029e-04 5.958687e-04 7.089843e-04 3.930489e-04
<VARIANCE> 39
 1.120771e+04 1.257409e+02 9.734876e+00 3.261364e-02 4.602318e-02 7.433021e-02 1.036942e-01 6.798667e-02 7.872988e-02 1.409175e-01 9.192780e-02 1.104253e-01 9.704513e-02 6.818657e-02 4.145335e-02 2.892714e-04 4.643722e-04 2.851160e-04 8.503671e-04 2.281570e-03 1.826393e-03 3.479136e-03 2.699474e-03 2.040832e-03 2.853079e-03 1.373271e-03 4.033977e-04 1.961652e-05 2.191267e-05 1.594495e-05 3.209660e-05 7.331100e-05 7.475710e-05 1.426580e-04 1.264106e-04 9.648926e-05 9.782429e-05 4.122359e-05 2.078796e-05
<GCONST> -1.438861e+02
<STATE> 4
<MEAN> 39
 -3.201009e+02 -1.959112e+00 3.944264e-01 8.707361e-02 1.221201e-01 2.704196e-01 3.456404e-01 2.218951e-01 2.471125e-01 4.365273e-01 5.424520e-01 4.526253e-01 2.861143e-01 1.973601e-01 1.211642e-01 1.257234e-03 1.193281e-03 2.601407e-04 -8.817841e-04 -1.055149e-03 -2.141173e-03 -3.785309e-03 -2.006336e-03 1.180990e-03 2.065436e-03 3.670338e-04 6.698538e-05 2.678144e-04 2.945036e-04 4.735212e-04 7.673210e-04 1.321449e-03 1.039110e-03 -2.875959e-05 1.550352e-04 6.970043e-04 5.150513e-04 4.868658e-04 3.632176e-04
<VARIANCE> 39
 1.487795e+04 7.482865e+01 5.984918e+00 1.911243e-02 2.781882e-02 8.615471e-02 1.406863e-01 4.406393e-02 5.118389e-02 1.185992e-01 9.496251e-02 1.135546e-01 7.242554e-02 4.443871e-02 2.151202e-02 1.382530e-04 2.642255e-04 2.065240e-04 3.218394e-04 4.922588e-04 5.154683e-04 5.236979e-04 8.717398e-04 1.046907e-03 3.892801e-04 2.166854e-04 1.285291e-04 1.096641e-05 1.500560e-05 1.744524e-05 2.655839e-05 3.563123e-05 3.860606e-05 4.107778e-05 6.630519e-05 7.131330e-05 2.590114e-05 1.245417e-05 1.099093e-05
<GCONST> -1.694126e+02
<TRANSP> 5
 0.000000e+00 1.000000e+00 0.000000e+00 0.000000e+00 0.000000e+00
 0.000000e+00 5.314026e-01 4.685974e-01 0.000000e+00 0.000000e+00
 0.000000e+00 0.000000e+00 5.085849e-01 4.914151e-01 0.000000e+00
 0.000000e+00 0.000000e+00 0.000000e+00 7.802225e-01 2.197775e-01
 0.000000e+00 0.000000e+00 0.000000e+00 0.000000e+00 0.000000e+00
<ENDHMM>
~h "Tab0002"
<BEGINHMM>
<NUMSTATES> 5
<STATE> 2
<MEAN> 39
 -4.689942e+02 3.942251e-01 -1.771905e-01 1.778388e-01 1.383489e-01 1.265570e-01 1.475395e-01 2.136821e-01 2.293194e-01 3.278271e-01 4.717854e-01 4.086894e-01 3.413432e-01 2.744455e-01 2.083406e-01 7.227984e-03 6.266183e-03 3.362898e-03 1.956497e-04 -2.828349e-03 3.049662e-04 -2.557845e-04 -5.276646e-03 4.679940e-03 1.443755e-02 1.243470e-02 8.819800e-03 2.160400e-03 1.921711e-03 1.351241e-03 1.025868e-03 6.333140e-04 1.339324e-04 -9.422401e-04 -1.200011e-03 -4.602960e-04 -2.134550e-04 -8.815428e-04 2.854916e-04
<VARIANCE> 39
 1.830145e+04 1.919401e+02 1.287610e+01 8.062012e-02 3.519872e-02 4.327609e-02 4.019646e-02 9.002097e-02 9.144200e-02 7.000212e-02 1.962255e-01 7.928826e-02 1.350547e-01 9.084102e-02 7.208126e-02 1.374819e-03 7.103577e-04 7.959512e-04 6.739073e-04 1.299678e-03 1.036420e-03 1.582747e-03 4.751052e-03 1.035044e-03 4.306856e-03 2.760913e-03 1.245420e-03 1.037159e-04 4.372355e-05 3.778166e-05 4.360398e-05 8.058451e-05 6.801308e-05 6.987360e-05 2.144980e-04 5.140481e-05 2.031598e-04 1.669982e-04 7.197250e-05
<GCONST> -1.331493e+02
<STATE> 3
<MEAN> 39
 -4.129456e+02 5.799678e-01 1.508428e-01 4.076369e-01 3.690355e-01 3.143668e-01 2.710282e-01 2.828322e-01 3.047448e-01 3.821051e-01 4.936574e-01 3.893882e-01 3.020579e-01 2.765800e-01 3.480992e-01 -6.460994e-03 -4.457872e-03 6.099851e-04 -3.790589e-04 -5.529933e-03 -6.033797e-03 -1.059694e-03 6.722871e-04 1.265976e-04 -1.710495e-03 -2.669655e-04 -1.545847e-03 -9.335821e-04 -1.742604e-03 -1.408353e-03 -7.916130e-04 -2.129502e-04 -6.528211e-04 -5.485832e-04 -2.671558e-04 -7.976235e-04 -7.631429e-04 -4.897336e-04 -5.202888e-04
<VARIANCE> 39
 2.163168e+04 2.652875e+02 1.235808e+01 1.442325e-01 8.394443e-02 1.079810e-01 7.743527e-02 9.736905e-02 9.989382e-02 7.094345e-02 1.570677e-01 6.413610e-02 7.855532e-02 5.706906e-02 8.542823e-02 3.483529e-03 1.863641e-03 2.693991e-03 1.399889e-03 1.455885e-03 1.175100e-03 1.493704e-03 3.634974e-03 1.327415e-03 2.315877e-03 1.972125e-03 2.608450e-03 1.441675e-04 8.809248e-05 1.295953e-04 6.043070e-05 5.626172e-05 5.307141e-05 5.667172e-05 1.283964e-04 6.924366e-05 1.114121e-04 1.106757e-04 1.141636e-04
<GCONST> -1.259750e+02
<STATE> 4
<MEAN> 39
 -4.464969e+02 -5.824552e-01 -1.734568e-01 2.097237e-01 1.390407e-01 1.217745e-01 1.308223e-01 2.335853e-01 2.899132e-01 2.746707e-01 2.875844e-01 2.953858e-01 3.734831e-01 3.309079e-01 2.639842e-01 2.256835e-03 2.423226e-03 1.845911e-03 1.277357e-03 9.753094e-04 1.354718e-03 2.927608e-03 3.398248e-03 9.104052e-04 -3.549998e-03 -1.408693e-03 2.010175e-03 1.202231e-03 1.549824e-03 1.442478e-03 8.979251e-04 4.713613e-04 9.316750e-04 6.237871e-04 7.324882e-04 5.354724e-04 -1.074481e-04 3.632972e-04 8.194310e-04
<VARIANCE> 39
 1.933751e+04 1.064232e+02 6.447927e+00 9.048727e-02 3.258124e-02 4.879776e-02 3.307181e-02 8.674678e-02 1.306775e-01 6.213870e-02 1.428292e-01 5.938540e-02 1.452211e-01 1.030319e-01 9.588826e-02 9.928485e-04 5.973300e-04 5.866131e-04 2.671909e-04 7.317565e-04 4.637861e-04 4.919174e-04 9.857990e-04 8.092442e-04 2.173874e-03 1.276155e-03 9.555577e-04 5.248363e-05 2.524540e-05 3.676139e-05 1.891310e-05 3.271879e-05 3.227416e-05 3.452996e-05 6.768666e-05 5.238844e-05 1.360434e-04 5.899482e-05 6.438454e-05
<GCONST> -1.492819e+02
<TRANSP> 5
 0.000000e+00 1.000000e+00 0.000000e+00 0.000000e+00 0.000000e+00
 0.000000e+00 4.705200e-01 5.294800e-01 0.000000e+00 0.000000e+00
 0.000000e+00 0.000000e+00 5.915506e-01 4.084494e-01 0.000000e+00
 0.000000e+00 0.000000e+00 0.000000e+00 3.871309e-01 6.128691e-01
 0.000000e+00 0.000000e+00 0.000000e+00 0.000000e+00 0.000000e+00
<ENDHMM>
~h "Tab0003"
<BEGINHMM>
<NUMSTATES> 5
<STATE> 2
<MEAN> 39
 -3.806513e+02 4.853295e+00 5.124384e-01 1.811642e-01 3.877655e-01 5.270277e-01 3.370429e-01 1.970029e-01 2.341117e-01 3.359885e-01 3.596225e-01 4.031383e-01 4.551414e-01 2.895305e-01 1.619992e-01 5.435693e-04 1.315077e-02 2.544349e-02 1.612166e-02 4.393867e-03 1.900352e-04 -5.340286e-03 -5.437620e-03 8.921354e-03 1.371949e-02 7.257902e-03 1.412142e-03 -9.192580e-04 -1.120755e-03 -2.947228e-04 -4.727656e-04 -4.858164e-04 -3.313972e-04 2.375845e-04 5.676089e-04 4.124762e-04 6.644703e-04 2.979809e-05 -6.353633e-04
<VARIANCE> 39
 2.051581e+04 2.254951e+02 1.419686e+01 5.507466e-02 7.253581e-02 1.674508e-01 5.755186e-02 5.784641e-02 6.245347e-02 9.906195e-02 1.063635e-01 8.643732e-02 1.253900e-01 6.093639e-02 4.081200e-02 1.273803e-03 1.336692e-03 3.750136e-03 1.179001e-03 1.075904e-03 1.019900e-03 1.619615e-03 2.849070e-03 1.748594e-03 2.148731e-03 9.363526e-04 6.598328e-04 5.927745e-05 6.894299e-05 1.652149e-04 5.816036e-05 6.370190e-05 5.388388e-05 8.814997e-05 1.606420e-04 9.225101e-05 1.100460e-04 4.737054e-05 3.744068e-05
<GCONST> -1.334899e+02
<STATE> 3
<MEAN> 39
 -3.324329e+02 1.198200e+00 -1.061888e+00 1.373467e-01 3.987724e-01 6.244193e-01 4.433987e-01 2.854306e-01 2.606697e-01 3.173741e-01 3.495529e-01 4.084361e-01 4.911873e-01 3.172568e-01 1.408608e-01 -4.711083e-03 -9.212024e-03 -1.151780e-02 -9.043086e-03 -6.361038e-03 -3.809281e-03 -1.447969e-03 2.095182e-03 -4.075902e-04 -1.425056e-03 -1.995798e-03 -3.639002e-03 1.038970e-04 -8.142126e-04 -1.989825e-03 -1.629928e-03 -8.754638e-04 -7.243535e-04 -7.712332e-04 -9.787122e-04 -1.994701e-03 -2.227385e-03 -9.603118e-04 3.578729e-05
<VARIANCE> 39
 1.871104e+04 2.057910e+02 1.347030e+01 2.600394e-02 6.431229e-02 1.566490e-01 6.298711e-02 7.320443e-02 6.065260e-02 6.545959e-02 9.767646e-02 7.608929e-02 1.070443e-01 5.895889e-02 2.377701e-02 5.913856e-04 1.026592e-03 2.443643e-03 1.013530e-03 2.008754e-03 1.762778e-03 1.686951e-03 2.042375e-03 1.457066e-03 1.491681e-03 8.320553e-04 3.716350e-04 3.806001e-05 4.906504e-05 1.319308e-04 5.471951e-05 1.003250e-04 9.124986e-05 9.445273e-05 1.144719e-04 8.479674e-05 8.304355e-05 4.583757e-05 2.573619e-05
<GCONST> -1.388278e+02
<STATE> 4
<MEAN> 39
 -4.250888e+02 -2.026397e+00 2.564359e-01 7.986291e-02 3.526525e-01 5.956154e-01 3.533422e-01 1.605537e-01 1.853731e-01 2.451525e-01 3.140255e-01 3.519529e-01 4.061248e-01 2.712406e-01 9.793505e-02 -1.929312e-04 3.920532e-05 2.671679e-04 -2.945654e-04 -3.929996e-05 -7.225674e-04 -1.165002e-03 -9.136607e-04 -1.390896e-03 -2.272305e-03 -9.610764e-04 9.526710e-05 7.074756e-04 4.562567e-04 1.018583e-04 5.311483e-04 1.005882e-03 9.251828e-04 8.423998e-04 7.877775e-04 6.884247e-04 4.045745e-04 4.279692e-04 5.782087e-04
<VARIANCE> 39
 2.446727e+04 7.803831e+01 4.979630e+00 1.379094e-02 6.452657e-02 1.690597e-01 4.498481e-02 2.901765e-02 4.987282e-02 5.664010e-02 1.460094e-01 7.085275e-02 1.148921e-01 6.885075e-02 1.851859e-02 1.550112e-04 1.961540e-04 2.551785e-04 2.052916e-04 2.797759e-04 3.163342e-04 2.118444e-04 2.149823e-04 2.206286e-04 3.293152e-04 1.787958e-04 1.075820e-04 1.198029e-05 1.436118e-05 2.158496e-05 1.331494e-05 2.187495e-05 2.248313e-05 1.520652e-05 1.908140e-05 1.719379e-05 2.265655e-05 1.192364e-05 8.067842e-06
<GCONST> -1.809671e+02
<TRANSP> 5
 0.000000e+00 1.000000e+00 0.000000e+00 0.000000e+00 0.000000e+00
 0.000000e+00 7.134900e-01 2.865100e-01 0.000000e+00 0.000000e+00
 0.000000e+00 0.000000e+00 7.400241e-01 2.599759e-01 0.000000e+00
 0.000000e+00 0.000000e+00 0.000000e+00 8.671001e-01 1.328999e-01
 0.000000e+00 0.000000e+00 0.000000e+00 0.000000e+00 0.000000e+00
<ENDHMM>
~h "Tab0004"
<BEGINHMM>
<NUMSTATES> 5
<STATE> 2
<MEAN> 39
 -3.516482e+02 1.685513e+00 1.352397e-02 3.173885e-01 3.347787e-01 3.387166e-01 3.308427e-01 3.648586e-01 3.635967e-01 4.378272e-01 4.893488e-01 5.082068e-01 5.501174e-01 4.632463e-01 3.949620e-01 1.379140e-03 -2.488564e-03 -5.333599e-03 3.038739e-03 1.014506e-02 9.049536e-03 1.892585e-03 -2.034003e-03 6.439925e-03 1.224990e-02 8.095610e-03 3.957172e-03 1.405360e-04 -2.398488e-04 -5.341758e-04 -1.302687e-04 4.149649e-04 4.277099e-06 -1.358015e-04 -7.638012e-04 -1.372345e-03 -1.306706e-03 -1.253523e-03 -6.430413e-04
<VARIANCE> 39
 1.997829e+04 3.659688e+02 1.942157e+01 8.360125e-02 7.630110e-02 9.217620e-02 4.730314e-02 8.109518e-02 6.300426e-02 9.159424e-02 1.015753e-01 7.737251e-02 1.198940e-01 8.590409e-02 8.802813e-02 2.252931e-03 2.121483e-03 2.341661e-03 1.529293e-03 2.630044e-03 1.989770e-03 3.013266e-03 3.366221e-03 2.151517e-03 3.828551e-03 2.405116e-03 2.244000e-03 1.157809e-04 1.072287e-04 1.119004e-04 8.415915e-05 1.364778e-04 1.146864e-04 1.625880e-04 1.605726e-04 1.194255e-04 1.605686e-04 1.284890e-04 1.162440e-04
<GCONST> -1.197549e+02
<STATE> 3
<MEAN> 39
 -3.990065e+02 1.894196e-01 -2.436769e-01 4.545856e-01 4.099918e-01 3.863191e-01 4.363923e-01 5.414326e-01 4.888226e-01 4.490677e-01 4.630324e-01 4.990210e-01 5.424190e-01 4.301404e-01 4.351634e-01 -7.505271e-04 -4.152606e-03 -6.461320e-03 -5.186751e-03 -3.094489e-03 -4.127286e-03 -4.426667e-03 -5.623367e-03 -6.310684e-03 -3.882168e-03 -4.143093e-03 -3.318814e-03 -6.817734e-04 -2.537385e-04 -1.589483e-04 -8.490608e-04 -1.414547e-03 -1.290444e-03 -6.405727e-04 -5.164281e-04 -5.228990e-04 -2.629648e-04 -3.361962e-04 -7.692282e-04
<VARIANCE> 39
 3.341352e+04 5.165726e+02 2.651750e+01 1.027235e-01 7.179622e-02 9.809431e-02 7.216919e-02 1.088709e-01 6.934138e-02 7.895223e-02 8.829367e-02 6.573291e-02 1.172388e-01 6.494169e-02 8.365192e-02 1.267203e-03 1.359941e-03 2.442348e-03 1.884588e-03 2.252856e-03 1.398219e-03 1.643266e-03 2.010055e-03 1.502278e-03 2.102837e-03 1.303293e-03 1.433455e-03 6.459019e-05 7.286014e-05 1.205997e-04 1.046113e-04 1.231394e-04 8.588071e-05 8.825515e-05 1.045523e-04 9.230575e-05 1.223256e-04 7.929811e-05 8.110694e-05
<GCONST> -1.262691e+02
<STATE> 4
<MEAN> 39
 -3.334195e+02 -2.758277e+00 5.753315e-02 2.757504e-01 1.907647e-01 1.332523e-01 2.201155e-01 3.210053e-01 2.569228e-01 2.545998e-01 3.397024e-01 5.286523e-01 6.541834e-01 4.233632e-01 2.959100e-01 -3.876033e-04 -1.314937e-03 -2.512736e-03 -1.015287e-03 -9.695627e-05 -1.787416e-03 -3.441908e-03 -6.356364e-03 -1.989301e-03 -1.780163e-04 -1.669808e-03 -1.256885e-03 4.529135e-04 1.241567e-03 1.882845e-03 1.293288e-03 7.046137e-04 1.282989e-03 1.429491e-03 1.452825e-03 7.820150e-04 -3.624758e-04 2.610447e-04 6.912048e-04
<VARIANCE> 39
 1.457683e+04 1.293755e+02 9.644683e+00 9.900042e-02 3.195198e-02 2.770149e-02 2.996060e-02 7.568663e-02 4.358012e-02 4.802454e-02 6.871878e-02 8.108241e-02 1.515476e-01 5.455446e-02 7.922070e-02 2.155918e-04 2.351796e-04 4.049854e-04 3.905655e-04 6.730809e-04 4.717299e-04 6.452420e-04 9.432141e-04 5.481076e-04 3.074576e-04 4.490425e-04 4.347779e-04 2.443245e-05 2.085540e-05 2.963601e-05 3.182130e-05 5.746749e-05 4.026496e-05 4.688740e-05 6.063983e-05 4.437525e-05 4.900380e-05 3.834226e-05 3.636125e-05
<GCONST> -1.605845e+02
<TRANSP> 5
 0.000000e+00 1.000000e+00 0.000000e+00 0.000000e+00 0.000000e+00
 0.000000e+00 8.142188e-01 1.857812e-01 0.000000e+00 0.000000e+00
 0.000000e+00 0.000000e+00 7.994757e-01 2.005243e-01 0.000000e+00
 0.000000e+00 0.000000e+00 0.000000e+00 7.383647e-01 2.616353e-01
 0.000000e+00 0.000000e+00 0.000000e+00 0.000000e+00 0.000000e+00
<ENDHMM>
~h "Tab0008"
<BEGINHMM>
<NUMSTATES> 5
<STATE> 2
<MEAN> 39
 -3.053851e+02 6.175400e-01 4.942943e-02 2.230319e-01 1.969871e-01 2.129053e-01 4.121744e-01 5.867712e-01 4.498381e-01 3.034470e-01 3.213334e-01 4.495505e-01 5.173381e-01 3.485002e-01 2.629297e-01 2.869723e-03 3.130609e-03 3.522791e-03 7.186183e-03 9.516810e-03 6.570052e-03 3.775880e-03 4.112846e-04 -3.675875e-03 -6.508201e-03 -1.798305e-03 1.852810e-03 5.921183e-04 2.257547e-04 -1.777979e-04 -1.442869e-03 -6.321924e-04 -4.174258e-04 -4.022348e-04 -8.959136e-05 -4.353176e-04 -9.802462e-04 1.233605e-05 9.645997e-04
<VARIANCE> 39
 1.011555e+04 1.567591e+02 1.012326e+01 4.680485e-02 4.216744e-02 4.094223e-02 8.371806e-02 1.672837e-01 8.317904e-02 5.932947e-02 6.391313e-02 9.872056e-02 1.408765e-01 6.222220e-02 5.398371e-02 1.119498e-03 8.174367e-04 8.728403e-04 1.600524e-03 2.869664e-03 1.682271e-03 1.079179e-03 9.047605e-04 1.592830e-03 2.046915e-03 1.052303e-03 1.396015e-03 5.415895e-05 4.645084e-05 5.276418e-05 9.532516e-05 1.482178e-04 8.391730e-05 6.214539e-05 4.958441e-05 8.481525e-05 8.917575e-05 5.044924e-05 6.643877e-05
<GCONST> -1.379096e+02
<STATE> 3
<MEAN> 39
 -3.024151e+02 -1.415810e-01 -3.350908e-01 2.629926e-01 2.763363e-01 3.642062e-01 4.841323e-01 6.213322e-01 5.668216e-01 4.679998e-01 3.822272e-01 3.267985e-01 3.213477e-01 3.152909e-01 3.345227e-01 2.032710e-05 -6.468791e-04 -1.742926e-03 -4.642938e-03 -5.234371e-03 -2.415474e-03 5.067972e-04 2.768069e-04 -2.130738e-03 -3.281127e-03 -9.514392e-04 6.011908e-04 -5.636598e-04 -3.810570e-04 -5.688833e-04 -7.288735e-04 -5.766372e-04 -1.094078e-03 -1.024528e-03 -5.215084e-04 -8.997755e-05 1.835121e-04 -3.128700e-04 -6.728875e-04
<VARIANCE> 39
 1.120259e+04 1.647912e+02 1.166529e+01 5.039147e-02 6.394353e-02 8.825853e-02 8.449599e-02 1.303341e-01 7.194100e-02 9.474108e-02 7.040053e-02 6.837344e-02 1.017143e-01 6.286351e-02 1.126875e-01 1.079698e-03 1.228626e-03 1.649931e-03 1.951590e-03 3.877727e-03 1.846767e-03 2.247668e-03 1.686268e-03 1.493117e-03 1.620284e-03 1.077898e-03 1.977049e-03 5.738410e-05 5.871805e-05 8.217324e-05 1.040191e-04 2.176312e-04 1.136901e-04 1.329631e-04 9.282197e-05 8.922868e-05 8.915031e-05 6.030317e-05 1.017642e-04
<GCONST> -1.295414e+02
<STATE> 4
<MEAN> 39
 -3.341076e+02 -5.214956e-01 2.258509e-01 7.926139e-02 8.681154e-02 1.339653e-01 4.222635e-01 6.411426e-01 5.187035e-01 3.404469e-01 2.348244e-01 1.309898e-01 1.766461e-01 2.115784e-01 1.460158e-01 1.787314e-04 5.095140e-04 2.245824e-04 -5.282259e-04 -9.026538e-04 -2.913968e-04 -1.408499e-04 -2.362220e-04 2.498589e-04 5.428063e-04 2.281558e-04 1.029525e-05 3.718068e-04 4.783439e-04 7.114359e-04 7.953892e-04 2.660135e-04 7.158836e-04 4.979727e-04 2.162860e-04 5.347868e-04 4.933010e-04 3.243677e-04 3.446227e-04
<VARIANCE> 39
 7.547136e+03 1.075236e+02 7.944263e+00 1.330217e-02 1.363920e-02 1.748697e-02 7.569145e-02 1.706327e-01 4.149013e-02 1.129687e-01 5.901933e-02 3.561472e-02 6.027555e-02 1.211942e-01 3.877981e-02 2.056112e-04 1.694062e-04 3.690480e-04 7.771128e-04 2.266642e-04 6.755603e-04 5.174497e-04 1.522964e-04 2.155151e-04 1.427927e-04 1.132619e-04 1.503397e-04 1.346347e-05 1.175221e-05 2.637989e-05 5.564816e-05 2.039909e-05 4.968790e-05 3.896785e-05 1.084229e-05 1.627061e-05 1.280843e-05 8.774543e-06 1.235902e-05
<GCONST> -1.792587e+02
<TRANSP> 5
 0.000000e+00 1.000000e+00 0.000000e+00 0.000000e+00 0.000000e+00
 0.000000e+00 5.955067e-01 4.044933e-01 0.000000e+00 0.000000e+00
 0.000000e+00 0.000000e+00 8.164088e-01 1.835912e-01 0.000000e+00
 0.000000e+00 0.000000e+00 0.000000e+00 8.811823e-01 1.188177e-01
 0.000000e+00 0.000000e+00 0.000000e+00 0.000000e+00 0.000000e+00
<ENDHMM>
~h "Tab0011"
<BEGINHMM>
<NUMSTATES> 5
<STATE> 2
<MEAN> 39
 -5.010842e+02 -1.208078e+00 6.491393e-04 3.460851e-01 2.577648e-01 1.743273e-01 1.875374e-01 2.909268e-01 3.747451e-01 4.217370e-01 4.577285e-01 4.028727e-01 3.201072e-01 2.261353e-01 2.676159e-01 1.998477e-02 1.313955e-02 5.855382e-03 5.698850e-03 4.951734e-03 2.588902e-03 -2.229956e-03 -7.874487e-03 -4.804165e-03 2.289139e-04 2.963749e-03 1.534394e-02 -1.103305e-03 -2.234096e-04 6.065165e-04 1.239165e-04 -6.400722e-04 -1.184787e-03 -6.541504e-04 5.275146e-04 -4.456692e-04 -7.807778e-04 -5.883552e-05 -3.848620e-04
<VARIANCE> 39
 1.910489e+04 1.830793e+02 9.876587e+00 1.453082e-01 5.899778e-02 5.504784e-02 5.102951e-02 7.961869e-02 1.299683e-01 9.094996e-02 1.588720e-01 9.001040e-02 1.296117e-01 6.134040e-02 7.180589e-02 3.890371e-03 1.443642e-03 8.052393e-04 1.043745e-03 2.838156e-03 4.890842e-03 1.964688e-03 4.320607e-03 1.973844e-03 2.983154e-03 1.402708e-03 2.141781e-03 2.141161e-04 8.087193e-05 3.912786e-05 5.149520e-05 1.193254e-04 2.149401e-04 9.812656e-05 2.031264e-04 1.085608e-04 1.456155e-04 6.088258e-05 1.127713e-04
<GCONST> -1.238457e+02
<STATE> 3
<MEAN> 39
 -5.184796e+02 2.263183e+00 3.484156e-01 4.688365e-01 3.703075e-01 3.098423e-01 2.678287e-01 2.596886e-01 2.458657e-01 3.273578e-01 4.064203e-01 3.777092e-01 3.745615e-01 3.734242e-01 4.439355e-01 -1.459873e-02 -9.890849e-03 -3.741320e-03 -1.919978e-03 -2.206535e-03 -4.724607e-03 7.258138e-04 8.556572e-03 6.490312e-03 1.905641e-03 -2.845121e-04 -9.465881e-03 -1.332075e-03 -1.043330e-03 -9.927261e-04 -7.799226e-04 -4.504991e-04 -1.484904e-04 1.810912e-04 4.627496e-04 -3.014139e-04 -1.016846e-03 -1.499323e-03 -1.968816e-03
<VARIANCE> 39
 2.691589e+04 3.496432e+02 1.694789e+01 1.527449e-01 7.300174e-02 1.138157e-01 8.477856e-02 9.417418e-02 6.467708e-02 8.036224e-02 1.285140e-01 8.103051e-02 1.048827e-01 1.074122e-01 1.003189e-01 5.537201e-03 2.178592e-03 2.627464e-03 1.731357e-03 1.475794e-03 1.016464e-03 2.059671e-03 4.351100e-03 2.103609e-03 3.233154e-03 4.167476e-03 3.002804e-03 3.005202e-04 1.219270e-04 1.391507e-04 9.853602e-05 8.096288e-05 5.763205e-05 1.080753e-04 2.110435e-04 1.120361e-04 1.884479e-04 2.674703e-04 1.657913e-04
<GCONST> -1.160010e+02
<STATE> 4
<MEAN> 39
 -4.885948e+02 -2.421011e+00 5.381007e-02 1.965095e-01 1.722185e-01 1.799066e-01 1.811070e-01 2.105306e-01 2.249222e-01 4.312330e-01 6.485650e-01 4.585830e-01 2.510175e-01 1.872276e-01 1.887794e-01 -2.839286e-03 5.016412e-04 2.073245e-03 2.022437e-03 8.093730e-04 -1.209924e-04 1.815329e-03 2.544401e-03 -1.110230e-03 -2.657915e-03 -2.394648e-03 -3.979523e-03 3.860692e-03 3.106918e-03 1.987102e-03 1.487213e-03 1.969939e-03 3.020315e-03 7.951793e-04 -2.588789e-03 -2.637062e-04 1.959532e-03 1.753343e-03 3.183685e-03
<VARIANCE> 39
 2.493131e+04 1.638383e+02 1.157723e+01 9.111838e-02 4.529579e-02 5.558655e-02 4.451456e-02 9.208586e-02 7.138172e-02 7.453984e-02 1.652971e-01 6.006779e-02 1.050304e-01 5.206589e-02 6.347985e-02 1.056820e-03 6.134609e-04 7.061433e-04 5.494754e-04 7.430103e-04 1.171829e-03 8.324659e-04 1.209152e-03 7.483789e-04 1.508173e-03 7.812988e-04 9.867185e-04 1.017391e-04 4.205524e-05 5.168733e-05 3.420049e-05 5.269767e-05 7.879734e-05 5.321759e-05 1.202588e-04 6.164012e-05 1.006080e-04 5.156545e-05 7.894633e-05
<GCONST> -1.426940e+02
<TRANSP> 5
 0.000000e+00 1.000000e+00 0.000000e+00 0.000000e+00 0.000000e+00
 0.000000e+00 6.505758e-01 3.494242e-01 0.000000e+00 0.000000e+00
 0.000000e+00 0.000000e+00 7.768539e-01 2.231461e-01 0.000000e+00
 0.000000e+00 0.000000e+00 0.000000e+00 4.804478e-01 5.195522e-01
 0.000000e+00 0.000000e+00 0.000000e+00 0.000000e+00 0.000000e+00
<ENDHMM>
~h "Tab0024"
<BEGINHMM>
<NUMSTATES> 5
<STATE> 2
<MEAN> 39
 -4.384633e+02 3.026603e+00 3.627744e-01 3.312270e-01 3.709854e-01 3.990910e-01 3.414546e-01 2.345553e-01 2.020816e-01 3.477099e-01 3.999247e-01 4.087799e-01 3.409480e-01 2.738311e-01 3.209492e-01 5.802399e-03 1.574067e-02 2.024124e-02 1.951840e-02 4.933658e-03 -8.591675e-03 -9.807154e-03 -1.507941e-02 -2.284206e-02 -1.162979e-02 -4.140325e-03 -6.118884e-03 -1.034460e-03 1.214760e-03 -1.144807e-04 -9.795667e-04 -9.864429e-04 -1.132785e-03 -1.176831e-03 -1.101301e-04 2.717949e-05 -7.094888e-04 -1.249057e-03 -3.252218e-03
<VARIANCE> 39
 2.314935e+04 1.549534e+02 1.106325e+01 7.594612e-02 1.293569e-01 9.432485e-02 1.158241e-01 5.882197e-02 3.967260e-02 1.210545e-01 1.156355e-01 1.335836e-01 7.839749e-02 5.123033e-02 1.237442e-01 1.142419e-03 3.402306e-03 2.160964e-03 2.722120e-03 1.444486e-03 1.000951e-03 3.166034e-03 2.881410e-03 3.002082e-03 2.159100e-03 1.223147e-03 2.723600e-03 6.748382e-05 2.015046e-04 1.153303e-04 1.252460e-04 5.781315e-05 5.172990e-05 1.386939e-04 1.284190e-04 1.413003e-04 1.004445e-04 5.751785e-05 1.538308e-04
<GCONST> -1.242778e+02
<STATE> 3
<MEAN> 39
 -4.110464e+02 1.445389e+00 -5.841480e-01 4.379542e-01 5.667790e-01 4.368534e-01 3.105945e-01 1.710416e-01 7.398589e-02 1.110931e-01 1.754130e-01 2.081283e-01 1.916292e-01 2.507768e-01 3.027024e-01 9.810695e-03 8.245219e-03 -9.688107e-03 -2.338874e-02 -1.154836e-02 -2.286432e-03 -4.193807e-03 -4.164196e-03 -2.361403e-04 8.143228e-04 9.717783e-03 1.722242e-02 -1.082691e-03 -3.367062e-03 -1.908313e-03 6.172026e-05 1.354371e-03 1.457037e-03 8.812142e-04 5.058432e-04 1.159118e-03 7.500720e-04 1.173115e-03 2.664423e-03
<VARIANCE> 39
 1.138235e+04 8.865247e+01 7.281328e+00 7.302361e-02 1.917495e-01 6.311985e-02 1.169775e-01 3.111016e-02 6.794776e-03 2.889884e-02 5.365114e-02 5.942228e-02 5.204790e-02 7.446576e-02 1.313439e-01 1.578926e-03 8.197375e-03 1.456918e-03 2.170393e-03 7.444595e-04 1.888505e-04 2.821979e-04 2.388277e-04 6.265996e-04 7.524770e-04 2.042179e-03 4.936450e-03 8.433987e-05 3.589535e-04 5.612640e-05 1.226324e-04 4.958448e-05 2.035299e-05 2.682155e-05 2.324637e-05 5.354778e-05 5.619583e-05 1.008954e-04 2.129842e-04
<GCONST> -1.446028e+02
<STATE> 4
<MEAN> 39
 -4.237612e+02 -3.439846e+00 3.813926e-01 5.209011e-01 7.900327e-01 4.424160e-01 1.114618e-01 7.816176e-02 6.194598e-02 7.934529e-02 1.486894e-01 2.422144e-01 2.295828e-01 1.946548e-01 2.149479e-01 2.210206e-03 -6.730926e-04 1.104192e-03 2.483567e-03 2.358914e-03 1.291257e-03 6.253019e-04 2.569186e-04 1.908333e-03 3.066706e-05 -3.356129e-04 3.023979e-03 8.052270e-05 -2.389334e-04 3.687592e-04 7.689192e-04 6.431157e-04 8.705328e-04 9.011819e-04 1.135441e-03 3.659970e-04 8.387802e-04 7.338569e-04 8.659542e-05
<VARIANCE> 39
 9.095663e+03 1.494942e+02 1.022587e+01 5.872894e-02 1.427512e-01 4.880382e-02 1.021946e-02 5.510606e-03 4.006753e-03 1.372034e-02 2.996027e-02 6.402777e-02 8.396400e-02 3.593840e-02 4.649946e-02 3.600546e-04 2.001365e-04 2.291412e-04 1.819627e-04 1.347736e-04 9.859331e-05 1.462818e-04 1.727752e-04 3.102664e-04 2.572055e-04 3.535032e-04 5.631186e-04 2.113127e-05 2.995072e-05 1.657106e-05 1.360755e-05 7.785073e-06 8.826820e-06 1.170745e-05 1.558562e-05 2.442289e-05 1.763661e-05 2.417096e-05 5.699924e-05
<GCONST> -1.864268e+02
<TRANSP> 5
 0.000000e+00 1.000000e+00 0.000000e+00 0.000000e+00 0.000000e+00
 0.000000e+00 6.759700e-01 3.240300e-01 0.000000e+00 0.000000e+00
 0.000000e+00 0.000000e+00 6.754215e-01 3.245785e-01 0.000000e+00
 0.000000e+00 0.000000e+00 0.000000e+00 8.218062e-01 1.781938e-01
 0.000000e+00 0.000000e+00 0.000000e+00 0.000000e+00 0.000000e+00
<ENDHMM>
~h "Tab0030"
<BEGINHMM>
<NUMSTATES> 5
<STATE> 2
<MEAN> 39
 -3.472849e+02 1.018770e+00 -3.532214e-02 3.987223e-01 2.093349e-01 2.006029e-01 2.553560e-01 2.619233e-01 2.399097e-01 2.723477e-01 2.983789e-01 3.354471e-01 3.138947e-01 4.291836e-01 5.810446e-01 6.746852e-03 1.512229e-03 1.031183e-03 6.503263e-04 -4.183464e-04 -1.520671e-03 -1.600076e-03 -8.392927e-04 7.903879e-04 2.032988e-03 7.381228e-03 1.282523e-02 -6.963412e-06 -1.614375e-06 4.770329e-06 -4.422283e-04 -5.323510e-04 -2.500972e-04 -2.466986e-04 -4.995039e-04 -3.069927e-04 2.521291e-05 -3.018166e-05 -7.663982e-05
<VARIANCE> 39
 1.533027e+04 1.306240e+02 7.260638e+00 7.233915e-02 5.378301e-02 5.797557e-02 7.415012e-02 9.655504e-02 5.240600e-02 5.632986e-02 6.666667e-02 1.069424e-01 7.755802e-02 6.675205e-02 1.610352e-01 2.317975e-03 9.825188e-04 1.682527e-03 2.602471e-03 3.104494e-03 1.325386e-03 1.576939e-03 1.472960e-03 2.183589e-03 1.849388e-03 1.389112e-03 5.229420e-03 1.197187e-04 5.021100e-05 9.895340e-05 1.529876e-04 1.773644e-04 7.215584e-05 9.442420e-05 7.935552e-05 1.254704e-04 1.075543e-04 5.650293e-05 2.608674e-04
<GCONST> -1.279548e+02
<STATE> 3
<MEAN> 39
 -3.400312e+02 8.385251e-01 -1.005886e-01 4.122417e-01 1.718264e-01 1.530345e-01 2.045793e-01 2.142320e-01 2.046245e-01 2.468802e-01 2.727280e-01 3.147173e-01 3.105247e-01 4.712536e-01 6.485589e-01 -1.635744e-03 4.492780e-04 8.878301e-04 1.593104e-04 -3.458494e-04 2.557066e-04 -1.787680e-04 -4.050569e-04 1.426009e-03 3.252348e-03 -1.625930e-04 -3.323819e-03 -1.449373e-03 1.893812e-04 1.795098e-04 1.485896e-04 2.284997e-04 2.932762e-04 6.259910e-04 8.324583e-04 7.893916e-04 6.385926e-04 -1.513635e-03 -3.356911e-03
<VARIANCE> 39
 1.351478e+04 1.338512e+02 9.274667e+00 5.946122e-02 3.996612e-02 3.594636e-02 6.076512e-02 7.709782e-02 4.188032e-02 4.848646e-02 5.379000e-02 9.905455e-02 8.567199e-02 6.457710e-02 1.598794e-01 2.014435e-03 5.459266e-04 9.441539e-04 2.206195e-03 2.779376e-03 1.180769e-03 1.661817e-03 1.616314e-03 2.626114e-03 2.704356e-03 1.175640e-03 5.442386e-03 1.071121e-04 2.647315e-05 5.537169e-05 1.328496e-04 1.608519e-04 6.838969e-05 9.550712e-05 1.008252e-04 1.513329e-04 1.316637e-04 6.208792e-05 2.921663e-04
<GCONST> -1.317034e+02
<STATE> 4
<MEAN> 39
 -3.419458e+02 -3.247023e-01 -2.726022e-02 4.046769e-01 1.801209e-01 1.635147e-01 2.199083e-01 2.194469e-01 2.104051e-01 2.450599e-01 2.488663e-01 2.867305e-01 2.877678e-01 4.557154e-01 6.256560e-01 -4.609793e-04 1.948637e-03 1.298180e-03 1.945099e-03 2.615629e-03 1.445137e-03 8.089519e-04 1.310100e-03 2.266678e-03 2.583879e-03 -9.093079e-04 -3.961718e-03 1.220703e-04 2.857805e-04 1.427960e-04 3.406727e-04 5.628814e-04 3.362136e-04 4.202846e-04 5.447920e-04 4.837991e-04 3.566823e-04 -2.012014e-04 -4.682494e-04
<VARIANCE> 39
 1.419696e+04 7.337383e+01 5.085009e+00 6.233111e-02 4.310702e-02 3.833928e-02 6.717687e-02 7.854021e-02 4.515687e-02 4.967599e-02 4.711889e-02 9.525250e-02 7.901272e-02 6.590923e-02 1.671847e-01 1.752095e-03 5.689692e-04 1.039606e-03 2.476541e-03 2.930723e-03 1.180657e-03 1.606556e-03 1.312808e-03 2.157301e-03 1.943095e-03 9.023349e-04 4.391911e-03 9.515965e-05 2.787992e-05 6.314827e-05 1.576193e-04 1.813870e-04 7.458091e-05 9.704624e-05 7.383867e-05 1.382528e-04 1.238042e-04 4.558376e-05 2.516356e-04
<GCONST> -1.341826e+02
<TRANSP> 5
 0.000000e+00 1.000000e+00 0.000000e+00 0.000000e+00 0.000000e+00
 0.000000e+00 2.810291e-01 7.189709e-01 0.000000e+00 0.000000e+00
 0.000000e+00 0.000000e+00 2.642053e-01 7.357947e-01 0.000000e+00
 0.000000e+00 0.000000e+00 0.000000e+00 9.086566e-02 9.091344e-01
 0.000000e+00 0.000000e+00 0.000000e+00 0.000000e+00 0.000000e+00
<ENDHMM>
~h "Tab0031"
<BEGINHMM>
<NUMSTATES> 5
<STATE> 2
<MEAN> 39
 -4.363678e+02 2.556382e+00 -3.373230e-01 2.514873e-01 2.113592e-01 2.135262e-01 3.673532e-01 5.424210e-01 3.385929e-01 1.975606e-01 2.639984e-01 3.394643e-01 3.722996e-01 2.997967e-01 3.012262e-01 -4.568952e-04 5.983760e-04 -2.930389e-03 9.527453e-03 2.243255e-02 1.256910e-02 -5.919188e-03 -1.499176e-02 -1.674160e-03 8.395104e-03 2.403445e-03 -3.498087e-03 -2.457690e-05 7.659071e-04 6.217968e-04 -1.518210e-03 -3.282570e-03 -1.652140e-03 5.437752e-04 1.115941e-03 1.700198e-03 2.491054e-03 1.330711e-03 -3.196817e-04
<VARIANCE> 39
 1.968584e+04 2.517066e+02 1.602406e+01 8.453736e-02 5.371924e-02 7.104606e-02 5.721563e-02 1.697751e-01 6.029549e-02 4.111768e-02 1.036456e-01 8.107745e-02 1.360649e-01 5.107433e-02 5.988414e-02 1.910024e-03 1.365417e-03 1.722197e-03 1.452064e-03 5.007640e-03 1.702046e-03 1.220237e-03 3.359233e-03 2.472638e-03 3.945117e-03 1.461173e-03 1.443540e-03 8.771601e-05 6.866252e-05 7.846812e-05 6.997714e-05 2.341140e-04 8.573069e-05 5.912594e-05 1.487472e-04 1.302444e-04 2.043830e-04 7.148874e-05 6.963111e-05
<GCONST> -1.265904e+02
<STATE> 3
<MEAN> 39
 -4.433434e+02 5.097938e-02 -2.210092e-01 5.483135e-01 5.153818e-01 5.239981e-01 4.460415e-01 4.286948e-01 4.176194e-01 4.567885e-01 5.387384e-01 5.228096e-01 5.409607e-01 4.999097e-01 5.537635e-01 -1.864411e-03 -1.080967e-03 -1.827174e-03 -3.900201e-03 -4.888809e-03 -2.382528e-03 -1.064628e-03 -1.632406e-03 1.420732e-03 5.188863e-03 9.004726e-04 -3.409256e-03 -2.456380e-04 -6.105035e-04 -4.651605e-04 -3.078226e-04 -1.836449e-04 -1.685314e-04 -2.277819e-04 -3.115666e-04 -9.022135e-04 -1.355087e-03 -8.442854e-04 -1.529953e-04
<VARIANCE> 39
 4.996083e+04 1.503349e+03 8.088907e+01 1.013019e-01 6.573401e-02 9.905910e-02 5.600346e-02 6.618891e-02 6.713434e-02 6.531273e-02 1.037015e-01 6.183889e-02 8.617232e-02 6.204532e-02 7.854767e-02 1.985699e-03 1.432181e-03 2.036942e-03 1.451332e-03 1.860022e-03 1.694855e-03 1.067946e-03 1.796042e-03 1.486808e-03 2.507265e-03 1.608823e-03 1.742846e-03 1.138697e-04 8.472832e-05 1.200286e-04 8.271686e-05 9.657007e-05 8.993450e-05 5.995322e-05 1.030267e-04 8.143314e-05 1.266089e-04 9.116577e-05 1.021031e-04
<GCONST> -1.248197e+02
<STATE> 4
<MEAN> 39
 -5.241869e+02 -2.756001e+00 5.008142e-01 3.522600e-01 2.183193e-01 9.985679e-02 1.986572e-01 3.661057e-01 2.855297e-01 1.459913e-01 1.180501e-01 2.369266e-01 3.680562e-01 2.608874e-01 2.870492e-01 -1.540392e-03 -2.394429e-03 -1.179184e-03 -1.998680e-03 -4.052730e-03 -3.550792e-03 -7.910520e-05 1.100783e-03 -1.126254e-03 -1.703775e-03 -9.589982e-04 -9.059960e-04 6.493054e-04 8.828925e-04 9.689486e-04 9.871247e-04 8.784682e-04 5.809955e-04 3.862478e-04 5.500672e-04 1.485432e-04 -5.407752e-04 3.096805e-04 7.640058e-04
<VARIANCE> 39
 1.352781e+04 9.050345e+01 6.731450e+00 1.566000e-01 5.079095e-02 3.613720e-02 4.258643e-02 1.348386e-01 9.698507e-02 3.586566e-02 3.018381e-02 6.017194e-02 1.977135e-01 6.421000e-02 8.681504e-02 2.971344e-04 2.952522e-04 1.588150e-04 1.980255e-04 4.256565e-04 2.460835e-04 2.314169e-04 2.122041e-04 2.008595e-04 2.221731e-04 2.527192e-04 4.363689e-04 2.329291e-05 2.136454e-05 1.744161e-05 1.454155e-05 2.581607e-05 1.576800e-05 1.506564e-05 1.798842e-05 1.561507e-05 3.003195e-05 2.070245e-05 3.475647e-05
<GCONST> -1.735654e+02
<TRANSP> 5
 0.000000e+00 1.000000e+00 0.000000e+00 0.000000e+00 0.000000e+00
 0.000000e+00 8.427765e-01 1.572235e-01 0.000000e+00 0.000000e+00
 0.000000e+00 0.000000e+00 9.159178e-01 8.408217e-02 0.000000e+00
 0.000000e+00 0.000000e+00 0.000000e+00 8.684275e-01 1.315725e-01
 0.000000e+00 0.000000e+00 0.000000e+00 0.000000e+00 0.000000e+00
<ENDHMM>
~h "Tab0033"
<BEGINHMM>
<NUMSTATES> 5
<STATE> 2
<MEAN> 39
 -4.151027e+02 1.124664e+00 1.201027e-01 3.104831e-01 3.513251e-01 4.182110e-01 2.682643e-01 1.591842e-01 1.564561e-01 1.580760e-01 1.772199e-01 2.798932e-01 3.821231e-01 3.087936e-01 2.998112e-01 -1.727877e-03 9.483215e-04 3.272214e-03 2.679131e-03 1.431550e-03 3.641031e-04 -8.128312e-04 -1.691415e-03 2.686334e-03 7.437334e-03 6.420326e-03 2.409304e-03 -1.094816e-03 -1.123915e-03 -2.709281e-04 4.562138e-04 6.129415e-04 6.745584e-04 6.223673e-04 5.477257e-04 1.491573e-03 2.395309e-03 1.055882e-03 -3.670304e-04
<VARIANCE> 39
 1.338741e+04 9.916087e+01 5.376586e+00 1.255515e-01 7.879338e-02 1.535231e-01 5.173402e-02 4.136238e-02 5.735719e-02 4.329400e-02 6.931990e-02 5.796878e-02 1.481335e-01 6.102625e-02 1.073352e-01 1.801214e-03 2.288447e-03 4.885632e-03 1.429229e-03 3.507703e-04 3.847668e-04 4.212494e-04 7.093336e-04 1.542255e-03 4.350978e-03 1.353040e-03 1.422180e-03 9.141026e-05 1.351618e-04 2.771081e-04 7.964813e-05 2.371724e-05 2.503674e-05 3.039798e-05 3.996306e-05 8.618744e-05 2.523445e-04 8.080751e-05 7.241657e-05
<GCONST> -1.380292e+02
<STATE> 3
<MEAN> 39
 -4.023109e+02 1.119854e+00 -6.524217e-01 2.399568e-01 2.972628e-01 3.515515e-01 2.860165e-01 3.073711e-01 3.132946e-01 2.407349e-01 2.179953e-01 3.121111e-01 3.971249e-01 2.768467e-01 2.165153e-01 -1.693810e-02 -6.759754e-03 5.617149e-03 1.251270e-03 -3.024910e-03 -1.349161e-04 -8.441806e-04 -2.616540e-03 6.485531e-03 1.356881e-02 2.428340e-03 -1.185489e-02 8.954275e-04 -6.926242e-04 -1.459839e-03 -4.200852e-04 3.714365e-04 1.522975e-04 -5.925770e-04 -5.828556e-04 -3.980331e-04 -5.829892e-04 -1.800127e-04 1.041235e-03
<VARIANCE> 39
 1.958480e+04 1.253353e+02 7.384384e+00 8.982335e-02 7.711001e-02 1.457911e-01 5.779747e-02 8.675043e-02 1.068483e-01 5.805381e-02 8.501301e-02 7.073180e-02 1.556879e-01 6.116254e-02 6.345942e-02 2.454684e-03 1.740656e-03 3.550483e-03 1.408341e-03 1.709481e-03 9.710795e-04 5.203871e-04 5.655468e-04 1.587203e-03 4.255399e-03 1.560082e-03 1.607685e-03 8.606762e-05 9.480862e-05 1.640870e-04 5.932717e-05 8.781844e-05 4.963286e-05 3.450724e-05 3.953445e-05 8.550626e-05 2.130145e-04 7.560155e-05 5.685852e-05
<GCONST> -1.329508e+02
<STATE> 4
<MEAN> 39
 -3.307933e+02 -1.061253e+00 8.643801e-02 2.183639e-01 3.873950e-01 5.495713e-01 3.254429e-01 2.841238e-01 4.702169e-01 4.024221e-01 2.915670e-01 3.230357e-01 4.266215e-01 2.632638e-01 1.690023e-01 -5.758405e-04 1.952142e-05 3.013868e-04 1.016012e-03 1.496442e-03 1.421872e-03 4.488956e-04 -4.803280e-05 8.435997e-04 1.366315e-03 4.824902e-04 -4.267569e-04 5.666056e-04 3.433900e-04 -3.277569e-05 2.411212e-04 3.552206e-04 9.638969e-05 7.403833e-05 2.221558e-04 -2.418307e-04 -8.614168e-04 -1.861958e-04 5.583037e-04
<VARIANCE> 39
 2.529617e+04 4.849369e+01 3.179561e+00 4.996394e-02 4.155512e-02 1.770180e-01 4.747828e-02 4.734566e-02 1.243371e-01 7.543701e-02 1.233452e-01 4.030330e-02 8.454583e-02 2.888848e-02 2.206711e-02 1.839952e-04 2.857844e-04 4.712644e-04 2.227837e-04 2.158142e-04 1.988310e-04 2.200499e-04 2.589423e-04 3.474270e-04 6.020934e-04 2.353227e-04 1.532576e-04 1.766759e-05 1.703387e-05 3.101239e-05 1.374228e-05 1.622219e-05 1.452485e-05 1.513817e-05 1.691868e-05 2.529730e-05 4.816144e-05 1.650469e-05 1.312184e-05
<GCONST> -1.764807e+02
<TRANSP> 5
 0.000000e+00 1.000000e+00 0.000000e+00 0.000000e+00 0.000000e+00
 0.000000e+00 6.204932e-01 3.795068e-01 0.000000e+00 0.000000e+00
 0.000000e+00 0.000000e+00 4.834656e-01 5.165344e-01 0.000000e+00
 0.000000e+00 0.000000e+00 0.000000e+00 9.003295e-01 9.967057e-02
 0.000000e+00 0.000000e+00 0.000000e+00 0.000000e+00 0.000000e+00
<ENDHMM>
~h "Tab0036"
<BEGINHMM>
<NUMSTATES> 5
<STATE> 2
<MEAN> 39
 -3.095122e+02 1.546564e+00 -4.222259e-02 3.631323e-01 1.146075e-01 1.344977e-01 2.674405e-01 2.815906e-01 2.793441e-01 3.430730e-01 2.696239e-01 2.300752e-01 2.275352e-01 4.301733e-01 6.177757e-01 2.334037e-03 2.730624e-04 1.045606e-03 1.992098e-03 1.278923e-03 5.996851e-04 1.495424e-03 2.964733e-04 -1.149232e-03 4.442204e-04 3.052328e-03 4.604481e-03 2.712166e-04 2.306789e-04 5.593105e-04 7.341658e-04 2.932562e-04 -6.256769e-04 -1.154428e-03 -3.383541e-04 3.815510e-04 2.955520e-04 9.224939e-05 2.940683e-04
<VARIANCE> 39
 6.512119e+03 1.955248e+02 1.519843e+01 5.740682e-02 8.585431e-03 2.309902e-02 9.059764e-02 1.249760e-01 5.103703e-02 1.147670e-01 4.071077e-02 5.477187e-02 4.361317e-02 6.109538e-02 1.700138e-01 1.601718e-03 1.449791e-04 8.958344e-04 3.316993e-03 3.800132e-03 1.307161e-03 3.189714e-03 1.220313e-03 1.909814e-03 1.610665e-03 1.241617e-03 5.640822e-03 7.716937e-05 8.360904e-06 4.711197e-05 1.631202e-04 1.971915e-04 7.546761e-05 1.644149e-04 8.319219e-05 1.358675e-04 9.244578e-05 5.783017e-05 2.761457e-04
<GCONST> -1.357076e+02
<STATE> 3
<MEAN> 39
 -2.998033e+02 2.136326e-02 -2.287975e-01 4.274222e-01 1.417181e-01 1.901349e-01 3.384409e-01 2.814934e-01 1.915654e-01 2.203165e-01 1.911212e-01 1.903109e-01 2.317951e-01 5.073713e-01 7.184246e-01 5.432684e-05 -3.599227e-04 1.491925e-03 2.527168e-03 -1.028742e-04 -1.615224e-03 -2.332320e-03 -2.238194e-03 -1.719803e-03 1.537001e-04 7.328537e-04 6.936435e-04 1.329242e-05 4.078459e-05 -6.860805e-04 -1.555633e-03 -9.430730e-04 3.410663e-04 7.840986e-04 5.047055e-04 1.473522e-04 -1.324154e-04 -1.441030e-04 1.390628e-05
<VARIANCE> 39
 5.008619e+03 7.289780e+01 3.805556e+00 5.071580e-02 1.084530e-02 3.894866e-02 1.241439e-01 1.022046e-01 2.767139e-02 3.584247e-02 2.024725e-02 4.445026e-02 4.925013e-02 4.793888e-02 1.380681e-01 1.616287e-03 1.941883e-04 1.550986e-03 4.919832e-03 4.420753e-03 1.149543e-03 1.222327e-03 7.674347e-04 1.943970e-03 1.685762e-03 1.053746e-03 5.694957e-03 8.214032e-05 8.456685e-06 9.386369e-05 2.800517e-04 2.615362e-04 7.324905e-05 7.917805e-05 5.021163e-05 1.071213e-04 1.001175e-04 4.718661e-05 3.103565e-04
<GCONST> -1.407788e+02
<STATE> 4
<MEAN> 39
 -3.187319e+02 -6.112553e-01 -4.949589e-02 3.564479e-01 9.618822e-02 1.481178e-01 2.995419e-01 2.790191e-01 1.616798e-01 1.529135e-01 2.078683e-01 3.195401e-01 3.482502e-01 4.739529e-01 6.221905e-01 -1.131804e-04 5.486038e-05 -3.567744e-04 -7.180549e-04 -7.930314e-04 -4.165405e-04 -1.172881e-03 1.224517e-04 2.800523e-03 3.996270e-03 1.420125e-03 -4.635414e-04 -3.228237e-04 1.579850e-04 1.587669e-04 2.639392e-04 4.025452e-04 3.529116e-04 4.369302e-04 5.173265e-04 4.460019e-04 1.074664e-04 -3.119372e-04 -7.478724e-04
<VARIANCE> 39
 6.110037e+03 2.409395e+02 1.880952e+01 5.683453e-02 8.076176e-03 3.071635e-02 1.077427e-01 1.140099e-01 2.881169e-02 1.751578e-02 2.962526e-02 9.570422e-02 1.002174e-01 5.470610e-02 1.676566e-01 1.444257e-03 1.339015e-04 8.383908e-04 2.655867e-03 2.713658e-03 8.396158e-04 7.617128e-04 9.160831e-04 2.888241e-03 3.064734e-03 1.230880e-03 4.871381e-03 6.897262e-05 6.758419e-06 4.638571e-05 1.399404e-04 1.363582e-04 4.216380e-05 4.645559e-05 5.697429e-05 1.570874e-04 1.691546e-04 6.035326e-05 2.351596e-04
<GCONST> -1.410820e+02
<TRANSP> 5
 0.000000e+00 1.000000e+00 0.000000e+00 0.000000e+00 0.000000e+00
 0.000000e+00 5.053971e-01 4.946029e-01 0.000000e+00 0.000000e+00
 0.000000e+00 0.000000e+00 3.627861e-01 6.372139e-01 0.000000e+00
 0.000000e+00 0.000000e+00 0.000000e+00 6.749726e-01 3.250274e-01
 0.000000e+00 0.000000e+00 0.000000e+00 0.000000e+00 0.000000e+00
<ENDHMM>
~h "Tab0040"
<BEGINHMM>
<NUMSTATES> 5
<STATE> 2
<MEAN> 39
 -3.844155e+02 1.962139e+00 7.429519e-01 4.348921e-01 5.735984e-01 3.509328e-01 1.988133e-01 2.885496e-01 3.749764e-01 4.076687e-01 4.045434e-01 4.829237e-01 4.270895e-01 3.068414e-01 2.644247e-01 1.208095e-02 1.715592e-02 1.066085e-02 3.942551e-03 4.393322e-03 2.520330e-03 -2.070196e-04 2.895425e-03 5.165268e-03 1.968776e-04 -1.248351e-03 3.199419e-03 -1.236498e-03 -2.028049e-03 -1.103657e-03 -2.646535e-04 -1.537750e-04 -5.958090e-05 4.683088e-04 2.569437e-04 -6.625163e-04 -3.963255e-04 4.034834e-04 2.310733e-04
<VARIANCE> 39
 1.061337e+04 1.565357e+02 1.077070e+01 7.379064e-02 1.379385e-01 5.968424e-02 2.644361e-02 4.956491e-02 7.339709e-02 1.147231e-01 6.927995e-02 1.056582e-01 7.801077e-02 1.042521e-01 6.435972e-02 2.550291e-03 3.986169e-03 1.494017e-03 5.315011e-04 1.304739e-03 1.591440e-03 2.189373e-03 1.153660e-03 2.669647e-03 1.820315e-03 2.204767e-03 1.427382e-03 1.742662e-04 2.829783e-04 1.079133e-04 3.447292e-05 8.534101e-05 1.089090e-04 1.549306e-04 7.474284e-05 1.739889e-04 1.104704e-04 1.562537e-04 9.246561e-05
<GCONST> -1.281580e+02
<STATE> 3
<MEAN> 39
 -3.326828e+02 4.598260e+00 -9.056386e-01 3.946104e-01 3.461952e-01 2.238063e-01 1.629572e-01 2.155811e-01 2.551505e-01 3.200088e-01 4.102196e-01 5.097335e-01 4.186755e-01 3.377646e-01 3.826444e-01 -1.473343e-02 -2.134998e-02 -1.317568e-02 -5.617318e-03 -5.983466e-03 -3.648333e-03 4.002188e-04 -2.320736e-03 -5.809849e-03 -7.435479e-04 3.382602e-03 -1.057169e-03 -6.240243e-04 -7.952109e-05 -2.375514e-04 -5.390611e-04 -1.079985e-03 -1.501650e-03 -1.330392e-03 -1.836027e-03 -1.392161e-03 -7.426878e-04 -1.034525e-03 -9.907341e-04
<VARIANCE> 39
 1.550259e+04 3.766174e+02 2.391295e+01 9.669800e-02 1.246824e-01 6.006925e-02 2.777424e-02 6.004769e-02 5.885199e-02 9.110005e-02 8.511715e-02 1.241086e-01 8.343996e-02 8.668708e-02 1.276539e-01 3.145343e-03 3.489162e-03 1.368712e-03 5.846799e-04 1.343721e-03 1.310006e-03 1.918915e-03 1.860189e-03 3.580259e-03 2.784700e-03 2.104985e-03 3.393585e-03 1.716651e-04 1.596695e-04 6.383906e-05 2.941865e-05 7.654294e-05 7.514477e-05 8.884558e-05 9.498952e-05 1.667366e-04 1.176965e-04 1.032736e-04 1.536963e-04
<GCONST> -1.253527e+02
<STATE> 4
<MEAN> 39
 -3.501144e+02 -3.039888e+00 2.237516e-01 4.809047e-01 5.993558e-01 3.487553e-01 1.160915e-01 1.286514e-01 1.582398e-01 2.170378e-01 2.657218e-01 3.159177e-01 2.567777e-01 2.647313e-01 3.411360e-01 -5.584633e-04 6.571632e-04 2.670290e-04 -6.637606e-04 -9.798352e-04 -1.737690e-03 -2.811074e-03 -3.253616e-03 -2.206158e-03 -1.802263e-04 -2.508591e-04 -1.284760e-03 6.166105e-04 9.641851e-04 6.706738e-04 6.145166e-04 6.679482e-04 7.977399e-04 8.160114e-04 1.082516e-03 1.154841e-03 1.051940e-03 3.532510e-04 -1.089322e-04
<VARIANCE> 39
 1.099443e+04 1.407438e+02 8.025624e+00 5.899956e-02 1.839452e-01 6.353728e-02 1.200528e-02 2.432063e-02 2.405405e-02 3.729457e-02 4.183183e-02 8.678605e-02 5.185868e-02 8.118409e-02 1.413363e-01 5.977595e-04 4.187992e-04 2.616553e-04 2.752511e-04 5.133461e-04 5.932087e-04 6.376949e-04 6.767976e-04 1.291234e-03 8.479310e-04 3.461545e-04 5.247556e-04 5.175621e-05 3.919161e-05 2.028608e-05 1.816968e-05 3.791226e-05 4.401338e-05 4.040180e-05 4.066135e-05 8.930695e-05 6.527613e-05 2.566933e-05 5.112069e-05
<GCONST> -1.596085e+02
<TRANSP> 5
 0.000000e+00 1.000000e+00 0.000000e+00 0.000000e+00 0.000000e+00
 0.000000e+00 8.163318e-01 1.836682e-01 0.000000e+00 0.000000e+00
 0.000000e+00 0.000000e+00 7.976959e-01 2.023041e-01 0.000000e+00
 0.000000e+00 0.000000e+00 0.000000e+00 7.899530e-01 2.100470e-01
 0.000000e+00 0.000000e+00 0.000000e+00 0.000000e+00 0.000000e+00
<ENDHMM>
~h "Tab0042"
<BEGINHMM>
<NUMSTATES> 5
<STATE> 2
<MEAN> 39
 -3.945960e+02 -6.242402e-01 -2.759532e-02 1.023634e-01 3.213096e-01 5.277871e-01 3.696139e-01 2.316593e-01 2.149694e-01 1.170231e-01 7.627056e-02 2.599367e-01 6.219034e-01 5.774326e-01 2.217576e-01 2.750688e-04 -1.387032e-03 -3.318782e-03 -1.158259e-03 1.197666e-03 2.352321e-04 -5.194172e-04 -3.452079e-04 -4.279596e-05 4.430143e-04 8.965994e-05 1.215977e-04 1.902971e-04 -3.307797e-05 -3.504958e-04 1.381256e-04 3.346627e-04 -9.934933e-05 -4.048055e-05 1.775774e-04 4.293188e-05 -1.098289e-04 4.551097e-05 2.461583e-04
<VARIANCE> 39
 1.943290e+04 5.615290e+01 3.646092e+00 1.782853e-02 6.252413e-02 1.490600e-01 5.507824e-02 3.073847e-02 3.602579e-02 1.656676e-02 1.762298e-02 5.749275e-02 1.027020e-01 1.138689e-01 4.055388e-02 2.310470e-04 5.138285e-04 4.646777e-04 3.890193e-04 6.296078e-04 4.930308e-04 1.904433e-04 1.537427e-04 1.768598e-04 2.203159e-04 1.476309e-04 1.271518e-04 1.579542e-05 2.626154e-05 2.309513e-05 1.967045e-05 3.415801e-05 2.654838e-05 1.114625e-05 9.750178e-06 1.054119e-05 1.096015e-05 8.086674e-06 1.217008e-05
<GCONST> -1.816407e+02
<STATE> 3
<MEAN> 39
 -5.261086e+02 -6.286660e-01 1.468018e-01 3.292661e-01 6.807867e-01 5.566286e-01 2.407976e-01 1.531265e-01 1.077141e-01 6.206310e-02 7.460740e-02 4.064691e-01 7.436008e-01 4.494568e-01 1.076697e-01 1.465569e-03 2.108157e-03 1.379754e-03 2.941757e-04 -1.199035e-03 -1.372882e-03 -6.791693e-04 -3.666396e-04 -1.257491e-04 6.965915e-06 2.219479e-04 7.197505e-04 -1.319944e-04 -3.602501e-04 3.847021e-04 6.471858e-04 5.731989e-04 3.791060e-04 2.793905e-04 3.883147e-04 2.960432e-04 7.230664e-05 2.511410e-04 3.571580e-04
<VARIANCE> 39
 1.221213e+04 9.867328e+01 6.296091e+00 5.361558e-02 1.259171e-01 7.177214e-02 5.362678e-02 2.805861e-02 3.020919e-02 1.522055e-02 1.870238e-02 2.756180e-02 6.416205e-02 3.300193e-02 2.284815e-02 3.609437e-04 1.307790e-03 7.808000e-04 4.538573e-04 4.015839e-04 1.935875e-04 1.085169e-04 1.423397e-04 2.299405e-04 4.123148e-04 2.560930e-04 3.908949e-04 2.038938e-05 7.605588e-05 5.376022e-05 2.376229e-05 2.237318e-05 1.231987e-05 7.470852e-06 9.605425e-06 1.337608e-05 2.094449e-05 1.562319e-05 2.866595e-05
<GCONST> -1.775221e+02
<STATE> 4
<MEAN> 39
 -2.881537e+02 4.232126e-01 4.839765e-02 1.316504e-01 3.141676e-01 6.488779e-01 6.750619e-01 3.765121e-01 2.401945e-01 1.989118e-01 2.395593e-01 2.947970e-01 4.311134e-01 5.039836e-01 2.693063e-01 4.521881e-04 -1.211751e-03 7.562677e-04 2.947861e-03 2.889215e-03 1.361025e-03 1.513326e-03 2.040157e-03 2.650813e-03 3.213835e-03 3.203150e-03 2.460839e-03 1.332790e-04 -4.578999e-05 -2.657440e-04 -1.088235e-04 2.440319e-04 3.617643e-04 5.158639e-04 5.850161e-04 2.121415e-04 -2.455818e-04 -1.457420e-04 1.118585e-04
<VARIANCE> 39
 1.608317e+04 7.625394e+01 6.060825e+00 2.349267e-02 6.454629e-02 9.041235e-02 1.150968e-01 4.330968e-02 4.127586e-02 2.590111e-02 5.236226e-02 6.781606e-02 6.846966e-02 1.134345e-01 3.606166e-02 2.573860e-04 8.908952e-04 1.066068e-03 8.014132e-04 7.416579e-04 8.055297e-04 6.825480e-04 1.169096e-03 1.413196e-03 9.348674e-04 1.094639e-03 4.341235e-04 1.592224e-05 4.131507e-05 5.297921e-05 3.575241e-05 4.350836e-05 4.690485e-05 4.329615e-05 7.533257e-05 8.897793e-05 5.020490e-05 5.409137e-05 2.623972e-05
<GCONST> -1.534660e+02
<TRANSP> 5
 0.000000e+00 1.000000e+00 0.000000e+00 0.000000e+00 0.000000e+00
 0.000000e+00 8.244813e-01 1.755187e-01 0.000000e+00 0.000000e+00
 0.000000e+00 0.000000e+00 7.829754e-01 2.170246e-01 0.000000e+00
 0.000000e+00 0.000000e+00 0.000000e+00 7.895025e-01 2.104975e-01
 0.000000e+00 0.000000e+00 0.000000e+00 0.000000e+00 0.000000e+00
<ENDHMM>
~h "Tab0045"
<BEGINHMM>
<NUMSTATES> 5
<STATE> 2
<MEAN> 39
 -4.796642e+02 1.583280e+00 -2.447938e-01 1.721911e-01 1.576592e-01 1.683652e-01 2.233573e-01 3.107764e-01 2.950762e-01 2.395020e-01 2.475493e-01 3.799577e-01 5.122489e-01 3.649034e-01 2.052108e-01 2.462010e-03 3.196765e-03 3.405970e-03 4.933730e-03 4.112386e-03 -4.492641e-04 -2.049725e-03 5.029910e-05 5.596171e-03 1.124482e-02 6.490665e-03 2.101375e-03 1.417521e-03 7.760644e-04 1.221636e-04 4.222070e-04 1.091705e-03 9.860351e-04 3.178603e-04 -3.601436e-05 -7.854414e-04 -1.709742e-03 -8.368724e-04 8.245166e-04
<VARIANCE> 39
 2.685203e+04 2.195365e+02 1.316790e+01 7.278734e-02 4.882187e-02 6.594361e-02 6.251157e-02 1.109504e-01 9.952516e-02 6.044997e-02 9.695898e-02 8.141802e-02 1.762163e-01 8.306481e-02 6.770974e-02 9.651045e-04 5.962481e-04 8.139425e-04 1.358659e-03 3.313814e-03 2.881684e-03 1.329507e-03 2.046399e-03 1.555894e-03 3.264869e-03 1.328848e-03 1.208940e-03 6.000915e-05 3.418744e-05 4.329102e-05 5.122243e-05 1.112752e-04 1.046635e-04 5.970664e-05 8.226033e-05 7.080623e-05 1.602937e-04 6.982109e-05 6.646087e-05
<GCONST> -1.331592e+02
<STATE> 3
<MEAN> 39
 -4.876035e+02 -4.056895e-02 -6.896842e-01 3.092891e-01 2.378139e-01 1.827071e-01 2.229974e-01 3.041829e-01 2.742820e-01 2.093340e-01 2.291825e-01 3.625164e-01 4.757394e-01 3.648681e-01 2.814086e-01 3.411588e-03 7.548815e-04 -3.107625e-03 -4.093716e-03 -3.940853e-03 -3.372460e-03 -3.236252e-03 -3.763385e-03 -4.021389e-03 -2.550846e-03 -4.201887e-03 -1.733573e-03 -2.793426e-04 -3.732654e-04 -1.453880e-04 -2.406429e-04 -4.289782e-04 -4.327134e-05 4.065515e-04 3.573999e-04 -1.417017e-04 -6.218557e-04 -5.710315e-04 -2.379153e-04
<VARIANCE> 39
 2.655902e+04 2.346943e+02 1.519041e+01 1.422088e-01 7.005938e-02 7.048809e-02 6.377555e-02 1.159479e-01 9.032468e-02 5.126642e-02 8.143108e-02 8.560830e-02 1.752603e-01 8.699598e-02 8.397913e-02 3.445511e-03 1.446603e-03 9.974751e-04 9.952722e-04 2.262140e-03 1.589852e-03 9.808837e-04 1.976213e-03 1.845768e-03 4.345066e-03 1.861083e-03 2.008042e-03 1.534173e-04 8.063125e-05 5.691734e-05 5.797080e-05 1.313785e-04 9.913482e-05 5.998892e-05 1.014867e-04 1.018034e-04 2.191286e-04 1.054045e-04 1.067828e-04
<GCONST> -1.258100e+02
<STATE> 4
<MEAN> 39
 -5.470177e+02 -2.145110e+00 4.479617e-01 1.857717e-01 1.136532e-01 5.294506e-02 1.925091e-01 3.548957e-01 2.332803e-01 9.292941e-02 1.034130e-01 4.578252e-01 7.970884e-01 4.579170e-01 1.636915e-01 1.135650e-03 6.182104e-04 1.691433e-04 -1.973653e-05 -4.436643e-04 -7.256333e-04 -4.452785e-04 -7.443246e-05 4.171622e-04 4.098250e-05 1.904127e-04 9.077494e-04 5.908360e-04 4.350184e-04 4.889774e-04 6.471678e-04 6.901621e-04 8.504660e-04 1.078470e-03 1.259074e-03 5.563108e-04 -6.091504e-04 6.927472e-05 8.240623e-04
<VARIANCE> 39
 1.419011e+04 7.377602e+01 5.726607e+00 7.310809e-02 2.710919e-02 1.952791e-02 4.770583e-02 1.562168e-01 6.541064e-02 2.377303e-02 4.223763e-02 3.362762e-02 1.175812e-01 4.400389e-02 3.385114e-02 2.167119e-04 1.142384e-04 8.168889e-05 1.088986e-04 2.090847e-04 1.471521e-04 1.223648e-04 1.568821e-04 1.655424e-04 1.619398e-04 1.340555e-04 1.996124e-04 2.288386e-05 1.238983e-05 9.498317e-06 1.188063e-05 2.796083e-05 2.358616e-05 1.652810e-05 2.324320e-05 1.545812e-05 3.170486e-05 1.583302e-05 2.048339e-05
<GCONST> -1.864303e+02
<TRANSP> 5
 0.000000e+00 1.000000e+00 0.000000e+00 0.000000e+00 0.000000e+00
 0.000000e+00 3.880294e-01 6.119705e-01 0.000000e+00 0.000000e+00
 0.000000e+00 0.000000e+00 4.732227e-01 5.267773e-01 0.000000e+00
 0.000000e+00 0.000000e+00 0.000000e+00 8.601416e-01 1.398584e-01
 0.000000e+00 0.000000e+00 0.000000e+00 0.000000e+00 0.000000e+00
<ENDHMM>
~h "Tab0053"
<BEGINHMM>
<NUMSTATES> 5
<STATE> 2
<MEAN> 39
 -4.971195e+02 7.096896e-01 1.093097e-01 2.779153e-01 3.398831e-01 4.422745e-01 3.667673e-01 3.273741e-01 2.595957e-01 2.569917e-01 2.863713e-01 2.683750e-01 2.549682e-01 2.395412e-01 2.432867e-01 4.562161e-03 7.510157e-03 1.075356e-02 6.521201e-03 2.218836e-03 2.658938e-03 2.283999e-03 1.056145e-03 1.472320e-03 2.176706e-03 5.196616e-03 4.534161e-03 2.340837e-04 -7.224079e-04 -1.116520e-03 -7.810892e-04 -7.265259e-04 -2.310862e-04 -3.559680e-04 -1.674315e-04 -1.656362e-04 -4.921305e-04 -7.490119e-04 -4.154297e-04
<VARIANCE> 39
 2.506190e+04 1.372246e+02 7.746907e+00 1.087207e-01 7.460707e-02 1.614414e-01 7.381382e-02 1.296849e-01 7.870638e-02 7.365298e-02 1.194875e-01 6.691903e-02 8.915344e-02 6.790426e-02 8.924489e-02 2.172233e-03 2.091669e-03 5.260380e-03 1.440449e-03 2.267293e-03 1.434255e-03 1.434503e-03 1.745355e-03 1.271590e-03 2.023459e-03 1.347431e-03 1.718331e-03 1.240638e-04 1.215468e-04 2.614674e-04 7.371254e-05 1.148323e-04 6.669256e-05 6.405544e-05 8.766040e-05 7.457483e-05 1.284843e-04 7.438568e-05 9.439826e-05
<GCONST> -1.261843e+02
<STATE> 3
<MEAN> 39
 -4.701214e+02 1.649894e+00 -5.173891e-01 2.790316e-01 3.620787e-01 4.600273e-01 3.996192e-01 3.622875e-01 2.854221e-01 1.921695e-01 1.716770e-01 1.451319e-01 1.415394e-01 1.733155e-01 2.511021e-01 7.300793e-03 -5.235403e-03 -1.332863e-02 -4.936707e-03 -7.617767e-04 -5.438039e-05 2.550917e-04 7.989587e-04 -2.933231e-03 -6.011822e-03 -5.726683e-03 1.439403e-03 7.236555e-04 -9.463845e-04 -1.769833e-03 -1.723605e-03 -8.448146e-04 -2.571052e-04 8.677407e-04 1.661912e-03 1.405374e-03 7.610159e-04 -3.010438e-04 -4.435234e-04
<VARIANCE> 39
 1.939329e+04 1.574139e+02 8.785677e+00 1.159278e-01 8.789699e-02 1.804709e-01 7.948108e-02 1.449824e-01 9.157127e-02 4.680276e-02 7.568394e-02 3.497263e-02 3.673788e-02 4.827092e-02 9.891953e-02 4.009227e-03 2.133845e-03 7.089664e-03 1.548012e-03 3.282353e-03 1.784485e-03 9.924754e-04 9.256985e-04 6.860764e-04 9.128019e-04 1.344702e-03 2.705850e-03 1.154315e-04 1.051083e-04 2.865085e-04 6.984772e-05 1.513923e-04 7.827007e-05 4.675884e-05 4.955238e-05 3.511833e-05 5.597450e-05 6.686051e-05 1.041985e-04
<GCONST> -1.307774e+02
<STATE> 4
<MEAN> 39
 -4.654198e+02 -7.825059e-01 -1.208684e-01 3.410431e-01 3.458521e-01 3.724532e-01 3.611904e-01 3.486534e-01 2.494498e-01 1.673567e-01 1.730315e-01 1.355758e-01 1.117109e-01 1.214640e-01 2.573985e-01 7.836493e-03 2.954821e-04 -6.481516e-03 -5.038394e-03 -1.907591e-03 4.233832e-04 2.586555e-03 3.583309e-03 1.708663e-03 -2.222476e-04 3.458081e-04 4.445806e-03 1.082248e-04 1.063464e-03 1.943953e-03 7.042683e-04 2.908125e-05 4.294954e-04 1.376760e-03 1.733185e-03 1.902654e-03 1.887958e-03 1.257868e-03 2.216245e-04
<VARIANCE> 39
 1.614372e+04 1.421267e+02 7.696020e+00 1.570005e-01 7.426581e-02 1.787694e-01 7.769893e-02 1.495443e-01 7.709868e-02 4.025229e-02 7.774491e-02 3.346730e-02 2.972273e-02 3.223510e-02 8.752665e-02 1.672750e-03 1.366386e-03 4.020277e-03 1.001512e-03 2.370290e-03 1.242417e-03 6.916316e-04 6.445872e-04 4.347445e-04 7.135420e-04 7.550048e-04 1.129232e-03 1.027120e-04 8.330498e-05 2.506913e-04 5.888916e-05 1.447454e-04 7.768560e-05 4.037763e-05 4.259450e-05 3.145846e-05 4.825448e-05 4.110690e-05 6.750963e-05
<GCONST> -1.402094e+02
<TRANSP> 5
 0.000000e+00 1.000000e+00 0.000000e+00 0.000000e+00 0.000000e+00
 0.000000e+00 4.620309e-01 5.379691e-01 0.000000e+00 0.000000e+00
 0.000000e+00 0.000000e+00 2.729289e-01 7.270710e-01 0.000000e+00
 0.000000e+00 0.000000e+00 0.000000e+00 3.281385e-01 6.718615e-01
 0.000000e+00 0.000000e+00 0.000000e+00 0.000000e+00 0.000000e+00
<ENDHMM>
~h "Tab0059"
<BEGINHMM>
<NUMSTATES> 5
<STATE> 2
<MEAN> 39
 -4.731406e+02 1.046887e+00 1.217332e-01 1.522162e-01 1.619351e-01 1.347972e-01 1.026275e-01 9.268232e-02 6.743792e-02 7.727318e-02 2.982336e-01 6.721272e-01 6.153257e-01 2.851236e-01 1.848658e-01 4.875548e-04 9.786861e-04 5.651580e-04 2.672553e-04 1.206329e-04 -2.270746e-04 3.314385e-04 7.014474e-04 -4.145567e-04 -5.888834e-05 -4.125937e-04 -9.436673e-04 1.674355e-04 7.935407e-05 1.759544e-04 2.954193e-04 3.123107e-04 1.440923e-04 -7.765909e-05 1.365893e-04 -9.030479e-05 -5.196929e-04 -1.179347e-04 3.269644e-04
<VARIANCE> 39
 1.936437e+04 1.933793e+02 1.382841e+01 1.276635e-02 5.483177e-02 2.562093e-02 7.595818e-03 1.027899e-02 1.110034e-02 3.365537e-02 5.996779e-02 1.290866e-01 1.168184e-01 4.898497e-02 2.497652e-02 7.171333e-05 3.677421e-04 1.537545e-04 4.368773e-05 4.405372e-05 2.318123e-05 4.169151e-05 6.556964e-05 4.199900e-05 6.524428e-05 1.036520e-04 3.050334e-04 4.737810e-06 1.982566e-05 1.026439e-05 4.464454e-06 5.987950e-06 1.810501e-06 4.515975e-06 5.155209e-06 4.368962e-06 6.251151e-06 7.918565e-06 1.856389e-05
<GCONST> -2.098179e+02
<STATE> 3
<MEAN> 39
 -5.005312e+02 -2.837230e+00 -3.291604e-01 1.375960e-01 1.096249e-01 1.108119e-01 1.099125e-01 1.011620e-01 6.548904e-02 6.269942e-02 2.821593e-01 6.001887e-01 5.197544e-01 2.536591e-01 2.049028e-01 -1.211304e-03 -9.171155e-04 -3.409191e-04 4.507469e-04 8.094712e-05 -6.049287e-04 -1.906272e-03 -2.119017e-03 -1.042187e-03 -1.892080e-03 -1.414891e-03 -1.744781e-03 8.505178e-05 2.804229e-04 2.995705e-05 -1.319374e-04 5.027704e-05 1.112923e-04 4.481996e-05 -1.659390e-05 3.376727e-04 2.423956e-04 1.264190e-04 2.670687e-05
<VARIANCE> 39
 1.984532e+04 1.919877e+02 1.156984e+01 1.502240e-02 5.168004e-02 3.756448e-02 1.777681e-02 1.704254e-02 1.097321e-02 2.584371e-02 6.697262e-02 1.613932e-01 1.246389e-01 4.676247e-02 3.027954e-02 2.356740e-05 3.018895e-05 1.904160e-05 3.128553e-05 9.479491e-05 4.643720e-05 6.897969e-05 1.015296e-04 4.476068e-05 7.102329e-05 5.068504e-05 1.089403e-04 2.755954e-06 3.990803e-06 4.265173e-06 5.442843e-06 8.410207e-06 2.532237e-06 5.744858e-06 7.467324e-06 4.713935e-06 3.067235e-06 7.111560e-06 1.274745e-05
<GCONST> -2.157555e+02
<STATE> 4
<MEAN> 39
 -5.495683e+02 -4.217144e+00 6.892359e-01 1.367946e-01 1.412946e-01 1.611944e-01 1.138934e-01 6.281799e-02 3.856964e-02 3.937212e-02 2.523837e-01 5.287424e-01 4.065261e-01 1.960822e-01 1.872893e-01 8.396194e-04 2.274004e-04 -1.169064e-04 -6.600686e-04 -7.034593e-04 -1.568292e-04 2.746532e-05 2.340698e-05 -5.188516e-04 -8.904826e-04 5.364717e-04 1.559557e-03 1.861306e-04 2.349787e-04 2.359005e-04 2.353973e-04 2.462227e-04 2.348486e-04 4.163676e-04 3.127533e-04 9.808486e-05 2.415018e-04 2.114628e-04 1.909063e-04
<VARIANCE> 39
 1.508973e+04 8.311205e+01 3.445119e+00 1.949024e-02 7.625290e-02 8.249760e-02 2.515906e-02 8.404913e-03 6.302042e-03 1.917884e-02 6.605117e-02 1.902166e-01 1.086335e-01 3.520266e-02 3.374080e-02 2.096082e-05 1.082786e-05 1.666358e-05 1.288869e-05 4.072014e-05 8.901658e-06 6.020864e-05 3.320736e-05 2.023758e-05 3.282655e-05 2.817884e-05 4.655197e-05 1.273684e-06 1.310775e-06 2.713804e-06 5.445080e-06 6.338847e-06 1.248782e-06 3.846968e-06 3.394313e-06 2.963828e-06 2.934632e-06 5.474404e-06 8.880830e-06
<GCONST> -2.325806e+02
<TRANSP> 5
 0.000000e+00 1.000000e+00 0.000000e+00 0.000000e+00 0.000000e+00
 0.000000e+00 6.915944e-01 3.084056e-01 0.000000e+00 0.000000e+00
 0.000000e+00 0.000000e+00 5.176648e-01 4.823352e-01 0.000000e+00
 0.000000e+00 0.000000e+00 0.000000e+00 4.689442e-01 5.310558e-01
 0.000000e+00 0.000000e+00 0.000000e+00 0.000000e+00 0.000000e+00
<ENDHMM>
~h "Tab0060"
<BEGINHMM>
<NUMSTATES> 5
<STATE> 2
<MEAN> 39
 -3.526199e+02 1.699915e+00 2.822375e-01 3.381968e-01 1.731200e-01 1.817637e-01 3.309646e-01 4.215239e-01 3.114983e-01 2.701187e-01 2.690400e-01 2.771316e-01 2.915807e-01 3.628288e-01 4.750665e-01 3.483744e-03 -8.615935e-04 2.842955e-05 3.016403e-03 5.061599e-03 4.018337e-03 2.011670e-03 1.231153e-03 -2.286869e-03 -6.431651e-03 -6.623829e-04 6.878679e-03 2.215408e-04 3.344373e-04 1.381271e-04 -9.583976e-04 -1.639439e-03 -6.636347e-04 3.651185e-04 3.518406e-04 5.802579e-04 1.125696e-03 8.386830e-04 1.615346e-04
<VARIANCE> 39
 1.140698e+04 2.533330e+02 1.847595e+01 8.675238e-02 3.812322e-02 5.507134e-02 8.255104e-02 1.713445e-01 5.602938e-02 7.671309e-02 5.622512e-02 6.273838e-02 8.298250e-02 6.871975e-02 1.473913e-01 2.440022e-03 7.612714e-04 1.132488e-03 2.410415e-03 4.498585e-03 1.312503e-03 1.759041e-03 1.237736e-03 1.790943e-03 2.320583e-03 1.219049e-03 3.628497e-03 1.232799e-04 3.078792e-05 5.948440e-05 1.236501e-04 2.219354e-04 7.001621e-05 9.584279e-05 7.672623e-05 1.202131e-04 1.323274e-04 6.555695e-05 1.963140e-04
<GCONST> -1.283316e+02
<STATE> 3
<MEAN> 39
 -3.289703e+02 1.083414e+00 -2.958270e-01 3.135825e-01 1.591500e-01 1.706901e-01 2.870159e-01 3.375199e-01 2.256147e-01 2.034885e-01 2.685044e-01 3.953990e-01 4.130569e-01 4.221943e-01 4.913355e-01 1.265203e-03 6.446442e-04 -6.608397e-04 -2.474626e-03 -3.105345e-03 -8.622967e-04 1.362818e-03 1.901079e-03 1.395318e-03 4.861625e-04 1.115600e-04 7.102918e-04 -1.676414e-04 -1.453893e-05 -9.855570e-05 -1.880847e-04 -1.772668e-04 -2.488364e-04 -4.635214e-04 -4.956978e-04 -3.081340e-04 -1.779629e-04 -3.577771e-04 -5.279251e-04
<VARIANCE> 39
 9.159532e+03 3.182618e+02 2.427612e+01 6.749102e-02 5.013644e-02 5.012906e-02 8.256472e-02 1.415666e-01 4.684024e-02 3.716352e-02 4.821461e-02 9.790588e-02 1.096230e-01 5.759525e-02 1.633980e-01 1.816971e-03 1.088316e-03 1.308683e-03 2.367880e-03 4.232663e-03 1.442373e-03 9.224879e-04 1.295087e-03 3.177522e-03 3.629901e-03 1.550913e-03 4.246195e-03 7.517844e-05 5.097891e-05 6.983696e-05 1.129321e-04 1.791268e-04 6.689203e-05 5.663818e-05 8.054345e-05 1.697303e-04 1.757775e-04 7.752839e-05 1.885000e-04
<GCONST> -1.275800e+02
<STATE> 4
<MEAN> 39
 -3.470782e+02 -1.127251e+00 -3.472228e-01 3.009129e-01 1.513087e-01 1.738319e-01 3.113180e-01 3.908985e-01 3.330609e-01 3.117844e-01 2.747079e-01 2.945896e-01 3.246331e-01 3.855693e-01 4.683748e-01 6.081257e-04 -3.235800e-04 -8.956210e-04 -3.884543e-03 -4.577318e-03 1.012160e-03 2.297611e-03 -8.819998e-04 -4.356774e-03 -5.185823e-03 -1.864285e-03 1.122500e-03 -4.001311e-06 2.520792e-04 4.454268e-04 -3.880072e-04 -1.561410e-03 -1.491528e-03 -1.139231e-03 -8.647155e-04 3.968483e-04 1.505909e-03 9.958929e-04 -6.857805e-05
<VARIANCE> 39
 1.135059e+04 1.813862e+02 1.296968e+01 6.436122e-02 2.530858e-02 4.777844e-02 7.565167e-02 1.518854e-01 6.742889e-02 9.646193e-02 5.517851e-02 7.195091e-02 1.014210e-01 6.205516e-02 1.573605e-01 1.070423e-03 2.070016e-04 8.016293e-04 2.377894e-03 3.467211e-03 1.395047e-03 1.907129e-03 1.263362e-03 2.327312e-03 2.952618e-03 1.097511e-03 3.445199e-03 5.978635e-05 1.576549e-05 5.340959e-05 1.434655e-04 1.999187e-04 8.251230e-05 1.125877e-04 7.515382e-05 1.105501e-04 1.471398e-04 5.069777e-05 1.771584e-04
<GCONST> -1.331128e+02
<TRANSP> 5
 0.000000e+00 1.000000e+00 0.000000e+00 0.000000e+00 0.000000e+00
 0.000000e+00 6.462072e-01 3.537928e-01 0.000000e+00 0.000000e+00
 0.000000e+00 0.000000e+00 7.513477e-01 2.486523e-01 0.000000e+00
 0.000000e+00 0.000000e+00 0.000000e+00 4.132898e-01 5.867102e-01
 0.000000e+00 0.000000e+00 0.000000e+00 0.000000e+00 0.000000e+00
<ENDHMM>
~h "Tab0061"
<BEGINHMM>
<NUMSTATES> 5
<STATE> 2
<MEAN> 39
 -4.448441e+02 1.762569e+00 4.764701e-01 2.152639e-01 2.743294e-01 2.522584e-01 2.391418e-01 3.338402e-01 3.916748e-01 4.264443e-01 3.414347e-01 3.727795e-01 4.942293e-01 3.385603e-01 1.921452e-01 4.579668e-03 5.909355e-03 3.979069e-03 5.421732e-03 7.294367e-03 1.714173e-03 -3.878236e-03 -5.913096e-03 5.985613e-03 1.641988e-02 1.213246e-02 4.785771e-03 5.540699e-04 9.073009e-04 1.704735e-03 4.065843e-04 -1.924509e-03 -2.101769e-03 -8.603627e-04 7.233886e-04 5.856047e-04 -4.519393e-04 6.542663e-05 9.567374e-04
<VARIANCE> 39
 1.961733e+04 2.309580e+02 1.821709e+01 6.048217e-02 7.221501e-02 7.958299e-02 4.275304e-02 8.347312e-02 7.955225e-02 1.390453e-01 8.856635e-02 5.682582e-02 1.600367e-01 7.280447e-02 5.628601e-02 1.176045e-03 1.793709e-03 1.771580e-03 9.227833e-04 1.912245e-03 1.344546e-03 2.421546e-03 2.736888e-03 1.605156e-03 4.424005e-03 1.483505e-03 1.038353e-03 6.304056e-05 1.036577e-04 1.033200e-04 6.126846e-05 1.124566e-04 7.809473e-05 1.259573e-04 1.145044e-04 9.478573e-05 2.390765e-04 8.390044e-05 6.266469e-05
<GCONST> -1.282423e+02
<STATE> 3
<MEAN> 39
 -4.509292e+02 3.487747e+00 -6.673237e-01 2.500914e-01 3.155121e-01 3.000520e-01 2.843260e-01 3.717207e-01 2.958295e-01 2.127732e-01 2.319075e-01 4.174773e-01 5.987307e-01 4.095907e-01 2.101856e-01 -1.643030e-03 1.339427e-04 -2.747409e-03 -1.015023e-03 -3.841706e-06 -4.867072e-03 -1.239024e-02 -1.525096e-02 -4.847577e-04 1.104975e-02 6.754347e-03 -9.848585e-04 -4.735639e-04 -8.213476e-04 4.928791e-04 -2.800353e-04 -1.993562e-03 -8.799770e-04 1.238238e-03 1.647092e-03 -1.564248e-03 -3.967760e-03 -1.914974e-03 5.708524e-04
<VARIANCE> 39
 2.006213e+04 2.337884e+02 1.541362e+01 8.032417e-02 7.604946e-02 1.038256e-01 4.074314e-02 9.363767e-02 6.404852e-02 5.467256e-02 7.805464e-02 6.787001e-02 1.635658e-01 6.873032e-02 4.958762e-02 1.840363e-03 2.369541e-03 3.103887e-03 1.373326e-03 2.620245e-03 1.517312e-03 1.653222e-03 3.195816e-03 2.287913e-03 6.025866e-03 2.575697e-03 1.442025e-03 8.234174e-05 1.504580e-04 1.990605e-04 8.861275e-05 1.562389e-04 7.314861e-05 5.643977e-05 1.478399e-04 1.093816e-04 2.761897e-04 1.237039e-04 6.817281e-05
<GCONST> -1.233901e+02
<STATE> 4
<MEAN> 39
 -4.875820e+02 6.517699e-01 7.430435e-01 1.449485e-01 1.847756e-01 1.267481e-01 1.991784e-01 3.448404e-01 2.352301e-01 1.431378e-01 1.492177e-01 5.065081e-01 8.796998e-01 5.088885e-01 1.554464e-01 5.501304e-04 -3.297552e-04 4.496288e-03 -1.642422e-03 -1.038870e-02 -5.263725e-03 5.766281e-03 9.819339e-03 -1.078832e-05 -9.399559e-03 -3.203793e-04 7.241050e-03 1.152158e-03 1.656425e-03 3.723098e-03 2.139414e-03 2.172775e-04 7.771712e-04 3.667613e-03 6.289006e-03 -7.865907e-04 -7.715115e-03 -2.684522e-03 2.390325e-03
<VARIANCE> 39
 1.014524e+04 1.729527e+02 9.709936e+00 2.971590e-02 2.860940e-02 2.900166e-02 1.447484e-02 3.540362e-02 2.596759e-02 2.662494e-02 2.896155e-02 2.597232e-02 8.467751e-02 2.465516e-02 1.920296e-02 4.421012e-04 8.162710e-04 9.481638e-04 5.515144e-04 1.244044e-03 6.157368e-04 9.002979e-04 2.135425e-03 5.225537e-04 2.354886e-03 5.503704e-04 8.630382e-04 2.083371e-05 4.049890e-05 4.269066e-05 2.882238e-05 7.147557e-05 3.516887e-05 4.703093e-05 1.055777e-04 3.434439e-05 1.129116e-04 3.338023e-05 3.900090e-05
<GCONST> -1.593217e+02
<TRANSP> 5
 0.000000e+00 1.000000e+00 0.000000e+00 0.000000e+00 0.000000e+00
 0.000000e+00 5.509070e-01 4.490930e-01 0.000000e+00 0.000000e+00
 0.000000e+00 0.000000e+00 4.930577e-01 5.069423e-01 0.000000e+00
 0.000000e+00 0.000000e+00 0.000000e+00 7.491839e-01 2.508161e-01
 0.000000e+00 0.000000e+00 0.000000e+00 0.000000e+00 0.000000e+00
<ENDHMM>
~h "Tab0062"
<BEGINHMM>
<NUMSTATES> 5
<STATE> 2
<MEAN> 39
 -5.341484e+02 7.542852e-01 1.889220e-01 3.428531e-01 3.779738e-01 4.499386e-01 4.684269e-01 4.468799e-01 2.598697e-01 1.211698e-01 1.180297e-01 1.117257e-01 1.214661e-01 1.654923e-01 2.919711e-01 -1.308819e-02 -4.563935e-03 1.236549e-03 1.041392e-02 1.782439e-02 1.123649e-02 2.125127e-03 1.276587e-04 1.140049e-03 3.624205e-04 -3.920374e-03 -1.110028e-02 -1.642659e-04 -5.642902e-04 -8.409574e-04 -4.879124e-04 2.916299e-04 6.588461e-04 5.326199e-04 5.168418e-04 5.781314e-04 4.109364e-04 2.290864e-04 1.285875e-04
<VARIANCE> 39
 1.109518e+04 1.745742e+02 1.004645e+01 1.387584e-01 8.518428e-02 1.758313e-01 8.885327e-02 1.618940e-01 5.798876e-02 2.034455e-02 3.166818e-02 2.756582e-02 3.537549e-02 4.880635e-02 1.079776e-01 3.557697e-03 2.660967e-03 5.901504e-03 1.753303e-03 3.717084e-03 1.449743e-03 5.968396e-04 6.796620e-04 9.139824e-04 1.168012e-03 1.536046e-03 3.088368e-03 1.886707e-04 1.446989e-04 3.129843e-04 7.784928e-05 1.732316e-04 7.276843e-05 4.316112e-05 4.914093e-05 6.337387e-05 8.623563e-05 9.339744e-05 1.731627e-04
<GCONST> -1.303063e+02
<STATE> 3
<MEAN> 39
 -4.728637e+02 1.887500e+00 -2.224310e-01 3.174218e-01 2.709566e-01 2.590772e-01 3.745510e-01 5.436540e-01 4.152241e-01 2.484864e-01 2.586561e-01 1.992070e-01 1.314883e-01 1.646858e-01 2.582874e-01 7.900807e-03 2.383500e-03 -4.081900e-03 -9.473715e-03 -1.243878e-02 -6.766389e-03 -2.639127e-03 -1.442355e-03 -2.556511e-03 -3.594510e-03 -2.134086e-03 3.016583e-03 1.280094e-03 2.743632e-04 -8.862254e-04 -1.682085e-03 -3.089205e-03 -3.260765e-03 -1.516539e-03 -6.424968e-04 -5.993074e-04 -3.421232e-04 -4.982713e-04 3.091844e-04
<VARIANCE> 39
 1.745327e+04 1.372715e+02 7.863484e+00 1.195467e-01 6.718924e-02 9.770031e-02 7.791977e-02 1.722701e-01 1.123133e-01 4.984571e-02 1.016395e-01 4.968659e-02 3.348729e-02 4.886605e-02 7.686716e-02 4.274936e-03 2.608854e-03 3.079024e-03 2.325314e-03 6.380158e-03 3.780851e-03 1.999361e-03 3.859389e-03 1.796866e-03 9.966133e-04 1.103656e-03 2.081383e-03 2.061875e-04 1.249392e-04 1.524084e-04 1.198762e-04 3.103211e-04 1.654053e-04 1.065605e-04 2.160279e-04 9.802266e-05 5.228795e-05 5.363622e-05 9.347452e-05
<GCONST> -1.222234e+02
<STATE> 4
<MEAN> 39
 -5.177565e+02 -1.605915e+00 -2.668241e-01 2.189008e-01 3.216144e-01 4.850776e-01 4.331726e-01 3.394363e-01 2.153880e-01 9.618979e-02 8.349369e-02 6.914736e-02 7.479125e-02 9.667473e-02 1.871683e-01 7.137533e-04 5.189084e-03 8.132497e-03 1.825239e-04 -7.289873e-03 -5.260408e-03 -1.179339e-03 4.430961e-04 9.683688e-04 1.142240e-03 2.476024e-04 -4.776280e-04 6.046184e-04 5.804657e-04 4.747891e-04 9.190578e-04 1.752111e-03 1.658666e-03 1.293011e-03 1.134586e-03 1.135859e-03 1.326354e-03 1.713508e-03 1.129827e-03
<VARIANCE> 39
 7.430137e+03 7.179984e+01 4.147153e+00 1.120792e-01 6.546824e-02 2.116207e-01 7.186648e-02 1.736645e-01 6.451185e-02 1.958938e-02 3.328559e-02 1.641200e-02 1.726508e-02 2.647064e-02 9.090771e-02 5.467109e-04 1.194072e-03 2.891212e-03 5.860113e-04 2.607774e-03 1.019474e-03 2.629776e-04 1.547084e-04 1.740153e-04 2.853599e-04 2.688878e-04 4.739089e-04 4.889883e-05 7.003456e-05 1.648178e-04 3.459759e-05 1.590355e-04 6.936677e-05 2.012387e-05 2.330089e-05 1.680129e-05 2.137542e-05 2.332458e-05 4.148178e-05
<GCONST> -1.596998e+02
<TRANSP> 5
 0.000000e+00 1.000000e+00 0.000000e+00 0.000000e+00 0.000000e+00
 0.000000e+00 7.833591e-01 2.166409e-01 0.000000e+00 0.000000e+00
 0.000000e+00 0.000000e+00 6.869029e-01 3.130971e-01 0.000000e+00
 0.000000e+00 0.000000e+00 0.000000e+00 6.870975e-01 3.129024e-01
 0.000000e+00 0.000000e+00 0.000000e+00 0.000000e+00 0.000000e+00
<ENDHMM>
~h "Tab0063"
<BEGINHMM>
<NUMSTATES> 5
<STATE> 2
<MEAN> 39
 -3.883633e+02 6.234872e+00 8.164284e-01 3.149595e-01 1.314162e-01 1.849289e-01 3.481874e-01 3.517340e-01 2.692465e-01 2.551940e-01 1.959725e-01 1.750230e-01 1.930466e-01 3.573629e-01 4.986751e-01 -3.178538e-04 2.947089e-03 -1.005279e-03 -4.748678e-03 2.673615e-04 9.887572e-03 1.592606e-02 8.565979e-03 2.997466e-04 1.982531e-03 1.534395e-03 -1.832207e-03 -2.035243e-05 4.163902e-04 -4.306105e-04 -1.436284e-03 -5.867688e-04 8.814193e-04 1.504670e-03 1.225347e-03 1.000071e-03 1.064724e-03 3.513139e-04 -1.592249e-04
<VARIANCE> 39
 1.958765e+04 3.290405e+02 2.300374e+01 6.942257e-02 3.171071e-02 4.565882e-02 1.308095e-01 1.301694e-01 6.728720e-02 8.970264e-02 4.122211e-02 4.890256e-02 4.824185e-02 7.465310e-02 1.909359e-01 1.193506e-03 1.647170e-04 7.352003e-04 2.956508e-03 3.975029e-03 1.700015e-03 2.847610e-03 1.475959e-03 1.700261e-03 1.283252e-03 8.758273e-04 3.756040e-03 6.616966e-05 2.196177e-05 7.087507e-05 1.989345e-04 1.933164e-04 8.539110e-05 1.318839e-04 5.978493e-05 8.952371e-05 8.228038e-05 4.055590e-05 2.084005e-04
<GCONST> -1.321310e+02
<STATE> 3
<MEAN> 39
 -3.404284e+02 4.400681e+00 -2.337485e-01 3.044505e-01 2.264798e-01 2.093122e-01 2.590383e-01 2.829139e-01 3.266807e-01 3.700960e-01 3.382975e-01 3.746894e-01 3.612388e-01 3.630411e-01 3.878294e-01 -4.773830e-03 -7.677731e-03 -1.170128e-04 7.212190e-03 5.560557e-03 3.819817e-03 4.524755e-03 2.152157e-03 -1.929664e-03 -3.878912e-05 2.990641e-03 1.991249e-03 -2.808852e-04 -3.413784e-04 -1.440122e-05 7.742664e-04 5.831241e-04 -1.850147e-04 -4.091475e-04 -1.580526e-05 -3.796044e-06 -2.754637e-04 -1.722907e-04 -9.385913e-06
<VARIANCE> 39
 1.640722e+04 3.072314e+02 1.969633e+01 8.285189e-02 8.677557e-02 5.229612e-02 9.389199e-02 7.879955e-02 8.332391e-02 9.980215e-02 7.158442e-02 1.176863e-01 9.040675e-02 8.195728e-02 1.396766e-01 1.824115e-03 1.784642e-03 1.211114e-03 4.018974e-03 2.641529e-03 1.981532e-03 2.742274e-03 1.738989e-03 3.410977e-03 2.656314e-03 2.168925e-03 2.940892e-03 8.397680e-05 8.298580e-05 7.494979e-05 1.675064e-04 1.372016e-04 1.096554e-04 1.350880e-04 9.628351e-05 2.201915e-04 1.646086e-04 1.164100e-04 1.379822e-04
<GCONST> -1.202220e+02
<STATE> 4
<MEAN> 39
 -4.366600e+02 1.085609e+00 -1.983500e-01 4.312618e-01 3.244660e-01 1.466627e-01 1.507024e-01 2.785660e-01 4.065862e-01 3.558348e-01 3.159331e-01 3.526807e-01 2.345489e-01 1.555244e-01 2.990302e-01 1.779224e-03 3.784840e-03 2.020387e-03 5.075349e-04 1.294078e-03 -4.909590e-04 -2.788569e-03 -8.607621e-04 1.338002e-03 8.715054e-04 7.676318e-04 6.595408e-04 -4.308119e-05 4.744179e-05 6.760017e-05 6.360043e-05 -8.712329e-05 -3.604490e-04 -4.137853e-04 -1.427307e-04 1.365549e-04 1.351949e-04 1.956360e-05 -6.243683e-05
<VARIANCE> 39
 9.011241e+03 3.143041e+02 2.141191e+01 1.271910e-01 9.841610e-02 2.934147e-02 2.237432e-02 4.760019e-02 1.217133e-01 1.016645e-01 3.832832e-02 1.278446e-01 3.846124e-02 2.052326e-02 7.563186e-02 4.165679e-03 3.128665e-03 1.005957e-03 6.814372e-04 1.431018e-03 3.983412e-03 2.802594e-03 1.145155e-03 4.190491e-03 1.301966e-03 1.903917e-04 2.015915e-03 2.335919e-04 1.519920e-04 4.667848e-05 3.501777e-05 7.993547e-05 1.949756e-04 1.271575e-04 5.672213e-05 2.153546e-04 6.533544e-05 1.018927e-05 1.139531e-04
<GCONST> -1.344137e+02
<TRANSP> 5
 0.000000e+00 1.000000e+00 0.000000e+00 0.000000e+00 0.000000e+00
 0.000000e+00 3.132991e-01 6.867009e-01 0.000000e+00 0.000000e+00
 0.000000e+00 0.000000e+00 5.836369e-01 4.163631e-01 0.000000e+00
 0.000000e+00 0.000000e+00 0.000000e+00 8.652551e-01 1.347449e-01
 0.000000e+00 0.000000e+00 0.000000e+00 0.000000e+00 0.000000e+00
<ENDHMM>
~h "Tab0064"
<BEGINHMM>
<NUMSTATES> 5
<STATE> 2
<MEAN> 39
 -5.349546e+02 2.735975e-01 6.189391e-01 2.823764e-01 3.606847e-01 4.828455e-01 4.958549e-01 5.055439e-01 3.436938e-01 2.512592e-01 2.930430e-01 2.667441e-01 2.197990e-01 2.374384e-01 2.994428e-01 7.075848e-03 3.592480e-04 -4.628593e-03 3.045443e-03 1.134985e-02 7.878692e-03 2.435667e-03 9.420370e-04 4.834014e-03 8.196287e-03 9.833802e-03 9.501630e-03 1.338848e-04 -6.243152e-04 -1.292978e-03 -1.521413e-03 -1.985141e-03 -1.472677e-03 -8.548949e-04 -8.983595e-04 -5.926535e-04 -9.784126e-06 -4.575815e-05 -8.137594e-05
<VARIANCE> 39
 2.470391e+04 3.098872e+02 1.919451e+01 8.786076e-02 9.092498e-02 1.569985e-01 6.866015e-02 1.567613e-01 5.850076e-02 5.731710e-02 9.882183e-02 7.589811e-02 5.740748e-02 6.056906e-02 1.047386e-01 2.580123e-03 2.600945e-03 4.742349e-03 1.222669e-03 3.099540e-03 1.289833e-03 1.128839e-03 1.545882e-03 1.393372e-03 1.312997e-03 1.520607e-03 2.745781e-03 1.311113e-04 1.324729e-04 2.391841e-04 6.173805e-05 1.432919e-04 7.503782e-05 7.166690e-05 9.226052e-05 8.949105e-05 7.632060e-05 8.155629e-05 1.472422e-04
<GCONST> -1.246162e+02
<STATE> 3
<MEAN> 39
 -5.148848e+02 2.516852e+00 -4.184756e-01 4.565522e-01 4.468357e-01 4.591893e-01 4.120366e-01 3.988565e-01 3.359872e-01 3.624843e-01 3.906109e-01 3.021367e-01 2.773421e-01 3.532475e-01 4.723867e-01 2.960709e-03 -1.524833e-03 -5.819652e-03 -6.134308e-03 -6.985568e-03 -5.114426e-03 -3.744895e-03 -4.156556e-03 -4.471625e-03 -4.952895e-03 -4.999151e-03 -7.160504e-04 -7.872457e-04 -6.429248e-04 -2.395471e-04 -1.035049e-04 -1.127366e-06 -1.535788e-04 -1.901238e-04 -9.302421e-05 -5.794564e-04 -1.079115e-03 -1.116611e-03 -8.062646e-04
<VARIANCE> 39
 2.364459e+04 6.161747e+02 3.224161e+01 1.176893e-01 9.463160e-02 1.416526e-01 6.447696e-02 1.232473e-01 4.777421e-02 6.409355e-02 9.259576e-02 6.677175e-02 7.897212e-02 7.878406e-02 1.190603e-01 3.463269e-03 1.952343e-03 2.023744e-03 1.608694e-03 4.204244e-03 1.693078e-03 1.474471e-03 2.619121e-03 1.648709e-03 1.944747e-03 1.705227e-03 2.648299e-03 1.636627e-04 9.123991e-05 9.026060e-05 8.206351e-05 2.039443e-04 8.542059e-05 7.175354e-05 1.346667e-04 8.565814e-05 9.316059e-05 8.740744e-05 1.203134e-04
<GCONST> -1.216172e+02
<STATE> 4
<MEAN> 39
 -4.932819e+02 -2.611389e+00 2.488852e-01 3.326435e-01 2.441708e-01 2.760811e-01 4.382629e-01 5.965821e-01 3.900857e-01 2.753523e-01 3.475071e-01 2.680846e-01 1.839065e-01 2.515947e-01 4.040760e-01 7.971050e-04 -4.460733e-04 -6.507764e-04 -7.812729e-04 -5.393836e-04 -2.463942e-04 -1.757013e-04 8.300785e-05 -4.775332e-04 -6.862649e-04 -6.700496e-04 3.701221e-04 5.839636e-04 1.611314e-03 2.326777e-03 1.336502e-03 -7.121422e-05 3.822208e-04 1.009057e-03 1.170184e-03 1.286114e-03 1.368447e-03 1.132030e-03 2.631586e-04
<VARIANCE> 39
 1.858093e+04 2.458475e+02 1.669212e+01 8.285978e-02 7.781871e-02 9.662662e-02 7.322138e-02 1.704024e-01 5.420732e-02 6.283388e-02 1.071840e-01 5.700811e-02 5.723753e-02 4.669257e-02 1.139961e-01 4.852031e-04 7.436224e-04 1.645308e-03 5.389544e-04 1.081391e-03 6.438544e-04 6.525241e-04 5.912583e-04 4.183420e-04 4.206836e-04 4.405733e-04 7.285161e-04 4.546827e-05 5.846064e-05 1.305003e-04 3.621243e-05 1.047341e-04 5.508127e-05 4.772389e-05 5.080621e-05 4.227285e-05 4.977555e-05 4.077779e-05 6.423759e-05
<GCONST> -1.464990e+02
<TRANSP> 5
 0.000000e+00 1.000000e+00 0.000000e+00 0.000000e+00 0.000000e+00
 0.000000e+00 7.565459e-01 2.434541e-01 0.000000e+00 0.000000e+00
 0.000000e+00 0.000000e+00 8.458085e-01 1.541915e-01 0.000000e+00
 0.000000e+00 0.000000e+00 0.000000e+00 6.709485e-01 3.290515e-01
 0.000000e+00 0.000000e+00 0.000000e+00 0.000000e+00 0.000000e+00
<ENDHMM>
~h "Tab0066"
<BEGINHMM>
<NUMSTATES> 5
<STATE> 2
<MEAN> 39
 -4.711300e+02 4.579941e-01 5.815196e-01 3.012598e-01 3.433177e-01 4.486255e-01 4.218904e-01 4.432392e-01 3.837985e-01 3.184944e-01 3.126434e-01 2.858787e-01 2.666320e-01 2.654138e-01 3.172906e-01 6.176496e-03 1.304429e-02 1.968269e-02 8.773299e-03 -3.070697e-04 4.072641e-03 9.226842e-03 8.752151e-03 8.685069e-03 7.862207e-03 6.395384e-03 5.530176e-03 -1.892090e-04 9.521778e-05 -1.406877e-04 -1.166463e-03 -1.917680e-03 -8.571699e-04 -2.665791e-04 -5.300650e-04 -7.345953e-04 -4.136678e-04 -7.752542e-04 -8.608735e-04
<VARIANCE> 39
 2.699492e+04 3.040190e+02 1.634288e+01 9.695168e-02 6.700909e-02 1.488528e-01 6.651317e-02 1.381205e-01 8.434634e-02 8.040112e-02 1.060511e-01 7.319156e-02 8.145875e-02 6.509212e-02 1.061928e-01 1.818866e-03 1.561577e-03 4.295548e-03 1.335845e-03 3.946119e-03 2.450914e-03 1.467043e-03 1.693274e-03 1.369804e-03 1.722715e-03 1.121845e-03 2.105081e-03 9.630604e-05 7.526171e-05 2.157872e-04 7.391629e-05 1.926699e-04 1.432407e-04 8.370521e-05 9.306122e-05 7.329418e-05 8.974839e-05 5.966983e-05 1.090899e-04
<GCONST> -1.242408e+02
<STATE> 3
<MEAN> 39
 -4.514050e+02 3.323871e+00 -4.317548e-01 4.020683e-01 4.628454e-01 5.539011e-01 4.245517e-01 3.606429e-01 3.604057e-01 3.726289e-01 4.397369e-01 4.108818e-01 3.669488e-01 3.224925e-01 3.620362e-01 -4.227270e-03 -4.237350e-03 -4.692231e-03 -4.454930e-03 -4.850014e-03 -2.518679e-03 -1.919476e-03 -3.229657e-03 -5.119926e-03 -5.175069e-03 -6.313972e-03 -5.981679e-03 -7.270717e-04 -1.484714e-03 -1.445599e-03 -6.185450e-04 -2.499466e-06 -3.848467e-04 -8.768877e-04 -1.108574e-03 -1.029337e-03 -7.276479e-04 -5.174258e-04 -2.081526e-04
<VARIANCE> 39
 4.072763e+04 7.926758e+02 4.331278e+01 1.251095e-01 6.090030e-02 1.363659e-01 6.091471e-02 8.210297e-02 7.950038e-02 6.915203e-02 1.179880e-01 7.959592e-02 8.430064e-02 6.371044e-02 9.514249e-02 3.294809e-03 1.501089e-03 3.824907e-03 1.581720e-03 2.730675e-03 2.797737e-03 1.686179e-03 2.594157e-03 2.004340e-03 2.502595e-03 1.833922e-03 2.943448e-03 1.459495e-04 8.012347e-05 1.790254e-04 7.637758e-05 1.251779e-04 1.329207e-04 8.267062e-05 1.349880e-04 1.101907e-04 1.229399e-04 8.732969e-05 1.404418e-04
<GCONST> -1.184972e+02
<STATE> 4
<MEAN> 39
 -4.304918e+02 -1.838358e+00 -3.080425e-01 2.493053e-01 4.613792e-01 6.259736e-01 4.474669e-01 3.252426e-01 3.392843e-01 3.667136e-01 3.169222e-01 2.623018e-01 2.861807e-01 2.125170e-01 2.059389e-01 1.578517e-03 -1.033753e-03 -3.010927e-03 -1.558890e-03 2.452099e-03 1.143373e-03 -3.708813e-04 -4.620993e-04 -1.003725e-03 -1.474292e-03 -6.795303e-04 1.666124e-03 9.851255e-04 1.715145e-04 -8.932528e-04 4.735349e-04 2.265844e-03 1.416847e-03 4.331835e-04 4.347523e-04 6.232659e-04 6.642808e-04 1.123938e-03 1.249923e-03
<VARIANCE> 39
 1.921954e+04 2.085160e+02 1.429746e+01 8.569177e-02 7.236841e-02 1.716066e-01 5.646103e-02 8.901115e-02 6.963085e-02 6.447023e-02 9.012177e-02 4.616911e-02 6.972229e-02 3.634275e-02 5.779412e-02 8.533364e-04 8.602400e-04 1.610042e-03 6.587319e-04 2.161244e-03 9.400613e-04 5.408956e-04 5.431444e-04 5.526150e-04 9.840993e-04 5.492641e-04 6.973740e-04 6.088695e-05 5.212662e-05 1.073309e-04 3.334730e-05 1.193905e-04 5.610555e-05 3.426886e-05 3.408077e-05 3.788929e-05 6.546930e-05 3.232176e-05 4.390781e-05
<GCONST> -1.461368e+02
<TRANSP> 5
 0.000000e+00 1.000000e+00 0.000000e+00 0.000000e+00 0.000000e+00
 0.000000e+00 6.678188e-01 3.321812e-01 0.000000e+00 0.000000e+00
 0.000000e+00 0.000000e+00 8.174755e-01 1.825245e-01 0.000000e+00
 0.000000e+00 0.000000e+00 0.000000e+00 6.733413e-01 3.266588e-01
 0.000000e+00 0.000000e+00 0.000000e+00 0.000000e+00 0.000000e+00
<ENDHMM>
~h "Tab0068"
<BEGINHMM>
<NUMSTATES> 5
<STATE> 2
<MEAN> 39
 -3.876437e+02 2.200945e+00 5.747865e-01 3.968931e-01 5.451831e-01 3.805242e-01 2.073006e-01 2.681173e-01 3.503892e-01 4.034250e-01 4.170637e-01 4.668820e-01 3.330703e-01 1.777268e-01 1.887002e-01 5.742279e-04 4.018065e-03 7.433773e-03 3.700425e-03 6.378604e-03 1.237123e-02 1.407848e-02 1.088672e-02 4.401716e-03 5.467316e-04 3.611639e-04 -2.744888e-03 -2.583208e-03 -2.730938e-03 -2.207454e-03 -1.474712e-03 -1.607960e-03 -1.281772e-03 1.371116e-03 1.191044e-03 -3.702790e-04 -7.849644e-04 -7.478326e-04 -1.345706e-03
<VARIANCE> 39
 1.085629e+04 1.025281e+02 4.918942e+00 7.845298e-02 1.515631e-01 8.119060e-02 2.825056e-02 5.515603e-02 8.182597e-02 1.082429e-01 6.866258e-02 1.144835e-01 6.299976e-02 3.413574e-02 5.214754e-02 2.654770e-03 3.606627e-03 2.225983e-03 8.262139e-04 1.939536e-03 2.520759e-03 2.199543e-03 1.495957e-03 2.601941e-03 1.308943e-03 6.070168e-04 1.190000e-03 1.732814e-04 2.053922e-04 1.208348e-04 5.499987e-05 1.376644e-04 1.430303e-04 8.660096e-05 7.502310e-05 1.298371e-04 6.976279e-05 2.859853e-05 6.985786e-05
<GCONST> -1.323551e+02
<STATE> 3
<MEAN> 39
 -3.167803e+02 1.497093e+00 -9.881880e-01 2.874417e-01 4.769293e-01 3.069786e-01 1.561951e-01 2.451549e-01 4.512019e-01 6.348695e-01 5.345627e-01 4.380283e-01 3.134476e-01 1.465848e-01 1.011536e-01 -8.473267e-03 -1.041955e-02 -1.015411e-02 -7.979189e-03 -1.108970e-02 -1.283194e-02 -4.217203e-04 1.122440e-04 -4.410510e-03 -5.163452e-03 -5.282899e-03 -5.905744e-03 1.339183e-03 1.639942e-03 6.849628e-04 -3.270655e-05 -6.599702e-04 -2.424489e-03 -3.458002e-03 -3.316930e-03 -1.287605e-03 3.484493e-04 1.639924e-04 4.085239e-04
<VARIANCE> 39
 8.051782e+03 1.584294e+02 9.131105e+00 5.817775e-02 1.506524e-01 5.455543e-02 1.445951e-02 2.994749e-02 8.693393e-02 1.264922e-01 5.341913e-02 1.093699e-01 7.035807e-02 2.970699e-02 2.048799e-02 1.241664e-03 2.609633e-03 1.178031e-03 5.492588e-04 9.675369e-04 2.203413e-03 4.143236e-03 1.748159e-03 2.474055e-03 1.342104e-03 4.254587e-04 4.598206e-04 6.324888e-05 1.065345e-04 5.032313e-05 2.962313e-05 5.777607e-05 1.510927e-04 2.634127e-04 1.135029e-04 9.968153e-05 5.952620e-05 2.021438e-05 2.785698e-05
<GCONST> -1.422625e+02
<STATE> 4
<MEAN> 39
 -3.645823e+02 -1.681930e+00 3.133868e-01 2.725450e-01 4.533923e-01 2.731590e-01 1.004772e-01 1.267135e-01 1.470521e-01 2.064727e-01 3.120866e-01 4.858388e-01 4.307725e-01 1.886541e-01 9.040415e-02 4.055274e-04 2.693869e-04 8.313544e-04 7.841344e-04 5.325679e-04 4.595493e-04 -3.938016e-03 -4.796731e-03 -3.490052e-04 2.366713e-03 1.556838e-03 6.793895e-04 5.799721e-04 4.831940e-04 5.621170e-04 7.052677e-04 9.892749e-04 1.279863e-03 6.401817e-04 7.860994e-04 9.398914e-04 5.579992e-04 3.103597e-04 5.356821e-04
<VARIANCE> 39
 1.299227e+04 1.002959e+02 6.691804e+00 7.581797e-02 2.146022e-01 6.883149e-02 6.711833e-03 1.118826e-02 2.155011e-02 6.711648e-02 4.677816e-02 1.354584e-01 1.228487e-01 3.997773e-02 1.398951e-02 2.247490e-04 2.141650e-04 1.951409e-04 1.615249e-04 3.163955e-04 3.963212e-04 4.558743e-04 5.058052e-04 8.240878e-04 5.792562e-04 2.656379e-04 2.229600e-04 1.915569e-05 1.601262e-05 1.426662e-05 1.214761e-05 2.340805e-05 3.166123e-05 3.275059e-05 3.054713e-05 5.567770e-05 3.644721e-05 1.788835e-05 1.618102e-05
<GCONST> -1.744173e+02
<TRANSP> 5
 0.000000e+00 1.000000e+00 0.000000e+00 0.000000e+00 0.000000e+00
 0.000000e+00 6.958233e-01 3.041767e-01 0.000000e+00 0.000000e+00
 0.000000e+00 0.000000e+00 7.064542e-01 2.935458e-01 0.000000e+00
 0.000000e+00 0.000000e+00 0.000000e+00 8.825310e-01 1.174690e-01
 0.000000e+00 0.000000e+00 0.000000e+00 0.000000e+00 0.000000e+00
<ENDHMM>
~h "Tab0072"
<BEGINHMM>
<NUMSTATES> 5
<STATE> 2
<MEAN> 39
 -2.911966e+02 2.798313e-01 -1.294484e-01 4.341690e-01 3.103651e-01 2.906158e-01 3.565566e-01 4.428747e-01 3.536930e-01 3.657300e-01 3.868992e-01 3.813093e-01 4.274754e-01 4.410550e-01 5.238789e-01 4.012335e-03 -1.206165e-03 -3.949383e-03 8.569844e-05 4.282382e-03 2.371894e-03 -1.270051e-03 -2.157285e-03 -3.815988e-03 -6.891776e-03 -1.534332e-03 5.269516e-03 2.431542e-04 -3.542256e-04 -5.870977e-04 -6.804705e-04 -6.803475e-04 -4.801413e-04 -6.551043e-04 -5.780761e-04 -5.807794e-04 -8.123692e-04 -4.250119e-04 3.167649e-04
<VARIANCE> 39
 6.622430e+03 6.773270e+01 4.051458e+00 9.824906e-02 4.916595e-02 7.164693e-02 4.314093e-02 1.339965e-01 4.459158e-02 7.405055e-02 8.430830e-02 4.514556e-02 1.169930e-01 5.201311e-02 1.157637e-01 1.071137e-03 5.302189e-04 1.390259e-03 8.472552e-04 2.238159e-03 8.060744e-04 1.854497e-03 1.268930e-03 1.026477e-03 2.729339e-03 6.562475e-04 2.075967e-03 4.507862e-05 2.569062e-05 6.264292e-05 4.073872e-05 9.717161e-05 3.987861e-05 9.126637e-05 6.585808e-05 5.363302e-05 1.170271e-04 3.528945e-05 8.994436e-05
<GCONST> -1.432002e+02
<STATE> 3
<MEAN> 39
 -2.749897e+02 -3.366206e-01 -4.049588e-02 6.723928e-01 4.514177e-01 3.099003e-01 4.145568e-01 6.155367e-01 4.199916e-01 4.189062e-01 6.158802e-01 4.450616e-01 2.646379e-01 4.244256e-01 6.967839e-01 -3.481598e-04 -1.551171e-04 -4.650843e-04 -1.607425e-03 -1.820498e-03 -1.081974e-03 3.120629e-06 5.669876e-04 -5.383217e-04 -1.250495e-03 -5.186324e-04 8.835505e-04 -6.049757e-04 -1.901651e-04 8.988366e-05 7.790723e-05 -2.193229e-04 -1.317194e-04 -3.041972e-05 9.945894e-05 2.370911e-04 2.163705e-04 3.817724e-05 -4.193477e-04
<VARIANCE> 39
 2.917475e+03 2.537757e+01 1.453120e+00 7.000266e-02 4.782129e-02 3.322925e-02 4.419667e-02 1.342220e-01 4.293078e-02 2.956939e-02 9.564574e-02 4.470456e-02 1.972196e-02 3.556198e-02 6.735468e-02 7.609094e-04 6.383483e-04 3.523396e-04 4.125071e-04 1.089884e-03 4.512507e-04 6.499686e-04 1.256658e-03 5.674784e-04 3.013820e-04 4.853715e-04 1.022874e-03 4.493732e-05 3.857614e-05 2.308772e-05 2.254687e-05 5.103882e-05 2.368642e-05 3.698743e-05 7.308384e-05 3.202270e-05 1.933426e-05 2.947290e-05 7.088545e-05
<GCONST> -1.649750e+02
<STATE> 4
<MEAN> 39
 -3.723367e+02 -1.251438e+00 1.296742e-01 3.516067e-01 2.289913e-01 2.006332e-01 3.722537e-01 6.400802e-01 4.875632e-01 2.344959e-01 1.875305e-01 2.672940e-01 3.556096e-01 2.926714e-01 3.796773e-01 -3.885236e-04 -2.536296e-04 -3.020101e-04 -1.203291e-04 -3.071033e-04 -6.164688e-04 -7.059521e-04 -6.515533e-04 -7.638502e-04 -8.221020e-04 1.099331e-04 -9.935031e-05 2.259108e-04 3.222823e-04 2.855808e-04 2.120299e-04 2.035856e-04 3.070694e-04 4.390963e-04 3.155086e-04 2.405583e-04 3.078175e-04 2.208121e-04 6.673224e-05
<VARIANCE> 39
 1.157941e+04 3.430194e+01 2.208118e+00 6.782927e-02 2.730495e-02 8.007440e-02 5.399719e-02 1.507936e-01 8.659460e-02 3.890568e-02 7.495845e-02 3.861565e-02 1.024984e-01 4.167654e-02 9.006968e-02 1.890337e-04 1.248893e-04 2.054559e-04 1.849241e-04 1.602754e-04 1.493502e-04 1.585092e-04 9.114769e-05 1.258165e-04 2.073948e-04 1.364190e-04 1.447426e-04 1.012863e-05 7.538486e-06 1.264735e-05 1.168941e-05 1.056745e-05 9.677267e-06 9.191464e-06 5.403167e-06 7.658309e-06 1.193739e-05 7.307458e-06 8.983176e-06
<GCONST> -1.923384e+02
<TRANSP> 5
 0.000000e+00 1.000000e+00 0.000000e+00 0.000000e+00 0.000000e+00
 0.000000e+00 7.952235e-01 2.047765e-01 0.000000e+00 0.000000e+00
 0.000000e+00 0.000000e+00 8.498597e-01 1.501403e-01 0.000000e+00
 0.000000e+00 0.000000e+00 0.000000e+00 9.375261e-01 6.247390e-02
 0.000000e+00 0.000000e+00 0.000000e+00 0.000000e+00 0.000000e+00
<ENDHMM>
~h "Tab0074"
<BEGINHMM>
<NUMSTATES> 5
<STATE> 2
<MEAN> 39
 -4.732440e+02 1.696516e+00 4.651411e-01 2.897274e-01 2.622301e-01 2.489576e-01 1.743260e-01 1.637940e-01 2.391429e-01 3.549521e-01 3.660938e-01 3.490042e-01 2.997288e-01 3.093788e-01 3.457464e-01 4.847477e-03 6.211801e-03 6.829862e-03 2.749683e-03 2.344055e-03 7.685523e-03 1.162621e-02 9.448424e-03 7.058952e-03 6.310580e-03 2.593375e-03 1.807378e-03 3.790798e-04 4.799479e-04 3.946515e-04 1.861440e-05 -4.265402e-05 2.804812e-05 8.521386e-05 -2.874238e-04 -9.225461e-04 -7.892278e-04 -4.065089e-04 2.001969e-04
<VARIANCE> 39
 4.259131e+04 3.253444e+02 1.899746e+01 8.057927e-02 8.420783e-02 8.869177e-02 3.761593e-02 4.424848e-02 6.147798e-02 1.212238e-01 1.022312e-01 1.261547e-01 9.384779e-02 1.003951e-01 1.532619e-01 9.286706e-04 1.057868e-03 1.096825e-03 4.885540e-04 8.487817e-04 1.183979e-03 1.711317e-03 1.365899e-03 1.879487e-03 1.399242e-03 6.743474e-04 1.050786e-03 4.264049e-05 5.805392e-05 6.645756e-05 3.528480e-05 5.716897e-05 7.244306e-05 9.248884e-05 7.771579e-05 1.266213e-04 9.895265e-05 4.153322e-05 6.477365e-05
<GCONST> -1.362663e+02
<STATE> 3
<MEAN> 39
 -4.274320e+02 -6.369972e-02 -6.859635e-01 3.559205e-01 3.168910e-01 2.673488e-01 1.467763e-01 1.209214e-01 2.517830e-01 4.499784e-01 3.741359e-01 2.596403e-01 2.323513e-01 3.196540e-01 4.047118e-01 5.540243e-04 -5.648583e-04 -6.113329e-03 -4.804025e-03 -3.502091e-03 -5.059031e-03 -9.645219e-03 -9.633264e-03 -7.662995e-03 -7.116663e-03 -6.247078e-03 -1.060106e-03 -5.215692e-04 -4.765604e-04 -5.893864e-04 -6.132235e-06 1.492734e-04 -7.290568e-05 -1.312874e-03 -5.878174e-04 7.860281e-04 6.444538e-04 1.661037e-04 -4.499084e-04
<VARIANCE> 39
 4.012830e+04 1.138210e+02 7.159372e+00 8.693146e-02 1.003397e-01 8.608116e-02 2.358630e-02 2.267875e-02 5.439108e-02 1.497016e-01 8.073117e-02 8.206630e-02 5.181306e-02 8.332731e-02 1.702449e-01 9.309963e-04 1.537714e-03 1.484494e-03 3.542619e-04 3.834398e-04 7.265763e-04 1.682558e-03 1.101466e-03 9.494943e-04 8.577661e-04 8.099971e-04 1.283315e-03 3.784976e-05 6.949708e-05 7.654349e-05 2.041744e-05 2.698612e-05 4.927909e-05 1.053654e-04 5.900209e-05 4.756364e-05 4.524622e-05 3.788370e-05 6.623839e-05
<GCONST> -1.459224e+02
<STATE> 4
<MEAN> 39
 -6.090588e+02 -3.080052e-01 3.245870e-02 5.390110e-02 5.570178e-02 3.504582e-02 1.396163e-02 1.328179e-02 3.757361e-02 6.973030e-02 5.514929e-02 3.350645e-02 3.003680e-02 4.449596e-02 5.549707e-02 -7.936370e-05 -2.594275e-04 -1.723064e-04 -6.853201e-05 -1.473445e-04 -6.975321e-05 -2.514059e-04 -2.947884e-04 -4.683546e-05 -5.131663e-05 -1.115691e-04 2.043897e-05 3.809233e-05 7.525164e-05 9.149816e-05 7.809211e-05 8.919554e-05 1.090440e-04 1.020039e-04 1.176416e-04 1.222303e-04 8.772849e-05 7.471380e-05 1.472971e-05
<VARIANCE> 39
 1.289385e+04 7.852056e+00 5.336348e-01 2.664989e-02 3.881703e-02 1.518913e-02 3.351439e-03 3.536889e-03 1.476535e-02 5.152505e-02 2.815941e-02 1.762132e-02 1.279739e-02 2.383824e-02 3.851106e-02 5.176320e-05 6.114006e-05 3.494029e-05 2.013971e-05 4.441876e-05 6.555370e-05 7.359662e-05 5.986602e-05 6.046376e-05 4.761359e-05 3.787556e-05 4.868522e-05 2.599275e-06 3.533771e-06 2.484034e-06 1.256807e-06 2.412019e-06 3.620124e-06 5.121972e-06 3.262431e-06 4.321217e-06 3.668000e-06 2.420436e-06 2.966462e-06
<GCONST> -2.380014e+02
<TRANSP> 5
 0.000000e+00 1.000000e+00 0.000000e+00 0.000000e+00 0.000000e+00
 0.000000e+00 3.566640e-01 6.433360e-01 0.000000e+00 0.000000e+00
 0.000000e+00 0.000000e+00 5.176513e-01 4.823487e-01 0.000000e+00
 0.000000e+00 0.000000e+00 0.000000e+00 9.284737e-01 7.152633e-02
 0.000000e+00 0.000000e+00 0.000000e+00 0.000000e+00 0.000000e+00
<ENDHMM>
~h "Tab0075"
<BEGINHMM>
<NUMSTATES> 5
<STATE> 2
<MEAN> 39
 -4.432895e+02 3.370808e+00 4.491525e-01 1.218397e-01 1.545416e-01 1.387451e-01 1.033659e-01 1.148773e-01 3.617306e-01 6.005573e-01 5.755844e-01 5.303837e-01 3.754437e-01 2.139457e-01 1.395035e-01 -7.312825e-03 -1.006964e-02 -7.823044e-03 -2.523625e-03 -3.881965e-04 -3.908378e-03 -5.741498e-03 7.759338e-03 8.587988e-03 5.998436e-03 2.140819e-03 -3.950139e-03 4.770545e-04 1.268384e-04 6.833271e-05 4.722502e-04 3.380666e-04 -4.091708e-03 -8.049073e-03 2.293394e-04 6.658224e-03 1.572100e-03 -1.240389e-03 -4.220548e-04
<VARIANCE> 39
 8.622955e+03 1.350566e+02 6.084756e+00 2.587368e-02 3.750122e-02 3.334176e-02 1.089260e-02 1.390760e-02 5.956829e-02 1.443095e-01 6.835808e-02 1.802787e-01 9.090663e-02 6.615487e-02 3.876882e-02 8.679651e-04 9.258999e-04 6.406732e-04 2.756871e-04 5.487416e-04 1.751330e-03 3.869840e-03 1.208801e-03 3.627120e-03 1.558790e-03 8.182586e-04 5.567960e-04 5.842969e-05 4.526904e-05 3.780134e-05 2.304691e-05 4.494916e-05 7.664197e-05 1.695224e-04 7.863042e-05 2.256806e-04 1.045240e-04 6.309010e-05 3.764857e-05
<GCONST> -1.472475e+02
<STATE> 3
<MEAN> 39
