~o
<STREAMINFO> 1 39
<VECSIZE> 39<NULLD><MFCC_E_D_A><DIAGC>
~h "Sil"
<BEGINHMM>
<NUMSTATES> 3
<STATE> 2
<MEAN> 39
 -5.168291e+02 -5.708749e-03 2.237886e-03 2.101937e-01 2.095365e-01 2.072147e-01 1.914734e-01 2.352572e-01 2.492526e-01 2.374241e-01 2.314219e-01 2.340507e-01 2.528713e-01 2.125443e-01 2.055133e-01 1.517629e-05 2.443595e-05 3.099837e-05 1.398642e-05 -5.091179e-06 3.698838e-06 1.189452e-05 7.785706e-06 8.091758e-06 1.904726e-06 1.045193e-05 1.507327e-05 7.015320e-06 6.048213e-06 4.951442e-06 6.990665e-06 7.195122e-06 4.453087e-06 5.970971e-06 8.758918e-06 6.177662e-06 4.946240e-06 7.099244e-06 8.419987e-06
<VARIANCE> 39
 3.716004e+04 1.118687e+02 6.233549e+00 8.500614e-02 6.952285e-02 9.408429e-02 5.891182e-02 1.004558e-01 9.650137e-02 8.754253e-02 1.022661e-01 7.546361e-02 1.160651e-01 7.181560e-02 7.868195e-02 5.723147e-04 4.607519e-04 6.172900e-04 4.001488e-04 7.002986e-04 6.438961e-04 5.874504e-04 7.015920e-04 5.257024e-04 6.557115e-04 4.491543e-04 5.696525e-04 2.828639e-05 2.341071e-05 3.043436e-05 2.021366e-05 3.496891e-05 3.293734e-05 3.094459e-05 3.508673e-05 2.768553e-05 3.239814e-05 2.303542e-05 2.876879e-05
<GCONST> -1.561142e+02
<TRANSP> 3
 0.000000e+00 1.000000e+00 0.000000e+00
 0.000000e+00 9.992918e-01 7.081919e-04
 0.000000e+00 0.000000e+00 0.000000e+00
<ENDHMM>
~h "Tab0000"
<BEGINHMM>
<NUMSTATES> 3
<STATE> 2
<MEAN> 39
 -3.029240e+02 3.857230e-01 -3.296792e-02 2.356128e-01 2.469745e-01 3.126499e-01 4.122136e-01 5.436548e-01 4.961150e-01 4.315252e-01 3.786351e-01 4.085438e-01 4.655004e-01 3.713836e-01 2.983949e-01 1.950717e-04 -4.314040e-05 1.748956e-04 3.252712e-04 3.376881e-04 4.031711e-04 2.759132e-04 9.703764e-05 2.086384e-05 -3.828167e-05 3.751341e-04 5.716459e-04 7.810100e-06 6.663616e-05 5.309307e-05 -2.459718e-04 -3.901365e-04 -3.059167e-04 -1.375486e-04 -7.878590e-05 -4.567663e-05 4.738898e-05 2.727704e-05 7.383700e-06
<VARIANCE> 39
 1.560839e+04 2.289511e+02 1.653575e+01 4.888554e-02 5.570479e-02 8.189242e-02 8.201765e-02 1.503183e-01 7.719255e-02 9.290294e-02 6.262929e-02 8.755597e-02 1.422275e-01 5.949998e-02 8.546828e-02 8.760584e-04 9.494745e-04 1.393483e-03 1.569711e-03 3.063303e-03 1.723723e-03 1.525691e-03 1.369462e-03 1.281452e-03 1.421996e-03 9.973611e-04 1.479045e-03 4.949977e-05 4.997734e-05 7.331347e-05 8.846249e-05 1.794943e-04 1.013042e-04 8.804556e-05 7.741595e-05 7.819098e-05 7.870774e-05 5.730842e-05 9.031440e-05
<GCONST> -1.327959e+02
<TRANSP> 3
 0.000000e+00 1.000000e+00 0.000000e+00
 0.000000e+00 9.444341e-01 5.556595e-02
 0.000000e+00 0.000000e+00 0.000000e+00
<ENDHMM>
~h "Tab0001"
<BEGINHMM>
<NUMSTATES> 3
<STATE> 2
<MEAN> 39
 -2.672454e+02 -1.013328e+00 1.256827e-02 7.294367e-02 1.397571e-01 4.021015e-01 5.347978e-01 3.682679e-01 2.909532e-01 3.843992e-01 5.457233e-01 5.334343e-01 2.729835e-01 1.294831e-01 8.787490e-02 5.855376e-04 1.136078e-03 1.394849e-03 1.474616e-03 1.024857e-03 1.481356e-03 8.751461e-04 -2.578117e-04 -3.592158e-05 6.594125e-04 4.031223e-04 4.302211e-04 4.031838e-04 3.454381e-04 1.656125e-04 2.739322e-05 1.444055e-04 1.341639e-04 -7.760546e-06 1.345848e-04 5.619542e-04 6.489669e-04 5.339993e-04 4.243253e-04
<VARIANCE> 39
 6.055212e+03 1.431236e+02 9.935927e+00 6.160761e-03 2.399938e-02 9.640072e-02 1.482985e-01 5.937260e-02 5.947205e-02 9.409166e-02 9.243587e-02 1.105300e-01 3.906838e-02 1.038227e-02 6.345950e-03 8.778708e-05 2.727041e-04 4.780660e-04 8.653640e-04 1.122732e-03 1.231187e-03 1.214372e-03 1.463474e-03 1.773589e-03 5.953741e-04 1.444802e-04 1.025943e-04 6.917079e-06 1.781227e-05 3.154997e-05 4.878620e-05 6.919666e-05 7.691710e-05 6.998783e-05 8.545921e-05 1.056664e-04 3.642590e-05 9.743589e-06 6.929881e-06
<GCONST> -1.655401e+02
<TRANSP> 3
 0.000000e+00 1.000000e+00 0.000000e+00
 0.000000e+00 9.159015e-01 8.409850e-02
 0.000000e+00 0.000000e+00 0.000000e+00
<ENDHMM>
~h "Tab0002"
<BEGINHMM>
<NUMSTATES> 3
<STATE> 2
<MEAN> 39
 -3.963688e+02 7.402270e-01 -4.077120e-02 3.943203e-01 3.680561e-01 3.584978e-01 3.156741e-01 3.163317e-01 2.963211e-01 3.506351e-01 4.513989e-01 4.113035e-01 3.663529e-01 3.180333e-01 3.492885e-01 -6.727158e-03 -3.762078e-03 -1.289643e-03 -3.857456e-03 -8.005764e-03 -4.875979e-03 2.410107e-03 5.091962e-03 2.683693e-03 -1.269579e-03 -1.394509e-03 -3.448972e-03 -2.728400e-04 -2.496922e-04 -1.053408e-04 -9.885261e-05 -2.669139e-04 -4.526956e-04 -6.154826e-04 -7.873660e-04 -6.668114e-04 -1.983916e-04 -3.619802e-04 -3.426301e-04
<VARIANCE> 39
 2.451556e+04 3.963389e+02 2.489644e+01 1.498903e-01 6.954683e-02 1.243013e-01 7.417848e-02 1.126923e-01 7.451740e-02 6.383850e-02 1.324511e-01 5.738743e-02 1.167294e-01 7.217637e-02 9.022564e-02 2.843603e-03 1.720514e-03 3.125243e-03 1.645544e-03 2.147169e-03 1.739388e-03 1.199794e-03 2.499074e-03 1.502850e-03 3.095802e-03 2.013430e-03 2.130165e-03 1.368136e-04 9.540317e-05 1.692995e-04 8.765989e-05 1.168437e-04 9.845080e-05 6.733176e-05 1.392473e-04 8.615402e-05 1.639126e-04 1.037675e-04 1.198472e-04
<GCONST> -1.213441e+02
<TRANSP> 3
 0.000000e+00 1.000000e+00 0.000000e+00
 0.000000e+00 9.315036e-01 6.849642e-02
 0.000000e+00 0.000000e+00 0.000000e+00
<ENDHMM>
~h "Tab0003"
<BEGINHMM>
<NUMSTATES> 3
<STATE> 2
<MEAN> 39
 -3.672275e+02 -4.479390e-01 2.255698e-02 1.714117e-01 4.984643e-01 7.717777e-01 5.371559e-01 3.272908e-01 3.077074e-01 3.256619e-01 3.213750e-01 3.277477e-01 3.778232e-01 2.577873e-01 1.379722e-01 3.354253e-04 -3.193784e-04 -5.896270e-04 1.127884e-03 1.657470e-03 5.985179e-04 -1.622067e-05 -4.083479e-04 -4.316506e-04 1.790188e-04 3.665069e-04 5.941930e-04 5.545924e-04 -2.284201e-04 -1.140196e-03 -3.573026e-04 6.136487e-04 6.066813e-04 6.319482e-04 6.336962e-04 6.751685e-04 6.903328e-04 5.160636e-04 4.442120e-04
<VARIANCE> 39
 2.152140e+04 2.314274e+02 1.521172e+01 3.434920e-02 4.933864e-02 9.970720e-02 4.521483e-02 8.679286e-02 6.720721e-02 6.322373e-02 8.859933e-02 4.943777e-02 8.803391e-02 4.583546e-02 2.165815e-02 6.763217e-04 6.171608e-04 1.053396e-03 6.480378e-04 1.516317e-03 1.261209e-03 1.046642e-03 1.220342e-03 9.098159e-04 1.149728e-03 6.044427e-04 3.941043e-04 3.798557e-05 3.431934e-05 6.103575e-05 3.780613e-05 9.082932e-05 7.714625e-05 6.124061e-05 7.294525e-05 5.688299e-05 6.709784e-05 3.511965e-05 2.498504e-05
<GCONST> -1.478737e+02
<TRANSP> 3
 0.000000e+00 1.000000e+00 0.000000e+00
 0.000000e+00 9.041793e-01 9.582072e-02
 0.000000e+00 0.000000e+00 0.000000e+00
<ENDHMM>
~h "Tab0004"
<BEGINHMM>
<NUMSTATES> 3
<STATE> 2
<MEAN> 39
 -3.818332e+02 8.077151e-01 -5.351019e-02 3.862570e-01 3.672476e-01 3.947124e-01 4.267998e-01 4.652234e-01 4.000564e-01 3.821436e-01 4.004002e-01 4.358369e-01 4.883605e-01 4.340246e-01 4.290138e-01 3.260360e-03 1.150576e-03 -5.037039e-04 -1.348708e-03 5.456407e-04 3.859149e-03 4.914980e-03 2.848009e-03 -4.527170e-04 -2.233591e-03 1.232660e-04 2.910919e-03 -3.335365e-04 -4.952364e-04 -8.024910e-04 -1.046272e-03 -1.090947e-03 -9.831003e-04 -6.514298e-04 -5.897395e-04 -1.110650e-03 -1.115783e-03 -8.427053e-04 -6.558944e-04
<VARIANCE> 39
 3.254700e+04 4.001270e+02 2.125179e+01 9.139629e-02 7.155692e-02 1.134323e-01 6.914448e-02 1.164407e-01 6.640832e-02 7.573761e-02 8.344363e-02 7.420689e-02 1.102768e-01 7.599112e-02 9.034078e-02 2.165202e-03 1.643679e-03 2.715397e-03 1.942893e-03 2.845571e-03 1.933040e-03 2.249019e-03 2.463051e-03 1.852452e-03 2.988201e-03 2.102028e-03 2.446717e-03 1.058517e-04 8.795808e-05 1.451171e-04 1.014950e-04 1.527055e-04 1.071542e-04 1.205051e-04 1.275929e-04 1.006136e-04 1.480010e-04 1.136543e-04 1.177392e-04
<GCONST> -1.202665e+02
<TRANSP> 3
 0.000000e+00 1.000000e+00 0.000000e+00
 0.000000e+00 8.712859e-01 1.287141e-01
 0.000000e+00 0.000000e+00 0.000000e+00
<ENDHMM>
~h "Tab0008"
<BEGINHMM>
<NUMSTATES> 3
<STATE> 2
<MEAN> 39
 -3.326507e+02 1.425922e+00 -5.627897e-01 2.044470e-01 2.819470e-01 3.149837e-01 3.725283e-01 4.683535e-01 5.616162e-01 6.228861e-01 4.103664e-01 2.413891e-01 2.213330e-01 1.898337e-01 1.827217e-01 2.455869e-03 3.120454e-03 -8.149709e-04 -6.479697e-03 -4.978195e-03 -1.799975e-03 3.726614e-03 2.395282e-03 -1.499155e-03 -6.680331e-03 -4.237039e-03 4.195151e-04 1.420362e-03 2.705138e-03 1.551834e-03 -1.397053e-03 -2.413109e-03 -3.202984e-03 -3.680586e-03 -8.742143e-04 2.379586e-03 2.435882e-03 9.423821e-04 5.373305e-04
<VARIANCE> 39
 1.550700e+04 2.311595e+02 1.303751e+01 3.758361e-02 7.299218e-02 9.253494e-02 9.719672e-02 1.057868e-01 7.373405e-02 1.371288e-01 5.300388e-02 5.099661e-02 5.835466e-02 4.761786e-02 6.701161e-02 1.266143e-03 2.161729e-03 2.125660e-03 2.019915e-03 2.788962e-03 1.870096e-03 2.099719e-03 1.101827e-03 1.953090e-03 2.025624e-03 1.074493e-03 1.497165e-03 6.216815e-05 1.188043e-04 1.048420e-04 9.661935e-05 1.351505e-04 1.218172e-04 1.362742e-04 6.110119e-05 9.232559e-05 9.276738e-05 4.569427e-05 6.067901e-05
<GCONST> -1.306394e+02
<TRANSP> 3
 0.000000e+00 1.000000e+00 0.000000e+00
 0.000000e+00 7.442096e-01 2.557904e-01
 0.000000e+00 0.000000e+00 0.000000e+00
<ENDHMM>
~h "Tab0011"
<BEGINHMM>
<NUMSTATES> 3
<STATE> 2
<MEAN> 39
 -4.846614e+02 1.889282e+00 -9.678726e-02 4.657739e-01 3.408393e-01 2.507660e-01 2.631821e-01 3.482610e-01 3.772170e-01 4.662631e-01 5.763946e-01 4.504831e-01 3.069320e-01 2.899292e-01 3.993941e-01 2.502753e-03 -6.869927e-04 -2.958107e-03 2.087059e-05 2.271791e-03 -1.516172e-03 -2.084841e-03 1.283896e-03 4.243933e-04 -1.144917e-03 8.168113e-04 3.359473e-03 -6.504261e-04 -6.471970e-05 4.585051e-04 2.305416e-04 8.298246e-05 -1.322907e-04 -7.577554e-04 -9.210554e-04 -6.752998e-04 -2.705544e-05 -1.009484e-04 -5.777644e-04
<VARIANCE> 39
 2.067088e+04 3.807222e+02 1.931813e+01 1.410286e-01 6.244927e-02 6.723169e-02 6.792700e-02 8.983231e-02 9.641817e-02 6.559190e-02 1.395596e-01 6.839551e-02 8.649420e-02 7.696995e-02 9.686003e-02 4.085820e-03 1.627294e-03 2.088106e-03 1.966546e-03 2.189009e-03 3.014717e-03 1.860222e-03 4.054985e-03 1.882038e-03 2.637664e-03 2.379284e-03 2.992994e-03 2.087319e-04 8.927533e-05 1.025286e-04 1.068995e-04 1.244746e-04 1.547631e-04 9.959914e-05 1.913008e-04 9.297850e-05 1.286185e-04 1.261285e-04 1.708780e-04
<GCONST> -1.187517e+02
<TRANSP> 3
 0.000000e+00 1.000000e+00 0.000000e+00
 0.000000e+00 8.638714e-01 1.361286e-01
 0.000000e+00 0.000000e+00 0.000000e+00
<ENDHMM>
~h "Tab0024"
<BEGINHMM>
<NUMSTATES> 3
<STATE> 2
<MEAN> 39
 -4.363808e+02 -3.476922e-01 -2.501011e-02 5.589161e-01 7.672448e-01 4.417052e-01 1.231330e-01 7.448136e-02 7.129502e-02 1.078211e-01 2.054651e-01 2.561276e-01 1.733344e-01 2.055097e-01 3.118333e-01 1.552032e-03 1.707534e-03 4.040585e-04 -2.352787e-03 -2.025216e-03 -1.374000e-03 -2.835509e-03 -2.281843e-03 -9.404084e-04 4.613580e-04 -8.566923e-04 7.043321e-04 -1.633612e-03 -2.696318e-03 -4.870928e-04 1.473789e-03 1.333260e-03 1.190802e-03 9.671574e-04 4.280827e-04 7.388864e-04 1.651464e-03 1.578018e-03 2.898785e-04
<VARIANCE> 39
 9.021947e+03 8.078133e+01 5.914835e+00 3.911647e-02 1.385718e-01 4.963695e-02 1.243379e-02 7.197492e-03 8.307134e-03 2.555591e-02 6.135147e-02 8.093732e-02 2.416751e-02 3.982252e-02 1.008850e-01 7.029963e-04 2.476144e-03 8.628685e-04 5.782538e-04 2.086254e-04 1.739629e-04 2.894243e-04 2.505867e-04 4.206528e-04 5.763064e-04 1.041717e-03 2.447625e-03 3.562491e-05 1.403815e-04 4.302324e-05 2.710886e-05 1.457574e-05 1.915789e-05 2.935706e-05 2.751894e-05 4.370245e-05 4.159120e-05 5.330360e-05 1.477901e-04
<GCONST> -1.644493e+02
<TRANSP> 3
 0.000000e+00 1.000000e+00 0.000000e+00
 0.000000e+00 8.331443e-01 1.668557e-01
 0.000000e+00 0.000000e+00 0.000000e+00
<ENDHMM>
~h "Tab0030"
<BEGINHMM>
<NUMSTATES> 3
<STATE> 2
<MEAN> 39
 -3.380265e+02 -6.824958e-02 -6.902110e-02 3.094920e-01 1.891451e-01 1.785542e-01 2.719749e-01 3.225270e-01 2.311241e-01 2.240259e-01 2.842164e-01 3.934544e-01 3.967727e-01 3.892441e-01 4.452531e-01 -3.301420e-04 -2.732945e-05 -9.145529e-05 -4.569713e-04 -5.321092e-04 -2.332909e-04 -9.013677e-05 1.271622e-05 3.769762e-04 4.172632e-04 -3.084850e-04 -5.615415e-04 1.678945e-05 1.408300e-04 1.329600e-04 8.725144e-05 7.701488e-05 -5.123962e-06 -1.513507e-04 -9.251558e-05 4.139176e-06 4.407570e-05 -1.278752e-04 -1.984790e-04
<VARIANCE> 39
 1.154724e+04 3.324179e+02 2.505061e+01 7.073037e-02 7.633656e-02 5.227494e-02 8.295223e-02 1.339042e-01 4.581704e-02 5.981645e-02 5.719624e-02 9.630659e-02 1.048038e-01 6.295377e-02 1.617531e-01 1.645634e-03 1.351911e-03 1.064859e-03 1.977680e-03 3.151109e-03 1.133372e-03 1.460318e-03 1.542124e-03 2.544833e-03 2.714752e-03 1.415551e-03 3.620335e-03 7.559566e-05 5.929682e-05 5.211020e-05 9.461842e-05 1.425121e-04 5.483975e-05 7.510836e-05 8.819115e-05 1.382922e-04 1.357143e-04 7.368590e-05 1.669873e-04
<GCONST> -1.281100e+02
<TRANSP> 3
 0.000000e+00 1.000000e+00 0.000000e+00
 0.000000e+00 8.344198e-01 1.655802e-01
 0.000000e+00 0.000000e+00 0.000000e+00
<ENDHMM>
~h "Tab0031"
<BEGINHMM>
<NUMSTATES> 3
<STATE> 2
<MEAN> 39
 -4.362808e+02 3.324590e-01 -4.623944e-02 5.431563e-01 4.932942e-01 4.786058e-01 3.791302e-01 3.365336e-01 3.173751e-01 3.903909e-01 4.696783e-01 4.475222e-01 4.861421e-01 4.557202e-01 5.231822e-01 -4.889370e-04 7.673295e-04 1.231457e-03 3.769535e-04 -2.740468e-04 -2.010068e-04 6.837974e-05 1.568526e-04 -2.064264e-04 -9.098815e-04 -5.240145e-04 -7.596636e-04 -2.545951e-04 -2.226427e-04 -9.358117e-05 -1.930228e-04 -2.781620e-04 -1.229739e-04 2.170843e-05 7.261987e-05 9.938057e-05 1.250935e-04 6.926806e-05 -2.613912e-05
<VARIANCE> 39
 4.609146e+04 1.303602e+03 6.989846e+01 1.147472e-01 7.074670e-02 1.162308e-01 6.392107e-02 6.801389e-02 5.866031e-02 7.635345e-02 1.124800e-01 7.139841e-02 1.020031e-01 7.094242e-02 8.285567e-02 2.393113e-03 1.604977e-03 2.554107e-03 1.450078e-03 1.770919e-03 1.446618e-03 1.222442e-03 1.730666e-03 1.340789e-03 1.993255e-03 1.522697e-03 1.804187e-03 1.339374e-04 9.060426e-05 1.438676e-04 8.387214e-05 1.046358e-04 8.354735e-05 6.404657e-05 9.693391e-05 7.230252e-05 1.029744e-04 7.994821e-05 1.021561e-04
<GCONST> -1.240262e+02
<TRANSP> 3
 0.000000e+00 1.000000e+00 0.000000e+00
 0.000000e+00 9.072902e-01 9.270982e-02
 0.000000e+00 0.000000e+00 0.000000e+00
<ENDHMM>
~h "Tab0033"
<BEGINHMM>
<NUMSTATES> 3
<STATE> 2
<MEAN> 39
 -3.696791e+02 -1.752858e-01 3.528430e-02 1.174738e-01 4.143106e-01 6.905400e-01 4.023862e-01 1.663467e-01 1.816507e-01 1.335303e-01 1.241822e-01 2.862246e-01 4.642938e-01 2.757738e-01 1.000060e-01 -7.753276e-04 7.991220e-04 2.044896e-03 7.610440e-04 -6.037680e-04 4.306145e-06 -7.703732e-04 -3.056449e-03 -1.236165e-03 1.788460e-03 1.314565e-03 7.231388e-05 7.390458e-04 3.617640e-04 -1.108288e-04 1.115404e-04 5.336297e-04 4.685535e-04 4.544882e-04 5.538975e-04 3.531260e-04 -8.104485e-06 4.402858e-04 6.113630e-04
<VARIANCE> 39
 1.064583e+04 7.427957e+01 4.239599e+00 2.721391e-02 5.742893e-02 1.735685e-01 4.829642e-02 3.338815e-02 3.771251e-02 2.432259e-02 4.752357e-02 4.183817e-02 1.279342e-01 4.643533e-02 1.365460e-02 3.696677e-04 1.065861e-03 2.548813e-03 8.214927e-04 3.805017e-04 1.881274e-04 2.570729e-04 4.621780e-04 1.022016e-03 2.899939e-03 8.989039e-04 1.786702e-04 3.016684e-05 6.728702e-05 1.703733e-04 5.233467e-05 2.402418e-05 1.201468e-05 1.294237e-05 2.440693e-05 6.128202e-05 1.800268e-04 5.645378e-05 1.373900e-05
<GCONST> -1.608609e+02
<TRANSP> 3
 0.000000e+00 1.000000e+00 0.000000e+00
 0.000000e+00 8.648306e-01 1.351694e-01
 0.000000e+00 0.000000e+00 0.000000e+00
<ENDHMM>
~h "Tab0036"
<BEGINHMM>
<NUMSTATES> 3
<STATE> 2
<MEAN> 39
 -2.928615e+02 1.956058e-02 -7.499645e-03 4.552268e-01 1.482653e-01 1.553217e-01 2.630447e-01 2.257203e-01 1.792254e-01 2.159949e-01 1.971455e-01 2.194766e-01 2.545021e-01 5.370263e-01 7.591379e-01 1.689150e-04 1.437714e-05 -2.086075e-05 -1.663968e-06 -7.293877e-05 -1.075343e-04 -1.052606e-04 -1.125355e-04 -9.073768e-05 -8.511676e-05 9.568685e-05 1.921012e-04 -1.477594e-04 2.095904e-05 -2.040777e-06 -2.949730e-05 -1.727639e-06 2.179846e-04 4.133367e-04 1.993272e-04 1.830476e-05 2.564138e-05 -9.919862e-05 -2.864426e-04
<VARIANCE> 39
 1.720116e+03 2.631599e+01 7.039424e-01 4.430419e-02 9.249338e-03 2.623768e-02 8.831765e-02 8.765921e-02 2.349230e-02 3.187601e-02 2.000349e-02 6.560940e-02 6.169489e-02 4.166718e-02 1.220658e-01 1.605526e-03 1.571262e-04 1.167689e-03 3.718016e-03 3.772254e-03 1.134578e-03 1.536312e-03 8.727325e-04 2.786365e-03 2.345818e-03 1.001032e-03 5.802372e-03 8.445831e-05 5.461779e-06 7.467866e-05 2.282854e-04 2.314477e-04 7.088837e-05 9.317493e-05 5.429857e-05 1.725326e-04 1.411433e-04 4.527662e-05 3.349088e-04
<GCONST> -1.455198e+02
<TRANSP> 3
 0.000000e+00 1.000000e+00 0.000000e+00
 0.000000e+00 9.664677e-01 3.353225e-02
 0.000000e+00 0.000000e+00 0.000000e+00
<ENDHMM>
~h "Tab0038"
<BEGINHMM>
<NUMSTATES> 3
<STATE> 2
<MEAN> 39
 -6.908618e+02 1.243038e-02 -3.893837e-03 1.043681e-03 7.250112e-04 7.126866e-04 9.082629e-04 1.119469e-03 9.961388e-04 1.095399e-03 1.085720e-03 1.081871e-03 1.082507e-03 1.133780e-03 1.431435e-03 4.478918e-05 -8.878695e-06 -3.088177e-05 -1.690668e-05 -1.116692e-05 1.923011e-05 3.356224e-05 3.058920e-05 2.107189e-05 -1.731598e-06 -5.304398e-06 4.372051e-05 7.142626e-08 7.037305e-06 7.774603e-06 7.974791e-06 9.555230e-06 8.152417e-06 5.163868e-06 3.383131e-06 3.008931e-06 4.290412e-06 -1.421844e-06 -6.289512e-06
<VARIANCE> 39
 3.568532e+03 1.648368e+00 9.713050e-02 9.574931e-04 7.507265e-04 1.011769e-03 6.844017e-04 1.068953e-03 8.484249e-04 8.535165e-04 1.088234e-03 8.611440e-04 1.215130e-03 7.854612e-04 1.105412e-03 8.757916e-06 5.772245e-06 8.173934e-06 6.075609e-06 1.277072e-05 7.769793e-06 8.492841e-06 9.635100e-06 1.162643e-05 1.427062e-05 8.276087e-06 1.329276e-05 4.498215e-07 3.075810e-07 4.262554e-07 3.326209e-07 6.534507e-07 4.357443e-07 4.302722e-07 5.102124e-07 4.137804e-07 5.503693e-07 5.254281e-07 7.021916e-07
<GCONST> -3.199434e+02
<TRANSP> 3
 0.000000e+00 1.000000e+00 0.000000e+00
 0.000000e+00 9.950046e-01 4.995340e-03
 0.000000e+00 0.000000e+00 0.000000e+00
<ENDHMM>
~h "Tab0040"
<BEGINHMM>
<NUMSTATES> 3
<STATE> 2
<MEAN> 39
 -3.507112e+02 4.640782e+00 3.571421e-01 4.172353e-01 5.359659e-01 3.832774e-01 2.622548e-01 3.457414e-01 3.867603e-01 3.794711e-01 4.014937e-01 5.212915e-01 4.807833e-01 3.876070e-01 3.470618e-01 5.967035e-04 -1.882428e-03 -1.336339e-03 -1.110505e-03 -9.559626e-04 -4.606546e-04 2.279435e-03 2.612513e-03 -1.943533e-03 -3.896476e-03 -7.726356e-04 1.503470e-03 -1.484829e-03 -2.785043e-03 -1.976683e-03 -1.453861e-03 -1.630427e-03 -1.537689e-03 -2.518318e-04 -1.136135e-03 -3.468094e-03 -2.941997e-03 -1.013139e-03 -1.412848e-04
<VARIANCE> 39
 2.229701e+04 2.761377e+02 1.692565e+01 4.687975e-02 1.300416e-01 6.131206e-02 3.062578e-02 7.315127e-02 5.953164e-02 8.901159e-02 6.426334e-02 1.003758e-01 8.885619e-02 1.022531e-01 1.124219e-01 1.413487e-03 3.737476e-03 1.809043e-03 6.124774e-04 1.609985e-03 2.232662e-03 2.994711e-03 1.546997e-03 3.159898e-03 2.425552e-03 1.458322e-03 1.269223e-03 7.199831e-05 1.888918e-04 8.773302e-05 3.467414e-05 9.215223e-05 1.356878e-04 1.933669e-04 8.331094e-05 1.626947e-04 1.224303e-04 8.164322e-05 6.618481e-05
<GCONST> -1.273182e+02
<TRANSP> 3
 0.000000e+00 1.000000e+00 0.000000e+00
 0.000000e+00 9.094558e-01 9.054419e-02
 0.000000e+00 0.000000e+00 0.000000e+00
<ENDHMM>
~h "Tab0042"
<BEGINHMM>
<NUMSTATES> 3
<STATE> 2
<MEAN> 39
 -2.541293e+02 -6.059407e-01 8.177434e-02 8.768811e-02 1.183406e-01 2.046229e-01 2.677778e-01 3.049271e-01 3.160810e-01 1.835242e-01 8.619596e-02 9.016585e-02 5.478743e-01 8.949555e-01 4.721969e-01 -1.073632e-04 2.435186e-04 3.083714e-04 -1.265622e-03 -1.843625e-03 -1.450204e-03 -5.375886e-04 -1.867595e-04 -6.369163e-04 -1.637750e-04 -2.590614e-04 -1.528140e-06 2.193624e-04 1.293994e-04 2.687211e-04 4.888803e-04 3.967243e-04 3.239246e-04 3.648572e-04 4.063394e-04 4.356806e-04 2.928689e-06 -3.020999e-04 2.689662e-05
<VARIANCE> 39
 6.990133e+03 5.821995e+01 4.463064e+00 9.756930e-03 1.919832e-02 3.690033e-02 3.999881e-02 6.522862e-02 4.127484e-02 1.634220e-02 7.810246e-03 1.181701e-02 3.063452e-02 5.739944e-02 1.559246e-02 6.593755e-05 4.412686e-05 9.681273e-05 3.469997e-04 4.799216e-04 6.532900e-04 3.648945e-04 1.501370e-04 1.661012e-04 1.041621e-04 6.262161e-05 8.655242e-05 5.048953e-06 4.066596e-06 7.061969e-06 2.102189e-05 2.819385e-05 4.275769e-05 2.624690e-05 1.417861e-05 1.352395e-05 7.199184e-06 6.757064e-06 6.051702e-06
<GCONST> -2.007634e+02
<TRANSP> 3
 0.000000e+00 1.000000e+00 0.000000e+00
 0.000000e+00 9.425133e-01 5.748674e-02
 0.000000e+00 0.000000e+00 0.000000e+00
<ENDHMM>
~h "Tab0045"
<BEGINHMM>
<NUMSTATES> 3
<STATE> 2
<MEAN> 39
 -4.765891e+02 -1.468442e+00 2.407722e-01 2.287515e-01 1.590259e-01 1.202231e-01 2.206202e-01 3.670262e-01 3.152510e-01 2.421548e-01 2.403430e-01 3.613493e-01 5.050949e-01 3.484880e-01 2.385082e-01 -1.832542e-04 4.448229e-05 5.813056e-05 4.513124e-04 6.489179e-04 3.781724e-04 -3.901754e-04 -9.226981e-04 -9.116544e-04 -4.764334e-04 1.425577e-04 -1.267852e-04 3.535624e-04 4.567963e-04 5.144130e-04 4.797037e-04 3.316388e-04 3.599573e-04 6.141323e-04 8.148936e-04 5.552359e-04 -8.175909e-05 1.925118e-04 4.482827e-04
<VARIANCE> 39
 2.289598e+04 1.117800e+02 7.233255e+00 9.949211e-02 3.521394e-02 4.155667e-02 4.554354e-02 1.315344e-01 8.560323e-02 8.126877e-02 8.779726e-02 7.421452e-02 1.859366e-01 6.688220e-02 9.089285e-02 1.770626e-04 1.466816e-04 1.541899e-04 2.872387e-04 5.627458e-04 3.472999e-04 3.219530e-04 4.770377e-04 5.106936e-04 2.487050e-04 2.281898e-04 2.558600e-04 1.581008e-05 1.074945e-05 1.276942e-05 1.958131e-05 3.365521e-05 2.357837e-05 2.472613e-05 3.939782e-05 3.892460e-05 2.505431e-05 2.029767e-05 2.132710e-05
<GCONST> -1.690167e+02
<TRANSP> 3
 0.000000e+00 1.000000e+00 0.000000e+00
 0.000000e+00 8.893738e-01 1.106262e-01
 0.000000e+00 0.000000e+00 0.000000e+00
<ENDHMM>
~h "Tab0053"
<BEGINHMM>
<NUMSTATES> 3
<STATE> 2
<MEAN> 39
 -4.139448e+02 -9.970099e-01 9.147333e-02 3.699335e-01 4.609050e-01 5.709408e-01 4.254614e-01 3.054640e-01 2.559813e-01 1.660985e-01 1.288627e-01 1.545236e-01 2.194102e-01 1.752867e-01 2.592822e-01 -2.661759e-04 -6.569070e-04 -4.825541e-04 1.275714e-04 1.416935e-03 7.657632e-04 -2.237372e-04 -3.396856e-04 -4.387920e-04 -7.442059e-04 -9.797377e-05 3.135456e-05 2.818086e-04 5.339877e-05 -3.859476e-04 -5.931332e-05 3.792939e-04 4.789554e-04 3.796864e-04 2.753716e-04 2.781749e-04 3.817035e-04 5.155268e-04 4.392783e-04
<VARIANCE> 39
 2.053253e+04 7.528721e+01 4.183157e+00 1.479263e-01 5.159239e-02 1.962681e-01 5.974998e-02 1.064683e-01 7.700992e-02 2.705348e-02 2.100883e-02 1.680603e-02 4.921384e-02 2.169072e-02 6.332513e-02 1.741872e-03 5.260800e-04 1.799481e-03 5.829690e-04 7.784184e-04 4.708093e-04 1.988602e-04 1.586293e-04 1.407038e-04 3.459374e-04 2.296575e-04 6.295579e-04 8.342337e-05 3.156282e-05 9.085415e-05 2.973140e-05 3.899838e-05 2.320335e-05 1.222797e-05 1.070999e-05 9.036136e-06 2.192864e-05 1.792069e-05 3.654729e-05
<GCONST> -1.668280e+02
<TRANSP> 3
 0.000000e+00 1.000000e+00 0.000000e+00
 0.000000e+00 9.040437e-01 9.595633e-02
 0.000000e+00 0.000000e+00 0.000000e+00
<ENDHMM>
~h "Tab0059"
<BEGINHMM>
<NUMSTATES> 3
<STATE> 2
<MEAN> 39
 -4.740683e+02 -2.574310e-01 6.151944e-03 3.025138e-01 4.485231e-01 2.744890e-01 9.063359e-02 6.736209e-02 7.177708e-02 1.027470e-01 2.978154e-01 5.138115e-01 3.833816e-01 2.355180e-01 2.216352e-01 -4.382358e-04 -7.308291e-04 -4.265894e-04 4.587712e-05 1.535928e-04 1.027910e-04 5.572708e-05 7.420710e-05 2.387710e-04 1.519952e-04 -1.571740e-05 2.686379e-05 1.804196e-05 2.002441e-05 2.368024e-05 2.348916e-05 1.405043e-05 5.413945e-06 8.029012e-06 6.578917e-06 -2.391054e-05 -2.877522e-05 5.998736e-07 3.986998e-05
<VARIANCE> 39
 8.298933e+03 2.346761e+02 1.485773e+01 2.941523e-02 2.025350e-01 5.644293e-02 1.466108e-02 1.140331e-02 1.827098e-02 5.353351e-02 6.147696e-02 1.969838e-01 8.386777e-02 8.325239e-02 3.692662e-02 9.093242e-05 4.050740e-04 1.225219e-04 1.855626e-04 1.024761e-04 1.349612e-04 2.831616e-04 1.101606e-04 4.264944e-04 6.710787e-05 3.209431e-04 1.875990e-04 3.883121e-06 1.937142e-05 5.888725e-06 9.476979e-06 4.619419e-06 6.781124e-06 1.314115e-05 5.804385e-06 1.831551e-05 3.747720e-06 1.378085e-05 9.341074e-06
<GCONST> -1.921117e+02
<TRANSP> 3
 0.000000e+00 1.000000e+00 0.000000e+00
 0.000000e+00 9.599949e-01 4.000511e-02
 0.000000e+00 0.000000e+00 0.000000e+00
<ENDHMM>
~h "Tab0060"
<BEGINHMM>
<NUMSTATES> 3
<STATE> 2
<MEAN> 39
 -3.781901e+02 1.699829e+00 -2.982175e-01 2.722360e-01 2.324079e-01 2.403184e-01 3.013376e-01 3.821333e-01 3.597774e-01 3.090848e-01 2.825451e-01 3.562389e-01 4.321693e-01 3.681362e-01 3.378889e-01 3.496920e-04 -1.426324e-03 -2.501410e-03 3.815017e-04 2.578373e-03 2.124232e-03 3.159821e-04 -2.027079e-04 -1.948991e-03 -2.810541e-03 -1.376917e-03 -5.854527e-06 4.032102e-04 -1.544843e-04 -1.906484e-04 -3.292191e-04 -3.562454e-04 -9.054756e-04 -1.477971e-03 -8.998613e-04 -3.491948e-04 -1.946450e-04 1.545234e-04 6.947291e-04
<VARIANCE> 39
 1.176405e+04 2.500151e+02 1.491081e+01 7.232166e-02 6.338825e-02 7.620061e-02 6.311120e-02 1.328380e-01 9.136841e-02 8.720668e-02 8.300795e-02 7.857958e-02 1.378205e-01 6.522310e-02 1.160064e-01 1.248154e-03 1.462403e-03 1.728185e-03 1.712565e-03 3.181371e-03 2.095778e-03 1.675816e-03 1.779840e-03 2.102587e-03 4.372990e-03 1.554086e-03 2.275382e-03 6.240585e-05 8.175106e-05 8.735373e-05 9.951446e-05 1.667492e-04 1.162000e-04 1.263847e-04 9.392865e-05 1.023992e-04 2.175217e-04 7.905296e-05 1.330853e-04
<GCONST> -1.245851e+02
<TRANSP> 3
 0.000000e+00 1.000000e+00 0.000000e+00
 0.000000e+00 8.204131e-01 1.795869e-01
 0.000000e+00 0.000000e+00 0.000000e+00
<ENDHMM>
~h "Tab0061"
<BEGINHMM>
<NUMSTATES> 3
<STATE> 2
<MEAN> 39
 -4.711078e+02 -1.544958e+00 5.958293e-01 1.450283e-01 1.984252e-01 1.663575e-01 2.990990e-01 5.056031e-01 3.033578e-01 1.082404e-01 1.102536e-01 4.436798e-01 7.925583e-01 4.704371e-01 1.714998e-01 9.887434e-04 1.656297e-03 3.560011e-04 -6.499427e-03 -1.359914e-02 -7.482881e-03 6.815728e-04 1.745183e-03 6.570000e-03 1.160632e-02 6.013077e-03 3.334692e-04 9.298236e-04 1.674993e-03 3.214436e-03 8.061072e-04 -2.239399e-03 -6.944670e-04 2.853326e-03 4.738403e-03 2.747479e-04 -3.859794e-03 -9.947746e-04 1.711875e-03
<VARIANCE> 39
 1.121296e+04 1.524760e+02 9.587391e+00 1.375806e-02 2.733162e-02 5.289885e-02 2.534210e-02 8.344897e-02 3.292241e-02 7.398757e-03 7.825754e-03 3.775625e-02 1.346732e-01 3.455438e-02 1.537441e-02 3.253582e-04 6.248379e-04 8.558035e-04 4.240219e-04 1.138536e-03 4.503258e-04 5.094859e-04 1.514694e-03 7.280955e-04 3.064096e-03 5.767673e-04 6.179656e-04 1.971826e-05 4.252283e-05 4.953126e-05 3.469158e-05 8.901645e-05 3.357690e-05 2.780892e-05 7.729832e-05 5.712370e-05 1.763679e-04 3.958246e-05 2.997003e-05
<GCONST> -1.609763e+02
<TRANSP> 3
 0.000000e+00 1.000000e+00 0.000000e+00
 0.000000e+00 8.720551e-01 1.279450e-01
 0.000000e+00 0.000000e+00 0.000000e+00
<ENDHMM>
~h "Tab0062"
<BEGINHMM>
<NUMSTATES> 3
<STATE> 2
<MEAN> 39
 -5.231716e+02 5.346075e-01 -1.060700e-01 2.760534e-01 3.282064e-01 3.965909e-01 4.805831e-01 5.611687e-01 3.711730e-01 1.676282e-01 1.447397e-01 1.189875e-01 1.020595e-01 1.223359e-01 2.206404e-01 -9.873514e-04 1.431461e-03 3.218181e-03 2.278505e-03 6.828359e-04 3.832959e-04 5.498785e-05 -5.726857e-05 4.055003e-04 5.324519e-04 -6.598284e-04 -1.604041e-03 2.325345e-04 -9.450827e-05 -8.717531e-05 -9.221821e-04 -1.459485e-03 -7.740656e-04 6.181234e-04 1.331228e-03 9.420964e-04 4.843288e-04 3.929397e-04 3.834857e-04
<VARIANCE> 39
 1.477289e+04 1.749740e+02 9.705990e+00 1.207638e-01 8.382715e-02 1.676980e-01 7.198367e-02 1.683692e-01 8.349688e-02 2.979903e-02 4.709440e-02 2.909543e-02 2.237518e-02 3.271801e-02 7.328693e-02 3.879396e-03 2.727144e-03 4.984682e-03 1.687188e-03 5.045362e-03 2.519250e-03 1.266897e-03 2.028170e-03 1.009085e-03 6.658155e-04 1.069948e-03 2.666468e-03 2.242307e-04 1.439854e-04 2.420662e-04 8.708800e-05 2.582584e-04 1.221516e-04 7.337804e-05 1.163272e-04 6.157783e-05 4.507896e-05 6.462643e-05 1.544539e-04
<GCONST> -1.276653e+02
<TRANSP> 3
 0.000000e+00 1.000000e+00 0.000000e+00
 0.000000e+00 8.990909e-01 1.009091e-01
 0.000000e+00 0.000000e+00 0.000000e+00
<ENDHMM>
~h "Tab0063"
<BEGINHMM>
<NUMSTATES> 3
<STATE> 2
<MEAN> 39
 -3.266317e+02 1.936853e+00 -3.164610e-02 3.656869e-01 2.902556e-01 2.225080e-01 2.517811e-01 2.913789e-01 3.366003e-01 3.768446e-01 3.741427e-01 3.813100e-01 3.614157e-01 3.801044e-01 4.109614e-01 1.422141e-03 1.496072e-03 3.421703e-03 4.787292e-03 9.115663e-04 -2.428486e-03 2.743858e-04 2.806554e-03 2.246153e-03 1.029692e-03 2.437530e-03 2.139020e-03 -5.493455e-04 -4.425873e-04 -3.406569e-04 -4.106843e-04 -1.639419e-04 -8.261716e-05 -4.695524e-04 -6.971437e-04 -3.560322e-04 -1.663589e-04 -7.554670e-06 -1.676845e-04
<VARIANCE> 39
 1.630790e+04 2.906707e+02 1.876041e+01 1.141578e-01 1.068438e-01 5.279933e-02 8.129039e-02 6.501338e-02 9.035178e-02 7.966470e-02 7.374084e-02 1.058390e-01 7.393973e-02 1.016217e-01 1.137986e-01 2.733458e-03 2.218907e-03 1.364007e-03 2.404244e-03 1.569780e-03 1.918043e-03 1.720419e-03 1.819232e-03 3.127020e-03 2.102161e-03 2.067523e-03 2.509537e-03 1.392339e-04 1.197170e-04 8.031591e-05 1.361116e-04 9.279552e-05 1.109517e-04 1.070304e-04 1.116475e-04 1.856614e-04 1.196520e-04 1.116424e-04 1.327136e-04
<GCONST> -1.221170e+02
<TRANSP> 3
 0.000000e+00 1.000000e+00 0.000000e+00
 0.000000e+00 6.817776e-01 3.182224e-01
 0.000000e+00 0.000000e+00 0.000000e+00
<ENDHMM>
~h "Tab0064"
<BEGINHMM>
<NUMSTATES> 3
<STATE> 2
<MEAN> 39
 -3.609889e+02 -2.861090e-01 -5.431208e-02 3.808151e-01 3.229257e-01 3.443929e-01 3.981467e-01 5.106040e-01 3.955323e-01 3.401210e-01 3.899340e-01 3.990267e-01 4.300004e-01 3.642462e-01 4.170129e-01 1.013561e-04 6.872590e-05 1.159894e-04 4.748639e-05 -1.396869e-05 -1.859786e-04 -4.962031e-04 -5.336071e-04 -3.017725e-04 -1.526745e-04 -1.807358e-04 1.062289e-04 -6.293619e-05 6.149209e-05 1.383071e-04 1.927326e-04 2.487813e-04 1.712816e-04 4.727964e-05 6.129066e-05 6.129636e-05 4.419181e-05 -1.273731e-05 -8.430766e-05
<VARIANCE> 39
 1.421142e+04 1.039655e+02 6.128372e+00 6.925018e-02 4.837418e-02 1.052138e-01 5.390696e-02 1.553026e-01 7.514314e-02 7.859176e-02 1.377249e-01 4.901504e-02 1.041268e-01 4.810252e-02 7.049525e-02 7.896571e-04 6.771393e-04 8.931218e-04 6.401460e-04 9.361028e-04 5.860470e-04 8.923530e-04 8.547615e-04 7.577916e-04 9.147180e-04 6.001825e-04 7.395496e-04 3.958927e-05 3.303078e-05 4.736777e-05 3.760769e-05 4.996550e-05 3.527235e-05 5.173695e-05 4.477927e-05 4.382099e-05 4.877617e-05 3.209335e-05 3.804850e-05
<GCONST> -1.503721e+02
<TRANSP> 3
 0.000000e+00 1.000000e+00 0.000000e+00
 0.000000e+00 9.512383e-01 4.876174e-02
 0.000000e+00 0.000000e+00 0.000000e+00
<ENDHMM>
~h "Tab0066"
<BEGINHMM>
<NUMSTATES> 3
<STATE> 2
<MEAN> 39
 -3.712227e+02 7.546395e-01 4.506060e-02 3.868517e-01 3.744275e-01 3.815814e-01 3.670922e-01 4.618739e-01 4.546220e-01 3.690207e-01 3.569081e-01 3.916796e-01 4.505228e-01 3.600377e-01 3.553197e-01 6.846568e-04 1.358597e-04 -3.165887e-04 -1.325622e-03 -2.088872e-03 -1.085730e-03 3.278699e-04 7.373378e-04 -2.017303e-06 -2.719901e-04 -1.095801e-04 2.361271e-04 -2.758848e-04 -3.440289e-04 -8.255686e-05 -6.237318e-05 -2.020440e-04 -2.636278e-04 -3.529791e-04 -5.142685e-04 -5.123460e-04 -4.440602e-04 -4.047893e-04 -1.893817e-04
<VARIANCE> 39
 2.999238e+04 5.434622e+02 3.738536e+01 1.030760e-01 5.415822e-02 1.233589e-01 5.916926e-02 9.529950e-02 1.017897e-01 5.825117e-02 9.634677e-02 8.078739e-02 1.294524e-01 6.806861e-02 7.112811e-02 2.004394e-03 1.040204e-03 2.183170e-03 9.779390e-04 2.026603e-03 1.564304e-03 1.301719e-03 2.069567e-03 1.269178e-03 1.645354e-03 1.165346e-03 1.689017e-03 9.585801e-05 5.323166e-05 1.041474e-04 4.927979e-05 9.902112e-05 8.928154e-05 7.820471e-05 1.248382e-04 7.425027e-05 9.034713e-05 5.979896e-05 7.809851e-05
<GCONST> -1.289255e+02
<TRANSP> 3
 0.000000e+00 1.000000e+00 0.000000e+00
 0.000000e+00 9.561653e-01 4.383480e-02
 0.000000e+00 0.000000e+00 0.000000e+00
<ENDHMM>
~h "Tab0068"
<BEGINHMM>
<NUMSTATES> 3
<STATE> 2
<MEAN> 39
 -3.414202e+02 -1.818774e+00 -1.293638e-01 1.173626e-01 1.699643e-01 1.368534e-01 1.234759e-01 1.810036e-01 3.282462e-01 5.333401e-01 5.849425e-01 6.632061e-01 5.424310e-01 2.222596e-01 9.965853e-02 -1.545469e-03 -2.861657e-03 -1.789992e-03 -1.137956e-03 -1.442955e-03 -1.281011e-04 2.179027e-04 -1.769574e-03 2.065506e-04 -9.549297e-04 -1.723566e-03 -1.957368e-04 1.763237e-03 1.387505e-03 5.517054e-04 2.671831e-04 3.892764e-04 2.893958e-04 -2.208827e-04 -2.962154e-04 -4.900226e-04 -6.762974e-04 -6.395201e-05 8.043973e-04
<VARIANCE> 39
 9.859137e+03 1.292114e+02 8.456448e+00 1.787896e-02 4.387725e-02 2.536944e-02 1.000950e-02 2.369659e-02 7.650282e-02 1.216472e-01 4.669178e-02 1.313184e-01 9.895082e-02 4.336255e-02 1.407538e-02 4.536822e-04 8.819155e-04 4.746032e-04 2.828075e-04 5.079955e-04 1.679079e-03 3.180563e-03 1.512521e-03 2.850889e-03 1.237733e-03 3.999618e-04 2.051495e-04 3.108679e-05 4.014145e-05 2.334365e-05 1.848951e-05 3.187558e-05 8.604104e-05 1.494711e-04 9.433533e-05 1.537690e-04 6.021175e-05 2.175000e-05 1.504210e-05
<GCONST> -1.566276e+02
<TRANSP> 3
 0.000000e+00 1.000000e+00 0.000000e+00
 0.000000e+00 8.954049e-01 1.045951e-01
 0.000000e+00 0.000000e+00 0.000000e+00
<ENDHMM>
~h "Tab0072"
<BEGINHMM>
<NUMSTATES> 3
<STATE> 2
<MEAN> 39
 -4.625286e+02 -4.811778e-01 5.277932e-02 2.129000e-01 1.223848e-01 1.003524e-01 1.839443e-01 3.126704e-01 2.672432e-01 1.500661e-01 1.138379e-01 1.389097e-01 1.688356e-01 1.762409e-01 2.464191e-01 -1.087092e-04 -6.295889e-05 3.852701e-05 6.784251e-05 -1.444452e-04 5.198567e-05 -3.081935e-04 -8.347761e-04 -4.087032e-04 2.289307e-05 1.150424e-04 -2.523194e-04 1.237345e-04 1.624464e-04 2.073082e-04 1.399620e-04 2.621129e-05 4.997422e-05 1.536707e-04 1.838856e-04 1.533790e-04 4.491051e-05 6.279130e-05 9.973069e-05
<VARIANCE> 39
 2.502410e+04 2.423741e+01 1.594703e+00 7.247105e-02 2.647980e-02 3.706605e-02 6.472841e-02 1.617120e-01 1.231083e-01 4.055959e-02 4.163848e-02 4.016808e-02 7.856784e-02 5.286846e-02 1.025393e-01 2.026546e-04 1.150366e-04 2.426352e-04 1.379855e-04 2.590353e-04 1.805474e-04 1.066240e-04 1.129199e-04 1.129629e-04 1.030148e-04 1.144990e-04 2.456447e-04 8.730525e-06 5.214534e-06 1.093892e-05 7.233640e-06 1.447540e-05 8.968160e-06 5.398414e-06 5.558251e-06 6.429389e-06 6.023999e-06 5.644934e-06 1.211002e-05
<GCONST> -1.951086e+02
<TRANSP> 3
 0.000000e+00 1.000000e+00 0.000000e+00
 0.000000e+00 9.532533e-01 4.674671e-02
 0.000000e+00 0.000000e+00 0.000000e+00
<ENDHMM>
~h "Tab0074"
<BEGINHMM>
<NUMSTATES> 3
<STATE> 2
<MEAN> 39
 -3.371602e+02 -1.340594e+00 -1.169231e-01 4.881990e-01 6.230268e-01 3.834831e-01 1.346471e-01 1.243354e-01 1.876552e-01 3.048052e-01 3.274209e-01 2.865931e-01 2.366097e-01 2.950558e-01 3.634647e-01 -1.481928e-04 5.701255e-05 -4.008517e-05 -1.754023e-04 -5.209802e-04 -1.559997e-03 -3.731133e-03 -3.162483e-03 -4.143030e-04 -4.958056e-04 -1.981911e-03 -1.235006e-03 -9.745650e-06 -2.796998e-04 3.848595e-04 9.468080e-04 1.228226e-03 1.183167e-03 3.050341e-04 5.760980e-04 1.674874e-03 1.141686e-03 3.780791e-05 1.680902e-04
<VARIANCE> 39
 1.512245e+04 1.249365e+02 8.447036e+00 4.470130e-02 1.597244e-01 5.361537e-02 1.194362e-02 1.327962e-02 2.485047e-02 7.122477e-02 6.312598e-02 5.989493e-02 3.856862e-02 9.480751e-02 1.436457e-01 4.237870e-04 3.177211e-04 4.008476e-04 2.963578e-04 4.131970e-04 5.610543e-04 7.659524e-04 6.806093e-04 1.216967e-03 1.035815e-03 4.837449e-04 5.483231e-04 2.475417e-05 2.166731e-05 2.599055e-05 1.836997e-05 2.939691e-05 3.454248e-05 4.287210e-05 4.037038e-05 7.472813e-05 6.326197e-05 3.044353e-05 3.344527e-05
<GCONST> -1.616243e+02
<TRANSP> 3
 0.000000e+00 1.000000e+00 0.000000e+00
 0.000000e+00 8.604679e-01 1.395320e-01
 0.000000e+00 0.000000e+00 0.000000e+00
<ENDHMM>
~h "Tab0075"
<BEGINHMM>
<NUMSTATES> 3
<STATE> 2
<MEAN> 39
 -6.404642e+02 -2.751762e-01 1.346575e-02 1.855763e-02 2.545827e-02 2.599391e-02 2.594250e-02 2.576254e-02 5.651990e-02 1.009491e-01 1.777646e-01 2.157004e-01 1.294283e-01 5.869659e-02 3.039917e-02 1.477259e-04 2.126109e-04 1.860535e-04 7.695857e-05 4.408109e-05 -6.597687e-05 -1.316690e-04 6.864949e-04 1.399765e-03 3.190358e-04 -4.900789e-04 -1.722687e-04 9.921889e-05 1.660314e-04 1.465229e-04 1.077463e-04 1.418738e-04 2.078672e-04 2.206206e-04 -4.526073e-05 -1.607180e-04 7.139212e-05 1.595276e-04 1.124702e-04
<VARIANCE> 39
 2.067197e+04 1.773784e+01 1.144188e+00 1.883133e-03 4.383539e-03 3.581196e-03 2.568015e-03 2.962434e-03 1.721672e-02 5.339315e-02 1.032069e-01 1.549253e-01 5.909778e-02 2.457828e-02 6.937056e-03 1.078549e-05 3.064626e-05 1.820852e-05 1.249955e-05 2.381285e-05 1.319076e-04 3.788407e-04 1.776689e-04 2.246658e-04 1.154248e-04 2.322739e-04 6.929266e-05 8.511640e-07 1.957098e-06 1.304388e-06 1.048784e-06 2.141455e-06 8.952647e-06 2.403977e-05 9.741602e-06 1.206121e-05 6.930826e-06 1.215350e-05 3.353067e-06
<GCONST> -2.310905e+02
<TRANSP> 3
 0.000000e+00 1.000000e+00 0.000000e+00
 0.000000e+00 9.691427e-01 3.085733e-02
 0.000000e+00 0.000000e+00 0.000000e+00
<ENDHMM>
~h "Tab0079"
<BEGINHMM>
<NUMSTATES> 3
<STATE> 2
<MEAN> 39
 -4.246765e+02 2.275575e+00 -1.857248e-01 5.367564e-01 3.926194e-01 2.584925e-01 2.723373e-01 3.844770e-01 4.302697e-01 4.179576e-01 4.057621e-01 4.310140e-01 4.402061e-01 3.604829e-01 4.339465e-01 1.457543e-04 3.284607e-04 4.734087e-04 -1.321095e-04 -1.732944e-03 -1.903024e-03 -8.150050e-04 2.696048e-04 2.082129e-03 2.418102e-03 9.627555e-04 -3.029949e-04 -1.241265e-03 -1.013721e-03 -3.713575e-04 -5.416258e-04 -5.907511e-04 -4.408153e-04 -5.589266e-04 -7.030212e-04 -7.210483e-04 -3.354997e-04 -5.269550e-04 -8.379909e-04
<VARIANCE> 39
 3.394539e+04 4.520799e+02 2.697058e+01 1.504252e-01 6.747679e-02 8.398733e-02 5.228139e-02 9.537039e-02 1.207223e-01 9.477498e-02 1.034062e-01 8.930267e-02 1.195284e-01 7.799882e-02 8.821733e-02 4.249277e-03 1.646353e-03 1.925525e-03 1.287382e-03 2.364935e-03 2.640076e-03 2.039919e-03 2.797386e-03 2.590313e-03 3.343482e-03 2.187161e-03 2.561182e-03 1.957226e-04 7.949993e-05 9.573974e-05 6.358231e-05 1.085196e-04 1.119035e-04 1.051912e-04 1.470587e-04 1.401512e-04 1.644311e-04 1.113479e-04 1.346343e-04
<GCONST> -1.184017e+02
<TRANSP> 3
 0.000000e+00 1.000000e+00 0.000000e+00
 0.000000e+00 8.517913e-01 1.482087e-01
 0.000000e+00 0.000000e+00 0.000000e+00
<ENDHMM>
~h "Tab0083"
<BEGINHMM>
<NUMSTATES> 3
<STATE> 2
<MEAN> 39
 -2.603311e+02 -1.477338e-01 6.953184e-03 3.561758e-01 4.933166e-01 7.811996e-01 6.529776e-01 5.172145e-01 4.062648e-01 3.938444e-01 4.630794e-01 6.121588e-01 6.297842e-01 4.854439e-01 4.694669e-01 -7.381874e-04 -7.589941e-04 -1.053810e-04 -4.080363e-04 -1.426207e-03 -6.814027e-04 -9.931248e-04 -1.010405e-03 -1.243879e-03 -2.461306e-03 -1.180728e-03 -6.393812e-04 2.508487e-04 1.059950e-04 -4.740158e-05 -3.227052e-05 9.311453e-05 -6.218030e-05 -1.296358e-04 5.537007e-05 1.698871e-04 2.334235e-04 1.873355e-04 1.368743e-04
<VARIANCE> 39
 4.517113e+02 1.648368e+00 9.713050e-02 6.234329e-02 1.768418e-02 5.143828e-02 4.070064e-02 1.426802e-01 7.995602e-02 4.007378e-02 1.064069e-01 9.082787e-02 5.623191e-02 6.029313e-02 1.330027e-01 9.465829e-05 2.007235e-04 2.327516e-04 3.077412e-04 8.614005e-05 2.191083e-04 9.482665e-05 2.206906e-04 2.535479e-04 3.742857e-04 2.178156e-04 1.240415e-04 6.083872e-06 1.034573e-05 1.227045e-05 1.176530e-05 7.318748e-06 1.760836e-05 6.361633e-06 1.656558e-05 1.332331e-05 1.988656e-05 9.488161e-06 4.193249e-06
<GCONST> -1.982422e+02
<TRANSP> 3
 0.000000e+00 1.000000e+00 0.000000e+00
 0.000000e+00 8.308894e-01 1.691106e-01
 0.000000e+00 0.000000e+00 0.000000e+00
<ENDHMM>
~h "Tab0084"
<BEGINHMM>
<NUMSTATES> 3
<STATE> 2
<MEAN> 39
 -4.328345e+02 2.964335e+00 -4.943759e-01 3.135574e-01 3.680647e-01 3.143888e-01 2.775708e-01 2.894807e-01 3.295668e-01 3.648872e-01 2.747368e-01 1.989100e-01 1.807544e-01 2.241659e-01 2.771004e-01 4.326616e-03 9.057253e-03 2.461770e-03 -3.492582e-03 -1.093335e-03 4.088886e-04 -1.168817e-03 8.395383e-04 4.588971e-03 2.600583e-03 2.612517e-03 3.036941e-03 -2.165872e-05 -3.648378e-04 -3.799411e-04 -2.356684e-04 -3.653913e-04 -7.015555e-04 -7.644562e-04 -1.231216e-04 5.813530e-04 6.469851e-04 4.094932e-04 1.357486e-04
<VARIANCE> 39
 1.883488e+04 3.814730e+02 2.434368e+01 8.278828e-02 1.484989e-01 8.146451e-02 1.120109e-01 7.687708e-02 6.795063e-02 1.308282e-01 5.702829e-02 3.484998e-02 3.931661e-02 5.844498e-02 1.153731e-01 1.673463e-03 3.091406e-03 1.759839e-03 2.676601e-03 1.693903e-03 1.700378e-03 3.292019e-03 1.458259e-03 1.161958e-03 1.018208e-03 8.357129e-04 1.582550e-03 7.424231e-05 1.254467e-04 8.784339e-05 1.372297e-04 9.678870e-05 8.640144e-05 1.319480e-04 7.187405e-05 7.338716e-05 5.542495e-05 3.861048e-05 9.040273e-05
<GCONST> -1.294008e+02
<TRANSP> 3
 0.000000e+00 1.000000e+00 0.000000e+00
 0.000000e+00 7.090702e-01 2.909299e-01
 0.000000e+00 0.000000e+00 0.000000e+00
<ENDHMM>
~h "Tab0085"
<BEGINHMM>
<NUMSTATES> 3
<STATE> 2
<MEAN> 39
 -4.309039e+02 -1.629414e+00 6.552133e-02 2.004970e-01 1.535662e-01 1.470895e-01 1.939569e-01 2.881376e-01 3.119279e-01 3.751521e-01 3.309381e-01 2.526801e-01 2.406838e-01 2.651437e-01 2.985371e-01 -3.888033e-04 -5.785835e-04 -1.519972e-03 -1.478462e-03 -7.812856e-04 3.690964e-04 8.736238e-04 3.718821e-04 -1.935419e-03 -2.558471e-03 -7.479759e-04 6.126426e-05 2.468102e-05 6.876967e-04 9.076293e-04 5.548111e-04 -2.115028e-05 -1.650513e-04 1.637285e-04 2.683167e-04 5.677593e-04 8.160163e-04 3.646966e-04 -2.352002e-04
<VARIANCE> 39
 2.578881e+04 5.221514e+02 3.273162e+01 5.719555e-02 6.089025e-02 6.192624e-02 4.760564e-02 1.376684e-01 7.637161e-02 1.399459e-01 1.059516e-01 5.844950e-02 9.064443e-02 7.244484e-02 1.402488e-01 4.365336e-04 1.189348e-03 6.771396e-04 5.513734e-04 1.835825e-03 1.123318e-03 1.851201e-03 1.448561e-03 9.937296e-04 1.361742e-03 6.654339e-04 4.580447e-04 3.238291e-05 6.384215e-05 5.572419e-05 3.318717e-05 8.766753e-05 6.137284e-05 1.009268e-04 7.398865e-05 5.434906e-05 7.224667e-05 4.303795e-05 4.537912e-05
<GCONST> -1.394786e+02
<TRANSP> 3
 0.000000e+00 1.000000e+00 0.000000e+00
 0.000000e+00 7.053680e-01 2.946320e-01
 0.000000e+00 0.000000e+00 0.000000e+00
<ENDHMM>
~h "Tab0086"
<BEGINHMM>
<NUMSTATES> 3
<STATE> 2
<MEAN> 39
 -4.121653e+02 2.947345e+00 -4.863952e-01 3.078863e-01 2.406871e-01 2.709764e-01 2.924585e-01 3.253819e-01 3.069942e-01 3.430803e-01 3.877442e-01 4.012398e-01 3.909849e-01 3.697683e-01 4.104863e-01 5.670754e-04 6.539735e-04 2.317610e-04 -5.697549e-04 -1.216650e-05 9.774350e-04 1.962818e-03 2.938757e-03 4.799478e-03 5.418230e-03 3.211980e-03 1.172450e-03 -2.952139e-04 -2.098350e-04 -1.705370e-04 -2.404836e-04 -4.108040e-04 -4.039433e-04 -5.113884e-04 -7.718892e-04 -1.005405e-03 -9.371117e-04 -8.029501e-04 -5.299614e-04
<VARIANCE> 39
 2.639433e+04 5.398953e+02 3.034788e+01 9.105533e-02 5.722772e-02 1.022214e-01 7.158816e-02 1.164447e-01 7.504362e-02 9.487835e-02 1.038076e-01 1.000296e-01 1.056311e-01 7.222410e-02 1.343386e-01 2.429465e-03 1.227293e-03 2.449894e-03 1.813578e-03 3.295696e-03 1.761633e-03 2.250378e-03 2.682303e-03 2.367212e-03 2.880062e-03 1.978853e-03 3.523851e-03 1.116063e-04 6.159743e-05 1.213154e-04 8.577803e-05 1.482735e-04 8.226917e-05 1.203628e-04 1.387646e-04 1.205254e-04 1.386410e-04 9.046731e-05 1.580857e-04
<GCONST> -1.193253e+02
<TRANSP> 3
 0.000000e+00 1.000000e+00 0.000000e+00
 0.000000e+00 8.439038e-01 1.560962e-01
 0.000000e+00 0.000000e+00 0.000000e+00
<ENDHMM>
~h "Tab0087"
<BEGINHMM>
<NUMSTATES> 3
<STATE> 2
<MEAN> 39
 -5.054973e+02 -3.647252e+00 3.479359e-01 1.032622e-01 2.093207e-01 3.041394e-01 3.890294e-01 3.313226e-01 3.550695e-01 3.930169e-01 2.082979e-01 7.494178e-02 7.157327e-02 7.965326e-02 5.575834e-02 -6.645633e-04 -7.529255e-04 -1.301774e-04 -4.884378e-04 -1.342515e-03 -1.010135e-03 -7.682312e-04 -1.482968e-03 -2.016937e-03 -1.818724e-03 -1.930548e-03 -1.385483e-03 2.212240e-04 2.908165e-04 1.909094e-04 1.004637e-04 1.377345e-04 1.527843e-04 6.265606e-05 5.336778e-05 1.885713e-04 1.907837e-04 1.607522e-04 1.579158e-04
<VARIANCE> 39
 9.028477e+03 2.471217e+01 2.173681e+00 2.929744e-02 1.083527e-01 9.069751e-02 1.745480e-01 8.776960e-02 9.574513e-02 1.777475e-01 4.909831e-02 6.394106e-03 3.253463e-03 6.452392e-03 5.319184e-03 1.809003e-05 2.473998e-05 1.661333e-05 1.225951e-05 6.050914e-05 6.605734e-05 3.855214e-05 2.998517e-05 5.490138e-05 5.118376e-05 5.611785e-05 2.831957e-05 3.196801e-06 4.164273e-06 2.373842e-06 2.023694e-06 5.046574e-06 5.918194e-06 3.996186e-06 2.713304e-06 3.276165e-06 3.286513e-06 4.635326e-06 4.558478e-06
<GCONST> -2.298383e+02
<TRANSP> 3
 0.000000e+00 1.000000e+00 0.000000e+00
 0.000000e+00 9.424227e-01 5.757717e-02
 0.000000e+00 0.000000e+00 0.000000e+00
<ENDHMM>
~h "Tab0088"
<BEGINHMM>
<NUMSTATES> 3
<STATE> 2
<MEAN> 39
 -6.157113e+02 -2.427733e+00 4.897264e-01 2.128008e-01 5.616259e-02 2.878170e-02 4.497733e-02 5.358567e-02 5.572751e-02 1.034521e-01 1.255209e-01 1.423647e-01 1.589867e-01 2.186969e-01 3.184260e-01 5.051082e-05 -2.039592e-04 -5.456138e-05 -3.856849e-05 -2.050527e-04 -5.946293e-04 -1.413557e-03 -1.815602e-03 -1.872895e-03 -1.751159e-03 -9.939014e-04 -2.175487e-04 5.940546e-05 2.687949e-04 3.580778e-04 3.327754e-04 3.013228e-04 3.360299e-04 4.092547e-04 4.584772e-04 4.202437e-04 4.274577e-04 2.450980e-04 9.423180e-06
<VARIANCE> 39
 1.490162e+04 3.142497e+01 1.886826e+00 9.151792e-02 1.633734e-02 4.168767e-03 1.047486e-02 2.556830e-02 1.282624e-02 3.108781e-02 6.036505e-02 5.443502e-02 1.016638e-01 6.399128e-02 1.925538e-01 7.390530e-05 1.983375e-05 6.459828e-05 1.733938e-04 1.647269e-04 5.952060e-05 1.228285e-04 8.266883e-05 9.891190e-05 8.666304e-05 7.104487e-05 1.607001e-04 6.167821e-06 2.021118e-06 4.040739e-06 6.553824e-06 1.130354e-05 5.542399e-06 1.091091e-05 9.406501e-06 1.037123e-05 1.034710e-05 4.816168e-06 1.709135e-05
<GCONST> -2.095582e+02
<TRANSP> 3
 0.000000e+00 1.000000e+00 0.000000e+00
 0.000000e+00 9.005131e-01 9.948701e-02
 0.000000e+00 0.000000e+00 0.000000e+00
<ENDHMM>
~h "Tab0090"
<BEGINHMM>
<NUMSTATES> 3
<STATE> 2
<MEAN> 39
 -4.277892e+02 7.675695e-01 -1.844163e-01 3.245274e-01 2.352138e-01 2.163896e-01 3.173654e-01 4.626452e-01 3.684887e-01 3.056751e-01 3.256933e-01 2.743733e-01 2.590626e-01 2.903731e-01 3.821933e-01 -7.043878e-04 9.702722e-05 3.971562e-04 1.880392e-03 3.287978e-03 1.863966e-03 -3.598945e-04 -1.075279e-03 -7.127019e-04 -4.408387e-04 -1.006525e-03 -1.592056e-03 -2.161236e-05 9.763025e-05 1.282821e-04 -1.456520e-04 -4.016966e-04 -2.090638e-04 1.450056e-04 1.839728e-04 7.930593e-05 6.471897e-05 -9.331183e-06 -1.053006e-04
<VARIANCE> 39
 1.887027e+04 4.049133e+02 2.522924e+01 1.177034e-01 5.196849e-02 7.436445e-02 6.089303e-02 1.531169e-01 8.672334e-02 8.092178e-02 1.051733e-01 4.741543e-02 1.044976e-01 5.549642e-02 9.369498e-02 1.392761e-03 8.271493e-04 1.770563e-03 1.437836e-03 3.578237e-03 1.624675e-03 1.647615e-03 2.049934e-03 6.748021e-04 9.901319e-04 9.441639e-04 1.628695e-03 6.783695e-05 4.219422e-05 9.426211e-05 8.008896e-05 1.811394e-04 8.449012e-05 8.606216e-05 1.029152e-04 3.824733e-05 4.836478e-05 5.026357e-05 8.745621e-05
<GCONST> -1.324685e+02
<TRANSP> 3
 0.000000e+00 1.000000e+00 0.000000e+00
 0.000000e+00 9.527827e-01 4.721731e-02
 0.000000e+00 0.000000e+00 0.000000e+00
<ENDHMM>
~h "Tab0091"
<BEGINHMM>
<NUMSTATES> 3
<STATE> 2
<MEAN> 39
 -6.677269e+02 -5.241740e-01 6.834354e-02 1.165186e-02 8.325031e-03 5.495295e-03 9.570798e-03 1.515210e-02 1.148750e-02 1.725714e-02 4.563147e-02 9.685694e-02 1.057740e-01 4.853922e-02 1.266240e-02 -2.317999e-04 -2.294034e-04 -1.297765e-05 -6.180390e-05 -2.268739e-04 -1.961406e-04 -4.420434e-04 -3.854624e-04 -8.997886e-05 -2.377105e-04 -2.307988e-04 -1.558032e-04 3.530005e-05 4.460190e-05 4.243366e-05 2.535335e-05 1.448742e-05 3.755963e-05 9.198845e-05 7.147106e-05 1.385771e-05 3.571958e-05 6.366849e-05 3.934695e-05
<VARIANCE> 39
 5.375046e+03 4.007446e+00 1.021243e-01 6.754275e-03 3.205943e-03 1.028935e-03 2.043776e-03 6.121627e-03 3.082189e-03 6.846264e-03 2.444465e-02 6.348041e-02 8.122580e-02 2.087999e-02 5.681078e-03 9.562312e-06 5.756516e-06 1.411369e-05 8.036525e-06 3.348796e-05 1.124085e-05 1.745435e-05 2.141603e-05 7.292997e-06 9.102586e-06 6.066088e-06 1.424041e-05 4.039318e-07 3.838592e-07 4.262554e-07 3.326209e-07 7.420575e-07 4.357443e-07 6.807657e-07 1.058183e-06 4.137804e-07 4.840364e-07 4.408613e-07 7.713079e-07
<GCONST> -2.886051e+02
<TRANSP> 3
 0.000000e+00 1.000000e+00 0.000000e+00
 0.000000e+00 9.571029e-01 4.289709e-02
 0.000000e+00 0.000000e+00 0.000000e+00
<ENDHMM>
~h "Tab0092"
<BEGINHMM>
<NUMSTATES> 3
<STATE> 2
<MEAN> 39
 -6.623605e+02 -4.687998e-01 3.075575e-02 9.510617e-03 1.531068e-02 6.876151e-02 1.348413e-01 1.171635e-01 1.160187e-01 1.297185e-01 6.005811e-02 8.769198e-03 8.651578e-03 9.519950e-03 5.976608e-03 -1.058803e-04 -1.691183e-04 -7.918345e-05 -1.085585e-04 -1.535496e-04 -6.193067e-05 -4.286376e-05 -1.062771e-04 -1.502660e-04 -1.990005e-04 -2.491645e-04 -1.689902e-04 1.272547e-05 1.663984e-05 1.296792e-05 5.270138e-06 9.841926e-06 1.224037e-05 1.594441e-06 7.233670e-06 1.506738e-05 3.060985e-05 4.696968e-05 2.755981e-05
<VARIANCE> 39
 5.456519e+03 2.213965e+00 9.713050e-02 2.177027e-03 7.843710e-03 2.976735e-02 1.044296e-01 5.930353e-02 6.529997e-02 9.808679e-02 2.551942e-02 8.611440e-04 1.215130e-03 7.854612e-04 1.012177e-03 7.738464e-06 5.756516e-06 8.173934e-06 6.020874e-06 9.842092e-06 7.769793e-06 7.680384e-06 9.380564e-06 7.292997e-06 9.102586e-06 6.066088e-06 8.300907e-06 4.039318e-07 3.075810e-07 4.262554e-07 3.326209e-07 5.388900e-07 4.357443e-07 4.302722e-07 5.102124e-07 4.137804e-07 4.840364e-07 3.307438e-07 4.497233e-07
<GCONST> -2.950342e+02
<TRANSP> 3
 0.000000e+00 1.000000e+00 0.000000e+00
 0.000000e+00 9.842313e-01 1.576875e-02
 0.000000e+00 0.000000e+00 0.000000e+00
<ENDHMM>
~h "Tab0097"
<BEGINHMM>
<NUMSTATES> 3
<STATE> 2
<MEAN> 39
 -5.100930e+02 -7.734957e-01 2.371186e-01 1.483035e-01 1.157889e-01 1.099386e-01 6.715050e-02 7.386078e-02 2.638824e-01 4.915110e-01 4.019012e-01 2.175392e-01 2.187219e-01 2.535145e-01 2.428186e-01 -3.437435e-04 -9.927431e-04 -4.784366e-04 -4.014054e-05 1.051701e-03 1.300280e-03 -1.169282e-03 -1.278109e-03 4.461652e-05 1.119925e-03 2.601325e-03 1.739610e-03 1.313737e-04 1.042360e-04 7.485486e-05 5.576881e-05 1.392159e-04 1.570134e-04 5.691854e-05 8.924285e-05 6.394382e-05 7.194839e-05 1.187878e-04 1.295146e-04
<VARIANCE> 39
 1.510336e+04 1.310413e+02 8.321047e+00 3.861604e-02 1.537351e-02 3.664746e-02 1.460602e-02 1.470023e-02 7.899768e-02 1.568727e-01 1.301664e-01 7.360584e-02 9.883366e-02 7.715850e-02 1.308250e-01 3.441508e-04 1.347393e-04 2.734444e-04 1.198711e-04 1.459125e-04 5.410031e-04 8.359624e-04 5.557635e-04 8.265080e-04 5.390777e-04 3.787244e-04 8.741362e-04 1.614521e-05 6.881436e-06 1.228491e-05 5.697300e-06 8.335840e-06 2.392588e-05 3.985760e-05 2.886825e-05 3.593497e-05 2.754600e-05 1.960767e-05 3.906151e-05
<GCONST> -1.723832e+02
<TRANSP> 3
 0.000000e+00 1.000000e+00 0.000000e+00
 0.000000e+00 9.708205e-01 2.917949e-02
 0.000000e+00 0.000000e+00 0.000000e+00
<ENDHMM>
~h "Tab0098"
<BEGINHMM>
<NUMSTATES> 3
<STATE> 2
<MEAN> 39
 -7.429375e+02 -1.457083e-01 2.556191e-02 2.481239e-02 1.038965e-02 3.339509e-03 2.282745e-03 1.603846e-03 1.613495e-03 4.986009e-03 8.079521e-03 4.927817e-03 2.277834e-03 9.616511e-03 2.465337e-02 -5.889309e-06 -6.010188e-06 -3.187328e-05 -3.129319e-05 -1.774189e-05 -2.555203e-05 -5.198711e-05 -7.987241e-05 -7.385356e-05 -6.067877e-05 -2.662466e-05 -2.740319e-05 3.018509e-06 1.574858e-05 2.181310e-05 1.787679e-05 2.174468e-05 2.037547e-05 2.029835e-05 1.671303e-05 1.728352e-05 1.587691e-05 1.725995e-05 1.043521e-05
<VARIANCE> 39
 7.994242e+03 1.648368e+00 9.713050e-02 2.023679e-02 5.074512e-03 1.499545e-03 6.844017e-04 1.068953e-03 8.484249e-04 1.592536e-03 5.458022e-03 1.793689e-03 1.215130e-03 4.295262e-03 1.966146e-02 7.738464e-06 5.756516e-06 8.173934e-06 6.020874e-06 9.842092e-06 7.769793e-06 7.680384e-06 9.380564e-06 7.292997e-06 9.102586e-06 6.066088e-06 8.300907e-06 4.039318e-07 3.075810e-07 4.262554e-07 3.326209e-07 5.388900e-07 4.357443e-07 4.302722e-07 5.102124e-07 4.137804e-07 4.840364e-07 3.307438e-07 4.497233e-07
<GCONST> -3.097921e+02
<TRANSP> 3
 0.000000e+00 1.000000e+00 0.000000e+00
 0.000000e+00 9.767148e-01 2.328523e-02
 0.000000e+00 0.000000e+00 0.000000e+00
<ENDHMM>
~h "Tab0100"
<BEGINHMM>
<NUMSTATES> 3
<STATE> 2
<MEAN> 39
 -3.059108e+02 2.911538e-01 -1.327593e-01 3.388503e-01 4.257004e-01 5.591216e-01 3.985641e-01 2.874550e-01 2.829762e-01 3.924011e-01 4.729740e-01 3.889643e-01 3.604652e-01 2.929526e-01 3.276653e-01 -5.898835e-04 8.862506e-04 2.343847e-03 1.628598e-03 1.401125e-04 -5.051606e-04 -4.163134e-04 -1.596583e-04 8.187268e-04 1.179093e-03 2.914313e-04 -4.716535e-04 3.166920e-04 -1.133724e-04 -5.882503e-04 -9.922143e-05 3.682495e-04 2.550482e-04 -1.206219e-04 -4.163159e-04 -1.268457e-04 2.402086e-04 2.372888e-04 2.426502e-04
<VARIANCE> 39
 1.047755e+04 8.328712e+01 5.467803e+00 1.155687e-01 4.308829e-02 1.496862e-01 4.796546e-02 5.742983e-02 5.190936e-02 5.495601e-02 1.187634e-01 4.246480e-02 9.673660e-02 4.051794e-02 6.883143e-02 4.743004e-04 5.775179e-04 1.727183e-03 6.842877e-04 9.143232e-04 7.454321e-04 9.945462e-04 1.581272e-03 5.664186e-04 8.758960e-04 4.485539e-04 5.491921e-04 2.610432e-05 2.893880e-05 8.142615e-05 3.897602e-05 4.770022e-05 3.777286e-05 5.041295e-05 8.273656e-05 3.382627e-05 4.510338e-05 2.390912e-05 3.497769e-05
<GCONST> -1.526658e+02
<TRANSP> 3
 0.000000e+00 1.000000e+00 0.000000e+00
 0.000000e+00 9.188825e-01 8.111747e-02
 0.000000e+00 0.000000e+00 0.000000e+00
<ENDHMM>
~h "Tab0101"
<BEGINHMM>
<NUMSTATES> 3
<STATE> 2
<MEAN> 39
 -5.165677e+02 -8.109163e-01 8.064172e-02 3.435523e-01 2.301953e-01 1.292525e-01 1.345051e-01 2.152208e-01 2.529395e-01 1.890729e-01 1.878211e-01 1.737645e-01 1.867446e-01 1.386439e-01 2.239953e-01 3.443274e-04 2.532628e-04 1.328593e-04 -1.142950e-04 -2.866194e-04 -5.605442e-04 -6.942534e-04 -6.326802e-04 -4.808101e-04 -2.788100e-04 -9.644540e-05 2.206318e-04 -7.283536e-06 2.525997e-05 6.077472e-05 1.233061e-04 1.010789e-04 9.719314e-05 1.800308e-04 1.914241e-04 1.500935e-04 7.118117e-05 6.337202e-05 2.641337e-05
<VARIANCE> 39
 3.915661e+04 2.583802e+01 1.532856e+00 1.793791e-01 5.492643e-02 6.042217e-02 3.243307e-02 7.531752e-02 1.198079e-01 5.325250e-02 8.732003e-02 4.396345e-02 8.056592e-02 4.005223e-02 7.021937e-02 7.842619e-05 2.583628e-05 1.997286e-05 5.125202e-05 1.111861e-04 1.007237e-04 1.009294e-04 1.244873e-04 1.459490e-04 1.728227e-04 6.906492e-05 2.548771e-05 3.524660e-06 1.176242e-06 1.391039e-06 3.098468e-06 6.029498e-06 5.088260e-06 6.083560e-06 7.580453e-06 8.891909e-06 9.698908e-06 4.029857e-06 1.276716e-06
<GCONST> -2.109422e+02
<TRANSP> 3
 0.000000e+00 1.000000e+00 0.000000e+00
 0.000000e+00 9.012513e-01 9.874869e-02
 0.000000e+00 0.000000e+00 0.000000e+00
<ENDHMM>
~h "Tab0102"
<BEGINHMM>
<NUMSTATES> 3
<STATE> 2
<MEAN> 39
 -4.019560e+02 -1.280052e+00 2.734195e-01 9.147712e-02 1.619700e-01 2.707410e-01 2.395264e-01 1.619393e-01 1.354064e-01 2.364076e-01 3.427367e-01 3.087085e-01 3.151383e-01 2.629332e-01 1.630403e-01 -8.991065e-04 -3.152526e-04 1.338464e-04 -1.382682e-05 -6.905250e-04 -1.246166e-03 -9.090477e-04 -2.786089e-05 -3.876743e-04 -6.600454e-04 1.217282e-04 -4.107903e-04 1.425084e-04 1.443474e-04 7.981600e-05 1.235910e-04 2.981142e-04 3.655053e-04 2.596115e-04 2.060079e-04 3.410369e-04 3.283575e-04 2.047654e-04 1.636057e-04
<VARIANCE> 39
 1.783002e+04 3.637174e+01 2.200243e+00 1.828593e-02 3.383999e-02 1.077264e-01 7.417241e-02 3.993503e-02 2.063053e-02 6.720514e-02 1.703070e-01 7.414016e-02 1.346122e-01 8.534317e-02 3.307369e-02 1.417862e-04 8.043235e-05 1.922502e-04 1.434971e-04 1.361903e-04 1.213875e-04 2.223490e-04 1.708344e-04 2.289766e-04 2.340882e-04 1.062120e-04 1.592035e-04 8.074227e-06 5.102443e-06 1.100261e-05 8.059639e-06 9.072392e-06 8.791158e-06 1.461105e-05 9.926960e-06 1.516688e-05 1.214067e-05 6.339981e-06 1.118056e-05
<GCONST> -1.925043e+02
<TRANSP> 3
 0.000000e+00 1.000000e+00 0.000000e+00
 0.000000e+00 9.213677e-01 7.863227e-02
 0.000000e+00 0.000000e+00 0.000000e+00
<ENDHMM>
~h "Tab0103"
<BEGINHMM>
<NUMSTATES> 3
<STATE> 2
<MEAN> 39
 -6.996652e+02 -2.741540e-03 6.856825e-04 1.367153e-03 8.083638e-04 2.172292e-04 2.313122e-04 2.832366e-04 1.831665e-04 1.797219e-04 2.531174e-04 2.281258e-04 2.195936e-04 2.645960e-04 8.297306e-04 6.142734e-06 -4.688523e-06 -1.792404e-05 -1.190280e-05 -4.120213e-06 -1.116884e-06 -4.388355e-06 -6.241412e-06 3.472091e-06 1.267712e-05 8.585390e-06 -1.529984e-06 1.071161e-06 2.373388e-06 4.373295e-06 2.039792e-06 1.202659e-06 1.290368e-06 3.492903e-06 4.579078e-06 2.763162e-06 1.802328e-06 3.400257e-06 1.877985e-06
<VARIANCE> 39
 3.901716e+03 1.648368e+00 9.713050e-02 1.295754e-03 7.507265e-04 1.011769e-03 6.844017e-04 1.068953e-03 8.484249e-04 8.535165e-04 1.088234e-03 8.611440e-04 1.215130e-03 7.854612e-04 1.012177e-03 7.738464e-06 5.756516e-06 8.173934e-06 6.020874e-06 9.842092e-06 7.769793e-06 7.680384e-06 9.380564e-06 7.292997e-06 9.102586e-06 6.066088e-06 8.300907e-06 4.039318e-07 3.075810e-07 4.262554e-07 3.326209e-07 5.388900e-07 4.357443e-07 4.302722e-07 5.102124e-07 4.137804e-07 4.840364e-07 3.307438e-07 4.497233e-07
<GCONST> -3.231978e+02
<TRANSP> 3
 0.000000e+00 1.000000e+00 0.000000e+00
 0.000000e+00 9.964260e-01 3.574031e-03
 0.000000e+00 0.000000e+00 0.000000e+00
<ENDHMM>
~h "Tab0104"
<BEGINHMM>
<NUMSTATES> 3
<STATE> 2
<MEAN> 39
 -3.689721e+02 2.852998e-01 -5.123613e-02 4.395361e-01 4.082742e-01 4.184313e-01 3.664720e-01 3.366795e-01 2.758839e-01 4.221524e-01 5.797483e-01 4.166473e-01 2.813410e-01 2.996513e-01 4.061280e-01 1.474223e-04 3.037473e-04 4.536163e-04 1.564140e-04 -1.752937e-04 -2.138552e-04 1.418668e-04 5.068778e-04 2.893248e-04 6.874801e-05 2.219181e-04 -1.548784e-04 -1.353233e-04 -1.492785e-04 -1.444558e-04 -5.587394e-05 5.454158e-05 7.458335e-05 -1.204545e-05 -7.396011e-05 3.682690e-05 1.316275e-04 5.002078e-05 -7.871546e-05
<VARIANCE> 39
 2.106794e+04 3.732746e+02 2.073296e+01 1.390524e-01 4.943617e-02 1.341842e-01 5.686346e-02 1.040242e-01 4.228324e-02 5.223076e-02 1.165610e-01 5.083385e-02 4.601854e-02 4.449564e-02 8.187933e-02 2.649447e-03 1.058532e-03 2.044328e-03 8.324874e-04 1.152858e-03 7.251163e-04 9.712824e-04 1.832622e-03 8.956050e-04 7.003176e-04 7.684174e-04 1.344777e-03 1.341184e-04 5.671933e-05 1.023711e-04 4.088695e-05 5.579280e-05 3.767611e-05 5.340371e-05 1.012732e-04 5.024430e-05 3.754827e-05 3.828106e-05 7.510161e-05
<GCONST> -1.395931e+02
<TRANSP> 3
 0.000000e+00 1.000000e+00 0.000000e+00
 0.000000e+00 9.760894e-01 2.391056e-02
 0.000000e+00 0.000000e+00 0.000000e+00
<ENDHMM>
~h "Tab0105"
<BEGINHMM>
<NUMSTATES> 3
<STATE> 2
<MEAN> 39
 -4.796663e+02 1.276712e+00 -8.652659e-02 3.247115e-01 2.883985e-01 2.923975e-01 2.728735e-01 2.729282e-01 2.355982e-01 2.992682e-01 3.903667e-01 4.130691e-01 4.420856e-01 4.123161e-01 3.736048e-01 3.624212e-03 1.582889e-04 -2.424389e-03 -4.025520e-04 3.271897e-04 -5.552624e-04 -6.520483e-04 -1.125591e-03 -9.689997e-04 -1.390241e-03 1.230082e-04 3.691576e-03 8.524925e-04 -1.016223e-04 -9.670184e-04 -7.801901e-04 -6.053105e-04 -6.016866e-04 -8.674285e-04 -1.001276e-03 -1.191541e-03 -1.535026e-03 -1.180985e-03 3.933940e-04
<VARIANCE> 39
 2.015580e+04 3.282793e+02 1.979182e+01 1.085010e-01 7.395747e-02 9.988397e-02 7.017595e-02 9.210429e-02 6.259142e-02 7.724468e-02 1.333986e-01 7.957821e-02 1.400481e-01 7.839126e-02 9.680133e-02 3.207303e-03 2.156847e-03 2.806163e-03 1.772049e-03 2.805244e-03 1.789767e-03 2.504959e-03 4.004511e-03 2.018968e-03 4.819761e-03 2.300679e-03 3.255174e-03 1.524194e-04 1.164165e-04 1.559532e-04 1.056551e-04 1.601011e-04 1.023957e-04 1.496563e-04 2.419248e-04 9.699868e-05 2.476992e-04 1.267929e-04 1.704655e-04
<GCONST> -1.156972e+02
<TRANSP> 3
 0.000000e+00 1.000000e+00 0.000000e+00
 0.000000e+00 8.895025e-01 1.104975e-01
 0.000000e+00 0.000000e+00 0.000000e+00
<ENDHMM>
~h "Tab0106"
<BEGINHMM>
<NUMSTATES> 3
<STATE> 2
<MEAN> 39
 -4.741839e+02 -1.599757e-01 2.846654e-02 5.000439e-01 8.892694e-02 1.101445e-01 5.126036e-01 8.306172e-01 4.407340e-01 8.675275e-02 9.465849e-02 1.338895e-01 1.278915e-01 5.002487e-01 9.187785e-01 -1.843967e-04 6.417205e-05 7.502212e-05 2.957282e-04 3.387179e-04 1.608797e-04 -7.011055e-06 -7.451868e-05 -1.094166e-04 -7.723812e-05 -3.630090e-04 -5.114269e-04 3.144977e-05 7.532326e-05 6.412702e-05 3.913148e-06 -8.717511e-05 9.717163e-06 9.531548e-05 5.810068e-05 4.488659e-05 7.093683e-05 4.032895e-05 -1.370503e-06
<VARIANCE> 39
 8.473246e+02 2.825615e+01 1.890958e+00 1.034578e-02 7.507265e-04 3.230186e-03 1.535658e-02 3.177205e-02 1.300779e-02 3.446221e-03 1.259979e-03 2.854529e-03 4.619724e-03 1.217561e-02 2.930571e-02 2.053165e-04 1.954667e-05 9.718684e-05 6.448275e-04 1.024411e-03 3.650325e-04 1.175286e-04 3.513164e-05 7.588467e-05 8.427396e-05 2.884791e-04 6.572150e-04 1.291936e-05 1.521592e-06 6.225524e-06 4.604740e-05 7.088361e-05 2.333613e-05 7.916246e-06 2.324275e-06 4.342697e-06 4.458159e-06 1.911042e-05 4.400753e-05
<GCONST> -2.200902e+02
<TRANSP> 3
 0.000000e+00 1.000000e+00 0.000000e+00
 0.000000e+00 8.986486e-01 1.013515e-01
 0.000000e+00 0.000000e+00 0.000000e+00
<ENDHMM>
~h "Tab0111"
<BEGINHMM>
<NUMSTATES> 3
<STATE> 2
<MEAN> 39
 -3.557624e+02 -9.808716e-01 2.331484e-01 6.484276e-02 1.518073e-01 2.315791e-01 2.021437e-01 1.987332e-01 2.683097e-01 3.659386e-01 3.783022e-01 4.921530e-01 5.540617e-01 2.920997e-01 8.482101e-02 1.783856e-04 4.841055e-04 4.170119e-04 2.672561e-04 5.659834e-04 8.029586e-04 -9.484033e-04 -2.132894e-03 -1.178964e-03 1.833297e-03 1.657302e-03 2.750980e-04 2.425044e-04 1.901570e-04 1.015129e-04 2.646617e-04 3.545925e-04 3.472011e-04 2.918053e-04 5.024470e-04 3.139246e-04 3.605636e-05 1.180178e-04 2.463079e-04
<VARIANCE> 39
 1.310469e+04 1.072097e+02 8.153406e+00 8.226820e-03 3.565983e-02 9.718972e-02 3.696863e-02 2.759569e-02 5.717124e-02 1.545001e-01 8.454906e-02 1.085910e-01 1.318259e-01 6.022788e-02 1.188860e-02 5.115155e-05 7.739010e-05 1.166583e-04 1.655102e-04 3.238169e-04 2.611179e-04 2.017244e-04 2.938767e-04 2.391274e-04 3.384812e-04 1.706434e-04 6.321065e-05 3.528153e-06 5.391830e-06 9.948450e-06 1.154864e-05 1.900006e-05 1.633694e-05 1.444317e-05 1.970414e-05 1.631405e-05 1.977089e-05 1.098389e-05 4.292227e-06
<GCONST> -1.898993e+02
<TRANSP> 3
 0.000000e+00 1.000000e+00 0.000000e+00
 0.000000e+00 9.355232e-01 6.447683e-02
 0.000000e+00 0.000000e+00 0.000000e+00
<ENDHMM>
~h "Tab0112"
<BEGINHMM>
<NUMSTATES> 3
<STATE> 2
<MEAN> 39
 -4.456154e+02 1.215742e+00 -3.925537e-02 3.431539e-01 3.353676e-01 3.580609e-01 3.106632e-01 3.022960e-01 2.683851e-01 3.595655e-01 5.006149e-01 4.079054e-01 3.519496e-01 3.333635e-01 3.866337e-01 -5.218988e-03 -4.578468e-03 -4.299129e-03 3.036800e-03 1.026583e-02 5.690629e-03 -1.466758e-03 -3.720222e-03 -1.046528e-03 1.756558e-03 -1.074982e-03 -4.283292e-03 6.432375e-04 8.321440e-06 -1.743808e-03 6.162822e-05 2.208687e-03 8.592646e-04 -2.569258e-03 -4.637503e-03 -1.234962e-03 1.962494e-03 2.355116e-04 -1.098759e-03
<VARIANCE> 39
 2.193436e+04 4.359981e+02 2.396542e+01 1.171993e-01 6.118764e-02 9.804546e-02 4.747254e-02 8.490700e-02 6.115474e-02 5.099626e-02 1.479932e-01 6.000755e-02 1.051398e-01 5.486266e-02 6.978189e-02 2.667902e-03 1.291520e-03 2.144893e-03 1.197146e-03 3.371570e-03 1.727424e-03 1.951913e-03 5.255916e-03 1.772922e-03 3.802700e-03 1.430430e-03 1.495769e-03 1.134640e-04 6.695033e-05 1.074562e-04 6.084492e-05 1.464742e-04 8.231031e-05 9.615258e-05 2.437796e-04 8.517269e-05 1.604240e-04 6.476929e-05 7.208642e-05
<GCONST> -1.247469e+02
<TRANSP> 3
 0.000000e+00 1.000000e+00 0.000000e+00
 0.000000e+00 9.399745e-01 6.002542e-02
 0.000000e+00 0.000000e+00 0.000000e+00
<ENDHMM>
~h "Tab0113"
<BEGINHMM>
<NUMSTATES> 3
<STATE> 2
<MEAN> 39
 -3.610376e+02 1.600129e+00 -2.346255e-01 1.422052e-01 3.229131e-01 4.901977e-01 4.057399e-01 3.716720e-01 3.563396e-01 3.864645e-01 3.790854e-01 4.678552e-01 5.962304e-01 3.747441e-01 1.603910e-01 -7.282700e-04 -5.807405e-04 1.950170e-04 1.826616e-04 -1.254627e-03 -1.971972e-03 -2.140888e-04 4.271007e-03 4.813648e-03 1.043867e-03 -1.444939e-03 -1.527381e-03 -8.078846e-05 -3.613722e-04 -6.325458e-04 -3.691457e-04 5.344860e-06 -9.274681e-05 -6.180105e-04 -1.128581e-03 -1.104659e-03 -6.871953e-04 -4.589256e-04 -2.051208e-04
<VARIANCE> 39
 1.823865e+04 1.606927e+02 1.118576e+01 3.079963e-02 5.363937e-02 1.318208e-01 6.130903e-02 8.784672e-02 6.541464e-02 1.149794e-01 9.819301e-02 6.376130e-02 1.467594e-01 5.809998e-02 2.900798e-02 5.350873e-04 8.941463e-04 2.279032e-03 9.514794e-04 1.626233e-03 1.504171e-03 1.767347e-03 2.656812e-03 1.612653e-03 4.237826e-03 1.745117e-03 6.091492e-04 2.758894e-05 4.096857e-05 1.005244e-04 4.522437e-05 7.871271e-05 7.008394e-05 8.599322e-05 1.212495e-04 9.157881e-05 1.878136e-04 7.788733e-05 3.179262e-05
<GCONST> -1.362728e+02
<TRANSP> 3
 0.000000e+00 1.000000e+00 0.000000e+00
 0.000000e+00 8.006338e-01 1.993663e-01
 0.000000e+00 0.000000e+00 0.000000e+00
<ENDHMM>
~h "Tab0114"
<BEGINHMM>
<NUMSTATES> 3
<STATE> 2
<MEAN> 39
 -4.118786e+02 -1.438493e+00 8.407046e-02 1.229097e-01 2.260083e-01 3.373401e-01 2.210669e-01 1.954957e-01 3.396229e-01 4.659448e-01 4.562096e-01 2.756718e-01 1.645641e-01 1.234938e-01 1.002907e-01 -8.356210e-05 2.977633e-04 -6.283794e-04 -9.593245e-05 -5.484872e-04 -1.921947e-03 -2.127654e-03 -1.473908e-03 -7.504937e-04 -1.061683e-03 -1.271526e-03 -9.147804e-04 6.055344e-04 7.817928e-04 4.962197e-04 1.498535e-03 1.772266e-03 1.537047e-03 1.062166e-03 3.839781e-04 4.903168e-04 5.087012e-04 4.721914e-04 5.055886e-04
<VARIANCE> 39
 4.764721e+04 7.150641e+01 4.710513e+00 4.608760e-02 4.351281e-02 1.142037e-01 3.861395e-02 4.562938e-02 1.339556e-01 1.205774e-01 1.555627e-01 5.107134e-02 2.499111e-02 3.227642e-02 2.366393e-02 7.353837e-04 3.999259e-04 9.045673e-04 3.578571e-04 5.005385e-04 7.861780e-04 7.511336e-04 4.869722e-04 2.828414e-04 4.146739e-04 5.709332e-04 5.729833e-04 3.476585e-05 2.014738e-05 4.675268e-05 3.118090e-05 4.942265e-05 5.272167e-05 4.745645e-05 2.867059e-05 1.639462e-05 2.303093e-05 3.330900e-05 2.862730e-05
<GCONST> -1.608004e+02
<TRANSP> 3
 0.000000e+00 1.000000e+00 0.000000e+00
 0.000000e+00 7.470233e-01 2.529766e-01
 0.000000e+00 0.000000e+00 0.000000e+00
<ENDHMM>
~h "Tab0115"
<BEGINHMM>
<NUMSTATES> 3
<STATE> 2
<MEAN> 39
 -3.521402e+02 -1.473767e+00 -1.753860e+00 5.426910e-01 6.451476e-01 6.770937e-01 4.866312e-01 2.581813e-01 1.918972e-01 2.287663e-01 2.293279e-01 2.316677e-01 3.172692e-01 2.663566e-01 3.419342e-01 1.457768e-02 1.890091e-03 -9.745210e-03 -1.021122e-02 -2.741592e-03 -2.410347e-03 -7.896125e-04 6.088231e-03 -2.381844e-03 -1.231027e-02 -2.131750e-03 1.294421e-02 -1.393264e-03 -1.155523e-03 -8.246177e-04 -2.137180e-04 6.300494e-04 5.414554e-04 8.980909e-04 1.544492e-03 2.281143e-03 2.728739e-03 2.180772e-03 5.665876e-04
<VARIANCE> 39
 6.201033e+02 1.009338e+02 1.117247e+01 1.608776e-01 2.645714e-02 1.353960e-01 6.357511e-02 8.654132e-03 3.961100e-03 8.395599e-03 9.133142e-03 6.994708e-03 4.079739e-02 1.172889e-02 5.372328e-02 2.812783e-03 1.142699e-03 2.542008e-03 1.212088e-03 4.106538e-04 1.586203e-04 3.515823e-04 6.166826e-04 4.276315e-04 1.086235e-03 4.952029e-04 6.940156e-04 1.613890e-04 9.478632e-05 1.400505e-04 7.670000e-05 2.807914e-05 1.212419e-05 1.800779e-05 3.173864e-05 2.015412e-05 4.275114e-05 2.253107e-05 3.755332e-05
<GCONST> -1.682533e+02
<TRANSP> 3
 0.000000e+00 1.000000e+00 0.000000e+00
 0.000000e+00 9.600185e-01 3.998153e-02
 0.000000e+00 0.000000e+00 0.000000e+00
<ENDHMM>
~h "Tab0116"
<BEGINHMM>
<NUMSTATES> 3
<STATE> 2
<MEAN> 39
 -6.829976e+02 5.083387e+00 2.280790e+00 4.163814e-01 4.951589e-01 5.694375e-01 4.247388e-01 3.073314e-01 2.737315e-01 2.976366e-01 4.592945e-01 4.510037e-01 5.729495e-01 5.794756e-01 6.381929e-01 -1.754986e-02 4.396145e-03 2.715195e-02 2.174247e-02 2.084914e-03 4.115263e-03 7.736230e-03 1.186246e-03 7.563467e-04 2.637285e-03 -3.235535e-03 -1.490919e-02 -1.022919e-03 -1.383686e-03 -4.924964e-04 -1.076643e-03 -1.758044e-03 -1.364698e-03 -8.661666e-04 -9.481168e-04 -2.656314e-03 -3.651886e-03 -3.483358e-03 -2.139725e-03
<VARIANCE> 39
 5.286553e+04 2.181615e+03 6.527455e+01 7.916645e-02 8.443263e-02 9.625940e-02 7.621205e-02 5.513886e-02 4.257310e-02 4.991759e-02 8.192372e-02 6.313164e-02 7.821777e-02 6.039787e-02 1.203163e-01 2.389460e-03 3.676510e-03 3.745279e-03 2.814363e-03 2.252588e-03 1.712527e-03 1.371063e-03 2.259548e-03 3.131663e-03 2.869905e-03 2.200068e-03 3.450963e-03 1.033287e-04 1.555322e-04 1.578188e-04 1.525620e-04 1.452645e-04 1.089164e-04 8.825100e-05 1.028875e-04 1.860904e-04 1.401155e-04 9.261661e-05 1.457857e-04
<GCONST> -1.165039e+02
<TRANSP> 3
 0.000000e+00 1.000000e+00 0.000000e+00
 0.000000e+00 8.612650e-01 1.387350e-01
 0.000000e+00 0.000000e+00 0.000000e+00
<ENDHMM>
~h "Tab0121"
<BEGINHMM>
<NUMSTATES> 3
<STATE> 2
<MEAN> 39
 -5.580584e+02 -2.159455e+00 5.752134e-01 5.345695e-01 2.588266e-01 4.158626e-02 1.249507e-01 3.160160e-01 3.058825e-01 1.471567e-01 9.809971e-02 7.106472e-02 3.659068e-02 1.041640e-01 4.061146e-01 -1.947721e-05 -1.288345e-05 -1.375104e-04 -2.666795e-04 -2.966748e-04 -2.631605e-04 -8.366773e-04 -1.452959e-03 -1.019589e-03 -5.170836e-04 -3.334521e-04 -2.159658e-04 -8.240560e-05 3.023096e-04 6.480057e-04 3.778654e-04 4.240789e-05 -1.011019e-04 4.097182e-04 6.735417e-04 4.358728e-04 3.692757e-04 6.897900e-04 2.649289e-04
<VARIANCE> 39
 4.047491e+03 3.090689e+01 2.545491e+00 1.678976e-01 5.397002e-02 5.874539e-03 3.334456e-02 1.490193e-01 1.509052e-01 4.220257e-02 3.639375e-02 1.454573e-02 5.800434e-03 2.681089e-02 8.543858e-02 9.717343e-05 5.755649e-05 3.431612e-05 2.355455e-05 3.039071e-05 2.656862e-05 3.681139e-05 7.455905e-05 6.530525e-05 3.167054e-05 1.204538e-04 1.984059e-04 1.012214e-05 5.888034e-06 8.189715e-06 5.621711e-06 1.020071e-05 3.765387e-06 5.421843e-06 1.313604e-05 6.933645e-06 4.113210e-06 1.016121e-05 1.397354e-05
<GCONST> -2.144091e+02
<TRANSP> 3
 0.000000e+00 1.000000e+00 0.000000e+00
 0.000000e+00 9.132710e-01 8.672898e-02
 0.000000e+00 0.000000e+00 0.000000e+00
<ENDHMM>
~h "Tab0126"
<BEGINHMM>
<NUMSTATES> 3
<STATE> 2
<MEAN> 39
 -3.633794e+02 4.602912e-02 -5.299192e-02 4.139577e-01 3.988847e-01 4.148999e-01 4.313979e-01 4.831817e-01 4.488991e-01 5.606248e-01 7.227719e-01 5.038478e-01 2.924378e-01 2.418480e-01 3.360018e-01 -2.970779e-04 -1.317798e-04 -1.344310e-04 -5.632543e-05 9.047138e-05 2.008513e-04 1.977322e-04 2.856311e-04 3.000211e-04 2.248224e-04 -1.776654e-05 -2.600569e-04 -8.174917e-06 2.996548e-05 5.680638e-05 2.603367e-05 -6.422117e-06 7.242328e-06 -7.285358e-05 -1.694484e-04 -3.859606e-05 1.138566e-04 1.124211e-04 5.243970e-05
<VARIANCE> 39
 1.194233e+04 2.000604e+02 1.206270e+01 1.014627e-01 4.631633e-02 8.646911e-02 5.826269e-02 9.740344e-02 7.114708e-02 5.097026e-02 1.100585e-01 3.793088e-02 6.781582e-02 3.448748e-02 5.358317e-02 1.325125e-03 7.437072e-04 1.130462e-03 1.313677e-03 2.035390e-03 1.428856e-03 1.030868e-03 1.493207e-03 7.622730e-04 1.094283e-03 5.983693e-04 7.674021e-04 7.715595e-05 4.414964e-05 6.433723e-05 8.071800e-05 1.245386e-04 8.807646e-05 6.284133e-05 8.470663e-05 4.533316e-05 6.192789e-05 3.468124e-05 4.648705e-05
<GCONST> -1.420716e+02
<TRANSP> 3
 0.000000e+00 1.000000e+00 0.000000e+00
 0.000000e+00 9.599941e-01 4.000591e-02
 0.000000e+00 0.000000e+00 0.000000e+00
<ENDHMM>
~h "Tab0127"
<BEGINHMM>
<NUMSTATES> 3
<STATE> 2
<MEAN> 39
 -4.171128e+02 -4.643738e-03 -8.932412e-02 4.275986e-01 7.655412e-01 4.492545e-01 1.296165e-01 3.598135e-01 6.319242e-01 4.012217e-01 3.133457e-01 5.181322e-01 4.562230e-01 4.049230e-01 2.773825e-01 -5.256085e-04 -2.236220e-03 3.969930e-04 3.585131e-03 9.277581e-05 -3.812332e-03 -2.176077e-03 2.343751e-03 4.588254e-03 -5.655170e-05 -4.908143e-03 -2.397146e-03 -8.932569e-05 -1.917466e-04 -1.295671e-04 1.845685e-05 1.726287e-04 8.628116e-05 -1.017790e-04 1.423501e-04 1.551979e-04 -4.857658e-05 -3.612656e-05 -5.775636e-05
<VARIANCE> 39
 6.343521e+03 1.306848e+02 5.985059e+00 1.487696e-02 7.305045e-02 1.573118e-02 3.503745e-02 1.620694e-02 6.424662e-02 5.761595e-02 2.148381e-02 7.077818e-02 1.932432e-02 1.844492e-01 8.262108e-02 2.399238e-04 9.185640e-04 1.725130e-04 4.106627e-04 1.395750e-04 8.181685e-04 5.187981e-04 2.614520e-04 5.465870e-04 2.299026e-04 8.651374e-04 5.116828e-04 1.226805e-05 3.887470e-05 9.006904e-06 1.865359e-05 8.264993e-06 3.829226e-05 2.604738e-05 1.420637e-05 2.913644e-05 1.166211e-05 3.935061e-05 1.955544e-05
<GCONST> -1.760329e+02
<TRANSP> 3
 0.000000e+00 1.000000e+00 0.000000e+00
 0.000000e+00 9.294370e-01 7.056300e-02
 0.000000e+00 0.000000e+00 0.000000e+00
<ENDHMM>
~h "Tab0128"
<BEGINHMM>
<NUMSTATES> 3
<STATE> 2
<MEAN> 39
 -2.717811e+02 -2.680389e-01 4.958846e-03 1.957229e-01 5.481299e-01 8.672416e-01 5.431694e-01 2.447693e-01 2.480227e-01 3.967075e-01 4.537861e-01 4.763920e-01 5.611023e-01 3.706992e-01 2.065816e-01 -1.452083e-05 1.071669e-03 1.968151e-04 4.086476e-04 5.212796e-04 4.076154e-04 -1.335497e-03 -4.101765e-03 -1.464095e-03 1.310263e-03 7.816034e-04 -2.075048e-04 2.284768e-04 -5.431846e-04 -1.340517e-03 -2.983260e-04 6.248119e-04 3.779615e-04 -1.101710e-04 -1.850608e-04 2.364543e-04 5.144426e-04 4.368865e-04 3.677451e-04
<VARIANCE> 39
 5.294019e+03 2.791949e+01 2.282431e+00 1.523062e-02 2.483205e-02 5.247794e-02 2.558522e-02 1.869433e-02 1.806219e-02 4.847239e-02 1.216581e-01 3.834587e-02 6.608453e-02 2.693637e-02 1.946007e-02 2.868536e-04 4.962758e-04 7.491746e-04 4.517534e-04 3.930361e-04 4.123026e-04 8.460052e-04 1.445240e-03 7.103333e-04 1.294520e-03 5.318763e-04 2.978500e-04 1.925470e-05 3.156302e-05 4.620848e-05 2.558428e-05 2.592227e-05 2.507818e-05 4.890955e-05 8.104915e-05 3.973474e-05 7.792375e-05 3.129007e-05 1.928896e-05
<GCONST> -1.693148e+02
<TRANSP> 3
 0.000000e+00 1.000000e+00 0.000000e+00
 0.000000e+00 8.790647e-01 1.209352e-01
 0.000000e+00 0.000000e+00 0.000000e+00
<ENDHMM>
~h "Tab0150"
<BEGINHMM>
<NUMSTATES> 3
<STATE> 2
<MEAN> 39
 -4.078741e+02 -1.298692e-01 -5.488228e-01 2.167683e-01 2.210967e-01 1.791954e-01 1.264505e-01 1.328454e-01 1.570680e-01 2.213055e-01 3.673851e-01 5.243930e-01 6.581717e-01 4.371321e-01 2.229277e-01 -2.554880e-03 -2.763063e-03 4.086971e-04 1.683820e-03 1.031162e-03 -7.287422e-05 -1.300857e-03 -3.326785e-03 -3.546484e-03 2.267034e-03 3.301760e-03 -1.759812e-03 4.432810e-04 8.275048e-04 1.007546e-03 6.704268e-04 3.828116e-04 3.468247e-04 6.482675e-04 2.305074e-04 -1.867850e-03 -3.131998e-03 -1.111110e-03 6.940028e-04
<VARIANCE> 39
 1.929214e+04 1.531021e+02 9.969417e+00 1.000933e-01 8.861756e-02 8.330005e-02 2.489978e-02 1.919278e-02 4.370839e-02 4.967883e-02 1.082355e-01 7.121896e-02 1.410420e-01 7.879892e-02 6.048098e-02 2.983694e-03 2.078312e-03 1.109377e-03 5.574878e-04 7.433147e-04 1.079956e-03 1.572361e-03 3.752277e-03 1.945166e-03 4.318355e-03 1.878791e-03 2.175915e-03 1.626324e-04 9.311580e-05 4.749448e-05 3.199222e-05 4.427539e-05 5.614498e-05 8.365558e-05 1.998706e-04 1.184522e-04 2.217557e-04 9.576192e-05 1.060988e-04
<GCONST> -1.326310e+02
<TRANSP> 3
 0.000000e+00 1.000000e+00 0.000000e+00
 0.000000e+00 8.024728e-01 1.975272e-01
 0.000000e+00 0.000000e+00 0.000000e+00
<ENDHMM>
~h "Tab0159"
<BEGINHMM>
<NUMSTATES> 3
<STATE> 2
<MEAN> 39
 -2.726855e+02 -9.150704e-01 2.391964e-01 1.902418e-01 6.983074e-01 8.744614e-01 4.088444e-01 1.186697e-01 1.559629e-01 2.047137e-01 1.371754e-01 1.830570e-01 2.784467e-01 1.607360e-01 6.095312e-02 5.308315e-04 4.767733e-04 5.699153e-05 -2.099335e-04 -3.745506e-05 1.158911e-03 2.287485e-03 -2.501798e-04 -1.447454e-03 -8.963583e-04 -2.312154e-04 2.976466e-04 4.988321e-04 1.608244e-04 -1.518895e-04 5.250372e-04 8.271621e-04 9.042635e-04 1.040157e-03 1.003800e-03 7.903769e-04 8.088726e-04 5.476683e-04 4.337456e-04
<VARIANCE> 39
 3.161676e+03 6.354496e+01 3.833696e+00 3.540860e-02 3.273277e-02 5.473566e-02 4.108261e-02 8.424352e-03 1.293610e-02 3.095949e-02 3.051087e-02 2.243986e-02 4.359079e-02 1.403618e-02 2.695539e-03 1.922587e-04 1.057802e-04 2.727555e-05 4.724726e-04 2.899175e-04 2.588904e-04 3.866056e-04 1.815141e-04 1.198211e-04 1.628700e-04 4.513383e-05 4.275675e-05 1.444865e-05 8.190020e-06 3.537973e-06 3.411932e-05 2.124770e-05 1.945418e-05 2.794650e-05 1.269588e-05 9.575569e-06 1.086024e-05 4.429569e-06 4.174148e-06
<GCONST> -2.041620e+02
<TRANSP> 3
 0.000000e+00 1.000000e+00 0.000000e+00
 0.000000e+00 8.576548e-01 1.423453e-01
 0.000000e+00 0.000000e+00 0.000000e+00
<ENDHMM>
~h "Tab0163"
<BEGINHMM>
<NUMSTATES> 3
<STATE> 2
<MEAN> 39
 -4.882940e+02 4.754786e-02 1.856987e-01 5.375792e-01 4.959770e-01 4.989627e-01 4.464426e-01 4.575632e-01 4.775595e-01 5.505350e-01 5.318287e-01 5.474076e-01 6.339220e-01 5.573970e-01 5.503495e-01 2.122974e-03 7.104748e-04 -5.543729e-04 4.880497e-04 1.975982e-03 1.496393e-03 4.262100e-04 2.022455e-04 4.527752e-04 -2.139917e-05 -4.037116e-04 3.298370e-04 -5.463976e-04 -5.811360e-04 -6.912794e-04 -5.752359e-04 -4.331522e-04 -6.851908e-04 -6.865917e-04 -6.647331e-04 -5.613103e-04 -3.027435e-04 -6.173338e-04 -8.106554e-04
<VARIANCE> 39
 4.967186e+04 9.364796e+02 4.120476e+01 8.820624e-02 6.262890e-02 9.473792e-02 4.540453e-02 7.429718e-02 6.689591e-02 8.417589e-02 6.603372e-02 5.758262e-02 9.382193e-02 6.780162e-02 8.174842e-02 1.930669e-03 1.662481e-03 2.720895e-03 1.412854e-03 1.660510e-03 1.562320e-03 2.515090e-03 2.303411e-03 1.760505e-03 2.244498e-03 1.694842e-03 1.878707e-03 8.602278e-05 8.385176e-05 1.345589e-04 8.012929e-05 7.165852e-05 8.409901e-05 1.365053e-04 1.213906e-04 1.040558e-04 1.174609e-04 9.736141e-05 9.614417e-05
<GCONST> -1.242895e+02
<TRANSP> 3
 0.000000e+00 1.000000e+00 0.000000e+00
 0.000000e+00 9.461663e-01 5.383373e-02
 0.000000e+00 0.000000e+00 0.000000e+00
<ENDHMM>
~h "Tab0164"
<BEGINHMM>
<NUMSTATES> 3
<STATE> 2
<MEAN> 39
 -3.517509e+02 1.475109e-01 -6.584430e-03 2.633832e-01 2.488571e-01 2.509024e-01 3.607891e-01 5.051580e-01 3.367687e-01 2.496446e-01 3.217638e-01 5.265749e-01 7.478600e-01 5.098134e-01 3.363526e-01 -5.481018e-04 -1.151642e-03 -1.373739e-03 -2.834805e-04 4.799748e-04 1.515846e-04 -5.137895e-04 -7.240021e-04 -2.467757e-04 7.025082e-04 6.824522e-04 -2.131612e-04 2.347072e-04 5.854386e-04 9.756769e-04 1.731091e-04 -4.202288e-04 -3.896406e-05 6.103775e-04 8.885434e-04 2.107116e-04 -5.230653e-04 -1.827210e-04 2.595957e-04
<VARIANCE> 39
 7.521751e+03 5.551448e+01 3.271562e+00 5.490064e-02 3.418593e-02 7.099069e-02 2.824267e-02 8.235131e-02 2.927036e-02 4.483051e-02 8.700494e-02 3.216363e-02 1.197151e-01 4.049803e-02 5.900221e-02 1.085290e-03 6.617717e-04 1.206201e-03 5.492459e-04 1.620056e-03 5.738931e-04 6.703250e-04 1.625211e-03 4.225135e-04 1.822584e-03 9.694187e-04 1.094863e-03 5.622782e-05 3.276833e-05 6.100604e-05 3.236455e-05 9.732209e-05 3.508186e-05 3.554404e-05 8.531163e-05 2.475493e-05 1.005871e-04 5.676195e-05 6.593881e-05
<GCONST> -1.521599e+02
<TRANSP> 3
 0.000000e+00 1.000000e+00 0.000000e+00
 0.000000e+00 8.972301e-01 1.027699e-01
 0.000000e+00 0.000000e+00 0.000000e+00
<ENDHMM>
~h "Tab0166"
<BEGINHMM>
<NUMSTATES> 3
<STATE> 2
<MEAN> 39
 -2.365640e+02 -6.006678e-01 1.182742e-04 3.706226e-01 3.340696e-01 3.319218e-01 3.711818e-01 4.418706e-01 3.765281e-01 3.741307e-01 3.859815e-01 4.908299e-01 6.294754e-01 5.427671e-01 4.709575e-01 -2.540505e-04 -9.866422e-04 -1.034904e-03 -1.297871e-03 -2.136742e-03 -1.303291e-03 -1.216467e-03 -2.227403e-03 -6.467770e-04 -1.345601e-04 3.951003e-04 4.481666e-04 1.372415e-04 3.663100e-04 5.004747e-04 1.701039e-04 -1.658028e-04 2.100032e-04 3.675847e-04 4.434302e-04 3.922539e-04 -2.652815e-04 -6.054787e-05 1.327533e-04
<VARIANCE> 39
 2.023089e+03 1.661074e+01 8.827240e-01 8.142279e-02 4.436057e-02 7.072463e-02 4.792546e-02 8.195610e-02 4.367944e-02 6.210572e-02 7.287064e-02 5.175738e-02 1.231808e-01 5.381141e-02 1.125620e-01 5.052609e-04 4.908837e-04 6.505424e-04 5.269502e-04 4.168784e-04 3.989068e-04 6.664767e-04 8.012471e-04 7.036997e-04 6.819555e-04 5.989372e-04 5.089839e-04 2.591119e-05 2.592909e-05 3.589859e-05 2.670213e-05 2.273028e-05 2.118243e-05 3.524174e-05 4.490292e-05 4.109737e-05 3.916818e-05 3.415878e-05 2.796300e-05
<GCONST> -1.648506e+02
<TRANSP> 3
 0.000000e+00 1.000000e+00 0.000000e+00
 0.000000e+00 9.147059e-01 8.529411e-02
 0.000000e+00 0.000000e+00 0.000000e+00
<ENDHMM>
~h "Tab0169"
<BEGINHMM>
<NUMSTATES> 3
<STATE> 2
<MEAN> 39
 -2.943132e+02 -1.545805e+00 -3.525429e-01 5.394509e-01 9.805400e-01 5.222208e-01 1.144803e-01 8.844570e-02 1.575327e-01 2.595574e-01 3.257017e-01 3.009020e-01 1.523973e-01 7.859230e-02 7.593698e-02 1.041324e-03 -5.358874e-05 -2.772833e-03 -7.386440e-04 -7.971557e-05 8.661479e-04 7.375706e-04 7.650674e-03 5.202971e-03 9.627296e-04 -5.643903e-04 -1.171675e-03 -3.488827e-04 -1.429454e-03 -1.450902e-04 -1.569356e-04 -9.381532e-05 1.464106e-04 -3.016088e-05 -1.267052e-03 -9.561958e-04 4.627254e-04 3.001550e-04 3.261088e-04
<VARIANCE> 39
 5.387620e+03 1.653678e+02 1.289927e+01 1.454509e-02 1.612754e-02 1.153042e-02 9.950464e-03 5.745143e-03 1.679097e-02 3.664371e-02 4.270268e-02 5.526961e-02 2.070635e-02 6.216195e-03 6.534030e-03 2.633768e-04 5.756516e-06 1.401364e-04 1.733351e-04 2.172159e-04 4.947862e-04 1.023009e-03 1.671013e-03 1.202349e-03 2.793268e-04 1.048066e-04 1.699133e-04 2.228219e-05 1.876607e-05 1.318186e-05 1.998899e-05 2.303048e-05 3.908653e-05 6.773921e-05 1.077788e-04 7.632386e-05 2.404692e-05 1.978563e-05 3.185886e-05
<GCONST> -1.865192e+02
<TRANSP> 3
 0.000000e+00 1.000000e+00 0.000000e+00
 0.000000e+00 7.359429e-01 2.640571e-01
 0.000000e+00 0.000000e+00 0.000000e+00
<ENDHMM>
~h "Tab0170"
<BEGINHMM>
<NUMSTATES> 3
<STATE> 2
<MEAN> 39
 -3.509467e+02 1.342987e-01 -6.961546e-01 6.098186e-01 3.427816e-01 3.082007e-01 1.874642e-01 1.264194e-01 2.428009e-01 3.160668e-01 2.655823e-01 1.906624e-01 1.713085e-01 4.428637e-01 8.250001e-01 -2.152722e-03 4.085848e-04 9.383511e-05 -9.380991e-04 -1.894364e-03 -9.111750e-04 1.580365e-03 2.332188e-03 1.115660e-03 -9.894290e-04 7.691903e-04 -1.857405e-03 -1.468473e-03 9.311380e-04 9.705216e-04 4.652183e-04 -5.987988e-05 -1.364014e-03 -8.719248e-04 -2.478648e-04 4.900401e-04 1.011685e-03 2.025383e-04 -2.349434e-03
<VARIANCE> 39
 1.969477e+04 1.588504e+02 1.174895e+01 3.842061e-02 9.386770e-02 1.101179e-01 3.191366e-02 1.415893e-02 4.231360e-02 6.100105e-02 4.799201e-02 3.573241e-02 3.049882e-02 5.349554e-02 1.044910e-01 5.912469e-04 1.647217e-03 9.699951e-04 2.922259e-04 2.783893e-04 8.999637e-04 1.168968e-03 8.630299e-04 9.950814e-04 9.950966e-04 1.045987e-03 1.889370e-03 3.273993e-05 7.407803e-05 5.154392e-05 2.377052e-05 2.485584e-05 5.285069e-05 7.121352e-05 5.643825e-05 6.449221e-05 7.423436e-05 5.425387e-05 9.117671e-05
<GCONST> -1.507472e+02
<TRANSP> 3
 0.000000e+00 1.000000e+00 0.000000e+00
 0.000000e+00 7.590920e-01 2.409080e-01
 0.000000e+00 0.000000e+00 0.000000e+00
<ENDHMM>
~h "Tab0172"
<BEGINHMM>
<NUMSTATES> 3
<STATE> 2
<MEAN> 39
 -5.001212e+02 -4.995510e-01 6.676386e-02 2.715653e-01 2.633904e-01 2.828876e-01 1.787755e-01 9.399280e-02 1.028849e-01 2.201421e-01 3.366829e-01 2.659855e-01 1.986808e-01 1.615463e-01 2.158724e-01 -1.681290e-04 -9.248583e-05 -1.849682e-04 2.271260e-04 2.538807e-04 -1.192473e-04 -4.300904e-04 -3.099342e-04 -4.226031e-04 -1.394083e-04 -8.627451e-05 -5.011907e-05 2.984358e-04 2.664795e-04 1.702900e-04 2.353650e-04 2.966509e-04 2.966504e-04 2.931763e-04 2.938054e-04 4.272664e-04 3.210832e-04 3.112225e-04 3.047521e-04
<VARIANCE> 39
 3.755238e+04 3.906499e+01 2.242918e+00 1.476159e-01 6.425263e-02 1.267094e-01 4.401240e-02 2.453815e-02 2.672015e-02 5.959434e-02 1.669073e-01 6.708840e-02 8.131049e-02 3.971134e-02 7.053400e-02 2.499959e-04 1.312536e-04 2.267454e-04 1.461756e-04 1.892504e-04 1.891362e-04 1.713544e-04 1.262135e-04 1.304480e-04 1.565017e-04 1.374140e-04 1.665541e-04 1.518591e-05 9.670983e-06 1.552955e-05 8.738290e-06 1.128160e-05 1.325470e-05 1.397221e-05 1.384173e-05 1.014480e-05 1.250659e-05 9.445437e-06 1.092982e-05
<GCONST> -1.868758e+02
<TRANSP> 3
 0.000000e+00 1.000000e+00 0.000000e+00
 0.000000e+00 9.076078e-01 9.239220e-02
 0.000000e+00 0.000000e+00 0.000000e+00
<ENDHMM>
~h "Tab0173"
<BEGINHMM>
<NUMSTATES> 3
<STATE> 2
<MEAN> 39
 -3.710669e+02 5.384642e-01 -1.652204e-01 1.577122e-01 1.629886e-01 1.831540e-01 2.284501e-01 4.237441e-01 5.257649e-01 3.969895e-01 3.291856e-01 4.036092e-01 4.405930e-01 2.573185e-01 1.454675e-01 -5.251825e-04 6.626690e-05 4.192389e-04 9.159702e-04 2.329477e-03 2.702659e-03 1.245353e-03 8.880093e-04 -3.093886e-04 -1.101964e-03 -5.269865e-04 8.299023e-05 7.035782e-04 4.771851e-04 2.839150e-04 9.729768e-05 -4.224307e-04 -7.775238e-04 -4.581153e-04 -1.910345e-04 5.748557e-05 3.407549e-04 3.813471e-04 5.970601e-04
<VARIANCE> 39
 1.311314e+04 2.376702e+02 1.700009e+01 5.205681e-02 3.338278e-02 7.824439e-02 5.560185e-02 1.071036e-01 1.424523e-01 5.966122e-02 1.104112e-01 7.161704e-02 1.533398e-01 5.545204e-02 2.771366e-02 9.241359e-04 4.902843e-04 1.025969e-03 1.155054e-03 2.506812e-03 2.758548e-03 1.381223e-03 2.328362e-03 2.099601e-03 4.701005e-03 1.502326e-03 6.295301e-04 4.694148e-05 2.572363e-05 5.684983e-05 6.261141e-05 1.256559e-04 1.376599e-04 7.894097e-05 1.295437e-04 1.266749e-04 2.534569e-04 8.295420e-05 3.085024e-05
<GCONST> -1.340013e+02
<TRANSP> 3
 0.000000e+00 1.000000e+00 0.000000e+00
 0.000000e+00 8.873706e-01 1.126294e-01
 0.000000e+00 0.000000e+00 0.000000e+00
<ENDHMM>
~h "Tab0174"
<BEGINHMM>
<NUMSTATES> 3
<STATE> 2
<MEAN> 39
 -7.496368e+02 -2.578897e-01 5.829591e-02 1.043923e-01 1.314610e-01 1.417962e-01 8.494175e-02 1.001552e-01 1.803101e-01 1.326182e-01 4.177806e-02 1.558668e-02 1.771124e-02 1.608568e-02 5.692519e-02 -6.847952e-05 4.542735e-05 1.651897e-05 -1.117274e-05 -3.488565e-05 7.251005e-06 -1.165557e-05 -3.542481e-05 -6.369049e-05 -8.882044e-05 -8.616303e-05 -1.491311e-04 9.169191e-06 -1.149333e-05 -3.100979e-05 -3.875231e-06 -2.310450e-05 -2.579742e-05 -1.445414e-05 -1.786783e-05 -1.213954e-05 7.927733e-07 -3.549225e-06 -2.504322e-05
<VARIANCE> 39
 1.377267e+04 6.701023e+01 4.321567e+00 6.859287e-02 4.904848e-02 1.059736e-01 3.417218e-02 4.661341e-02 1.261955e-01 7.710175e-02 1.506505e-02 1.757217e-03 2.521470e-03 1.912637e-03 2.190981e-02 2.074257e-05 4.125223e-05 1.932789e-05 1.314418e-05 3.343101e-05 2.393534e-05 7.680384e-06 9.380564e-06 1.140959e-05 1.251309e-05 1.346221e-05 4.325139e-05 1.499886e-06 2.742204e-06 1.759973e-06 1.016517e-06 1.947373e-06 1.352641e-06 5.880985e-07 6.763643e-07 6.234601e-07 6.395096e-07 1.142001e-06 3.479714e-06
<GCONST> -2.532300e+02
<TRANSP> 3
 0.000000e+00 1.000000e+00 0.000000e+00
 0.000000e+00 9.509935e-01 4.900646e-02
 0.000000e+00 0.000000e+00 0.000000e+00
<ENDHMM>
~h "Tab0175"
<BEGINHMM>
<NUMSTATES> 3
<STATE> 2
<MEAN> 39
 -6.211951e+02 -4.011682e-02 8.184495e-03 3.653663e-01 3.042440e-01 2.655953e-01 3.437755e-01 4.731950e-01 4.082948e-01 3.801716e-01 4.112234e-01 4.054423e-01 3.582413e-01 3.428741e-01 4.266201e-01 1.390641e-04 8.004296e-06 7.234943e-06 5.307072e-05 5.857932e-05 -2.278812e-05 -2.077833e-04 -2.450692e-04 -2.051604e-05 2.063718e-04 2.596136e-04 2.069541e-04 2.399363e-05 8.755502e-06 3.480097e-06 -1.750263e-05 -5.184985e-05 -5.550327e-05 -1.476429e-05 2.518229e-05 8.179292e-05 1.074454e-04 7.286455e-05 5.496853e-05
<VARIANCE> 39
 6.649710e+03 3.151593e+02 2.321485e+01 1.104974e-01 7.442398e-02 7.475502e-02 6.990840e-02 1.485257e-01 9.727687e-02 1.011568e-01 1.359609e-01 1.076550e-01 1.119167e-01 6.687026e-02 1.195551e-01 3.890144e-03 2.160631e-03 2.179397e-03 2.588421e-03 5.917453e-03 3.634043e-03 2.803684e-03 3.954679e-03 3.176265e-03 3.837964e-03 3.004585e-03 4.717094e-03 2.364458e-04 1.351581e-04 1.454874e-04 1.740675e-04 3.940074e-04 2.366229e-04 1.618404e-04 2.216733e-04 1.993904e-04 2.570566e-04 2.151284e-04 3.148097e-04
<GCONST> -1.082330e+02
<TRANSP> 3
 0.000000e+00 1.000000e+00 0.000000e+00
 0.000000e+00 9.831543e-01 1.684573e-02
 0.000000e+00 0.000000e+00 0.000000e+00
<ENDHMM>
~h "Tab0176"
<BEGINHMM>
<NUMSTATES> 3
<STATE> 2
<MEAN> 39
 -6.087211e+02 2.809759e-01 1.979525e-01 5.063602e-01 4.604626e-01 4.331728e-01 4.819893e-01 6.295238e-01 5.831888e-01 5.811465e-01 6.282882e-01 6.296909e-01 6.117842e-01 5.368103e-01 6.098827e-01 6.867030e-04 5.079834e-04 7.413269e-05 3.714309e-05 -6.307400e-05 1.490676e-04 -3.070140e-05 -3.462973e-04 -2.682752e-04 -6.906397e-06 -4.554163e-04 -5.639435e-04 -1.680666e-04 -2.347760e-04 -2.913387e-04 -3.673831e-04 -3.649744e-04 -2.732446e-04 -6.206046e-05 -6.264565e-05 -3.729195e-04 -4.660277e-04 -4.617500e-04 -3.694078e-04
<VARIANCE> 39
 2.885324e+04 1.512711e+03 9.753879e+01 6.286968e-02 5.557110e-02 6.548322e-02 4.502759e-02 8.850119e-02 6.458776e-02 7.374721e-02 7.438610e-02 5.636114e-02 6.736146e-02 4.590763e-02 6.727519e-02 1.294751e-03 1.375294e-03 1.864768e-03 1.612787e-03 2.895272e-03 1.578613e-03 1.265196e-03 1.540274e-03 1.523132e-03 1.977461e-03 1.356693e-03 1.710074e-03 7.180021e-05 8.830131e-05 1.201169e-04 1.094210e-04 2.052610e-04 9.907374e-05 7.411182e-05 9.070133e-05 1.007121e-04 1.287353e-04 8.451528e-05 1.085733e-04
<GCONST> -1.266621e+02
<TRANSP> 3
 0.000000e+00 1.000000e+00 0.000000e+00
 0.000000e+00 9.309883e-01 6.901173e-02
 0.000000e+00 0.000000e+00 0.000000e+00
<ENDHMM>
~h "Tab0177"
<BEGINHMM>
<NUMSTATES> 3
<STATE> 2
<MEAN> 39
 -4.424156e+02 7.592285e-01 -4.233165e-01 5.139779e-01 4.787870e-01 4.547414e-01 4.056889e-01 3.846473e-01 3.742919e-01 4.404279e-01 4.598363e-01 4.751695e-01 4.861792e-01 3.871324e-01 4.422848e-01 5.497775e-03 4.946130e-03 9.529525e-03 2.732881e-03 -5.167013e-04 2.687933e-04 2.109443e-03 4.625848e-03 -5.441119e-03 -1.418023e-02 -5.053358e-03 4.210119e-03 -2.605139e-03 -1.857264e-03 -1.007197e-03 -6.817002e-04 1.958702e-04 -1.298666e-03 -1.967486e-03 -9.925147e-04 -9.246112e-04 -8.023827e-04 -1.038475e-03 -1.786605e-03
<VARIANCE> 39
 2.567510e+04 3.661923e+02 1.923286e+01 1.244859e-01 6.135444e-02 1.177624e-01 5.997648e-02 9.848344e-02 6.108729e-02 7.353655e-02 1.005458e-01 8.235618e-02 1.158418e-01 7.514758e-02 8.050925e-02 5.019711e-03 1.710069e-03 3.864204e-03 2.537429e-03 3.716123e-03 1.898529e-03 1.600783e-03 2.018546e-03 1.983380e-03 2.668658e-03 2.049764e-03 3.454101e-03 2.431922e-04 8.317610e-05 1.853176e-04 1.258915e-04 1.707078e-04 1.015254e-04 8.622892e-05 1.030701e-04 9.714878e-05 1.627947e-04 1.136303e-04 1.768350e-04
<GCONST> -1.180118e+02
<TRANSP> 3
 0.000000e+00 1.000000e+00 0.000000e+00
 0.000000e+00 6.778331e-01 3.221669e-01
 0.000000e+00 0.000000e+00 0.000000e+00
<ENDHMM>
~h "Tab0178"
<BEGINHMM>
<NUMSTATES> 3
<STATE> 2
<MEAN> 39
 -7.098419e+02 1.726026e+00 1.106426e+00 4.467856e-01 4.151686e-01 5.623494e-01 4.075965e-01 3.348336e-01 3.140399e-01 4.271725e-01 4.380969e-01 3.242060e-01 3.868969e-01 3.911279e-01 5.244921e-01 -3.533744e-03 -2.081049e-03 -5.848673e-04 -5.058123e-04 -6.931730e-04 -6.460109e-05 -7.206923e-04 -1.537727e-03 -1.361302e-03 -8.089173e-04 -1.493287e-03 -2.057153e-03 9.507557e-05 -1.644311e-04 -5.843493e-04 2.366020e-04 9.019892e-04 1.033724e-03 -9.994433e-05 3.716596e-04 1.039285e-03 5.324984e-04 3.444358e-04 -1.771654e-04
<VARIANCE> 39
 2.590643e+04 5.420987e+02 3.803490e+01 1.223189e-01 6.212632e-02 1.168374e-01 6.074278e-02 9.428367e-02 7.777093e-02 1.040151e-01 9.488480e-02 6.645440e-02 7.235491e-02 7.836293e-02 1.231372e-01 2.465915e-03 1.516532e-03 2.789623e-03 1.514714e-03 1.659023e-03 1.546339e-03 2.605929e-03 2.766447e-03 1.704437e-03 1.603108e-03 2.254171e-03 3.072778e-03 1.184554e-04 7.391677e-05 1.323468e-04 8.309035e-05 9.138106e-05 8.071984e-05 1.327010e-04 1.363316e-04 9.820545e-05 9.041691e-05 1.287645e-04 1.795018e-04
<GCONST> -1.213958e+02
<TRANSP> 3
 0.000000e+00 1.000000e+00 0.000000e+00
 0.000000e+00 8.439797e-01 1.560203e-01
 0.000000e+00 0.000000e+00 0.000000e+00
<ENDHMM>
~h "Tab0179"
<BEGINHMM>
<NUMSTATES> 3
<STATE> 2
<MEAN> 39
 -4.150893e+02 -6.729811e-01 -6.165338e-01 2.419923e-01 1.868634e-01 2.391607e-01 4.045918e-01 4.311722e-01 3.548143e-01 3.395382e-01 3.976874e-01 4.813608e-01 5.672324e-01 6.779275e-01 5.028528e-01 3.534686e-03 3.700108e-03 3.330449e-03 2.233202e-03 4.663768e-03 5.547603e-03 3.419092e-03 -7.279858e-04 -9.295403e-04 1.957044e-03 4.345021e-03 3.415526e-03 2.662053e-04 3.118717e-04 5.415182e-04 3.693015e-04 2.002922e-04 3.419991e-04 2.452284e-04 -3.441679e-04 -1.302938e-03 -1.837227e-03 -7.112636e-04 2.109352e-04
<VARIANCE> 39
 2.367694e+04 2.208851e+02 1.585406e+01 6.336706e-02 2.801763e-02 2.623032e-02 8.422642e-02 8.607206e-02 4.478839e-02 5.907614e-02 9.436653e-02 1.100866e-01 4.855941e-02 9.787571e-02 6.718329e-02 1.178748e-03 4.529853e-04 6.366948e-04 2.107947e-03 1.972262e-03 1.117581e-03 1.507184e-03 1.676597e-03 1.421674e-03 1.195424e-03 8.903697e-04 1.057159e-03 4.952928e-05 1.797037e-05 2.514069e-05 9.028097e-05 9.583166e-05 6.469661e-05 8.309049e-05 7.420398e-05 7.534846e-05 6.403638e-05 4.522874e-05 5.260296e-05
<GCONST> -1.421334e+02
<TRANSP> 3
 0.000000e+00 1.000000e+00 0.000000e+00
 0.000000e+00 7.317662e-01 2.682338e-01
 0.000000e+00 0.000000e+00 0.000000e+00
<ENDHMM>
~h "Tab0182"
<BEGINHMM>
<NUMSTATES> 3
<STATE> 2
<MEAN> 39
 -3.234846e+02 -2.947818e-01 -3.949448e-02 1.606584e-01 5.099840e-01 7.257122e-01 4.385703e-01 2.652977e-01 3.350582e-01 2.406288e-01 1.408128e-01 4.013619e-01 6.827643e-01 3.821217e-01 1.110569e-01 -8.397984e-04 -5.117727e-04 -5.240180e-04 -1.198097e-03 -9.756221e-04 -3.978506e-04 4.332673e-04 7.425958e-04 5.719876e-04 3.171694e-04 4.666416e-04 -2.172123e-06 3.610750e-04 8.171624e-05 -1.453701e-04 5.794309e-07 1.608615e-04 8.777640e-05 1.127840e-04 3.748506e-04 1.996975e-04 -1.287981e-04 6.863019e-05 3.487117e-04
<VARIANCE> 39
 4.480342e+04 4.801453e+01 2.969005e+00 2.362271e-02 7.911046e-02 1.549945e-01 5.155607e-02 3.749649e-02 4.252064e-02 3.350345e-02 2.675374e-02 2.413878e-02 7.113811e-02 2.220086e-02 7.187190e-03 3.451636e-04 4.051576e-04 3.009224e-04 3.215775e-04 2.339673e-04 1.840686e-04 3.312623e-04 2.600153e-04 1.625866e-04 1.833042e-04 9.723753e-05 1.177492e-04 2.211472e-05 2.509205e-05 1.963186e-05 1.981733e-05 1.178232e-05 8.673093e-06 2.265695e-05 1.844985e-05 1.046913e-05 1.093699e-05 5.314473e-06 7.286358e-06
<GCONST> -1.875533e+02
<TRANSP> 3
 0.000000e+00 1.000000e+00 0.000000e+00
 0.000000e+00 8.400403e-01 1.599597e-01
 0.000000e+00 0.000000e+00 0.000000e+00
<ENDHMM>
~h "Tab0188"
<BEGINHMM>
<NUMSTATES> 3
<STATE> 2
<MEAN> 39
 -3.650136e+02 5.656179e-01 -1.840275e-01 4.183009e-01 2.878441e-01 2.365699e-01 3.746197e-01 5.663024e-01 4.337335e-01 3.610086e-01 4.730457e-01 4.651544e-01 4.668970e-01 3.807848e-01 4.078859e-01 -3.953402e-04 -7.279168e-04 -3.836991e-06 3.289805e-04 2.470231e-04 3.968019e-04 2.180133e-04 3.675556e-04 6.090654e-04 3.639692e-04 -1.983188e-04 -5.867445e-04 -1.021931e-04 8.984025e-05 2.928775e-04 7.930367e-05 1.016544e-05 2.155054e-04 2.038820e-04 1.061252e-04 1.483462e-04 4.321410e-05 1.173032e-04 1.037629e-04
<VARIANCE> 39
 2.378908e+04 2.659299e+02 1.409788e+01 8.253668e-02 3.402185e-02 5.465629e-02 5.270355e-02 1.301599e-01 6.758332e-02 5.616363e-02 1.417170e-01 3.761538e-02 1.462740e-01 5.457051e-02 7.357376e-02 5.321685e-04 3.488321e-04 1.025491e-03 8.164215e-04 1.245653e-03 1.005095e-03 7.966142e-04 9.644990e-04 5.928829e-04 1.244119e-03 6.412852e-04 6.712626e-04 2.435893e-05 1.935821e-05 5.704251e-05 4.652654e-05 6.690166e-05 5.794489e-05 4.295077e-05 4.695787e-05 3.293238e-05 6.981802e-05 3.420393e-05 3.309457e-05
<GCONST> -1.490716e+02
<TRANSP> 3
 0.000000e+00 1.000000e+00 0.000000e+00
 0.000000e+00 9.461616e-01 5.383833e-02
 0.000000e+00 0.000000e+00 0.000000e+00
<ENDHMM>
~h "Tab0191"
<BEGINHMM>
<NUMSTATES> 3
<STATE> 2
<MEAN> 39
 -4.280589e+02 -2.446953e+00 1.561390e-01 1.669317e-01 2.617482e-01 2.346038e-01 1.748722e-01 1.849991e-01 1.976128e-01 2.228782e-01 1.562666e-01 2.867663e-01 5.058097e-01 3.386194e-01 1.406736e-01 1.246575e-04 9.973202e-05 6.420528e-05 -9.399802e-04 -3.800796e-03 -3.291064e-03 -3.250188e-03 -2.114221e-03 -1.790704e-03 -1.718641e-03 -9.082017e-04 -2.758055e-04 1.747223e-04 7.221040e-05 9.874984e-05 2.778313e-04 4.611756e-04 5.189159e-04 6.051026e-04 5.436930e-04 3.772984e-04 2.564342e-04 2.780579e-04 1.282717e-04
<VARIANCE> 39
 1.131338e+04 4.704177e+00 1.836309e-01 2.338424e-02 6.077792e-02 1.012002e-01 3.877027e-02 6.254040e-02 4.140013e-02 1.135307e-01 4.796261e-02 6.079233e-02 1.717421e-01 7.083276e-02 6.159198e-02 8.900225e-06 2.056975e-05 8.173934e-06 1.683317e-05 7.158121e-05 5.778665e-05 4.899068e-05 3.697952e-05 2.826285e-05 2.809955e-05 1.055248e-05 8.300907e-06 1.150348e-06 1.299505e-06 5.515221e-07 1.040969e-06 2.429028e-06 2.970166e-06 2.731018e-06 2.424419e-06 1.686772e-06 1.571168e-06 1.389954e-06 7.545879e-07
<GCONST> -2.421212e+02
<TRANSP> 3
 0.000000e+00 1.000000e+00 0.000000e+00
 0.000000e+00 8.980971e-01 1.019030e-01
 0.000000e+00 0.000000e+00 0.000000e+00
<ENDHMM>
~h "Tab0192"
<BEGINHMM>
<NUMSTATES> 3
<STATE> 2
<MEAN> 39
 -5.183623e+02 -1.076082e+00 8.578771e-02 1.738100e-01 1.619836e-01 2.077019e-01 1.272914e-01 7.110821e-02 6.810682e-02 2.054586e-01 3.583054e-01 2.500490e-01 1.490891e-01 1.722756e-01 2.258948e-01 1.951867e-04 4.451688e-04 6.600323e-04 8.474613e-05 -7.367821e-04 -6.778066e-04 -3.250555e-04 -6.810629e-04 -3.896648e-04 -9.893783e-05 1.497972e-04 3.909813e-04 7.585235e-05 1.304256e-04 8.233434e-05 2.021387e-04 2.732217e-04 3.784462e-04 3.996338e-04 1.066775e-04 1.331769e-04 1.508456e-04 7.051323e-05 1.013513e-05
<VARIANCE> 39
 1.987303e+04 9.087626e+00 5.330821e-01 5.911352e-02 3.821986e-02 7.248189e-02 2.671984e-02 2.500924e-02 2.044955e-02 7.114266e-02 2.052548e-01 7.508346e-02 7.488217e-02 4.261146e-02 6.987746e-02 1.979765e-05 4.294353e-05 8.637702e-05 3.673959e-05 3.900386e-05 9.490754e-05 1.255014e-04 3.126540e-05 4.080675e-05 2.623856e-05 2.285523e-05 3.872961e-05 1.376398e-06 2.813978e-06 5.077841e-06 2.269888e-06 2.968460e-06 6.652321e-06 9.010053e-06 2.325191e-06 2.941561e-06 2.356263e-06 1.671732e-06 2.212906e-06
<GCONST> -2.254328e+02
<TRANSP> 3
 0.000000e+00 1.000000e+00 0.000000e+00
 0.000000e+00 8.986655e-01 1.013345e-01
 0.000000e+00 0.000000e+00 0.000000e+00
<ENDHMM>
~h "Tab0193"
<BEGINHMM>
<NUMSTATES> 3
<STATE> 2
<MEAN> 39
 -3.767276e+02 -1.284121e+00 -7.311745e-01 3.570958e-01 3.815776e-01 4.262193e-01 4.749200e-01 6.025321e-01 5.338840e-01 4.728785e-01 5.407341e-01 4.548815e-01 3.647666e-01 2.666142e-01 2.986443e-01 -4.194849e-04 2.642305e-03 4.901265e-03 3.923947e-03 1.391121e-03 8.713417e-04 2.746842e-03 4.033449e-03 1.213053e-03 -3.118977e-03 -4.216878e-04 2.052539e-03 9.437739e-05 5.339441e-04 8.164234e-04 1.191493e-04 -5.271930e-04 -4.851988e-04 -3.660621e-04 -4.410119e-04 -4.453873e-04 -1.270290e-04 2.690956e-04 4.948309e-04
<VARIANCE> 39
 1.424056e+04 3.425846e+02 2.044125e+01 8.514044e-02 5.281169e-02 1.256554e-01 6.421037e-02 1.163088e-01 8.531113e-02 5.001834e-02 1.320021e-01 5.079041e-02 1.082003e-01 4.480053e-02 5.202813e-02 1.252228e-03 8.810575e-04 1.458224e-03 9.102207e-04 1.778433e-03 1.818584e-03 9.733915e-04 2.239635e-03 1.010161e-03 1.700728e-03 7.393676e-04 1.034426e-03 6.467845e-05 4.844032e-05 6.794329e-05 4.722540e-05 9.741740e-05 9.632467e-05 5.142684e-05 1.152564e-04 5.679934e-05 8.522527e-05 4.314302e-05 5.517310e-05
<GCONST> -1.368821e+02
<TRANSP> 3
 0.000000e+00 1.000000e+00 0.000000e+00
 0.000000e+00 8.055347e-01 1.944654e-01
 0.000000e+00 0.000000e+00 0.000000e+00
<ENDHMM>
~h "Tab0194"
<BEGINHMM>
<NUMSTATES> 3
<STATE> 2
<MEAN> 39
 -4.708749e+02 -3.881758e-01 5.012202e-02 3.695025e-01 3.853775e-01 3.839796e-01 2.781867e-01 3.140722e-01 4.072645e-01 2.640057e-01 1.616947e-01 2.128543e-01 4.002674e-01 4.291486e-01 3.604623e-01 1.940939e-04 5.706795e-04 8.002155e-04 7.176499e-04 7.392592e-04 1.119933e-04 -6.651779e-05 3.104603e-04 1.101214e-04 4.439613e-04 6.943333e-05 -2.616234e-04 1.167848e-04 1.268117e-04 1.569920e-04 2.774970e-04 -2.683091e-05 -4.637870e-05 2.267372e-04 1.046643e-04 1.943581e-04 9.453397e-05 1.257061e-04 1.368434e-04
<VARIANCE> 39
 1.442033e+04 2.793940e+02 1.519860e+01 1.446662e-01 5.877060e-02 1.432461e-01 6.448136e-02 7.838689e-02 1.168857e-01 4.252642e-02 6.226966e-02 4.442117e-02 8.276477e-02 1.349796e-01 5.840074e-02 6.258392e-04 3.436700e-04 6.494445e-04 3.664581e-04 6.567457e-04 4.140372e-04 2.348040e-04 5.324424e-04 3.167407e-04 5.665148e-04 3.941004e-04 5.367325e-04 3.355323e-05 1.902072e-05 3.336652e-05 1.960660e-05 3.756754e-05 1.863255e-05 1.331970e-05 2.751851e-05 2.012412e-05 3.042917e-05 2.011477e-05 2.698102e-05
<GCONST> -1.611132e+02
<TRANSP> 3
 0.000000e+00 1.000000e+00 0.000000e+00
 0.000000e+00 9.183631e-01 8.163693e-02
 0.000000e+00 0.000000e+00 0.000000e+00
<ENDHMM>
~h "Tab0195"
<BEGINHMM>
<NUMSTATES> 3
<STATE> 2
<MEAN> 39
