~o
<STREAMINFO> 1 39
<VECSIZE> 39<NULLD><MFCC_E_D_A><DIAGC>
~h "Hmm_proto"
<BEGINHMM>
<NUMSTATES> 3
<STATE> 2
<MEAN> 39
 -8.548871e+00 -8.429275e+00 -8.302856e+00 -8.394987e+00 -8.327211e+00 -8.402078e+00 -8.252116e+00 -8.196423e+00 -8.229419e+00 -8.203509e+00 -8.170491e+00 -8.221256e+00 -8.224885e+00 -8.536903e+00 -8.476954e+00 -8.448825e+00 -8.271486e+00 -8.328273e+00 -8.280571e+00 -8.269648e+00 -8.256434e+00 -8.251881e+00 -8.145041e+00 -8.210468e+00 -8.172082e+00 -8.160941e+00 -8.560480e+00 -8.407900e+00 -8.257967e+00 -8.289854e+00 -8.215294e+00 -8.122581e+00 -8.229834e+00 -8.156651e+00 -8.031899e+00 -8.200624e+00 -8.164474e+00 -8.058159e+00 -8.163761e+00
<VARIANCE> 39
 5.595850e+03 5.486021e+03 5.333368e+03 5.353829e+03 5.358529e+03 5.438712e+03 5.358613e+03 5.347473e+03 5.385815e+03 5.311922e+03 5.339323e+03 5.356371e+03 5.386324e+03 5.617752e+03 5.521981e+03 5.465285e+03 5.336417e+03 5.374079e+03 5.316365e+03 5.345189e+03 5.367028e+03 5.347412e+03 5.275517e+03 5.364255e+03 5.310830e+03 5.319272e+03 5.540517e+03 5.418722e+03 5.325871e+03 5.394583e+03 5.316519e+03 5.262034e+03 5.374012e+03 5.335376e+03 5.241680e+03 5.393683e+03 5.328103e+03 5.318929e+03 5.372532e+03
<GCONST> 4.066659e+02
<TRANSP> 3
 1.000000e+00 0.000000e+00 0.000000e+00
 0.000000e+00 1.000000e+00 0.000000e+00
 0.000000e+00 0.000000e+00 0.000000e+00
<ENDHMM>
