~o
<STREAMINFO> 1 39
<VECSIZE> 39<NULLD><MFCC_E_D_A><DIAGC>
~h "Hmm_proto"
<BEGINHMM>
<NUMSTATES> 3
<STATE> 2
<MEAN> 39
 -4.548619e+02 -1.140042e-02 5.808319e-04 2.717569e-01 2.589890e-01 2.598633e-01 2.530417e-01 2.904299e-01 2.805820e-01 2.783154e-01 2.934853e-01 3.012489e-01 3.159406e-01 2.777686e-01 2.845387e-01 9.135426e-07 -1.114758e-06 -5.127020e-06 -3.477763e-06 -5.146512e-06 -4.045977e-06 -2.704007e-06 -2.625926e-06 2.284148e-07 -2.455553e-06 -3.303057e-06 -3.432895e-06 1.716960e-06 1.590000e-06 1.165124e-06 1.896423e-06 1.543451e-06 1.756088e-06 2.096551e-06 2.216106e-06 1.673395e-06 9.923498e-07 1.687240e-06 1.989734e-06
<VARIANCE> 39
 3.872017e+04 1.648368e+02 9.713050e+00 9.574932e-02 7.507265e-02 1.011769e-01 6.844017e-02 1.068953e-01 8.484249e-02 8.535165e-02 1.088234e-01 8.611441e-02 1.215130e-01 7.854612e-02 1.012177e-01 7.738464e-04 5.756516e-04 8.173934e-04 6.020874e-04 9.842092e-04 7.769793e-04 7.680384e-04 9.380564e-04 7.292997e-04 9.102586e-04 6.066088e-04 8.300907e-04 4.039318e-05 3.075810e-05 4.262554e-05 3.326209e-05 5.388901e-05 4.357443e-05 4.302722e-05 5.102124e-05 4.137804e-05 4.840365e-05 3.307438e-05 4.497233e-05
<GCONST> -1.462089e+02
<TRANSP> 3
 1.000000e+00 0.000000e+00 0.000000e+00
 0.000000e+00 1.000000e+00 0.000000e+00
 0.000000e+00 0.000000e+00 0.000000e+00
<ENDHMM>
