~o
<STREAMINFO> 1 39
<VECSIZE> 39<NULLD><MFCC_E_D_A><DIAGC>
~h "Hmm_proto"
<BEGINHMM>
<NUMSTATES> 3
<STATE> 2
<MEAN> 39
 1.857789e-01 1.426671e-01 1.998179e-01 1.244663e-01 2.178533e-01 1.672846e-01 1.647882e-01 2.092040e-01 1.465980e-01 2.464592e-01 1.319204e-01 1.953132e-01 -inf 4.876390e-06 4.533097e-06 -3.731447e-07 4.582696e-06 2.825596e-07 1.979018e-06 3.019361e-06 3.268388e-06 3.381107e-06 1.539851e-06 3.740378e-06 3.891759e-06 -nan(ind) 3.969703e-08 3.816399e-07 3.092892e-07 3.709971e-07 1.102607e-07 2.946065e-07 2.325976e-07 5.207609e-07 4.268829e-07 -1.856658e-07 5.421990e-07 7.945341e-08 -nan(ind)
<VARIANCE> 39
 5.715718e-02 3.654482e-02 6.103549e-02 2.516041e-02 6.282502e-02 4.390208e-02 4.474667e-02 6.556062e-02 3.747091e-02 7.807676e-02 3.276229e-02 5.886251e-02 0.000000e+00 5.076909e-04 3.220608e-04 6.209679e-04 3.221711e-04 8.593883e-04 4.868039e-04 4.722501e-04 6.294821e-04 3.976233e-04 7.542537e-04 2.524686e-04 6.735196e-04 0.000000e+00 6.710790e-05 4.518658e-05 8.521297e-05 4.899164e-05 1.209371e-04 6.707319e-05 6.306858e-05 8.118840e-05 5.445030e-05 1.008729e-04 3.774468e-05 9.892704e-05 0.000000e+00
<GCONST> -3.000000e+10
<TRANSP> 3
 1.000000e+00 0.000000e+00 0.000000e+00
 0.000000e+00 1.000000e+00 0.000000e+00
 0.000000e+00 0.000000e+00 0.000000e+00
<ENDHMM>
