~o
<STREAMINFO> 1 39
<VECSIZE> 39<NULLD><MFCC_E_D_A><DIAGC>
~h "GarbageTab"
<BEGINHMM>
<NUMSTATES> 3
<STATE> 2
<MEAN> 39
 -4.548619e+02 -1.140042e-02 5.808319e-04 2.717569e-01 2.589890e-01 2.598633e-01 2.530417e-01 2.904299e-01 2.805820e-01 2.783154e-01 2.934853e-01 3.012489e-01 3.159406e-01 2.777686e-01 2.845387e-01 9.135426e-07 -1.114758e-06 -5.127020e-06 -3.477763e-06 -5.146512e-06 -4.045977e-06 -2.704007e-06 -2.625926e-06 2.284148e-07 -2.455553e-06 -3.303057e-06 -3.432895e-06 1.716960e-06 1.590000e-06 1.165124e-06 1.896423e-06 1.543451e-06 1.756088e-06 2.096551e-06 2.216106e-06 1.673395e-06 9.923498e-07 1.687240e-06 1.989734e-06
<VARIANCE> 39
 3.872017e+04 1.648368e+02 9.713050e+00 9.574932e-02 7.507265e-02 1.011769e-01 6.844017e-02 1.068953e-01 8.484249e-02 8.535165e-02 1.088234e-01 8.611441e-02 1.215130e-01 7.854612e-02 1.012177e-01 7.738464e-04 5.756516e-04 8.173934e-04 6.020874e-04 9.842092e-04 7.769793e-04 7.680384e-04 9.380564e-04 7.292997e-04 9.102586e-04 6.066088e-04 8.300907e-04 4.039318e-05 3.075810e-05 4.262554e-05 3.326209e-05 5.388901e-05 4.357443e-05 4.302722e-05 5.102124e-05 4.137804e-05 4.840365e-05 3.307438e-05 4.497233e-05
<GCONST> -1.462089e+02
<TRANSP> 3
 8.000000e-01 2.000000e-01 0.000000e+00
 0.000000e+00 8.000000e-01 2.000000e-01
 0.000000e+00 0.000000e+00 0.000000e+00
<ENDHMM>
~h "Sil"
<BEGINHMM>
<NUMSTATES> 3
<STATE> 2
<MEAN> 39
 -4.548619e+02 -1.140042e-02 5.808319e-04 2.717569e-01 2.589890e-01 2.598633e-01 2.530417e-01 2.904299e-01 2.805820e-01 2.783154e-01 2.934853e-01 3.012489e-01 3.159406e-01 2.777686e-01 2.845387e-01 9.135426e-07 -1.114758e-06 -5.127020e-06 -3.477763e-06 -5.146512e-06 -4.045977e-06 -2.704007e-06 -2.625926e-06 2.284148e-07 -2.455553e-06 -3.303057e-06 -3.432895e-06 1.716960e-06 1.590000e-06 1.165124e-06 1.896423e-06 1.543451e-06 1.756088e-06 2.096551e-06 2.216106e-06 1.673395e-06 9.923498e-07 1.687240e-06 1.989734e-06
<VARIANCE> 39
 3.872017e+04 1.648368e+02 9.713050e+00 9.574932e-02 7.507265e-02 1.011769e-01 6.844017e-02 1.068953e-01 8.484249e-02 8.535165e-02 1.088234e-01 8.611441e-02 1.215130e-01 7.854612e-02 1.012177e-01 7.738464e-04 5.756516e-04 8.173934e-04 6.020874e-04 9.842092e-04 7.769793e-04 7.680384e-04 9.380564e-04 7.292997e-04 9.102586e-04 6.066088e-04 8.300907e-04 4.039318e-05 3.075810e-05 4.262554e-05 3.326209e-05 5.388901e-05 4.357443e-05 4.302722e-05 5.102124e-05 4.137804e-05 4.840365e-05 3.307438e-05 4.497233e-05
<GCONST> -1.462089e+02
<TRANSP> 3
 8.000000e-01 2.000000e-01 0.000000e+00
 0.000000e+00 8.000000e-01 2.000000e-01
 0.000000e+00 0.000000e+00 0.000000e+00
<ENDHMM>
~h "Tab0000"
<BEGINHMM>
<NUMSTATES> 3
<STATE> 2
<MEAN> 39
 -4.548619e+02 -1.140042e-02 5.808319e-04 2.717569e-01 2.589890e-01 2.598633e-01 2.530417e-01 2.904299e-01 2.805820e-01 2.783154e-01 2.934853e-01 3.012489e-01 3.159406e-01 2.777686e-01 2.845387e-01 9.135426e-07 -1.114758e-06 -5.127020e-06 -3.477763e-06 -5.146512e-06 -4.045977e-06 -2.704007e-06 -2.625926e-06 2.284148e-07 -2.455553e-06 -3.303057e-06 -3.432895e-06 1.716960e-06 1.590000e-06 1.165124e-06 1.896423e-06 1.543451e-06 1.756088e-06 2.096551e-06 2.216106e-06 1.673395e-06 9.923498e-07 1.687240e-06 1.989734e-06
<VARIANCE> 39
 3.872017e+04 1.648368e+02 9.713050e+00 9.574932e-02 7.507265e-02 1.011769e-01 6.844017e-02 1.068953e-01 8.484249e-02 8.535165e-02 1.088234e-01 8.611441e-02 1.215130e-01 7.854612e-02 1.012177e-01 7.738464e-04 5.756516e-04 8.173934e-04 6.020874e-04 9.842092e-04 7.769793e-04 7.680384e-04 9.380564e-04 7.292997e-04 9.102586e-04 6.066088e-04 8.300907e-04 4.039318e-05 3.075810e-05 4.262554e-05 3.326209e-05 5.388901e-05 4.357443e-05 4.302722e-05 5.102124e-05 4.137804e-05 4.840365e-05 3.307438e-05 4.497233e-05
<GCONST> -1.462089e+02
<TRANSP> 3
 8.000000e-01 2.000000e-01 0.000000e+00
 0.000000e+00 8.000000e-01 2.000000e-01
 0.000000e+00 0.000000e+00 0.000000e+00
<ENDHMM>
~h "Tab0001"
<BEGINHMM>
<NUMSTATES> 3
<STATE> 2
<MEAN> 39
 -4.548619e+02 -1.140042e-02 5.808319e-04 2.717569e-01 2.589890e-01 2.598633e-01 2.530417e-01 2.904299e-01 2.805820e-01 2.783154e-01 2.934853e-01 3.012489e-01 3.159406e-01 2.777686e-01 2.845387e-01 9.135426e-07 -1.114758e-06 -5.127020e-06 -3.477763e-06 -5.146512e-06 -4.045977e-06 -2.704007e-06 -2.625926e-06 2.284148e-07 -2.455553e-06 -3.303057e-06 -3.432895e-06 1.716960e-06 1.590000e-06 1.165124e-06 1.896423e-06 1.543451e-06 1.756088e-06 2.096551e-06 2.216106e-06 1.673395e-06 9.923498e-07 1.687240e-06 1.989734e-06
<VARIANCE> 39
 3.872017e+04 1.648368e+02 9.713050e+00 9.574932e-02 7.507265e-02 1.011769e-01 6.844017e-02 1.068953e-01 8.484249e-02 8.535165e-02 1.088234e-01 8.611441e-02 1.215130e-01 7.854612e-02 1.012177e-01 7.738464e-04 5.756516e-04 8.173934e-04 6.020874e-04 9.842092e-04 7.769793e-04 7.680384e-04 9.380564e-04 7.292997e-04 9.102586e-04 6.066088e-04 8.300907e-04 4.039318e-05 3.075810e-05 4.262554e-05 3.326209e-05 5.388901e-05 4.357443e-05 4.302722e-05 5.102124e-05 4.137804e-05 4.840365e-05 3.307438e-05 4.497233e-05
<GCONST> -1.462089e+02
<TRANSP> 3
 8.000000e-01 2.000000e-01 0.000000e+00
 0.000000e+00 8.000000e-01 2.000000e-01
 0.000000e+00 0.000000e+00 0.000000e+00
<ENDHMM>
~h "Tab0002"
<BEGINHMM>
<NUMSTATES> 3
<STATE> 2
<MEAN> 39
 -4.548619e+02 -1.140042e-02 5.808319e-04 2.717569e-01 2.589890e-01 2.598633e-01 2.530417e-01 2.904299e-01 2.805820e-01 2.783154e-01 2.934853e-01 3.012489e-01 3.159406e-01 2.777686e-01 2.845387e-01 9.135426e-07 -1.114758e-06 -5.127020e-06 -3.477763e-06 -5.146512e-06 -4.045977e-06 -2.704007e-06 -2.625926e-06 2.284148e-07 -2.455553e-06 -3.303057e-06 -3.432895e-06 1.716960e-06 1.590000e-06 1.165124e-06 1.896423e-06 1.543451e-06 1.756088e-06 2.096551e-06 2.216106e-06 1.673395e-06 9.923498e-07 1.687240e-06 1.989734e-06
<VARIANCE> 39
 3.872017e+04 1.648368e+02 9.713050e+00 9.574932e-02 7.507265e-02 1.011769e-01 6.844017e-02 1.068953e-01 8.484249e-02 8.535165e-02 1.088234e-01 8.611441e-02 1.215130e-01 7.854612e-02 1.012177e-01 7.738464e-04 5.756516e-04 8.173934e-04 6.020874e-04 9.842092e-04 7.769793e-04 7.680384e-04 9.380564e-04 7.292997e-04 9.102586e-04 6.066088e-04 8.300907e-04 4.039318e-05 3.075810e-05 4.262554e-05 3.326209e-05 5.388901e-05 4.357443e-05 4.302722e-05 5.102124e-05 4.137804e-05 4.840365e-05 3.307438e-05 4.497233e-05
<GCONST> -1.462089e+02
<TRANSP> 3
 8.000000e-01 2.000000e-01 0.000000e+00
 0.000000e+00 8.000000e-01 2.000000e-01
 0.000000e+00 0.000000e+00 0.000000e+00
<ENDHMM>
~h "Tab0003"
<BEGINHMM>
<NUMSTATES> 3
<STATE> 2
<MEAN> 39
 -4.548619e+02 -1.140042e-02 5.808319e-04 2.717569e-01 2.589890e-01 2.598633e-01 2.530417e-01 2.904299e-01 2.805820e-01 2.783154e-01 2.934853e-01 3.012489e-01 3.159406e-01 2.777686e-01 2.845387e-01 9.135426e-07 -1.114758e-06 -5.127020e-06 -3.477763e-06 -5.146512e-06 -4.045977e-06 -2.704007e-06 -2.625926e-06 2.284148e-07 -2.455553e-06 -3.303057e-06 -3.432895e-06 1.716960e-06 1.590000e-06 1.165124e-06 1.896423e-06 1.543451e-06 1.756088e-06 2.096551e-06 2.216106e-06 1.673395e-06 9.923498e-07 1.687240e-06 1.989734e-06
<VARIANCE> 39
 3.872017e+04 1.648368e+02 9.713050e+00 9.574932e-02 7.507265e-02 1.011769e-01 6.844017e-02 1.068953e-01 8.484249e-02 8.535165e-02 1.088234e-01 8.611441e-02 1.215130e-01 7.854612e-02 1.012177e-01 7.738464e-04 5.756516e-04 8.173934e-04 6.020874e-04 9.842092e-04 7.769793e-04 7.680384e-04 9.380564e-04 7.292997e-04 9.102586e-04 6.066088e-04 8.300907e-04 4.039318e-05 3.075810e-05 4.262554e-05 3.326209e-05 5.388901e-05 4.357443e-05 4.302722e-05 5.102124e-05 4.137804e-05 4.840365e-05 3.307438e-05 4.497233e-05
<GCONST> -1.462089e+02
<TRANSP> 3
 8.000000e-01 2.000000e-01 0.000000e+00
 0.000000e+00 8.000000e-01 2.000000e-01
 0.000000e+00 0.000000e+00 0.000000e+00
<ENDHMM>
~h "Tab0004"
<BEGINHMM>
<NUMSTATES> 3
<STATE> 2
<MEAN> 39
 -4.548619e+02 -1.140042e-02 5.808319e-04 2.717569e-01 2.589890e-01 2.598633e-01 2.530417e-01 2.904299e-01 2.805820e-01 2.783154e-01 2.934853e-01 3.012489e-01 3.159406e-01 2.777686e-01 2.845387e-01 9.135426e-07 -1.114758e-06 -5.127020e-06 -3.477763e-06 -5.146512e-06 -4.045977e-06 -2.704007e-06 -2.625926e-06 2.284148e-07 -2.455553e-06 -3.303057e-06 -3.432895e-06 1.716960e-06 1.590000e-06 1.165124e-06 1.896423e-06 1.543451e-06 1.756088e-06 2.096551e-06 2.216106e-06 1.673395e-06 9.923498e-07 1.687240e-06 1.989734e-06
<VARIANCE> 39
 3.872017e+04 1.648368e+02 9.713050e+00 9.574932e-02 7.507265e-02 1.011769e-01 6.844017e-02 1.068953e-01 8.484249e-02 8.535165e-02 1.088234e-01 8.611441e-02 1.215130e-01 7.854612e-02 1.012177e-01 7.738464e-04 5.756516e-04 8.173934e-04 6.020874e-04 9.842092e-04 7.769793e-04 7.680384e-04 9.380564e-04 7.292997e-04 9.102586e-04 6.066088e-04 8.300907e-04 4.039318e-05 3.075810e-05 4.262554e-05 3.326209e-05 5.388901e-05 4.357443e-05 4.302722e-05 5.102124e-05 4.137804e-05 4.840365e-05 3.307438e-05 4.497233e-05
<GCONST> -1.462089e+02
<TRANSP> 3
 8.000000e-01 2.000000e-01 0.000000e+00
 0.000000e+00 8.000000e-01 2.000000e-01
 0.000000e+00 0.000000e+00 0.000000e+00
<ENDHMM>
~h "Tab0008"
<BEGINHMM>
<NUMSTATES> 3
<STATE> 2
<MEAN> 39
 -4.548619e+02 -1.140042e-02 5.808319e-04 2.717569e-01 2.589890e-01 2.598633e-01 2.530417e-01 2.904299e-01 2.805820e-01 2.783154e-01 2.934853e-01 3.012489e-01 3.159406e-01 2.777686e-01 2.845387e-01 9.135426e-07 -1.114758e-06 -5.127020e-06 -3.477763e-06 -5.146512e-06 -4.045977e-06 -2.704007e-06 -2.625926e-06 2.284148e-07 -2.455553e-06 -3.303057e-06 -3.432895e-06 1.716960e-06 1.590000e-06 1.165124e-06 1.896423e-06 1.543451e-06 1.756088e-06 2.096551e-06 2.216106e-06 1.673395e-06 9.923498e-07 1.687240e-06 1.989734e-06
<VARIANCE> 39
 3.872017e+04 1.648368e+02 9.713050e+00 9.574932e-02 7.507265e-02 1.011769e-01 6.844017e-02 1.068953e-01 8.484249e-02 8.535165e-02 1.088234e-01 8.611441e-02 1.215130e-01 7.854612e-02 1.012177e-01 7.738464e-04 5.756516e-04 8.173934e-04 6.020874e-04 9.842092e-04 7.769793e-04 7.680384e-04 9.380564e-04 7.292997e-04 9.102586e-04 6.066088e-04 8.300907e-04 4.039318e-05 3.075810e-05 4.262554e-05 3.326209e-05 5.388901e-05 4.357443e-05 4.302722e-05 5.102124e-05 4.137804e-05 4.840365e-05 3.307438e-05 4.497233e-05
<GCONST> -1.462089e+02
<TRANSP> 3
 8.000000e-01 2.000000e-01 0.000000e+00
 0.000000e+00 8.000000e-01 2.000000e-01
 0.000000e+00 0.000000e+00 0.000000e+00
<ENDHMM>
~h "Tab0011"
<BEGINHMM>
<NUMSTATES> 3
<STATE> 2
<MEAN> 39
 -4.548619e+02 -1.140042e-02 5.808319e-04 2.717569e-01 2.589890e-01 2.598633e-01 2.530417e-01 2.904299e-01 2.805820e-01 2.783154e-01 2.934853e-01 3.012489e-01 3.159406e-01 2.777686e-01 2.845387e-01 9.135426e-07 -1.114758e-06 -5.127020e-06 -3.477763e-06 -5.146512e-06 -4.045977e-06 -2.704007e-06 -2.625926e-06 2.284148e-07 -2.455553e-06 -3.303057e-06 -3.432895e-06 1.716960e-06 1.590000e-06 1.165124e-06 1.896423e-06 1.543451e-06 1.756088e-06 2.096551e-06 2.216106e-06 1.673395e-06 9.923498e-07 1.687240e-06 1.989734e-06
<VARIANCE> 39
 3.872017e+04 1.648368e+02 9.713050e+00 9.574932e-02 7.507265e-02 1.011769e-01 6.844017e-02 1.068953e-01 8.484249e-02 8.535165e-02 1.088234e-01 8.611441e-02 1.215130e-01 7.854612e-02 1.012177e-01 7.738464e-04 5.756516e-04 8.173934e-04 6.020874e-04 9.842092e-04 7.769793e-04 7.680384e-04 9.380564e-04 7.292997e-04 9.102586e-04 6.066088e-04 8.300907e-04 4.039318e-05 3.075810e-05 4.262554e-05 3.326209e-05 5.388901e-05 4.357443e-05 4.302722e-05 5.102124e-05 4.137804e-05 4.840365e-05 3.307438e-05 4.497233e-05
<GCONST> -1.462089e+02
<TRANSP> 3
 8.000000e-01 2.000000e-01 0.000000e+00
 0.000000e+00 8.000000e-01 2.000000e-01
 0.000000e+00 0.000000e+00 0.000000e+00
<ENDHMM>
~h "Tab0024"
<BEGINHMM>
<NUMSTATES> 3
<STATE> 2
<MEAN> 39
 -4.548619e+02 -1.140042e-02 5.808319e-04 2.717569e-01 2.589890e-01 2.598633e-01 2.530417e-01 2.904299e-01 2.805820e-01 2.783154e-01 2.934853e-01 3.012489e-01 3.159406e-01 2.777686e-01 2.845387e-01 9.135426e-07 -1.114758e-06 -5.127020e-06 -3.477763e-06 -5.146512e-06 -4.045977e-06 -2.704007e-06 -2.625926e-06 2.284148e-07 -2.455553e-06 -3.303057e-06 -3.432895e-06 1.716960e-06 1.590000e-06 1.165124e-06 1.896423e-06 1.543451e-06 1.756088e-06 2.096551e-06 2.216106e-06 1.673395e-06 9.923498e-07 1.687240e-06 1.989734e-06
<VARIANCE> 39
 3.872017e+04 1.648368e+02 9.713050e+00 9.574932e-02 7.507265e-02 1.011769e-01 6.844017e-02 1.068953e-01 8.484249e-02 8.535165e-02 1.088234e-01 8.611441e-02 1.215130e-01 7.854612e-02 1.012177e-01 7.738464e-04 5.756516e-04 8.173934e-04 6.020874e-04 9.842092e-04 7.769793e-04 7.680384e-04 9.380564e-04 7.292997e-04 9.102586e-04 6.066088e-04 8.300907e-04 4.039318e-05 3.075810e-05 4.262554e-05 3.326209e-05 5.388901e-05 4.357443e-05 4.302722e-05 5.102124e-05 4.137804e-05 4.840365e-05 3.307438e-05 4.497233e-05
<GCONST> -1.462089e+02
<TRANSP> 3
 8.000000e-01 2.000000e-01 0.000000e+00
 0.000000e+00 8.000000e-01 2.000000e-01
 0.000000e+00 0.000000e+00 0.000000e+00
<ENDHMM>
~h "Tab0031"
<BEGINHMM>
<NUMSTATES> 3
<STATE> 2
<MEAN> 39
 -4.548619e+02 -1.140042e-02 5.808319e-04 2.717569e-01 2.589890e-01 2.598633e-01 2.530417e-01 2.904299e-01 2.805820e-01 2.783154e-01 2.934853e-01 3.012489e-01 3.159406e-01 2.777686e-01 2.845387e-01 9.135426e-07 -1.114758e-06 -5.127020e-06 -3.477763e-06 -5.146512e-06 -4.045977e-06 -2.704007e-06 -2.625926e-06 2.284148e-07 -2.455553e-06 -3.303057e-06 -3.432895e-06 1.716960e-06 1.590000e-06 1.165124e-06 1.896423e-06 1.543451e-06 1.756088e-06 2.096551e-06 2.216106e-06 1.673395e-06 9.923498e-07 1.687240e-06 1.989734e-06
<VARIANCE> 39
 3.872017e+04 1.648368e+02 9.713050e+00 9.574932e-02 7.507265e-02 1.011769e-01 6.844017e-02 1.068953e-01 8.484249e-02 8.535165e-02 1.088234e-01 8.611441e-02 1.215130e-01 7.854612e-02 1.012177e-01 7.738464e-04 5.756516e-04 8.173934e-04 6.020874e-04 9.842092e-04 7.769793e-04 7.680384e-04 9.380564e-04 7.292997e-04 9.102586e-04 6.066088e-04 8.300907e-04 4.039318e-05 3.075810e-05 4.262554e-05 3.326209e-05 5.388901e-05 4.357443e-05 4.302722e-05 5.102124e-05 4.137804e-05 4.840365e-05 3.307438e-05 4.497233e-05
<GCONST> -1.462089e+02
<TRANSP> 3
 8.000000e-01 2.000000e-01 0.000000e+00
 0.000000e+00 8.000000e-01 2.000000e-01
 0.000000e+00 0.000000e+00 0.000000e+00
<ENDHMM>
~h "Tab0061"
<BEGINHMM>
<NUMSTATES> 3
<STATE> 2
<MEAN> 39
 -4.548619e+02 -1.140042e-02 5.808319e-04 2.717569e-01 2.589890e-01 2.598633e-01 2.530417e-01 2.904299e-01 2.805820e-01 2.783154e-01 2.934853e-01 3.012489e-01 3.159406e-01 2.777686e-01 2.845387e-01 9.135426e-07 -1.114758e-06 -5.127020e-06 -3.477763e-06 -5.146512e-06 -4.045977e-06 -2.704007e-06 -2.625926e-06 2.284148e-07 -2.455553e-06 -3.303057e-06 -3.432895e-06 1.716960e-06 1.590000e-06 1.165124e-06 1.896423e-06 1.543451e-06 1.756088e-06 2.096551e-06 2.216106e-06 1.673395e-06 9.923498e-07 1.687240e-06 1.989734e-06
<VARIANCE> 39
 3.872017e+04 1.648368e+02 9.713050e+00 9.574932e-02 7.507265e-02 1.011769e-01 6.844017e-02 1.068953e-01 8.484249e-02 8.535165e-02 1.088234e-01 8.611441e-02 1.215130e-01 7.854612e-02 1.012177e-01 7.738464e-04 5.756516e-04 8.173934e-04 6.020874e-04 9.842092e-04 7.769793e-04 7.680384e-04 9.380564e-04 7.292997e-04 9.102586e-04 6.066088e-04 8.300907e-04 4.039318e-05 3.075810e-05 4.262554e-05 3.326209e-05 5.388901e-05 4.357443e-05 4.302722e-05 5.102124e-05 4.137804e-05 4.840365e-05 3.307438e-05 4.497233e-05
<GCONST> -1.462089e+02
<TRANSP> 3
 8.000000e-01 2.000000e-01 0.000000e+00
 0.000000e+00 8.000000e-01 2.000000e-01
 0.000000e+00 0.000000e+00 0.000000e+00
<ENDHMM>
~h "Tab0062"
<BEGINHMM>
<NUMSTATES> 3
<STATE> 2
<MEAN> 39
 -4.548619e+02 -1.140042e-02 5.808319e-04 2.717569e-01 2.589890e-01 2.598633e-01 2.530417e-01 2.904299e-01 2.805820e-01 2.783154e-01 2.934853e-01 3.012489e-01 3.159406e-01 2.777686e-01 2.845387e-01 9.135426e-07 -1.114758e-06 -5.127020e-06 -3.477763e-06 -5.146512e-06 -4.045977e-06 -2.704007e-06 -2.625926e-06 2.284148e-07 -2.455553e-06 -3.303057e-06 -3.432895e-06 1.716960e-06 1.590000e-06 1.165124e-06 1.896423e-06 1.543451e-06 1.756088e-06 2.096551e-06 2.216106e-06 1.673395e-06 9.923498e-07 1.687240e-06 1.989734e-06
<VARIANCE> 39
 3.872017e+04 1.648368e+02 9.713050e+00 9.574932e-02 7.507265e-02 1.011769e-01 6.844017e-02 1.068953e-01 8.484249e-02 8.535165e-02 1.088234e-01 8.611441e-02 1.215130e-01 7.854612e-02 1.012177e-01 7.738464e-04 5.756516e-04 8.173934e-04 6.020874e-04 9.842092e-04 7.769793e-04 7.680384e-04 9.380564e-04 7.292997e-04 9.102586e-04 6.066088e-04 8.300907e-04 4.039318e-05 3.075810e-05 4.262554e-05 3.326209e-05 5.388901e-05 4.357443e-05 4.302722e-05 5.102124e-05 4.137804e-05 4.840365e-05 3.307438e-05 4.497233e-05
<GCONST> -1.462089e+02
<TRANSP> 3
 8.000000e-01 2.000000e-01 0.000000e+00
 0.000000e+00 8.000000e-01 2.000000e-01
 0.000000e+00 0.000000e+00 0.000000e+00
<ENDHMM>
~h "Tab0063"
<BEGINHMM>
<NUMSTATES> 3
<STATE> 2
<MEAN> 39
 -4.548619e+02 -1.140042e-02 5.808319e-04 2.717569e-01 2.589890e-01 2.598633e-01 2.530417e-01 2.904299e-01 2.805820e-01 2.783154e-01 2.934853e-01 3.012489e-01 3.159406e-01 2.777686e-01 2.845387e-01 9.135426e-07 -1.114758e-06 -5.127020e-06 -3.477763e-06 -5.146512e-06 -4.045977e-06 -2.704007e-06 -2.625926e-06 2.284148e-07 -2.455553e-06 -3.303057e-06 -3.432895e-06 1.716960e-06 1.590000e-06 1.165124e-06 1.896423e-06 1.543451e-06 1.756088e-06 2.096551e-06 2.216106e-06 1.673395e-06 9.923498e-07 1.687240e-06 1.989734e-06
<VARIANCE> 39
 3.872017e+04 1.648368e+02 9.713050e+00 9.574932e-02 7.507265e-02 1.011769e-01 6.844017e-02 1.068953e-01 8.484249e-02 8.535165e-02 1.088234e-01 8.611441e-02 1.215130e-01 7.854612e-02 1.012177e-01 7.738464e-04 5.756516e-04 8.173934e-04 6.020874e-04 9.842092e-04 7.769793e-04 7.680384e-04 9.380564e-04 7.292997e-04 9.102586e-04 6.066088e-04 8.300907e-04 4.039318e-05 3.075810e-05 4.262554e-05 3.326209e-05 5.388901e-05 4.357443e-05 4.302722e-05 5.102124e-05 4.137804e-05 4.840365e-05 3.307438e-05 4.497233e-05
<GCONST> -1.462089e+02
<TRANSP> 3
 8.000000e-01 2.000000e-01 0.000000e+00
 0.000000e+00 8.000000e-01 2.000000e-01
 0.000000e+00 0.000000e+00 0.000000e+00
<ENDHMM>
~h "Tab0064"
<BEGINHMM>
<NUMSTATES> 3
<STATE> 2
<MEAN> 39
 -4.548619e+02 -1.140042e-02 5.808319e-04 2.717569e-01 2.589890e-01 2.598633e-01 2.530417e-01 2.904299e-01 2.805820e-01 2.783154e-01 2.934853e-01 3.012489e-01 3.159406e-01 2.777686e-01 2.845387e-01 9.135426e-07 -1.114758e-06 -5.127020e-06 -3.477763e-06 -5.146512e-06 -4.045977e-06 -2.704007e-06 -2.625926e-06 2.284148e-07 -2.455553e-06 -3.303057e-06 -3.432895e-06 1.716960e-06 1.590000e-06 1.165124e-06 1.896423e-06 1.543451e-06 1.756088e-06 2.096551e-06 2.216106e-06 1.673395e-06 9.923498e-07 1.687240e-06 1.989734e-06
<VARIANCE> 39
 3.872017e+04 1.648368e+02 9.713050e+00 9.574932e-02 7.507265e-02 1.011769e-01 6.844017e-02 1.068953e-01 8.484249e-02 8.535165e-02 1.088234e-01 8.611441e-02 1.215130e-01 7.854612e-02 1.012177e-01 7.738464e-04 5.756516e-04 8.173934e-04 6.020874e-04 9.842092e-04 7.769793e-04 7.680384e-04 9.380564e-04 7.292997e-04 9.102586e-04 6.066088e-04 8.300907e-04 4.039318e-05 3.075810e-05 4.262554e-05 3.326209e-05 5.388901e-05 4.357443e-05 4.302722e-05 5.102124e-05 4.137804e-05 4.840365e-05 3.307438e-05 4.497233e-05
<GCONST> -1.462089e+02
<TRANSP> 3
 8.000000e-01 2.000000e-01 0.000000e+00
 0.000000e+00 8.000000e-01 2.000000e-01
 0.000000e+00 0.000000e+00 0.000000e+00
<ENDHMM>
~h "Tab0080"
<BEGINHMM>
<NUMSTATES> 3
<STATE> 2
<MEAN> 39
 -4.548619e+02 -1.140042e-02 5.808319e-04 2.717569e-01 2.589890e-01 2.598633e-01 2.530417e-01 2.904299e-01 2.805820e-01 2.783154e-01 2.934853e-01 3.012489e-01 3.159406e-01 2.777686e-01 2.845387e-01 9.135426e-07 -1.114758e-06 -5.127020e-06 -3.477763e-06 -5.146512e-06 -4.045977e-06 -2.704007e-06 -2.625926e-06 2.284148e-07 -2.455553e-06 -3.303057e-06 -3.432895e-06 1.716960e-06 1.590000e-06 1.165124e-06 1.896423e-06 1.543451e-06 1.756088e-06 2.096551e-06 2.216106e-06 1.673395e-06 9.923498e-07 1.687240e-06 1.989734e-06
<VARIANCE> 39
 3.872017e+04 1.648368e+02 9.713050e+00 9.574932e-02 7.507265e-02 1.011769e-01 6.844017e-02 1.068953e-01 8.484249e-02 8.535165e-02 1.088234e-01 8.611441e-02 1.215130e-01 7.854612e-02 1.012177e-01 7.738464e-04 5.756516e-04 8.173934e-04 6.020874e-04 9.842092e-04 7.769793e-04 7.680384e-04 9.380564e-04 7.292997e-04 9.102586e-04 6.066088e-04 8.300907e-04 4.039318e-05 3.075810e-05 4.262554e-05 3.326209e-05 5.388901e-05 4.357443e-05 4.302722e-05 5.102124e-05 4.137804e-05 4.840365e-05 3.307438e-05 4.497233e-05
<GCONST> -1.462089e+02
<TRANSP> 3
 8.000000e-01 2.000000e-01 0.000000e+00
 0.000000e+00 8.000000e-01 2.000000e-01
 0.000000e+00 0.000000e+00 0.000000e+00
<ENDHMM>
~h "Tab0084"
<BEGINHMM>
<NUMSTATES> 3
<STATE> 2
<MEAN> 39
 -4.548619e+02 -1.140042e-02 5.808319e-04 2.717569e-01 2.589890e-01 2.598633e-01 2.530417e-01 2.904299e-01 2.805820e-01 2.783154e-01 2.934853e-01 3.012489e-01 3.159406e-01 2.777686e-01 2.845387e-01 9.135426e-07 -1.114758e-06 -5.127020e-06 -3.477763e-06 -5.146512e-06 -4.045977e-06 -2.704007e-06 -2.625926e-06 2.284148e-07 -2.455553e-06 -3.303057e-06 -3.432895e-06 1.716960e-06 1.590000e-06 1.165124e-06 1.896423e-06 1.543451e-06 1.756088e-06 2.096551e-06 2.216106e-06 1.673395e-06 9.923498e-07 1.687240e-06 1.989734e-06
<VARIANCE> 39
 3.872017e+04 1.648368e+02 9.713050e+00 9.574932e-02 7.507265e-02 1.011769e-01 6.844017e-02 1.068953e-01 8.484249e-02 8.535165e-02 1.088234e-01 8.611441e-02 1.215130e-01 7.854612e-02 1.012177e-01 7.738464e-04 5.756516e-04 8.173934e-04 6.020874e-04 9.842092e-04 7.769793e-04 7.680384e-04 9.380564e-04 7.292997e-04 9.102586e-04 6.066088e-04 8.300907e-04 4.039318e-05 3.075810e-05 4.262554e-05 3.326209e-05 5.388901e-05 4.357443e-05 4.302722e-05 5.102124e-05 4.137804e-05 4.840365e-05 3.307438e-05 4.497233e-05
<GCONST> -1.462089e+02
<TRANSP> 3
 8.000000e-01 2.000000e-01 0.000000e+00
 0.000000e+00 8.000000e-01 2.000000e-01
 0.000000e+00 0.000000e+00 0.000000e+00
<ENDHMM>
~h "Tab0087"
<BEGINHMM>
<NUMSTATES> 3
<STATE> 2
<MEAN> 39
 -4.548619e+02 -1.140042e-02 5.808319e-04 2.717569e-01 2.589890e-01 2.598633e-01 2.530417e-01 2.904299e-01 2.805820e-01 2.783154e-01 2.934853e-01 3.012489e-01 3.159406e-01 2.777686e-01 2.845387e-01 9.135426e-07 -1.114758e-06 -5.127020e-06 -3.477763e-06 -5.146512e-06 -4.045977e-06 -2.704007e-06 -2.625926e-06 2.284148e-07 -2.455553e-06 -3.303057e-06 -3.432895e-06 1.716960e-06 1.590000e-06 1.165124e-06 1.896423e-06 1.543451e-06 1.756088e-06 2.096551e-06 2.216106e-06 1.673395e-06 9.923498e-07 1.687240e-06 1.989734e-06
<VARIANCE> 39
 3.872017e+04 1.648368e+02 9.713050e+00 9.574932e-02 7.507265e-02 1.011769e-01 6.844017e-02 1.068953e-01 8.484249e-02 8.535165e-02 1.088234e-01 8.611441e-02 1.215130e-01 7.854612e-02 1.012177e-01 7.738464e-04 5.756516e-04 8.173934e-04 6.020874e-04 9.842092e-04 7.769793e-04 7.680384e-04 9.380564e-04 7.292997e-04 9.102586e-04 6.066088e-04 8.300907e-04 4.039318e-05 3.075810e-05 4.262554e-05 3.326209e-05 5.388901e-05 4.357443e-05 4.302722e-05 5.102124e-05 4.137804e-05 4.840365e-05 3.307438e-05 4.497233e-05
<GCONST> -1.462089e+02
<TRANSP> 3
 8.000000e-01 2.000000e-01 0.000000e+00
 0.000000e+00 8.000000e-01 2.000000e-01
 0.000000e+00 0.000000e+00 0.000000e+00
<ENDHMM>
~h "Tab0088"
<BEGINHMM>
<NUMSTATES> 3
<STATE> 2
<MEAN> 39
 -4.548619e+02 -1.140042e-02 5.808319e-04 2.717569e-01 2.589890e-01 2.598633e-01 2.530417e-01 2.904299e-01 2.805820e-01 2.783154e-01 2.934853e-01 3.012489e-01 3.159406e-01 2.777686e-01 2.845387e-01 9.135426e-07 -1.114758e-06 -5.127020e-06 -3.477763e-06 -5.146512e-06 -4.045977e-06 -2.704007e-06 -2.625926e-06 2.284148e-07 -2.455553e-06 -3.303057e-06 -3.432895e-06 1.716960e-06 1.590000e-06 1.165124e-06 1.896423e-06 1.543451e-06 1.756088e-06 2.096551e-06 2.216106e-06 1.673395e-06 9.923498e-07 1.687240e-06 1.989734e-06
<VARIANCE> 39
 3.872017e+04 1.648368e+02 9.713050e+00 9.574932e-02 7.507265e-02 1.011769e-01 6.844017e-02 1.068953e-01 8.484249e-02 8.535165e-02 1.088234e-01 8.611441e-02 1.215130e-01 7.854612e-02 1.012177e-01 7.738464e-04 5.756516e-04 8.173934e-04 6.020874e-04 9.842092e-04 7.769793e-04 7.680384e-04 9.380564e-04 7.292997e-04 9.102586e-04 6.066088e-04 8.300907e-04 4.039318e-05 3.075810e-05 4.262554e-05 3.326209e-05 5.388901e-05 4.357443e-05 4.302722e-05 5.102124e-05 4.137804e-05 4.840365e-05 3.307438e-05 4.497233e-05
<GCONST> -1.462089e+02
<TRANSP> 3
 8.000000e-01 2.000000e-01 0.000000e+00
 0.000000e+00 8.000000e-01 2.000000e-01
 0.000000e+00 0.000000e+00 0.000000e+00
<ENDHMM>
~h "Tab0092"
<BEGINHMM>
<NUMSTATES> 3
<STATE> 2
<MEAN> 39
 -4.548619e+02 -1.140042e-02 5.808319e-04 2.717569e-01 2.589890e-01 2.598633e-01 2.530417e-01 2.904299e-01 2.805820e-01 2.783154e-01 2.934853e-01 3.012489e-01 3.159406e-01 2.777686e-01 2.845387e-01 9.135426e-07 -1.114758e-06 -5.127020e-06 -3.477763e-06 -5.146512e-06 -4.045977e-06 -2.704007e-06 -2.625926e-06 2.284148e-07 -2.455553e-06 -3.303057e-06 -3.432895e-06 1.716960e-06 1.590000e-06 1.165124e-06 1.896423e-06 1.543451e-06 1.756088e-06 2.096551e-06 2.216106e-06 1.673395e-06 9.923498e-07 1.687240e-06 1.989734e-06
<VARIANCE> 39
 3.872017e+04 1.648368e+02 9.713050e+00 9.574932e-02 7.507265e-02 1.011769e-01 6.844017e-02 1.068953e-01 8.484249e-02 8.535165e-02 1.088234e-01 8.611441e-02 1.215130e-01 7.854612e-02 1.012177e-01 7.738464e-04 5.756516e-04 8.173934e-04 6.020874e-04 9.842092e-04 7.769793e-04 7.680384e-04 9.380564e-04 7.292997e-04 9.102586e-04 6.066088e-04 8.300907e-04 4.039318e-05 3.075810e-05 4.262554e-05 3.326209e-05 5.388901e-05 4.357443e-05 4.302722e-05 5.102124e-05 4.137804e-05 4.840365e-05 3.307438e-05 4.497233e-05
<GCONST> -1.462089e+02
<TRANSP> 3
 8.000000e-01 2.000000e-01 0.000000e+00
 0.000000e+00 8.000000e-01 2.000000e-01
 0.000000e+00 0.000000e+00 0.000000e+00
<ENDHMM>
~h "Tab0098"
<BEGINHMM>
<NUMSTATES> 3
<STATE> 2
<MEAN> 39
 -4.548619e+02 -1.140042e-02 5.808319e-04 2.717569e-01 2.589890e-01 2.598633e-01 2.530417e-01 2.904299e-01 2.805820e-01 2.783154e-01 2.934853e-01 3.012489e-01 3.159406e-01 2.777686e-01 2.845387e-01 9.135426e-07 -1.114758e-06 -5.127020e-06 -3.477763e-06 -5.146512e-06 -4.045977e-06 -2.704007e-06 -2.625926e-06 2.284148e-07 -2.455553e-06 -3.303057e-06 -3.432895e-06 1.716960e-06 1.590000e-06 1.165124e-06 1.896423e-06 1.543451e-06 1.756088e-06 2.096551e-06 2.216106e-06 1.673395e-06 9.923498e-07 1.687240e-06 1.989734e-06
<VARIANCE> 39
 3.872017e+04 1.648368e+02 9.713050e+00 9.574932e-02 7.507265e-02 1.011769e-01 6.844017e-02 1.068953e-01 8.484249e-02 8.535165e-02 1.088234e-01 8.611441e-02 1.215130e-01 7.854612e-02 1.012177e-01 7.738464e-04 5.756516e-04 8.173934e-04 6.020874e-04 9.842092e-04 7.769793e-04 7.680384e-04 9.380564e-04 7.292997e-04 9.102586e-04 6.066088e-04 8.300907e-04 4.039318e-05 3.075810e-05 4.262554e-05 3.326209e-05 5.388901e-05 4.357443e-05 4.302722e-05 5.102124e-05 4.137804e-05 4.840365e-05 3.307438e-05 4.497233e-05
<GCONST> -1.462089e+02
<TRANSP> 3
 8.000000e-01 2.000000e-01 0.000000e+00
 0.000000e+00 8.000000e-01 2.000000e-01
 0.000000e+00 0.000000e+00 0.000000e+00
<ENDHMM>
~h "Tab0101"
<BEGINHMM>
<NUMSTATES> 3
<STATE> 2
<MEAN> 39
 -4.548619e+02 -1.140042e-02 5.808319e-04 2.717569e-01 2.589890e-01 2.598633e-01 2.530417e-01 2.904299e-01 2.805820e-01 2.783154e-01 2.934853e-01 3.012489e-01 3.159406e-01 2.777686e-01 2.845387e-01 9.135426e-07 -1.114758e-06 -5.127020e-06 -3.477763e-06 -5.146512e-06 -4.045977e-06 -2.704007e-06 -2.625926e-06 2.284148e-07 -2.455553e-06 -3.303057e-06 -3.432895e-06 1.716960e-06 1.590000e-06 1.165124e-06 1.896423e-06 1.543451e-06 1.756088e-06 2.096551e-06 2.216106e-06 1.673395e-06 9.923498e-07 1.687240e-06 1.989734e-06
<VARIANCE> 39
 3.872017e+04 1.648368e+02 9.713050e+00 9.574932e-02 7.507265e-02 1.011769e-01 6.844017e-02 1.068953e-01 8.484249e-02 8.535165e-02 1.088234e-01 8.611441e-02 1.215130e-01 7.854612e-02 1.012177e-01 7.738464e-04 5.756516e-04 8.173934e-04 6.020874e-04 9.842092e-04 7.769793e-04 7.680384e-04 9.380564e-04 7.292997e-04 9.102586e-04 6.066088e-04 8.300907e-04 4.039318e-05 3.075810e-05 4.262554e-05 3.326209e-05 5.388901e-05 4.357443e-05 4.302722e-05 5.102124e-05 4.137804e-05 4.840365e-05 3.307438e-05 4.497233e-05
<GCONST> -1.462089e+02
<TRANSP> 3
 8.000000e-01 2.000000e-01 0.000000e+00
 0.000000e+00 8.000000e-01 2.000000e-01
 0.000000e+00 0.000000e+00 0.000000e+00
<ENDHMM>
~h "Tab0102"
<BEGINHMM>
<NUMSTATES> 3
<STATE> 2
<MEAN> 39
 -4.548619e+02 -1.140042e-02 5.808319e-04 2.717569e-01 2.589890e-01 2.598633e-01 2.530417e-01 2.904299e-01 2.805820e-01 2.783154e-01 2.934853e-01 3.012489e-01 3.159406e-01 2.777686e-01 2.845387e-01 9.135426e-07 -1.114758e-06 -5.127020e-06 -3.477763e-06 -5.146512e-06 -4.045977e-06 -2.704007e-06 -2.625926e-06 2.284148e-07 -2.455553e-06 -3.303057e-06 -3.432895e-06 1.716960e-06 1.590000e-06 1.165124e-06 1.896423e-06 1.543451e-06 1.756088e-06 2.096551e-06 2.216106e-06 1.673395e-06 9.923498e-07 1.687240e-06 1.989734e-06
<VARIANCE> 39
 3.872017e+04 1.648368e+02 9.713050e+00 9.574932e-02 7.507265e-02 1.011769e-01 6.844017e-02 1.068953e-01 8.484249e-02 8.535165e-02 1.088234e-01 8.611441e-02 1.215130e-01 7.854612e-02 1.012177e-01 7.738464e-04 5.756516e-04 8.173934e-04 6.020874e-04 9.842092e-04 7.769793e-04 7.680384e-04 9.380564e-04 7.292997e-04 9.102586e-04 6.066088e-04 8.300907e-04 4.039318e-05 3.075810e-05 4.262554e-05 3.326209e-05 5.388901e-05 4.357443e-05 4.302722e-05 5.102124e-05 4.137804e-05 4.840365e-05 3.307438e-05 4.497233e-05
<GCONST> -1.462089e+02
<TRANSP> 3
 8.000000e-01 2.000000e-01 0.000000e+00
 0.000000e+00 8.000000e-01 2.000000e-01
 0.000000e+00 0.000000e+00 0.000000e+00
<ENDHMM>
~h "Tab0103"
<BEGINHMM>
<NUMSTATES> 3
<STATE> 2
<MEAN> 39
 -4.548619e+02 -1.140042e-02 5.808319e-04 2.717569e-01 2.589890e-01 2.598633e-01 2.530417e-01 2.904299e-01 2.805820e-01 2.783154e-01 2.934853e-01 3.012489e-01 3.159406e-01 2.777686e-01 2.845387e-01 9.135426e-07 -1.114758e-06 -5.127020e-06 -3.477763e-06 -5.146512e-06 -4.045977e-06 -2.704007e-06 -2.625926e-06 2.284148e-07 -2.455553e-06 -3.303057e-06 -3.432895e-06 1.716960e-06 1.590000e-06 1.165124e-06 1.896423e-06 1.543451e-06 1.756088e-06 2.096551e-06 2.216106e-06 1.673395e-06 9.923498e-07 1.687240e-06 1.989734e-06
<VARIANCE> 39
 3.872017e+04 1.648368e+02 9.713050e+00 9.574932e-02 7.507265e-02 1.011769e-01 6.844017e-02 1.068953e-01 8.484249e-02 8.535165e-02 1.088234e-01 8.611441e-02 1.215130e-01 7.854612e-02 1.012177e-01 7.738464e-04 5.756516e-04 8.173934e-04 6.020874e-04 9.842092e-04 7.769793e-04 7.680384e-04 9.380564e-04 7.292997e-04 9.102586e-04 6.066088e-04 8.300907e-04 4.039318e-05 3.075810e-05 4.262554e-05 3.326209e-05 5.388901e-05 4.357443e-05 4.302722e-05 5.102124e-05 4.137804e-05 4.840365e-05 3.307438e-05 4.497233e-05
<GCONST> -1.462089e+02
<TRANSP> 3
 8.000000e-01 2.000000e-01 0.000000e+00
 0.000000e+00 8.000000e-01 2.000000e-01
 0.000000e+00 0.000000e+00 0.000000e+00
<ENDHMM>
~h "Tab0104"
<BEGINHMM>
<NUMSTATES> 3
<STATE> 2
<MEAN> 39
 -4.548619e+02 -1.140042e-02 5.808319e-04 2.717569e-01 2.589890e-01 2.598633e-01 2.530417e-01 2.904299e-01 2.805820e-01 2.783154e-01 2.934853e-01 3.012489e-01 3.159406e-01 2.777686e-01 2.845387e-01 9.135426e-07 -1.114758e-06 -5.127020e-06 -3.477763e-06 -5.146512e-06 -4.045977e-06 -2.704007e-06 -2.625926e-06 2.284148e-07 -2.455553e-06 -3.303057e-06 -3.432895e-06 1.716960e-06 1.590000e-06 1.165124e-06 1.896423e-06 1.543451e-06 1.756088e-06 2.096551e-06 2.216106e-06 1.673395e-06 9.923498e-07 1.687240e-06 1.989734e-06
<VARIANCE> 39
 3.872017e+04 1.648368e+02 9.713050e+00 9.574932e-02 7.507265e-02 1.011769e-01 6.844017e-02 1.068953e-01 8.484249e-02 8.535165e-02 1.088234e-01 8.611441e-02 1.215130e-01 7.854612e-02 1.012177e-01 7.738464e-04 5.756516e-04 8.173934e-04 6.020874e-04 9.842092e-04 7.769793e-04 7.680384e-04 9.380564e-04 7.292997e-04 9.102586e-04 6.066088e-04 8.300907e-04 4.039318e-05 3.075810e-05 4.262554e-05 3.326209e-05 5.388901e-05 4.357443e-05 4.302722e-05 5.102124e-05 4.137804e-05 4.840365e-05 3.307438e-05 4.497233e-05
<GCONST> -1.462089e+02
<TRANSP> 3
 8.000000e-01 2.000000e-01 0.000000e+00
 0.000000e+00 8.000000e-01 2.000000e-01
 0.000000e+00 0.000000e+00 0.000000e+00
<ENDHMM>
~h "Tab0105"
<BEGINHMM>
<NUMSTATES> 3
<STATE> 2
<MEAN> 39
 -4.548619e+02 -1.140042e-02 5.808319e-04 2.717569e-01 2.589890e-01 2.598633e-01 2.530417e-01 2.904299e-01 2.805820e-01 2.783154e-01 2.934853e-01 3.012489e-01 3.159406e-01 2.777686e-01 2.845387e-01 9.135426e-07 -1.114758e-06 -5.127020e-06 -3.477763e-06 -5.146512e-06 -4.045977e-06 -2.704007e-06 -2.625926e-06 2.284148e-07 -2.455553e-06 -3.303057e-06 -3.432895e-06 1.716960e-06 1.590000e-06 1.165124e-06 1.896423e-06 1.543451e-06 1.756088e-06 2.096551e-06 2.216106e-06 1.673395e-06 9.923498e-07 1.687240e-06 1.989734e-06
<VARIANCE> 39
 3.872017e+04 1.648368e+02 9.713050e+00 9.574932e-02 7.507265e-02 1.011769e-01 6.844017e-02 1.068953e-01 8.484249e-02 8.535165e-02 1.088234e-01 8.611441e-02 1.215130e-01 7.854612e-02 1.012177e-01 7.738464e-04 5.756516e-04 8.173934e-04 6.020874e-04 9.842092e-04 7.769793e-04 7.680384e-04 9.380564e-04 7.292997e-04 9.102586e-04 6.066088e-04 8.300907e-04 4.039318e-05 3.075810e-05 4.262554e-05 3.326209e-05 5.388901e-05 4.357443e-05 4.302722e-05 5.102124e-05 4.137804e-05 4.840365e-05 3.307438e-05 4.497233e-05
<GCONST> -1.462089e+02
<TRANSP> 3
 8.000000e-01 2.000000e-01 0.000000e+00
 0.000000e+00 8.000000e-01 2.000000e-01
 0.000000e+00 0.000000e+00 0.000000e+00
<ENDHMM>
~h "Tab0112"
<BEGINHMM>
<NUMSTATES> 3
<STATE> 2
<MEAN> 39
 -4.548619e+02 -1.140042e-02 5.808319e-04 2.717569e-01 2.589890e-01 2.598633e-01 2.530417e-01 2.904299e-01 2.805820e-01 2.783154e-01 2.934853e-01 3.012489e-01 3.159406e-01 2.777686e-01 2.845387e-01 9.135426e-07 -1.114758e-06 -5.127020e-06 -3.477763e-06 -5.146512e-06 -4.045977e-06 -2.704007e-06 -2.625926e-06 2.284148e-07 -2.455553e-06 -3.303057e-06 -3.432895e-06 1.716960e-06 1.590000e-06 1.165124e-06 1.896423e-06 1.543451e-06 1.756088e-06 2.096551e-06 2.216106e-06 1.673395e-06 9.923498e-07 1.687240e-06 1.989734e-06
<VARIANCE> 39
 3.872017e+04 1.648368e+02 9.713050e+00 9.574932e-02 7.507265e-02 1.011769e-01 6.844017e-02 1.068953e-01 8.484249e-02 8.535165e-02 1.088234e-01 8.611441e-02 1.215130e-01 7.854612e-02 1.012177e-01 7.738464e-04 5.756516e-04 8.173934e-04 6.020874e-04 9.842092e-04 7.769793e-04 7.680384e-04 9.380564e-04 7.292997e-04 9.102586e-04 6.066088e-04 8.300907e-04 4.039318e-05 3.075810e-05 4.262554e-05 3.326209e-05 5.388901e-05 4.357443e-05 4.302722e-05 5.102124e-05 4.137804e-05 4.840365e-05 3.307438e-05 4.497233e-05
<GCONST> -1.462089e+02
<TRANSP> 3
 8.000000e-01 2.000000e-01 0.000000e+00
 0.000000e+00 8.000000e-01 2.000000e-01
 0.000000e+00 0.000000e+00 0.000000e+00
<ENDHMM>
~h "Tab0113"
<BEGINHMM>
<NUMSTATES> 3
<STATE> 2
<MEAN> 39
 -4.548619e+02 -1.140042e-02 5.808319e-04 2.717569e-01 2.589890e-01 2.598633e-01 2.530417e-01 2.904299e-01 2.805820e-01 2.783154e-01 2.934853e-01 3.012489e-01 3.159406e-01 2.777686e-01 2.845387e-01 9.135426e-07 -1.114758e-06 -5.127020e-06 -3.477763e-06 -5.146512e-06 -4.045977e-06 -2.704007e-06 -2.625926e-06 2.284148e-07 -2.455553e-06 -3.303057e-06 -3.432895e-06 1.716960e-06 1.590000e-06 1.165124e-06 1.896423e-06 1.543451e-06 1.756088e-06 2.096551e-06 2.216106e-06 1.673395e-06 9.923498e-07 1.687240e-06 1.989734e-06
<VARIANCE> 39
 3.872017e+04 1.648368e+02 9.713050e+00 9.574932e-02 7.507265e-02 1.011769e-01 6.844017e-02 1.068953e-01 8.484249e-02 8.535165e-02 1.088234e-01 8.611441e-02 1.215130e-01 7.854612e-02 1.012177e-01 7.738464e-04 5.756516e-04 8.173934e-04 6.020874e-04 9.842092e-04 7.769793e-04 7.680384e-04 9.380564e-04 7.292997e-04 9.102586e-04 6.066088e-04 8.300907e-04 4.039318e-05 3.075810e-05 4.262554e-05 3.326209e-05 5.388901e-05 4.357443e-05 4.302722e-05 5.102124e-05 4.137804e-05 4.840365e-05 3.307438e-05 4.497233e-05
<GCONST> -1.462089e+02
<TRANSP> 3
 8.000000e-01 2.000000e-01 0.000000e+00
 0.000000e+00 8.000000e-01 2.000000e-01
 0.000000e+00 0.000000e+00 0.000000e+00
<ENDHMM>
~h "Tab0114"
<BEGINHMM>
<NUMSTATES> 3
<STATE> 2
<MEAN> 39
 -4.548619e+02 -1.140042e-02 5.808319e-04 2.717569e-01 2.589890e-01 2.598633e-01 2.530417e-01 2.904299e-01 2.805820e-01 2.783154e-01 2.934853e-01 3.012489e-01 3.159406e-01 2.777686e-01 2.845387e-01 9.135426e-07 -1.114758e-06 -5.127020e-06 -3.477763e-06 -5.146512e-06 -4.045977e-06 -2.704007e-06 -2.625926e-06 2.284148e-07 -2.455553e-06 -3.303057e-06 -3.432895e-06 1.716960e-06 1.590000e-06 1.165124e-06 1.896423e-06 1.543451e-06 1.756088e-06 2.096551e-06 2.216106e-06 1.673395e-06 9.923498e-07 1.687240e-06 1.989734e-06
<VARIANCE> 39
 3.872017e+04 1.648368e+02 9.713050e+00 9.574932e-02 7.507265e-02 1.011769e-01 6.844017e-02 1.068953e-01 8.484249e-02 8.535165e-02 1.088234e-01 8.611441e-02 1.215130e-01 7.854612e-02 1.012177e-01 7.738464e-04 5.756516e-04 8.173934e-04 6.020874e-04 9.842092e-04 7.769793e-04 7.680384e-04 9.380564e-04 7.292997e-04 9.102586e-04 6.066088e-04 8.300907e-04 4.039318e-05 3.075810e-05 4.262554e-05 3.326209e-05 5.388901e-05 4.357443e-05 4.302722e-05 5.102124e-05 4.137804e-05 4.840365e-05 3.307438e-05 4.497233e-05
<GCONST> -1.462089e+02
<TRANSP> 3
 8.000000e-01 2.000000e-01 0.000000e+00
 0.000000e+00 8.000000e-01 2.000000e-01
 0.000000e+00 0.000000e+00 0.000000e+00
<ENDHMM>
~h "Tab0115"
<BEGINHMM>
<NUMSTATES> 3
<STATE> 2
<MEAN> 39
 -4.548619e+02 -1.140042e-02 5.808319e-04 2.717569e-01 2.589890e-01 2.598633e-01 2.530417e-01 2.904299e-01 2.805820e-01 2.783154e-01 2.934853e-01 3.012489e-01 3.159406e-01 2.777686e-01 2.845387e-01 9.135426e-07 -1.114758e-06 -5.127020e-06 -3.477763e-06 -5.146512e-06 -4.045977e-06 -2.704007e-06 -2.625926e-06 2.284148e-07 -2.455553e-06 -3.303057e-06 -3.432895e-06 1.716960e-06 1.590000e-06 1.165124e-06 1.896423e-06 1.543451e-06 1.756088e-06 2.096551e-06 2.216106e-06 1.673395e-06 9.923498e-07 1.687240e-06 1.989734e-06
<VARIANCE> 39
 3.872017e+04 1.648368e+02 9.713050e+00 9.574932e-02 7.507265e-02 1.011769e-01 6.844017e-02 1.068953e-01 8.484249e-02 8.535165e-02 1.088234e-01 8.611441e-02 1.215130e-01 7.854612e-02 1.012177e-01 7.738464e-04 5.756516e-04 8.173934e-04 6.020874e-04 9.842092e-04 7.769793e-04 7.680384e-04 9.380564e-04 7.292997e-04 9.102586e-04 6.066088e-04 8.300907e-04 4.039318e-05 3.075810e-05 4.262554e-05 3.326209e-05 5.388901e-05 4.357443e-05 4.302722e-05 5.102124e-05 4.137804e-05 4.840365e-05 3.307438e-05 4.497233e-05
<GCONST> -1.462089e+02
<TRANSP> 3
 8.000000e-01 2.000000e-01 0.000000e+00
 0.000000e+00 8.000000e-01 2.000000e-01
 0.000000e+00 0.000000e+00 0.000000e+00
<ENDHMM>
~h "Tab0116"
<BEGINHMM>
<NUMSTATES> 3
<STATE> 2
<MEAN> 39
 -4.548619e+02 -1.140042e-02 5.808319e-04 2.717569e-01 2.589890e-01 2.598633e-01 2.530417e-01 2.904299e-01 2.805820e-01 2.783154e-01 2.934853e-01 3.012489e-01 3.159406e-01 2.777686e-01 2.845387e-01 9.135426e-07 -1.114758e-06 -5.127020e-06 -3.477763e-06 -5.146512e-06 -4.045977e-06 -2.704007e-06 -2.625926e-06 2.284148e-07 -2.455553e-06 -3.303057e-06 -3.432895e-06 1.716960e-06 1.590000e-06 1.165124e-06 1.896423e-06 1.543451e-06 1.756088e-06 2.096551e-06 2.216106e-06 1.673395e-06 9.923498e-07 1.687240e-06 1.989734e-06
<VARIANCE> 39
 3.872017e+04 1.648368e+02 9.713050e+00 9.574932e-02 7.507265e-02 1.011769e-01 6.844017e-02 1.068953e-01 8.484249e-02 8.535165e-02 1.088234e-01 8.611441e-02 1.215130e-01 7.854612e-02 1.012177e-01 7.738464e-04 5.756516e-04 8.173934e-04 6.020874e-04 9.842092e-04 7.769793e-04 7.680384e-04 9.380564e-04 7.292997e-04 9.102586e-04 6.066088e-04 8.300907e-04 4.039318e-05 3.075810e-05 4.262554e-05 3.326209e-05 5.388901e-05 4.357443e-05 4.302722e-05 5.102124e-05 4.137804e-05 4.840365e-05 3.307438e-05 4.497233e-05
<GCONST> -1.462089e+02
<TRANSP> 3
 8.000000e-01 2.000000e-01 0.000000e+00
 0.000000e+00 8.000000e-01 2.000000e-01
 0.000000e+00 0.000000e+00 0.000000e+00
<ENDHMM>
~h "Tab0117"
<BEGINHMM>
<NUMSTATES> 3
<STATE> 2
<MEAN> 39
 -4.548619e+02 -1.140042e-02 5.808319e-04 2.717569e-01 2.589890e-01 2.598633e-01 2.530417e-01 2.904299e-01 2.805820e-01 2.783154e-01 2.934853e-01 3.012489e-01 3.159406e-01 2.777686e-01 2.845387e-01 9.135426e-07 -1.114758e-06 -5.127020e-06 -3.477763e-06 -5.146512e-06 -4.045977e-06 -2.704007e-06 -2.625926e-06 2.284148e-07 -2.455553e-06 -3.303057e-06 -3.432895e-06 1.716960e-06 1.590000e-06 1.165124e-06 1.896423e-06 1.543451e-06 1.756088e-06 2.096551e-06 2.216106e-06 1.673395e-06 9.923498e-07 1.687240e-06 1.989734e-06
<VARIANCE> 39
 3.872017e+04 1.648368e+02 9.713050e+00 9.574932e-02 7.507265e-02 1.011769e-01 6.844017e-02 1.068953e-01 8.484249e-02 8.535165e-02 1.088234e-01 8.611441e-02 1.215130e-01 7.854612e-02 1.012177e-01 7.738464e-04 5.756516e-04 8.173934e-04 6.020874e-04 9.842092e-04 7.769793e-04 7.680384e-04 9.380564e-04 7.292997e-04 9.102586e-04 6.066088e-04 8.300907e-04 4.039318e-05 3.075810e-05 4.262554e-05 3.326209e-05 5.388901e-05 4.357443e-05 4.302722e-05 5.102124e-05 4.137804e-05 4.840365e-05 3.307438e-05 4.497233e-05
<GCONST> -1.462089e+02
<TRANSP> 3
 8.000000e-01 2.000000e-01 0.000000e+00
 0.000000e+00 8.000000e-01 2.000000e-01
 0.000000e+00 0.000000e+00 0.000000e+00
<ENDHMM>
~h "Tab0128"
<BEGINHMM>
<NUMSTATES> 3
<STATE> 2
<MEAN> 39
 -4.548619e+02 -1.140042e-02 5.808319e-04 2.717569e-01 2.589890e-01 2.598633e-01 2.530417e-01 2.904299e-01 2.805820e-01 2.783154e-01 2.934853e-01 3.012489e-01 3.159406e-01 2.777686e-01 2.845387e-01 9.135426e-07 -1.114758e-06 -5.127020e-06 -3.477763e-06 -5.146512e-06 -4.045977e-06 -2.704007e-06 -2.625926e-06 2.284148e-07 -2.455553e-06 -3.303057e-06 -3.432895e-06 1.716960e-06 1.590000e-06 1.165124e-06 1.896423e-06 1.543451e-06 1.756088e-06 2.096551e-06 2.216106e-06 1.673395e-06 9.923498e-07 1.687240e-06 1.989734e-06
<VARIANCE> 39
 3.872017e+04 1.648368e+02 9.713050e+00 9.574932e-02 7.507265e-02 1.011769e-01 6.844017e-02 1.068953e-01 8.484249e-02 8.535165e-02 1.088234e-01 8.611441e-02 1.215130e-01 7.854612e-02 1.012177e-01 7.738464e-04 5.756516e-04 8.173934e-04 6.020874e-04 9.842092e-04 7.769793e-04 7.680384e-04 9.380564e-04 7.292997e-04 9.102586e-04 6.066088e-04 8.300907e-04 4.039318e-05 3.075810e-05 4.262554e-05 3.326209e-05 5.388901e-05 4.357443e-05 4.302722e-05 5.102124e-05 4.137804e-05 4.840365e-05 3.307438e-05 4.497233e-05
<GCONST> -1.462089e+02
<TRANSP> 3
 8.000000e-01 2.000000e-01 0.000000e+00
 0.000000e+00 8.000000e-01 2.000000e-01
 0.000000e+00 0.000000e+00 0.000000e+00
<ENDHMM>
~h "Tab0164"
<BEGINHMM>
<NUMSTATES> 3
<STATE> 2
<MEAN> 39
 -4.548619e+02 -1.140042e-02 5.808319e-04 2.717569e-01 2.589890e-01 2.598633e-01 2.530417e-01 2.904299e-01 2.805820e-01 2.783154e-01 2.934853e-01 3.012489e-01 3.159406e-01 2.777686e-01 2.845387e-01 9.135426e-07 -1.114758e-06 -5.127020e-06 -3.477763e-06 -5.146512e-06 -4.045977e-06 -2.704007e-06 -2.625926e-06 2.284148e-07 -2.455553e-06 -3.303057e-06 -3.432895e-06 1.716960e-06 1.590000e-06 1.165124e-06 1.896423e-06 1.543451e-06 1.756088e-06 2.096551e-06 2.216106e-06 1.673395e-06 9.923498e-07 1.687240e-06 1.989734e-06
<VARIANCE> 39
 3.872017e+04 1.648368e+02 9.713050e+00 9.574932e-02 7.507265e-02 1.011769e-01 6.844017e-02 1.068953e-01 8.484249e-02 8.535165e-02 1.088234e-01 8.611441e-02 1.215130e-01 7.854612e-02 1.012177e-01 7.738464e-04 5.756516e-04 8.173934e-04 6.020874e-04 9.842092e-04 7.769793e-04 7.680384e-04 9.380564e-04 7.292997e-04 9.102586e-04 6.066088e-04 8.300907e-04 4.039318e-05 3.075810e-05 4.262554e-05 3.326209e-05 5.388901e-05 4.357443e-05 4.302722e-05 5.102124e-05 4.137804e-05 4.840365e-05 3.307438e-05 4.497233e-05
<GCONST> -1.462089e+02
<TRANSP> 3
 8.000000e-01 2.000000e-01 0.000000e+00
 0.000000e+00 8.000000e-01 2.000000e-01
 0.000000e+00 0.000000e+00 0.000000e+00
<ENDHMM>
~h "Tab0167"
<BEGINHMM>
<NUMSTATES> 3
<STATE> 2
<MEAN> 39
 -4.548619e+02 -1.140042e-02 5.808319e-04 2.717569e-01 2.589890e-01 2.598633e-01 2.530417e-01 2.904299e-01 2.805820e-01 2.783154e-01 2.934853e-01 3.012489e-01 3.159406e-01 2.777686e-01 2.845387e-01 9.135426e-07 -1.114758e-06 -5.127020e-06 -3.477763e-06 -5.146512e-06 -4.045977e-06 -2.704007e-06 -2.625926e-06 2.284148e-07 -2.455553e-06 -3.303057e-06 -3.432895e-06 1.716960e-06 1.590000e-06 1.165124e-06 1.896423e-06 1.543451e-06 1.756088e-06 2.096551e-06 2.216106e-06 1.673395e-06 9.923498e-07 1.687240e-06 1.989734e-06
<VARIANCE> 39
 3.872017e+04 1.648368e+02 9.713050e+00 9.574932e-02 7.507265e-02 1.011769e-01 6.844017e-02 1.068953e-01 8.484249e-02 8.535165e-02 1.088234e-01 8.611441e-02 1.215130e-01 7.854612e-02 1.012177e-01 7.738464e-04 5.756516e-04 8.173934e-04 6.020874e-04 9.842092e-04 7.769793e-04 7.680384e-04 9.380564e-04 7.292997e-04 9.102586e-04 6.066088e-04 8.300907e-04 4.039318e-05 3.075810e-05 4.262554e-05 3.326209e-05 5.388901e-05 4.357443e-05 4.302722e-05 5.102124e-05 4.137804e-05 4.840365e-05 3.307438e-05 4.497233e-05
<GCONST> -1.462089e+02
<TRANSP> 3
 8.000000e-01 2.000000e-01 0.000000e+00
 0.000000e+00 8.000000e-01 2.000000e-01
 0.000000e+00 0.000000e+00 0.000000e+00
<ENDHMM>
~h "Tab0170"
<BEGINHMM>
<NUMSTATES> 3
<STATE> 2
<MEAN> 39
 -4.548619e+02 -1.140042e-02 5.808319e-04 2.717569e-01 2.589890e-01 2.598633e-01 2.530417e-01 2.904299e-01 2.805820e-01 2.783154e-01 2.934853e-01 3.012489e-01 3.159406e-01 2.777686e-01 2.845387e-01 9.135426e-07 -1.114758e-06 -5.127020e-06 -3.477763e-06 -5.146512e-06 -4.045977e-06 -2.704007e-06 -2.625926e-06 2.284148e-07 -2.455553e-06 -3.303057e-06 -3.432895e-06 1.716960e-06 1.590000e-06 1.165124e-06 1.896423e-06 1.543451e-06 1.756088e-06 2.096551e-06 2.216106e-06 1.673395e-06 9.923498e-07 1.687240e-06 1.989734e-06
<VARIANCE> 39
 3.872017e+04 1.648368e+02 9.713050e+00 9.574932e-02 7.507265e-02 1.011769e-01 6.844017e-02 1.068953e-01 8.484249e-02 8.535165e-02 1.088234e-01 8.611441e-02 1.215130e-01 7.854612e-02 1.012177e-01 7.738464e-04 5.756516e-04 8.173934e-04 6.020874e-04 9.842092e-04 7.769793e-04 7.680384e-04 9.380564e-04 7.292997e-04 9.102586e-04 6.066088e-04 8.300907e-04 4.039318e-05 3.075810e-05 4.262554e-05 3.326209e-05 5.388901e-05 4.357443e-05 4.302722e-05 5.102124e-05 4.137804e-05 4.840365e-05 3.307438e-05 4.497233e-05
<GCONST> -1.462089e+02
<TRANSP> 3
 8.000000e-01 2.000000e-01 0.000000e+00
 0.000000e+00 8.000000e-01 2.000000e-01
 0.000000e+00 0.000000e+00 0.000000e+00
<ENDHMM>
~h "Tab0173"
<BEGINHMM>
<NUMSTATES> 3
<STATE> 2
<MEAN> 39
 -4.548619e+02 -1.140042e-02 5.808319e-04 2.717569e-01 2.589890e-01 2.598633e-01 2.530417e-01 2.904299e-01 2.805820e-01 2.783154e-01 2.934853e-01 3.012489e-01 3.159406e-01 2.777686e-01 2.845387e-01 9.135426e-07 -1.114758e-06 -5.127020e-06 -3.477763e-06 -5.146512e-06 -4.045977e-06 -2.704007e-06 -2.625926e-06 2.284148e-07 -2.455553e-06 -3.303057e-06 -3.432895e-06 1.716960e-06 1.590000e-06 1.165124e-06 1.896423e-06 1.543451e-06 1.756088e-06 2.096551e-06 2.216106e-06 1.673395e-06 9.923498e-07 1.687240e-06 1.989734e-06
<VARIANCE> 39
 3.872017e+04 1.648368e+02 9.713050e+00 9.574932e-02 7.507265e-02 1.011769e-01 6.844017e-02 1.068953e-01 8.484249e-02 8.535165e-02 1.088234e-01 8.611441e-02 1.215130e-01 7.854612e-02 1.012177e-01 7.738464e-04 5.756516e-04 8.173934e-04 6.020874e-04 9.842092e-04 7.769793e-04 7.680384e-04 9.380564e-04 7.292997e-04 9.102586e-04 6.066088e-04 8.300907e-04 4.039318e-05 3.075810e-05 4.262554e-05 3.326209e-05 5.388901e-05 4.357443e-05 4.302722e-05 5.102124e-05 4.137804e-05 4.840365e-05 3.307438e-05 4.497233e-05
<GCONST> -1.462089e+02
<TRANSP> 3
 8.000000e-01 2.000000e-01 0.000000e+00
 0.000000e+00 8.000000e-01 2.000000e-01
 0.000000e+00 0.000000e+00 0.000000e+00
<ENDHMM>
~h "Tab0174"
<BEGINHMM>
<NUMSTATES> 3
<STATE> 2
<MEAN> 39
 -4.548619e+02 -1.140042e-02 5.808319e-04 2.717569e-01 2.589890e-01 2.598633e-01 2.530417e-01 2.904299e-01 2.805820e-01 2.783154e-01 2.934853e-01 3.012489e-01 3.159406e-01 2.777686e-01 2.845387e-01 9.135426e-07 -1.114758e-06 -5.127020e-06 -3.477763e-06 -5.146512e-06 -4.045977e-06 -2.704007e-06 -2.625926e-06 2.284148e-07 -2.455553e-06 -3.303057e-06 -3.432895e-06 1.716960e-06 1.590000e-06 1.165124e-06 1.896423e-06 1.543451e-06 1.756088e-06 2.096551e-06 2.216106e-06 1.673395e-06 9.923498e-07 1.687240e-06 1.989734e-06
<VARIANCE> 39
 3.872017e+04 1.648368e+02 9.713050e+00 9.574932e-02 7.507265e-02 1.011769e-01 6.844017e-02 1.068953e-01 8.484249e-02 8.535165e-02 1.088234e-01 8.611441e-02 1.215130e-01 7.854612e-02 1.012177e-01 7.738464e-04 5.756516e-04 8.173934e-04 6.020874e-04 9.842092e-04 7.769793e-04 7.680384e-04 9.380564e-04 7.292997e-04 9.102586e-04 6.066088e-04 8.300907e-04 4.039318e-05 3.075810e-05 4.262554e-05 3.326209e-05 5.388901e-05 4.357443e-05 4.302722e-05 5.102124e-05 4.137804e-05 4.840365e-05 3.307438e-05 4.497233e-05
<GCONST> -1.462089e+02
<TRANSP> 3
 8.000000e-01 2.000000e-01 0.000000e+00
 0.000000e+00 8.000000e-01 2.000000e-01
 0.000000e+00 0.000000e+00 0.000000e+00
<ENDHMM>
~h "Tab0176"
<BEGINHMM>
<NUMSTATES> 3
<STATE> 2
<MEAN> 39
 -4.548619e+02 -1.140042e-02 5.808319e-04 2.717569e-01 2.589890e-01 2.598633e-01 2.530417e-01 2.904299e-01 2.805820e-01 2.783154e-01 2.934853e-01 3.012489e-01 3.159406e-01 2.777686e-01 2.845387e-01 9.135426e-07 -1.114758e-06 -5.127020e-06 -3.477763e-06 -5.146512e-06 -4.045977e-06 -2.704007e-06 -2.625926e-06 2.284148e-07 -2.455553e-06 -3.303057e-06 -3.432895e-06 1.716960e-06 1.590000e-06 1.165124e-06 1.896423e-06 1.543451e-06 1.756088e-06 2.096551e-06 2.216106e-06 1.673395e-06 9.923498e-07 1.687240e-06 1.989734e-06
<VARIANCE> 39
 3.872017e+04 1.648368e+02 9.713050e+00 9.574932e-02 7.507265e-02 1.011769e-01 6.844017e-02 1.068953e-01 8.484249e-02 8.535165e-02 1.088234e-01 8.611441e-02 1.215130e-01 7.854612e-02 1.012177e-01 7.738464e-04 5.756516e-04 8.173934e-04 6.020874e-04 9.842092e-04 7.769793e-04 7.680384e-04 9.380564e-04 7.292997e-04 9.102586e-04 6.066088e-04 8.300907e-04 4.039318e-05 3.075810e-05 4.262554e-05 3.326209e-05 5.388901e-05 4.357443e-05 4.302722e-05 5.102124e-05 4.137804e-05 4.840365e-05 3.307438e-05 4.497233e-05
<GCONST> -1.462089e+02
<TRANSP> 3
 8.000000e-01 2.000000e-01 0.000000e+00
 0.000000e+00 8.000000e-01 2.000000e-01
 0.000000e+00 0.000000e+00 0.000000e+00
<ENDHMM>
~h "Tab0177"
<BEGINHMM>
<NUMSTATES> 3
<STATE> 2
<MEAN> 39
 -4.548619e+02 -1.140042e-02 5.808319e-04 2.717569e-01 2.589890e-01 2.598633e-01 2.530417e-01 2.904299e-01 2.805820e-01 2.783154e-01 2.934853e-01 3.012489e-01 3.159406e-01 2.777686e-01 2.845387e-01 9.135426e-07 -1.114758e-06 -5.127020e-06 -3.477763e-06 -5.146512e-06 -4.045977e-06 -2.704007e-06 -2.625926e-06 2.284148e-07 -2.455553e-06 -3.303057e-06 -3.432895e-06 1.716960e-06 1.590000e-06 1.165124e-06 1.896423e-06 1.543451e-06 1.756088e-06 2.096551e-06 2.216106e-06 1.673395e-06 9.923498e-07 1.687240e-06 1.989734e-06
<VARIANCE> 39
 3.872017e+04 1.648368e+02 9.713050e+00 9.574932e-02 7.507265e-02 1.011769e-01 6.844017e-02 1.068953e-01 8.484249e-02 8.535165e-02 1.088234e-01 8.611441e-02 1.215130e-01 7.854612e-02 1.012177e-01 7.738464e-04 5.756516e-04 8.173934e-04 6.020874e-04 9.842092e-04 7.769793e-04 7.680384e-04 9.380564e-04 7.292997e-04 9.102586e-04 6.066088e-04 8.300907e-04 4.039318e-05 3.075810e-05 4.262554e-05 3.326209e-05 5.388901e-05 4.357443e-05 4.302722e-05 5.102124e-05 4.137804e-05 4.840365e-05 3.307438e-05 4.497233e-05
<GCONST> -1.462089e+02
<TRANSP> 3
 8.000000e-01 2.000000e-01 0.000000e+00
 0.000000e+00 8.000000e-01 2.000000e-01
 0.000000e+00 0.000000e+00 0.000000e+00
<ENDHMM>
~h "Tab0178"
<BEGINHMM>
<NUMSTATES> 3
<STATE> 2
<MEAN> 39
 -4.548619e+02 -1.140042e-02 5.808319e-04 2.717569e-01 2.589890e-01 2.598633e-01 2.530417e-01 2.904299e-01 2.805820e-01 2.783154e-01 2.934853e-01 3.012489e-01 3.159406e-01 2.777686e-01 2.845387e-01 9.135426e-07 -1.114758e-06 -5.127020e-06 -3.477763e-06 -5.146512e-06 -4.045977e-06 -2.704007e-06 -2.625926e-06 2.284148e-07 -2.455553e-06 -3.303057e-06 -3.432895e-06 1.716960e-06 1.590000e-06 1.165124e-06 1.896423e-06 1.543451e-06 1.756088e-06 2.096551e-06 2.216106e-06 1.673395e-06 9.923498e-07 1.687240e-06 1.989734e-06
<VARIANCE> 39
 3.872017e+04 1.648368e+02 9.713050e+00 9.574932e-02 7.507265e-02 1.011769e-01 6.844017e-02 1.068953e-01 8.484249e-02 8.535165e-02 1.088234e-01 8.611441e-02 1.215130e-01 7.854612e-02 1.012177e-01 7.738464e-04 5.756516e-04 8.173934e-04 6.020874e-04 9.842092e-04 7.769793e-04 7.680384e-04 9.380564e-04 7.292997e-04 9.102586e-04 6.066088e-04 8.300907e-04 4.039318e-05 3.075810e-05 4.262554e-05 3.326209e-05 5.388901e-05 4.357443e-05 4.302722e-05 5.102124e-05 4.137804e-05 4.840365e-05 3.307438e-05 4.497233e-05
<GCONST> -1.462089e+02
<TRANSP> 3
 8.000000e-01 2.000000e-01 0.000000e+00
 0.000000e+00 8.000000e-01 2.000000e-01
 0.000000e+00 0.000000e+00 0.000000e+00
<ENDHMM>
~h "Tab0192"
<BEGINHMM>
<NUMSTATES> 3
<STATE> 2
<MEAN> 39
 -4.548619e+02 -1.140042e-02 5.808319e-04 2.717569e-01 2.589890e-01 2.598633e-01 2.530417e-01 2.904299e-01 2.805820e-01 2.783154e-01 2.934853e-01 3.012489e-01 3.159406e-01 2.777686e-01 2.845387e-01 9.135426e-07 -1.114758e-06 -5.127020e-06 -3.477763e-06 -5.146512e-06 -4.045977e-06 -2.704007e-06 -2.625926e-06 2.284148e-07 -2.455553e-06 -3.303057e-06 -3.432895e-06 1.716960e-06 1.590000e-06 1.165124e-06 1.896423e-06 1.543451e-06 1.756088e-06 2.096551e-06 2.216106e-06 1.673395e-06 9.923498e-07 1.687240e-06 1.989734e-06
<VARIANCE> 39
 3.872017e+04 1.648368e+02 9.713050e+00 9.574932e-02 7.507265e-02 1.011769e-01 6.844017e-02 1.068953e-01 8.484249e-02 8.535165e-02 1.088234e-01 8.611441e-02 1.215130e-01 7.854612e-02 1.012177e-01 7.738464e-04 5.756516e-04 8.173934e-04 6.020874e-04 9.842092e-04 7.769793e-04 7.680384e-04 9.380564e-04 7.292997e-04 9.102586e-04 6.066088e-04 8.300907e-04 4.039318e-05 3.075810e-05 4.262554e-05 3.326209e-05 5.388901e-05 4.357443e-05 4.302722e-05 5.102124e-05 4.137804e-05 4.840365e-05 3.307438e-05 4.497233e-05
<GCONST> -1.462089e+02
<TRANSP> 3
 8.000000e-01 2.000000e-01 0.000000e+00
 0.000000e+00 8.000000e-01 2.000000e-01
 0.000000e+00 0.000000e+00 0.000000e+00
<ENDHMM>
~h "Tab0194"
<BEGINHMM>
<NUMSTATES> 3
<STATE> 2
<MEAN> 39
 -4.548619e+02 -1.140042e-02 5.808319e-04 2.717569e-01 2.589890e-01 2.598633e-01 2.530417e-01 2.904299e-01 2.805820e-01 2.783154e-01 2.934853e-01 3.012489e-01 3.159406e-01 2.777686e-01 2.845387e-01 9.135426e-07 -1.114758e-06 -5.127020e-06 -3.477763e-06 -5.146512e-06 -4.045977e-06 -2.704007e-06 -2.625926e-06 2.284148e-07 -2.455553e-06 -3.303057e-06 -3.432895e-06 1.716960e-06 1.590000e-06 1.165124e-06 1.896423e-06 1.543451e-06 1.756088e-06 2.096551e-06 2.216106e-06 1.673395e-06 9.923498e-07 1.687240e-06 1.989734e-06
<VARIANCE> 39
 3.872017e+04 1.648368e+02 9.713050e+00 9.574932e-02 7.507265e-02 1.011769e-01 6.844017e-02 1.068953e-01 8.484249e-02 8.535165e-02 1.088234e-01 8.611441e-02 1.215130e-01 7.854612e-02 1.012177e-01 7.738464e-04 5.756516e-04 8.173934e-04 6.020874e-04 9.842092e-04 7.769793e-04 7.680384e-04 9.380564e-04 7.292997e-04 9.102586e-04 6.066088e-04 8.300907e-04 4.039318e-05 3.075810e-05 4.262554e-05 3.326209e-05 5.388901e-05 4.357443e-05 4.302722e-05 5.102124e-05 4.137804e-05 4.840365e-05 3.307438e-05 4.497233e-05
<GCONST> -1.462089e+02
<TRANSP> 3
 8.000000e-01 2.000000e-01 0.000000e+00
 0.000000e+00 8.000000e-01 2.000000e-01
 0.000000e+00 0.000000e+00 0.000000e+00
<ENDHMM>
~h "Tab0207"
<BEGINHMM>
<NUMSTATES> 3
<STATE> 2
<MEAN> 39
 -4.548619e+02 -1.140042e-02 5.808319e-04 2.717569e-01 2.589890e-01 2.598633e-01 2.530417e-01 2.904299e-01 2.805820e-01 2.783154e-01 2.934853e-01 3.012489e-01 3.159406e-01 2.777686e-01 2.845387e-01 9.135426e-07 -1.114758e-06 -5.127020e-06 -3.477763e-06 -5.146512e-06 -4.045977e-06 -2.704007e-06 -2.625926e-06 2.284148e-07 -2.455553e-06 -3.303057e-06 -3.432895e-06 1.716960e-06 1.590000e-06 1.165124e-06 1.896423e-06 1.543451e-06 1.756088e-06 2.096551e-06 2.216106e-06 1.673395e-06 9.923498e-07 1.687240e-06 1.989734e-06
<VARIANCE> 39
 3.872017e+04 1.648368e+02 9.713050e+00 9.574932e-02 7.507265e-02 1.011769e-01 6.844017e-02 1.068953e-01 8.484249e-02 8.535165e-02 1.088234e-01 8.611441e-02 1.215130e-01 7.854612e-02 1.012177e-01 7.738464e-04 5.756516e-04 8.173934e-04 6.020874e-04 9.842092e-04 7.769793e-04 7.680384e-04 9.380564e-04 7.292997e-04 9.102586e-04 6.066088e-04 8.300907e-04 4.039318e-05 3.075810e-05 4.262554e-05 3.326209e-05 5.388901e-05 4.357443e-05 4.302722e-05 5.102124e-05 4.137804e-05 4.840365e-05 3.307438e-05 4.497233e-05
<GCONST> -1.462089e+02
<TRANSP> 3
 8.000000e-01 2.000000e-01 0.000000e+00
 0.000000e+00 8.000000e-01 2.000000e-01
 0.000000e+00 0.000000e+00 0.000000e+00
<ENDHMM>
~h "Tab0209"
<BEGINHMM>
<NUMSTATES> 3
<STATE> 2
<MEAN> 39
 -4.548619e+02 -1.140042e-02 5.808319e-04 2.717569e-01 2.589890e-01 2.598633e-01 2.530417e-01 2.904299e-01 2.805820e-01 2.783154e-01 2.934853e-01 3.012489e-01 3.159406e-01 2.777686e-01 2.845387e-01 9.135426e-07 -1.114758e-06 -5.127020e-06 -3.477763e-06 -5.146512e-06 -4.045977e-06 -2.704007e-06 -2.625926e-06 2.284148e-07 -2.455553e-06 -3.303057e-06 -3.432895e-06 1.716960e-06 1.590000e-06 1.165124e-06 1.896423e-06 1.543451e-06 1.756088e-06 2.096551e-06 2.216106e-06 1.673395e-06 9.923498e-07 1.687240e-06 1.989734e-06
<VARIANCE> 39
 3.872017e+04 1.648368e+02 9.713050e+00 9.574932e-02 7.507265e-02 1.011769e-01 6.844017e-02 1.068953e-01 8.484249e-02 8.535165e-02 1.088234e-01 8.611441e-02 1.215130e-01 7.854612e-02 1.012177e-01 7.738464e-04 5.756516e-04 8.173934e-04 6.020874e-04 9.842092e-04 7.769793e-04 7.680384e-04 9.380564e-04 7.292997e-04 9.102586e-04 6.066088e-04 8.300907e-04 4.039318e-05 3.075810e-05 4.262554e-05 3.326209e-05 5.388901e-05 4.357443e-05 4.302722e-05 5.102124e-05 4.137804e-05 4.840365e-05 3.307438e-05 4.497233e-05
<GCONST> -1.462089e+02
<TRANSP> 3
 8.000000e-01 2.000000e-01 0.000000e+00
 0.000000e+00 8.000000e-01 2.000000e-01
 0.000000e+00 0.000000e+00 0.000000e+00
<ENDHMM>
~h "Tab0210"
<BEGINHMM>
<NUMSTATES> 3
<STATE> 2
<MEAN> 39
 -4.548619e+02 -1.140042e-02 5.808319e-04 2.717569e-01 2.589890e-01 2.598633e-01 2.530417e-01 2.904299e-01 2.805820e-01 2.783154e-01 2.934853e-01 3.012489e-01 3.159406e-01 2.777686e-01 2.845387e-01 9.135426e-07 -1.114758e-06 -5.127020e-06 -3.477763e-06 -5.146512e-06 -4.045977e-06 -2.704007e-06 -2.625926e-06 2.284148e-07 -2.455553e-06 -3.303057e-06 -3.432895e-06 1.716960e-06 1.590000e-06 1.165124e-06 1.896423e-06 1.543451e-06 1.756088e-06 2.096551e-06 2.216106e-06 1.673395e-06 9.923498e-07 1.687240e-06 1.989734e-06
<VARIANCE> 39
 3.872017e+04 1.648368e+02 9.713050e+00 9.574932e-02 7.507265e-02 1.011769e-01 6.844017e-02 1.068953e-01 8.484249e-02 8.535165e-02 1.088234e-01 8.611441e-02 1.215130e-01 7.854612e-02 1.012177e-01 7.738464e-04 5.756516e-04 8.173934e-04 6.020874e-04 9.842092e-04 7.769793e-04 7.680384e-04 9.380564e-04 7.292997e-04 9.102586e-04 6.066088e-04 8.300907e-04 4.039318e-05 3.075810e-05 4.262554e-05 3.326209e-05 5.388901e-05 4.357443e-05 4.302722e-05 5.102124e-05 4.137804e-05 4.840365e-05 3.307438e-05 4.497233e-05
<GCONST> -1.462089e+02
<TRANSP> 3
 8.000000e-01 2.000000e-01 0.000000e+00
 0.000000e+00 8.000000e-01 2.000000e-01
 0.000000e+00 0.000000e+00 0.000000e+00
<ENDHMM>
~h "Tab0217"
<BEGINHMM>
<NUMSTATES> 3
<STATE> 2
<MEAN> 39
 -4.548619e+02 -1.140042e-02 5.808319e-04 2.717569e-01 2.589890e-01 2.598633e-01 2.530417e-01 2.904299e-01 2.805820e-01 2.783154e-01 2.934853e-01 3.012489e-01 3.159406e-01 2.777686e-01 2.845387e-01 9.135426e-07 -1.114758e-06 -5.127020e-06 -3.477763e-06 -5.146512e-06 -4.045977e-06 -2.704007e-06 -2.625926e-06 2.284148e-07 -2.455553e-06 -3.303057e-06 -3.432895e-06 1.716960e-06 1.590000e-06 1.165124e-06 1.896423e-06 1.543451e-06 1.756088e-06 2.096551e-06 2.216106e-06 1.673395e-06 9.923498e-07 1.687240e-06 1.989734e-06
<VARIANCE> 39
 3.872017e+04 1.648368e+02 9.713050e+00 9.574932e-02 7.507265e-02 1.011769e-01 6.844017e-02 1.068953e-01 8.484249e-02 8.535165e-02 1.088234e-01 8.611441e-02 1.215130e-01 7.854612e-02 1.012177e-01 7.738464e-04 5.756516e-04 8.173934e-04 6.020874e-04 9.842092e-04 7.769793e-04 7.680384e-04 9.380564e-04 7.292997e-04 9.102586e-04 6.066088e-04 8.300907e-04 4.039318e-05 3.075810e-05 4.262554e-05 3.326209e-05 5.388901e-05 4.357443e-05 4.302722e-05 5.102124e-05 4.137804e-05 4.840365e-05 3.307438e-05 4.497233e-05
<GCONST> -1.462089e+02
<TRANSP> 3
 8.000000e-01 2.000000e-01 0.000000e+00
 0.000000e+00 8.000000e-01 2.000000e-01
 0.000000e+00 0.000000e+00 0.000000e+00
<ENDHMM>
~h "Tab0261"
<BEGINHMM>
<NUMSTATES> 3
<STATE> 2
<MEAN> 39
 -4.548619e+02 -1.140042e-02 5.808319e-04 2.717569e-01 2.589890e-01 2.598633e-01 2.530417e-01 2.904299e-01 2.805820e-01 2.783154e-01 2.934853e-01 3.012489e-01 3.159406e-01 2.777686e-01 2.845387e-01 9.135426e-07 -1.114758e-06 -5.127020e-06 -3.477763e-06 -5.146512e-06 -4.045977e-06 -2.704007e-06 -2.625926e-06 2.284148e-07 -2.455553e-06 -3.303057e-06 -3.432895e-06 1.716960e-06 1.590000e-06 1.165124e-06 1.896423e-06 1.543451e-06 1.756088e-06 2.096551e-06 2.216106e-06 1.673395e-06 9.923498e-07 1.687240e-06 1.989734e-06
<VARIANCE> 39
 3.872017e+04 1.648368e+02 9.713050e+00 9.574932e-02 7.507265e-02 1.011769e-01 6.844017e-02 1.068953e-01 8.484249e-02 8.535165e-02 1.088234e-01 8.611441e-02 1.215130e-01 7.854612e-02 1.012177e-01 7.738464e-04 5.756516e-04 8.173934e-04 6.020874e-04 9.842092e-04 7.769793e-04 7.680384e-04 9.380564e-04 7.292997e-04 9.102586e-04 6.066088e-04 8.300907e-04 4.039318e-05 3.075810e-05 4.262554e-05 3.326209e-05 5.388901e-05 4.357443e-05 4.302722e-05 5.102124e-05 4.137804e-05 4.840365e-05 3.307438e-05 4.497233e-05
<GCONST> -1.462089e+02
<TRANSP> 3
 8.000000e-01 2.000000e-01 0.000000e+00
 0.000000e+00 8.000000e-01 2.000000e-01
 0.000000e+00 0.000000e+00 0.000000e+00
<ENDHMM>
~h "Tab0395"
<BEGINHMM>
<NUMSTATES> 3
<STATE> 2
<MEAN> 39
 -4.548619e+02 -1.140042e-02 5.808319e-04 2.717569e-01 2.589890e-01 2.598633e-01 2.530417e-01 2.904299e-01 2.805820e-01 2.783154e-01 2.934853e-01 3.012489e-01 3.159406e-01 2.777686e-01 2.845387e-01 9.135426e-07 -1.114758e-06 -5.127020e-06 -3.477763e-06 -5.146512e-06 -4.045977e-06 -2.704007e-06 -2.625926e-06 2.284148e-07 -2.455553e-06 -3.303057e-06 -3.432895e-06 1.716960e-06 1.590000e-06 1.165124e-06 1.896423e-06 1.543451e-06 1.756088e-06 2.096551e-06 2.216106e-06 1.673395e-06 9.923498e-07 1.687240e-06 1.989734e-06
<VARIANCE> 39
 3.872017e+04 1.648368e+02 9.713050e+00 9.574932e-02 7.507265e-02 1.011769e-01 6.844017e-02 1.068953e-01 8.484249e-02 8.535165e-02 1.088234e-01 8.611441e-02 1.215130e-01 7.854612e-02 1.012177e-01 7.738464e-04 5.756516e-04 8.173934e-04 6.020874e-04 9.842092e-04 7.769793e-04 7.680384e-04 9.380564e-04 7.292997e-04 9.102586e-04 6.066088e-04 8.300907e-04 4.039318e-05 3.075810e-05 4.262554e-05 3.326209e-05 5.388901e-05 4.357443e-05 4.302722e-05 5.102124e-05 4.137804e-05 4.840365e-05 3.307438e-05 4.497233e-05
<GCONST> -1.462089e+02
<TRANSP> 3
 8.000000e-01 2.000000e-01 0.000000e+00
 0.000000e+00 8.000000e-01 2.000000e-01
 0.000000e+00 0.000000e+00 0.000000e+00
<ENDHMM>
~h "Tab0471"
<BEGINHMM>
<NUMSTATES> 3
<STATE> 2
<MEAN> 39
 -4.548619e+02 -1.140042e-02 5.808319e-04 2.717569e-01 2.589890e-01 2.598633e-01 2.530417e-01 2.904299e-01 2.805820e-01 2.783154e-01 2.934853e-01 3.012489e-01 3.159406e-01 2.777686e-01 2.845387e-01 9.135426e-07 -1.114758e-06 -5.127020e-06 -3.477763e-06 -5.146512e-06 -4.045977e-06 -2.704007e-06 -2.625926e-06 2.284148e-07 -2.455553e-06 -3.303057e-06 -3.432895e-06 1.716960e-06 1.590000e-06 1.165124e-06 1.896423e-06 1.543451e-06 1.756088e-06 2.096551e-06 2.216106e-06 1.673395e-06 9.923498e-07 1.687240e-06 1.989734e-06
<VARIANCE> 39
 3.872017e+04 1.648368e+02 9.713050e+00 9.574932e-02 7.507265e-02 1.011769e-01 6.844017e-02 1.068953e-01 8.484249e-02 8.535165e-02 1.088234e-01 8.611441e-02 1.215130e-01 7.854612e-02 1.012177e-01 7.738464e-04 5.756516e-04 8.173934e-04 6.020874e-04 9.842092e-04 7.769793e-04 7.680384e-04 9.380564e-04 7.292997e-04 9.102586e-04 6.066088e-04 8.300907e-04 4.039318e-05 3.075810e-05 4.262554e-05 3.326209e-05 5.388901e-05 4.357443e-05 4.302722e-05 5.102124e-05 4.137804e-05 4.840365e-05 3.307438e-05 4.497233e-05
<GCONST> -1.462089e+02
<TRANSP> 3
 8.000000e-01 2.000000e-01 0.000000e+00
 0.000000e+00 8.000000e-01 2.000000e-01
 0.000000e+00 0.000000e+00 0.000000e+00
<ENDHMM>
~h "Tab0514"
<BEGINHMM>
<NUMSTATES> 3
<STATE> 2
<MEAN> 39
 -4.548619e+02 -1.140042e-02 5.808319e-04 2.717569e-01 2.589890e-01 2.598633e-01 2.530417e-01 2.904299e-01 2.805820e-01 2.783154e-01 2.934853e-01 3.012489e-01 3.159406e-01 2.777686e-01 2.845387e-01 9.135426e-07 -1.114758e-06 -5.127020e-06 -3.477763e-06 -5.146512e-06 -4.045977e-06 -2.704007e-06 -2.625926e-06 2.284148e-07 -2.455553e-06 -3.303057e-06 -3.432895e-06 1.716960e-06 1.590000e-06 1.165124e-06 1.896423e-06 1.543451e-06 1.756088e-06 2.096551e-06 2.216106e-06 1.673395e-06 9.923498e-07 1.687240e-06 1.989734e-06
<VARIANCE> 39
 3.872017e+04 1.648368e+02 9.713050e+00 9.574932e-02 7.507265e-02 1.011769e-01 6.844017e-02 1.068953e-01 8.484249e-02 8.535165e-02 1.088234e-01 8.611441e-02 1.215130e-01 7.854612e-02 1.012177e-01 7.738464e-04 5.756516e-04 8.173934e-04 6.020874e-04 9.842092e-04 7.769793e-04 7.680384e-04 9.380564e-04 7.292997e-04 9.102586e-04 6.066088e-04 8.300907e-04 4.039318e-05 3.075810e-05 4.262554e-05 3.326209e-05 5.388901e-05 4.357443e-05 4.302722e-05 5.102124e-05 4.137804e-05 4.840365e-05 3.307438e-05 4.497233e-05
<GCONST> -1.462089e+02
<TRANSP> 3
 8.000000e-01 2.000000e-01 0.000000e+00
 0.000000e+00 8.000000e-01 2.000000e-01
 0.000000e+00 0.000000e+00 0.000000e+00
<ENDHMM>
~h "Tab0515"
<BEGINHMM>
<NUMSTATES> 3
<STATE> 2
<MEAN> 39
 -4.548619e+02 -1.140042e-02 5.808319e-04 2.717569e-01 2.589890e-01 2.598633e-01 2.530417e-01 2.904299e-01 2.805820e-01 2.783154e-01 2.934853e-01 3.012489e-01 3.159406e-01 2.777686e-01 2.845387e-01 9.135426e-07 -1.114758e-06 -5.127020e-06 -3.477763e-06 -5.146512e-06 -4.045977e-06 -2.704007e-06 -2.625926e-06 2.284148e-07 -2.455553e-06 -3.303057e-06 -3.432895e-06 1.716960e-06 1.590000e-06 1.165124e-06 1.896423e-06 1.543451e-06 1.756088e-06 2.096551e-06 2.216106e-06 1.673395e-06 9.923498e-07 1.687240e-06 1.989734e-06
<VARIANCE> 39
 3.872017e+04 1.648368e+02 9.713050e+00 9.574932e-02 7.507265e-02 1.011769e-01 6.844017e-02 1.068953e-01 8.484249e-02 8.535165e-02 1.088234e-01 8.611441e-02 1.215130e-01 7.854612e-02 1.012177e-01 7.738464e-04 5.756516e-04 8.173934e-04 6.020874e-04 9.842092e-04 7.769793e-04 7.680384e-04 9.380564e-04 7.292997e-04 9.102586e-04 6.066088e-04 8.300907e-04 4.039318e-05 3.075810e-05 4.262554e-05 3.326209e-05 5.388901e-05 4.357443e-05 4.302722e-05 5.102124e-05 4.137804e-05 4.840365e-05 3.307438e-05 4.497233e-05
<GCONST> -1.462089e+02
<TRANSP> 3
 8.000000e-01 2.000000e-01 0.000000e+00
 0.000000e+00 8.000000e-01 2.000000e-01
 0.000000e+00 0.000000e+00 0.000000e+00
<ENDHMM>
~h "Tab0526"
<BEGINHMM>
<NUMSTATES> 3
<STATE> 2
<MEAN> 39
 -4.548619e+02 -1.140042e-02 5.808319e-04 2.717569e-01 2.589890e-01 2.598633e-01 2.530417e-01 2.904299e-01 2.805820e-01 2.783154e-01 2.934853e-01 3.012489e-01 3.159406e-01 2.777686e-01 2.845387e-01 9.135426e-07 -1.114758e-06 -5.127020e-06 -3.477763e-06 -5.146512e-06 -4.045977e-06 -2.704007e-06 -2.625926e-06 2.284148e-07 -2.455553e-06 -3.303057e-06 -3.432895e-06 1.716960e-06 1.590000e-06 1.165124e-06 1.896423e-06 1.543451e-06 1.756088e-06 2.096551e-06 2.216106e-06 1.673395e-06 9.923498e-07 1.687240e-06 1.989734e-06
<VARIANCE> 39
 3.872017e+04 1.648368e+02 9.713050e+00 9.574932e-02 7.507265e-02 1.011769e-01 6.844017e-02 1.068953e-01 8.484249e-02 8.535165e-02 1.088234e-01 8.611441e-02 1.215130e-01 7.854612e-02 1.012177e-01 7.738464e-04 5.756516e-04 8.173934e-04 6.020874e-04 9.842092e-04 7.769793e-04 7.680384e-04 9.380564e-04 7.292997e-04 9.102586e-04 6.066088e-04 8.300907e-04 4.039318e-05 3.075810e-05 4.262554e-05 3.326209e-05 5.388901e-05 4.357443e-05 4.302722e-05 5.102124e-05 4.137804e-05 4.840365e-05 3.307438e-05 4.497233e-05
<GCONST> -1.462089e+02
<TRANSP> 3
 8.000000e-01 2.000000e-01 0.000000e+00
 0.000000e+00 8.000000e-01 2.000000e-01
 0.000000e+00 0.000000e+00 0.000000e+00
<ENDHMM>
~h "Tab0548"
<BEGINHMM>
<NUMSTATES> 3
<STATE> 2
<MEAN> 39
 -4.548619e+02 -1.140042e-02 5.808319e-04 2.717569e-01 2.589890e-01 2.598633e-01 2.530417e-01 2.904299e-01 2.805820e-01 2.783154e-01 2.934853e-01 3.012489e-01 3.159406e-01 2.777686e-01 2.845387e-01 9.135426e-07 -1.114758e-06 -5.127020e-06 -3.477763e-06 -5.146512e-06 -4.045977e-06 -2.704007e-06 -2.625926e-06 2.284148e-07 -2.455553e-06 -3.303057e-06 -3.432895e-06 1.716960e-06 1.590000e-06 1.165124e-06 1.896423e-06 1.543451e-06 1.756088e-06 2.096551e-06 2.216106e-06 1.673395e-06 9.923498e-07 1.687240e-06 1.989734e-06
<VARIANCE> 39
 3.872017e+04 1.648368e+02 9.713050e+00 9.574932e-02 7.507265e-02 1.011769e-01 6.844017e-02 1.068953e-01 8.484249e-02 8.535165e-02 1.088234e-01 8.611441e-02 1.215130e-01 7.854612e-02 1.012177e-01 7.738464e-04 5.756516e-04 8.173934e-04 6.020874e-04 9.842092e-04 7.769793e-04 7.680384e-04 9.380564e-04 7.292997e-04 9.102586e-04 6.066088e-04 8.300907e-04 4.039318e-05 3.075810e-05 4.262554e-05 3.326209e-05 5.388901e-05 4.357443e-05 4.302722e-05 5.102124e-05 4.137804e-05 4.840365e-05 3.307438e-05 4.497233e-05
<GCONST> -1.462089e+02
<TRANSP> 3
 8.000000e-01 2.000000e-01 0.000000e+00
 0.000000e+00 8.000000e-01 2.000000e-01
 0.000000e+00 0.000000e+00 0.000000e+00
<ENDHMM>
~h "Tab0562"
<BEGINHMM>
<NUMSTATES> 3
<STATE> 2
<MEAN> 39
 -4.548619e+02 -1.140042e-02 5.808319e-04 2.717569e-01 2.589890e-01 2.598633e-01 2.530417e-01 2.904299e-01 2.805820e-01 2.783154e-01 2.934853e-01 3.012489e-01 3.159406e-01 2.777686e-01 2.845387e-01 9.135426e-07 -1.114758e-06 -5.127020e-06 -3.477763e-06 -5.146512e-06 -4.045977e-06 -2.704007e-06 -2.625926e-06 2.284148e-07 -2.455553e-06 -3.303057e-06 -3.432895e-06 1.716960e-06 1.590000e-06 1.165124e-06 1.896423e-06 1.543451e-06 1.756088e-06 2.096551e-06 2.216106e-06 1.673395e-06 9.923498e-07 1.687240e-06 1.989734e-06
<VARIANCE> 39
 3.872017e+04 1.648368e+02 9.713050e+00 9.574932e-02 7.507265e-02 1.011769e-01 6.844017e-02 1.068953e-01 8.484249e-02 8.535165e-02 1.088234e-01 8.611441e-02 1.215130e-01 7.854612e-02 1.012177e-01 7.738464e-04 5.756516e-04 8.173934e-04 6.020874e-04 9.842092e-04 7.769793e-04 7.680384e-04 9.380564e-04 7.292997e-04 9.102586e-04 6.066088e-04 8.300907e-04 4.039318e-05 3.075810e-05 4.262554e-05 3.326209e-05 5.388901e-05 4.357443e-05 4.302722e-05 5.102124e-05 4.137804e-05 4.840365e-05 3.307438e-05 4.497233e-05
<GCONST> -1.462089e+02
<TRANSP> 3
 8.000000e-01 2.000000e-01 0.000000e+00
 0.000000e+00 8.000000e-01 2.000000e-01
 0.000000e+00 0.000000e+00 0.000000e+00
<ENDHMM>
~h "Tab0624"
<BEGINHMM>
<NUMSTATES> 3
<STATE> 2
<MEAN> 39
 -4.548619e+02 -1.140042e-02 5.808319e-04 2.717569e-01 2.589890e-01 2.598633e-01 2.530417e-01 2.904299e-01 2.805820e-01 2.783154e-01 2.934853e-01 3.012489e-01 3.159406e-01 2.777686e-01 2.845387e-01 9.135426e-07 -1.114758e-06 -5.127020e-06 -3.477763e-06 -5.146512e-06 -4.045977e-06 -2.704007e-06 -2.625926e-06 2.284148e-07 -2.455553e-06 -3.303057e-06 -3.432895e-06 1.716960e-06 1.590000e-06 1.165124e-06 1.896423e-06 1.543451e-06 1.756088e-06 2.096551e-06 2.216106e-06 1.673395e-06 9.923498e-07 1.687240e-06 1.989734e-06
<VARIANCE> 39
 3.872017e+04 1.648368e+02 9.713050e+00 9.574932e-02 7.507265e-02 1.011769e-01 6.844017e-02 1.068953e-01 8.484249e-02 8.535165e-02 1.088234e-01 8.611441e-02 1.215130e-01 7.854612e-02 1.012177e-01 7.738464e-04 5.756516e-04 8.173934e-04 6.020874e-04 9.842092e-04 7.769793e-04 7.680384e-04 9.380564e-04 7.292997e-04 9.102586e-04 6.066088e-04 8.300907e-04 4.039318e-05 3.075810e-05 4.262554e-05 3.326209e-05 5.388901e-05 4.357443e-05 4.302722e-05 5.102124e-05 4.137804e-05 4.840365e-05 3.307438e-05 4.497233e-05
<GCONST> -1.462089e+02
<TRANSP> 3
 8.000000e-01 2.000000e-01 0.000000e+00
 0.000000e+00 8.000000e-01 2.000000e-01
 0.000000e+00 0.000000e+00 0.000000e+00
<ENDHMM>
~h "Tab0625"
<BEGINHMM>
<NUMSTATES> 3
<STATE> 2
<MEAN> 39
 -4.548619e+02 -1.140042e-02 5.808319e-04 2.717569e-01 2.589890e-01 2.598633e-01 2.530417e-01 2.904299e-01 2.805820e-01 2.783154e-01 2.934853e-01 3.012489e-01 3.159406e-01 2.777686e-01 2.845387e-01 9.135426e-07 -1.114758e-06 -5.127020e-06 -3.477763e-06 -5.146512e-06 -4.045977e-06 -2.704007e-06 -2.625926e-06 2.284148e-07 -2.455553e-06 -3.303057e-06 -3.432895e-06 1.716960e-06 1.590000e-06 1.165124e-06 1.896423e-06 1.543451e-06 1.756088e-06 2.096551e-06 2.216106e-06 1.673395e-06 9.923498e-07 1.687240e-06 1.989734e-06
<VARIANCE> 39
 3.872017e+04 1.648368e+02 9.713050e+00 9.574932e-02 7.507265e-02 1.011769e-01 6.844017e-02 1.068953e-01 8.484249e-02 8.535165e-02 1.088234e-01 8.611441e-02 1.215130e-01 7.854612e-02 1.012177e-01 7.738464e-04 5.756516e-04 8.173934e-04 6.020874e-04 9.842092e-04 7.769793e-04 7.680384e-04 9.380564e-04 7.292997e-04 9.102586e-04 6.066088e-04 8.300907e-04 4.039318e-05 3.075810e-05 4.262554e-05 3.326209e-05 5.388901e-05 4.357443e-05 4.302722e-05 5.102124e-05 4.137804e-05 4.840365e-05 3.307438e-05 4.497233e-05
<GCONST> -1.462089e+02
<TRANSP> 3
 8.000000e-01 2.000000e-01 0.000000e+00
 0.000000e+00 8.000000e-01 2.000000e-01
 0.000000e+00 0.000000e+00 0.000000e+00
<ENDHMM>
~h "Tab0657"
<BEGINHMM>
<NUMSTATES> 3
<STATE> 2
<MEAN> 39
 -4.548619e+02 -1.140042e-02 5.808319e-04 2.717569e-01 2.589890e-01 2.598633e-01 2.530417e-01 2.904299e-01 2.805820e-01 2.783154e-01 2.934853e-01 3.012489e-01 3.159406e-01 2.777686e-01 2.845387e-01 9.135426e-07 -1.114758e-06 -5.127020e-06 -3.477763e-06 -5.146512e-06 -4.045977e-06 -2.704007e-06 -2.625926e-06 2.284148e-07 -2.455553e-06 -3.303057e-06 -3.432895e-06 1.716960e-06 1.590000e-06 1.165124e-06 1.896423e-06 1.543451e-06 1.756088e-06 2.096551e-06 2.216106e-06 1.673395e-06 9.923498e-07 1.687240e-06 1.989734e-06
<VARIANCE> 39
 3.872017e+04 1.648368e+02 9.713050e+00 9.574932e-02 7.507265e-02 1.011769e-01 6.844017e-02 1.068953e-01 8.484249e-02 8.535165e-02 1.088234e-01 8.611441e-02 1.215130e-01 7.854612e-02 1.012177e-01 7.738464e-04 5.756516e-04 8.173934e-04 6.020874e-04 9.842092e-04 7.769793e-04 7.680384e-04 9.380564e-04 7.292997e-04 9.102586e-04 6.066088e-04 8.300907e-04 4.039318e-05 3.075810e-05 4.262554e-05 3.326209e-05 5.388901e-05 4.357443e-05 4.302722e-05 5.102124e-05 4.137804e-05 4.840365e-05 3.307438e-05 4.497233e-05
<GCONST> -1.462089e+02
<TRANSP> 3
 8.000000e-01 2.000000e-01 0.000000e+00
 0.000000e+00 8.000000e-01 2.000000e-01
 0.000000e+00 0.000000e+00 0.000000e+00
<ENDHMM>
~h "Tab0658"
<BEGINHMM>
<NUMSTATES> 3
<STATE> 2
<MEAN> 39
 -4.548619e+02 -1.140042e-02 5.808319e-04 2.717569e-01 2.589890e-01 2.598633e-01 2.530417e-01 2.904299e-01 2.805820e-01 2.783154e-01 2.934853e-01 3.012489e-01 3.159406e-01 2.777686e-01 2.845387e-01 9.135426e-07 -1.114758e-06 -5.127020e-06 -3.477763e-06 -5.146512e-06 -4.045977e-06 -2.704007e-06 -2.625926e-06 2.284148e-07 -2.455553e-06 -3.303057e-06 -3.432895e-06 1.716960e-06 1.590000e-06 1.165124e-06 1.896423e-06 1.543451e-06 1.756088e-06 2.096551e-06 2.216106e-06 1.673395e-06 9.923498e-07 1.687240e-06 1.989734e-06
<VARIANCE> 39
 3.872017e+04 1.648368e+02 9.713050e+00 9.574932e-02 7.507265e-02 1.011769e-01 6.844017e-02 1.068953e-01 8.484249e-02 8.535165e-02 1.088234e-01 8.611441e-02 1.215130e-01 7.854612e-02 1.012177e-01 7.738464e-04 5.756516e-04 8.173934e-04 6.020874e-04 9.842092e-04 7.769793e-04 7.680384e-04 9.380564e-04 7.292997e-04 9.102586e-04 6.066088e-04 8.300907e-04 4.039318e-05 3.075810e-05 4.262554e-05 3.326209e-05 5.388901e-05 4.357443e-05 4.302722e-05 5.102124e-05 4.137804e-05 4.840365e-05 3.307438e-05 4.497233e-05
<GCONST> -1.462089e+02
<TRANSP> 3
 8.000000e-01 2.000000e-01 0.000000e+00
 0.000000e+00 8.000000e-01 2.000000e-01
 0.000000e+00 0.000000e+00 0.000000e+00
<ENDHMM>
~h "Tab0659"
<BEGINHMM>
<NUMSTATES> 3
<STATE> 2
<MEAN> 39
 -4.548619e+02 -1.140042e-02 5.808319e-04 2.717569e-01 2.589890e-01 2.598633e-01 2.530417e-01 2.904299e-01 2.805820e-01 2.783154e-01 2.934853e-01 3.012489e-01 3.159406e-01 2.777686e-01 2.845387e-01 9.135426e-07 -1.114758e-06 -5.127020e-06 -3.477763e-06 -5.146512e-06 -4.045977e-06 -2.704007e-06 -2.625926e-06 2.284148e-07 -2.455553e-06 -3.303057e-06 -3.432895e-06 1.716960e-06 1.590000e-06 1.165124e-06 1.896423e-06 1.543451e-06 1.756088e-06 2.096551e-06 2.216106e-06 1.673395e-06 9.923498e-07 1.687240e-06 1.989734e-06
<VARIANCE> 39
 3.872017e+04 1.648368e+02 9.713050e+00 9.574932e-02 7.507265e-02 1.011769e-01 6.844017e-02 1.068953e-01 8.484249e-02 8.535165e-02 1.088234e-01 8.611441e-02 1.215130e-01 7.854612e-02 1.012177e-01 7.738464e-04 5.756516e-04 8.173934e-04 6.020874e-04 9.842092e-04 7.769793e-04 7.680384e-04 9.380564e-04 7.292997e-04 9.102586e-04 6.066088e-04 8.300907e-04 4.039318e-05 3.075810e-05 4.262554e-05 3.326209e-05 5.388901e-05 4.357443e-05 4.302722e-05 5.102124e-05 4.137804e-05 4.840365e-05 3.307438e-05 4.497233e-05
<GCONST> -1.462089e+02
<TRANSP> 3
 8.000000e-01 2.000000e-01 0.000000e+00
 0.000000e+00 8.000000e-01 2.000000e-01
 0.000000e+00 0.000000e+00 0.000000e+00
<ENDHMM>
~h "Tab0662"
<BEGINHMM>
<NUMSTATES> 3
<STATE> 2
<MEAN> 39
 -4.548619e+02 -1.140042e-02 5.808319e-04 2.717569e-01 2.589890e-01 2.598633e-01 2.530417e-01 2.904299e-01 2.805820e-01 2.783154e-01 2.934853e-01 3.012489e-01 3.159406e-01 2.777686e-01 2.845387e-01 9.135426e-07 -1.114758e-06 -5.127020e-06 -3.477763e-06 -5.146512e-06 -4.045977e-06 -2.704007e-06 -2.625926e-06 2.284148e-07 -2.455553e-06 -3.303057e-06 -3.432895e-06 1.716960e-06 1.590000e-06 1.165124e-06 1.896423e-06 1.543451e-06 1.756088e-06 2.096551e-06 2.216106e-06 1.673395e-06 9.923498e-07 1.687240e-06 1.989734e-06
<VARIANCE> 39
 3.872017e+04 1.648368e+02 9.713050e+00 9.574932e-02 7.507265e-02 1.011769e-01 6.844017e-02 1.068953e-01 8.484249e-02 8.535165e-02 1.088234e-01 8.611441e-02 1.215130e-01 7.854612e-02 1.012177e-01 7.738464e-04 5.756516e-04 8.173934e-04 6.020874e-04 9.842092e-04 7.769793e-04 7.680384e-04 9.380564e-04 7.292997e-04 9.102586e-04 6.066088e-04 8.300907e-04 4.039318e-05 3.075810e-05 4.262554e-05 3.326209e-05 5.388901e-05 4.357443e-05 4.302722e-05 5.102124e-05 4.137804e-05 4.840365e-05 3.307438e-05 4.497233e-05
<GCONST> -1.462089e+02
<TRANSP> 3
 8.000000e-01 2.000000e-01 0.000000e+00
 0.000000e+00 8.000000e-01 2.000000e-01
 0.000000e+00 0.000000e+00 0.000000e+00
<ENDHMM>
~h "Tab0664"
<BEGINHMM>
<NUMSTATES> 3
<STATE> 2
<MEAN> 39
 -4.548619e+02 -1.140042e-02 5.808319e-04 2.717569e-01 2.589890e-01 2.598633e-01 2.530417e-01 2.904299e-01 2.805820e-01 2.783154e-01 2.934853e-01 3.012489e-01 3.159406e-01 2.777686e-01 2.845387e-01 9.135426e-07 -1.114758e-06 -5.127020e-06 -3.477763e-06 -5.146512e-06 -4.045977e-06 -2.704007e-06 -2.625926e-06 2.284148e-07 -2.455553e-06 -3.303057e-06 -3.432895e-06 1.716960e-06 1.590000e-06 1.165124e-06 1.896423e-06 1.543451e-06 1.756088e-06 2.096551e-06 2.216106e-06 1.673395e-06 9.923498e-07 1.687240e-06 1.989734e-06
<VARIANCE> 39
 3.872017e+04 1.648368e+02 9.713050e+00 9.574932e-02 7.507265e-02 1.011769e-01 6.844017e-02 1.068953e-01 8.484249e-02 8.535165e-02 1.088234e-01 8.611441e-02 1.215130e-01 7.854612e-02 1.012177e-01 7.738464e-04 5.756516e-04 8.173934e-04 6.020874e-04 9.842092e-04 7.769793e-04 7.680384e-04 9.380564e-04 7.292997e-04 9.102586e-04 6.066088e-04 8.300907e-04 4.039318e-05 3.075810e-05 4.262554e-05 3.326209e-05 5.388901e-05 4.357443e-05 4.302722e-05 5.102124e-05 4.137804e-05 4.840365e-05 3.307438e-05 4.497233e-05
<GCONST> -1.462089e+02
<TRANSP> 3
 8.000000e-01 2.000000e-01 0.000000e+00
 0.000000e+00 8.000000e-01 2.000000e-01
 0.000000e+00 0.000000e+00 0.000000e+00
<ENDHMM>
~h "Tab0668"
<BEGINHMM>
<NUMSTATES> 3
<STATE> 2
<MEAN> 39
 -4.548619e+02 -1.140042e-02 5.808319e-04 2.717569e-01 2.589890e-01 2.598633e-01 2.530417e-01 2.904299e-01 2.805820e-01 2.783154e-01 2.934853e-01 3.012489e-01 3.159406e-01 2.777686e-01 2.845387e-01 9.135426e-07 -1.114758e-06 -5.127020e-06 -3.477763e-06 -5.146512e-06 -4.045977e-06 -2.704007e-06 -2.625926e-06 2.284148e-07 -2.455553e-06 -3.303057e-06 -3.432895e-06 1.716960e-06 1.590000e-06 1.165124e-06 1.896423e-06 1.543451e-06 1.756088e-06 2.096551e-06 2.216106e-06 1.673395e-06 9.923498e-07 1.687240e-06 1.989734e-06
<VARIANCE> 39
 3.872017e+04 1.648368e+02 9.713050e+00 9.574932e-02 7.507265e-02 1.011769e-01 6.844017e-02 1.068953e-01 8.484249e-02 8.535165e-02 1.088234e-01 8.611441e-02 1.215130e-01 7.854612e-02 1.012177e-01 7.738464e-04 5.756516e-04 8.173934e-04 6.020874e-04 9.842092e-04 7.769793e-04 7.680384e-04 9.380564e-04 7.292997e-04 9.102586e-04 6.066088e-04 8.300907e-04 4.039318e-05 3.075810e-05 4.262554e-05 3.326209e-05 5.388901e-05 4.357443e-05 4.302722e-05 5.102124e-05 4.137804e-05 4.840365e-05 3.307438e-05 4.497233e-05
<GCONST> -1.462089e+02
<TRANSP> 3
 8.000000e-01 2.000000e-01 0.000000e+00
 0.000000e+00 8.000000e-01 2.000000e-01
 0.000000e+00 0.000000e+00 0.000000e+00
<ENDHMM>
~h "Tab0673"
<BEGINHMM>
<NUMSTATES> 3
<STATE> 2
<MEAN> 39
 -4.548619e+02 -1.140042e-02 5.808319e-04 2.717569e-01 2.589890e-01 2.598633e-01 2.530417e-01 2.904299e-01 2.805820e-01 2.783154e-01 2.934853e-01 3.012489e-01 3.159406e-01 2.777686e-01 2.845387e-01 9.135426e-07 -1.114758e-06 -5.127020e-06 -3.477763e-06 -5.146512e-06 -4.045977e-06 -2.704007e-06 -2.625926e-06 2.284148e-07 -2.455553e-06 -3.303057e-06 -3.432895e-06 1.716960e-06 1.590000e-06 1.165124e-06 1.896423e-06 1.543451e-06 1.756088e-06 2.096551e-06 2.216106e-06 1.673395e-06 9.923498e-07 1.687240e-06 1.989734e-06
<VARIANCE> 39
 3.872017e+04 1.648368e+02 9.713050e+00 9.574932e-02 7.507265e-02 1.011769e-01 6.844017e-02 1.068953e-01 8.484249e-02 8.535165e-02 1.088234e-01 8.611441e-02 1.215130e-01 7.854612e-02 1.012177e-01 7.738464e-04 5.756516e-04 8.173934e-04 6.020874e-04 9.842092e-04 7.769793e-04 7.680384e-04 9.380564e-04 7.292997e-04 9.102586e-04 6.066088e-04 8.300907e-04 4.039318e-05 3.075810e-05 4.262554e-05 3.326209e-05 5.388901e-05 4.357443e-05 4.302722e-05 5.102124e-05 4.137804e-05 4.840365e-05 3.307438e-05 4.497233e-05
<GCONST> -1.462089e+02
<TRANSP> 3
 8.000000e-01 2.000000e-01 0.000000e+00
 0.000000e+00 8.000000e-01 2.000000e-01
 0.000000e+00 0.000000e+00 0.000000e+00
<ENDHMM>
~h "Tab0676"
<BEGINHMM>
<NUMSTATES> 3
<STATE> 2
<MEAN> 39
 -4.548619e+02 -1.140042e-02 5.808319e-04 2.717569e-01 2.589890e-01 2.598633e-01 2.530417e-01 2.904299e-01 2.805820e-01 2.783154e-01 2.934853e-01 3.012489e-01 3.159406e-01 2.777686e-01 2.845387e-01 9.135426e-07 -1.114758e-06 -5.127020e-06 -3.477763e-06 -5.146512e-06 -4.045977e-06 -2.704007e-06 -2.625926e-06 2.284148e-07 -2.455553e-06 -3.303057e-06 -3.432895e-06 1.716960e-06 1.590000e-06 1.165124e-06 1.896423e-06 1.543451e-06 1.756088e-06 2.096551e-06 2.216106e-06 1.673395e-06 9.923498e-07 1.687240e-06 1.989734e-06
<VARIANCE> 39
 3.872017e+04 1.648368e+02 9.713050e+00 9.574932e-02 7.507265e-02 1.011769e-01 6.844017e-02 1.068953e-01 8.484249e-02 8.535165e-02 1.088234e-01 8.611441e-02 1.215130e-01 7.854612e-02 1.012177e-01 7.738464e-04 5.756516e-04 8.173934e-04 6.020874e-04 9.842092e-04 7.769793e-04 7.680384e-04 9.380564e-04 7.292997e-04 9.102586e-04 6.066088e-04 8.300907e-04 4.039318e-05 3.075810e-05 4.262554e-05 3.326209e-05 5.388901e-05 4.357443e-05 4.302722e-05 5.102124e-05 4.137804e-05 4.840365e-05 3.307438e-05 4.497233e-05
<GCONST> -1.462089e+02
<TRANSP> 3
 8.000000e-01 2.000000e-01 0.000000e+00
 0.000000e+00 8.000000e-01 2.000000e-01
 0.000000e+00 0.000000e+00 0.000000e+00
<ENDHMM>
~h "Tab0678"
<BEGINHMM>
<NUMSTATES> 3
<STATE> 2
<MEAN> 39
 -4.548619e+02 -1.140042e-02 5.808319e-04 2.717569e-01 2.589890e-01 2.598633e-01 2.530417e-01 2.904299e-01 2.805820e-01 2.783154e-01 2.934853e-01 3.012489e-01 3.159406e-01 2.777686e-01 2.845387e-01 9.135426e-07 -1.114758e-06 -5.127020e-06 -3.477763e-06 -5.146512e-06 -4.045977e-06 -2.704007e-06 -2.625926e-06 2.284148e-07 -2.455553e-06 -3.303057e-06 -3.432895e-06 1.716960e-06 1.590000e-06 1.165124e-06 1.896423e-06 1.543451e-06 1.756088e-06 2.096551e-06 2.216106e-06 1.673395e-06 9.923498e-07 1.687240e-06 1.989734e-06
<VARIANCE> 39
 3.872017e+04 1.648368e+02 9.713050e+00 9.574932e-02 7.507265e-02 1.011769e-01 6.844017e-02 1.068953e-01 8.484249e-02 8.535165e-02 1.088234e-01 8.611441e-02 1.215130e-01 7.854612e-02 1.012177e-01 7.738464e-04 5.756516e-04 8.173934e-04 6.020874e-04 9.842092e-04 7.769793e-04 7.680384e-04 9.380564e-04 7.292997e-04 9.102586e-04 6.066088e-04 8.300907e-04 4.039318e-05 3.075810e-05 4.262554e-05 3.326209e-05 5.388901e-05 4.357443e-05 4.302722e-05 5.102124e-05 4.137804e-05 4.840365e-05 3.307438e-05 4.497233e-05
<GCONST> -1.462089e+02
<TRANSP> 3
 8.000000e-01 2.000000e-01 0.000000e+00
 0.000000e+00 8.000000e-01 2.000000e-01
 0.000000e+00 0.000000e+00 0.000000e+00
<ENDHMM>
~h "Tab0686"
<BEGINHMM>
<NUMSTATES> 3
<STATE> 2
<MEAN> 39
 -4.548619e+02 -1.140042e-02 5.808319e-04 2.717569e-01 2.589890e-01 2.598633e-01 2.530417e-01 2.904299e-01 2.805820e-01 2.783154e-01 2.934853e-01 3.012489e-01 3.159406e-01 2.777686e-01 2.845387e-01 9.135426e-07 -1.114758e-06 -5.127020e-06 -3.477763e-06 -5.146512e-06 -4.045977e-06 -2.704007e-06 -2.625926e-06 2.284148e-07 -2.455553e-06 -3.303057e-06 -3.432895e-06 1.716960e-06 1.590000e-06 1.165124e-06 1.896423e-06 1.543451e-06 1.756088e-06 2.096551e-06 2.216106e-06 1.673395e-06 9.923498e-07 1.687240e-06 1.989734e-06
<VARIANCE> 39
 3.872017e+04 1.648368e+02 9.713050e+00 9.574932e-02 7.507265e-02 1.011769e-01 6.844017e-02 1.068953e-01 8.484249e-02 8.535165e-02 1.088234e-01 8.611441e-02 1.215130e-01 7.854612e-02 1.012177e-01 7.738464e-04 5.756516e-04 8.173934e-04 6.020874e-04 9.842092e-04 7.769793e-04 7.680384e-04 9.380564e-04 7.292997e-04 9.102586e-04 6.066088e-04 8.300907e-04 4.039318e-05 3.075810e-05 4.262554e-05 3.326209e-05 5.388901e-05 4.357443e-05 4.302722e-05 5.102124e-05 4.137804e-05 4.840365e-05 3.307438e-05 4.497233e-05
<GCONST> -1.462089e+02
<TRANSP> 3
 8.000000e-01 2.000000e-01 0.000000e+00
 0.000000e+00 8.000000e-01 2.000000e-01
 0.000000e+00 0.000000e+00 0.000000e+00
<ENDHMM>
~h "Tab0700"
<BEGINHMM>
<NUMSTATES> 3
<STATE> 2
<MEAN> 39
 -4.548619e+02 -1.140042e-02 5.808319e-04 2.717569e-01 2.589890e-01 2.598633e-01 2.530417e-01 2.904299e-01 2.805820e-01 2.783154e-01 2.934853e-01 3.012489e-01 3.159406e-01 2.777686e-01 2.845387e-01 9.135426e-07 -1.114758e-06 -5.127020e-06 -3.477763e-06 -5.146512e-06 -4.045977e-06 -2.704007e-06 -2.625926e-06 2.284148e-07 -2.455553e-06 -3.303057e-06 -3.432895e-06 1.716960e-06 1.590000e-06 1.165124e-06 1.896423e-06 1.543451e-06 1.756088e-06 2.096551e-06 2.216106e-06 1.673395e-06 9.923498e-07 1.687240e-06 1.989734e-06
<VARIANCE> 39
 3.872017e+04 1.648368e+02 9.713050e+00 9.574932e-02 7.507265e-02 1.011769e-01 6.844017e-02 1.068953e-01 8.484249e-02 8.535165e-02 1.088234e-01 8.611441e-02 1.215130e-01 7.854612e-02 1.012177e-01 7.738464e-04 5.756516e-04 8.173934e-04 6.020874e-04 9.842092e-04 7.769793e-04 7.680384e-04 9.380564e-04 7.292997e-04 9.102586e-04 6.066088e-04 8.300907e-04 4.039318e-05 3.075810e-05 4.262554e-05 3.326209e-05 5.388901e-05 4.357443e-05 4.302722e-05 5.102124e-05 4.137804e-05 4.840365e-05 3.307438e-05 4.497233e-05
<GCONST> -1.462089e+02
<TRANSP> 3
 8.000000e-01 2.000000e-01 0.000000e+00
 0.000000e+00 8.000000e-01 2.000000e-01
 0.000000e+00 0.000000e+00 0.000000e+00
<ENDHMM>
~h "Tab0702"
<BEGINHMM>
<NUMSTATES> 3
<STATE> 2
<MEAN> 39
 -4.548619e+02 -1.140042e-02 5.808319e-04 2.717569e-01 2.589890e-01 2.598633e-01 2.530417e-01 2.904299e-01 2.805820e-01 2.783154e-01 2.934853e-01 3.012489e-01 3.159406e-01 2.777686e-01 2.845387e-01 9.135426e-07 -1.114758e-06 -5.127020e-06 -3.477763e-06 -5.146512e-06 -4.045977e-06 -2.704007e-06 -2.625926e-06 2.284148e-07 -2.455553e-06 -3.303057e-06 -3.432895e-06 1.716960e-06 1.590000e-06 1.165124e-06 1.896423e-06 1.543451e-06 1.756088e-06 2.096551e-06 2.216106e-06 1.673395e-06 9.923498e-07 1.687240e-06 1.989734e-06
<VARIANCE> 39
 3.872017e+04 1.648368e+02 9.713050e+00 9.574932e-02 7.507265e-02 1.011769e-01 6.844017e-02 1.068953e-01 8.484249e-02 8.535165e-02 1.088234e-01 8.611441e-02 1.215130e-01 7.854612e-02 1.012177e-01 7.738464e-04 5.756516e-04 8.173934e-04 6.020874e-04 9.842092e-04 7.769793e-04 7.680384e-04 9.380564e-04 7.292997e-04 9.102586e-04 6.066088e-04 8.300907e-04 4.039318e-05 3.075810e-05 4.262554e-05 3.326209e-05 5.388901e-05 4.357443e-05 4.302722e-05 5.102124e-05 4.137804e-05 4.840365e-05 3.307438e-05 4.497233e-05
<GCONST> -1.462089e+02
<TRANSP> 3
 8.000000e-01 2.000000e-01 0.000000e+00
 0.000000e+00 8.000000e-01 2.000000e-01
 0.000000e+00 0.000000e+00 0.000000e+00
<ENDHMM>
~h "Tab0715"
<BEGINHMM>
<NUMSTATES> 3
<STATE> 2
<MEAN> 39
 -4.548619e+02 -1.140042e-02 5.808319e-04 2.717569e-01 2.589890e-01 2.598633e-01 2.530417e-01 2.904299e-01 2.805820e-01 2.783154e-01 2.934853e-01 3.012489e-01 3.159406e-01 2.777686e-01 2.845387e-01 9.135426e-07 -1.114758e-06 -5.127020e-06 -3.477763e-06 -5.146512e-06 -4.045977e-06 -2.704007e-06 -2.625926e-06 2.284148e-07 -2.455553e-06 -3.303057e-06 -3.432895e-06 1.716960e-06 1.590000e-06 1.165124e-06 1.896423e-06 1.543451e-06 1.756088e-06 2.096551e-06 2.216106e-06 1.673395e-06 9.923498e-07 1.687240e-06 1.989734e-06
<VARIANCE> 39
 3.872017e+04 1.648368e+02 9.713050e+00 9.574932e-02 7.507265e-02 1.011769e-01 6.844017e-02 1.068953e-01 8.484249e-02 8.535165e-02 1.088234e-01 8.611441e-02 1.215130e-01 7.854612e-02 1.012177e-01 7.738464e-04 5.756516e-04 8.173934e-04 6.020874e-04 9.842092e-04 7.769793e-04 7.680384e-04 9.380564e-04 7.292997e-04 9.102586e-04 6.066088e-04 8.300907e-04 4.039318e-05 3.075810e-05 4.262554e-05 3.326209e-05 5.388901e-05 4.357443e-05 4.302722e-05 5.102124e-05 4.137804e-05 4.840365e-05 3.307438e-05 4.497233e-05
<GCONST> -1.462089e+02
<TRANSP> 3
 8.000000e-01 2.000000e-01 0.000000e+00
 0.000000e+00 8.000000e-01 2.000000e-01
 0.000000e+00 0.000000e+00 0.000000e+00
<ENDHMM>
~h "Tab0721"
<BEGINHMM>
<NUMSTATES> 3
<STATE> 2
<MEAN> 39
 -4.548619e+02 -1.140042e-02 5.808319e-04 2.717569e-01 2.589890e-01 2.598633e-01 2.530417e-01 2.904299e-01 2.805820e-01 2.783154e-01 2.934853e-01 3.012489e-01 3.159406e-01 2.777686e-01 2.845387e-01 9.135426e-07 -1.114758e-06 -5.127020e-06 -3.477763e-06 -5.146512e-06 -4.045977e-06 -2.704007e-06 -2.625926e-06 2.284148e-07 -2.455553e-06 -3.303057e-06 -3.432895e-06 1.716960e-06 1.590000e-06 1.165124e-06 1.896423e-06 1.543451e-06 1.756088e-06 2.096551e-06 2.216106e-06 1.673395e-06 9.923498e-07 1.687240e-06 1.989734e-06
<VARIANCE> 39
 3.872017e+04 1.648368e+02 9.713050e+00 9.574932e-02 7.507265e-02 1.011769e-01 6.844017e-02 1.068953e-01 8.484249e-02 8.535165e-02 1.088234e-01 8.611441e-02 1.215130e-01 7.854612e-02 1.012177e-01 7.738464e-04 5.756516e-04 8.173934e-04 6.020874e-04 9.842092e-04 7.769793e-04 7.680384e-04 9.380564e-04 7.292997e-04 9.102586e-04 6.066088e-04 8.300907e-04 4.039318e-05 3.075810e-05 4.262554e-05 3.326209e-05 5.388901e-05 4.357443e-05 4.302722e-05 5.102124e-05 4.137804e-05 4.840365e-05 3.307438e-05 4.497233e-05
<GCONST> -1.462089e+02
<TRANSP> 3
 8.000000e-01 2.000000e-01 0.000000e+00
 0.000000e+00 8.000000e-01 2.000000e-01
 0.000000e+00 0.000000e+00 0.000000e+00
<ENDHMM>
