~o
<STREAMINFO> 1 39
<VECSIZE> 39<NULLD><MFCC_E_D_A><DIAGC>
~h "Sil"
<BEGINHMM>
<NUMSTATES> 3
<STATE> 2
<MEAN> 39
 -5.191402e+02 -7.478741e-03 2.563181e-03 2.144764e-01 2.177484e-01 2.168819e-01 1.946558e-01 2.389643e-01 2.588480e-01 2.457101e-01 2.328321e-01 2.322753e-01 2.558381e-01 2.177507e-01 2.095229e-01 9.716028e-06 1.477354e-05 1.132031e-05 1.016419e-05 1.162562e-05 2.234085e-05 2.828497e-05 1.902311e-05 6.367945e-06 -8.210483e-06 -7.167675e-06 -2.291167e-07 6.786083e-06 5.722079e-06 4.048491e-06 7.275628e-06 7.324403e-06 5.266611e-06 6.239895e-06 8.419715e-06 6.571976e-06 5.260670e-06 7.684816e-06 9.573027e-06
<VARIANCE> 39
 3.784908e+04 1.096204e+02 5.909986e+00 8.580915e-02 6.992386e-02 9.874053e-02 5.718964e-02 9.898204e-02 9.873706e-02 9.045316e-02 1.028012e-01 7.275651e-02 1.209102e-01 7.369187e-02 8.082811e-02 5.246473e-04 4.596557e-04 6.189842e-04 3.639260e-04 6.547324e-04 6.342007e-04 5.666430e-04 6.912242e-04 4.966758e-04 6.167898e-04 4.258538e-04 5.236454e-04 2.628582e-05 2.370819e-05 3.071825e-05 1.874319e-05 3.323007e-05 3.217718e-05 2.941765e-05 3.429933e-05 2.622623e-05 3.040786e-05 2.213760e-05 2.709536e-05
<GCONST> -1.570948e+02
<TRANSP> 3
 0.000000e+00 1.000000e+00 0.000000e+00
 0.000000e+00 9.990785e-01 9.214806e-04
 0.000000e+00 0.000000e+00 0.000000e+00
<ENDHMM>
~h "Tab0000"
<BEGINHMM>
<NUMSTATES> 3
<STATE> 2
<MEAN> 39
 -3.294036e+02 2.054068e-01 -3.267279e-02 2.302384e-01 2.536241e-01 3.056236e-01 3.794421e-01 4.857270e-01 4.678953e-01 4.485684e-01 3.903669e-01 3.816794e-01 4.341336e-01 3.504936e-01 2.799853e-01 -8.646079e-06 1.483335e-05 4.890754e-04 7.992971e-04 8.321386e-04 3.322419e-04 3.662758e-04 1.147638e-04 -3.615536e-04 -6.492387e-04 -3.432509e-04 -9.948935e-05 2.943975e-04 1.224091e-04 2.273496e-05 -2.320079e-04 -4.023311e-04 -2.579574e-04 -3.092512e-05 5.874374e-05 -1.041347e-04 -2.400839e-04 -2.142894e-05 2.330896e-04
<VARIANCE> 39
 1.460788e+04 2.021815e+02 1.480927e+01 5.468804e-02 6.149429e-02 8.824932e-02 7.837057e-02 1.520435e-01 8.286483e-02 9.690326e-02 7.916591e-02 7.353741e-02 1.356877e-01 6.491660e-02 9.388024e-02 1.034333e-03 1.048634e-03 1.488936e-03 1.617924e-03 3.405437e-03 1.821243e-03 1.626475e-03 1.474566e-03 1.292930e-03 1.950074e-03 1.086431e-03 1.624528e-03 5.968602e-05 5.443299e-05 7.735927e-05 8.382320e-05 1.862178e-04 1.016931e-04 9.181006e-05 8.454154e-05 7.687460e-05 1.020776e-04 5.983562e-05 9.513360e-05
<GCONST> -1.305923e+02
<TRANSP> 3
 0.000000e+00 1.000000e+00 0.000000e+00
 0.000000e+00 9.392584e-01 6.074160e-02
 0.000000e+00 0.000000e+00 0.000000e+00
<ENDHMM>
~h "Tab0001"
<BEGINHMM>
<NUMSTATES> 3
<STATE> 2
<MEAN> 39
 -2.660183e+02 -6.880186e-01 -4.141356e-02 7.350311e-02 1.216646e-01 3.992615e-01 5.513906e-01 3.464471e-01 2.734426e-01 3.881135e-01 5.655062e-01 5.510980e-01 2.825667e-01 1.446043e-01 9.519888e-02 8.495617e-04 1.238410e-03 1.619598e-03 7.011674e-04 3.159716e-04 9.502788e-04 4.175477e-04 1.038904e-03 1.796230e-03 1.326515e-03 6.142656e-04 7.472500e-04 3.509560e-04 5.024601e-04 4.487491e-04 2.925732e-04 7.199191e-04 4.738566e-04 -1.662186e-04 -3.716978e-04 1.412520e-04 5.828490e-04 4.591841e-04 3.295915e-04
<VARIANCE> 39
 6.147870e+03 1.201801e+02 8.696004e+00 6.033068e-03 1.506493e-02 9.146091e-02 1.634668e-01 4.583310e-02 4.857548e-02 9.123821e-02 8.613995e-02 1.053402e-01 4.594557e-02 1.487538e-02 7.383842e-03 1.024115e-04 3.303993e-04 4.137599e-04 7.506855e-04 8.942614e-04 9.938050e-04 1.077801e-03 1.776254e-03 1.843831e-03 4.754672e-04 1.403981e-04 1.008115e-04 6.324187e-06 1.850091e-05 2.897289e-05 4.905010e-05 6.558393e-05 6.151723e-05 7.255258e-05 1.111641e-04 1.269947e-04 3.125745e-05 9.681191e-06 6.713433e-06
<GCONST> -1.668693e+02
<TRANSP> 3
 0.000000e+00 1.000000e+00 0.000000e+00
 0.000000e+00 8.944814e-01 1.055186e-01
 0.000000e+00 0.000000e+00 0.000000e+00
<ENDHMM>
~h "Tab0002"
<BEGINHMM>
<NUMSTATES> 3
<STATE> 2
<MEAN> 39
 -3.123419e+02 -1.836267e-02 1.480570e-03 3.441435e-01 4.091232e-01 4.710074e-01 3.226683e-01 3.773191e-01 5.338959e-01 3.419651e-01 1.901937e-01 2.505973e-01 3.414713e-01 2.325414e-01 2.511011e-01 -5.582857e-04 -3.022815e-04 5.597714e-05 -3.958510e-04 -9.466308e-04 -3.401203e-04 2.776996e-04 1.746144e-04 -2.466849e-04 -5.946731e-04 -2.043564e-04 -4.473649e-05 -7.693723e-05 -2.349873e-05 2.171308e-05 -2.363534e-05 -7.076212e-05 -6.259973e-05 2.428547e-05 5.614709e-05 8.814633e-06 -5.863926e-05 -1.191486e-04 -1.036063e-04
<VARIANCE> 39
 1.472359e+04 1.406990e+02 8.382080e+00 1.179076e-01 5.118090e-02 1.849213e-01 5.640820e-02 5.370048e-02 1.288391e-01 4.394794e-02 5.312219e-02 3.532449e-02 8.050039e-02 3.563816e-02 5.455291e-02 1.525127e-03 6.301957e-04 1.465854e-03 6.808907e-04 8.809600e-04 1.522766e-03 6.037900e-04 6.839401e-04 5.998921e-04 1.435041e-03 5.682987e-04 7.719982e-04 7.023341e-05 3.487954e-05 7.467424e-05 3.919662e-05 5.415846e-05 8.731306e-05 3.306580e-05 3.650964e-05 3.375996e-05 7.500473e-05 3.077207e-05 3.882643e-05
<GCONST> -1.484847e+02
<TRANSP> 3
 0.000000e+00 1.000000e+00 0.000000e+00
 0.000000e+00 9.581066e-01 4.189347e-02
 0.000000e+00 0.000000e+00 0.000000e+00
<ENDHMM>
~h "Tab0003"
<BEGINHMM>
<NUMSTATES> 3
<STATE> 2
<MEAN> 39
 -3.565258e+02 -3.138652e-01 4.148106e-02 1.437894e-01 3.892923e-01 6.174988e-01 5.007570e-01 3.477150e-01 3.058742e-01 3.433464e-01 3.166124e-01 3.510220e-01 4.644226e-01 3.182868e-01 1.421767e-01 3.384775e-04 2.194014e-04 7.169991e-04 1.268804e-03 9.661411e-04 4.604019e-04 -4.058494e-05 -3.135941e-04 -2.492230e-04 4.295547e-04 4.561203e-04 5.098861e-04 2.758247e-04 -1.265268e-04 -5.504315e-04 -2.498485e-04 3.518019e-05 2.102325e-04 4.481265e-04 5.387893e-04 4.093399e-04 2.404701e-04 2.138904e-04 2.469358e-04
<VARIANCE> 39
 2.036277e+04 2.020951e+02 1.288696e+01 2.434581e-02 6.239634e-02 1.384258e-01 7.773600e-02 7.519206e-02 6.146423e-02 7.877325e-02 7.099430e-02 6.931876e-02 1.199047e-01 5.634753e-02 2.052362e-02 4.530163e-04 5.620834e-04 8.667379e-04 6.068676e-04 1.241479e-03 1.027711e-03 1.088231e-03 1.036348e-03 9.814111e-04 9.411938e-04 6.338061e-04 3.170789e-04 2.560028e-05 2.964934e-05 5.041247e-05 3.453587e-05 7.373305e-05 6.246425e-05 6.416600e-05 6.540976e-05 6.469249e-05 5.446448e-05 3.572170e-05 1.983753e-05
<GCONST> -1.500814e+02
<TRANSP> 3
 0.000000e+00 1.000000e+00 0.000000e+00
 0.000000e+00 9.366785e-01 6.332154e-02
 0.000000e+00 0.000000e+00 0.000000e+00
<ENDHMM>
~h "Tab0004"
<BEGINHMM>
<NUMSTATES> 3
<STATE> 2
<MEAN> 39
 -3.465353e+02 1.179325e+00 -8.650580e-02 3.988840e-01 3.481946e-01 3.395724e-01 3.760216e-01 4.347970e-01 3.868192e-01 3.915269e-01 4.153998e-01 4.455128e-01 4.871555e-01 4.188143e-01 4.262486e-01 1.282253e-03 -4.190452e-04 -1.442478e-03 -1.333396e-03 -2.642448e-04 1.573554e-03 3.290380e-03 3.168230e-03 1.134133e-03 5.053491e-04 1.031630e-03 1.328241e-03 -4.748957e-04 -5.033108e-04 -5.966376e-04 -5.710309e-04 -4.390515e-04 -7.241010e-04 -7.303036e-04 -7.116150e-04 -1.050278e-03 -8.720449e-04 -6.243570e-04 -6.363927e-04
<VARIANCE> 39
 2.924943e+04 3.256289e+02 1.955037e+01 1.043000e-01 7.717355e-02 9.111514e-02 6.849840e-02 1.170039e-01 7.489100e-02 7.003136e-02 8.199220e-02 7.985033e-02 1.202669e-01 7.592149e-02 9.639543e-02 2.502622e-03 1.882773e-03 2.194954e-03 1.808264e-03 3.018078e-03 2.060538e-03 2.199250e-03 2.530107e-03 1.881893e-03 3.003501e-03 1.932296e-03 2.341345e-03 1.212918e-04 9.573346e-05 1.109903e-04 9.932876e-05 1.621124e-04 1.163229e-04 1.182739e-04 1.312477e-04 1.077286e-04 1.432104e-04 1.059039e-04 1.187677e-04
<GCONST> -1.203585e+02
<TRANSP> 3
 0.000000e+00 1.000000e+00 0.000000e+00
 0.000000e+00 8.935935e-01 1.064065e-01
 0.000000e+00 0.000000e+00 0.000000e+00
<ENDHMM>
~h "Tab0008"
<BEGINHMM>
<NUMSTATES> 3
<STATE> 2
<MEAN> 39
 -3.180123e+02 1.132208e+00 -5.816091e-01 2.044494e-01 2.586755e-01 2.862711e-01 3.713892e-01 4.691021e-01 5.535119e-01 6.049327e-01 4.179012e-01 2.718647e-01 2.484295e-01 2.059043e-01 2.039924e-01 2.762866e-04 4.746492e-04 -3.062891e-03 -9.222909e-03 -6.911264e-03 -1.455685e-03 5.956283e-03 2.405585e-03 -6.005709e-03 -1.428058e-02 -8.637629e-03 -2.061452e-03 7.624205e-04 1.268056e-03 6.018857e-04 -1.745015e-03 -2.411161e-03 -3.115465e-03 -3.256997e-03 -9.217671e-04 1.292532e-03 1.497465e-03 4.707623e-04 3.704423e-04
<VARIANCE> 39
 1.225692e+04 2.214760e+02 1.329060e+01 3.986651e-02 6.722677e-02 8.014419e-02 9.905785e-02 1.098934e-01 7.375802e-02 1.351029e-01 5.913807e-02 6.262477e-02 6.569175e-02 5.249422e-02 7.545730e-02 1.467345e-03 2.062824e-03 1.819926e-03 2.111230e-03 2.948891e-03 2.063229e-03 2.209961e-03 1.228676e-03 2.241498e-03 2.380055e-03 1.220005e-03 1.664870e-03 5.920769e-05 9.096461e-05 8.295516e-05 9.679943e-05 1.309677e-04 1.244505e-04 1.230164e-04 6.206979e-05 9.364271e-05 9.910043e-05 5.177547e-05 6.693586e-05
<GCONST> -1.298788e+02
<TRANSP> 3
 0.000000e+00 1.000000e+00 0.000000e+00
 0.000000e+00 7.349420e-01 2.650581e-01
 0.000000e+00 0.000000e+00 0.000000e+00
<ENDHMM>
~h "Tab0011"
<BEGINHMM>
<NUMSTATES> 3
<STATE> 2
<MEAN> 39
 -4.639423e+02 1.409261e+00 4.227680e-02 4.381251e-01 3.346728e-01 2.925218e-01 2.982519e-01 3.568259e-01 3.623794e-01 4.656145e-01 5.767432e-01 4.288797e-01 2.948183e-01 2.872826e-01 3.904395e-01 2.108228e-04 -6.279758e-04 -2.528698e-03 -2.540374e-03 -2.764907e-03 -3.142710e-03 -2.038283e-03 -1.244066e-03 -1.576842e-04 4.092751e-04 -6.095819e-05 1.382299e-04 -9.326984e-04 -3.685216e-04 9.178903e-05 -9.426802e-05 -4.785377e-04 -6.788196e-04 -5.442211e-04 -8.246962e-05 -4.581118e-06 3.585749e-05 -2.171686e-04 -7.227226e-04
<VARIANCE> 39
 2.974484e+04 3.501026e+02 1.865877e+01 1.253895e-01 6.112447e-02 7.922532e-02 6.751344e-02 1.012916e-01 9.468122e-02 7.677570e-02 1.404081e-01 6.936566e-02 8.185471e-02 7.314733e-02 9.054346e-02 3.187641e-03 1.500278e-03 1.874368e-03 1.674417e-03 2.198619e-03 2.533551e-03 1.660461e-03 2.909856e-03 1.442496e-03 1.873333e-03 1.823774e-03 2.722085e-03 1.598185e-04 8.336487e-05 9.466674e-05 9.533522e-05 1.220608e-04 1.368577e-04 9.203723e-05 1.376120e-04 7.174365e-05 9.942750e-05 9.899530e-05 1.467951e-04
<GCONST> -1.225551e+02
<TRANSP> 3
 0.000000e+00 1.000000e+00 0.000000e+00
 0.000000e+00 8.422326e-01 1.577674e-01
 0.000000e+00 0.000000e+00 0.000000e+00
<ENDHMM>
~h "Tab0024"
<BEGINHMM>
<NUMSTATES> 3
<STATE> 2
<MEAN> 39
 -4.414428e+02 -4.322621e-01 -1.401592e-01 5.569184e-01 7.358132e-01 4.154218e-01 1.093275e-01 5.803600e-02 4.492111e-02 5.462987e-02 1.007604e-01 1.457474e-01 1.618230e-01 2.923374e-01 3.708937e-01 1.497506e-03 1.260404e-03 -5.266748e-04 -3.650477e-03 -2.302405e-03 -1.548837e-04 6.585012e-05 -7.681957e-04 -7.390857e-04 1.790276e-03 2.782010e-03 2.562293e-03 -1.290747e-03 -1.499202e-03 2.794567e-04 1.415510e-03 8.356203e-04 5.675860e-04 7.658892e-04 7.010370e-04 2.948006e-04 8.460745e-04 5.080652e-04 -5.952475e-04
<VARIANCE> 39
 4.238462e+03 8.656439e+01 5.719612e+00 4.350457e-02 1.631466e-01 5.853426e-02 1.098651e-02 3.788289e-03 1.928373e-03 5.308892e-03 5.153293e-03 9.364835e-03 2.570401e-02 8.353437e-02 1.196235e-01 9.180809e-04 2.348516e-03 7.486682e-04 6.320581e-04 1.761423e-04 4.731860e-05 6.579111e-05 9.109976e-05 1.689378e-04 8.039828e-04 1.387217e-03 2.797610e-03 4.092691e-05 1.177927e-04 3.253484e-05 2.742027e-05 7.828750e-06 8.236016e-06 1.453693e-05 1.283003e-05 1.450328e-05 4.118061e-05 6.409960e-05 1.348179e-04
<GCONST> -1.804125e+02
<TRANSP> 3
 0.000000e+00 1.000000e+00 0.000000e+00
 0.000000e+00 8.858989e-01 1.141012e-01
 0.000000e+00 0.000000e+00 0.000000e+00
<ENDHMM>
~h "Tab0030"
<BEGINHMM>
<NUMSTATES> 3
<STATE> 2
<MEAN> 39
 -3.308070e+02 -2.282903e-03 -7.175776e-02 3.027851e-01 1.778106e-01 1.592385e-01 2.669829e-01 3.304516e-01 2.361057e-01 2.213829e-01 2.859920e-01 4.132318e-01 4.175200e-01 3.863049e-01 4.303318e-01 -3.068354e-04 -4.723147e-04 -3.082514e-04 1.065887e-04 4.986141e-04 2.313927e-04 -2.828560e-04 -3.622154e-04 3.763409e-05 6.626403e-04 5.599561e-04 1.051151e-04 1.589870e-04 2.782939e-04 2.236904e-04 1.137169e-04 9.313783e-05 7.508974e-05 7.453497e-05 7.958164e-05 -7.887061e-05 -1.036378e-04 -1.319089e-04 -8.493886e-05
<VARIANCE> 39
 8.995552e+03 3.140906e+02 2.368356e+01 6.935039e-02 7.124824e-02 4.218224e-02 7.948617e-02 1.352475e-01 4.652251e-02 5.723412e-02 5.596011e-02 9.787770e-02 1.126281e-01 6.083591e-02 1.583980e-01 1.620608e-03 1.277755e-03 8.486433e-04 1.828969e-03 3.066229e-03 1.135075e-03 1.399577e-03 1.458613e-03 2.524924e-03 2.666580e-03 1.405723e-03 3.563849e-03 7.541617e-05 5.612273e-05 4.215565e-05 8.943752e-05 1.397153e-04 5.621499e-05 7.373730e-05 8.440388e-05 1.391298e-04 1.340857e-04 7.295081e-05 1.669281e-04
<GCONST> -1.297749e+02
<TRANSP> 3
 0.000000e+00 1.000000e+00 0.000000e+00
 0.000000e+00 8.469416e-01 1.530584e-01
 0.000000e+00 0.000000e+00 0.000000e+00
<ENDHMM>
~h "Tab0031"
<BEGINHMM>
<NUMSTATES> 3
<STATE> 2
<MEAN> 39
 -4.524673e+02 6.367465e-01 -8.021460e-02 5.478387e-01 5.027453e-01 5.126784e-01 4.100695e-01 3.683167e-01 3.656368e-01 4.619689e-01 5.432516e-01 4.729736e-01 4.903767e-01 4.805804e-01 5.455997e-01 -1.133727e-03 2.233844e-05 9.601859e-04 1.120790e-03 1.735648e-03 1.725833e-03 8.381863e-04 8.330251e-04 1.164367e-03 1.288996e-04 -4.526602e-04 -7.589928e-04 -1.169554e-04 -1.095247e-04 -1.139074e-04 -2.636813e-04 -3.818632e-04 -1.914236e-04 -2.525853e-05 -5.824504e-05 -1.489902e-04 -5.034437e-05 -5.737139e-05 -6.738834e-05
<VARIANCE> 39
 5.394415e+04 1.546824e+03 8.389694e+01 1.134363e-01 6.543057e-02 9.965856e-02 5.699870e-02 6.755695e-02 6.838879e-02 7.590719e-02 1.065285e-01 6.907140e-02 8.813857e-02 7.282060e-02 8.219973e-02 2.032532e-03 1.383489e-03 2.347829e-03 1.419813e-03 1.795018e-03 1.592510e-03 1.408178e-03 1.993730e-03 1.320458e-03 1.963680e-03 1.531396e-03 1.734856e-03 1.124396e-04 7.769254e-05 1.309799e-04 8.244199e-05 1.031097e-04 8.960571e-05 7.333700e-05 1.114618e-04 7.582730e-05 1.034201e-04 8.147369e-05 1.013137e-04
<GCONST> -1.240830e+02
<TRANSP> 3
 0.000000e+00 1.000000e+00 0.000000e+00
 0.000000e+00 9.112968e-01 8.870318e-02
 0.000000e+00 0.000000e+00 0.000000e+00
<ENDHMM>
~h "Tab0033"
<BEGINHMM>
<NUMSTATES> 3
<STATE> 2
<MEAN> 39
 -3.308224e+02 -6.471556e-02 3.181420e-03 3.038995e-01 3.943138e-01 4.704592e-01 3.076154e-01 3.211362e-01 4.304303e-01 2.548611e-01 1.307764e-01 2.518635e-01 4.053306e-01 2.550045e-01 2.082620e-01 7.190977e-05 -1.619778e-04 -2.920170e-04 1.689547e-05 3.704134e-04 1.964413e-04 -2.591933e-04 -3.010361e-04 -1.190112e-04 -6.414478e-05 2.277926e-04 5.649807e-04 9.438398e-05 5.615775e-06 -4.115769e-05 2.146273e-05 9.767665e-05 9.789228e-05 3.065439e-05 3.646897e-05 1.490380e-05 -3.050782e-05 2.045337e-06 5.409077e-05
<VARIANCE> 39
 1.472167e+04 7.453400e+01 4.035916e+00 1.110659e-01 4.984789e-02 1.841361e-01 5.187664e-02 7.069538e-02 1.539301e-01 5.058170e-02 2.593530e-02 3.400618e-02 1.125237e-01 3.742797e-02 4.502777e-02 1.151558e-03 8.697024e-04 2.442441e-03 7.504515e-04 6.960967e-04 8.058129e-04 3.216176e-04 3.087081e-04 7.538036e-04 2.303005e-03 7.477572e-04 5.328143e-04 5.445090e-05 5.142676e-05 1.426349e-04 4.391261e-05 3.656692e-05 4.097311e-05 1.731387e-05 1.697642e-05 4.593942e-05 1.389349e-04 4.308990e-05 2.716759e-05
<GCONST> -1.518015e+02
<TRANSP> 3
 0.000000e+00 1.000000e+00 0.000000e+00
 0.000000e+00 9.397311e-01 6.026883e-02
 0.000000e+00 0.000000e+00 0.000000e+00
<ENDHMM>
~h "Tab0036"
<BEGINHMM>
<NUMSTATES> 3
<STATE> 2
<MEAN> 39
 -2.926562e+02 6.247351e-03 -3.369331e-03 4.575075e-01 1.483567e-01 1.553625e-01 2.636955e-01 2.259394e-01 1.774209e-01 2.125394e-01 1.948267e-01 2.172148e-01 2.527040e-01 5.386285e-01 7.632987e-01 2.613648e-05 9.690684e-06 3.286115e-05 1.156740e-04 4.367475e-05 -1.843366e-04 -3.348430e-04 -2.034447e-04 1.406635e-04 2.204328e-04 9.448671e-05 -4.960287e-05 -2.338049e-04 2.194673e-05 7.602625e-06 -1.347066e-05 3.807007e-05 3.132058e-04 5.574316e-04 2.712922e-04 3.477883e-05 6.087709e-05 -1.518149e-04 -4.306987e-04
<VARIANCE> 39
 1.722259e+03 2.622439e+01 6.467017e-01 4.378726e-02 9.147178e-03 2.608613e-02 8.871672e-02 8.792851e-02 2.290189e-02 2.906263e-02 1.940131e-02 6.474905e-02 6.104419e-02 4.109118e-02 1.206700e-01 1.615206e-03 1.569675e-04 1.172293e-03 3.750351e-03 3.809450e-03 1.132958e-03 1.512420e-03 8.832848e-04 2.801026e-03 2.353288e-03 1.007679e-03 5.832911e-03 8.347508e-05 5.413032e-06 7.486303e-05 2.297682e-04 2.329955e-04 6.957004e-05 8.788861e-05 5.327093e-05 1.704377e-04 1.413195e-04 4.456836e-05 3.318879e-04
<GCONST> -1.459201e+02
<TRANSP> 3
 0.000000e+00 1.000000e+00 0.000000e+00
 0.000000e+00 9.522330e-01 4.776703e-02
 0.000000e+00 0.000000e+00 0.000000e+00
<ENDHMM>
~h "Tab0038"
<BEGINHMM>
<NUMSTATES> 3
<STATE> 2
<MEAN> 39
 -7.288919e+02 2.131639e-02 -5.371809e-03 1.613492e-03 1.117576e-03 1.102014e-03 1.496740e-03 1.905050e-03 1.618854e-03 1.678117e-03 1.672082e-03 1.666632e-03 1.656109e-03 1.752362e-03 2.226627e-03 7.151653e-05 -1.271927e-05 -4.624423e-05 -2.561746e-05 -1.853927e-05 3.274535e-05 5.982840e-05 5.306688e-05 3.559733e-05 1.321692e-06 -1.021583e-06 7.351457e-05 3.261325e-07 9.796356e-06 9.955682e-06 1.060398e-05 1.241514e-05 1.187915e-05 8.849096e-06 5.849746e-06 4.361713e-06 6.325906e-06 -1.804481e-06 -7.957535e-06
<VARIANCE> 39
 1.228982e+03 1.648368e+00 1.225823e-01 1.072610e-03 7.507265e-04 1.011769e-03 8.429814e-04 1.627946e-03 8.833782e-04 1.121488e-03 1.088234e-03 8.903436e-04 1.215130e-03 9.656791e-04 1.691896e-03 1.345301e-05 8.799996e-06 8.173934e-06 9.253260e-06 1.947436e-05 1.110008e-05 1.377699e-05 1.534504e-05 1.794798e-05 2.190781e-05 1.311571e-05 2.074443e-05 6.949151e-07 4.128215e-07 4.445276e-07 5.085368e-07 1.018827e-06 6.054466e-07 6.224595e-07 6.673463e-07 5.440806e-07 8.383321e-07 8.096316e-07 1.106664e-06
<GCONST> -3.100989e+02
<TRANSP> 3
 0.000000e+00 1.000000e+00 0.000000e+00
 0.000000e+00 9.923924e-01 7.607636e-03
 0.000000e+00 0.000000e+00 0.000000e+00
<ENDHMM>
~h "Tab0040"
<BEGINHMM>
<NUMSTATES> 3
<STATE> 2
<MEAN> 39
 -3.477214e+02 2.112938e+00 1.616944e-01 4.179135e-01 5.347060e-01 3.231648e-01 1.710062e-01 2.369486e-01 3.206915e-01 3.912528e-01 4.512921e-01 5.426236e-01 4.173599e-01 2.708836e-01 2.602493e-01 -4.866987e-05 -6.556427e-04 -7.698382e-04 -5.093720e-04 -4.926079e-05 -2.915459e-04 4.001466e-04 7.004456e-04 -7.037652e-04 -7.518253e-04 -4.431948e-04 -3.037101e-05 -7.132766e-04 -1.029476e-03 -6.900438e-04 -5.344630e-04 -6.004929e-04 -5.489729e-04 -7.393028e-05 -6.012705e-04 -1.436523e-03 -1.093569e-03 -3.236778e-04 -1.395395e-04
<VARIANCE> 39
 8.565844e+03 1.880515e+02 1.175995e+01 7.686179e-02 1.483528e-01 5.829270e-02 2.026232e-02 4.243331e-02 6.043294e-02 9.113909e-02 6.925675e-02 1.234954e-01 6.775082e-02 9.450743e-02 7.396780e-02 2.764108e-03 3.497153e-03 1.395775e-03 5.473374e-04 1.296172e-03 1.686814e-03 2.120133e-03 1.406318e-03 2.810401e-03 1.659525e-03 1.367646e-03 1.305859e-03 1.862031e-04 2.116838e-04 8.183784e-05 3.281701e-05 8.430953e-05 1.098803e-04 1.388187e-04 8.216917e-05 1.606482e-04 9.489722e-05 8.339003e-05 8.195522e-05
<GCONST> -1.308291e+02
<TRANSP> 3
 0.000000e+00 1.000000e+00 0.000000e+00
 0.000000e+00 9.414130e-01 5.858690e-02
 0.000000e+00 0.000000e+00 0.000000e+00
<ENDHMM>
~h "Tab0042"
<BEGINHMM>
<NUMSTATES> 3
<STATE> 2
<MEAN> 39
 -2.409954e+02 -7.207895e-01 3.295708e-02 6.886578e-02 1.113295e-01 1.764240e-01 1.975228e-01 2.160127e-01 2.746947e-01 1.760996e-01 7.846057e-02 7.780889e-02 5.907575e-01 9.626023e-01 4.733391e-01 -2.526921e-04 4.106387e-04 2.187770e-04 -2.424654e-03 -2.618148e-03 -5.932309e-04 -3.377137e-05 -6.318191e-04 -8.968994e-04 1.531428e-04 3.807724e-05 -1.121507e-04 2.153957e-04 1.053234e-04 2.878605e-04 4.954687e-04 5.264035e-04 4.441692e-04 3.275283e-04 3.388492e-04 4.711924e-04 9.145144e-05 -1.650837e-04 1.953418e-04
<VARIANCE> 39
 4.703684e+03 6.268114e+01 4.911714e+00 5.950927e-03 1.653572e-02 1.592404e-02 1.275175e-02 1.817468e-02 2.634184e-02 1.281853e-02 7.204109e-03 9.593642e-03 1.019406e-02 2.890048e-02 8.648062e-03 5.416529e-05 3.949450e-05 8.131049e-05 3.312371e-04 4.543314e-04 6.447693e-04 3.641004e-04 1.253466e-04 1.388307e-04 8.199842e-05 1.918959e-05 6.231412e-05 4.227336e-06 3.564218e-06 4.935951e-06 1.987666e-05 2.719720e-05 4.488424e-05 2.672338e-05 1.192967e-05 1.241174e-05 5.159522e-06 2.107028e-06 4.796293e-06
<GCONST> -2.136439e+02
<TRANSP> 3
 0.000000e+00 1.000000e+00 0.000000e+00
 0.000000e+00 9.334560e-01 6.654400e-02
 0.000000e+00 0.000000e+00 0.000000e+00
<ENDHMM>
~h "Tab0045"
<BEGINHMM>
<NUMSTATES> 3
<STATE> 2
<MEAN> 39
 -5.811589e+02 -1.179583e+00 1.847689e-01 1.502000e-01 1.061159e-01 9.466194e-02 1.543616e-01 2.364394e-01 2.053754e-01 1.503227e-01 1.706927e-01 2.249748e-01 2.597357e-01 1.977643e-01 1.665071e-01 -1.627816e-04 -2.742653e-05 2.907987e-05 -3.196095e-06 -1.419956e-04 -4.567118e-04 -6.461394e-04 -6.156573e-04 -5.821678e-04 -4.594014e-04 -1.031353e-04 -1.709356e-04 1.384723e-04 1.953695e-04 1.945873e-04 1.812546e-04 1.435365e-04 2.189779e-04 3.141516e-04 3.768154e-04 3.044702e-04 1.094029e-04 1.756649e-04 1.712276e-04
<VARIANCE> 39
 2.980662e+04 4.244577e+01 2.793449e+00 7.391973e-02 3.353866e-02 4.047538e-02 4.631236e-02 1.180988e-01 8.912005e-02 6.115660e-02 8.764081e-02 7.641983e-02 1.397960e-01 6.710394e-02 8.258583e-02 5.388372e-05 4.364537e-05 5.468324e-05 1.231537e-04 1.712421e-04 1.136018e-04 8.560564e-05 1.070541e-04 1.013472e-04 7.484011e-05 8.090393e-05 9.360616e-05 4.402645e-06 3.351505e-06 4.255295e-06 8.624931e-06 1.198050e-05 7.565746e-06 5.890440e-06 8.670171e-06 7.243760e-06 7.081871e-06 6.536339e-06 7.754034e-06
<GCONST> -2.005728e+02
<TRANSP> 3
 0.000000e+00 1.000000e+00 0.000000e+00
 0.000000e+00 9.264867e-01 7.351334e-02
 0.000000e+00 0.000000e+00 0.000000e+00
<ENDHMM>
~h "Tab0053"
<BEGINHMM>
<NUMSTATES> 3
<STATE> 2
<MEAN> 39
 -4.057816e+02 -1.860641e-01 4.924523e-02 4.725924e-01 4.380966e-01 4.388440e-01 3.334673e-01 2.788973e-01 2.599723e-01 1.896658e-01 1.578485e-01 1.607378e-01 1.939025e-01 1.927000e-01 3.520691e-01 1.688437e-03 6.174237e-04 -2.748568e-04 -2.038188e-05 8.856456e-04 7.027815e-04 1.215111e-04 1.081903e-04 9.771166e-05 6.393762e-05 3.642272e-04 1.227773e-03 3.481262e-04 2.549202e-04 -7.231039e-05 7.931518e-05 3.102066e-04 2.794825e-04 2.601923e-04 2.970404e-04 2.666669e-04 3.210092e-04 4.427076e-04 3.412678e-04
<VARIANCE> 39
 2.283181e+04 9.821309e+01 4.943654e+00 1.620417e-01 6.113663e-02 1.870746e-01 6.392802e-02 9.216844e-02 9.134121e-02 2.969630e-02 2.246645e-02 1.852873e-02 3.580119e-02 2.007656e-02 8.682477e-02 1.403691e-03 4.156747e-04 9.475208e-04 5.419875e-04 7.434440e-04 6.948771e-04 2.663661e-04 2.421886e-04 2.183887e-04 3.634102e-04 2.634909e-04 4.496082e-04 6.744074e-05 2.404118e-05 4.778418e-05 3.187521e-05 3.854949e-05 3.391984e-05 1.592740e-05 1.315389e-05 1.208994e-05 2.212409e-05 1.816880e-05 2.450266e-05
<GCONST> -1.659273e+02
<TRANSP> 3
 0.000000e+00 1.000000e+00 0.000000e+00
 0.000000e+00 9.012041e-01 9.879588e-02
 0.000000e+00 0.000000e+00 0.000000e+00
<ENDHMM>
~h "Tab0059"
<BEGINHMM>
<NUMSTATES> 3
<STATE> 2
<MEAN> 39
 -5.992551e+02 -1.451367e+00 1.246540e-01 2.912175e-01 5.831633e-01 3.455816e-01 8.921679e-02 9.272982e-02 6.556579e-02 7.823622e-02 1.267853e-01 2.423490e-01 3.205386e-01 1.767245e-01 5.291208e-02 2.737920e-04 5.730905e-04 5.863861e-04 1.845364e-04 -3.461889e-05 -5.744723e-04 -1.008692e-03 -5.147560e-04 -3.456842e-04 -2.842477e-04 -1.712629e-04 -1.043069e-04 -1.042123e-04 -1.599925e-04 2.265768e-04 3.123725e-04 1.554355e-04 6.407256e-05 3.202051e-05 2.550132e-06 -8.605023e-05 -4.035931e-05 6.245828e-05 1.731384e-04
<VARIANCE> 39
 1.691128e+04 3.482280e+01 1.675526e+00 5.056660e-02 2.096454e-01 7.342419e-02 1.031673e-02 1.602934e-02 8.791048e-03 3.093965e-02 8.073948e-02 7.061382e-02 1.892932e-01 5.452169e-02 5.308087e-03 7.404585e-05 1.549917e-04 6.897560e-05 4.889508e-05 9.886504e-05 7.098764e-05 1.330581e-04 6.048083e-05 4.794883e-05 2.603964e-05 3.182549e-05 8.710356e-05 4.695787e-06 9.359014e-06 4.918480e-06 4.574132e-06 5.874065e-06 3.371783e-06 5.600704e-06 2.254236e-06 2.661508e-06 2.185093e-06 1.852241e-06 3.947127e-06
<GCONST> -2.186015e+02
<TRANSP> 3
 0.000000e+00 1.000000e+00 0.000000e+00
 0.000000e+00 8.619978e-01 1.380021e-01
 0.000000e+00 0.000000e+00 0.000000e+00
<ENDHMM>
~h "Tab0060"
<BEGINHMM>
<NUMSTATES> 3
<STATE> 2
<MEAN> 39
 -4.263568e+02 2.083601e+00 -1.793142e-01 3.440761e-01 3.598404e-01 3.611348e-01 2.979689e-01 2.713856e-01 2.299178e-01 2.248554e-01 2.128773e-01 2.619095e-01 3.287709e-01 3.325925e-01 3.730070e-01 -1.958695e-03 -3.962979e-03 -3.717584e-03 7.789731e-04 5.209435e-03 3.884375e-03 6.022828e-04 -1.327823e-03 -2.930576e-03 -3.107519e-03 -1.203460e-03 -3.910403e-04 3.271950e-04 -8.696010e-04 -1.127552e-03 -5.949495e-04 -2.176621e-04 -1.207602e-03 -2.177726e-03 -1.122248e-03 5.798679e-04 9.534063e-04 9.242471e-04 1.013008e-03
<VARIANCE> 39
 2.087195e+04 1.857363e+02 1.078308e+01 7.983879e-02 1.110718e-01 1.221147e-01 7.074067e-02 9.828892e-02 5.579944e-02 8.239181e-02 5.497097e-02 6.934161e-02 1.094753e-01 6.795321e-02 1.443636e-01 2.118407e-03 3.156226e-03 3.002207e-03 2.386579e-03 3.472073e-03 1.535772e-03 1.306846e-03 1.096813e-03 1.846458e-03 2.984208e-03 1.428701e-03 3.105849e-03 1.176688e-04 1.835079e-04 1.440377e-04 1.378797e-04 1.982015e-04 1.028309e-04 1.359492e-04 7.742632e-05 9.308994e-05 1.387398e-04 7.655534e-05 2.087291e-04
<GCONST> -1.217330e+02
<TRANSP> 3
 0.000000e+00 1.000000e+00 0.000000e+00
 0.000000e+00 6.898625e-01 3.101374e-01
 0.000000e+00 0.000000e+00 0.000000e+00
<ENDHMM>
~h "Tab0061"
<BEGINHMM>
<NUMSTATES> 3
<STATE> 2
<MEAN> 39
 -4.743219e+02 -2.114520e+00 5.741063e-01 1.299931e-01 2.110633e-01 2.221570e-01 3.190373e-01 4.736975e-01 2.815751e-01 1.030719e-01 1.028311e-01 4.426744e-01 7.943669e-01 4.585515e-01 1.561483e-01 -1.840604e-04 -3.309085e-04 -1.010017e-03 -7.280394e-03 -1.451906e-02 -7.727525e-03 1.443176e-03 3.204980e-03 7.260324e-03 1.113413e-02 5.586207e-03 -1.015448e-04 9.371170e-04 1.519399e-03 2.611822e-03 6.554004e-04 -1.488455e-03 -4.213249e-04 2.308131e-03 4.030328e-03 1.985303e-04 -3.393474e-03 -8.414625e-04 1.554526e-03
<VARIANCE> 39
 8.531468e+03 1.242412e+02 8.118731e+00 9.728079e-03 2.692426e-02 9.531284e-02 3.107999e-02 8.138767e-02 3.308313e-02 7.727104e-03 7.124364e-03 3.556282e-02 1.319454e-01 3.186788e-02 1.175698e-02 2.117856e-04 4.074089e-04 4.332366e-04 3.445373e-04 8.691766e-04 3.155555e-04 3.291389e-04 9.446774e-04 6.668551e-04 2.861161e-03 5.401570e-04 5.207509e-04 1.500728e-05 3.570225e-05 3.537104e-05 2.835428e-05 7.364292e-05 2.523971e-05 2.305885e-05 6.928862e-05 5.218947e-05 1.742414e-04 3.591054e-05 2.594545e-05
<GCONST> -1.674647e+02
<TRANSP> 3
 0.000000e+00 1.000000e+00 0.000000e+00
 0.000000e+00 8.727411e-01 1.272589e-01
 0.000000e+00 0.000000e+00 0.000000e+00
<ENDHMM>
~h "Tab0062"
<BEGINHMM>
<NUMSTATES> 3
<STATE> 2
<MEAN> 39
 -5.612894e+02 4.751395e-02 -4.118101e-02 2.830979e-01 3.348278e-01 4.112976e-01 4.768749e-01 5.156709e-01 3.098246e-01 1.625826e-01 1.719630e-01 1.320633e-01 1.032803e-01 1.364175e-01 2.422954e-01 -2.722585e-03 -7.961735e-04 8.467208e-04 1.914303e-03 2.003246e-03 1.344576e-03 7.103211e-04 5.130768e-04 6.056930e-04 6.911449e-04 9.549689e-05 -1.964158e-03 7.823120e-05 -2.747928e-04 -1.597851e-04 -3.280895e-04 -3.048266e-04 -1.644592e-04 4.177559e-05 1.963220e-04 2.832107e-04 2.392077e-04 5.626079e-05 2.184055e-04
<VARIANCE> 39
 7.635117e+03 1.706802e+02 1.023720e+01 1.226421e-01 8.738828e-02 1.680454e-01 8.237111e-02 1.781032e-01 6.516048e-02 3.307268e-02 7.361739e-02 3.530084e-02 2.314782e-02 4.027968e-02 9.012172e-02 4.285133e-03 2.920490e-03 4.936219e-03 1.597188e-03 5.096067e-03 1.859676e-03 1.409665e-03 2.885981e-03 1.434959e-03 8.817944e-04 1.378763e-03 3.226778e-03 2.472723e-04 1.577501e-04 2.334082e-04 7.430436e-05 2.541907e-04 9.891826e-05 8.812603e-05 1.805905e-04 9.526507e-05 6.008352e-05 8.152817e-05 1.846014e-04
<GCONST> -1.242308e+02
<TRANSP> 3
 0.000000e+00 1.000000e+00 0.000000e+00
 0.000000e+00 8.866713e-01 1.133287e-01
 0.000000e+00 0.000000e+00 0.000000e+00
<ENDHMM>
~h "Tab0063"
<BEGINHMM>
<NUMSTATES> 3
<STATE> 2
<MEAN> 39
 -3.344309e+02 6.708524e-01 1.266937e-01 3.286989e-01 2.549596e-01 2.137469e-01 2.468142e-01 2.814888e-01 3.369047e-01 3.814877e-01 3.676271e-01 3.723679e-01 3.605367e-01 3.947196e-01 4.046187e-01 -1.232782e-04 4.642378e-04 -2.490436e-04 -8.777371e-04 -2.142884e-04 1.230981e-03 2.044433e-03 1.158032e-03 1.930146e-04 2.406047e-04 5.943648e-05 -6.028764e-04 -2.007282e-04 -4.878563e-05 1.398244e-04 1.163749e-04 9.217966e-05 1.150709e-04 -1.076478e-04 -4.094969e-04 -3.876893e-04 -2.542532e-04 -1.323501e-04 -1.128385e-04
<VARIANCE> 39
 1.986280e+04 1.573112e+02 9.986540e+00 1.020924e-01 9.554745e-02 4.967415e-02 8.187224e-02 6.952567e-02 9.183680e-02 8.569013e-02 7.675084e-02 1.085616e-01 7.615657e-02 1.162116e-01 1.214457e-01 1.973358e-03 1.705646e-03 1.233871e-03 2.148717e-03 1.574272e-03 1.828574e-03 1.794556e-03 1.853345e-03 3.182369e-03 2.217693e-03 2.384633e-03 2.452980e-03 1.102200e-04 1.006706e-04 7.493409e-05 1.242971e-04 9.311873e-05 1.078828e-04 1.094781e-04 1.099573e-04 1.900307e-04 1.249661e-04 1.223422e-04 1.290620e-04
<GCONST> -1.240399e+02
<TRANSP> 3
 0.000000e+00 1.000000e+00 0.000000e+00
 0.000000e+00 6.466711e-01 3.533289e-01
 0.000000e+00 0.000000e+00 0.000000e+00
<ENDHMM>
~h "Tab0064"
<BEGINHMM>
<NUMSTATES> 3
<STATE> 2
<MEAN> 39
 -3.710511e+02 -7.795603e-01 -1.343842e-01 3.844886e-01 3.633709e-01 3.718399e-01 3.522001e-01 4.036927e-01 3.298737e-01 3.498305e-01 4.204741e-01 4.171427e-01 4.432189e-01 3.715865e-01 3.980066e-01 -5.969051e-04 -5.007144e-04 1.183274e-04 -4.091002e-06 -6.480863e-04 -5.421677e-04 -4.578902e-04 -6.269161e-04 -1.075796e-03 -7.529252e-04 -3.294989e-04 -3.679138e-04 1.124666e-04 2.950110e-04 3.466870e-04 3.727229e-04 1.798314e-04 1.889270e-04 2.123013e-04 1.590632e-04 1.540924e-04 1.779407e-04 2.322868e-04 1.744642e-04
<VARIANCE> 39
 2.061674e+04 4.801434e+01 3.162771e+00 8.889514e-02 7.552671e-02 1.222103e-01 4.682911e-02 1.358744e-01 5.490202e-02 7.297505e-02 1.247439e-01 5.644777e-02 1.362392e-01 5.893559e-02 8.716509e-02 2.432225e-04 2.664092e-04 3.780035e-04 2.271641e-04 3.668776e-04 2.480116e-04 2.849421e-04 3.266941e-04 4.230554e-04 2.907672e-04 2.729079e-04 4.288421e-04 1.490236e-05 1.777293e-05 2.809964e-05 1.568934e-05 2.944193e-05 1.708116e-05 1.870928e-05 2.066143e-05 2.717210e-05 2.246150e-05 1.712502e-05 2.582405e-05
<GCONST> -1.698004e+02
<TRANSP> 3
 0.000000e+00 1.000000e+00 0.000000e+00
 0.000000e+00 8.943663e-01 1.056338e-01
 0.000000e+00 0.000000e+00 0.000000e+00
<ENDHMM>
~h "Tab0066"
<BEGINHMM>
<NUMSTATES> 3
<STATE> 2
<MEAN> 39
 -4.606013e+02 9.446387e-01 9.654708e-03 3.573386e-01 3.474140e-01 3.948530e-01 3.525807e-01 3.794649e-01 3.592330e-01 3.622126e-01 3.979806e-01 3.693028e-01 3.610080e-01 3.537055e-01 4.042101e-01 2.254414e-04 -5.854013e-04 -5.889544e-04 -1.545150e-03 -2.329619e-03 -1.270076e-03 4.949506e-04 4.091066e-04 3.500145e-04 6.442213e-04 -3.242767e-04 -5.860522e-04 -3.719197e-04 -3.852101e-04 -1.558905e-04 -2.502581e-04 -4.041382e-04 -4.556651e-04 -4.079652e-04 -5.228703e-04 -6.333126e-04 -6.733770e-04 -6.150018e-04 -4.257141e-04
<VARIANCE> 39
 3.064655e+04 4.688326e+02 2.309887e+01 9.974699e-02 7.093004e-02 1.278158e-01 6.580812e-02 1.184632e-01 8.980253e-02 7.951438e-02 1.160296e-01 7.627983e-02 1.034809e-01 8.005145e-02 1.100818e-01 2.252326e-03 1.628861e-03 3.142140e-03 1.354144e-03 2.975345e-03 1.975350e-03 1.534070e-03 2.515687e-03 1.765164e-03 2.182761e-03 1.454565e-03 2.273421e-03 1.190354e-04 8.287235e-05 1.412970e-04 6.388263e-05 1.381157e-04 1.045963e-04 8.553392e-05 1.389935e-04 9.672539e-05 1.071646e-04 7.428630e-05 1.063271e-04
<GCONST> -1.220122e+02
<TRANSP> 3
 0.000000e+00 1.000000e+00 0.000000e+00
 0.000000e+00 9.060181e-01 9.398186e-02
 0.000000e+00 0.000000e+00 0.000000e+00
<ENDHMM>
~h "Tab0068"
<BEGINHMM>
<NUMSTATES> 3
<STATE> 2
<MEAN> 39
 -4.266810e+02 -8.209887e-01 -4.614454e-02 1.308885e-01 1.960286e-01 1.715090e-01 1.468317e-01 1.746817e-01 3.143806e-01 4.753177e-01 5.971096e-01 6.849068e-01 4.575334e-01 1.974736e-01 1.132958e-01 -1.168875e-03 -1.295245e-03 -9.376726e-04 -5.582797e-04 -5.725104e-04 8.433401e-04 2.279429e-03 2.090120e-03 1.562208e-03 -9.878465e-04 -1.347852e-03 -6.682819e-04 5.483349e-04 4.678777e-04 1.853088e-04 6.277902e-05 7.196848e-05 2.406818e-05 -1.421102e-04 -3.030230e-04 -2.142820e-04 -1.329613e-04 6.036138e-05 2.947438e-04
<VARIANCE> 39
 1.228442e+04 1.075690e+02 6.783077e+00 2.760566e-02 6.366421e-02 3.402950e-02 2.192728e-02 3.548857e-02 7.099967e-02 1.269194e-01 6.433018e-02 1.390892e-01 7.544761e-02 3.751341e-02 2.237063e-02 3.232441e-04 5.801042e-04 4.808194e-04 3.382726e-04 5.892622e-04 1.418683e-03 2.837561e-03 1.096026e-03 2.200068e-03 9.588079e-04 5.731680e-04 3.560735e-04 1.817704e-05 2.590792e-05 2.464671e-05 1.910919e-05 3.414013e-05 7.960312e-05 1.554982e-04 6.719115e-05 1.169969e-04 5.004536e-05 3.216037e-05 2.026987e-05
<GCONST> -1.557205e+02
<TRANSP> 3
 0.000000e+00 1.000000e+00 0.000000e+00
 0.000000e+00 9.458581e-01 5.414189e-02
 0.000000e+00 0.000000e+00 0.000000e+00
<ENDHMM>
~h "Tab0072"
<BEGINHMM>
<NUMSTATES> 3
<STATE> 2
<MEAN> 39
 -5.838771e+02 -3.299319e-01 2.537190e-02 6.204100e-02 2.978417e-02 2.732123e-02 7.088392e-02 1.339329e-01 1.022788e-01 4.607689e-02 2.999703e-02 4.730153e-02 7.046223e-02 7.553138e-02 9.245168e-02 1.598409e-04 -1.194235e-04 -2.310409e-04 -9.982770e-05 -5.310278e-05 -5.225131e-05 -1.456898e-04 -1.611490e-04 -8.820267e-05 2.647555e-05 2.933576e-04 2.985570e-04 6.013337e-05 7.534115e-05 8.603414e-05 4.609203e-05 2.026757e-05 2.602182e-05 7.389030e-05 1.095467e-04 7.607880e-05 5.552024e-05 9.124509e-05 4.521167e-05
<VARIANCE> 39
 1.207631e+04 3.751640e+00 2.131678e-01 2.563927e-02 5.784011e-03 6.178934e-03 2.465484e-02 9.658676e-02 5.252394e-02 1.403017e-02 8.103484e-03 1.797833e-02 4.805681e-02 3.333808e-02 6.380618e-02 3.737531e-05 2.053992e-05 4.732620e-05 5.380996e-05 7.430789e-05 6.964050e-05 4.537253e-05 3.060127e-05 2.631450e-05 2.109849e-05 3.567872e-05 7.700341e-05 1.592724e-06 9.241529e-07 1.886578e-06 3.870335e-06 6.174457e-06 5.005814e-06 2.962415e-06 1.852315e-06 2.398090e-06 1.668598e-06 1.603049e-06 3.276336e-06
<GCONST> -2.408334e+02
<TRANSP> 3
 0.000000e+00 1.000000e+00 0.000000e+00
 0.000000e+00 9.370587e-01 6.294128e-02
 0.000000e+00 0.000000e+00 0.000000e+00
<ENDHMM>
~h "Tab0074"
<BEGINHMM>
<NUMSTATES> 3
<STATE> 2
<MEAN> 39
 -4.669286e+02 -1.066255e+00 -5.144457e-02 3.076355e-01 3.969749e-01 2.454312e-01 8.544929e-02 8.101061e-02 1.237065e-01 2.030766e-01 2.219570e-01 2.104111e-01 1.800072e-01 1.794666e-01 2.103250e-01 2.507209e-04 2.476781e-04 3.083187e-06 -3.767120e-05 -4.595197e-04 -1.106401e-03 -2.589724e-03 -2.224116e-03 -8.373890e-04 -1.113757e-03 -1.162435e-03 -4.724925e-04 4.339028e-05 -3.872821e-05 2.980088e-04 6.450021e-04 8.899860e-04 8.635122e-04 3.098672e-04 6.733786e-04 1.409689e-03 6.494280e-04 -3.196220e-04 3.821799e-06
<VARIANCE> 39
 3.970315e+04 5.864990e+01 4.130524e+00 8.782941e-02 1.873148e-01 7.477938e-02 1.230833e-02 1.010212e-02 2.542631e-02 7.317569e-02 6.715268e-02 7.722703e-02 4.944940e-02 7.441462e-02 1.031419e-01 2.674254e-04 2.141935e-04 2.000913e-04 1.748251e-04 2.873001e-04 4.332458e-04 5.899968e-04 5.110721e-04 6.545332e-04 5.369431e-04 2.440371e-04 2.573320e-04 1.871040e-05 1.461906e-05 1.414457e-05 1.052629e-05 1.870596e-05 2.562876e-05 3.208973e-05 3.081041e-05 4.969169e-05 3.415857e-05 2.490292e-05 1.873156e-05
<GCONST> -1.720842e+02
<TRANSP> 3
 0.000000e+00 1.000000e+00 0.000000e+00
 0.000000e+00 8.871639e-01 1.128362e-01
 0.000000e+00 0.000000e+00 0.000000e+00
<ENDHMM>
~h "Tab0075"
<BEGINHMM>
<NUMSTATES> 3
<STATE> 2
<MEAN> 39
 -6.897988e+02 -1.499257e-01 3.063718e-02 4.935916e-03 5.418885e-03 4.488193e-03 4.336574e-03 3.354204e-03 1.372173e-02 2.448260e-02 3.633633e-02 4.678281e-02 2.667069e-02 7.408975e-03 5.251671e-03 4.227053e-05 3.302018e-05 1.669606e-05 -1.415601e-05 2.904850e-05 9.860035e-05 6.630336e-05 -5.248502e-05 -8.052394e-05 6.362704e-05 1.342813e-04 6.285448e-05 9.437332e-06 1.312422e-05 1.958861e-05 2.103802e-05 2.977786e-05 4.035927e-05 1.068008e-04 2.952800e-05 -2.337925e-06 7.863613e-05 5.091922e-05 1.333309e-05
<VARIANCE> 39
 6.936266e+03 2.059294e+00 1.261600e-01 1.129226e-03 2.329228e-03 1.011769e-03 6.844017e-04 1.068953e-03 6.215369e-03 2.021245e-02 1.947895e-02 4.242968e-02 1.445415e-02 2.377205e-03 1.260733e-03 7.738464e-06 1.387939e-05 8.173934e-06 6.020874e-06 9.842092e-06 7.769793e-06 1.593829e-05 1.121380e-05 1.172683e-05 1.015375e-05 6.066088e-06 8.300907e-06 4.039318e-07 6.216641e-07 4.262554e-07 3.326209e-07 5.388900e-07 4.357443e-07 1.202388e-06 8.369509e-07 8.054415e-07 7.726324e-07 6.470095e-07 4.497233e-07
<GCONST> -2.989984e+02
<TRANSP> 3
 0.000000e+00 1.000000e+00 0.000000e+00
 0.000000e+00 9.677660e-01 3.223395e-02
 0.000000e+00 0.000000e+00 0.000000e+00
<ENDHMM>
~h "Tab0079"
<BEGINHMM>
<NUMSTATES> 3
<STATE> 2
<MEAN> 39
 -4.195103e+02 2.039206e+00 -1.919934e-01 5.530220e-01 4.291683e-01 3.197630e-01 3.039685e-01 3.600046e-01 3.767090e-01 3.753338e-01 3.687509e-01 3.947529e-01 4.201475e-01 3.606557e-01 4.477275e-01 2.071815e-03 9.606611e-04 -3.219947e-04 -6.293121e-04 -1.486533e-03 -1.461571e-03 -2.796551e-04 1.234544e-03 1.352019e-03 1.499746e-04 2.668332e-04 1.124576e-03 -1.449166e-03 -1.156636e-03 -5.209559e-04 -5.544659e-04 -2.954733e-04 -3.068194e-04 -5.616732e-04 -5.942010e-04 -5.618739e-04 -3.901499e-04 -5.508562e-04 -8.905988e-04
<VARIANCE> 39
 3.294004e+04 4.187786e+02 2.513754e+01 1.531561e-01 6.626809e-02 1.084442e-01 5.739775e-02 9.921524e-02 1.067135e-01 8.928797e-02 9.085704e-02 7.964465e-02 1.146641e-01 7.747043e-02 9.385669e-02 4.554919e-03 1.843463e-03 2.786438e-03 1.513713e-03 2.414144e-03 2.197098e-03 1.901398e-03 2.544890e-03 2.352940e-03 3.079210e-03 2.086328e-03 2.612232e-03 2.125199e-04 8.723350e-05 1.363240e-04 7.702167e-05 1.125643e-04 9.895014e-05 9.918854e-05 1.339128e-04 1.268135e-04 1.503568e-04 1.101536e-04 1.354336e-04
<GCONST> -1.181362e+02
<TRANSP> 3
 0.000000e+00 1.000000e+00 0.000000e+00
 0.000000e+00 8.772994e-01 1.227006e-01
 0.000000e+00 0.000000e+00 0.000000e+00
<ENDHMM>
~h "Tab0083"
<BEGINHMM>
<NUMSTATES> 3
<STATE> 2
<MEAN> 39
 -2.524350e+02 -8.305322e-02 6.605033e-03 5.023835e-01 4.955532e-01 7.300507e-01 7.488579e-01 7.334101e-01 5.611579e-01 4.650323e-01 5.390978e-01 7.675504e-01 7.708451e-01 6.283823e-01 6.691843e-01 4.882418e-04 -7.811903e-04 -1.270269e-03 -1.798388e-03 -1.460894e-03 -2.000680e-04 -3.586384e-05 -7.114497e-04 -4.587661e-04 -2.827249e-04 9.093987e-04 1.728399e-03 4.593575e-05 9.835681e-05 -2.011773e-04 -3.234175e-04 -2.279558e-05 -7.762734e-05 -1.461898e-04 7.086991e-05 -6.159778e-06 6.925221e-05 3.320618e-04 1.224159e-04
<VARIANCE> 39
 4.865310e+02 1.648368e+00 9.713050e-02 4.380682e-02 1.881310e-02 3.963812e-02 3.529203e-02 9.311854e-02 5.797712e-02 2.777293e-02 6.337412e-02 6.682676e-02 2.626949e-02 3.817951e-02 1.008174e-01 1.335842e-04 1.697986e-04 1.520814e-04 4.009861e-04 1.062759e-04 3.283763e-04 8.257914e-05 3.172617e-04 2.582903e-04 3.324851e-04 2.187168e-04 1.505852e-04 6.897672e-06 6.854430e-06 7.473081e-06 1.403449e-05 6.448124e-06 2.676058e-05 6.085359e-06 2.325323e-05 1.431739e-05 1.497755e-05 8.476697e-06 4.258040e-06
<GCONST> -2.016713e+02
<TRANSP> 3
 0.000000e+00 1.000000e+00 0.000000e+00
 0.000000e+00 7.242140e-01 2.757860e-01
 0.000000e+00 0.000000e+00 0.000000e+00
<ENDHMM>
~h "Tab0084"
<BEGINHMM>
<NUMSTATES> 3
<STATE> 2
<MEAN> 39
 -4.418124e+02 4.531558e+00 -4.400982e-01 3.259797e-01 3.985292e-01 3.379582e-01 2.874527e-01 2.971318e-01 3.392277e-01 3.512437e-01 2.604791e-01 1.844794e-01 1.458340e-01 1.878328e-01 2.568095e-01 3.635176e-03 6.693933e-03 3.928988e-03 1.723564e-04 -6.141186e-04 2.681968e-04 3.889415e-04 2.040848e-03 3.948450e-03 2.965057e-03 3.161108e-03 2.968228e-03 1.719554e-04 6.281174e-05 -2.843361e-04 -4.716734e-04 -5.482901e-04 -7.140919e-04 -8.220008e-04 -3.047377e-04 3.433106e-04 4.264211e-04 1.641688e-04 1.634272e-05
<VARIANCE> 39
 1.914542e+04 3.672473e+02 2.296312e+01 9.104538e-02 1.513348e-01 8.947728e-02 1.161041e-01 6.868780e-02 6.859633e-02 1.227385e-01 5.421601e-02 3.008543e-02 1.782017e-02 4.670729e-02 1.065199e-01 2.033139e-03 2.784377e-03 1.959742e-03 2.887646e-03 1.375806e-03 1.713809e-03 3.130193e-03 1.483836e-03 1.017686e-03 6.812194e-04 6.354292e-04 1.650201e-03 7.994894e-05 1.088611e-04 8.267868e-05 1.267547e-04 8.743203e-05 8.254790e-05 1.193995e-04 6.142860e-05 6.181612e-05 3.386132e-05 2.996501e-05 7.754457e-05
<GCONST> -1.331065e+02
<TRANSP> 3
 0.000000e+00 1.000000e+00 0.000000e+00
 0.000000e+00 7.617130e-01 2.382869e-01
 0.000000e+00 0.000000e+00 0.000000e+00
<ENDHMM>
~h "Tab0085"
<BEGINHMM>
<NUMSTATES> 3
<STATE> 2
<MEAN> 39
 -3.037907e+02 5.428509e-01 -1.285779e-01 4.604259e-01 2.299038e-01 1.999343e-01 1.863193e-01 1.537885e-01 2.892791e-01 4.471763e-01 3.161677e-01 2.123607e-01 2.574472e-01 5.603421e-01 7.572439e-01 3.483867e-04 -2.787614e-04 -8.593355e-04 -5.511742e-06 4.311251e-04 -2.624695e-04 -8.521703e-04 -8.393337e-04 -5.307612e-04 -2.074842e-04 5.086167e-04 9.397042e-04 -3.923563e-05 -1.293898e-05 -8.217525e-06 6.481634e-05 1.525349e-04 1.089911e-04 -1.040241e-05 -2.752244e-05 6.759417e-05 1.759476e-04 1.101594e-04 -2.852131e-05
<VARIANCE> 39
 2.125192e+04 3.641028e+02 2.304911e+01 5.069176e-02 4.014014e-02 3.692245e-02 1.822935e-02 3.091405e-02 3.408398e-02 7.494003e-02 4.010459e-02 3.751524e-02 5.271560e-02 7.721388e-02 1.510250e-01 5.378351e-04 1.053561e-03 7.920553e-04 3.048838e-04 5.574728e-04 9.030954e-04 2.082515e-03 9.622771e-04 1.173549e-03 1.444047e-03 7.106331e-04 3.810912e-04 2.836102e-05 5.319967e-05 3.757254e-05 1.544919e-05 2.679025e-05 4.917557e-05 1.165866e-04 5.173447e-05 7.138357e-05 7.416280e-05 3.812253e-05 2.144961e-05
<GCONST> -1.527509e+02
<TRANSP> 3
 0.000000e+00 1.000000e+00 0.000000e+00
 0.000000e+00 9.353411e-01 6.465892e-02
 0.000000e+00 0.000000e+00 0.000000e+00
<ENDHMM>
~h "Tab0086"
<BEGINHMM>
<NUMSTATES> 3
<STATE> 2
<MEAN> 39
 -4.190062e+02 1.220420e+00 -3.153875e-01 3.495929e-01 2.793251e-01 3.047119e-01 3.173691e-01 3.441835e-01 3.049991e-01 3.204709e-01 3.348537e-01 3.654001e-01 3.940093e-01 3.774809e-01 4.298150e-01 3.468391e-04 6.853957e-04 1.696604e-04 -1.472293e-03 -8.211798e-04 2.830373e-04 1.964509e-04 9.938003e-04 1.766178e-03 2.145111e-03 2.190527e-03 1.529948e-03 -1.830055e-04 -3.567411e-04 -5.999346e-04 -4.971113e-04 -2.470828e-04 -2.069516e-04 -2.772025e-04 -3.633128e-04 -6.880047e-04 -5.689207e-04 -3.064907e-04 -2.265880e-04
<VARIANCE> 39
 2.841187e+04 3.920540e+02 2.314487e+01 9.927625e-02 5.984364e-02 1.134703e-01 7.199343e-02 1.131475e-01 6.803503e-02 8.651299e-02 8.403887e-02 9.118634e-02 1.240225e-01 7.715130e-02 1.389417e-01 2.345775e-03 1.268759e-03 2.746815e-03 1.836441e-03 3.152727e-03 1.469974e-03 2.078245e-03 2.543341e-03 2.207629e-03 2.873656e-03 1.686805e-03 3.180469e-03 1.041384e-04 6.327641e-05 1.314645e-04 9.290223e-05 1.433831e-04 7.540522e-05 1.201047e-04 1.474911e-04 1.247618e-04 1.535529e-04 7.991895e-05 1.488371e-04
<GCONST> -1.204229e+02
<TRANSP> 3
 0.000000e+00 1.000000e+00 0.000000e+00
 0.000000e+00 7.927747e-01 2.072252e-01
 0.000000e+00 0.000000e+00 0.000000e+00
<ENDHMM>
~h "Tab0087"
<BEGINHMM>
<NUMSTATES> 3
<STATE> 2
<MEAN> 39
 -5.151290e+02 -3.022752e+00 1.934848e-01 5.623242e-02 1.090623e-01 2.776252e-01 4.420909e-01 3.174229e-01 3.498408e-01 4.682618e-01 2.429059e-01 5.470726e-02 6.183165e-02 8.138870e-02 5.323973e-02 -7.281911e-04 -9.909947e-04 -1.868110e-04 -5.578898e-04 -1.279742e-03 -9.290336e-04 -6.153100e-04 -9.348898e-04 -1.254564e-03 -1.402619e-03 -1.983159e-03 -1.434254e-03 9.818107e-05 1.541582e-04 9.571331e-05 4.288312e-05 3.838108e-05 6.402902e-05 3.499197e-05 3.556584e-05 1.230862e-04 1.319201e-04 1.033933e-04 6.739186e-05
<VARIANCE> 39
 8.925570e+03 1.960853e+01 1.482799e+00 1.023227e-02 4.175834e-02 7.759956e-02 2.026240e-01 6.789062e-02 9.051622e-02 1.984403e-01 5.422828e-02 2.492515e-03 2.166348e-03 5.850418e-03 4.348630e-03 1.749955e-05 2.521758e-05 1.593855e-05 1.361487e-05 5.390645e-05 4.264994e-05 3.117185e-05 1.919730e-05 2.760963e-05 4.063054e-05 5.777664e-05 2.746153e-05 2.092802e-06 2.649144e-06 1.600511e-06 1.375810e-06 3.661890e-06 3.327497e-06 2.517588e-06 1.840215e-06 1.721507e-06 2.471057e-06 4.425784e-06 3.753021e-06
<GCONST> -2.408818e+02
<TRANSP> 3
 0.000000e+00 1.000000e+00 0.000000e+00
 0.000000e+00 9.491006e-01 5.089947e-02
 0.000000e+00 0.000000e+00 0.000000e+00
<ENDHMM>
~h "Tab0088"
<BEGINHMM>
<NUMSTATES> 3
<STATE> 2
<MEAN> 39
 -3.437104e+02 -1.419343e-01 1.913301e-02 4.239708e-01 1.381866e-01 1.478769e-01 2.417822e-01 2.058748e-01 1.695574e-01 2.116607e-01 1.864356e-01 1.999447e-01 2.376048e-01 4.917502e-01 7.053747e-01 6.764312e-04 -2.687218e-05 -2.778544e-04 -3.175855e-04 -2.443052e-04 -3.625026e-05 9.406314e-06 -4.070051e-05 -2.658156e-04 -8.475354e-04 -2.072232e-04 8.457486e-04 1.026544e-05 7.726644e-05 1.404126e-04 6.796166e-05 2.971642e-05 5.705377e-05 8.716106e-05 1.250978e-04 1.078324e-04 4.698158e-05 -3.040778e-05 -6.600410e-05
<VARIANCE> 39
 1.646520e+04 5.873331e+01 2.705212e+00 5.994106e-02 1.207917e-02 3.123587e-02 8.326211e-02 8.095303e-02 2.515421e-02 3.863028e-02 2.262231e-02 6.247072e-02 6.611449e-02 5.792557e-02 1.513270e-01 1.414439e-03 2.172828e-04 1.236916e-03 3.172835e-03 3.251594e-03 1.032259e-03 1.402624e-03 7.793951e-04 2.359065e-03 2.060717e-03 8.765461e-04 5.019360e-03 7.616176e-05 1.073522e-05 8.191657e-05 1.961199e-04 1.947928e-04 6.406860e-05 9.214807e-05 5.035814e-05 1.457276e-04 1.254613e-04 4.065529e-05 2.932386e-04
<GCONST> -1.408575e+02
<TRANSP> 3
 0.000000e+00 1.000000e+00 0.000000e+00
 0.000000e+00 9.492702e-01 5.072980e-02
 0.000000e+00 0.000000e+00 0.000000e+00
<ENDHMM>
~h "Tab0090"
<BEGINHMM>
<NUMSTATES> 3
<STATE> 2
<MEAN> 39
 -3.169564e+02 -1.565424e-01 -2.301752e-02 3.779967e-01 3.720485e-01 3.819191e-01 4.208950e-01 5.162836e-01 4.330940e-01 4.269397e-01 4.814385e-01 5.147322e-01 5.866238e-01 4.381624e-01 3.878671e-01 -1.219215e-04 -6.690607e-08 3.527288e-04 4.642536e-04 2.111390e-04 -1.656551e-04 -2.690926e-04 -1.256215e-04 7.026482e-05 6.091937e-05 1.412594e-04 1.152752e-04 9.782402e-07 2.709462e-05 8.423469e-05 2.994238e-05 -4.667863e-05 -6.528634e-05 -2.581801e-05 1.212225e-05 -1.799379e-06 -7.910740e-06 3.533237e-05 4.412684e-05
<VARIANCE> 39
 2.073056e+04 7.189220e+02 5.485614e+01 8.670270e-02 3.931283e-02 9.120975e-02 4.305459e-02 9.579315e-02 5.269800e-02 6.855585e-02 7.810082e-02 6.786928e-02 1.336426e-01 4.946695e-02 6.101472e-02 4.241103e-04 4.330392e-04 9.914704e-04 6.066604e-04 1.361905e-03 7.961001e-04 1.472428e-03 1.825759e-03 7.116412e-04 1.150209e-03 5.826633e-04 6.848297e-04 2.331966e-05 2.142563e-05 4.891966e-05 3.494548e-05 7.187273e-05 5.037663e-05 8.950872e-05 1.135475e-04 4.470920e-05 6.945171e-05 3.208297e-05 4.042525e-05
<GCONST> -1.446908e+02
<TRANSP> 3
 0.000000e+00 1.000000e+00 0.000000e+00
 0.000000e+00 9.714714e-01 2.852854e-02
 0.000000e+00 0.000000e+00 0.000000e+00
<ENDHMM>
~h "Tab0091"
<BEGINHMM>
<NUMSTATES> 3
<STATE> 2
<MEAN> 39
 -6.958510e+02 -1.804475e-01 3.539148e-02 1.810029e-02 1.244130e-02 7.360511e-03 1.116987e-02 1.721333e-02 1.071828e-02 7.887741e-03 2.435260e-02 5.709693e-02 6.691673e-02 3.457404e-02 1.633131e-02 -2.911609e-04 -1.937563e-04 1.139156e-04 -3.445677e-05 -2.221046e-04 -3.906457e-05 1.196338e-04 1.267227e-04 9.498425e-05 -1.679835e-04 -2.194781e-04 -1.672881e-04 2.797881e-05 3.897278e-05 5.942195e-05 1.102898e-05 -3.998999e-05 -1.107668e-05 6.098151e-05 6.386086e-05 1.312801e-05 3.239627e-05 4.969132e-05 4.606415e-05
<VARIANCE> 39
 7.321247e+03 1.648368e+00 9.713050e-02 1.336187e-02 6.669256e-03 2.237926e-03 3.829148e-03 1.066076e-02 4.059550e-03 2.445644e-03 1.237856e-02 3.741335e-02 5.340102e-02 1.530003e-02 8.899335e-03 1.972434e-05 6.166462e-06 2.986637e-05 1.814685e-05 7.122316e-05 2.189763e-05 2.214936e-05 3.199780e-05 1.083844e-05 9.102586e-06 7.728892e-06 3.002457e-05 4.097263e-07 7.109495e-07 4.262554e-07 6.247552e-07 1.395807e-06 5.695338e-07 1.199393e-06 2.100243e-06 6.534715e-07 4.840364e-07 6.790579e-07 1.571926e-06
<GCONST> -2.772892e+02
<TRANSP> 3
 0.000000e+00 1.000000e+00 0.000000e+00
 0.000000e+00 9.076443e-01 9.235562e-02
 0.000000e+00 0.000000e+00 0.000000e+00
<ENDHMM>
~h "Tab0092"
<BEGINHMM>
<NUMSTATES> 3
<STATE> 2
<MEAN> 39
 -6.725793e+02 -3.634245e-01 2.373711e-02 5.349573e-03 6.856684e-03 5.628859e-02 1.176904e-01 1.143519e-01 1.471790e-01 1.728548e-01 7.913154e-02 8.864634e-03 6.924459e-03 6.482163e-03 4.450608e-03 -5.306840e-05 -6.921239e-05 -9.375942e-06 -3.641394e-05 -5.788516e-05 -2.955288e-05 -3.013797e-05 -6.657984e-05 -9.678154e-05 -1.197722e-04 -1.173256e-04 -6.676009e-05 5.018419e-07 1.446373e-06 9.034336e-06 5.421084e-06 7.008748e-08 4.969784e-06 4.065079e-06 4.337414e-06 9.198946e-06 2.124347e-05 2.559703e-05 1.266524e-05
<VARIANCE> 39
 4.365221e+03 1.648368e+00 9.713050e-02 9.574931e-04 9.323951e-04 2.510150e-02 9.291857e-02 5.968460e-02 7.968488e-02 1.253551e-01 3.338277e-02 8.611440e-04 1.215130e-03 7.854612e-04 1.012177e-03 7.738464e-06 5.756516e-06 8.173934e-06 6.020874e-06 9.842092e-06 7.769793e-06 7.680384e-06 9.380564e-06 7.292997e-06 9.102586e-06 6.066088e-06 8.300907e-06 4.039318e-07 3.075810e-07 4.262554e-07 3.326209e-07 5.388900e-07 4.357443e-07 4.302722e-07 5.102124e-07 4.137804e-07 4.840364e-07 3.307438e-07 4.497233e-07
<GCONST> -2.980713e+02
<TRANSP> 3
 0.000000e+00 1.000000e+00 0.000000e+00
 0.000000e+00 9.801867e-01 1.981333e-02
 0.000000e+00 0.000000e+00 0.000000e+00
<ENDHMM>
~h "Tab0097"
<BEGINHMM>
<NUMSTATES> 3
<STATE> 2
<MEAN> 39
 -4.574536e+02 -3.223258e-01 6.845499e-02 1.906933e-01 1.454580e-01 1.609284e-01 1.214233e-01 9.458276e-02 1.612637e-01 3.827073e-01 4.407373e-01 3.412298e-01 3.474213e-01 2.874977e-01 2.523926e-01 4.630398e-04 4.337949e-04 2.365129e-04 9.798838e-06 -5.056945e-04 -3.198665e-04 6.252819e-04 8.030328e-04 1.645221e-04 1.375534e-04 2.645920e-04 2.308135e-04 8.544669e-05 8.678218e-05 1.399407e-04 1.609272e-04 2.612186e-04 2.452654e-04 5.199405e-05 6.280286e-05 6.713559e-05 1.496532e-05 6.877429e-05 1.628988e-04
<VARIANCE> 39
 1.523890e+04 6.790002e+01 3.972644e+00 6.163416e-02 2.736470e-02 6.309501e-02 2.772657e-02 1.764290e-02 4.235671e-02 1.302733e-01 1.663532e-01 7.063402e-02 1.615204e-01 5.482869e-02 1.305228e-01 3.747880e-04 2.217090e-04 5.091408e-04 2.607914e-04 2.281704e-04 2.360281e-04 4.431040e-04 5.815546e-04 3.991909e-04 7.435852e-04 3.348381e-04 6.568696e-04 1.697692e-05 1.058258e-05 2.349179e-05 1.219870e-05 1.293070e-05 1.281474e-05 2.225502e-05 3.081308e-05 2.212398e-05 3.711023e-05 1.641355e-05 3.077816e-05
<GCONST> -1.710384e+02
<TRANSP> 3
 0.000000e+00 1.000000e+00 0.000000e+00
 0.000000e+00 9.462914e-01 5.370860e-02
 0.000000e+00 0.000000e+00 0.000000e+00
<ENDHMM>
~h "Tab0098"
<BEGINHMM>
<NUMSTATES> 3
<STATE> 2
<MEAN> 39
 -7.727031e+02 -2.489735e-02 9.920862e-03 1.056894e-02 6.628349e-03 3.000415e-03 2.802709e-03 3.895142e-03 3.828001e-03 3.974355e-03 5.116975e-03 4.538598e-03 4.199411e-03 4.163264e-03 7.976310e-03 -5.647200e-05 -4.000812e-05 -3.337340e-05 5.422144e-07 3.041554e-05 3.540017e-05 2.256604e-05 -1.373195e-05 1.311657e-05 -4.426241e-06 -3.379870e-05 -5.082492e-05 1.065947e-05 5.248972e-06 9.688474e-06 5.100695e-06 -1.265253e-06 3.020620e-06 4.329549e-06 4.544826e-06 4.720390e-06 8.061751e-07 6.014470e-06 8.704032e-06
<VARIANCE> 39
 4.034690e+03 1.655786e+00 1.669623e-01 9.277519e-03 3.435300e-03 1.734221e-03 9.890439e-04 2.235231e-03 2.292180e-03 1.528209e-03 2.918545e-03 2.119125e-03 2.766271e-03 1.972254e-03 4.950701e-03 2.631602e-05 7.834496e-06 8.173934e-06 6.020874e-06 1.078444e-05 1.396136e-05 1.176187e-05 2.993345e-05 9.889735e-06 2.317154e-05 1.547622e-05 1.606874e-05 1.573888e-06 5.786119e-07 4.262554e-07 4.328183e-07 7.496882e-07 8.075617e-07 5.571784e-07 1.088934e-06 5.350985e-07 1.415074e-06 8.014006e-07 1.169216e-06
<GCONST> -2.966683e+02
<TRANSP> 3
 0.000000e+00 1.000000e+00 0.000000e+00
 0.000000e+00 9.717271e-01 2.827297e-02
 0.000000e+00 0.000000e+00 0.000000e+00
<ENDHMM>
~h "Tab0100"
<BEGINHMM>
<NUMSTATES> 3
<STATE> 2
<MEAN> 39
 -3.088710e+02 -1.785868e-01 3.656671e-02 3.503388e-01 4.045695e-01 4.537545e-01 4.299728e-01 4.588575e-01 4.030277e-01 4.102266e-01 4.785300e-01 5.334284e-01 6.249291e-01 4.406106e-01 3.444379e-01 1.756193e-04 2.248341e-04 1.303772e-04 2.273142e-04 1.881226e-04 4.324978e-05 -1.246960e-04 -4.439828e-04 4.782932e-05 6.947469e-04 3.303509e-04 -3.108382e-05 2.415380e-05 -2.629546e-05 -9.520161e-05 -4.313114e-06 9.688005e-05 9.342429e-05 -8.493895e-06 -7.169465e-05 3.459165e-06 6.857132e-05 6.513389e-05 3.413169e-05
<VARIANCE> 39
 1.848277e+04 7.204725e+02 5.636031e+01 8.627459e-02 3.425427e-02 1.140062e-01 3.912895e-02 8.310406e-02 5.858454e-02 5.446609e-02 9.339929e-02 6.344058e-02 1.235476e-01 5.519200e-02 3.943214e-02 4.394864e-04 4.462908e-04 9.448535e-04 4.683837e-04 8.262860e-04 7.375959e-04 1.143625e-03 1.760132e-03 6.603230e-04 1.057950e-03 5.167765e-04 4.916113e-04 2.678949e-05 2.237741e-05 4.686600e-05 2.835086e-05 4.691003e-05 4.904769e-05 7.532383e-05 1.113397e-04 4.161966e-05 6.246987e-05 2.574810e-05 3.018132e-05
<GCONST> -1.484735e+02
<TRANSP> 3
 0.000000e+00 1.000000e+00 0.000000e+00
 0.000000e+00 9.502807e-01 4.971932e-02
 0.000000e+00 0.000000e+00 0.000000e+00
<ENDHMM>
~h "Tab0101"
<BEGINHMM>
<NUMSTATES> 3
<STATE> 2
<MEAN> 39
 -5.316885e+02 -8.249137e-01 5.433900e-02 3.180469e-01 2.640432e-01 1.994488e-01 1.609579e-01 1.725363e-01 2.106511e-01 1.752100e-01 1.570883e-01 1.476185e-01 2.082570e-01 1.962156e-01 2.306671e-01 1.974122e-04 3.482193e-04 4.346978e-04 -2.668818e-05 -6.909469e-04 -9.187405e-04 -7.876949e-04 -7.337140e-04 -6.637224e-04 -4.108411e-04 -1.874841e-04 8.055149e-05 9.496580e-06 3.033912e-06 -4.171474e-06 4.974482e-05 6.194644e-05 5.478440e-05 1.062293e-04 1.273547e-04 6.492629e-05 -4.436996e-06 1.512425e-05 2.421733e-05
<VARIANCE> 39
 3.092286e+04 1.337471e+01 6.367700e-01 1.765089e-01 6.982812e-02 9.821574e-02 4.786221e-02 5.415100e-02 8.314883e-02 5.769764e-02 6.780656e-02 3.376002e-02 8.842606e-02 8.563266e-02 7.170687e-02 5.690013e-05 1.179607e-05 4.052498e-05 2.923582e-05 5.782784e-05 7.281344e-05 3.151335e-05 3.713664e-05 3.185984e-05 5.068306e-05 2.907263e-05 2.477569e-05 1.987508e-06 4.917742e-07 1.387825e-06 1.779941e-06 3.474952e-06 2.959741e-06 1.110351e-06 1.319705e-06 1.846869e-06 2.691707e-06 1.498077e-06 9.189440e-07
<GCONST> -2.305426e+02
<TRANSP> 3
 0.000000e+00 1.000000e+00 0.000000e+00
 0.000000e+00 9.027222e-01 9.727773e-02
 0.000000e+00 0.000000e+00 0.000000e+00
<ENDHMM>
~h "Tab0102"
<BEGINHMM>
<NUMSTATES> 3
<STATE> 2
<MEAN> 39
 -4.024805e+02 -9.126084e-01 1.853974e-01 1.523552e-01 1.519744e-01 1.891849e-01 1.750569e-01 1.498021e-01 1.327704e-01 2.183295e-01 3.232737e-01 3.093087e-01 3.277875e-01 2.773090e-01 2.127078e-01 -1.216089e-04 -2.842004e-04 -6.080542e-04 -4.159177e-04 -3.585010e-04 -7.773185e-04 -8.604344e-04 -2.341496e-05 -1.647033e-04 -4.936614e-04 -4.246325e-05 -7.972345e-05 7.831756e-05 1.508599e-04 1.769602e-04 1.062817e-04 1.354227e-04 2.357985e-04 1.710056e-04 1.057263e-04 2.367330e-04 2.391932e-04 1.422225e-04 7.382898e-05
<VARIANCE> 39
 1.985718e+04 4.805697e+01 2.770791e+00 5.561372e-02 2.935683e-02 7.130879e-02 4.453648e-02 3.037073e-02 2.060024e-02 6.624743e-02 1.620554e-01 7.933062e-02 1.512400e-01 8.687942e-02 6.333669e-02 2.068510e-04 7.876686e-05 9.714235e-05 1.763765e-04 2.121006e-04 1.549176e-04 2.524551e-04 2.213753e-04 3.126191e-04 3.266091e-04 2.546383e-04 1.355375e-04 1.475245e-05 5.416305e-06 6.481820e-06 1.096694e-05 1.429988e-05 1.041947e-05 1.612351e-05 1.144190e-05 2.133956e-05 1.914355e-05 1.597376e-05 1.032952e-05
<GCONST> -1.860675e+02
<TRANSP> 3
 0.000000e+00 1.000000e+00 0.000000e+00
 0.000000e+00 9.128424e-01 8.715760e-02
 0.000000e+00 0.000000e+00 0.000000e+00
<ENDHMM>
~h "Tab0103"
<BEGINHMM>
<NUMSTATES> 3
<STATE> 2
<MEAN> 39
 -6.946367e+02 2.216929e-05 2.378460e-04 3.109309e-04 2.004618e-04 1.403172e-04 1.652596e-04 2.090673e-04 1.408941e-04 1.280474e-04 1.673121e-04 1.676307e-04 1.771057e-04 2.576284e-04 3.271113e-04 8.757283e-06 -1.238999e-06 -8.831920e-06 -6.232690e-06 -2.907939e-06 -7.212960e-07 -2.598881e-06 -3.633121e-06 1.859192e-06 6.450841e-06 6.837483e-06 4.902344e-06 1.248860e-06 3.921946e-06 7.494438e-06 3.922834e-06 2.507842e-06 1.872500e-06 4.151863e-06 5.897643e-06 3.977737e-06 3.146148e-06 4.282690e-06 -8.380820e-07
<VARIANCE> 39
 4.069492e+03 1.648368e+00 9.713050e-02 9.574931e-04 7.507265e-04 1.011769e-03 6.844017e-04 1.068953e-03 8.484249e-04 8.535165e-04 1.088234e-03 8.611440e-04 1.215130e-03 7.854612e-04 1.012177e-03 7.738464e-06 5.756516e-06 8.173934e-06 6.020874e-06 9.842092e-06 7.769793e-06 7.680384e-06 9.380564e-06 7.292997e-06 9.102586e-06 6.066088e-06 8.300907e-06 4.039318e-07 3.075810e-07 4.262554e-07 3.326209e-07 5.388900e-07 4.357443e-07 4.302722e-07 5.102124e-07 4.137804e-07 4.840364e-07 3.307438e-07 4.497233e-07
<GCONST> -3.234582e+02
<TRANSP> 3
 0.000000e+00 1.000000e+00 0.000000e+00
 0.000000e+00 9.971175e-01 2.882565e-03
 0.000000e+00 0.000000e+00 0.000000e+00
<ENDHMM>
~h "Tab0104"
<BEGINHMM>
<NUMSTATES> 3
<STATE> 2
<MEAN> 39
 -4.229443e+02 6.830115e-02 7.911274e-03 3.205229e-01 2.518266e-01 2.328821e-01 2.630321e-01 2.966663e-01 2.251724e-01 2.893699e-01 4.121951e-01 4.063152e-01 3.481758e-01 3.136979e-01 3.549219e-01 -4.657012e-05 -6.918686e-06 1.100215e-04 1.881767e-04 1.897844e-04 1.298752e-04 1.991621e-04 2.141170e-04 1.806603e-04 1.233594e-04 1.647756e-04 7.763697e-05 -2.020804e-05 -5.586185e-06 -5.903161e-06 1.470802e-05 2.752320e-05 2.973750e-05 3.728251e-06 -3.061277e-05 1.657148e-05 6.090920e-05 2.463493e-05 -1.577359e-05
<VARIANCE> 39
 2.018881e+04 3.986107e+02 2.477415e+01 1.165084e-01 7.890584e-02 9.487246e-02 6.713664e-02 1.272486e-01 4.597926e-02 7.063574e-02 1.254027e-01 8.815879e-02 1.037020e-01 5.688740e-02 1.231253e-01 1.308613e-03 7.718629e-04 8.795257e-04 6.709889e-04 1.385355e-03 6.170796e-04 1.074018e-03 1.414792e-03 1.110122e-03 1.163008e-03 7.714673e-04 1.517420e-03 6.276563e-05 3.763377e-05 4.128432e-05 3.206343e-05 6.243146e-05 3.149860e-05 5.867654e-05 7.510876e-05 5.583909e-05 5.806760e-05 3.864158e-05 7.120141e-05
<GCONST> -1.400689e+02
<TRANSP> 3
 0.000000e+00 1.000000e+00 0.000000e+00
 0.000000e+00 9.902182e-01 9.781850e-03
 0.000000e+00 0.000000e+00 0.000000e+00
<ENDHMM>
~h "Tab0105"
<BEGINHMM>
<NUMSTATES> 3
<STATE> 2
<MEAN> 39
 -4.669548e+02 1.630519e+00 -2.084761e-01 3.082445e-01 2.732488e-01 2.845727e-01 2.477648e-01 2.636096e-01 2.853857e-01 3.370835e-01 3.706055e-01 3.453947e-01 3.603083e-01 3.508336e-01 3.593343e-01 2.715032e-03 6.506046e-04 -2.038098e-04 -8.146077e-04 -2.702922e-04 6.869688e-04 9.085210e-04 9.323854e-05 -4.956641e-04 -2.760561e-03 -1.491967e-03 9.575055e-04 -1.583633e-04 -3.589160e-04 -6.112324e-04 -6.469411e-04 -3.785978e-04 -5.030515e-04 -4.638823e-04 -1.967900e-04 -4.631194e-04 -9.207162e-04 -5.498006e-04 -2.993908e-04
<VARIANCE> 39
 2.114732e+04 3.279200e+02 1.828675e+01 1.153735e-01 7.774393e-02 1.115335e-01 7.193433e-02 9.887386e-02 9.084486e-02 9.429177e-02 1.291976e-01 7.555845e-02 1.270114e-01 9.170593e-02 1.220258e-01 2.837893e-03 1.899099e-03 3.399734e-03 1.916743e-03 2.938774e-03 2.585887e-03 3.315063e-03 4.899030e-03 2.214072e-03 4.472573e-03 2.503592e-03 3.637129e-03 1.368698e-04 1.033918e-04 1.858030e-04 1.032968e-04 1.622259e-04 1.441577e-04 1.894370e-04 2.825673e-04 1.163353e-04 2.374001e-04 1.197691e-04 1.853771e-04
<GCONST> -1.126645e+02
<TRANSP> 3
 0.000000e+00 1.000000e+00 0.000000e+00
 0.000000e+00 9.186896e-01 8.131035e-02
 0.000000e+00 0.000000e+00 0.000000e+00
<ENDHMM>
~h "Tab0106"
<BEGINHMM>
<NUMSTATES> 3
<STATE> 2
<MEAN> 39
 -4.737928e+02 -1.898901e-01 3.490964e-02 4.986010e-01 8.815045e-02 1.096556e-01 5.144776e-01 8.300177e-01 4.405285e-01 8.783428e-02 9.494581e-02 1.340176e-01 1.277491e-01 4.988513e-01 9.165427e-01 -2.667639e-04 3.667852e-05 3.853072e-05 2.909650e-04 4.259627e-04 2.400159e-04 -9.491272e-06 -1.299352e-04 -2.049609e-04 -1.469740e-04 -4.661654e-04 -6.808261e-04 3.754517e-05 5.744411e-05 6.758601e-05 -1.965561e-05 -1.224915e-04 -7.904595e-07 8.652211e-05 5.243541e-05 4.592546e-05 7.803326e-05 4.330340e-05 8.731582e-06
<VARIANCE> 39
 8.512064e+02 2.773580e+01 1.841066e+00 1.097045e-02 7.507265e-04 3.146261e-03 1.564045e-02 3.249114e-02 1.289923e-02 3.585235e-03 1.320720e-03 2.870571e-03 4.630201e-03 1.268376e-02 3.169040e-02 1.975913e-04 1.743975e-05 9.226966e-05 6.382858e-04 9.991862e-04 3.416774e-04 1.144480e-04 3.490821e-05 7.171618e-05 8.082829e-05 2.718492e-04 6.309954e-04 1.214555e-05 1.305093e-06 5.896640e-06 4.487824e-05 6.801244e-05 2.147951e-05 7.686253e-06 2.274123e-06 3.916423e-06 4.151319e-06 1.750972e-05 4.087389e-05
<GCONST> -2.211963e+02
<TRANSP> 3
 0.000000e+00 1.000000e+00 0.000000e+00
 0.000000e+00 8.788111e-01 1.211888e-01
 0.000000e+00 0.000000e+00 0.000000e+00
<ENDHMM>
~h "Tab0111"
<BEGINHMM>
<NUMSTATES> 3
<STATE> 2
<MEAN> 39
 -3.405995e+02 -3.213901e-01 1.661462e-01 6.122639e-02 1.007011e-01 1.445086e-01 1.810900e-01 2.331467e-01 2.769772e-01 3.599176e-01 3.907714e-01 5.180939e-01 5.703336e-01 2.889453e-01 8.083603e-02 3.723813e-04 6.999318e-04 4.480392e-04 8.695392e-04 1.646460e-03 1.445861e-03 -7.411102e-04 -2.217653e-03 -1.185510e-03 2.130300e-03 1.747891e-03 4.622251e-05 2.250139e-04 3.396404e-04 4.102606e-04 4.384216e-04 3.859825e-04 3.550345e-04 2.981398e-04 5.495634e-04 3.879685e-04 2.147106e-04 2.292463e-04 2.622725e-04
<VARIANCE> 39
 9.956760e+03 1.450184e+02 1.050418e+01 9.837190e-03 1.734276e-02 4.185329e-02 3.059899e-02 5.172575e-02 5.518124e-02 1.481096e-01 8.608346e-02 1.091735e-01 1.415927e-01 5.532972e-02 1.024384e-02 6.130509e-05 7.058118e-05 1.581583e-04 2.594293e-04 4.807185e-04 4.273348e-04 3.261771e-04 5.422891e-04 4.037698e-04 8.070791e-04 3.477295e-04 9.355063e-05 4.451266e-06 5.110524e-06 1.147460e-05 1.735513e-05 2.997121e-05 2.783652e-05 2.331745e-05 3.247975e-05 2.739862e-05 4.554875e-05 2.079042e-05 5.937617e-06
<GCONST> -1.804483e+02
<TRANSP> 3
 0.000000e+00 1.000000e+00 0.000000e+00
 0.000000e+00 9.198494e-01 8.015063e-02
 0.000000e+00 0.000000e+00 0.000000e+00
<ENDHMM>
~h "Tab0112"
<BEGINHMM>
<NUMSTATES> 3
<STATE> 2
<MEAN> 39
 -4.500494e+02 8.139009e-01 -1.096600e-01 3.231839e-01 3.625611e-01 4.174264e-01 3.341943e-01 2.866068e-01 2.252636e-01 3.053708e-01 4.457245e-01 3.953906e-01 3.750602e-01 3.367796e-01 3.730164e-01 -4.844448e-03 -3.981043e-03 -3.451046e-03 3.653709e-03 1.133215e-02 6.465745e-03 -1.918162e-03 -4.545868e-03 -1.038080e-03 1.484926e-03 -6.861784e-04 -3.213759e-03 4.830575e-04 -1.916278e-04 -1.661769e-03 -6.406402e-05 1.815666e-03 8.929424e-04 -2.135241e-03 -4.184634e-03 -1.208736e-03 1.567739e-03 2.039168e-05 -1.041746e-03
<VARIANCE> 39
 2.091442e+04 4.249885e+02 2.290366e+01 1.123396e-01 6.236788e-02 1.188055e-01 4.741477e-02 8.535617e-02 4.453370e-02 5.001719e-02 1.462762e-01 5.748207e-02 1.085707e-01 4.913732e-02 7.327655e-02 3.114478e-03 1.336047e-03 2.899501e-03 1.098494e-03 3.243120e-03 1.382270e-03 1.660970e-03 5.226208e-03 1.578473e-03 3.581336e-03 1.153978e-03 1.600337e-03 1.389530e-04 6.876948e-05 1.360053e-04 5.369869e-05 1.457199e-04 6.550831e-05 7.386484e-05 2.287954e-04 7.117059e-05 1.467339e-04 5.007307e-05 8.018540e-05
<GCONST> -1.261012e+02
<TRANSP> 3
 0.000000e+00 1.000000e+00 0.000000e+00
 0.000000e+00 9.418432e-01 5.815687e-02
 0.000000e+00 0.000000e+00 0.000000e+00
<ENDHMM>
~h "Tab0113"
<BEGINHMM>
<NUMSTATES> 3
<STATE> 2
<MEAN> 39
 -3.487973e+02 4.824268e-01 -8.847237e-02 1.207520e-01 3.519985e-01 5.559401e-01 4.191749e-01 3.468342e-01 3.438760e-01 3.883438e-01 3.691691e-01 4.682017e-01 6.004797e-01 3.531572e-01 1.299455e-01 -3.966193e-04 4.991665e-04 1.337730e-03 8.365649e-06 -1.615718e-03 -2.073853e-03 -8.794282e-04 1.940541e-03 2.426382e-03 9.097920e-04 -1.984710e-04 -1.712595e-04 -1.854334e-05 -7.804374e-04 -1.358254e-03 -5.152149e-04 2.456184e-04 1.594015e-04 -4.312064e-04 -9.775917e-04 -6.683063e-04 -4.379475e-05 -6.124261e-06 1.384620e-05
<VARIANCE> 39
 1.377552e+04 1.514900e+02 1.112539e+01 2.091462e-02 5.458187e-02 1.403673e-01 5.591721e-02 7.947551e-02 6.537391e-02 1.227995e-01 8.932440e-02 5.861289e-02 1.341886e-01 5.104520e-02 1.756796e-02 3.228067e-04 8.663400e-04 2.331564e-03 9.317767e-04 1.425057e-03 1.306849e-03 1.298401e-03 1.904829e-03 1.525658e-03 3.611444e-03 1.394236e-03 3.578482e-04 2.009716e-05 4.457356e-05 1.136431e-04 4.568193e-05 7.185274e-05 6.387635e-05 7.278515e-05 1.037491e-04 8.907607e-05 1.781279e-04 6.767076e-05 2.039571e-05
<GCONST> -1.416432e+02
<TRANSP> 3
 0.000000e+00 1.000000e+00 0.000000e+00
 0.000000e+00 8.265954e-01 1.734045e-01
 0.000000e+00 0.000000e+00 0.000000e+00
<ENDHMM>
~h "Tab0114"
<BEGINHMM>
<NUMSTATES> 3
<STATE> 2
<MEAN> 39
 -5.121588e+02 4.253718e-01 -6.971617e-02 2.755478e-01 2.561439e-01 2.947369e-01 3.899209e-01 5.166191e-01 4.684700e-01 4.309937e-01 2.928344e-01 3.590513e-01 5.671161e-01 4.000545e-01 2.471428e-01 9.488550e-04 1.063518e-03 1.601283e-03 2.305805e-03 1.889340e-03 -7.071383e-04 -1.914559e-03 -1.152005e-03 -4.425860e-05 3.271033e-04 8.839510e-05 4.257606e-04 1.212435e-05 8.032448e-05 7.881370e-05 2.252907e-04 3.685949e-04 4.308080e-04 3.734118e-04 4.157214e-04 3.163923e-04 7.489376e-05 3.698141e-05 6.172417e-05
<VARIANCE> 39
 2.802866e+04 1.241563e+02 6.912619e+00 3.601746e-02 3.565335e-02 9.738205e-02 4.119456e-02 1.344224e-01 4.417972e-02 1.851531e-01 7.481390e-02 6.221450e-02 1.801570e-01 5.585479e-02 3.104903e-02 5.972948e-04 4.411808e-04 1.208588e-03 4.369426e-04 1.123707e-03 6.711283e-04 1.589319e-03 8.905338e-04 5.883073e-04 1.164792e-03 7.247695e-04 6.868883e-04 3.011093e-05 2.189641e-05 5.997146e-05 2.729822e-05 5.876733e-05 4.133796e-05 7.590527e-05 4.652490e-05 3.153427e-05 5.242092e-05 3.590400e-05 3.140163e-05
<GCONST> -1.511237e+02
<TRANSP> 3
 0.000000e+00 1.000000e+00 0.000000e+00
 0.000000e+00 8.520461e-01 1.479539e-01
 0.000000e+00 0.000000e+00 0.000000e+00
<ENDHMM>
~h "Tab0115"
<BEGINHMM>
<NUMSTATES> 3
<STATE> 2
<MEAN> 39
 -3.496504e+02 -3.443148e-01 -1.550936e+00 5.484534e-01 6.450942e-01 6.729712e-01 4.908896e-01 2.573547e-01 1.947776e-01 2.387386e-01 2.317141e-01 2.178480e-01 2.918459e-01 2.531395e-01 3.406569e-01 1.965943e-02 2.041105e-03 -1.552863e-02 -1.401956e-02 -2.480160e-03 -2.519772e-03 -2.513804e-03 4.435535e-03 -3.547391e-03 -1.351294e-02 -3.430730e-03 1.413309e-02 -8.046448e-04 -6.159880e-04 -8.051707e-04 -2.627026e-04 7.294018e-04 5.664581e-04 8.199747e-04 1.472763e-03 2.295451e-03 2.862892e-03 2.313262e-03 9.751962e-04
<VARIANCE> 39
 3.872017e+02 2.707278e+01 9.508299e+00 1.599150e-01 2.591211e-02 1.405568e-01 6.664758e-02 9.122764e-03 4.095118e-03 8.122890e-03 7.182355e-03 4.050757e-03 2.548150e-02 7.721421e-03 5.106290e-02 2.667623e-03 1.127749e-03 2.266837e-03 1.113613e-03 4.333986e-04 1.691946e-04 2.809160e-04 3.816508e-04 3.161529e-04 8.985851e-04 3.840290e-04 7.358173e-04 1.725988e-04 9.461647e-05 1.496795e-04 8.261698e-05 2.984986e-05 1.253657e-05 1.885191e-05 3.270160e-05 1.738784e-05 3.539113e-05 1.951308e-05 3.815233e-05
<GCONST> -1.734436e+02
<TRANSP> 3
 0.000000e+00 1.000000e+00 0.000000e+00
 0.000000e+00 9.542016e-01 4.579837e-02
 0.000000e+00 0.000000e+00 0.000000e+00
<ENDHMM>
~h "Tab0116"
<BEGINHMM>
<NUMSTATES> 3
<STATE> 2
<MEAN> 39
 -6.517910e+02 5.361175e+00 1.632484e+00 4.215599e-01 4.971738e-01 5.540766e-01 4.101407e-01 3.018604e-01 2.630435e-01 2.830377e-01 4.346361e-01 4.480306e-01 5.780823e-01 5.659814e-01 6.085218e-01 -1.370938e-02 9.180362e-03 3.186252e-02 2.411306e-02 2.442061e-03 4.159671e-03 7.886913e-03 6.535975e-04 -5.040338e-04 5.804838e-04 -1.834445e-03 -1.120707e-02 -1.292188e-03 -1.351248e-03 1.625925e-04 -3.757598e-04 -1.511547e-03 -1.133759e-03 -5.442436e-04 -6.835899e-04 -2.191779e-03 -3.291907e-03 -3.041397e-03 -2.125645e-03
<VARIANCE> 39
 5.686800e+04 2.084674e+03 6.758752e+01 8.483221e-02 8.802356e-02 1.052479e-01 7.426126e-02 5.084853e-02 3.847772e-02 4.652719e-02 8.042010e-02 6.194376e-02 8.194464e-02 5.963502e-02 1.262822e-01 2.302056e-03 3.579439e-03 3.878454e-03 2.675827e-03 2.056205e-03 1.483207e-03 1.214631e-03 2.026224e-03 2.971404e-03 2.830346e-03 2.123268e-03 3.309659e-03 1.014715e-04 1.589998e-04 1.669944e-04 1.509286e-04 1.312015e-04 9.655523e-05 7.882234e-05 9.470453e-05 1.798078e-04 1.355027e-04 8.833911e-05 1.378262e-04
<GCONST> -1.177034e+02
<TRANSP> 3
 0.000000e+00 1.000000e+00 0.000000e+00
 0.000000e+00 8.760372e-01 1.239627e-01
 0.000000e+00 0.000000e+00 0.000000e+00
<ENDHMM>
~h "Tab0121"
<BEGINHMM>
<NUMSTATES> 3
<STATE> 2
<MEAN> 39
 -5.622325e+02 -1.617791e+00 2.988075e-01 7.307783e-01 3.652315e-01 4.499016e-02 1.300235e-01 2.544147e-01 1.612885e-01 6.676295e-02 7.710252e-02 5.775822e-02 7.192627e-02 1.712625e-01 5.335649e-01 -2.033653e-03 -6.676138e-04 -2.894268e-04 2.172875e-05 1.741644e-04 -2.318489e-04 -1.481038e-03 -2.093803e-03 -1.165800e-03 4.149609e-04 3.589230e-04 -1.758842e-03 -2.867683e-04 6.543943e-05 3.197906e-04 4.393084e-05 -1.123721e-04 1.398036e-04 4.197018e-04 4.435018e-04 3.675043e-04 4.537320e-04 4.580867e-04 1.047070e-04
<VARIANCE> 39
 6.340748e+03 3.378345e+01 2.049081e+00 1.448838e-01 5.582339e-02 3.832338e-03 3.477298e-02 1.682450e-01 6.047028e-02 8.652671e-03 1.270818e-02 8.284075e-03 2.395768e-02 7.962948e-02 5.789367e-02 4.814190e-05 2.985447e-05 3.464222e-05 1.554221e-05 2.598761e-05 2.517811e-05 7.321474e-05 9.167798e-05 4.941282e-05 5.431441e-05 9.379026e-05 2.009514e-04 4.557774e-06 3.187586e-06 4.634291e-06 2.070560e-06 2.957311e-06 2.089408e-06 5.945505e-06 9.611102e-06 4.266484e-06 3.755809e-06 7.554765e-06 1.395887e-05
<GCONST> -2.234212e+02
<TRANSP> 3
 0.000000e+00 1.000000e+00 0.000000e+00
 0.000000e+00 8.631221e-01 1.368779e-01
 0.000000e+00 0.000000e+00 0.000000e+00
<ENDHMM>
~h "Tab0126"
<BEGINHMM>
<NUMSTATES> 3
<STATE> 2
<MEAN> 39
 -3.757006e+02 1.356784e-01 -2.026691e-02 3.715899e-01 3.974992e-01 4.367361e-01 4.510340e-01 5.077269e-01 4.789843e-01 5.689387e-01 7.042897e-01 4.985114e-01 3.052678e-01 2.367852e-01 2.974273e-01 -9.693528e-05 -7.573768e-05 -1.129090e-04 -9.104195e-05 2.370377e-05 6.633489e-05 1.495201e-04 3.364838e-04 3.376386e-04 2.109705e-04 -9.160431e-06 -1.710180e-04 -2.695686e-05 6.690630e-06 5.176268e-05 1.837881e-05 -2.772237e-05 -4.197022e-05 -7.805981e-05 -8.922700e-05 -1.554944e-05 5.931575e-05 7.528838e-05 2.876818e-05
<VARIANCE> 39
 1.083078e+04 2.335716e+02 1.375575e+01 8.335367e-02 4.798584e-02 9.227721e-02 6.221385e-02 9.750921e-02 7.661074e-02 4.754657e-02 1.146382e-01 3.816939e-02 7.674037e-02 3.403631e-02 4.255650e-02 1.200927e-03 7.761555e-04 1.042933e-03 1.315405e-03 2.120841e-03 1.590680e-03 1.098339e-03 1.613518e-03 7.794977e-04 1.142803e-03 5.979885e-04 7.226761e-04 6.743101e-05 4.576061e-05 5.756184e-05 8.014363e-05 1.299996e-04 9.687107e-05 6.625005e-05 8.960312e-05 4.598191e-05 6.355371e-05 3.408594e-05 4.293664e-05
<GCONST> -1.418485e+02
<TRANSP> 3
 0.000000e+00 1.000000e+00 0.000000e+00
 0.000000e+00 9.627051e-01 3.729488e-02
 0.000000e+00 0.000000e+00 0.000000e+00
<ENDHMM>
~h "Tab0127"
<BEGINHMM>
<NUMSTATES> 3
<STATE> 2
<MEAN> 39
 -4.111146e+02 5.360403e-01 -1.004820e-01 3.969718e-01 6.950381e-01 4.413771e-01 1.937664e-01 3.853648e-01 5.945129e-01 3.776944e-01 3.479636e-01 5.827529e-01 4.603012e-01 3.422659e-01 2.375011e-01 -8.424860e-06 2.776568e-04 1.399516e-04 1.008715e-05 3.301399e-04 1.974108e-04 -4.004650e-04 2.401462e-04 5.910213e-04 1.246152e-04 -3.756902e-04 -3.536764e-04 -3.830960e-05 -7.290665e-05 -4.456524e-05 3.054663e-05 -9.749988e-05 -1.125250e-04 3.875046e-05 8.159259e-05 -3.022971e-06 -9.523724e-05 -1.448594e-04 -1.062855e-04
<VARIANCE> 39
 5.552587e+03 1.434860e+02 7.237212e+00 2.082244e-02 1.063297e-01 1.425968e-02 5.915359e-02 1.894265e-02 9.073116e-02 5.876873e-02 2.944999e-02 7.269995e-02 1.847511e-02 1.542007e-01 6.765118e-02 2.637139e-04 8.725964e-04 1.724020e-04 6.613698e-04 3.179310e-04 8.867255e-04 9.180529e-04 3.415949e-04 7.372024e-04 2.438678e-04 9.449613e-04 4.840346e-04 1.289365e-05 3.784206e-05 8.511976e-06 2.759816e-05 1.447371e-05 4.057519e-05 4.085007e-05 1.669882e-05 3.412852e-05 1.197266e-05 4.040766e-05 1.895067e-05
<GCONST> -1.698872e+02
<TRANSP> 3
 0.000000e+00 1.000000e+00 0.000000e+00
 0.000000e+00 9.701299e-01 2.987011e-02
 0.000000e+00 0.000000e+00 0.000000e+00
<ENDHMM>
~h "Tab0128"
<BEGINHMM>
<NUMSTATES> 3
<STATE> 2
<MEAN> 39
 -2.820222e+02 -3.426673e-01 8.734798e-02 1.755598e-01 5.690659e-01 9.058042e-01 5.517349e-01 2.349284e-01 2.377811e-01 3.459131e-01 3.571218e-01 4.303941e-01 5.684353e-01 3.678205e-01 1.770270e-01 -2.837020e-04 1.346119e-03 5.997511e-04 8.106524e-04 7.831821e-04 5.314210e-04 -1.838688e-03 -4.686381e-03 -8.504547e-04 2.357961e-03 9.740080e-04 -5.769595e-04 5.925313e-04 -3.469824e-04 -1.434585e-03 -1.612914e-04 9.689584e-04 7.175682e-04 3.656918e-04 2.360244e-04 6.404665e-04 1.022451e-03 8.034690e-04 7.209373e-04
<VARIANCE> 39
 7.578975e+03 5.325045e+01 3.772362e+00 1.333029e-02 2.392867e-02 4.451912e-02 2.267970e-02 1.771245e-02 1.865214e-02 4.695774e-02 9.348437e-02 4.226819e-02 5.749963e-02 2.498653e-02 1.759917e-02 2.878227e-04 4.292413e-04 4.760660e-04 3.717661e-04 3.482878e-04 3.728448e-04 6.921300e-04 1.329561e-03 6.392554e-04 1.087228e-03 4.448771e-04 2.406425e-04 1.843043e-05 2.913778e-05 3.686558e-05 2.195370e-05 2.460905e-05 2.408391e-05 4.577019e-05 8.343533e-05 3.775291e-05 6.947306e-05 2.814342e-05 1.650200e-05
<GCONST> -1.718255e+02
<TRANSP> 3
 0.000000e+00 1.000000e+00 0.000000e+00
 0.000000e+00 8.815705e-01 1.184295e-01
 0.000000e+00 0.000000e+00 0.000000e+00
<ENDHMM>
~h "Tab0150"
<BEGINHMM>
<NUMSTATES> 3
<STATE> 2
<MEAN> 39
 -3.951651e+02 -5.043533e-01 -5.950504e-01 1.708122e-01 2.579527e-01 2.542078e-01 1.548348e-01 1.122694e-01 1.237677e-01 2.359797e-01 4.290749e-01 5.538691e-01 6.305432e-01 3.930906e-01 1.802899e-01 -5.946723e-03 -4.055994e-03 5.266052e-04 1.468687e-03 6.714464e-04 1.939332e-04 6.234770e-04 -7.144571e-05 -2.313298e-03 4.698996e-03 4.105017e-03 -4.101393e-03 1.146717e-03 7.834661e-04 3.285232e-04 2.336653e-04 4.103146e-04 5.482572e-04 -1.416877e-04 -1.690567e-03 -2.327221e-03 -1.719615e-03 -1.743844e-04 1.127175e-03
<VARIANCE> 39
 2.721046e+04 1.498843e+02 9.893890e+00 6.169641e-02 1.086913e-01 1.227615e-01 3.049785e-02 1.021900e-02 1.588832e-02 5.332120e-02 1.114468e-01 7.428602e-02 1.390031e-01 7.329427e-02 5.510560e-02 2.399017e-03 2.231164e-03 1.308776e-03 4.739038e-04 3.823379e-04 5.756314e-04 1.793527e-03 3.645010e-03 1.739167e-03 3.516563e-03 1.733666e-03 1.994615e-03 1.241646e-04 9.948819e-05 5.776003e-05 3.054955e-05 3.653999e-05 4.249101e-05 1.056486e-04 2.216522e-04 1.195622e-04 1.829724e-04 8.734017e-05 9.890126e-05
<GCONST> -1.360388e+02
<TRANSP> 3
 0.000000e+00 1.000000e+00 0.000000e+00
 0.000000e+00 7.669045e-01 2.330956e-01
 0.000000e+00 0.000000e+00 0.000000e+00
<ENDHMM>
~h "Tab0159"
<BEGINHMM>
<NUMSTATES> 3
<STATE> 2
<MEAN> 39
 -2.742577e+02 -6.017860e-01 3.452878e-01 1.720625e-01 6.807574e-01 8.704924e-01 4.087075e-01 1.113072e-01 1.375370e-01 1.728991e-01 1.098477e-01 1.964866e-01 3.402569e-01 1.934671e-01 5.855719e-02 1.034020e-03 2.378346e-04 -6.177687e-04 5.500395e-04 8.093516e-04 1.944738e-03 2.376314e-03 -1.148806e-04 -3.755843e-04 -9.553728e-04 -1.575995e-04 7.583654e-04 5.144009e-04 2.831505e-04 5.152545e-05 4.809982e-04 7.151501e-04 9.301191e-04 1.488276e-03 1.413180e-03 9.723186e-04 4.016785e-04 1.986632e-04 3.994209e-04
<VARIANCE> 39
 2.761452e+03 5.335898e+01 3.316614e+00 3.045190e-02 3.371569e-02 6.112730e-02 4.052413e-02 6.937056e-03 8.087776e-03 1.950492e-02 1.000072e-02 2.041340e-02 7.355811e-02 2.080896e-02 1.074554e-03 1.797296e-04 9.829895e-05 2.274844e-05 4.434651e-04 2.747748e-04 2.568381e-04 4.496226e-04 2.499947e-04 1.502289e-04 1.648244e-04 4.197512e-05 4.278253e-05 1.306331e-05 7.401740e-06 1.231984e-06 3.003504e-05 1.710928e-05 1.356885e-05 2.469731e-05 1.443938e-05 8.540325e-06 8.512406e-06 2.592342e-06 3.250695e-06
<GCONST> -2.098901e+02
<TRANSP> 3
 0.000000e+00 1.000000e+00 0.000000e+00
 0.000000e+00 8.517116e-01 1.482885e-01
 0.000000e+00 0.000000e+00 0.000000e+00
<ENDHMM>
~h "Tab0163"
<BEGINHMM>
<NUMSTATES> 3
<STATE> 2
<MEAN> 39
 -4.673346e+02 2.253703e-01 5.602465e-02 5.470685e-01 4.942375e-01 4.849625e-01 4.394525e-01 4.541108e-01 4.740042e-01 5.256363e-01 5.088992e-01 5.472160e-01 6.485806e-01 5.640034e-01 5.678648e-01 2.148964e-03 1.973447e-04 -2.034749e-03 -7.840502e-04 9.455321e-04 1.292723e-03 4.870580e-05 6.224913e-04 9.805401e-04 -7.671504e-04 -1.429731e-03 -4.658077e-04 -2.879094e-04 -2.752178e-04 -3.725051e-04 -4.183795e-04 -4.153914e-04 -6.956733e-04 -5.542389e-04 -5.375106e-04 -5.334961e-04 -4.603505e-04 -6.369023e-04 -7.235559e-04
<VARIANCE> 39
 4.664638e+04 9.392539e+02 4.152762e+01 8.890061e-02 6.554949e-02 9.461801e-02 4.826193e-02 7.373317e-02 6.760230e-02 8.155091e-02 6.573465e-02 5.815032e-02 9.213041e-02 6.409914e-02 8.246425e-02 2.004205e-03 1.740307e-03 2.890892e-03 1.454865e-03 1.640396e-03 1.555627e-03 2.463645e-03 2.427744e-03 1.751785e-03 2.324356e-03 1.669360e-03 2.121589e-03 9.677051e-05 8.850823e-05 1.434572e-04 8.257676e-05 6.860555e-05 8.083472e-05 1.336034e-04 1.260826e-04 1.017025e-04 1.209865e-04 9.869425e-05 1.126337e-04
<GCONST> -1.236149e+02
<TRANSP> 3
 0.000000e+00 1.000000e+00 0.000000e+00
 0.000000e+00 9.468009e-01 5.319912e-02
 0.000000e+00 0.000000e+00 0.000000e+00
<ENDHMM>
~h "Tab0164"
<BEGINHMM>
<NUMSTATES> 3
<STATE> 2
<MEAN> 39
 -3.493297e+02 -1.377751e-01 -2.593425e-02 2.739985e-01 2.491612e-01 2.505449e-01 3.621278e-01 5.089736e-01 3.241599e-01 2.354806e-01 3.367173e-01 5.628061e-01 7.551371e-01 5.037612e-01 3.420489e-01 -7.826485e-04 -1.689905e-03 -2.417861e-03 -6.857492e-04 4.612141e-04 -2.179112e-04 -9.989780e-04 -1.059888e-03 -2.456654e-04 1.070080e-03 7.567445e-04 -4.395104e-04 8.145819e-05 5.389791e-04 9.513365e-04 1.024135e-04 -5.714931e-04 -1.147767e-04 6.116570e-04 9.790497e-04 1.772041e-04 -6.920688e-04 -3.529202e-04 3.707378e-05
<VARIANCE> 39
 9.069699e+03 6.242509e+01 3.299592e+00 5.793335e-02 3.557645e-02 6.696378e-02 2.523909e-02 7.914497e-02 2.588798e-02 3.442362e-02 8.806076e-02 3.085018e-02 1.135098e-01 3.911382e-02 5.705671e-02 1.133437e-03 7.230521e-04 1.424361e-03 6.191333e-04 1.792784e-03 6.169947e-04 7.375539e-04 1.810028e-03 4.569421e-04 1.893878e-03 9.718572e-04 1.156676e-03 5.979853e-05 3.486551e-05 6.828256e-05 3.532097e-05 1.036210e-04 3.796581e-05 3.793357e-05 8.816480e-05 2.649042e-05 1.018908e-04 5.878912e-05 6.991081e-05
<GCONST> -1.507952e+02
<TRANSP> 3
 0.000000e+00 1.000000e+00 0.000000e+00
 0.000000e+00 9.032229e-01 9.677709e-02
 0.000000e+00 0.000000e+00 0.000000e+00
<ENDHMM>
~h "Tab0166"
<BEGINHMM>
<NUMSTATES> 3
<STATE> 2
<MEAN> 39
 -2.736629e+02 -8.652012e-02 2.904887e-03 3.606980e-01 3.551887e-01 3.664896e-01 3.619266e-01 3.949805e-01 3.834541e-01 4.646762e-01 4.737580e-01 4.817819e-01 5.431914e-01 4.820695e-01 4.497219e-01 3.354198e-04 -1.845080e-04 -7.434922e-04 -5.146505e-04 -5.991702e-04 -4.425041e-04 -8.452491e-04 -1.162792e-03 -1.392025e-04 5.545491e-04 6.846883e-04 7.785785e-04 2.103744e-05 3.258570e-05 -6.822873e-05 -3.261563e-05 5.466783e-06 1.048826e-04 7.902517e-05 8.556970e-05 1.329478e-04 -7.352253e-05 4.543023e-05 5.899095e-05
<VARIANCE> 39
 9.493764e+03 9.610005e+01 5.557174e+00 8.556583e-02 5.651380e-02 8.207039e-02 4.490124e-02 7.850996e-02 4.921681e-02 8.467720e-02 9.121168e-02 5.740341e-02 1.173960e-01 6.592043e-02 1.006504e-01 8.829405e-04 8.534063e-04 9.581170e-04 7.173258e-04 9.499364e-04 7.298894e-04 1.513006e-03 9.523581e-04 1.053042e-03 1.153835e-03 7.693358e-04 6.798897e-04 4.155598e-05 3.855969e-05 4.697257e-05 4.134193e-05 5.430686e-05 4.682821e-05 8.815936e-05 5.448745e-05 5.969671e-05 5.875236e-05 4.054572e-05 3.284236e-05
<GCONST> -1.474197e+02
<TRANSP> 3
 0.000000e+00 1.000000e+00 0.000000e+00
 0.000000e+00 9.299330e-01 7.006700e-02
 0.000000e+00 0.000000e+00 0.000000e+00
<ENDHMM>
~h "Tab0169"
<BEGINHMM>
<NUMSTATES> 3
<STATE> 2
<MEAN> 39
 -3.042569e+02 -2.449819e+00 -4.475737e-01 5.351241e-01 9.806821e-01 5.299475e-01 1.202584e-01 8.546285e-02 1.385182e-01 2.334653e-01 3.407324e-01 3.280789e-01 1.600640e-01 8.313367e-02 8.381685e-02 1.342813e-03 7.176734e-06 -3.568646e-03 -6.425735e-04 -3.173790e-04 1.731471e-04 6.189538e-04 9.840325e-03 6.169452e-03 5.642013e-04 -1.072551e-03 -1.754991e-03 -5.717931e-04 -1.422659e-03 -4.235153e-05 -3.484927e-04 -2.371658e-04 3.438885e-05 -3.109202e-04 -1.840922e-03 -1.138231e-03 4.536279e-04 9.288423e-05 5.209530e-05
<VARIANCE> 39
 5.988629e+03 1.672469e+02 1.256534e+01 1.451689e-02 1.562799e-02 1.301588e-02 1.001663e-02 4.621516e-03 1.355649e-02 3.041750e-02 4.789856e-02 5.424351e-02 1.909960e-02 5.851901e-03 6.766818e-03 2.530238e-04 5.756516e-06 1.698641e-04 1.586515e-04 1.731424e-04 3.846774e-04 8.461726e-04 1.817642e-03 1.213739e-03 2.651952e-04 1.276029e-04 1.945159e-04 2.175285e-05 1.789654e-05 1.565209e-05 1.978382e-05 2.090156e-05 3.292515e-05 5.763050e-05 1.337073e-04 8.640961e-05 2.291455e-05 2.126545e-05 3.433816e-05
<GCONST> -1.870944e+02
<TRANSP> 3
 0.000000e+00 1.000000e+00 0.000000e+00
 0.000000e+00 7.290828e-01 2.709172e-01
 0.000000e+00 0.000000e+00 0.000000e+00
<ENDHMM>
~h "Tab0170"
<BEGINHMM>
<NUMSTATES> 3
<STATE> 2
<MEAN> 39
 -3.211012e+02 8.766980e-01 -4.994461e-01 4.860737e-01 3.220502e-01 2.996303e-01 1.723855e-01 1.305576e-01 2.691330e-01 3.442436e-01 3.271908e-01 3.058203e-01 3.162030e-01 4.490472e-01 6.603547e-01 -2.416747e-03 -9.746011e-05 1.440725e-04 -1.003853e-03 -1.880014e-03 -1.215927e-03 1.508305e-03 2.999974e-03 1.977821e-03 -6.590751e-04 1.276393e-03 -1.530311e-03 -1.151456e-03 3.976744e-04 3.652590e-04 7.324544e-05 -3.204829e-04 -1.664529e-03 -8.093544e-04 -3.857704e-04 7.178800e-05 9.020726e-05 -2.205275e-04 -1.584862e-03
<VARIANCE> 39
 1.371285e+04 1.806172e+02 1.294786e+01 7.191886e-02 9.159891e-02 1.071070e-01 3.143569e-02 1.677284e-02 4.333886e-02 6.498684e-02 6.164381e-02 8.380847e-02 1.023321e-01 5.207737e-02 1.800437e-01 6.231062e-04 1.966734e-03 1.188486e-03 3.306831e-04 3.139125e-04 9.661431e-04 1.476742e-03 1.835544e-03 1.308010e-03 1.330297e-03 1.083816e-03 2.071883e-03 3.239762e-05 8.658394e-05 5.265471e-05 2.146370e-05 2.690565e-05 5.423237e-05 9.044231e-05 1.349356e-04 8.321184e-05 8.958275e-05 5.792458e-05 9.115820e-05
<GCONST> -1.430208e+02
<TRANSP> 3
 0.000000e+00 1.000000e+00 0.000000e+00
 0.000000e+00 7.299176e-01 2.700824e-01
 0.000000e+00 0.000000e+00 0.000000e+00
<ENDHMM>
~h "Tab0172"
<BEGINHMM>
<NUMSTATES> 3
<STATE> 2
<MEAN> 39
 -5.661643e+02 -1.344421e+00 8.405022e-02 9.587352e-02 1.332281e-01 1.807865e-01 1.195923e-01 7.871506e-02 8.531700e-02 1.604051e-01 2.467302e-01 2.672212e-01 2.459118e-01 1.426205e-01 9.049930e-02 2.787292e-07 -1.929901e-04 1.180664e-04 1.944695e-04 -3.196556e-04 -1.008794e-03 -7.607957e-04 8.708736e-05 -1.137523e-04 -2.733498e-04 -1.062644e-04 4.166045e-04 3.165624e-04 2.414922e-04 2.238180e-04 2.226664e-04 2.203916e-04 2.304524e-04 3.330171e-04 3.024776e-04 2.683509e-04 1.017235e-04 1.508558e-04 2.550305e-04
<VARIANCE> 39
 3.994123e+04 2.603139e+01 1.403633e+00 4.103415e-02 4.300595e-02 9.518344e-02 2.856620e-02 1.953008e-02 2.251901e-02 6.057957e-02 1.373673e-01 9.877209e-02 1.379262e-01 4.421525e-02 2.693348e-02 1.198398e-04 6.901671e-05 8.648513e-05 6.003078e-05 1.134945e-04 1.231710e-04 1.176168e-04 1.120179e-04 9.773047e-05 1.268600e-04 1.304245e-04 1.049577e-04 8.919553e-06 5.642790e-06 8.441479e-06 4.405111e-06 6.955494e-06 8.963034e-06 1.027280e-05 9.944688e-06 6.771185e-06 8.555726e-06 6.214451e-06 7.517437e-06
<GCONST> -2.017424e+02
<TRANSP> 3
 0.000000e+00 1.000000e+00 0.000000e+00
 0.000000e+00 8.479081e-01 1.520919e-01
 0.000000e+00 0.000000e+00 0.000000e+00
<ENDHMM>
~h "Tab0173"
<BEGINHMM>
<NUMSTATES> 3
<STATE> 2
<MEAN> 39
 -3.792886e+02 5.833686e-01 -2.574558e-01 1.521266e-01 1.406629e-01 1.535499e-01 2.396225e-01 4.697397e-01 5.704661e-01 4.207614e-01 3.571824e-01 4.186565e-01 4.516066e-01 2.683406e-01 1.428821e-01 -1.303032e-03 -1.319195e-04 1.185207e-03 1.150400e-03 6.318477e-04 4.218986e-04 2.093355e-03 3.204602e-03 -5.369509e-04 -3.198340e-03 -1.029206e-03 1.412377e-04 8.316865e-04 6.375100e-04 5.377707e-04 2.985823e-04 -2.246517e-04 -6.017318e-04 -4.067439e-04 -2.033714e-04 -2.572576e-04 -2.006682e-04 3.081308e-04 8.582131e-04
<VARIANCE> 39
 1.295327e+04 2.166243e+02 1.512553e+01 4.269722e-02 2.209137e-02 3.670341e-02 5.223698e-02 9.561288e-02 1.350175e-01 6.284801e-02 1.128085e-01 7.981417e-02 1.705270e-01 5.895720e-02 2.297176e-02 6.660561e-04 3.898920e-04 8.908450e-04 1.287813e-03 2.673704e-03 3.650938e-03 1.800514e-03 2.958756e-03 2.429936e-03 5.348918e-03 1.838507e-03 4.914717e-04 3.385550e-05 2.026544e-05 4.906477e-05 7.158629e-05 1.370352e-04 1.775188e-04 1.016984e-04 1.548639e-04 1.381282e-04 2.826657e-04 9.505865e-05 2.798671e-05
<GCONST> -1.347403e+02
<TRANSP> 3
 0.000000e+00 1.000000e+00 0.000000e+00
 0.000000e+00 8.979640e-01 1.020360e-01
 0.000000e+00 0.000000e+00 0.000000e+00
<ENDHMM>
~h "Tab0174"
<BEGINHMM>
<NUMSTATES> 3
<STATE> 2
<MEAN> 39
 -7.430486e+02 -1.745878e-01 6.416580e-02 1.023272e-01 1.326710e-01 1.385752e-01 8.174565e-02 9.499953e-02 2.017759e-01 1.868562e-01 7.148129e-02 1.712295e-02 1.927769e-02 1.814472e-02 5.475112e-02 -4.478555e-05 7.289193e-05 2.527625e-05 -5.870538e-06 -2.403506e-05 5.434309e-06 -2.119171e-06 -1.988133e-05 -4.191839e-05 -6.575924e-05 -6.590960e-05 -1.131799e-04 1.233974e-05 -4.863300e-06 -2.990720e-05 -6.229059e-06 -2.079278e-05 -2.097342e-05 -1.148273e-05 -1.469127e-05 -1.097201e-05 4.032328e-06 3.625739e-06 -1.520634e-05
<VARIANCE> 39
 1.382761e+04 8.067240e+01 5.205947e+00 6.452057e-02 4.584968e-02 1.000531e-01 3.241369e-02 4.311628e-02 1.254895e-01 1.172404e-01 2.710069e-02 1.684087e-03 2.428825e-03 1.837118e-03 2.057682e-02 2.004607e-05 4.115796e-05 1.878512e-05 1.253954e-05 3.373728e-05 3.378716e-05 7.680384e-06 9.380564e-06 1.167419e-05 1.194024e-05 1.284196e-05 4.143195e-05 1.458158e-06 2.743519e-06 1.686109e-06 9.604822e-07 1.971070e-06 1.930655e-06 5.562400e-07 6.756511e-07 6.404929e-07 6.060242e-07 1.092220e-06 3.273218e-06
<GCONST> -2.521745e+02
<TRANSP> 3
 0.000000e+00 1.000000e+00 0.000000e+00
 0.000000e+00 9.542143e-01 4.578577e-02
 0.000000e+00 0.000000e+00 0.000000e+00
<ENDHMM>
~h "Tab0175"
<BEGINHMM>
<NUMSTATES> 3
<STATE> 2
<MEAN> 39
 -6.210125e+02 -1.416565e-02 -2.768148e-03 3.736990e-01 3.069190e-01 2.596057e-01 3.299997e-01 4.452879e-01 3.862541e-01 3.547061e-01 3.746791e-01 3.741837e-01 3.414536e-01 3.332697e-01 4.204082e-01 1.962837e-04 -9.679920e-05 -2.680910e-04 -3.184565e-04 -3.940905e-04 4.908114e-05 4.791873e-04 4.221338e-04 2.982609e-04 2.369797e-04 1.761566e-04 9.407420e-05 4.097685e-05 4.555341e-05 -1.313743e-05 -3.628602e-05 -1.795709e-05 -2.629748e-05 1.631125e-05 3.142401e-05 1.098953e-04 1.851364e-04 1.320577e-04 6.770618e-05
<VARIANCE> 39
 5.745931e+03 2.300810e+02 1.636993e+01 1.222803e-01 7.876714e-02 7.860541e-02 7.156833e-02 1.478032e-01 9.718993e-02 9.899871e-02 1.349106e-01 1.050710e-01 1.189082e-01 7.165242e-02 1.283636e-01 4.285226e-03 2.276166e-03 2.251291e-03 2.648655e-03 5.959817e-03 3.811309e-03 2.986372e-03 4.222871e-03 3.186881e-03 4.181116e-03 3.288790e-03 5.102296e-03 2.598541e-04 1.407722e-04 1.495670e-04 1.767626e-04 3.900014e-04 2.465694e-04 1.722227e-04 2.328640e-04 1.942155e-04 2.805192e-04 2.357754e-04 3.393403e-04
<GCONST> -1.074761e+02
<TRANSP> 3
 0.000000e+00 1.000000e+00 0.000000e+00
 0.000000e+00 9.809390e-01 1.906095e-02
 0.000000e+00 0.000000e+00 0.000000e+00
<ENDHMM>
~h "Tab0176"
<BEGINHMM>
<NUMSTATES> 3
<STATE> 2
<MEAN> 39
 -6.000665e+02 -2.481742e-01 1.678545e-01 4.827000e-01 4.302237e-01 4.038186e-01 4.767795e-01 6.457945e-01 5.856106e-01 5.814232e-01 6.470218e-01 6.432860e-01 5.966761e-01 5.216211e-01 5.997530e-01 2.043392e-04 3.447174e-04 2.693730e-04 1.099004e-04 -5.009804e-05 -7.270745e-05 5.319047e-05 4.463472e-06 -2.864255e-04 -2.395990e-04 -4.618138e-04 -3.503767e-04 2.327267e-05 -1.342056e-04 -2.528121e-04 -3.004049e-04 -3.542093e-04 -2.952187e-04 -1.485834e-04 -7.440521e-05 -3.178209e-04 -5.178108e-04 -5.115793e-04 -2.993020e-04
<VARIANCE> 39
 2.711830e+04 1.340175e+03 8.977799e+01 6.008485e-02 5.292841e-02 5.827159e-02 4.280458e-02 8.889024e-02 6.156601e-02 7.180693e-02 7.109752e-02 5.519364e-02 6.382266e-02 4.358312e-02 6.299096e-02 1.140766e-03 1.221407e-03 1.672127e-03 1.617700e-03 3.228804e-03 1.564563e-03 1.133736e-03 1.523347e-03 1.679267e-03 1.746771e-03 1.199199e-03 1.574431e-03 6.544456e-05 8.081269e-05 1.115043e-04 1.127589e-04 2.384057e-04 1.044168e-04 6.908029e-05 9.342346e-05 1.170746e-04 1.183381e-04 7.829744e-05 1.036811e-04
<GCONST> -1.282223e+02
<TRANSP> 3
 0.000000e+00 1.000000e+00 0.000000e+00
 0.000000e+00 9.374689e-01 6.253104e-02
 0.000000e+00 0.000000e+00 0.000000e+00
<ENDHMM>
~h "Tab0177"
<BEGINHMM>
<NUMSTATES> 3
<STATE> 2
<MEAN> 39
 -4.943108e+02 1.854298e+00 -2.824408e-01 4.680389e-01 4.692665e-01 4.553240e-01 3.385887e-01 2.893686e-01 3.296871e-01 4.812960e-01 5.617322e-01 4.912648e-01 4.024602e-01 3.839197e-01 4.026165e-01 8.454346e-03 -5.095405e-03 -1.189010e-02 -1.021265e-02 -9.232540e-03 -3.004068e-03 2.065103e-03 -8.966692e-04 -5.179092e-03 -4.951266e-03 2.384182e-03 6.452782e-03 -1.998623e-04 9.299918e-04 1.420426e-03 1.620830e-03 1.714772e-03 -5.170911e-04 -1.761207e-03 -1.208953e-03 -7.539504e-05 1.151922e-03 8.132312e-04 8.825702e-04
<VARIANCE> 39
 2.013569e+04 2.263533e+02 1.315842e+01 1.051450e-01 9.110580e-02 1.257969e-01 6.598351e-02 6.115278e-02 4.833949e-02 8.603767e-02 1.049559e-01 9.070484e-02 1.135022e-01 7.796317e-02 1.150310e-01 2.795799e-03 3.798177e-03 3.493539e-03 1.871001e-03 2.037441e-03 1.051370e-03 1.882472e-03 2.484065e-03 2.656052e-03 3.976892e-03 3.250949e-03 3.371844e-03 1.878096e-04 2.468705e-04 1.956314e-04 9.856325e-05 1.009077e-04 6.368075e-05 1.111032e-04 1.348615e-04 1.517405e-04 2.286344e-04 1.970769e-04 1.960393e-04
<GCONST> -1.170471e+02
<TRANSP> 3
 0.000000e+00 1.000000e+00 0.000000e+00
 0.000000e+00 6.321133e-01 3.678867e-01
 0.000000e+00 0.000000e+00 0.000000e+00
<ENDHMM>
~h "Tab0178"
<BEGINHMM>
<NUMSTATES> 3
<STATE> 2
<MEAN> 39
 -7.365895e+02 1.031034e+00 1.242989e+00 5.244081e-01 5.051703e-01 6.110906e-01 4.736624e-01 4.243494e-01 3.901812e-01 4.297867e-01 4.405130e-01 3.968622e-01 4.545816e-01 4.221990e-01 5.597607e-01 -6.279431e-03 -1.797995e-03 2.519042e-03 2.903665e-03 2.327961e-03 -8.146571e-04 -5.612047e-03 -5.432281e-03 -1.639561e-03 8.239237e-04 8.387821e-04 -2.478503e-04 -1.367125e-03 -1.665865e-03 -1.390774e-03 -6.375273e-04 -1.007130e-04 6.110472e-04 -1.134768e-04 -3.013339e-04 1.802365e-05 -8.676967e-05 -2.054740e-04 -8.157569e-04
<VARIANCE> 39
 2.060344e+04 7.043044e+02 4.346731e+01 1.158228e-01 7.571343e-02 1.008870e-01 6.561732e-02 9.073357e-02 7.730761e-02 8.508829e-02 7.587285e-02 7.517773e-02 7.326861e-02 6.001461e-02 1.111736e-01 2.545029e-03 1.863042e-03 2.670889e-03 1.734126e-03 1.792768e-03 1.880658e-03 2.563561e-03 2.618256e-03 2.050123e-03 2.115118e-03 2.296008e-03 3.048953e-03 1.181576e-04 9.524036e-05 1.272829e-04 9.362654e-05 9.274878e-05 7.774850e-05 1.305626e-04 1.377398e-04 1.232839e-04 1.188246e-04 1.273711e-04 1.683275e-04
<GCONST> -1.201262e+02
<TRANSP> 3
 0.000000e+00 1.000000e+00 0.000000e+00
 0.000000e+00 8.460274e-01 1.539725e-01
 0.000000e+00 0.000000e+00 0.000000e+00
<ENDHMM>
~h "Tab0179"
<BEGINHMM>
<NUMSTATES> 3
<STATE> 2
<MEAN> 39
 -6.198180e+02 -1.909455e+00 -9.667221e-01 2.171794e-01 1.648868e-01 1.338011e-01 2.522158e-01 4.178046e-01 2.724268e-01 1.623878e-01 2.464954e-01 5.568532e-01 7.033591e-01 4.918635e-01 3.747911e-01 4.879736e-03 4.861579e-03 4.347930e-03 7.662608e-03 1.052317e-02 5.389650e-03 -5.762960e-03 -1.079226e-02 -2.957722e-03 3.405068e-03 -4.750881e-04 -1.483788e-03 8.312185e-04 5.613234e-04 1.333200e-03 2.194673e-03 2.725394e-03 3.026007e-03 3.398065e-03 2.939454e-03 -3.083091e-03 -7.208912e-03 -2.681998e-03 1.187005e-03
<VARIANCE> 39
 1.076911e+04 3.216428e+02 1.475668e+01 4.971732e-02 3.273939e-02 2.731833e-02 4.611507e-02 1.178350e-01 5.435353e-02 3.877132e-02 6.738357e-02 8.584683e-02 1.360235e-01 4.177694e-02 1.301558e-01 7.791047e-04 3.517274e-04 3.151551e-04 1.121810e-03 3.489419e-03 2.002749e-03 2.067392e-03 3.203605e-03 1.847895e-03 3.344532e-03 1.085058e-03 1.706973e-03 3.417998e-05 1.832644e-05 1.629436e-05 4.718044e-05 1.501137e-04 7.582414e-05 6.536864e-05 1.143384e-04 6.669796e-05 7.716570e-05 4.401885e-05 8.370364e-05
<GCONST> -1.409724e+02
<TRANSP> 3
 0.000000e+00 1.000000e+00 0.000000e+00
 0.000000e+00 2.572838e-01 7.427161e-01
 0.000000e+00 0.000000e+00 0.000000e+00
<ENDHMM>
~h "Tab0182"
<BEGINHMM>
<NUMSTATES> 3
<STATE> 2
<MEAN> 39
 -4.002144e+02 -6.595634e-01 4.106727e-02 1.568756e-01 4.646150e-01 6.974418e-01 4.085853e-01 2.353658e-01 2.852898e-01 1.679238e-01 8.550248e-02 3.536829e-01 6.346322e-01 3.547242e-01 1.049971e-01 -3.245894e-04 -7.621932e-05 -1.669755e-04 -1.303229e-05 2.822032e-04 2.166347e-04 -1.451492e-04 -3.793929e-04 -3.721282e-04 -5.009137e-04 -1.552569e-04 -4.751235e-05 7.148745e-05 1.791219e-05 4.143216e-05 1.120132e-04 7.105249e-05 8.176375e-05 8.569362e-05 1.326273e-04 9.186074e-05 6.375223e-06 5.524557e-05 1.110770e-04
<VARIANCE> 39
 5.534858e+04 3.833764e+01 2.275864e+00 3.252159e-02 6.806707e-02 1.584619e-01 4.816708e-02 3.642294e-02 3.836656e-02 1.770564e-02 1.728787e-02 3.987441e-02 1.275208e-01 3.981351e-02 8.269535e-03 1.047196e-04 1.226864e-04 1.124830e-04 1.161956e-04 9.813256e-05 7.243127e-05 5.958716e-05 5.448053e-05 6.993533e-05 1.246593e-04 7.221384e-05 5.671724e-05 5.454487e-06 6.153828e-06 7.307056e-06 7.201652e-06 5.179363e-06 3.675817e-06 3.428710e-06 3.235182e-06 4.425830e-06 6.811229e-06 3.397448e-06 2.156444e-06
<GCONST> -2.119472e+02
<TRANSP> 3
 0.000000e+00 1.000000e+00 0.000000e+00
 0.000000e+00 8.506469e-01 1.493532e-01
 0.000000e+00 0.000000e+00 0.000000e+00
<ENDHMM>
~h "Tab0188"
<BEGINHMM>
<NUMSTATES> 3
<STATE> 2
<MEAN> 39
 -3.561254e+02 5.529899e-01 -2.454313e-01 4.359674e-01 3.201951e-01 2.682921e-01 3.795679e-01 5.602516e-01 4.454914e-01 3.682345e-01 4.594819e-01 4.559749e-01 4.674095e-01 3.783622e-01 4.132313e-01 -5.324162e-05 2.876160e-05 6.142487e-04 6.827281e-04 7.870076e-04 8.241091e-04 9.438453e-04 1.029424e-03 5.392911e-04 -1.102071e-04 -2.658090e-04 -2.697870e-04 -1.638378e-04 5.636314e-05 4.414696e-04 2.148506e-04 -2.987406e-05 1.531736e-04 1.581499e-04 5.724383e-05 -2.194272e-05 -1.046806e-04 1.095636e-04 1.526679e-04
<VARIANCE> 39
 2.448864e+04 2.780128e+02 1.457332e+01 9.073000e-02 4.313555e-02 7.529230e-02 5.504214e-02 1.214156e-01 6.749603e-02 5.408987e-02 1.312045e-01 3.783111e-02 1.367352e-01 5.211242e-02 7.538428e-02 6.302778e-04 4.256919e-04 1.079876e-03 8.688641e-04 1.289405e-03 1.103311e-03 8.716047e-04 1.081548e-03 6.254681e-04 1.336928e-03 6.529523e-04 7.153336e-04 2.954385e-05 2.436322e-05 6.073129e-05 4.979458e-05 7.018938e-05 6.110869e-05 4.669644e-05 5.321944e-05 3.519691e-05 7.454399e-05 3.615034e-05 3.520205e-05
<GCONST> -1.464043e+02
<TRANSP> 3
 0.000000e+00 1.000000e+00 0.000000e+00
 0.000000e+00 9.477078e-01 5.229219e-02
 0.000000e+00 0.000000e+00 0.000000e+00
<ENDHMM>
~h "Tab0191"
<BEGINHMM>
<NUMSTATES> 3
<STATE> 2
<MEAN> 39
 -5.978171e+02 -2.087661e-01 5.806260e-03 2.890956e-02 3.025901e-02 3.655513e-02 3.113341e-02 2.915108e-02 2.303287e-02 2.053200e-02 1.462597e-02 2.319819e-02 3.604713e-02 3.862271e-02 4.089834e-02 -5.559355e-05 -5.519207e-06 6.282798e-05 1.364830e-05 -2.206068e-04 -1.249184e-04 -1.415968e-04 -1.417274e-04 -1.099695e-04 -9.709428e-05 -7.435656e-05 -1.258666e-04 -1.766584e-05 -2.667920e-06 2.638660e-05 4.811509e-05 5.086855e-05 4.997832e-05 9.361334e-06 6.856280e-07 2.290390e-05 3.389395e-05 2.720684e-06 -2.765965e-05
<VARIANCE> 39
 4.263090e+03 1.648368e+00 9.713050e-02 1.140190e-02 1.441918e-02 2.652018e-02 1.312207e-02 1.917256e-02 8.317236e-03 1.178685e-02 4.310023e-03 7.158946e-03 2.158661e-02 1.800838e-02 3.524389e-02 7.738464e-06 5.756516e-06 8.173934e-06 7.573492e-06 1.677426e-05 1.072307e-05 9.618028e-06 9.380564e-06 8.854334e-06 1.833302e-05 6.066088e-06 1.553580e-05 4.039318e-07 3.075810e-07 4.262554e-07 4.267057e-07 7.312149e-07 7.157298e-07 6.767847e-07 6.166974e-07 6.094215e-07 6.585353e-07 3.307438e-07 7.399414e-07
<GCONST> -2.851941e+02
<TRANSP> 3
 0.000000e+00 1.000000e+00 0.000000e+00
 0.000000e+00 9.828196e-01 1.718046e-02
 0.000000e+00 0.000000e+00 0.000000e+00
<ENDHMM>
~h "Tab0192"
<BEGINHMM>
<NUMSTATES> 3
<STATE> 2
<MEAN> 39
 -5.301091e+02 -1.353626e+00 6.470546e-02 2.021218e-01 1.783686e-01 2.051636e-01 1.281522e-01 6.512403e-02 5.539423e-02 1.800899e-01 3.206524e-01 2.189148e-01 1.245265e-01 1.544780e-01 2.272965e-01 5.132619e-05 3.242492e-04 5.238041e-04 -5.773759e-05 -8.723204e-04 -8.692113e-04 -4.738685e-04 -8.164161e-04 -5.446365e-04 -2.293737e-04 7.897073e-05 2.450041e-04 -2.241424e-06 1.606228e-05 5.126395e-05 7.172151e-05 1.277093e-04 1.739678e-04 1.676804e-04 1.218584e-04 7.315187e-05 7.319848e-05 6.078225e-05 1.705997e-05
<VARIANCE> 39
 1.363486e+04 3.492804e+00 9.713050e-02 8.653244e-02 4.703589e-02 7.904065e-02 2.809287e-02 2.514481e-02 1.533167e-02 6.012696e-02 1.881024e-01 6.738421e-02 5.839184e-02 3.933306e-02 7.148313e-02 7.738464e-06 9.614845e-06 1.816756e-05 1.078497e-05 1.486115e-05 1.068366e-05 9.028349e-06 1.169197e-05 1.039083e-05 9.102586e-06 6.822048e-06 1.129408e-05 4.039318e-07 5.565668e-07 7.325374e-07 7.957780e-07 1.599446e-06 8.400268e-07 8.673540e-07 6.606509e-07 5.188415e-07 4.952964e-07 3.436867e-07 5.755614e-07
<GCONST> -2.638896e+02
<TRANSP> 3
 0.000000e+00 1.000000e+00 0.000000e+00
 0.000000e+00 8.758269e-01 1.241731e-01
 0.000000e+00 0.000000e+00 0.000000e+00
<ENDHMM>
~h "Tab0193"
<BEGINHMM>
<NUMSTATES> 3
<STATE> 2
<MEAN> 39
 -3.702258e+02 -3.112545e+00 -3.793004e-01 3.521574e-01 2.965289e-01 2.868957e-01 3.584109e-01 5.531965e-01 5.596606e-01 3.850611e-01 3.297025e-01 3.246163e-01 3.224068e-01 2.372705e-01 2.932618e-01 1.512907e-03 5.537518e-03 8.020522e-03 1.918841e-03 -1.368642e-03 -9.999372e-04 1.664199e-03 2.524829e-03 -2.616216e-03 -6.777964e-03 -8.246819e-04 5.713868e-03 -9.618539e-06 5.367672e-05 -8.074933e-05 -3.142338e-04 -1.224486e-03 -7.655077e-04 -4.193097e-04 -7.448287e-04 3.282877e-04 1.626769e-03 1.157539e-03 5.283226e-05
<VARIANCE> 39
 2.208356e+04 2.610918e+02 1.418127e+01 7.625091e-02 3.630041e-02 1.047178e-01 6.174941e-02 1.286993e-01 1.263302e-01 5.534634e-02 1.178513e-01 5.936336e-02 9.271711e-02 3.703066e-02 4.615235e-02 1.373531e-03 7.599861e-04 1.784566e-03 9.442321e-04 1.689994e-03 1.246824e-03 7.860263e-04 1.450447e-03 8.208317e-04 1.535845e-03 6.134338e-04 9.408806e-04 6.855330e-05 3.368145e-05 7.776463e-05 4.753929e-05 9.007596e-05 6.592879e-05 4.329926e-05 6.505719e-05 4.206484e-05 7.004072e-05 3.175263e-05 4.105638e-05
<GCONST> -1.415623e+02
<TRANSP> 3
 0.000000e+00 1.000000e+00 0.000000e+00
 0.000000e+00 7.143847e-01 2.856153e-01
 0.000000e+00 0.000000e+00 0.000000e+00
<ENDHMM>
~h "Tab0194"
<BEGINHMM>
<NUMSTATES> 3
<STATE> 2
<MEAN> 39
 -4.623647e+02 -9.031313e-03 2.247053e-01 4.934496e-01 4.431319e-01 3.701090e-01 3.095058e-01 4.026077e-01 4.100707e-01 2.788447e-01 2.578722e-01 3.358856e-01 4.294649e-01 3.195854e-01 3.634294e-01 -2.771408e-03 -1.917152e-03 -7.201520e-04 9.511349e-04 1.676373e-03 1.490630e-03 1.697317e-03 1.526082e-03 1.376607e-03 1.564897e-03 1.636778e-03 -5.884311e-04 -7.217098e-05 4.341098e-05 3.622879e-04 7.374065e-04 4.119605e-04 3.193111e-04 7.978746e-04 6.906450e-04 6.744873e-04 3.112218e-04 4.204020e-04 3.360358e-04
<VARIANCE> 39
 2.177258e+04 5.013165e+02 2.855178e+01 1.395736e-01 5.937250e-02 1.499584e-01 6.318565e-02 1.063100e-01 1.254560e-01 4.325003e-02 6.466214e-02 4.528607e-02 1.002329e-01 6.453466e-02 7.691003e-02 2.529762e-03 7.581156e-04 2.112428e-03 9.909094e-04 1.282091e-03 6.773212e-04 3.649011e-04 9.382206e-04 8.232692e-04 1.591803e-03 1.085737e-03 1.287994e-03 1.613216e-04 4.302695e-05 1.249512e-04 5.722988e-05 7.552450e-05 3.860653e-05 2.667696e-05 5.482514e-05 5.513925e-05 9.002203e-05 6.125867e-05 7.241107e-05
<GCONST> -1.371179e+02
<TRANSP> 3
 0.000000e+00 1.000000e+00 0.000000e+00
 0.000000e+00 8.815027e-01 1.184973e-01
 0.000000e+00 0.000000e+00 0.000000e+00
<ENDHMM>
~h "Tab0195"
<BEGINHMM>
<NUMSTATES> 3
<STATE> 2
<MEAN> 39
