~h "one"
<BEGINHMM>
<NUMSTATES> 15
<STATE> 2
<NUMBMIXS> 2
<MIXTURE> 1	0.535401
<MEAN> 39
2.756810  4.880338  2.872595  2.380285  1.574555  0.593417  2.027540  1.718964  0.023231  -0.324231  -0.741748  -0.771918  12.527731  0.977286  0.605425  -0.098678  -0.253505  0.286513  -0.103382  -0.099878  -0.003864  -0.002782  0.120499  -0.119111  0.087367  0.230802  0.115396  0.029536  -0.072367  -0.165601  -0.053837  -0.064688  -0.088014  -0.064038  -0.100861  -0.064074  0.016418  0.005899  0.110548  
<VARIANCE> 39
20.182842  21.964462  22.645041  29.399341  28.205766  35.770741  40.213629  36.148523  30.014928  24.605121  23.907516  24.213785  4.059170  1.999768  2.017824  2.687921  3.143159  3.332396  3.503797  3.581346  3.744543  3.104357  2.686177  2.309471  2.119280  0.665219  0.246239  0.345106  0.464696  0.534180  0.508661  0.538994  0.680989  0.667404  0.523550  0.437250  0.438739  0.379194  0.056362  
<MIXTURE> 2	0.464599
<MEAN> 39
4.269565  5.017333  1.420325  1.249445  1.132817  -2.143315  -0.464446  -0.635434  -0.699256  -0.828924  -1.339992  0.100143  12.992610  1.367522  0.215973  -0.729430  -1.161636  -0.914739  -1.547976  -1.746087  -1.482788  -1.269336  -0.818336  -0.728520  -0.323669  0.748667  0.223268  -0.049766  -0.248911  -0.406705  -0.295796  -0.230193  -0.223096  -0.223738  -0.301421  -0.205371  -0.181212  -0.239053  0.212775  
<VARIANCE> 39
15.296338  21.579945  17.217016  27.323406  29.479353  50.832911  40.033081  38.487737  31.912787  25.737921  28.114493  26.400965  3.963467  1.852445  1.896706  2.664726  3.556577  4.340128  4.036440  4.373572  4.484176  3.683709  2.728246  2.714653  2.435115  0.873601  0.266930  0.364793  0.610005  0.527915  0.546850  0.541544  0.669666  0.661380  0.552693  0.439802  0.494809  0.444960  0.067648  

<STATE> 3
<NUMBMIXS> 2
<MIXTURE> 1	0.497181
<MEAN> 39
16.725368  9.107939  -2.075950  -8.502010  -3.464956  -8.782584  -7.960294  -6.301372  -8.930680  -4.829750  -5.290120  -3.713787  19.970881  2.448220  -0.115966  -2.236559  -2.808827  -0.742293  -1.112499  -0.437083  -0.172173  -0.800869  -0.233269  -0.246015  -0.363007  1.405512  -0.684655  -0.369818  -0.206795  0.322948  0.517689  0.630762  0.669530  0.424780  0.583249  0.313964  0.252176  0.125685  -0.337930  
<VARIANCE> 39
21.377519  17.913805  41.311719  37.758656  47.691701  49.648430  38.161949  46.039973  25.906100  29.467375  30.680019  26.076109  2.582393  1.978811  1.564808  2.731155  2.870753  2.530388  3.102617  3.852144  2.695451  3.448395  3.341154  3.528270  2.536653  0.357512  0.359367  0.255699  0.527804  0.692445  0.452598  0.464377  0.521087  0.481051  0.473324  0.459298  0.541922  0.339720  0.035053  
<MIXTURE> 2	0.502819
<MEAN> 39
13.846751  5.982843  -5.306035  -9.492428  -8.596254  -14.547270  -12.826335  -12.195693  -10.369496  -6.681860  -5.788210  -1.313090  20.187548  2.336397  -1.111818  -3.244012  -3.021099  -1.780779  -1.733469  -1.508320  -1.556737  -2.000674  -1.793796  -2.044416  -2.006206  1.656486  -0.560024  -0.353455  -0.126734  0.382114  0.732282  0.722949  0.854666  0.670727  0.534925  0.239279  -0.135836  -0.222484  -0.328525  
<VARIANCE> 39
21.409680  16.609862  49.357293  37.292292  32.451864  35.901579  26.590977  30.685974  19.856654  21.408376  33.336271  32.914833  3.586155  1.642335  1.770223  2.910344  2.499110  3.110819  3.251324  4.072817  3.765478  3.652122  2.826752  2.762880  2.427763  0.386650  0.400155  0.308435  0.733471  0.685464  0.488012  0.530360  0.454584  0.505406  0.481142  0.459264  0.542821  0.487914  0.053006  

<STATE> 4
<NUMBMIXS> 2
<MIXTURE> 1	0.511861
<MEAN> 39
18.403883  7.906073  -7.212633  -12.968295  -2.411846  -7.200204  -4.751383  -3.523987  -8.276188  -3.911146  -4.886544  -5.148381  21.913792  -0.106910  -0.535372  -1.662118  -0.591768  0.478809  1.097361  0.885656  -0.056253  0.091445  -0.264545  0.204985  -0.310998  0.356542  -0.351426  -0.154968  0.044249  0.595283  0.396343  0.354575  -0.093542  -0.258560  0.062808  -0.056110  0.072193  -0.015857  -0.132436  
<VARIANCE> 39
10.072699  18.548261  26.474485  24.844101  46.314858  47.338904  41.391170  50.918263  29.663070  36.834413  37.851558  25.225018  0.902483  0.682064  1.153450  1.700993  1.537253  2.010944  1.767160  1.636268  2.180265  1.674935  1.675334  1.676106  1.372768  0.024857  0.224659  0.195714  0.281500  0.445291  0.326593  0.342278  0.401663  0.387005  0.332443  0.384218  0.377298  0.344855  0.022836  
<MIXTURE> 2	0.488139
<MEAN> 39
16.368593  3.595718  -11.703948  -14.271055  -7.547723  -13.236320  -9.511943  -11.078377  -10.700430  -8.673510  -9.846489  -7.370668  22.419436  -0.261020  -0.977229  -1.911171  -0.471729  0.345136  1.088416  0.420299  -0.076435  -0.377859  -0.738050  -0.479384  -0.822293  0.321920  -0.339117  -0.155099  0.054007  0.642153  0.320780  0.254395  -0.260437  -0.127511  -0.006966  0.035393  0.292856  0.299188  -0.125468  
<VARIANCE> 39
11.782338  20.333622  26.292342  21.574416  38.214944  38.072169  32.317667  48.835741  28.313579  30.164370  34.722596  32.068339  0.713869  0.686265  1.108964  2.068005  1.464562  1.832895  1.845599  1.776366  2.164294  1.876213  2.187717  2.383909  1.869127  0.026469  0.233879  0.210220  0.455883  0.515355  0.294322  0.348021  0.486443  0.448550  0.406292  0.458301  0.404862  0.447011  0.024146  

<STATE> 5
<NUMBMIXS> 2
<MIXTURE> 1	0.513240
<MEAN> 39
15.978682  2.760825  -16.144596  -11.796856  2.739591  -1.023503  -4.595600  -9.173803  -10.031957  -6.798493  -4.548845  -6.642458  23.258891  -0.849902  -1.621673  -1.226626  2.324836  1.836166  0.524464  -1.558970  -1.433163  0.545446  -0.100754  0.125817  -0.380957  0.169703  -0.120659  -0.062294  0.519557  0.653803  -0.225737  -0.687741  -0.500233  0.337746  0.396101  -0.030877  -0.139528  0.158465  -0.055096  
<VARIANCE> 39
13.016718  20.153535  23.742772  20.592610  53.392893  53.391576  56.727167  45.470709  47.405955  40.071620  43.605575  26.988008  0.208423  0.449524  0.553426  1.183741  1.515463  1.226804  2.062184  2.124964  2.117703  2.296537  1.552088  1.846184  1.864230  0.012999  0.072848  0.081362  0.165520  0.225278  0.273075  0.225176  0.334336  0.387992  0.271801  0.289275  0.386796  0.321850  0.002055  
<MIXTURE> 2	0.486760
<MEAN> 39
14.768219  -1.683821  -20.139579  -12.994762  -4.719885  -8.239250  -11.634693  -13.808675  -13.706649  -10.352499  -9.313860  -7.815466  23.324302  -0.924283  -2.009718  -1.517487  2.351014  1.410768  0.332715  -2.079630  -0.883145  0.050054  -0.163823  -0.020926  -0.243915  0.179508  -0.244534  -0.164149  0.615291  0.766167  -0.243171  -0.748752  -0.428217  0.272752  0.267246  -0.128732  -0.039770  0.134127  -0.057243  
<VARIANCE> 39
11.768836  19.075573  17.336552  20.869070  32.659158  25.989621  39.269500  29.129411  36.130598  24.312403  33.795663  32.670857  0.224762  0.533750  0.684545  1.429364  1.917975  1.248039  2.281317  2.187494  1.854066  2.438392  2.485461  2.318819  2.178274  0.015494  0.083038  0.107402  0.264031  0.300987  0.301371  0.275510  0.455436  0.445174  0.351496  0.463302  0.515708  0.321180  0.003458  

<STATE> 6
<NUMBMIXS> 2
<MIXTURE> 1	0.522968
<MEAN> 39
12.278481  -3.194031  -16.507876  -0.271140  5.690508  -5.106927  -11.943828  -9.431664  -4.505546  -9.556876  -6.214745  -6.537452  23.498958  -0.966213  -1.282013  1.004606  2.709770  -0.648262  -1.734504  -0.640101  1.287834  0.383461  -1.503761  -0.018038  1.168526  0.018983  0.059327  0.208513  0.531149  -0.363171  -0.658326  -0.050860  0.824111  0.315168  -0.607588  -0.048913  0.497964  0.280081  -0.031430  
<VARIANCE> 39
12.871847  20.558050  27.924525  28.374556  52.301251  50.277110  67.874725  49.931064  60.771822  47.689107  36.947671  33.260413  0.098036  0.303465  0.416057  0.838568  1.110482  1.383506  0.831658  2.464843  1.856043  2.188788  1.281226  2.335257  1.552799  0.006551  0.034655  0.051582  0.130811  0.144743  0.198483  0.253945  0.286783  0.399032  0.267797  0.347033  0.289887  0.330508  0.000789  
<MIXTURE> 2	0.477032
<MEAN> 39
11.672885  -7.626684  -20.886520  -2.227111  -1.586846  -11.139992  -18.343150  -12.746644  -10.350640  -12.043259  -10.493879  -8.018059  23.666509  -1.219840  -1.735664  0.830117  2.970904  -0.822544  -1.877401  -0.893724  1.263733  -0.082680  -1.487693  0.158250  0.555555  0.054707  -0.037751  0.273468  0.684785  -0.348817  -0.817414  -0.098158  0.876242  0.205607  -0.507758  -0.094415  0.441170  0.048760  -0.039872  
<VARIANCE> 39
12.701521  19.116495  20.148303  28.667268  35.026527  34.797331  48.998055  31.826399  42.158642  32.164803  40.081357  43.046292  0.096208  0.393489  0.628441  0.969114  1.439531  1.607727  1.009307  2.977734  2.152597  2.587593  1.718961  2.703597  1.690540  0.008072  0.039766  0.065906  0.179728  0.219417  0.210587  0.355536  0.333116  0.505396  0.348778  0.469389  0.366537  0.452795  0.001019  

<STATE> 7
<NUMBMIXS> 2
<MIXTURE> 1	0.502928
<MEAN> 39
8.625200  -6.684577  -9.909828  5.836251  -1.951047  -10.443807  -7.370688  -5.269004  -9.903343  -13.434753  -1.151476  -3.040517  23.356978  -0.685538  -0.389118  2.053821  0.199058  -1.886844  0.138517  1.975821  -0.455870  -1.565610  0.714513  1.545834  -0.341428  -0.063499  0.109486  0.288072  0.092428  -0.660375  0.056739  0.661609  0.095723  -0.616594  0.174233  0.725629  -0.311214  -0.478862  -0.021219  
<VARIANCE> 39
12.847768  19.456325  36.684895  22.661990  64.215130  36.143267  83.781100  50.774252  59.597286  44.016895  46.103718  42.152635  0.129489  0.287563  0.345070  0.588080  1.449178  0.773389  1.890970  1.212874  2.500024  1.556703  2.800537  1.528427  2.406486  0.007237  0.026700  0.047216  0.073673  0.114918  0.155293  0.184015  0.344241  0.184158  0.440639  0.291169  0.531508  0.285227  0.000621  
<MIXTURE> 2	0.497072
<MEAN> 39
7.297453  -12.150125  -13.759623  4.535357  -10.006310  -16.076627  -14.573770  -9.262593  -16.353657  -14.534948  -5.331746  -6.489994  23.635566  -0.976981  -0.493430  1.994378  0.377331  -2.189493  0.325450  1.556049  -0.867291  -1.210054  0.659600  1.133468  -1.118737  -0.045371  0.077890  0.297874  0.024069  -0.740841  0.083137  0.656663  -0.033158  -0.733082  0.389352  0.509466  -0.459766  -0.378302  -0.022793  
<VARIANCE> 39
13.611628  16.008225  25.287244  24.367455  40.577093  28.733700  64.698659  32.232007  42.911199  37.710342  51.248502  46.825699  0.112228  0.269253  0.337490  0.617519  1.580916  0.895215  1.690161  1.285528  3.084453  1.948574  2.149967  2.045855  2.375316  0.006016  0.026430  0.067386  0.089373  0.198058  0.200090  0.207429  0.414707  0.253458  0.491106  0.333540  0.458741  0.430468  0.000855  

<STATE> 8
<NUMBMIXS> 2
<MIXTURE> 1	0.484472
<MEAN> 39
5.079620  -8.465929  -3.624831  -0.415999  -11.875328  -5.812185  -7.767030  -16.331113  -11.826284  -8.621715  -4.490534  -9.443854  23.138679  -0.300976  0.813236  1.237157  -1.858969  0.075512  1.696478  -0.166138  -1.167861  1.544346  0.491353  -0.864115  0.193786  -0.107943  0.210484  0.303403  -0.207471  -0.146093  0.471010  -0.172124  -0.391284  0.516816  0.228530  -0.355553  -0.069395  0.376617  -0.014332  
<VARIANCE> 39
15.421151  21.869056  20.573914  36.685707  61.547277  37.364637  98.766759  64.669456  42.584197  47.933750  64.563312  37.240701  0.197284  0.288034  0.308942  0.866628  0.969533  1.904932  1.112818  2.003323  2.068932  2.352317  3.228536  1.655424  2.067039  0.005181  0.034798  0.060249  0.089285  0.154814  0.183166  0.239721  0.285419  0.302707  0.454942  0.299923  0.538477  0.330258  0.000574  
<MIXTURE> 2	0.515528
<MEAN> 39
3.305210  -11.992122  -6.223901  -1.150666  -16.213409  -8.548223  -12.934353  -19.100844  -13.287392  -11.006840  -7.895413  -11.033706  23.289329  -0.573552  0.585761  1.052965  -1.817817  0.107899  1.547178  -0.815188  -1.216156  1.551002  -0.256889  -0.873976  0.013359  -0.091580  0.129259  0.191099  -0.274272  -0.229878  0.450372  -0.153190  -0.387743  0.396388  0.134628  -0.455656  0.066658  0.323696  -0.007932  
<VARIANCE> 39
14.514275  14.597213  14.491042  33.213717  20.814890  36.653246  50.181691  40.701549  47.248457  39.942106  43.297186  35.933380  0.155560  0.269387  0.299199  0.819183  1.093957  1.641111  1.295816  1.752871  2.379385  1.838175  2.766415  1.468208  2.228676  0.004756  0.030443  0.039627  0.067671  0.153833  0.190600  0.216099  0.274799  0.312391  0.513007  0.287403  0.350885  0.384031  0.000461  

<STATE> 9
<NUMBMIXS> 2
<MIXTURE> 1	0.466999
<MEAN> 39
6.379384  -2.253959  -0.002567  -7.126589  -7.335202  -1.364744  -8.102344  -13.593238  -7.010283  -8.854325  -4.384872  -6.487563  22.350258  1.066080  2.227186  1.486931  -1.956356  0.484870  -0.875655  -0.275147  1.086475  0.591810  0.620342  -0.787707  0.688541  -0.207983  0.266045  0.351502  0.186499  0.090368  0.152513  -0.963177  -0.001601  0.377215  -0.083790  0.049134  -0.030520  0.157072  -0.001566  
<VARIANCE> 39
17.122304  18.862896  26.670373  45.005008  35.728404  33.767679  156.242688  42.819845  36.120439  70.385182  51.997166  28.832007  0.533811  0.732409  1.123571  2.309037  1.577139  2.210933  5.208528  3.364394  3.889077  2.823365  3.266363  4.137229  2.674018  0.018007  0.100912  0.162625  0.251873  0.271051  0.444773  0.571246  0.867630  0.559007  0.432755  0.442886  0.530497  0.419886  0.001579  
<MIXTURE> 2	0.533001
<MEAN> 39
2.937504  -5.119606  -4.056479  -11.202233  -9.163954  -3.653346  -18.228516  -16.397775  -7.283641  -15.816739  -6.529786  -8.863089  22.574232  0.799355  1.724839  0.247531  -1.658208  0.774909  -0.693820  -0.328263  1.025173  0.036054  -0.367586  0.146604  0.169406  -0.154997  0.300125  0.205801  0.116998  0.097868  -0.166220  -0.717615  0.324787  0.104615  -0.207795  0.254615  -0.185813  -0.001446  -0.001023  
<VARIANCE> 39
18.064483  15.321247  15.630625  27.352228  24.696954  32.500882  89.990844  42.770750  31.072419  52.208422  41.813264  29.480477  0.582138  0.815752  0.862166  1.440421  1.372109  1.811232  3.311020  2.454862  2.405841  2.236586  2.920455  3.037631  2.347397  0.016949  0.079658  0.116714  0.192588  0.215240  0.305123  0.492897  0.394181  0.441186  0.425934  0.457973  0.461889  0.415595  0.001276  

<STATE> 10
<NUMBMIXS> 2
<MIXTURE> 1	0.496319
<MEAN> 39
10.008296  5.342571  2.908599  -15.587089  -6.764568  -14.258700  -12.342656  -10.672696  -6.581558  -8.061591  -5.734517  -1.718844  22.127924  0.814599  1.666114  1.048019  -0.332802  0.384051  -1.969732  -0.292653  0.913344  0.467369  1.017426  0.093295  0.885400  -0.117996  -0.204112  -0.309952  -0.225114  0.591516  -0.016011  0.465915  -0.068689  -0.193275  0.003535  -0.000434  0.287934  -0.100956  -0.004514  
<VARIANCE> 39
8.959304  14.259235  53.659798  41.536857  34.823186  77.386780  99.278138  49.433231  58.663723  97.970868  86.253749  92.157773  1.371331  0.733347  2.267775  2.046742  2.997764  2.764856  6.253922  5.939711  3.426948  3.208525  4.637652  4.183486  3.598365  0.021560  0.089190  0.209583  0.338739  0.294541  0.319747  0.634229  0.492744  0.435759  0.495018  0.648470  0.554153  0.503392  0.003734  
<MIXTURE> 2	0.503681
<MEAN> 39
9.861500  4.661230  -1.126218  -18.174368  -8.138443  -17.091497  -15.776390  -13.360256  -8.087274  -13.044160  -7.181217  -4.339874  22.432061  0.602355  1.208693  0.396642  -0.111174  -0.173884  -1.924428  0.337275  0.216993  -0.302933  0.296826  -0.258649  0.339583  -0.059511  -0.286281  -0.331703  -0.120542  0.466596  -0.139932  0.519289  -0.315600  -0.174617  -0.048766  0.018163  0.083205  -0.154940  -0.009688  
<VARIANCE> 39
6.615497  11.652589  25.064173  29.222486  29.969379  55.708493  59.302315  47.317386  50.760962  56.920692  77.555674  104.391671  0.963926  0.787728  1.625207  1.313081  2.232083  2.093821  4.946092  3.929876  2.496748  2.696251  3.632571  2.911043  3.371831  0.014331  0.098649  0.203122  0.239214  0.291684  0.284693  0.565726  0.539212  0.452545  0.460602  0.550343  0.482526  0.474842  0.003187  

<STATE> 11
<NUMBMIXS> 2
<MIXTURE> 1	0.496602
<MEAN> 39
12.701430  10.641781  9.829817  -8.851102  -2.623437  -10.441910  -6.718335  -7.141560  -5.701560  -2.894276  -7.334853  -3.016968  21.010740  0.225267  0.737821  0.757065  0.842916  0.605047  0.453800  -0.451793  -0.157513  0.467696  0.260736  0.109015  0.290613  -0.229292  -0.165556  -0.214918  -0.011033  0.349442  0.106700  0.435030  0.138062  -0.150635  0.016073  -0.039976  0.150857  -0.035938  -0.049762  
<VARIANCE> 39
7.761336  11.445843  43.225904  28.561207  32.183727  63.539675  54.094928  45.129484  28.568024  74.465345  37.135331  35.964304  0.992599  0.411560  0.972989  1.113626  1.407365  1.256381  2.017296  1.692110  1.436730  1.664352  1.470694  1.444135  1.471806  0.020806  0.081605  0.221319  0.278706  0.255233  0.292989  0.360412  0.405929  0.335431  0.284264  0.308437  0.306019  0.284979  0.003977  
<MIXTURE> 2	0.503398
<MEAN> 39
12.005773  9.096776  3.168850  -12.296908  -6.624839  -16.578215  -11.924270  -10.048224  -7.407503  -10.768278  -9.615880  -6.101064  21.289195  0.019004  0.555079  0.507735  0.786028  0.060284  0.165265  -0.822415  -0.454319  -0.365380  -0.080446  -0.241924  -0.025535  -0.145306  -0.207282  -0.179855  0.078375  0.171974  0.121514  0.409546  -0.086718  -0.151939  -0.003735  -0.049771  0.000157  -0.046186  -0.053430  
<VARIANCE> 39
8.510642  12.049093  41.325471  26.520632  37.400156  72.073758  48.996932  47.806523  52.230283  75.704782  45.105290  55.540867  1.545786  0.430699  0.636797  1.014055  1.268407  1.206038  2.403524  1.667947  1.516676  1.833944  1.803017  1.367240  1.613362  0.025921  0.081769  0.160307  0.219369  0.238860  0.263217  0.409696  0.398400  0.307655  0.305857  0.328947  0.346192  0.342052  0.007549  

<STATE> 12
<NUMBMIXS> 2
<MIXTURE> 1	0.489346
<MEAN> 39
10.714654  11.009309  9.319805  -6.417905  -3.849936  -11.015345  -14.428194  -12.163990  -6.891444  -6.322114  -7.092618  -3.194146  20.160026  -0.915122  -0.229738  1.148605  1.772741  1.841178  2.277528  1.120850  0.819370  1.290268  1.195058  1.033161  0.520069  -0.812424  -0.223832  -0.394164  -0.296157  -0.083157  0.338175  0.473048  0.816008  0.617300  0.496676  0.314274  0.356081  0.140739  -0.166696  
<VARIANCE> 39
7.401967  13.678420  44.058627  37.474607  47.698698  85.794655  64.074847  53.297217  47.394287  82.831048  69.596881  59.225191  1.374375  0.620474  1.297464  1.561813  1.790880  2.586073  3.458127  3.631754  3.822069  3.411985  3.944332  2.752097  3.116519  0.139698  0.102496  0.198508  0.386414  0.397701  0.553508  0.703553  0.552027  0.561823  0.669782  0.580620  0.538313  0.645435  0.010742  
<MIXTURE> 2	0.510654
<MEAN> 39
10.059841  9.716253  6.752017  -8.655971  -5.872896  -13.112119  -17.642309  -13.161932  -7.108851  -9.436701  -7.893074  -3.973328  20.407635  -1.173129  -0.359888  0.884529  1.441835  1.068072  1.803150  0.245484  0.095535  0.471946  0.639507  0.360931  0.137009  -0.749782  -0.330573  -0.502273  -0.280377  -0.087011  0.209282  0.541441  0.753299  0.538150  0.491568  0.301173  0.299828  0.216570  -0.217701  
<VARIANCE> 39
7.698209  14.817920  42.834812  43.104675  48.437088  70.512205  67.649581  49.503415  52.675244  85.818828  74.621366  89.726716  1.896144  0.724037  1.244902  1.794154  1.972912  1.898344  3.846584  3.915404  3.296328  3.187587  3.313142  2.910291  4.102109  0.153487  0.136630  0.192077  0.334149  0.462949  0.418622  0.795236  0.508067  0.554371  0.545721  0.637052  0.572179  0.740515  0.010746  

<STATE> 13
<NUMBMIXS> 2
<MIXTURE> 1	0.500971
<MEAN> 39
6.055099  6.548605  9.570265  -2.163935  1.424801  -1.148761  -6.756578  -6.702081  -0.471509  -0.590407  -2.249695  -0.472470  16.769228  -0.548866  -0.672726  -0.083027  1.292652  1.377862  2.168233  2.175464  1.849615  1.791737  1.358926  1.090784  0.643858  -0.729242  0.328620  0.240449  -0.119634  -0.175942  -0.280530  -0.414618  -0.223839  -0.062524  -0.185114  -0.156955  -0.154084  -0.062317  0.167450  
<VARIANCE> 39
15.205364  29.162851  29.552194  40.130113  41.008776  68.783466  69.573894  62.016040  48.311810  51.208663  63.150262  33.829230  2.725201  1.184857  1.807578  2.393693  2.946061  3.939652  5.220882  5.244966  4.455558  4.135884  4.834150  4.615249  4.257104  0.238902  0.167596  0.266999  0.408626  0.462557  0.572824  0.664114  0.870185  0.753876  0.705316  0.682446  0.674622  0.575743  0.033901  
<MIXTURE> 2	0.499029
<MEAN> 39
5.098389  5.017209  9.069973  -2.757983  0.395978  0.771214  -7.825287  -7.171889  0.323739  -2.023306  -3.034035  -1.270573  16.651124  -1.074315  -1.219436  -0.806683  0.580938  0.433780  1.409672  1.166836  0.964394  1.003120  0.684751  0.713750  0.238978  -0.861625  0.262163  0.109237  -0.206741  -0.301944  -0.364940  -0.584431  -0.219604  -0.074013  -0.266270  -0.079111  -0.154414  0.014000  0.098417  
<VARIANCE> 39
16.529037  35.739644  37.629159  41.260140  43.035372  75.623802  86.635889  57.712466  51.301378  56.484599  51.514275  41.647823  3.014885  1.313103  1.603789  3.350312  2.748498  3.249358  6.272378  4.680242  4.402995  3.952748  5.114957  4.106453  4.468045  0.190297  0.192760  0.328583  0.492340  0.454248  0.495224  0.810259  0.821715  0.738818  0.699059  0.638228  0.567377  0.621544  0.027972  

<STATE> 14
<NUMBMIXS> 2
<MIXTURE> 1	0.498608
<MEAN> 39
7.947242  9.514320  8.311752  1.587166  3.197816  1.298054  -1.153921  -0.968584  1.076634  0.771861  -1.220902  -0.251554  15.272257  0.119788  0.247916  0.059331  0.470533  0.207857  0.418495  0.535666  0.450532  0.205337  0.254201  0.227601  0.169839  -0.087012  0.011889  0.035512  0.059891  0.002180  0.018000  0.004667  0.004002  -0.006673  0.023812  -0.000476  0.002800  -0.001096  0.030790  
<VARIANCE> 39
22.476092  30.149277  17.413051  24.967362  21.415321  28.942019  34.607153  34.649853  31.071429  26.369277  26.524724  23.241536  3.525281  0.486135  0.675734  0.843853  1.331772  1.509303  1.750206  2.319113  2.502906  2.394486  2.343319  2.248741  2.006430  0.067311  0.073580  0.104968  0.161541  0.228456  0.289030  0.332161  0.441398  0.455489  0.403734  0.452760  0.414161  0.372695  0.009826  
<MIXTURE> 2	0.501392
<MEAN> 39
5.908678  7.462670  7.189673  0.210479  2.083128  0.802607  -2.753204  -1.689991  1.065154  0.017200  -2.160532  -0.448357  14.608983  -0.028976  -0.040537  -0.324085  -0.048714  -0.192788  -0.135181  0.031886  -0.091921  -0.323871  -0.263368  -0.162098  -0.152247  -0.202182  -0.009185  -0.027588  -0.032466  -0.123525  -0.072975  -0.107265  -0.147247  -0.154916  -0.140340  -0.095611  -0.076075  -0.053902  0.012290  
<VARIANCE> 39
32.614323  34.445078  22.959557  27.673516  24.726462  34.423564  47.208896  42.379432  37.572976  30.628273  26.044592  23.296472  4.404039  0.529943  0.668213  0.887183  1.185212  1.740402  2.054511  2.560020  2.392129  2.368965  2.279023  2.245554  2.073275  0.072931  0.070239  0.109673  0.151779  0.198862  0.281134  0.332634  0.428638  0.401073  0.400706  0.424165  0.403063  0.351827  0.009382  

<TRANSP> 15
0.000000  1.000000  0.000000  0.000000  0.000000  0.000000  0.000000  0.000000  0.000000  0.000000  0.000000  0.000000  0.000000  0.000000  0.000000  
0.000000  0.843843  0.156157  0.000000  0.000000  0.000000  0.000000  0.000000  0.000000  0.000000  0.000000  0.000000  0.000000  0.000000  0.000000  
0.000000  0.000000  0.665105  0.334895  0.000000  0.000000  0.000000  0.000000  0.000000  0.000000  0.000000  0.000000  0.000000  0.000000  0.000000  
0.000000  0.000000  0.000000  0.759750  0.240250  0.000000  0.000000  0.000000  0.000000  0.000000  0.000000  0.000000  0.000000  0.000000  0.000000  
0.000000  0.000000  0.000000  0.000000  0.684953  0.315047  0.000000  0.000000  0.000000  0.000000  0.000000  0.000000  0.000000  0.000000  0.000000  
0.000000  0.000000  0.000000  0.000000  0.000000  0.710862  0.289138  0.000000  0.000000  0.000000  0.000000  0.000000  0.000000  0.000000  0.000000  
0.000000  0.000000  0.000000  0.000000  0.000000  0.000000  0.777172  0.222828  0.000000  0.000000  0.000000  0.000000  0.000000  0.000000  0.000000  
0.000000  0.000000  0.000000  0.000000  0.000000  0.000000  0.000000  0.784907  0.215093  0.000000  0.000000  0.000000  0.000000  0.000000  0.000000  
0.000000  0.000000  0.000000  0.000000  0.000000  0.000000  0.000000  0.000000  0.773074  0.226926  0.000000  0.000000  0.000000  0.000000  0.000000  
0.000000  0.000000  0.000000  0.000000  0.000000  0.000000  0.000000  0.000000  0.000000  0.734149  0.265851  0.000000  0.000000  0.000000  0.000000  
0.000000  0.000000  0.000000  0.000000  0.000000  0.000000  0.000000  0.000000  0.000000  0.000000  0.789120  0.210880  0.000000  0.000000  0.000000  
0.000000  0.000000  0.000000  0.000000  0.000000  0.000000  0.000000  0.000000  0.000000  0.000000  0.000000  0.658841  0.341159  0.000000  0.000000  
0.000000  0.000000  0.000000  0.000000  0.000000  0.000000  0.000000  0.000000  0.000000  0.000000  0.000000  0.000000  0.715583  0.284417  0.000000  
0.000000  0.000000  0.000000  0.000000  0.000000  0.000000  0.000000  0.000000  0.000000  0.000000  0.000000  0.000000  0.000000  0.869654  0.130346  
0.000000  0.000000  0.000000  0.000000  0.000000  0.000000  0.000000  0.000000  0.000000  0.000000  0.000000  0.000000  0.000000  0.000000  0.000000  

~h "two"
<BEGINHMM>
<NUMSTATES> 15
<STATE> 2
<NUMBMIXS> 2
<MIXTURE> 1	0.496023
<MEAN> 39
0.400809  6.244600  2.903480  1.990740  1.735726  2.815017  3.824200  2.910244  1.455119  -0.078902  0.339815  0.509980  13.169657  -0.482131  -0.023333  -0.801337  -0.117227  -0.120222  -0.212045  -0.236593  0.054101  0.114986  -0.207217  0.021170  -0.200052  0.767597  0.008440  0.220325  0.031544  -0.052327  0.111581  0.093215  0.030103  0.132965  0.043096  0.024562  -0.015435  0.041079  0.049610  
<VARIANCE> 39
15.935081  12.431364  19.609910  20.872679  23.058766  24.633391  27.455634  26.565952  21.017553  18.967793  17.722157  17.037986  8.352012  1.988512  1.683410  2.599241  2.440268  2.404718  3.576176  2.939346  3.129543  2.757524  2.742512  2.638104  2.179273  1.234424  0.256891  0.369713  0.387068  0.381143  0.427814  0.618971  0.451126  0.505485  0.424667  0.456298  0.483793  0.351073  0.133694  
<MIXTURE> 2	0.503977
<MEAN> 39
-0.767690  4.922039  1.099840  0.895201  0.402745  1.615834  2.887217  2.250410  0.407190  -0.666401  -0.286483  -0.293457  13.981372  -1.069330  -0.591592  -1.568821  -0.574292  -0.700367  -0.793158  -0.818652  -0.273981  -0.419110  -0.572284  -0.392106  -0.685210  1.245701  -0.002238  0.367956  -0.011696  -0.068803  0.177593  0.058724  -0.003753  0.183399  -0.005273  -0.088269  -0.033425  -0.032602  0.013497  
<VARIANCE> 39
17.861507  15.771288  20.762310  21.334728  23.610123  24.113987  24.317978  23.380991  21.136368  19.966424  17.014911  15.284620  11.593109  1.592560  1.531078  2.437075  2.261943  2.800686  2.853220  3.041444  2.896340  3.025787  2.530794  2.473278  2.406513  1.099367  0.291825  0.425503  0.402090  0.378590  0.531088  0.610629  0.518456  0.512699  0.478410  0.510291  0.512510  0.355204  0.178546  

<STATE> 3
<NUMBMIXS> 2
<MIXTURE> 1	0.495565
<MEAN> 39
-4.282938  9.027556  -3.325856  -0.837420  1.820230  0.951802  1.043203  4.094094  1.963514  -2.759589  -1.263237  -1.369397  19.239113  0.117767  1.720003  0.831885  -0.807770  1.129490  0.521210  -0.274513  0.188271  0.496171  -0.178251  -0.189962  0.229808  0.507937  0.631347  -0.079927  0.817802  -0.192491  0.066077  0.066999  0.138445  -0.291006  -0.037227  0.177195  0.080774  0.117671  -0.318550  
<VARIANCE> 39
10.576185  24.728720  20.763794  22.334257  30.427066  23.888775  26.769013  27.780487  34.894747  34.029133  40.560943  31.239048  0.722680  1.646806  2.277204  3.414085  2.298670  3.240397  3.615433  3.194806  3.150681  3.186509  3.982238  5.641168  3.189390  0.518464  0.242077  0.646265  0.620868  0.477331  0.885782  0.819635  0.662497  0.696977  0.702680  0.685846  0.922633  0.701874  0.100444  
<MIXTURE> 2	0.504435
<MEAN> 39
-5.555103  7.353777  -4.686855  -1.849413  1.770102  -0.099851  0.513061  4.350760  -0.217091  -3.865900  -0.562591  -3.451004  18.800889  -0.282925  0.775101  0.229382  -1.291358  0.724840  -0.348898  -0.746472  -0.272612  0.094698  -0.792598  -0.094816  -0.350005  0.359739  0.698427  -0.089255  0.513689  -0.533277  -0.386672  -0.335598  -0.227788  -0.584830  -0.045678  0.072533  -0.072539  0.244318  -0.113460  
<VARIANCE> 39
11.757962  20.231960  18.125041  21.620631  26.409824  25.860737  32.362117  23.221031  33.318553  32.602682  32.726370  33.071591  0.773538  1.671737  1.640223  2.893870  2.110759  2.835869  3.014535  3.165040  3.206464  3.155397  3.340466  4.423387  2.804446  0.445442  0.277169  0.471066  0.554640  0.586369  0.909119  0.859780  0.861026  0.692290  0.703519  0.698268  0.714150  0.788760  0.125245  

<STATE> 4
<NUMBMIXS> 2
<MIXTURE> 1	0.509722
<MEAN> 39
-0.923295  11.197627  3.760358  -4.728417  3.319683  3.086173  -0.048955  1.367163  3.231035  -1.350469  -3.852293  -0.135180  19.704495  2.658913  -0.104401  1.529055  -2.516244  -1.777793  -1.392502  -0.887726  -1.768966  -0.679691  -0.124069  -0.485831  -0.556338  0.794591  0.194673  -0.487088  -0.607919  -0.726062  -1.158346  -0.825081  -0.289154  -0.267051  -0.390211  -0.250034  0.094800  -0.281732  0.219558  
<VARIANCE> 39
20.726257  17.639892  29.107033  22.704698  44.104162  44.060010  30.842803  34.276824  35.580457  50.522722  68.143574  38.158045  1.809798  0.986334  1.459236  2.874465  3.238577  3.671535  4.273601  3.111661  2.780374  2.777873  2.844745  4.321594  5.459353  0.194768  0.407666  0.375157  0.383947  0.411330  0.539297  0.725187  0.631992  0.704733  0.741007  0.666596  1.025708  1.074613  0.033535  
<MIXTURE> 2	0.490278
<MEAN> 39
-2.389057  9.571760  0.558794  -6.460535  5.079070  -1.344013  -0.398208  1.683723  1.494770  -5.077061  0.560633  -3.255285  19.404083  2.708478  -0.468916  -0.002287  -4.549195  -3.097452  -3.244054  -2.459114  -3.184699  -1.364657  -0.909811  -0.893573  0.619163  0.964293  0.218611  -0.490936  -0.731440  -0.931029  -1.360254  -0.557018  -0.343892  -0.388576  -0.645620  -0.331174  -0.586759  -0.082456  0.270505  
<VARIANCE> 39
21.387589  18.341799  32.881083  23.147167  33.937057  48.135025  31.839747  36.661532  39.818022  43.908931  56.939233  41.104577  1.546741  1.024663  1.983629  2.541877  3.107226  2.996306  3.025574  3.883181  2.658176  2.848267  3.078321  4.148420  6.001949  0.155867  0.450457  0.268753  0.346158  0.419996  0.471330  0.706534  0.674130  0.749638  0.709691  0.529707  0.958448  0.939648  0.023461  

<STATE> 5
<NUMBMIXS> 2
<MIXTURE> 1	0.485343
<MEAN> 39
6.593511  9.015292  3.020790  -15.873359  -8.357745  -5.939257  -5.464714  -5.200086  -1.518226  -4.027200  -5.595915  -3.467346  22.913752  1.369284  -0.908038  -0.392303  -3.648516  -3.570198  -1.965763  -0.897916  -1.376152  -0.868568  -0.606555  -0.205012  -1.017466  1.093840  -0.957527  -0.082904  -0.412279  0.540485  0.507741  0.617762  0.491362  0.695892  0.340616  0.147633  0.165891  0.111730  -0.209252  
<VARIANCE> 39
9.732591  13.794553  44.744331  33.734249  28.281419  44.149715  33.759399  16.086352  22.167720  32.421628  51.737616  41.535693  0.360379  1.798728  1.372217  2.480300  2.615352  2.460632  2.796178  3.254277  2.907851  2.891659  2.641903  4.811328  7.948330  0.126519  0.128134  0.200870  0.315512  0.395593  0.387078  0.457860  0.415397  0.340803  0.360152  0.380284  0.521798  0.614613  0.018043  
<MIXTURE> 2	0.514657
<MEAN> 39
5.627097  8.038139  -3.191956  -19.931218  -6.978206  -11.989553  -8.612028  -6.924147  -3.788577  -7.974826  -0.999245  -0.611498  22.776988  1.296567  -1.353365  -1.549336  -5.378043  -4.338833  -2.703483  -2.184939  -2.391358  -1.973522  -1.768326  -2.048562  0.129465  1.216492  -1.020499  -0.201159  -0.203396  0.773983  0.500084  0.895734  0.725298  0.855915  0.084722  -0.104390  -0.337791  -0.608652  -0.187559  
<VARIANCE> 39
8.040465  15.433859  33.916822  31.162286  22.651670  33.398466  20.376855  17.116347  17.717741  29.688406  45.468244  49.801624  0.438678  2.016559  1.332617  1.929376  2.439934  2.204677  2.319804  3.239138  3.242891  3.589989  2.665692  4.731871  7.631559  0.093532  0.124260  0.241564  0.279146  0.458577  0.464705  0.405192  0.459902  0.408140  0.455910  0.418121  0.682316  0.670080  0.018423  

<STATE> 6
<NUMBMIXS> 2
<MIXTURE> 1	0.488425
<MEAN> 39
4.320528  6.529086  0.528633  -21.247701  -11.538018  -7.285932  -5.586608  -5.156520  -2.137163  -5.940435  -6.965224  -4.646873  23.768953  -0.638504  -0.634162  -0.383202  -1.333201  -1.134466  0.009656  0.310261  0.329411  -0.016745  -0.048812  -0.404584  -0.685424  0.297087  -0.418743  0.277569  0.158305  1.147756  0.992049  0.607310  0.368753  0.492743  0.288825  0.364437  0.277436  0.181525  -0.316600  
<VARIANCE> 39
15.423497  15.611124  60.727125  39.340994  26.104998  48.479043  38.619078  21.988434  30.198255  54.786833  47.269892  67.523315  0.066826  0.920971  0.800700  0.691492  1.538195  1.801124  1.762206  1.466985  1.212128  1.588433  1.573789  3.014860  2.792149  0.030437  0.201030  0.146189  0.263569  0.237018  0.261238  0.302938  0.354744  0.334470  0.352001  0.356439  0.462556  0.672879  0.007563  
<MIXTURE> 2	0.511575
<MEAN> 39
2.765840  5.044715  -5.137089  -25.498933  -9.706417  -11.009730  -7.320362  -6.320964  -5.459317  -10.986401  -4.848980  -1.697077  23.764110  -1.067621  -1.048668  -0.919300  -2.129645  -1.219952  0.027706  0.101686  0.031260  -0.946293  -1.175211  -1.912402  -1.188022  0.337296  -0.449341  0.293908  0.319921  1.352294  0.975646  0.555785  0.449782  0.628982  0.354919  0.350833  0.165208  -0.434787  -0.320656  
<VARIANCE> 39
11.696038  12.543562  34.862499  25.340607  24.859639  33.922379  20.454332  19.939352  22.230441  39.372694  48.698281  90.943019  0.076124  0.749266  0.806880  0.754285  2.025994  2.108775  1.515116  1.593481  1.594087  2.170062  1.918835  2.994807  3.081041  0.040536  0.232538  0.121465  0.213921  0.255096  0.285825  0.394800  0.360473  0.394923  0.395337  0.392583  0.603999  1.011520  0.008390  

<STATE> 7
<NUMBMIXS> 2
<MIXTURE> 1	0.499541
<MEAN> 39
2.975211  5.962651  -1.053375  -23.696990  -12.901787  -8.303595  -6.153391  -4.449252  -3.971552  -7.901169  -8.554823  -6.074282  23.877566  0.030008  -0.137661  0.098219  -0.062581  -0.631865  -0.173167  -0.017899  0.279113  0.013139  0.199930  -0.312094  -0.837766  0.027353  0.239583  0.141343  0.201018  0.625667  0.386920  0.082995  0.026380  0.030600  0.098900  0.302046  0.247173  0.220017  -0.111059  
<VARIANCE> 39
14.370175  14.009931  48.895480  54.295951  34.323496  45.039988  32.447337  21.357852  36.071320  57.205930  38.508285  62.337682  0.051634  0.441394  0.365088  0.659833  0.923261  1.356096  0.851248  1.106857  1.123246  1.343701  1.233826  2.099676  1.212663  0.007242  0.082699  0.083295  0.104329  0.179991  0.236027  0.181554  0.217289  0.217335  0.296596  0.249291  0.306350  0.296349  0.006430  
<MIXTURE> 2	0.500459
<MEAN> 39
0.949796  3.589174  -6.792770  -27.922364  -9.866678  -11.623492  -8.163061  -6.365591  -7.485019  -11.932086  -7.129019  -1.608182  23.866050  -0.117482  -0.294910  -0.061823  -0.542726  -0.637542  -0.452223  -0.446366  -0.092158  -0.286774  -0.495259  -1.375455  -1.418687  0.005858  0.257839  0.091800  0.193620  0.362083  0.062456  -0.072569  -0.113232  -0.128729  0.146321  0.252376  0.206024  0.019967  -0.066260  
<VARIANCE> 39
13.316150  14.986200  25.130709  20.641541  37.236099  30.002795  20.322986  20.558382  21.340748  39.588724  55.822998  99.548751  0.056635  0.496349  0.450145  0.585555  0.987906  1.519628  1.077936  1.106749  1.356748  1.574948  1.432269  1.756919  1.556345  0.007345  0.090186  0.079633  0.081834  0.198790  0.256717  0.223070  0.187239  0.250680  0.265380  0.228611  0.329508  0.432704  0.004552  

<STATE> 8
<NUMBMIXS> 2
<MIXTURE> 1	0.504722
<MEAN> 39
4.400266  6.701155  0.113881  -23.052559  -12.149294  -9.325863  -7.467073  -5.268226  -3.297266  -7.435965  -8.276351  -7.950130  23.512350  0.490952  -0.018695  0.485242  0.431042  -0.239421  0.060380  0.028161  0.009597  0.161593  0.425956  0.200841  0.106713  -0.083907  0.130562  0.005630  0.066353  0.200743  -0.001796  0.034786  0.146354  -0.008362  0.013334  0.103120  0.073390  0.138097  -0.018186  
<VARIANCE> 39
11.551305  14.366002  51.040410  39.774178  25.177640  50.539545  34.330444  26.711645  40.227731  56.635895  29.268597  40.463768  0.209902  0.209229  0.274652  0.390371  0.600706  0.577247  0.748009  0.762735  0.838176  1.034652  0.781336  1.088544  1.162009  0.005774  0.030941  0.029127  0.041935  0.069577  0.089717  0.091790  0.103859  0.119255  0.139457  0.108805  0.107458  0.149608  0.000744  
<MIXTURE> 2	0.495278
<MEAN> 39
3.348049  4.830012  -5.402257  -27.488941  -10.430306  -13.966749  -10.218139  -7.079062  -6.499250  -12.630541  -9.693297  -7.659202  23.525115  0.296454  -0.120183  0.334599  0.168495  -0.560877  0.003630  -0.282032  -0.433510  -0.052379  0.122116  -0.598179  0.187004  -0.087968  0.068368  -0.043788  -0.003370  0.077440  -0.157003  -0.022418  0.078307  -0.127654  -0.033137  0.023461  -0.075967  0.084325  -0.013014  
<VARIANCE> 39
13.288961  12.525275  23.153769  14.511251  23.919315  29.498072  16.623641  29.013196  22.603539  22.117376  23.462561  52.052598  0.204147  0.164845  0.307349  0.319333  0.618411  0.724314  0.768701  0.724396  0.942336  0.882810  0.779159  1.147164  1.258341  0.005757  0.024423  0.026902  0.047926  0.077352  0.097546  0.099938  0.108685  0.141334  0.126130  0.123337  0.130051  0.171577  0.000459  

<STATE> 9
<NUMBMIXS> 2
<MIXTURE> 1	0.501893
<MEAN> 39
8.687573  4.985857  3.433244  -16.388542  -17.663030  -8.319436  -4.102798  -6.283190  -4.369795  -1.231252  -8.559445  -7.621178  22.877465  1.104769  -0.131328  0.075369  1.888817  -0.310519  -0.802018  1.192088  0.376338  -0.889207  1.012486  1.152150  -0.213358  -0.170356  0.085146  0.107823  -0.163687  0.250735  0.304906  -0.221333  -0.057251  0.381846  -0.104741  -0.169944  0.355858  0.139837  -0.018642  
<VARIANCE> 39
14.642608  19.301882  38.811722  43.797599  23.596391  31.620349  48.743718  47.928011  37.988509  57.733985  77.509093  47.770597  0.622815  0.418222  0.394586  0.765587  1.046980  1.063314  1.407826  1.654386  1.971833  1.679294  2.035796  2.406002  2.249558  0.013388  0.048757  0.056974  0.112652  0.164802  0.170024  0.183038  0.270112  0.258836  0.264911  0.354022  0.384457  0.325501  0.001241  
<MIXTURE> 2	0.498107
<MEAN> 39
7.903394  2.084952  -1.405817  -20.402231  -18.704806  -11.287690  -6.227647  -11.441700  -5.840300  -5.989829  -14.548103  -4.603611  22.891761  1.018952  -0.459513  -0.038923  1.833715  -1.091083  -0.937187  1.273970  -0.421781  -1.186083  1.092709  0.197907  -0.607279  -0.169792  0.048230  0.063056  -0.182744  0.218504  0.233240  -0.351819  -0.060451  0.384893  -0.337751  -0.280590  0.470530  -0.126810  -0.018901  
<VARIANCE> 39
15.808455  21.352135  28.551557  36.113871  24.534586  25.641047  45.668857  41.237801  37.300177  46.375411  48.555172  56.794008  0.640458  0.358338  0.357553  0.620151  1.059947  1.492768  1.966660  1.304351  2.479971  2.051555  1.864629  2.605277  2.474951  0.012411  0.048741  0.057304  0.108814  0.154179  0.254577  0.275998  0.368347  0.342401  0.348804  0.464036  0.325591  0.477795  0.000973  

<STATE> 10
<NUMBMIXS> 2
<MIXTURE> 1	0.530143
<MEAN> 39
12.273981  4.574689  0.933893  -7.029579  -15.889667  -14.646538  -0.905688  0.283216  -7.939734  -1.793111  0.357656  -7.532808  22.544181  1.180943  0.226701  -0.802316  1.708055  1.452705  -1.240863  -0.730134  1.625797  0.159765  -0.906094  0.713183  1.404096  -0.215882  -0.045989  0.119961  0.071059  -0.117204  0.462546  0.323557  -0.444566  -0.184697  0.562713  -0.074620  -0.531387  0.215402  -0.033047  
<VARIANCE> 39
12.347867  23.839896  39.605647  36.191319  26.532511  39.079606  42.476113  61.445937  39.883627  51.172016  73.356133  54.998349  0.747764  0.455921  0.441934  0.864135  1.500416  1.332897  1.502490  2.225464  2.147644  2.350791  2.055967  3.134088  1.643305  0.016157  0.070486  0.092519  0.159228  0.186100  0.266561  0.299614  0.332221  0.369568  0.276917  0.439851  0.346661  0.401585  0.002285  
<MIXTURE> 2	0.469857
<MEAN> 39
12.161470  1.756260  -2.289986  -10.409802  -18.158070  -17.742856  -2.047665  -4.161999  -11.352817  -4.389122  -5.975312  -6.753611  22.394627  1.049941  0.157506  -0.825315  1.654873  1.199069  -1.386579  -1.096562  1.278497  -0.171575  -1.368412  0.826524  0.829758  -0.204983  -0.111575  0.147950  0.036943  -0.236833  0.483399  0.341595  -0.673840  -0.325638  0.539088  -0.183568  -0.505881  0.219709  -0.024749  
<VARIANCE> 39
13.025328  26.129225  37.195672  32.750501  25.329046  40.248442  45.510042  68.850095  44.099302  50.346676  83.958846  60.633160  0.949795  0.517612  0.423175  0.981421  1.551020  1.681975  2.070254  2.742546  2.522496  3.050565  2.021588  3.048643  2.202034  0.020729  0.079199  0.089822  0.181290  0.227466  0.295512  0.375460  0.429403  0.515608  0.385136  0.624896  0.456917  0.454793  0.003054  

<STATE> 11
<NUMBMIXS> 2
<MIXTURE> 1	0.531099
<MEAN> 39
16.075420  5.788862  -2.772447  -4.404812  -7.840638  -15.194563  -8.915019  0.954256  -3.467605  -4.243892  -3.176698  -3.475069  21.636891  0.642979  0.473768  0.371284  0.986434  1.907934  1.035762  -0.754372  -0.540423  0.891864  0.402300  -0.700404  0.276450  -0.339187  -0.384373  0.044275  0.569632  0.083466  0.187220  0.358938  0.386487  -0.281393  -0.170971  0.256192  0.064266  -0.157667  -0.058246  
<VARIANCE> 39
11.635246  24.390538  44.153605  47.369035  43.448747  44.328437  53.510566  66.108040  48.129967  46.181753  59.919430  53.863166  0.864078  0.735097  0.772187  1.927086  2.150968  2.476474  2.757662  3.689102  2.495645  2.527556  3.922607  3.605341  2.657415  0.026999  0.129601  0.151264  0.223922  0.310348  0.413137  0.470737  0.452964  0.501312  0.468659  0.483960  0.457369  0.473717  0.004711  
<MIXTURE> 2	0.468901
<MEAN> 39
15.524734  3.943519  -4.785213  -8.802640  -11.056406  -18.340498  -9.490901  -4.128311  -6.768549  -7.271973  -8.545188  -3.829068  21.474977  0.310087  0.512878  0.280853  0.962360  1.434217  0.137492  -1.705273  -1.103400  0.493264  -0.249058  -0.643801  0.053570  -0.255154  -0.419080  -0.042023  0.481297  0.084798  0.059949  0.283136  0.143540  -0.450002  -0.162292  0.209260  -0.058024  -0.255870  -0.054612  
<VARIANCE> 39
14.791934  24.753833  42.369479  45.534367  40.329418  43.049833  48.443424  63.677015  57.981975  39.696800  62.898044  53.082379  1.233132  0.919995  0.699307  2.304378  2.457104  3.303558  3.148424  3.491163  3.017490  3.182898  4.022290  3.175692  3.022585  0.042293  0.148593  0.111295  0.265300  0.344834  0.470661  0.483007  0.608757  0.583319  0.612812  0.568521  0.521218  0.541225  0.007924  

<STATE> 12
<NUMBMIXS> 2
<MIXTURE> 1	0.494777
<MEAN> 39
14.834487  7.075940  2.028717  -3.595921  -5.832194  -13.527566  -9.784326  -5.951097  -4.567776  -3.289674  -5.992301  -2.910567  20.499215  -0.929128  0.451895  2.190670  2.267787  2.730070  1.439704  0.776277  -0.266945  0.310966  0.878731  0.462705  0.494553  -0.654826  -0.437271  -0.276762  0.099625  0.156117  0.296332  0.459299  0.622181  0.350822  0.181570  0.206190  0.224687  0.140878  -0.135180  
<VARIANCE> 39
12.040181  19.447479  34.088347  45.057522  73.851422  61.238453  43.376576  85.048314  58.816047  64.269163  76.818724  88.654052  0.964228  0.875840  1.564434  1.995750  2.385384  3.620085  3.360770  3.677451  4.326014  4.224962  4.455011  4.980079  3.270263  0.095179  0.207471  0.211509  0.403190  0.381134  0.728642  0.829653  0.668017  0.846133  0.709815  1.011421  0.905106  0.706360  0.013544  
<MIXTURE> 2	0.505223
<MEAN> 39
13.679751  5.407186  0.834865  -4.703131  -7.911439  -16.985469  -11.472612  -9.790438  -7.801265  -6.450885  -8.015249  -2.485540  20.404995  -1.188285  0.139281  1.784203  1.947514  1.830429  0.853271  -0.257655  -0.934454  0.094821  0.384809  0.170802  -0.079944  -0.674324  -0.433742  -0.387236  -0.000286  -0.015592  0.157664  0.540132  0.622865  0.460241  0.254200  0.329324  0.127587  -0.007544  -0.186379  
<VARIANCE> 39
11.683878  21.854839  31.265281  38.129531  67.219353  60.912396  44.226426  71.061962  56.949094  63.037098  121.564289  96.332895  1.010082  0.893642  1.233859  1.881893  2.329848  3.304846  3.378721  3.849730  4.183205  3.577936  3.747436  4.581253  3.717100  0.113862  0.200706  0.192088  0.347311  0.383563  0.691876  0.663713  0.731819  0.817775  0.615207  0.788765  1.044240  0.765186  0.011920  

<STATE> 13
<NUMBMIXS> 2
<MIXTURE> 1	0.488208
<MEAN> 39
10.452916  5.669659  7.194622  3.422114  2.366030  -7.343531  -4.665397  -5.368174  -4.129012  -1.455751  -5.554189  -2.519565  18.070386  -1.208858  -0.557468  0.909499  1.511941  2.421032  2.524388  2.143980  1.147988  1.263209  1.683523  1.039408  0.825334  -0.847248  0.198263  0.018889  -0.482972  -0.504427  -0.543043  -0.058022  0.013671  0.321975  0.213145  0.086940  0.145406  0.030171  0.067418  
<VARIANCE> 39
15.179064  25.950727  23.695858  37.733529  57.004103  53.668403  59.753853  58.902153  51.249570  51.070072  47.785674  53.225431  1.953954  1.103531  1.410661  2.111198  2.972459  4.267171  4.428756  3.871068  6.273908  4.148821  4.998967  4.676361  4.040014  0.145797  0.209682  0.281537  0.346063  0.325805  0.626933  0.617388  0.751120  0.707685  0.699280  0.839212  0.771647  0.557949  0.027648  
<MIXTURE> 2	0.511792
<MEAN> 39
9.782135  4.925148  6.776820  2.460659  0.413060  -8.697661  -5.892736  -6.691868  -5.422826  -3.261289  -6.190700  -3.284068  17.908365  -1.614701  -1.185599  0.259461  1.122094  1.598001  1.762771  1.037616  0.525291  1.032876  0.885507  0.617277  0.330889  -0.969468  0.081323  -0.155022  -0.519092  -0.512955  -0.586803  -0.121377  0.092999  0.285801  0.151100  0.087828  0.149412  0.051300  0.003355  
<VARIANCE> 39
14.926015  28.634104  25.776488  37.421997  68.447355  58.189397  62.508290  69.247271  60.476892  69.541116  50.571475  60.689214  1.899752  0.939306  1.376650  1.976004  2.517895  4.532874  4.098905  3.749541  5.082878  4.471916  3.765408  4.676872  4.288945  0.147839  0.182940  0.231230  0.285767  0.348184  0.578954  0.574217  0.631960  0.714594  0.606585  0.647135  0.733070  0.604402  0.022604  

<STATE> 14
<NUMBMIXS> 2
<MIXTURE> 1	0.508573
<MEAN> 39
8.438712  7.306177  6.984739  4.661753  3.024961  -0.096635  0.123451  -0.582058  0.490266  1.100209  -1.294874  -0.066640  15.597898  -0.089359  0.405263  0.166839  0.267819  0.211124  0.695444  0.540881  0.535832  0.438533  0.283110  0.347012  0.255708  -0.143642  0.060840  0.064439  0.009431  -0.003443  -0.029427  -0.056677  -0.032174  -0.028754  -0.010222  -0.021899  -0.006219  0.039210  0.053916  
<VARIANCE> 39
28.750788  34.822544  18.815167  23.817152  30.008796  33.715117  41.241775  35.961469  32.840916  30.715806  27.911478  25.171152  3.087500  0.731396  1.068325  1.247639  1.821865  2.062180  2.369741  2.410151  2.377580  2.335950  2.733395  2.394290  1.997903  0.093029  0.130382  0.193068  0.235160  0.329265  0.390816  0.476281  0.498260  0.479241  0.454232  0.503983  0.435403  0.373873  0.014482  
<MIXTURE> 2	0.491427
<MEAN> 39
7.594144  5.482744  6.374707  3.426826  2.106048  -0.756740  -0.664722  -1.558837  -0.058873  0.677589  -2.689796  -0.415913  15.324831  -0.264254  -0.016893  -0.328150  -0.195359  -0.153963  0.144132  -0.179736  -0.155876  -0.056062  -0.116709  0.024715  -0.035611  -0.319572  0.035823  0.011092  -0.088879  -0.123624  -0.155027  -0.258351  -0.205824  -0.167953  -0.137945  -0.142060  -0.098396  -0.084994  0.034784  
<VARIANCE> 39
24.579006  38.564361  21.332051  26.423907  38.783147  40.115952  50.411100  35.501983  36.835188  31.538376  28.960822  30.951070  3.420051  0.704551  1.263687  1.152669  1.625657  2.213892  2.282417  2.866766  2.898499  2.433513  2.697446  2.646909  2.361733  0.108358  0.106762  0.172791  0.212604  0.296438  0.394735  0.421421  0.531228  0.486076  0.403116  0.431255  0.435546  0.370537  0.014034  

<TRANSP> 15
0.000000  1.000000  0.000000  0.000000  0.000000  0.000000  0.000000  0.000000  0.000000  0.000000  0.000000  0.000000  0.000000  0.000000  0.000000  
0.000000  0.798389  0.201611  0.000000  0.000000  0.000000  0.000000  0.000000  0.000000  0.000000  0.000000  0.000000  0.000000  0.000000  0.000000  
0.000000  0.000000  0.750496  0.249504  0.000000  0.000000  0.000000  0.000000  0.000000  0.000000  0.000000  0.000000  0.000000  0.000000  0.000000  
0.000000  0.000000  0.000000  0.557917  0.442083  0.000000  0.000000  0.000000  0.000000  0.000000  0.000000  0.000000  0.000000  0.000000  0.000000  
0.000000  0.000000  0.000000  0.000000  0.445332  0.554668  0.000000  0.000000  0.000000  0.000000  0.000000  0.000000  0.000000  0.000000  0.000000  
0.000000  0.000000  0.000000  0.000000  0.000000  0.380149  0.619851  0.000000  0.000000  0.000000  0.000000  0.000000  0.000000  0.000000  0.000000  
0.000000  0.000000  0.000000  0.000000  0.000000  0.000000  0.619058  0.380942  0.000000  0.000000  0.000000  0.000000  0.000000  0.000000  0.000000  
0.000000  0.000000  0.000000  0.000000  0.000000  0.000000  0.000000  0.852325  0.147675  0.000000  0.000000  0.000000  0.000000  0.000000  0.000000  
0.000000  0.000000  0.000000  0.000000  0.000000  0.000000  0.000000  0.000000  0.757634  0.242366  0.000000  0.000000  0.000000  0.000000  0.000000  
0.000000  0.000000  0.000000  0.000000  0.000000  0.000000  0.000000  0.000000  0.000000  0.674822  0.325178  0.000000  0.000000  0.000000  0.000000  
0.000000  0.000000  0.000000  0.000000  0.000000  0.000000  0.000000  0.000000  0.000000  0.000000  0.675010  0.324990  0.000000  0.000000  0.000000  
0.000000  0.000000  0.000000  0.000000  0.000000  0.000000  0.000000  0.000000  0.000000  0.000000  0.000000  0.601415  0.398585  0.000000  0.000000  
0.000000  0.000000  0.000000  0.000000  0.000000  0.000000  0.000000  0.000000  0.000000  0.000000  0.000000  0.000000  0.647082  0.352918  0.000000  
0.000000  0.000000  0.000000  0.000000  0.000000  0.000000  0.000000  0.000000  0.000000  0.000000  0.000000  0.000000  0.000000  0.849027  0.150973  
0.000000  0.000000  0.000000  0.000000  0.000000  0.000000  0.000000  0.000000  0.000000  0.000000  0.000000  0.000000  0.000000  0.000000  0.000000  

~h "three"
<BEGINHMM>
<NUMSTATES> 15
<STATE> 2
<NUMBMIXS> 2
<MIXTURE> 1	0.494453
<MEAN> 39
0.385775  5.733130  3.600405  0.956959  1.889725  1.924142  2.649287  2.107583  1.709494  -0.027354  0.199691  0.250755  13.132584  -0.118194  -0.107358  -0.120078  -0.019311  0.242341  0.053741  0.166556  0.024156  0.239831  0.080950  0.233249  0.172050  0.402458  0.156222  0.085584  0.011355  -0.046601  0.017266  -0.011072  0.099818  -0.005567  0.001535  -0.019244  -0.081004  0.011171  0.114141  
<VARIANCE> 39
16.774543  17.008068  13.508506  18.316821  19.150646  22.173670  22.451578  21.822200  20.274357  19.689878  19.255119  16.186493  3.682617  1.700456  2.153810  1.700010  2.118296  2.374411  2.561107  2.866104  2.648203  2.580886  2.616976  2.310882  1.986296  0.502600  0.341715  0.408678  0.297714  0.402260  0.459326  0.490287  0.505072  0.471198  0.442308  0.472615  0.453438  0.379701  0.060357  
<MIXTURE> 2	0.505547
<MEAN> 39
-0.272345  4.759411  2.962381  0.315859  1.490287  1.206178  2.246969  1.636129  1.049245  -0.715257  -0.131758  -0.235890  13.131548  -0.438805  -0.668587  -0.555167  -0.633547  -0.349483  -0.624361  -0.466060  -0.520234  -0.160829  -0.360454  -0.139722  -0.216815  0.512562  0.196533  0.044084  -0.073112  -0.193226  -0.140216  -0.092157  -0.001047  -0.068022  -0.078418  -0.062353  -0.160430  -0.019709  0.153840  
<VARIANCE> 39
17.222836  18.389539  13.390293  19.492983  18.279536  23.390825  24.269998  22.075636  22.083291  19.574059  18.903673  16.494731  3.509301  1.718844  2.219516  1.511508  2.233333  2.311017  3.098060  2.669926  2.685403  2.316121  2.646650  2.698960  2.020435  0.609473  0.381192  0.423282  0.285876  0.459972  0.453579  0.524782  0.477214  0.461931  0.493108  0.510865  0.480719  0.394078  0.062180  

<STATE> 3
<NUMBMIXS> 2
<MIXTURE> 1	0.512766
<MEAN> 39
0.989432  4.985639  2.848967  -2.242387  2.641927  0.416915  3.117605  0.353801  0.890344  -1.174715  -2.067679  -0.428809  18.716526  1.886083  0.647588  0.899569  -0.905673  -0.714801  -0.682779  -0.111155  -0.230208  -0.484654  -0.293154  -0.407617  -0.231561  1.172348  0.579979  -0.267852  0.336753  0.000929  -0.851288  -0.222241  -0.229185  -0.056311  -0.181515  -0.033046  0.002318  -0.115947  -0.142942  
<VARIANCE> 39
20.298382  29.728032  46.157088  26.965824  32.700064  32.737139  34.881062  30.298060  41.059741  36.826827  41.511639  33.093973  2.386553  3.902680  4.794834  6.035288  4.672646  7.859901  4.506017  5.202113  4.235748  4.776587  4.640217  5.056433  4.780166  0.594086  0.566404  1.345116  1.498320  1.006832  1.569887  0.946797  1.151758  0.978451  1.318596  1.118981  1.363764  1.193112  0.069936  
<MIXTURE> 2	0.487234
<MEAN> 39
0.148710  4.193115  1.726932  -4.120860  1.105891  -0.609182  1.242536  -0.729440  0.861999  -2.763415  -0.723957  -0.506126  18.712727  2.014196  -0.443980  -0.152287  -2.729192  -2.851671  -1.757652  -1.391436  -1.522128  -1.529437  -1.124027  -1.171439  -0.245499  1.396331  0.608083  -0.471794  0.104675  -0.242673  -1.146767  -0.247422  -0.206668  -0.058390  -0.478071  -0.129788  -0.464456  -0.280772  -0.094144  
<VARIANCE> 39
24.026982  32.810224  40.145615  24.016029  30.259854  31.950047  35.742652  32.617133  35.829439  36.964614  40.444408  32.047329  2.803919  3.690278  4.358760  4.180569  6.086928  7.236777  4.165263  5.590224  4.359838  5.058082  4.089417  5.821076  5.218923  0.685009  0.582168  1.322611  1.148888  0.920991  1.259860  0.935210  1.147526  1.045535  1.235269  0.957488  1.395900  1.068144  0.074237  

<STATE> 4
<NUMBMIXS> 2
<MIXTURE> 1	0.504414
<MEAN> 39
10.369099  0.960586  3.731315  -11.309803  -11.312357  -6.334265  -1.593099  -2.173306  -5.170034  -4.631857  -5.475428  -3.589652  22.069233  2.248703  -2.598308  0.601858  -0.032866  -3.860905  -1.016870  -0.503659  -0.148370  -0.672866  -0.961142  -0.414501  -0.914206  0.634736  -0.540101  -0.429299  -0.275936  1.066700  0.345251  0.372792  0.326520  0.057242  0.547710  0.090728  0.284732  0.175776  -0.287381  
<VARIANCE> 39
22.941114  31.141260  29.585140  67.201568  37.901000  29.350520  43.029218  41.170913  41.939377  33.323469  46.872130  51.535862  0.976949  3.099400  3.314107  5.007184  7.123713  6.365662  5.578749  4.016930  4.806141  7.660804  4.120164  6.741046  6.547547  0.268727  0.323899  0.516876  0.650852  0.687706  0.721498  0.619970  0.713522  0.790236  1.100644  0.920031  1.220440  1.199938  0.034437  
<MIXTURE> 2	0.495586
<MEAN> 39
8.114179  -0.384110  0.457839  -16.221905  -13.650857  -6.945536  -4.522673  -5.994107  -6.340756  -5.922644  -8.062159  -1.578366  22.489280  1.511031  -2.995358  0.124642  -1.851798  -4.728567  -1.014852  -1.927621  -0.764839  -2.503981  -1.298931  -2.025525  -2.201021  0.705675  -0.476431  -0.455746  0.016361  1.310502  0.395879  0.530518  0.233957  0.365258  0.441792  -0.120650  0.555641  -0.300944  -0.338847  
<VARIANCE> 39
19.992781  33.965641  28.820426  56.581526  37.982930  33.597470  46.302988  42.230571  46.632029  37.847338  44.889062  58.782851  0.901186  2.786076  3.733936  3.536327  9.155929  6.561969  5.420946  4.298458  4.871307  6.205405  4.739394  7.155268  5.566309  0.273447  0.274058  0.528090  0.691616  0.787374  0.845930  0.722066  0.971606  0.888996  1.184856  1.009820  1.194564  1.274384  0.042230  

<STATE> 5
<NUMBMIXS> 2
<MIXTURE> 1	0.496514
<MEAN> 39
15.389698  -6.659141  2.099959  -1.091313  -17.379425  -10.455157  0.398454  -1.410183  -3.389960  -5.298137  -4.828865  -4.701625  22.384438  0.629500  -1.579696  -0.531389  1.138777  -1.788997  -0.345024  0.711366  -0.470058  0.121083  -0.103086  -0.193243  -0.029213  0.240384  -0.595534  0.552569  0.264972  -0.561636  0.441063  0.734151  0.146758  -0.181484  0.035741  0.158454  0.004107  0.083100  -0.049474  
<VARIANCE> 39
21.024254  20.494300  35.917456  77.531981  39.291110  48.723499  46.517874  34.199564  36.785346  27.629425  22.554720  23.019106  0.549943  1.200050  1.693355  2.285815  3.024174  3.044298  3.838221  2.443167  2.321549  2.221663  2.344344  2.002569  1.849860  0.047454  0.312670  0.284404  0.755000  0.688092  0.890151  0.884616  0.494902  0.582498  0.590683  0.467550  0.432160  0.527093  0.014299  
<MIXTURE> 2	0.503486
<MEAN> 39
13.160524  -8.902334  0.291070  -6.339660  -20.598092  -9.308374  -5.052515  -4.416799  -6.891434  -9.369526  -7.949829  -6.886525  22.681657  0.410937  -1.778906  -0.713705  0.742096  -1.928844  -0.218904  0.090876  -0.746806  -0.288273  -0.516513  -0.359835  -0.422242  0.181724  -0.486973  0.502610  0.130534  -0.534530  0.503263  0.499799  0.158430  -0.180726  0.031994  0.259949  -0.019640  0.245061  -0.031392  
<VARIANCE> 39
21.435705  29.849724  29.628766  88.457036  42.283077  60.462972  49.177764  36.884140  39.166486  26.979078  27.709285  33.891592  0.584373  0.950320  1.600878  1.871473  3.346946  3.262748  3.526477  2.684706  2.733740  2.238873  2.732328  2.503084  2.236295  0.041654  0.234094  0.305002  0.566318  0.742368  1.049794  0.806040  0.605121  0.537945  0.584620  0.548618  0.547986  0.613891  0.012491  

<STATE> 6
<NUMBMIXS> 2
<MIXTURE> 1	0.503819
<MEAN> 39
12.883500  -8.797515  3.933987  -5.668467  -24.020828  -5.209346  2.783303  -7.020445  -3.015968  -5.800825  -6.238421  -5.951581  23.329415  -1.181773  0.384297  1.167196  -2.418377  -0.598679  2.740110  -0.640155  -1.175399  0.916479  -0.297887  -0.120081  -0.278678  0.132588  -0.305116  0.725958  0.123384  -0.793951  0.943031  0.212265  -0.810317  0.406604  0.281093  -0.113966  0.093096  0.042205  -0.047925  
<VARIANCE> 39
17.753931  29.172424  27.665383  88.440920  55.400006  43.976151  74.196966  29.883722  43.052505  30.147951  32.533328  31.583620  0.124163  0.885132  1.469468  1.787846  3.966702  2.554989  3.908912  2.777916  1.790415  1.882796  1.394975  1.261757  1.229645  0.012892  0.084945  0.159689  0.245970  0.333556  0.560619  0.591274  0.511437  0.509023  0.279066  0.299386  0.246858  0.275857  0.002206  
<MIXTURE> 2	0.496181
<MEAN> 39
11.009588  -13.097962  0.647541  -11.145636  -26.396295  -3.585259  -5.388127  -9.649963  -9.109404  -9.983484  -9.202051  -6.726585  23.451214  -0.931603  -0.342552  0.540261  -2.169181  -0.572397  1.982560  -1.167867  -1.104673  0.050946  -0.327085  -0.610415  -0.343701  0.127902  -0.366664  0.660082  0.142889  -0.930620  0.949651  0.125274  -0.744840  0.445360  0.128581  -0.118473  -0.062373  0.007132  -0.032214  
<VARIANCE> 39
16.498890  27.175212  15.240292  55.864788  32.160353  45.025789  50.260291  31.068925  28.982889  19.669646  28.657996  36.278700  0.156513  0.893530  1.131465  1.355597  4.148887  2.272654  3.065498  3.049467  1.697619  1.651914  1.464521  1.422920  1.319701  0.016540  0.080239  0.161566  0.192493  0.277816  0.454257  0.518969  0.510522  0.458088  0.300867  0.326705  0.263753  0.293772  0.002225  

<STATE> 7
<NUMBMIXS> 2
<MIXTURE> 1	0.502626
<MEAN> 39
7.463962  -3.734675  7.456637  -18.072986  -20.337859  3.958123  -6.006923  -7.009159  1.178913  -8.738720  -6.325495  -7.478799  23.465549  -1.479639  2.708336  0.135068  -3.507565  3.319767  0.270924  -2.830278  1.963550  0.239477  -0.484083  0.419691  0.146065  -0.030915  0.169582  0.460326  -0.621409  0.586769  0.674436  -1.385754  0.431222  0.559786  -0.583053  0.344094  0.135011  0.216318  -0.042097  
<VARIANCE> 39
14.962465  49.508926  21.412077  50.239337  58.453467  29.103972  91.878282  26.515093  62.481199  27.748407  33.688386  27.349162  0.101200  0.514520  1.403727  1.210330  2.827779  2.934015  4.225796  2.616287  2.466985  2.300152  1.444163  1.362579  1.243818  0.011636  0.065923  0.157595  0.167078  0.416481  0.551901  0.547671  0.807212  0.511000  0.306968  0.304136  0.242109  0.238197  0.001100  
<MIXTURE> 2	0.497374
<MEAN> 39
6.520868  -10.060393  3.624473  -22.842829  -21.654365  3.040574  -13.843909  -8.394861  -7.118598  -12.157459  -10.153064  -6.759078  23.665970  -1.539784  2.007203  -0.193458  -3.641022  3.378907  -0.231356  -2.592760  1.983960  -0.674252  -0.726409  -0.095696  -0.182945  0.015457  0.008932  0.641789  -0.626821  0.428296  0.813353  -1.402774  0.632185  0.452031  -0.533983  0.305967  0.094220  -0.017928  -0.046285  
<VARIANCE> 39
15.099029  32.279784  16.971473  35.556908  43.996356  26.361202  54.032746  29.811180  46.440587  25.161047  34.298082  45.001707  0.089419  0.523340  1.513443  1.152265  2.478478  2.303033  4.050175  2.904527  2.308425  2.130111  1.672829  1.301189  1.516307  0.011183  0.072862  0.142103  0.187519  0.450615  0.530651  0.516392  0.695935  0.585268  0.259483  0.373620  0.244276  0.305418  0.001487  

<STATE> 8
<NUMBMIXS> 2
<MIXTURE> 1	0.476992
<MEAN> 39
3.322776  4.505491  3.002732  -25.587314  -8.706510  -3.430864  -11.308362  -0.237453  -4.800332  -8.066668  -6.377427  -6.541276  23.262554  -0.647360  3.029688  -1.563310  -0.371925  2.645265  -2.968806  0.744299  0.798109  -0.725449  0.972109  0.163619  0.460342  -0.104992  0.334365  -0.148081  -0.117187  0.917600  -0.703409  -0.118788  0.740767  -0.678657  0.296274  0.150255  0.037841  0.004401  -0.022030  
<VARIANCE> 39
19.476792  54.393639  36.568966  33.427368  32.316761  44.744432  50.876537  24.359055  96.047218  24.732841  38.867190  31.940305  0.213898  0.398960  0.911785  0.828004  1.541627  2.174691  2.168796  4.108837  2.224994  1.755699  1.517280  1.341962  1.511376  0.010001  0.049059  0.133794  0.137757  0.290312  0.288464  0.391987  0.438901  0.313174  0.393342  0.280825  0.248971  0.244989  0.000742  
<MIXTURE> 2	0.523008
<MEAN> 39
2.563396  -2.527432  -1.337326  -30.565304  -7.805843  -6.343105  -15.783857  -1.777385  -14.057858  -10.791201  -10.973383  -6.971975  23.550536  -0.936935  2.806375  -2.081871  -0.472740  2.705351  -3.664780  1.795242  0.138475  -0.934430  0.768423  -0.534033  -0.339802  -0.081051  0.234585  0.000206  -0.246055  0.905479  -0.859173  -0.153927  0.771523  -0.842665  0.493230  0.025358  -0.066727  -0.036955  -0.026479  
<VARIANCE> 39
17.398709  32.199005  21.603547  16.140437  30.289860  48.880082  26.716485  22.832139  39.228023  23.163498  29.544478  34.803461  0.140210  0.340246  0.876142  0.874643  1.743640  2.583772  2.131758  2.617548  2.704609  1.905775  1.918037  1.328836  1.368975  0.006581  0.048789  0.109369  0.164210  0.286210  0.400312  0.515694  0.489610  0.384498  0.310671  0.328066  0.235500  0.279174  0.000896  

<STATE> 9
<NUMBMIXS> 2
<MIXTURE> 1	0.492665
<MEAN> 39
1.949620  10.364910  -6.971482  -24.475695  -5.767098  -15.464455  -5.271939  -5.955623  -7.628688  -8.073079  -9.544812  -7.183895  22.961234  0.242652  2.043488  -1.022233  1.383142  -0.032396  -1.337122  1.140393  -0.611623  0.964526  0.488910  0.402452  0.250564  -0.144985  0.240058  -0.264528  0.318369  0.182523  -0.285739  0.473657  -0.227161  0.059359  0.111025  -0.035887  0.145297  0.084048  -0.011078  
<VARIANCE> 39
17.207996  24.209433  56.825844  19.471215  23.974582  55.091004  21.619660  42.287804  56.077319  24.446807  40.906215  33.880023  0.310704  0.341865  0.619111  0.750078  1.124851  1.677606  1.283249  1.940258  1.489951  1.858864  1.392194  1.094443  1.379738  0.009067  0.036899  0.076730  0.096437  0.136322  0.263134  0.239006  0.209479  0.258814  0.209927  0.195145  0.181414  0.203873  0.000783  
<MIXTURE> 2	0.507335
<MEAN> 39
0.768742  7.678050  -10.399678  -26.512084  -6.037769  -18.006241  -5.977867  -6.897807  -11.537196  -9.832866  -11.972648  -7.961329  23.156376  0.043981  1.806416  -1.244654  1.192011  -0.558300  -1.648112  1.169861  -1.233043  0.905397  -0.127605  -0.141830  -0.289785  -0.128751  0.156909  -0.263668  0.272050  0.091461  -0.317152  0.408329  -0.389732  -0.022846  0.034938  -0.101266  0.072899  0.108301  -0.012480  
<VARIANCE> 39
13.970188  23.776180  21.697185  15.220175  24.864450  36.603993  14.695437  26.754061  28.618606  23.642227  25.478734  32.464642  0.239383  0.289229  0.525878  0.753957  0.732570  1.313790  1.410260  1.429593  1.326793  1.184706  1.040542  1.154358  1.660729  0.007952  0.033867  0.077182  0.086381  0.128574  0.279399  0.249647  0.193280  0.215870  0.226164  0.213172  0.196566  0.194245  0.000720  

<STATE> 10
<NUMBMIXS> 2
<MIXTURE> 1	0.504612
<MEAN> 39
4.439742  18.577299  -3.922670  -17.877306  -6.918046  -14.861370  -4.883433  -4.482939  -1.508865  -5.107462  -4.032452  -5.227620  22.133071  0.618083  1.056565  -0.073894  0.941747  0.302748  -0.367360  0.155745  -0.229188  0.089568  0.351370  0.464393  0.402807  -0.196383  0.113108  -0.171955  0.137725  0.090977  0.105186  0.194820  0.004305  0.000198  -0.037433  0.014834  -0.081712  -0.035944  -0.015677  
<VARIANCE> 39
14.653582  17.576469  68.370015  21.952854  29.808973  52.824605  28.486646  49.533154  36.151423  31.421330  51.946605  27.562422  0.589518  0.418184  0.574569  0.675930  0.789988  1.268613  0.988116  0.971122  0.974533  1.658177  1.102113  1.217840  1.039884  0.011358  0.061401  0.076724  0.102540  0.139651  0.152805  0.130545  0.142190  0.147201  0.157339  0.167625  0.168714  0.161245  0.001238  
<MIXTURE> 2	0.495388
<MEAN> 39
3.726386  16.813598  -10.357165  -18.016193  -11.002011  -20.237788  -4.773265  -9.136472  -4.666849  -8.684284  -9.554032  -7.442141  22.376293  0.464100  0.742576  -0.120017  0.880767  -0.347422  -0.339009  -0.159408  -0.712798  0.122869  -0.255476  0.171119  0.203656  -0.164420  0.064078  -0.210324  0.078976  0.001562  0.132208  0.086579  -0.096139  -0.083097  -0.136662  -0.094412  -0.066986  -0.045798  -0.009375  
<VARIANCE> 39
16.102793  15.827056  47.656701  22.038259  30.722670  40.267035  24.604850  39.926533  22.752377  29.836582  44.789595  31.812002  0.655211  0.370281  0.510855  0.588158  0.717291  1.206674  0.824377  0.751455  1.125573  1.221683  1.009126  1.054884  1.042127  0.011369  0.054296  0.077487  0.102357  0.147626  0.118551  0.144702  0.160246  0.154914  0.154413  0.164766  0.188693  0.184867  0.001079  

<STATE> 11
<NUMBMIXS> 2
<MIXTURE> 1	0.505492
<MEAN> 39
7.623813  20.104453  -4.283049  -13.510752  -3.283132  -15.160548  -4.774134  -6.561426  -3.294360  -4.422649  -3.652753  -4.238353  21.268904  0.782447  0.147731  0.272726  2.183469  1.491506  -0.106443  0.312754  -0.315403  -0.216445  0.535032  -0.019372  0.222245  -0.305474  -0.182404  -0.322579  0.354402  0.417252  0.237596  0.246094  0.059710  0.047027  0.067682  0.052033  0.005944  0.050993  -0.067285  
<VARIANCE> 39
14.247468  25.594861  89.560272  41.015090  66.518052  65.619820  40.401373  81.610703  36.633586  53.971830  49.579079  57.343542  1.210614  0.848177  1.403218  1.906976  2.577478  2.892677  2.148955  2.406557  2.535322  3.216460  2.418562  4.227415  3.281958  0.035025  0.143195  0.212135  0.316016  0.423014  0.443237  0.374513  0.458361  0.368491  0.429910  0.401925  0.425698  0.448422  0.006450  
<MIXTURE> 2	0.494508
<MEAN> 39
7.760733  18.487497  -9.781916  -12.449430  -7.998297  -19.737848  -4.319731  -12.940355  -4.090229  -9.082168  -7.292602  -5.580086  21.251198  0.593135  -0.188062  0.453577  1.904986  0.659239  -0.238107  -0.691928  -1.396107  -0.441216  -0.438964  -0.023454  -0.019496  -0.215962  -0.254693  -0.306546  0.242353  0.226971  0.227415  0.050710  -0.225617  -0.031594  -0.196873  0.003734  -0.086690  -0.043582  -0.053858  
<VARIANCE> 39
13.951722  18.998968  57.993971  40.950001  58.424400  50.879079  40.615082  56.808002  43.901158  50.724228  50.371532  58.072708  1.366365  0.925749  1.313645  1.895310  1.705751  2.641323  2.135825  2.765282  2.579645  3.428601  2.740177  3.356995  3.333811  0.036535  0.168969  0.226471  0.341739  0.308777  0.397581  0.441059  0.408019  0.406500  0.487472  0.454069  0.397375  0.523012  0.008994  

<STATE> 12
<NUMBMIXS> 2
<MIXTURE> 1	0.490313
<MEAN> 39
8.375525  16.936871  -2.737557  -4.615422  -1.529153  -18.131732  -6.513669  -12.638091  -5.119163  -6.488501  -6.166812  -4.180997  20.090391  -0.678713  -1.041493  1.593010  2.798552  2.116879  1.614672  0.816209  0.874824  0.596984  1.187807  0.595390  0.653355  -0.830284  -0.353303  -0.391863  -0.028309  -0.280975  0.137337  0.727394  0.505703  0.695249  0.435019  0.433582  0.322537  0.148731  -0.179605  
<VARIANCE> 39
10.659645  27.650364  60.185254  45.875519  92.724031  79.336973  43.225848  108.722068  46.799327  70.654471  73.371255  75.549362  1.466057  1.228795  1.701434  2.548539  3.672655  4.023362  4.132469  4.014473  5.270349  3.603289  4.017073  4.086879  3.229455  0.140825  0.194164  0.295752  0.504667  0.671253  0.881456  0.686637  0.732786  0.977229  0.773170  0.828561  0.847659  0.749626  0.011758  
<MIXTURE> 2	0.509687
<MEAN> 39
7.597042  16.620382  -5.502749  -5.044369  -3.799460  -20.618914  -7.708244  -16.374263  -5.889583  -8.458760  -7.215851  -3.978524  20.157411  -0.956614  -1.326083  1.315805  2.197515  1.712945  1.248146  -0.054034  0.328045  0.116719  0.466742  0.129611  0.058375  -0.803717  -0.439551  -0.486272  -0.135514  -0.351065  0.219652  0.619480  0.548030  0.881963  0.414289  0.409826  0.246998  0.077308  -0.215593  
<VARIANCE> 39
9.987298  22.000458  48.161327  43.023649  78.826095  60.927567  39.111657  78.297013  46.021180  68.726027  84.046618  84.333078  1.510818  0.950497  1.694721  3.085781  3.360608  3.473417  4.075854  4.052148  4.542691  4.160795  3.822341  3.642118  3.604160  0.160481  0.162204  0.298148  0.438380  0.572716  0.748018  0.677362  0.679449  0.768069  0.737133  0.839638  0.825124  0.693388  0.012267  

<STATE> 13
<NUMBMIXS> 2
<MIXTURE> 1	0.483568
<MEAN> 39
4.269349  11.193314  0.294457  0.730976  6.019335  -8.588333  -0.896604  -5.082793  -0.939669  -0.254745  -2.697680  -2.208853  16.329482  -0.197395  -1.222424  0.877921  0.933547  1.163991  2.257104  1.061032  1.846985  1.345971  1.604449  0.970953  0.876503  -0.686801  0.338091  0.290103  -0.069707  -0.386740  -0.457432  -0.188595  -0.200422  -0.142044  -0.066467  -0.198117  -0.046319  -0.005713  0.172490  
<VARIANCE> 39
19.198361  31.332354  52.683961  33.381983  50.947126  62.750165  53.594608  61.853352  54.465325  52.407214  49.584578  36.840444  2.841428  1.522878  2.045732  2.451679  3.310010  5.968988  5.333091  5.160932  6.557093  5.023100  4.776405  4.791347  3.818566  0.293714  0.229381  0.402730  0.446934  0.654477  0.734723  0.858290  0.946517  0.982516  0.987847  0.755984  0.717393  0.624378  0.040131  
<MIXTURE> 2	0.516432
<MEAN> 39
3.149291  11.711894  -0.852908  -0.340686  6.673892  -9.471687  -1.814387  -5.608486  -1.421567  -1.352735  -3.830841  -3.286173  16.285564  -0.680639  -2.011522  0.444957  0.189362  0.578702  1.482300  0.196745  1.063745  0.614255  0.924086  0.551252  0.452057  -0.842440  0.202219  0.096697  -0.116137  -0.495749  -0.625224  -0.210572  -0.287701  -0.110977  -0.077488  -0.184027  -0.008515  0.039731  0.092860  
<VARIANCE> 39
18.939032  35.824730  49.804150  32.302584  56.149667  65.721442  50.142314  58.361891  57.587586  50.582155  45.261375  34.422674  2.680794  1.178777  2.256956  2.985507  3.353547  5.395391  5.497855  5.151533  6.028109  4.893487  4.037702  3.965446  3.259826  0.192944  0.192367  0.406879  0.446171  0.640524  0.630379  0.896909  0.823095  0.810774  0.907206  0.675390  0.637514  0.580930  0.028408  

<STATE> 14
<NUMBMIXS> 2
<MIXTURE> 1	0.503202
<MEAN> 39
7.510368  9.113395  5.260572  2.138412  3.596087  -0.493061  -0.733841  -0.114579  1.171419  0.486621  -0.856784  -0.297279  15.008881  0.178038  0.100641  0.393541  0.349726  0.125843  0.734051  0.238791  0.440284  0.194063  0.137078  0.389133  0.320378  -0.071276  -0.006758  0.079985  -0.011695  0.069058  0.095964  -0.046878  0.029170  0.004351  0.012768  0.004257  -0.016655  0.011108  0.032006  
<VARIANCE> 39
34.375572  24.918444  23.374373  20.781465  28.018219  36.805798  38.432280  35.613883  32.202174  29.290564  25.449935  21.084789  4.448913  0.662226  0.740047  1.137054  1.286814  2.001322  2.511769  2.716052  2.333104  2.382764  2.552460  2.351827  1.933706  0.057535  0.095296  0.136206  0.182959  0.233850  0.381789  0.429612  0.498099  0.460233  0.452725  0.432001  0.460298  0.379296  0.008733  
<MIXTURE> 2	0.496798
<MEAN> 39
5.520536  7.806034  3.850361  0.979921  4.194708  -2.387488  -2.045243  -0.763051  0.582926  -0.086955  -2.117894  -0.690828  14.427891  0.048102  -0.352233  0.222319  -0.125920  -0.487786  0.378683  -0.340413  0.033239  -0.280040  -0.306824  -0.152007  -0.119056  -0.209377  -0.018657  0.027943  -0.123880  -0.048138  -0.080475  -0.164794  -0.074127  -0.178609  -0.108336  -0.094670  -0.071086  -0.090214  0.019261  
<VARIANCE> 39
31.563805  25.577215  27.923988  23.429875  32.998268  49.284579  47.980790  38.649809  37.835947  31.342958  32.630061  21.733983  3.804294  0.676613  1.037740  1.306278  1.321473  2.022169  2.667244  2.952396  2.711215  2.748749  2.475310  2.417294  2.015302  0.068999  0.088251  0.137533  0.170797  0.235131  0.351461  0.413128  0.469234  0.453132  0.506573  0.423431  0.446924  0.317701  0.008188  

<TRANSP> 15
0.000000  1.000000  0.000000  0.000000  0.000000  0.000000  0.000000  0.000000  0.000000  0.000000  0.000000  0.000000  0.000000  0.000000  0.000000  
0.000000  0.850959  0.149041  0.000000  0.000000  0.000000  0.000000  0.000000  0.000000  0.000000  0.000000  0.000000  0.000000  0.000000  0.000000  
0.000000  0.000000  0.721425  0.278575  0.000000  0.000000  0.000000  0.000000  0.000000  0.000000  0.000000  0.000000  0.000000  0.000000  0.000000  
0.000000  0.000000  0.000000  0.627264  0.372736  0.000000  0.000000  0.000000  0.000000  0.000000  0.000000  0.000000  0.000000  0.000000  0.000000  
0.000000  0.000000  0.000000  0.000000  0.708039  0.291961  0.000000  0.000000  0.000000  0.000000  0.000000  0.000000  0.000000  0.000000  0.000000  
0.000000  0.000000  0.000000  0.000000  0.000000  0.700495  0.299505  0.000000  0.000000  0.000000  0.000000  0.000000  0.000000  0.000000  0.000000  
0.000000  0.000000  0.000000  0.000000  0.000000  0.000000  0.670458  0.329542  0.000000  0.000000  0.000000  0.000000  0.000000  0.000000  0.000000  
0.000000  0.000000  0.000000  0.000000  0.000000  0.000000  0.000000  0.681515  0.318485  0.000000  0.000000  0.000000  0.000000  0.000000  0.000000  
0.000000  0.000000  0.000000  0.000000  0.000000  0.000000  0.000000  0.000000  0.742787  0.257213  0.000000  0.000000  0.000000  0.000000  0.000000  
0.000000  0.000000  0.000000  0.000000  0.000000  0.000000  0.000000  0.000000  0.000000  0.808303  0.191697  0.000000  0.000000  0.000000  0.000000  
0.000000  0.000000  0.000000  0.000000  0.000000  0.000000  0.000000  0.000000  0.000000  0.000000  0.740360  0.259640  0.000000  0.000000  0.000000  
0.000000  0.000000  0.000000  0.000000  0.000000  0.000000  0.000000  0.000000  0.000000  0.000000  0.000000  0.645265  0.354735  0.000000  0.000000  
0.000000  0.000000  0.000000  0.000000  0.000000  0.000000  0.000000  0.000000  0.000000  0.000000  0.000000  0.000000  0.750423  0.249577  0.000000  
0.000000  0.000000  0.000000  0.000000  0.000000  0.000000  0.000000  0.000000  0.000000  0.000000  0.000000  0.000000  0.000000  0.853239  0.146761  
0.000000  0.000000  0.000000  0.000000  0.000000  0.000000  0.000000  0.000000  0.000000  0.000000  0.000000  0.000000  0.000000  0.000000  0.000000  

~h "four"
<BEGINHMM>
<NUMSTATES> 15
<STATE> 2
<NUMBMIXS> 2
<MIXTURE> 1	0.496036
<MEAN> 39
-2.623808  3.125761  4.436340  0.816734  1.268461  1.023849  3.023346  1.380259  1.061204  0.150696  0.331797  -0.260347  13.634904  -0.582491  -0.072567  0.089979  0.174515  0.074405  0.142150  0.225794  0.264336  0.266310  0.137216  0.249918  0.128317  0.130227  0.113668  0.005942  -0.000852  0.007502  0.040957  0.002959  0.034039  0.024016  -0.021107  -0.001288  -0.001819  0.008939  0.050995  
<VARIANCE> 39
21.406781  19.278440  15.268973  17.711122  19.923841  23.479545  22.589811  25.022138  22.712176  20.694053  19.634052  17.120152  3.782849  1.763120  1.846310  1.461525  1.852789  2.087682  2.555909  2.459046  2.620698  2.605154  2.219623  2.044582  1.827407  0.226557  0.323123  0.312618  0.294249  0.335736  0.403602  0.506752  0.470061  0.438679  0.480614  0.422666  0.385398  0.334901  0.041761  
<MIXTURE> 2	0.503964
<MEAN> 39
-3.337136  2.279509  3.885672  0.196147  0.670916  0.281963  2.434185  0.674720  0.425900  -0.284246  -0.048789  -0.677889  13.677607  -0.685053  -0.522017  -0.372319  -0.362700  -0.432527  -0.452137  -0.342823  -0.313493  -0.197736  -0.252210  -0.275023  -0.231678  0.236952  0.154574  -0.041961  -0.084460  -0.077748  -0.069622  -0.105029  -0.080754  -0.027728  -0.033289  -0.075127  -0.047883  -0.010276  0.066547  
<VARIANCE> 39
22.263638  21.149308  15.484204  18.543762  19.071997  24.133739  23.456964  27.578228  21.922999  19.799750  18.495023  16.614678  3.590363  1.597739  1.695514  1.612198  1.923252  2.171726  2.628536  2.540526  2.605743  2.517911  2.281369  2.075486  1.811431  0.231104  0.307496  0.325565  0.294524  0.367552  0.397511  0.498939  0.478406  0.506258  0.501240  0.434812  0.381442  0.324009  0.044947  

<STATE> 3
<NUMBMIXS> 2
<MIXTURE> 1	0.506623
<MEAN> 39
-4.435072  0.120398  2.470209  -0.778880  -0.345458  -0.854655  2.595766  1.583613  1.233140  -0.363173  0.067630  -0.825910  15.825582  2.344664  -0.512589  -0.986256  -0.546254  0.154279  -0.465129  -0.551764  -0.214005  -0.275665  -0.374304  -0.353703  -0.154482  1.167223  1.379906  0.092563  -0.998828  -0.385279  0.151898  -0.356848  -0.647457  -0.271660  -0.310647  -0.189835  -0.213057  -0.162100  0.334044  
<VARIANCE> 39
15.547700  17.488458  17.846336  19.525286  20.120621  20.313523  21.605337  22.257502  21.699175  19.941215  17.894631  19.218098  3.040736  5.241365  2.556116  3.084814  2.308672  2.555749  2.689620  3.220936  2.420188  2.357507  2.384329  2.490883  3.094722  0.415405  0.422213  0.552174  0.753903  0.593257  0.592440  0.674993  0.585647  0.623205  0.590569  0.556203  0.610571  0.766778  0.057942  
<MIXTURE> 2	0.493377
<MEAN> 39
-4.654333  -0.509220  1.915100  -2.109813  -1.727699  -1.949665  2.090763  0.398980  0.305639  -1.036699  0.059227  -1.137050  16.143679  2.830875  -1.158747  -2.288330  -1.298358  -0.906957  -2.091619  -2.006635  -1.415324  -1.325263  -1.084609  -0.900748  -0.050559  1.431881  1.343035  -0.160370  -1.392937  -0.320653  0.055790  -0.632260  -0.732934  -0.330143  -0.418049  -0.422460  -0.626429  -0.128638  0.339934  
<VARIANCE> 39
16.268376  14.421903  17.854734  20.169518  17.171750  18.717273  20.412341  20.478306  21.144056  19.750429  16.784610  16.083746  3.056643  5.673817  1.996618  4.559443  2.098843  2.300574  3.245955  3.185138  2.631264  2.313148  2.389654  2.690681  3.096244  0.463622  0.420574  0.449490  0.774779  0.538401  0.475360  0.683666  0.612511  0.575762  0.549021  0.516741  0.641820  0.630214  0.052338  

<STATE> 4
<NUMBMIXS> 2
<MIXTURE> 1	0.491371
<MEAN> 39
6.870612  1.786615  0.311172  -1.978308  0.128393  -3.263727  -1.846181  -1.682764  -1.719067  -3.012560  -1.955492  -1.815664  19.703197  5.909697  0.150389  -5.046554  -2.446032  0.920362  -1.257131  -2.684948  -0.801864  -0.882295  -0.519817  -1.051024  -1.655375  1.973487  -0.283502  -0.086074  -1.020771  -0.429010  0.168953  0.072136  -0.017715  0.046602  -0.004120  0.209348  0.003248  -0.306385  -0.105659  
<VARIANCE> 39
34.984313  12.636597  26.082719  25.841679  29.674015  19.528940  18.902947  16.330084  16.331278  16.150033  23.792702  21.922744  2.639075  1.180786  4.104267  2.658749  3.248776  3.901975  4.455770  3.249186  3.456020  3.526285  3.031237  3.405544  6.586518  0.169065  0.602241  0.323686  0.403502  0.560335  0.534181  0.408620  0.601707  0.356671  0.482536  0.475098  0.874084  0.351642  0.037067  
<MIXTURE> 2	0.508629
<MEAN> 39
5.472020  -1.101490  -2.074136  -4.081111  -4.069978  -7.406452  -3.636988  -3.452049  -3.296200  -3.277634  -0.574691  1.132324  20.175902  5.433859  -1.966126  -6.618171  -1.973323  -0.526785  -3.681363  -3.456305  -1.824021  -2.037643  -1.999767  -2.962363  -0.112726  2.049721  -0.332636  -0.170968  -1.041077  -0.100355  0.310994  0.021410  -0.127748  -0.110590  -0.135674  -0.192154  -0.797524  -0.579534  -0.107708  
<VARIANCE> 39
35.731423  15.518514  38.273459  20.439057  23.312267  26.902647  23.205397  16.966098  13.248101  13.945673  20.475952  23.341651  3.255511  1.544811  2.955970  2.437482  2.807781  2.530649  2.706180  3.075498  3.320975  3.078018  3.654209  3.378354  3.790300  0.251868  0.536446  0.274448  0.589909  0.454100  0.359165  0.490852  0.380856  0.380525  0.312336  0.313058  0.576877  0.362780  0.039773  

<STATE> 5
<NUMBMIXS> 2
<MIXTURE> 1	0.484169
<MEAN> 39
16.496212  -0.549344  -14.993553  -9.453561  1.905764  -6.811485  -8.234254  -3.008157  -2.805659  -4.013905  -5.122296  -7.031761  22.691233  3.211363  -0.357971  -5.112795  -2.460800  0.876817  -0.716223  -1.640405  -0.682546  -0.668545  -0.129417  -0.793862  -1.727689  1.329522  -1.618231  0.055059  0.980818  0.416140  -0.119925  0.517808  0.855923  0.183828  0.163154  0.291185  0.396507  0.403171  -0.485524  
<VARIANCE> 39
9.808961  30.890955  29.458632  20.274394  31.759200  55.575277  29.707683  32.183556  24.891683  30.463606  35.565703  59.879213  0.390886  2.988585  2.658049  2.472590  3.692374  2.657021  3.765054  3.867052  2.812262  3.562783  3.551188  5.669140  3.899960  0.250196  0.151654  0.339317  0.468425  0.305234  0.389582  0.451933  0.396713  0.436351  0.382379  0.349849  0.502001  0.767418  0.014995  
<MIXTURE> 2	0.515831
<MEAN> 39
14.467613  -6.283556  -18.160254  -7.618925  -3.029352  -13.682476  -8.632288  -4.857403  -5.878103  -6.951506  -7.439094  0.421774  22.998228  3.038889  -1.992576  -6.377507  -1.597644  0.013729  -2.660184  -2.790125  -1.715095  -1.877813  -1.856649  -3.593383  -1.329449  1.409817  -1.599196  0.386354  1.032168  0.296270  0.154891  0.959395  0.592332  0.059677  0.263713  0.310642  0.153192  -0.593755  -0.484351  
<VARIANCE> 39
10.795786  20.221245  23.667969  18.573708  21.299109  28.133197  20.060191  29.584156  26.504844  25.588938  39.397407  43.475999  0.329187  2.761324  1.989453  2.408272  3.002630  2.296973  3.628087  2.738787  3.180674  2.822750  2.850551  4.435814  3.351530  0.252030  0.141172  0.248702  0.516112  0.313145  0.319670  0.436032  0.397092  0.474779  0.371625  0.414471  0.650687  0.567025  0.022369  

<STATE> 6
<NUMBMIXS> 2
<MIXTURE> 1	0.509400
<MEAN> 39
15.114241  -1.955169  -19.190263  -10.809180  1.906581  -7.547337  -8.715594  -4.397670  -4.793788  -4.490225  -6.503375  -7.988293  23.557495  -0.121289  0.179651  -1.330452  -0.818348  0.209129  0.440544  0.111147  -0.650193  -0.451162  0.154304  0.009797  -0.517142  0.271458  -0.819687  0.326910  1.415480  0.480333  -0.264063  0.483114  0.671783  0.088365  0.189453  0.149591  0.481023  0.539246  -0.372293  
<VARIANCE> 39
13.546470  43.489324  30.207801  26.775464  41.582708  66.882043  35.111156  40.477341  39.807723  42.893304  64.272451  52.672826  0.144560  0.318587  0.564682  1.303130  1.239711  1.035675  1.059890  1.502512  1.372144  1.014625  1.230536  2.360601  2.097344  0.024786  0.263053  0.284256  0.247927  0.306019  0.389570  0.468662  0.414370  0.398034  0.442559  0.507040  0.716732  0.565192  0.014649  
<MIXTURE> 2	0.490600
<MEAN> 39
12.159100  -7.738930  -21.622302  -8.013607  -2.149498  -13.767745  -9.425722  -6.153610  -8.062050  -8.306707  -12.089954  -2.927781  23.789113  -0.443381  -0.460186  -1.984318  -0.798735  -0.127116  -0.193936  -1.080737  -1.494308  -0.876449  -0.641280  -1.733788  -1.721597  0.272143  -0.744732  0.652675  1.424299  0.164741  -0.127384  0.803791  0.480266  -0.041973  0.400753  0.457104  0.922448  0.009548  -0.388483  
<VARIANCE> 39
13.537676  26.743907  19.693962  25.009534  23.158283  33.665871  26.000067  37.760303  33.912595  31.548072  48.126572  46.692658  0.097628  0.432509  0.687360  1.395595  1.201600  1.136555  1.325435  1.519257  1.511114  1.263903  1.222046  3.335219  1.834827  0.031565  0.351950  0.207452  0.361003  0.267846  0.317156  0.446314  0.415128  0.505870  0.484109  0.402426  0.719883  0.517917  0.020256  

<STATE> 7
<NUMBMIXS> 2
<MIXTURE> 1	0.491515
<MEAN> 39
13.840215  -4.699568  -23.444881  -10.582448  -1.004222  -9.963342  -10.913689  -9.820679  -7.079810  -6.860100  -10.059708  -7.314676  23.757028  0.454047  0.791615  -0.222524  -0.643587  -0.109563  0.992206  0.195285  -0.652322  -0.145908  0.439451  0.563366  -0.344084  -0.005348  0.079854  0.154734  0.431022  0.100736  -0.029728  0.089113  0.277477  0.253629  0.077301  0.047948  0.223541  0.300261  -0.062874  
<VARIANCE> 39
13.747908  35.705848  28.859370  26.217824  35.771893  48.952879  30.514871  34.307115  30.838127  33.138118  51.967711  43.112584  0.098948  0.268942  0.370792  0.511892  0.663098  0.663743  0.938105  1.124308  0.941009  1.178786  0.933189  1.445272  1.414085  0.006991  0.057897  0.069352  0.137987  0.159815  0.142184  0.166573  0.154899  0.147424  0.185145  0.209314  0.292030  0.163257  0.003769  
<MIXTURE> 2	0.508485
<MEAN> 39
12.855106  -7.405754  -24.892502  -9.810427  -2.833910  -12.777083  -12.866197  -11.124893  -8.650014  -8.174868  -12.691232  -5.826087  23.804921  0.269984  0.603909  -0.509229  -0.890807  -0.369273  0.569469  -0.399356  -1.024899  -0.447730  -0.003609  0.050952  -0.955237  -0.037065  0.028832  0.049499  0.250848  0.010086  -0.064493  0.005110  0.163326  0.167577  -0.053285  0.017678  0.148733  0.164387  -0.034647  
<VARIANCE> 39
11.381505  17.534567  16.267690  24.888681  17.461118  25.106454  23.291694  21.521214  26.315889  26.505826  34.030552  45.555779  0.091067  0.273396  0.402228  0.523169  0.691848  0.751085  0.854455  1.036730  0.893577  1.090551  1.010056  1.582935  0.976485  0.006528  0.057442  0.081906  0.097165  0.128890  0.129994  0.154801  0.132470  0.139852  0.190247  0.207953  0.251427  0.188586  0.002289  

<STATE> 8
<NUMBMIXS> 2
<MIXTURE> 1	0.534672
<MEAN> 39
17.322114  2.859179  -18.801851  -15.313738  0.905786  -2.957868  -5.466121  -6.274469  -6.358105  -3.657053  -4.073202  -8.019333  23.348151  0.115786  -0.187285  0.312741  0.162349  0.203099  0.357391  0.031147  0.317707  0.250435  -0.037294  -0.034367  0.182038  -0.046045  -0.053121  -0.283756  0.096753  0.297785  0.134937  -0.050442  -0.186602  0.168148  0.209916  -0.070255  -0.164654  -0.021479  -0.005213  
<VARIANCE> 39
10.333990  24.858146  25.565729  20.867022  56.078026  50.183603  38.001483  35.728395  27.736779  26.388210  51.013914  25.055412  0.159229  0.263459  0.873465  0.428330  0.840242  1.177364  0.707435  1.193999  0.909796  1.217319  1.004460  1.093530  1.165571  0.006890  0.036409  0.059905  0.086543  0.091240  0.166747  0.138029  0.145201  0.174314  0.179860  0.187463  0.189361  0.217736  0.000943  
<MIXTURE> 2	0.465328
<MEAN> 39
15.669732  -2.334152  -23.492030  -13.968915  -3.797381  -7.847895  -10.570316  -12.124085  -9.818477  -6.970632  -10.011207  -8.672889  23.473552  -0.013619  -0.316679  0.255003  0.187076  0.362259  -0.168441  -0.232040  0.337153  -0.025572  -0.147833  -0.446580  -0.122187  -0.053724  -0.113568  -0.332715  0.102220  0.234626  0.113831  -0.232353  -0.187004  0.235166  0.024177  -0.132825  -0.211358  0.081669  0.002109  
<VARIANCE> 39
10.013397  18.883226  17.430626  17.861676  28.217047  26.185004  26.558633  27.369784  21.843321  20.745089  36.433618  29.639817  0.243315  0.284420  0.729807  0.440258  0.851111  1.003139  0.926178  0.967910  1.047705  0.950099  0.987692  1.244209  1.121652  0.006169  0.038707  0.056465  0.095428  0.089081  0.132442  0.146135  0.143385  0.209793  0.205331  0.182357  0.220527  0.209381  0.000898  

<STATE> 9
<NUMBMIXS> 2
<MIXTURE> 1	0.506829
<MEAN> 39
15.873964  -6.475019  -14.661418  -7.251792  1.685396  -3.531393  -9.553668  -2.163104  -2.517358  -8.503636  -8.977017  -6.372195  22.986954  -0.205630  -1.887916  1.816021  2.099344  -1.084734  0.007522  0.343461  1.110903  -0.035058  -1.366880  -0.295146  1.432519  -0.110199  0.042059  0.078163  0.281276  0.098690  -0.520245  0.140534  0.481732  -0.241969  -0.405514  0.091649  0.413660  0.193897  -0.030236  
<VARIANCE> 39
16.088930  31.231085  31.421708  37.115891  51.553949  87.332284  41.817844  44.505600  94.479050  51.104914  47.876062  35.578254  0.353481  0.369281  0.703137  1.650695  2.129776  3.126373  2.659588  3.217668  4.154350  5.808147  4.415515  6.911780  3.804747  0.015705  0.051408  0.145918  0.149587  0.252532  0.287775  0.513919  0.443194  0.771725  0.837919  0.730845  0.748848  0.717019  0.001475  
<MIXTURE> 2	0.493171
<MEAN> 39
13.795903  -9.825660  -18.761902  -8.219311  -1.215019  -10.707625  -13.282733  -5.014758  -11.209593  -9.601554  -12.689569  -5.846746  23.205167  -0.461857  -1.967458  2.066387  1.184209  -0.833037  -0.227938  -0.220410  1.421930  -1.349360  -1.262562  0.623155  0.712791  -0.083297  -0.015734  0.006085  0.353175  -0.102262  -0.613297  0.353446  0.225819  -0.371997  -0.218345  -0.026163  0.496817  -0.073418  -0.024983  
<VARIANCE> 39
16.993529  26.840939  29.649277  21.004395  19.800007  64.830350  35.081638  44.274124  76.420562  36.010267  42.459388  32.241118  0.372070  0.342543  0.561077  1.439609  1.809806  2.647358  2.847576  2.594850  3.444758  5.413091  4.041009  5.862123  2.989298  0.014636  0.053264  0.132914  0.150245  0.229672  0.206948  0.499088  0.464280  0.814755  0.866425  0.711511  0.693895  0.684949  0.001582  

<STATE> 10
<NUMBMIXS> 2
<MIXTURE> 1	0.484206
<MEAN> 39
13.400594  -15.089350  -4.966498  -2.538479  -10.282939  -2.389879  -7.743872  -4.984316  -10.160070  -11.981842  -5.202788  -1.823374  22.331223  0.169250  -0.244302  1.666855  0.854819  -1.771546  0.916582  1.048206  -1.200554  -0.112432  0.794551  0.731822  0.511590  -0.219280  0.082559  0.475265  -0.122371  -0.112666  0.393984  -0.061657  -0.143978  -0.137711  0.196249  0.369656  -0.109825  -0.176957  -0.028842  
<VARIANCE> 39
19.691233  22.669059  26.651548  69.322877  57.316326  52.386578  81.112528  55.961617  95.961531  53.583967  42.153703  43.720870  0.599001  0.388446  0.831703  1.378159  2.068945  1.849940  3.922170  3.617559  3.263729  4.593578  2.717132  2.460809  2.987418  0.013083  0.060852  0.122769  0.168015  0.218363  0.215042  0.370146  0.406536  0.515458  0.564283  0.598381  0.594805  0.553900  0.001695  
<MIXTURE> 2	0.515794
<MEAN> 39
11.822598  -17.593313  -5.494396  -6.337924  -12.147864  -5.037584  -12.128365  -8.199872  -17.591918  -12.062256  -5.565497  -5.335906  22.619686  -0.107590  -0.260372  1.629482  -0.182363  -1.853565  1.373512  -0.002392  -1.816832  0.351263  0.335293  0.401954  -0.260311  -0.178525  0.060943  0.398252  -0.224587  -0.125605  0.236619  -0.202070  -0.216124  -0.181452  0.366986  0.135313  -0.416155  0.069270  -0.020025  
<VARIANCE> 39
18.591089  13.906831  22.416303  37.082496  33.755706  44.266000  49.883582  50.285135  56.519897  45.884076  30.379225  35.261131  0.536367  0.371568  0.827276  1.333013  1.672611  1.785832  3.192178  3.397625  2.096796  2.897401  2.113634  2.720607  2.714929  0.010554  0.058722  0.106800  0.156891  0.174540  0.194125  0.404478  0.384045  0.473832  0.559027  0.527465  0.478206  0.440125  0.001053  

<STATE> 11
<NUMBMIXS> 2
<MIXTURE> 1	0.502846
<MEAN> 39
15.688175  -10.952493  0.354330  3.278046  -12.237532  1.137921  -2.963991  -6.874736  -7.517293  -7.906386  -5.483471  -1.294904  20.961557  -0.159182  1.550436  2.419394  0.797854  0.490623  0.339119  -0.218998  -0.964850  0.022844  1.116415  0.521104  0.087736  -0.418164  -0.347009  0.436416  0.338059  0.001170  0.670597  0.035288  -0.231025  0.097075  0.345945  0.073045  0.027774  -0.144106  -0.073666  
<VARIANCE> 39
15.613723  23.212592  46.559481  96.090048  62.329602  69.899018  111.773449  70.708232  38.161156  38.148000  35.598417  41.271730  1.200648  0.777746  1.794729  2.048866  1.983005  2.676960  2.915291  3.012680  2.873667  3.934219  3.455176  2.311028  2.348674  0.044085  0.158634  0.264359  0.282436  0.342601  0.414616  0.563926  0.483816  0.600618  0.443654  0.437903  0.307078  0.384050  0.008847  
<MIXTURE> 2	0.497154
<MEAN> 39
13.980547  -12.368106  1.011528  -3.495060  -14.452935  -1.495808  -10.574131  -13.088805  -11.141587  -9.402021  -6.563198  -4.245046  21.066995  -0.398670  1.825276  1.912765  0.140725  0.040220  -0.551574  -1.136309  -1.103319  0.355112  0.228611  -0.488599  -0.004461  -0.305920  -0.370452  0.281304  0.283037  0.133889  0.424210  -0.239341  -0.258766  0.185778  -0.016969  -0.067730  -0.085583  -0.101488  -0.070787  
<VARIANCE> 39
14.671851  26.988275  34.931837  70.425956  42.548656  65.746408  90.995803  58.496552  38.695942  37.338518  33.700146  48.168116  1.253992  0.783357  1.713106  1.767079  1.688555  2.099519  2.925627  2.845052  2.464695  2.999442  2.698731  2.391925  2.784776  0.037101  0.143438  0.276791  0.255898  0.338476  0.368550  0.550787  0.473837  0.411651  0.453364  0.451373  0.371487  0.409883  0.007721  

<STATE> 12
<NUMBMIXS> 2
<MIXTURE> 1	0.488461
<MEAN> 39
10.582633  -4.244263  9.945930  0.292506  -9.841420  -3.028974  -13.341841  -13.355994  -7.770342  -6.530922  -5.840748  -1.660593  19.756714  -1.803369  1.609755  2.230562  1.656967  2.314172  0.911207  0.677187  0.987172  1.579786  1.545343  0.961805  0.236414  -0.860845  -0.242698  -0.473562  -0.685384  -0.107691  0.355064  0.528914  0.804888  0.800763  0.397666  0.357360  0.427310  0.189080  -0.138712  
<VARIANCE> 39
18.713415  23.002244  37.007214  100.167478  62.207990  72.304264  126.648679  53.770975  50.026065  72.909582  75.349075  79.379410  1.175972  0.974015  2.539596  3.104722  2.186816  3.178475  4.183830  4.325321  4.868960  3.526419  4.285318  3.862320  3.850647  0.121613  0.162274  0.316528  0.425684  0.517873  0.554952  0.663940  0.745947  0.671921  0.678274  0.940907  0.881585  0.772984  0.011743  
<MIXTURE> 2	0.511539
<MEAN> 39
10.019939  -4.759709  9.380116  -2.145963  -11.146918  -5.007036  -15.676705  -14.140276  -9.227117  -7.496900  -6.115506  -2.727741  19.796775  -1.831860  1.451281  1.848526  1.001746  1.592269  0.345270  0.032030  0.349361  0.746701  0.656340  0.109719  -0.081203  -0.802217  -0.319072  -0.578135  -0.674433  -0.045748  0.312575  0.568507  0.715466  0.615949  0.251406  0.312604  0.351888  0.110155  -0.170946  
<VARIANCE> 39
16.996190  21.778105  34.087794  105.271687  53.674697  74.297927  133.702236  52.046980  43.680187  67.451660  75.667741  95.704449  1.385470  1.084835  1.953703  3.081556  2.004024  2.488913  4.545040  4.217378  3.539226  2.855401  3.418752  3.386764  3.582542  0.126797  0.159578  0.267213  0.427639  0.562563  0.538172  0.670182  0.619378  0.582992  0.615770  0.790065  0.785720  0.831472  0.010398  

<STATE> 13
<NUMBMIXS> 2
<MIXTURE> 1	0.491632
<MEAN> 39
4.563848  -3.395339  11.701324  3.508823  -2.494859  3.796209  -5.986693  -7.351900  -1.370458  -1.081867  -1.646405  -0.414122  16.406242  -0.896097  0.525299  -0.198120  0.210833  1.647018  0.995835  1.721482  1.861728  1.565079  1.783816  1.449757  0.663687  -0.743159  0.510800  0.039186  -0.335133  -0.180836  -0.299124  -0.243057  -0.065209  -0.056686  -0.226420  -0.196077  -0.124128  -0.027808  0.140689  
<VARIANCE> 39
21.458252  33.811487  24.349816  55.245938  42.205901  59.602892  96.297725  53.903143  52.622075  48.951515  40.595608  36.232175  2.067958  1.831956  2.273196  2.212491  3.331536  4.038689  4.212425  6.212495  5.465799  4.629480  4.672060  3.963829  3.882150  0.166830  0.201601  0.448835  0.453337  0.515616  0.607016  0.626819  0.923669  0.846170  0.704349  0.652539  0.687240  0.578667  0.019407  
<MIXTURE> 2	0.508368
<MEAN> 39
4.455243  -4.921801  11.163042  4.082579  -3.154331  3.780015  -5.678731  -7.287278  -2.764762  -1.659537  -1.783446  -1.733195  16.289735  -1.383208  -0.101806  -0.528088  -0.502673  0.936388  0.585101  0.854559  0.766625  0.968367  1.047650  0.736026  0.229802  -0.817156  0.438756  -0.075798  -0.477830  -0.310790  -0.423110  -0.422844  -0.110006  -0.122470  -0.235083  -0.247299  -0.114920  0.029690  0.109469  
<VARIANCE> 39
23.692244  25.445973  25.248802  66.455866  39.447046  65.137514  104.757517  55.719319  50.783144  58.349944  40.755347  39.227877  2.230563  1.887150  1.776559  2.395556  3.617638  3.949763  4.528743  6.196826  4.321046  4.179229  4.288898  3.955581  3.698292  0.168635  0.250495  0.440603  0.549200  0.518638  0.554403  0.618707  0.796080  0.716742  0.712276  0.751649  0.636103  0.523774  0.024180  

<STATE> 14
<NUMBMIXS> 2
<MIXTURE> 1	0.495020
<MEAN> 39
5.179075  3.025993  8.066630  2.708448  1.035931  2.774135  -1.094136  -1.673461  0.556679  0.704458  0.371743  -0.655872  14.374510  0.194145  0.832848  -0.091020  0.256774  0.520446  0.126090  0.733709  0.638235  0.393991  0.392502  0.326818  0.354392  -0.153463  0.037014  -0.027394  0.099776  0.081905  0.013445  0.093124  -0.029069  -0.014305  -0.006865  -0.024304  -0.022828  0.069185  0.054468  
<VARIANCE> 39
23.948824  55.446205  20.639112  23.855157  25.250129  31.272763  42.291460  36.693448  35.122530  37.586640  27.548398  27.615620  3.703220  0.532679  1.100699  1.104542  1.458474  1.762736  2.090756  2.572084  2.875390  2.434882  2.989685  2.627858  2.206375  0.054514  0.079255  0.140433  0.183854  0.237517  0.323851  0.330037  0.425230  0.472140  0.457995  0.535638  0.424935  0.402302  0.007345  
<MIXTURE> 2	0.504980
<MEAN> 39
3.660490  0.999673  7.623785  1.642568  -0.013863  2.060526  -2.713206  -2.709935  -0.069296  0.111095  -0.429728  -0.585339  14.001354  0.078803  0.505055  -0.481716  -0.152560  0.044521  -0.363481  0.173721  -0.097196  -0.205975  -0.243575  -0.187447  -0.191098  -0.247069  0.018410  -0.068553  -0.033537  -0.050794  -0.141037  -0.086458  -0.141204  -0.179111  -0.160781  -0.099766  -0.108517  -0.059053  0.032895  
<VARIANCE> 39
17.833703  45.660356  20.185041  28.847895  32.915513  37.063105  49.570163  44.796279  37.652239  41.029004  29.777455  28.816121  3.047341  0.449153  1.005401  0.982725  1.445861  1.916776  2.259899  2.529402  2.643956  2.755170  2.646293  2.397081  2.165170  0.050672  0.063901  0.128305  0.166568  0.234614  0.312463  0.360147  0.416630  0.455675  0.462898  0.487019  0.450766  0.408374  0.006446  

<TRANSP> 15
0.000000  1.000000  0.000000  0.000000  0.000000  0.000000  0.000000  0.000000  0.000000  0.000000  0.000000  0.000000  0.000000  0.000000  0.000000  
0.000000  0.889245  0.110755  0.000000  0.000000  0.000000  0.000000  0.000000  0.000000  0.000000  0.000000  0.000000  0.000000  0.000000  0.000000  
0.000000  0.000000  0.661063  0.338937  0.000000  0.000000  0.000000  0.000000  0.000000  0.000000  0.000000  0.000000  0.000000  0.000000  0.000000  
0.000000  0.000000  0.000000  0.111222  0.888778  0.000000  0.000000  0.000000  0.000000  0.000000  0.000000  0.000000  0.000000  0.000000  0.000000  
0.000000  0.000000  0.000000  0.000000  0.411649  0.588351  0.000000  0.000000  0.000000  0.000000  0.000000  0.000000  0.000000  0.000000  0.000000  
0.000000  0.000000  0.000000  0.000000  0.000000  0.434838  0.565162  0.000000  0.000000  0.000000  0.000000  0.000000  0.000000  0.000000  0.000000  
0.000000  0.000000  0.000000  0.000000  0.000000  0.000000  0.740123  0.259877  0.000000  0.000000  0.000000  0.000000  0.000000  0.000000  0.000000  
0.000000  0.000000  0.000000  0.000000  0.000000  0.000000  0.000000  0.856061  0.143939  0.000000  0.000000  0.000000  0.000000  0.000000  0.000000  
0.000000  0.000000  0.000000  0.000000  0.000000  0.000000  0.000000  0.000000  0.806157  0.193843  0.000000  0.000000  0.000000  0.000000  0.000000  
0.000000  0.000000  0.000000  0.000000  0.000000  0.000000  0.000000  0.000000  0.000000  0.788321  0.211679  0.000000  0.000000  0.000000  0.000000  
0.000000  0.000000  0.000000  0.000000  0.000000  0.000000  0.000000  0.000000  0.000000  0.000000  0.733147  0.266853  0.000000  0.000000  0.000000  
0.000000  0.000000  0.000000  0.000000  0.000000  0.000000  0.000000  0.000000  0.000000  0.000000  0.000000  0.634999  0.365001  0.000000  0.000000  
