~h "one"
<BEGINHMM>
<NUMSTATES> 15
<STATE> 2
<MEAN> 39
3.765070  5.116727  2.207854  1.705136  1.218863  -1.012394  0.446220  0.230512  -0.626306  -0.717662  -1.126392  -0.392267  12.938839  1.240936  0.413160  -0.453852  -0.777933  -0.367802  -0.837621  -0.935332  -0.749732  -0.671233  -0.379217  -0.422064  -0.138436  0.540194  0.161025  -0.027522  -0.182551  -0.285842  -0.148929  -0.128053  -0.120211  -0.108087  -0.169184  -0.115036  -0.076502  -0.114733  0.149523  
<VARIANCE> 39
20.079864  22.275092  20.834823  28.880249  28.844769  46.534937  44.734078  41.236401  32.454987  25.372536  26.784105  25.664261  4.750816  2.101703  1.982361  2.861581  3.751014  4.307976  4.294227  4.752238  4.752311  3.968208  3.032835  2.688951  2.331390  0.903562  0.258767  0.363729  0.559009  0.550818  0.536279  0.541048  0.686616  0.682616  0.563226  0.449697  0.492394  0.433073  0.063842  

<STATE> 3
<MEAN> 39
15.953030  7.261571  -4.597107  -10.010342  -6.409702  -12.154885  -10.547415  -9.270893  -9.963348  -5.958058  -5.846680  -2.822769  20.501395  2.180272  -0.725960  -2.800134  -2.801885  -1.035857  -1.207410  -0.695028  -0.672326  -1.224753  -0.913912  -1.149082  -1.200671  1.411930  -0.710656  -0.326337  -0.072995  0.464560  0.658744  0.741014  0.764862  0.519374  0.567565  0.273434  0.089807  -0.009938  -0.367413  
<VARIANCE> 39
21.299282  20.441569  44.996195  32.134665  48.140324  51.604497  39.751352  51.306540  23.641613  27.458607  30.781001  30.763783  2.139148  1.976294  1.827928  2.964120  2.716053  2.974508  3.379808  3.947504  3.317641  3.650825  3.565934  3.855053  3.209060  0.408414  0.333024  0.280882  0.588726  0.616619  0.478884  0.474217  0.507432  0.526434  0.454176  0.472650  0.539287  0.427185  0.033843  

<STATE> 4
<MEAN> 39
17.625549  6.162519  -9.227960  -13.542611  -4.536664  -9.504370  -6.591424  -6.609653  -9.307657  -5.879906  -6.971656  -5.985306  22.139274  -0.216383  -0.736231  -1.773871  -0.493897  0.452749  1.117462  0.674702  -0.110699  -0.097654  -0.496722  -0.106067  -0.568972  0.336385  -0.332562  -0.160900  0.042556  0.610161  0.354855  0.274254  -0.199699  -0.211886  0.026920  -0.029591  0.152146  0.105777  -0.119699  
<VARIANCE> 39
11.643759  23.170351  30.222617  23.640448  49.003954  53.667488  43.188823  60.632408  30.910240  39.542600  43.496801  27.932709  0.789048  0.692014  1.210314  1.915883  1.508605  2.009874  1.778391  1.748470  2.202695  1.794841  1.949260  2.101663  1.628231  0.022789  0.218238  0.201893  0.367716  0.477131  0.306803  0.348645  0.432967  0.401158  0.366044  0.407578  0.404902  0.411213  0.021146  

<STATE> 5
<MEAN> 39
15.476455  0.751495  -17.754182  -13.021805  -1.817810  -5.477264  -8.051372  -11.647123  -11.823368  -8.888347  -7.460790  -7.518989  23.275828  -0.827505  -1.757553  -1.479137  2.115391  1.586643  0.587446  -1.615421  -1.132403  0.144750  -0.166987  0.087779  -0.269709  0.182522  -0.186471  -0.133098  0.525332  0.752015  -0.163731  -0.649410  -0.505845  0.226250  0.306937  -0.029952  -0.031547  0.168455  -0.057447  
<VARIANCE> 39
11.674925  21.377274  24.345024  20.238906  59.017642  58.250143  55.224163  42.810700  42.290027  33.223179  44.316800  30.414354  0.229209  0.528411  0.724781  1.259269  2.021478  1.394266  2.151542  2.330224  2.168196  2.368345  2.032170  2.024602  2.037760  0.013780  0.083309  0.100455  0.242211  0.265073  0.293519  0.312322  0.385483  0.424098  0.345711  0.379640  0.468287  0.338100  0.002905  

<STATE> 6
<MEAN> 39
12.211423  -4.982148  -19.004811  -2.217290  2.296125  -7.554027  -14.708206  -11.566124  -7.720024  -10.232187  -8.039754  -7.433080  23.573639  -1.104099  -1.577684  0.769289  2.937751  -0.505615  -1.744178  -1.053423  1.099769  0.342904  -1.347386  -0.040770  0.722145  0.046155  0.005322  0.228683  0.633437  -0.289999  -0.763575  -0.167412  0.781384  0.367000  -0.486629  -0.140634  0.392350  0.209268  -0.036983  
<VARIANCE> 39
12.703755  25.755514  27.519619  29.915204  58.058068  53.158449  69.385665  42.709837  61.354628  40.830082  42.645449  38.862887  0.102459  0.372062  0.545126  0.975058  1.236811  1.579899  1.023005  2.815597  2.247205  2.510281  1.758671  2.525376  1.836613  0.007439  0.040170  0.063054  0.156920  0.197847  0.201938  0.321733  0.354676  0.439075  0.349203  0.397220  0.377287  0.405143  0.000949  

<STATE> 7
<MEAN> 39
8.065463  -9.373008  -12.137807  5.064705  -5.703813  -13.204277  -11.406784  -7.451349  -12.845533  -13.975811  -3.700120  -4.938240  23.513871  -0.838677  -0.468249  1.985527  0.399226  -2.022358  0.129162  1.679699  -0.527045  -1.314836  0.516518  1.304136  -0.618270  -0.051621  0.090410  0.283828  0.070655  -0.690505  0.047202  0.643471  0.079835  -0.649959  0.222107  0.593708  -0.314234  -0.402351  -0.021552  
<VARIANCE> 39
13.983804  25.659668  33.868032  23.603569  71.290040  40.367501  84.850659  45.944025  65.016566  41.364928  53.813103  47.359138  0.131517  0.279601  0.332946  0.623999  1.556283  0.849674  1.895958  1.347442  3.059872  1.819295  2.631025  1.817245  2.737664  0.006176  0.026388  0.055559  0.082974  0.155401  0.182054  0.192349  0.413054  0.229691  0.511321  0.329785  0.539058  0.361727  0.000720  

<STATE> 8
<MEAN> 39
3.917397  -9.867388  -4.745231  -1.882695  -13.615276  -6.669906  -11.616695  -17.678770  -11.841051  -10.659420  -6.257227  -9.967124  23.179907  -0.379611  0.757709  0.977099  -1.817044  0.256859  1.415484  -0.543548  -0.929346  1.360219  -0.025635  -0.657543  0.088640  -0.099526  0.178927  0.233283  -0.232307  -0.145039  0.388762  -0.185397  -0.308100  0.420240  0.102330  -0.309010  0.012533  0.276131  -0.010849  
<VARIANCE> 39
15.842743  20.203854  17.661348  42.644056  44.549637  37.464540  91.623413  54.982748  46.346818  49.107023  56.420097  37.763378  0.189254  0.309259  0.338049  0.995187  0.978473  1.839342  1.527102  2.010112  2.538198  2.333015  3.102015  1.809553  2.036414  0.004913  0.034596  0.053818  0.081839  0.165062  0.220129  0.222086  0.305298  0.318359  0.506062  0.360052  0.438049  0.387626  0.000513  

<STATE> 9
<MEAN> 39
4.999391  -3.112887  -2.053295  -9.376232  -7.919418  -2.574503  -12.527791  -14.591782  -7.183554  -12.116000  -5.083114  -7.671211  22.395187  1.089656  2.084925  0.974197  -1.833776  0.497097  -0.946204  -0.099489  1.042341  0.281383  0.310391  -0.486805  0.539581  -0.189396  0.275525  0.285808  0.192028  0.089951  -0.007327  -0.901925  0.158825  0.231351  -0.100735  0.118664  -0.159441  0.124369  0.000440  
<VARIANCE> 39
20.380301  17.624930  25.579565  45.915444  31.502151  35.349240  149.631325  43.302457  33.117849  73.396295  47.554259  29.528952  0.565259  0.765786  1.043703  2.196891  1.611547  2.129661  4.999693  2.970412  3.487539  2.848274  3.535333  3.946578  2.857686  0.020754  0.107057  0.161641  0.220533  0.272446  0.423455  0.550111  0.728223  0.544664  0.435014  0.486669  0.516266  0.425710  0.001578  

<STATE> 10
<MEAN> 39
10.093037  5.331478  0.459050  -16.243902  -7.482067  -16.481814  -13.473753  -12.239968  -7.583617  -11.010490  -7.083733  -3.674919  22.262321  0.597225  1.249271  0.676094  -0.086955  -0.002510  -1.577637  -0.082539  0.426624  0.048186  0.595878  -0.097035  0.502754  -0.090093  -0.209734  -0.274288  -0.111261  0.446599  -0.051005  0.485114  -0.256281  -0.131543  -0.007974  0.025370  0.169708  -0.114976  -0.011299  
<VARIANCE> 39
7.916470  12.795236  39.093103  38.345314  30.717292  75.297065  79.678996  48.399943  56.173445  76.382249  75.559808  98.236715  1.151677  0.710660  1.939902  1.711856  2.443681  2.204152  5.363489  4.466666  2.835287  2.803982  3.933985  3.273534  3.101920  0.017116  0.098440  0.216360  0.282306  0.307294  0.293945  0.581740  0.467021  0.418004  0.453063  0.548341  0.490651  0.446591  0.003304  

<STATE> 11
<MEAN> 39
12.392908  9.889683  6.980746  -10.743164  -4.906977  -13.017679  -9.635229  -8.175241  -6.358141  -6.097870  -8.049400  -3.960843  21.124780  0.124831  0.724865  0.714817  0.780375  0.417303  0.213864  -0.719318  -0.214832  0.103340  0.116165  -0.079837  0.144773  -0.201775  -0.208865  -0.217181  0.028531  0.305197  0.145838  0.446248  0.111029  -0.184525  0.006527  -0.059544  0.088909  -0.044852  -0.059319  
<VARIANCE> 39
8.044588  11.304060  46.121285  29.571489  41.291228  68.991741  64.273127  49.343347  39.418189  91.412703  51.637407  52.706498  1.214076  0.456529  0.884543  1.206675  1.426893  1.392452  2.594087  2.111790  1.740424  2.019825  1.784155  1.553796  1.734822  0.027541  0.082636  0.180903  0.280327  0.261199  0.306150  0.388144  0.447653  0.360404  0.308097  0.351990  0.357174  0.355025  0.007822  

<STATE> 12
<MEAN> 39
10.667951  10.701680  8.808235  -7.241149  -4.480674  -11.722629  -15.260831  -12.144605  -6.952943  -7.366457  -7.701296  -3.568864  20.197633  -0.956102  -0.210533  1.063012  1.629003  1.488787  2.057057  0.633015  0.329012  0.793139  0.842288  0.642034  0.303615  -0.743154  -0.295825  -0.460035  -0.288413  -0.054237  0.287570  0.549101  0.771386  0.531689  0.484680  0.274740  0.321496  0.147741  -0.185613  
<VARIANCE> 39
8.006029  14.376252  40.851885  38.305271  44.759876  75.215156  70.129579  53.804295  48.285083  89.154816  64.640446  65.218705  1.413663  0.720436  1.200665  1.547187  1.780144  2.202707  3.560576  3.734877  3.604596  3.221183  3.274988  2.595604  3.363647  0.153136  0.118848  0.204497  0.304807  0.402368  0.445599  0.717293  0.513058  0.584533  0.603211  0.592680  0.535660  0.660782  0.012887  

<STATE> 13
<MEAN> 39
5.854527  6.422830  9.751091  -2.747082  0.970143  -0.871986  -7.868906  -7.752044  -0.443947  -1.943688  -3.201317  -1.179503  16.982802  -0.994953  -1.090161  -0.433506  1.050192  1.014471  2.029870  1.790299  1.466969  1.552325  1.060908  1.030174  0.462452  -0.869501  0.280886  0.111131  -0.243442  -0.274813  -0.350256  -0.500846  -0.163942  0.017642  -0.170879  -0.053690  -0.104666  0.013963  0.113060  
<VARIANCE> 39
16.565643  33.575005  37.212819  41.138237  41.566070  73.189477  80.756291  60.840588  50.920155  58.004945  61.119256  39.800774  2.894170  1.208094  1.694923  3.071628  3.091296  3.888125  5.532433  5.043550  4.720131  4.233568  5.514292  4.552957  4.761118  0.195239  0.187547  0.324642  0.470704  0.484737  0.526433  0.716831  0.877360  0.753383  0.722844  0.683647  0.644299  0.625956  0.034859  

<STATE> 14
<MEAN> 39
6.830699  8.242066  7.744154  0.860335  2.617396  1.164717  -2.086113  -1.423516  1.100759  0.440436  -1.637540  -0.327887  14.957147  0.051158  0.098039  -0.150701  0.220365  0.022516  0.137763  0.306784  0.199942  -0.040335  0.026120  0.050848  0.023024  -0.154614  0.014103  0.023523  0.019745  -0.062038  -0.035843  -0.068770  -0.084983  -0.094873  -0.074117  -0.060985  -0.050780  -0.032634  0.028832  
<VARIANCE> 39
28.123997  34.310267  20.424717  27.037157  24.065465  33.198855  42.886590  38.923262  34.807875  29.436387  26.887343  23.812891  3.985133  0.530895  0.710098  0.953345  1.364198  1.701566  2.051309  2.554813  2.571915  2.494292  2.418223  2.311620  2.082584  0.077131  0.077371  0.118302  0.167680  0.224907  0.299894  0.358877  0.455866  0.447827  0.426727  0.450458  0.419132  0.369941  0.011217  

<TRANSP> 15
0.000000  1.000000  0.000000  0.000000  0.000000  0.000000  0.000000  0.000000  0.000000  0.000000  0.000000  0.000000  0.000000  0.000000  0.000000  
0.000000  0.850920  0.149080  0.000000  0.000000  0.000000  0.000000  0.000000  0.000000  0.000000  0.000000  0.000000  0.000000  0.000000  0.000000  
0.000000  0.000000  0.654101  0.345899  0.000000  0.000000  0.000000  0.000000  0.000000  0.000000  0.000000  0.000000  0.000000  0.000000  0.000000  
0.000000  0.000000  0.000000  0.735201  0.264799  0.000000  0.000000  0.000000  0.000000  0.000000  0.000000  0.000000  0.000000  0.000000  0.000000  
0.000000  0.000000  0.000000  0.000000  0.674239  0.325761  0.000000  0.000000  0.000000  0.000000  0.000000  0.000000  0.000000  0.000000  0.000000  
0.000000  0.000000  0.000000  0.000000  0.000000  0.709910  0.290090  0.000000  0.000000  0.000000  0.000000  0.000000  0.000000  0.000000  0.000000  
0.000000  0.000000  0.000000  0.000000  0.000000  0.000000  0.791435  0.208565  0.000000  0.000000  0.000000  0.000000  0.000000  0.000000  0.000000  
0.000000  0.000000  0.000000  0.000000  0.000000  0.000000  0.000000  0.808616  0.191384  0.000000  0.000000  0.000000  0.000000  0.000000  0.000000  
0.000000  0.000000  0.000000  0.000000  0.000000  0.000000  0.000000  0.000000  0.743037  0.256963  0.000000  0.000000  0.000000  0.000000  0.000000  
0.000000  0.000000  0.000000  0.000000  0.000000  0.000000  0.000000  0.000000  0.000000  0.760997  0.239003  0.000000  0.000000  0.000000  0.000000  
0.000000  0.000000  0.000000  0.000000  0.000000  0.000000  0.000000  0.000000  0.000000  0.000000  0.764298  0.235702  0.000000  0.000000  0.000000  
0.000000  0.000000  0.000000  0.000000  0.000000  0.000000  0.000000  0.000000  0.000000  0.000000  0.000000  0.639255  0.360745  0.000000  0.000000  
0.000000  0.000000  0.000000  0.000000  0.000000  0.000000  0.000000  0.000000  0.000000  0.000000  0.000000  0.000000  0.698587  0.301413  0.000000  
0.000000  0.000000  0.000000  0.000000  0.000000  0.000000  0.000000  0.000000  0.000000  0.000000  0.000000  0.000000  0.000000  0.875483  0.124517  
0.000000  0.000000  0.000000  0.000000  0.000000  0.000000  0.000000  0.000000  0.000000  0.000000  0.000000  0.000000  0.000000  0.000000  0.000000  

~h "two"
<BEGINHMM>
<NUMSTATES> 15
<STATE> 2
<MEAN> 39
-0.401887  5.432109  1.593526  1.362400  0.916582  2.045515  3.243653  2.583930  0.862814  -0.438813  -0.045442  -0.019975  13.874919  -0.787249  -0.225000  -1.208755  -0.358802  -0.362859  -0.490868  -0.533294  -0.069721  -0.154157  -0.403883  -0.201509  -0.460052  1.025033  0.024226  0.325818  0.060639  -0.060666  0.175953  0.087363  0.021531  0.151670  0.024234  -0.033402  -0.015861  0.013753  0.000084  
<VARIANCE> 39
17.691618  14.736511  23.384534  21.245817  24.175374  24.977442  26.091547  24.683413  21.502277  19.588766  17.518945  16.591358  11.069248  1.844986  1.793289  2.609799  2.382599  2.723241  3.254085  3.071231  3.051956  2.960160  2.675674  2.615808  2.406132  1.198057  0.281947  0.418054  0.437405  0.381220  0.500607  0.621419  0.494744  0.519383  0.455572  0.500091  0.513010  0.361090  0.166231  

<STATE> 3
<MEAN> 39
-4.948007  8.714025  -3.720727  -1.536584  2.204726  0.551338  0.744536  4.340568  1.066208  -3.396440  -0.878031  -2.406083  19.050309  0.062328  1.213077  0.754783  -1.117173  0.924227  0.089002  -0.508688  -0.148776  0.327534  -0.449310  -0.120368  0.009327  0.362929  0.688989  -0.178033  0.605914  -0.409411  -0.279494  -0.200628  -0.085827  -0.491367  -0.076518  0.125647  -0.015180  0.171635  -0.172231  
<VARIANCE> 39
11.614915  21.912940  21.181703  22.746515  28.815582  25.472941  30.281411  26.018856  36.972290  35.498013  39.324106  34.701288  0.819696  1.757792  2.225811  3.057944  2.283940  3.081171  3.620933  3.222224  3.297771  3.195954  3.803742  5.193739  3.037373  0.391602  0.250786  0.500913  0.650647  0.572959  0.958175  0.889040  0.818186  0.704370  0.733556  0.700785  0.838156  0.801911  0.125590  

<STATE> 4
<MEAN> 39
-1.343144  10.373796  2.324746  -5.838351  3.987342  0.731409  -0.465731  1.204406  2.183210  -3.307855  -1.768487  -1.704010  19.617762  2.754398  -0.338238  0.668844  -3.668291  -2.650217  -2.457238  -1.764364  -2.562224  -1.107024  -0.571823  -0.728931  -0.028289  0.927238  0.149278  -0.479604  -0.700751  -0.816080  -1.229168  -0.658728  -0.280047  -0.274210  -0.497445  -0.297165  -0.242909  -0.187117  0.239991  
<VARIANCE> 39
22.549896  18.387622  34.032460  22.932367  39.805618  53.561315  31.756299  35.553481  37.624915  49.801074  67.870780  41.989511  1.810844  0.976715  1.727549  3.222844  4.032625  3.394766  4.176672  4.151463  3.114164  2.809104  3.110492  4.183009  6.303672  0.169110  0.434957  0.315282  0.343744  0.418584  0.518178  0.750073  0.634391  0.717692  0.735423  0.574114  1.113027  0.978510  0.030220  

<STATE> 5
<MEAN> 39
6.060388  8.352113  -0.444350  -18.367101  -7.742921  -9.259296  -7.226737  -6.186930  -2.793863  -6.210645  -3.157886  -1.742869  22.866638  1.290936  -1.175145  -1.046224  -4.578384  -3.970331  -2.326230  -1.549588  -1.895185  -1.518747  -1.246792  -1.222803  -0.384549  1.156082  -0.999917  -0.136547  -0.290283  0.701397  0.523443  0.777117  0.632382  0.797658  0.208387  0.012495  -0.094844  -0.299682  -0.202079  
<VARIANCE> 39
8.941858  14.821990  48.536239  35.476486  24.192546  47.277532  29.216486  17.254724  21.113482  35.211869  52.884598  50.881940  0.376615  1.916514  1.390396  2.466809  3.233407  2.473660  2.736911  3.607810  3.282319  3.607502  2.997829  5.622812  8.272900  0.110925  0.123623  0.220457  0.308635  0.429841  0.421902  0.449229  0.460547  0.387094  0.430003  0.426959  0.669616  0.782071  0.017671  

<STATE> 6
<MEAN> 39
3.631697  5.817852  -2.195866  -23.120063  -10.611917  -8.991218  -6.341099  -5.681726  -3.788758  -8.372967  -5.843991  -3.192623  23.754750  -0.837320  -0.841522  -0.645554  -1.772101  -1.224149  -0.017817  0.215797  0.191524  -0.450188  -0.635241  -1.137356  -0.992688  0.326350  -0.444930  0.287822  0.227248  1.230876  0.971356  0.571244  0.402124  0.561026  0.333999  0.362619  0.214342  -0.121703  -0.316546  
<VARIANCE> 39
14.624855  15.065448  56.718602  39.053273  26.761746  44.890166  30.351380  21.506527  28.979829  53.213406  50.083118  78.979898  0.074314  0.920182  0.847600  0.817999  1.883138  2.050148  1.737436  1.530711  1.444035  1.949192  2.044778  3.679775  2.971926  0.038782  0.218389  0.140931  0.255008  0.268993  0.289559  0.365258  0.350959  0.358908  0.370780  0.364319  0.530540  0.949968  0.008922  

<STATE> 7
<MEAN> 39
1.906051  4.798488  -4.058557  -25.864442  -11.114189  -10.076271  -7.238419  -5.514428  -5.581344  -10.074584  -7.726786  -4.086214  23.872529  -0.057112  -0.229456  0.000825  -0.325200  -0.630774  -0.294008  -0.207440  0.063427  -0.136192  -0.143316  -0.836010  -1.097672  0.019878  0.250066  0.115128  0.201019  0.505931  0.234042  0.012709  -0.032199  -0.041088  0.115036  0.279775  0.231715  0.129837  -0.092989  
<VARIANCE> 39
14.723720  15.929458  45.533915  40.570965  35.009489  41.047661  27.102757  20.871050  31.241517  52.265605  44.583039  88.109669  0.051779  0.480465  0.407486  0.607043  0.972354  1.412983  0.957936  1.108529  1.249610  1.452690  1.422368  2.195030  1.438382  0.007490  0.085425  0.079957  0.093123  0.212699  0.284624  0.207858  0.206374  0.236600  0.278744  0.241667  0.319668  0.363242  0.006737  

<STATE> 8
<MEAN> 39
3.974986  5.708057  -2.466988  -25.066072  -11.671736  -11.454962  -8.730030  -6.245796  -4.871946  -9.818100  -9.153009  -7.649339  23.511919  0.415880  -0.082705  0.405858  0.354293  -0.431817  0.004397  -0.080919  -0.221918  0.039277  0.315305  -0.203552  0.121866  -0.087249  0.098805  -0.018541  0.026036  0.145505  -0.071076  -0.004231  0.115535  -0.058428  -0.023398  0.068859  0.013167  0.099555  -0.015522  
<VARIANCE> 39
12.687353  14.547719  44.720545  33.227332  27.933768  44.843021  28.222311  30.140972  34.041917  47.886912  28.766126  46.984284  0.213848  0.201036  0.297387  0.363424  0.652091  0.700692  0.774071  0.842541  0.974847  1.011655  0.837147  1.320493  1.247246  0.005733  0.028306  0.028703  0.047771  0.078236  0.101231  0.100635  0.112419  0.138165  0.142404  0.120669  0.127965  0.172707  0.000594  

<STATE> 9
<MEAN> 39
8.747092  3.712061  1.316612  -17.003629  -18.202367  -10.206267  -4.376283  -7.962256  -5.587864  -2.944480  -10.210195  -6.819011  22.846977  1.065795  -0.263073  -0.084668  1.871737  -0.503644  -0.977190  1.087476  0.234595  -1.075378  0.804881  0.823679  -0.287214  -0.174429  0.063815  0.089900  -0.175004  0.196701  0.305286  -0.252566  -0.124732  0.364517  -0.135226  -0.269589  0.323423  0.080368  -0.019451  
<VARIANCE> 39
15.049708  22.728205  37.781035  50.851192  23.962212  31.184240  50.390975  56.351051  40.575087  55.124351  86.666802  53.170719  0.634271  0.397006  0.395254  0.760306  1.037816  1.550713  1.684220  1.646732  2.559106  1.783837  2.312997  2.475472  2.419847  0.012869  0.049255  0.056561  0.111001  0.166584  0.205582  0.242019  0.322915  0.303420  0.350715  0.382508  0.417577  0.420643  0.001120  

<STATE> 10
<MEAN> 39
12.433852  2.754905  -1.880409  -9.034800  -16.295836  -17.318719  -2.635211  -2.202272  -9.409808  -3.732616  -2.868730  -5.377019  22.397331  1.086065  0.273731  -0.746473  1.548858  1.403588  -1.108165  -1.122714  1.216402  0.324799  -0.889986  0.659124  1.161807  -0.212259  -0.097812  0.135224  0.109860  -0.169692  0.412371  0.372789  -0.497618  -0.318460  0.517642  -0.055674  -0.493082  0.109743  -0.030567  
<VARIANCE> 39
11.757959  30.411581  45.867119  43.343210  30.622181  43.653201  50.881301  74.926835  48.207540  53.189612  96.162121  74.171013  0.858453  0.563292  0.465742  1.103695  1.880166  1.659216  2.186874  2.769191  2.873666  3.045606  3.089157  3.679170  2.309348  0.019151  0.074948  0.101080  0.184132  0.230266  0.339704  0.366104  0.471360  0.476491  0.423802  0.621612  0.469471  0.481872  0.003032  

<STATE> 11
<MEAN> 39
16.045258  4.903231  -3.489706  -6.259850  -9.819816  -16.679207  -9.024854  -1.428139  -5.076614  -5.592090  -5.857081  -3.912492  21.560304  0.555997  0.493946  0.277495  1.107071  1.700344  0.555947  -1.249005  -0.750644  0.663120  -0.041536  -0.709449  0.186210  -0.309094  -0.430688  0.005644  0.552305  0.076613  0.184113  0.372673  0.251060  -0.370906  -0.159521  0.224624  -0.032208  -0.212201  -0.062794  
<VARIANCE> 39
11.699842  22.257143  42.762364  47.433111  44.956593  42.881065  53.888588  73.614291  53.016410  45.792231  70.350899  47.139514  0.952817  0.825548  0.751845  2.074715  2.324062  2.843696  3.335685  3.696370  2.961516  2.803526  4.076373  3.404804  2.886974  0.034625  0.130560  0.136408  0.241016  0.348737  0.479859  0.467643  0.571954  0.568215  0.533584  0.518817  0.541395  0.503457  0.007090  

<STATE> 12
<MEAN> 39
14.868826  6.389724  0.891044  -4.122019  -6.573422  -14.818991  -10.580052  -6.838731  -5.873569  -5.230093  -7.286570  -3.273484  20.527705  -0.953611  0.405975  1.982086  1.954879  2.256614  1.096887  0.154948  -0.811213  0.098579  0.527050  0.100157  0.132298  -0.610246  -0.470964  -0.297564  0.142123  0.110528  0.225839  0.432925  0.618007  0.316707  0.150830  0.288192  0.210307  0.068734  -0.151636  
<VARIANCE> 39
12.234912  19.476112  32.256077  39.945235  66.266991  62.910928  43.375678  85.955904  62.303557  62.868236  87.158769  81.856120  0.911061  0.836988  1.315709  1.923621  2.588577  3.610511  3.159460  4.007246  4.204513  3.637993  4.006382  4.488766  3.360651  0.087710  0.202065  0.208168  0.370081  0.363391  0.672069  0.747219  0.668547  0.796018  0.662043  0.859987  0.884479  0.691189  0.013997  

<STATE> 13
<MEAN> 39
10.454441  5.600026  6.824550  2.311263  0.518497  -8.963029  -6.044212  -6.716226  -5.153201  -2.672641  -6.138425  -2.869156  18.244278  -1.461921  -0.852046  0.758827  1.495184  2.185494  2.179885  1.568648  0.786383  1.120292  1.245851  0.784712  0.527454  -0.924916  0.087852  -0.134364  -0.512638  -0.474809  -0.502669  -0.003188  0.143404  0.369785  0.214883  0.122635  0.163300  0.045399  0.009533  
<VARIANCE> 39
14.989475  26.762416  24.791672  39.244133  65.578421  60.788774  61.419877  65.600139  57.584042  62.668875  53.184108  63.074598  1.925229  1.059551  1.500637  2.232138  2.653540  4.437967  4.374120  4.069397  5.605338  4.396432  4.389905  4.813051  4.288268  0.152392  0.200499  0.261369  0.308033  0.352797  0.632647  0.658112  0.716570  0.743088  0.647967  0.746568  0.785976  0.627428  0.026481  

<STATE> 14
<MEAN> 39
8.036171  6.319207  6.686488  4.097563  2.666290  -0.525839  -0.290515  -1.066664  0.158138  0.875441  -2.038445  -0.308911  15.499346  -0.201052  0.171226  -0.084087  0.039012  0.042228  0.451616  0.212114  0.211150  0.225333  0.129575  0.217876  0.129566  -0.246019  0.058356  0.046566  -0.044094  -0.077008  -0.110146  -0.159833  -0.125342  -0.096198  -0.072487  -0.085466  -0.050441  -0.021333  0.047682  
<VARIANCE> 39
26.551706  37.512124  20.210524  25.625802  35.236331  37.327694  46.045287  36.352826  34.990206  31.374809  28.980419  28.186185  3.262659  0.750577  1.232519  1.273384  1.799814  2.201527  2.441956  2.818865  2.830346  2.487935  2.888345  2.597091  2.232690  0.115916  0.123107  0.185750  0.227693  0.324526  0.414067  0.461038  0.524766  0.489519  0.439890  0.477181  0.438903  0.377685  0.014820  

<TRANSP> 15
0.000000  1.000000  0.000000  0.000000  0.000000  0.000000  0.000000  0.000000  0.000000  0.000000  0.000000  0.000000  0.000000  0.000000  0.000000  
0.000000  0.809847  0.190153  0.000000  0.000000  0.000000  0.000000  0.000000  0.000000  0.000000  0.000000  0.000000  0.000000  0.000000  0.000000  
0.000000  0.000000  0.742033  0.257967  0.000000  0.000000  0.000000  0.000000  0.000000  0.000000  0.000000  0.000000  0.000000  0.000000  0.000000  
0.000000  0.000000  0.000000  0.532323  0.467677  0.000000  0.000000  0.000000  0.000000  0.000000  0.000000  0.000000  0.000000  0.000000  0.000000  
0.000000  0.000000  0.000000  0.000000  0.427124  0.572876  0.000000  0.000000  0.000000  0.000000  0.000000  0.000000  0.000000  0.000000  0.000000  
0.000000  0.000000  0.000000  0.000000  0.000000  0.371449  0.628551  0.000000  0.000000  0.000000  0.000000  0.000000  0.000000  0.000000  0.000000  
0.000000  0.000000  0.000000  0.000000  0.000000  0.000000  0.624331  0.375669  0.000000  0.000000  0.000000  0.000000  0.000000  0.000000  0.000000  
0.000000  0.000000  0.000000  0.000000  0.000000  0.000000  0.000000  0.858817  0.141183  0.000000  0.000000  0.000000  0.000000  0.000000  0.000000  
0.000000  0.000000  0.000000  0.000000  0.000000  0.000000  0.000000  0.000000  0.768647  0.231353  0.000000  0.000000  0.000000  0.000000  0.000000  
0.000000  0.000000  0.000000  0.000000  0.000000  0.000000  0.000000  0.000000  0.000000  0.648014  0.351986  0.000000  0.000000  0.000000  0.000000  
0.000000  0.000000  0.000000  0.000000  0.000000  0.000000  0.000000  0.000000  0.000000  0.000000  0.619255  0.380745  0.000000  0.000000  0.000000  
0.000000  0.000000  0.000000  0.000000  0.000000  0.000000  0.000000  0.000000  0.000000  0.000000  0.000000  0.583973  0.416027  0.000000  0.000000  
0.000000  0.000000  0.000000  0.000000  0.000000  0.000000  0.000000  0.000000  0.000000  0.000000  0.000000  0.000000  0.656841  0.343159  0.000000  
0.000000  0.000000  0.000000  0.000000  0.000000  0.000000  0.000000  0.000000  0.000000  0.000000  0.000000  0.000000  0.000000  0.853469  0.146531  
0.000000  0.000000  0.000000  0.000000  0.000000  0.000000  0.000000  0.000000  0.000000  0.000000  0.000000  0.000000  0.000000  0.000000  0.000000  

~h "three"
<BEGINHMM>
<NUMSTATES> 15
<STATE> 2
<MEAN> 39
-0.088145  4.973099  3.091385  0.479315  1.609793  1.455002  2.385833  1.814675  1.404625  -0.527931  0.013654  -0.043095  13.385269  -0.208204  -0.371953  -0.369156  -0.375907  -0.054578  -0.311176  -0.124157  -0.288079  0.049508  -0.176355  0.005233  -0.009049  0.522155  0.212110  0.100682  0.001664  -0.132186  -0.069798  -0.051690  0.049350  -0.043189  -0.065486  -0.023061  -0.138297  0.001091  0.123495  
<VARIANCE> 39
17.133877  19.010237  14.104016  19.120011  18.651659  22.940160  23.246313  21.861006  21.264538  20.001339  19.464647  16.398112  4.479230  1.864327  2.298789  1.697081  2.321175  2.471192  2.958128  2.902277  2.756203  2.539811  2.759270  2.626096  2.081797  0.621089  0.385982  0.459892  0.323054  0.453529  0.491945  0.515811  0.508399  0.478914  0.487505  0.523509  0.495145  0.406155  0.063924  

<STATE> 3
<MEAN> 39
1.263658  5.191863  2.472650  -3.594178  1.804150  -0.306113  2.211985  -0.473030  0.691021  -1.890054  -1.587251  -0.316831  19.002497  2.105128  0.121022  0.568775  -1.987336  -2.064755  -1.286850  -0.887179  -0.869134  -1.220211  -0.678967  -0.866126  -0.322532  1.254428  0.525905  -0.529141  0.200968  -0.065260  -1.083594  -0.223936  -0.254294  -0.030567  -0.306443  -0.124849  -0.201770  -0.255472  -0.142132  
<VARIANCE> 39
24.096365  30.576686  45.923979  29.268235  35.249423  35.555006  38.200668  33.496448  40.767030  40.251655  43.394604  35.500601  2.699288  3.709994  5.018036  5.505820  6.737747  8.869021  4.686070  5.868892  5.108590  5.266758  4.695286  6.182022  5.402686  0.642064  0.623495  1.234891  1.399094  0.997758  1.379287  0.990505  1.164278  1.042301  1.400171  1.029504  1.495111  1.203955  0.074371  

<STATE> 4
<MEAN> 39
9.292880  0.214082  2.316165  -13.554486  -12.577057  -6.734597  -3.121584  -4.167492  -5.894663  -5.285036  -6.972606  -2.683892  22.260498  1.872633  -2.904554  0.305954  -0.799861  -4.351356  -1.052493  -1.184658  -0.423854  -1.519099  -1.109966  -1.222625  -1.561087  0.644060  -0.506004  -0.436471  -0.173163  1.195659  0.393085  0.428218  0.297016  0.228991  0.509008  -0.003800  0.445013  -0.062404  -0.303901  
<VARIANCE> 39
23.165610  30.822303  33.445999  71.612056  36.884131  31.601771  47.264818  48.687762  43.194884  35.354979  46.707443  54.163034  1.019043  3.216182  3.461185  4.498485  8.682659  6.867753  5.695470  4.772814  4.854960  8.042301  4.366898  7.167095  6.488312  0.247200  0.308660  0.483245  0.698781  0.825831  0.758935  0.710764  0.833591  0.885132  1.073672  0.994483  1.216042  1.221745  0.041497  

<STATE> 5
<MEAN> 39
14.206703  -7.432297  1.489218  -4.086983  -18.665541  -9.832089  -2.237050  -2.555000  -5.009815  -7.062528  -6.197370  -5.695170  22.500955  0.597899  -1.795406  -0.662802  1.021493  -1.902875  -0.366114  0.317280  -0.576405  -0.088587  -0.383732  -0.255825  -0.295174  0.219204  -0.557537  0.542354  0.168713  -0.468852  0.510054  0.623087  0.173707  -0.191500  0.055459  0.194214  0.012481  0.190892  -0.049938  
<VARIANCE> 39
23.494687  23.847576  31.961628  94.909449  40.962275  53.288448  54.748764  35.333654  41.448525  31.292399  27.869955  30.610407  0.554452  1.033031  1.679095  2.103953  3.183405  3.305896  3.595118  2.784986  2.582175  2.362486  2.800329  2.481011  2.231977  0.047388  0.289454  0.305792  0.684104  0.816151  0.997154  0.840715  0.590045  0.567352  0.660309  0.534848  0.513822  0.631910  0.014828  

<STATE> 6
<MEAN> 39
12.411072  -10.938059  1.840578  -7.473376  -25.233179  -5.122051  -1.191780  -7.972249  -6.091268  -7.970403  -7.768305  -6.432833  23.347259  -0.982286  -0.089226  0.817491  -2.083987  -0.769335  2.271927  -0.715034  -1.159599  0.436621  -0.305916  -0.350811  -0.299358  0.135746  -0.355271  0.678047  0.167136  -0.880723  0.902994  0.234550  -0.728721  0.361809  0.209842  -0.085255  0.018942  0.033161  -0.037963  
<VARIANCE> 39
17.028776  31.171469  26.065105  78.656571  44.094499  49.919925  74.360009  32.976549  44.525232  29.951137  30.585221  33.607921  0.156099  1.024964  1.526506  1.783503  4.764311  2.406958  3.887417  3.260371  1.776109  2.070351  1.499554  1.434394  1.322423  0.014505  0.082585  0.172829  0.249410  0.316002  0.583426  0.621010  0.558779  0.530805  0.306986  0.337806  0.282132  0.305940  0.002468  

<STATE> 7
<MEAN> 39
7.025185  -7.376175  5.321133  -20.467639  -21.073665  3.287139  -10.074228  -7.830494  -3.438650  -10.542699  -8.294241  -7.110233  23.580764  -1.474161  2.233557  -0.029031  -3.476412  3.241649  0.064818  -2.633159  1.875751  -0.247044  -0.576726  0.142506  -0.051315  -0.004322  0.076105  0.553320  -0.594856  0.462163  0.742141  -1.336312  0.514185  0.495225  -0.528292  0.319141  0.087797  0.100235  -0.043481  
<VARIANCE> 39
15.360791  49.802569  23.132959  49.265066  48.422094  28.164562  88.300309  29.233432  71.535352  28.580940  38.422898  35.580086  0.099448  0.527107  1.776574  1.168776  2.647485  2.860482  4.185576  2.779228  2.549661  2.326508  1.551828  1.347538  1.348193  0.011252  0.074561  0.147282  0.194067  0.466885  0.499854  0.570932  0.765144  0.544489  0.287429  0.333878  0.240860  0.274191  0.001278  

<STATE> 8
<MEAN> 39
2.925240  0.963900  0.744756  -28.050617  -8.086109  -5.051781  -13.255945  -1.200285  -9.487454  -9.384194  -8.769487  -6.731598  23.405144  -0.781807  2.902491  -1.817961  -0.392958  2.596404  -3.274719  1.278968  0.406775  -0.759030  0.828626  -0.203780  0.068057  -0.094305  0.283664  -0.073870  -0.174341  0.895662  -0.782831  -0.121376  0.714782  -0.733939  0.394159  0.070251  -0.003069  -0.012507  -0.024129  
<VARIANCE> 39
18.518560  53.002952  35.332342  31.262054  32.718571  50.715043  46.038747  24.293471  90.369235  25.286098  39.995353  33.814967  0.193301  0.384803  0.908028  0.953052  1.668641  2.423574  2.337974  3.816126  2.569996  1.903902  1.767750  1.473069  1.603019  0.008431  0.050964  0.124158  0.147806  0.285202  0.360495  0.461007  0.474776  0.374023  0.373905  0.306838  0.249391  0.265886  0.000821  

<STATE> 9
<MEAN> 39
1.331733  9.677755  -8.696665  -25.011608  -6.289806  -16.887285  -5.506936  -6.534574  -8.977211  -8.996803  -10.433130  -7.568718  23.054341  0.140918  1.817185  -1.053130  1.220878  -0.289262  -1.400287  0.997928  -0.868221  0.824234  0.173980  0.164979  0.012526  -0.133692  0.184920  -0.256636  0.279163  0.111428  -0.255312  0.408286  -0.285727  0.012094  0.047141  -0.059986  0.089151  0.086359  -0.011941  
<VARIANCE> 39
15.266729  26.026215  45.755498  18.279133  23.987535  49.599368  18.429659  37.192885  47.986590  24.576252  36.612170  34.305180  0.267429  0.292839  0.632914  0.726064  0.896272  1.492996  1.315655  1.606871  1.429411  1.569081  1.282682  1.164619  1.541907  0.008067  0.037212  0.075061  0.092395  0.129694  0.249497  0.236408  0.204477  0.224495  0.201493  0.189025  0.183324  0.191897  0.000723  

<STATE> 10
<MEAN> 39
4.455274  18.096996  -7.092114  -17.598267  -8.868849  -17.551691  -4.744032  -6.858784  -2.956491  -6.611068  -6.752598  -6.128479  22.155106  0.607965  0.863053  -0.073171  0.963227  0.035397  -0.297024  0.007969  -0.500832  0.120676  0.037397  0.310529  0.301003  -0.188646  0.083055  -0.196270  0.107222  0.078310  0.129899  0.127038  -0.043581  -0.043645  -0.085984  -0.045558  -0.068645  -0.046337  -0.012715  
<VARIANCE> 39
15.231310  16.847970  68.989479  22.294666  36.824089  52.492466  26.914333  50.796567  30.939504  34.980667  56.528801  29.748000  0.640931  0.437887  0.598818  0.691993  0.821251  1.448257  0.941371  0.954869  1.197639  1.519606  1.186995  1.254167  1.114222  0.012303  0.063588  0.082302  0.117101  0.163847  0.156168  0.152096  0.170055  0.166313  0.172992  0.185906  0.196558  0.187153  0.001305  

<STATE> 11
<MEAN> 39
7.783904  19.328178  -7.037039  -12.707216  -5.528032  -17.617748  -4.553844  -9.972204  -3.707464  -6.837157  -5.218856  -4.736201  21.228270  0.674822  -0.040848  0.409140  2.079936  1.054153  -0.200147  -0.216178  -0.837879  -0.307728  0.085508  -0.003718  0.105916  -0.265262  -0.236259  -0.319815  0.315100  0.313118  0.244218  0.171480  -0.080072  0.032543  -0.062805  0.045737  -0.052461  0.000603  -0.064276  
<VARIANCE> 39
13.949650  23.353336  80.203585  39.709407  66.974886  66.085092  41.225165  81.637730  40.303462  58.459386  53.209213  59.960437  1.287044  0.903173  1.388933  1.890831  2.188267  2.987901  2.140275  2.949404  2.898905  3.390732  2.809017  3.895254  3.423637  0.038327  0.157047  0.224155  0.329075  0.385551  0.410214  0.413500  0.459196  0.392245  0.489331  0.417572  0.413525  0.488464  0.007997  

<STATE> 12
<MEAN> 39
8.224551  17.017091  -4.294157  -5.314663  -2.964322  -19.292739  -7.224691  -14.307602  -5.521045  -7.560352  -6.709431  -4.435129  20.260151  -0.729739  -1.120698  1.483054  2.564290  1.934908  1.305073  0.283388  0.423308  0.183838  0.654580  0.231022  0.312437  -0.769627  -0.426625  -0.446465  -0.048986  -0.258072  0.201429  0.680180  0.520779  0.758023  0.406634  0.406532  0.277987  0.123138  -0.203104  
<VARIANCE> 39
9.968027  24.106671  55.150538  42.247822  89.643690  70.800844  41.265223  100.370034  45.227823  70.571762  77.086326  83.420777  1.343046  1.081353  1.642420  2.771654  3.627593  3.455272  3.914653  4.014065  4.736721  3.943175  4.019128  3.910928  3.397821  0.140162  0.173737  0.298465  0.473170  0.591165  0.827494  0.692011  0.709141  0.921504  0.731272  0.854773  0.813595  0.748943  0.012355  

<STATE> 13
<MEAN> 39
3.903638  12.091072  -0.558969  0.160359  5.761369  -10.092201  -1.704628  -6.280668  -1.800880  -1.568755  -3.805998  -3.071085  16.611493  -0.624307  -1.730575  0.675770  0.702020  1.117024  2.041151  0.798292  1.613117  1.029831  1.431366  0.821980  0.664148  -0.848874  0.256319  0.137038  -0.117075  -0.513560  -0.545054  -0.165072  -0.210748  -0.042169  0.018086  -0.117429  0.027633  0.059715  0.115775  
<VARIANCE> 39
19.132824  33.176796  52.313711  34.542799  58.235659  64.490503  53.172260  64.103716  57.203600  53.514705  52.244953  37.154118  2.818931  1.413522  2.305036  2.918721  3.721900  6.005531  5.537371  5.431231  6.486659  5.152561  4.520425  4.586185  3.807211  0.243894  0.227402  0.430461  0.464843  0.673199  0.712297  0.889761  0.925159  0.938563  0.959831  0.726680  0.715283  0.602366  0.039106  

<STATE> 14
<MEAN> 39
6.287181  8.470030  4.319341  1.470474  4.197667  -1.682485  -1.368235  -0.570934  0.921037  0.352350  -1.445975  -0.512997  14.755084  0.128798  -0.188254  0.333910  0.110089  -0.190886  0.582309  -0.069030  0.256163  0.010469  -0.054463  0.141356  0.132840  -0.157070  0.003617  0.073981  -0.065745  0.002303  -0.017706  -0.111068  -0.034770  -0.103990  -0.075619  -0.074094  -0.057532  -0.053348  0.033439  
<VARIANCE> 39
33.652727  26.028891  28.344559  22.852009  32.182291  46.136856  44.154433  38.343507  35.865420  31.753819  29.570282  21.986546  4.083453  0.690679  1.053566  1.295177  1.391928  2.192541  2.776286  2.973951  2.732693  2.761241  2.648912  2.484702  2.065036  0.075393  0.097285  0.157099  0.192438  0.252686  0.393384  0.458003  0.504864  0.491190  0.516554  0.463813  0.463992  0.362456  0.010218  

<TRANSP> 15
0.000000  1.000000  0.000000  0.000000  0.000000  0.000000  0.000000  0.000000  0.000000  0.000000  0.000000  0.000000  0.000000  0.000000  0.000000  
0.000000  0.859826  0.140174  0.000000  0.000000  0.000000  0.000000  0.000000  0.000000  0.000000  0.000000  0.000000  0.000000  0.000000  0.000000  
0.000000  0.000000  0.696559  0.303441  0.000000  0.000000  0.000000  0.000000  0.000000  0.000000  0.000000  0.000000  0.000000  0.000000  0.000000  
0.000000  0.000000  0.000000  0.598743  0.401257  0.000000  0.000000  0.000000  0.000000  0.000000  0.000000  0.000000  0.000000  0.000000  0.000000  
0.000000  0.000000  0.000000  0.000000  0.680218  0.319782  0.000000  0.000000  0.000000  0.000000  0.000000  0.000000  0.000000  0.000000  0.000000  
0.000000  0.000000  0.000000  0.000000  0.000000  0.715133  0.284867  0.000000  0.000000  0.000000  0.000000  0.000000  0.000000  0.000000  0.000000  
0.000000  0.000000  0.000000  0.000000  0.000000  0.000000  0.686521  0.313479  0.000000  0.000000  0.000000  0.000000  0.000000  0.000000  0.000000  
0.000000  0.000000  0.000000  0.000000  0.000000  0.000000  0.000000  0.691264  0.308736  0.000000  0.000000  0.000000  0.000000  0.000000  0.000000  
0.000000  0.000000  0.000000  0.000000  0.000000  0.000000  0.000000  0.000000  0.766317  0.233683  0.000000  0.000000  0.000000  0.000000  0.000000  
0.000000  0.000000  0.000000  0.000000  0.000000  0.000000  0.000000  0.000000  0.000000  0.802132  0.197868  0.000000  0.000000  0.000000  0.000000  
0.000000  0.000000  0.000000  0.000000  0.000000  0.000000  0.000000  0.000000  0.000000  0.000000  0.713604  0.286396  0.000000  0.000000  0.000000  
0.000000  0.000000  0.000000  0.000000  0.000000  0.000000  0.000000  0.000000  0.000000  0.000000  0.000000  0.621758  0.378242  0.000000  0.000000  
0.000000  0.000000  0.000000  0.000000  0.000000  0.000000  0.000000  0.000000  0.000000  0.000000  0.000000  0.000000  0.731687  0.268313  0.000000  
0.000000  0.000000  0.000000  0.000000  0.000000  0.000000  0.000000  0.000000  0.000000  0.000000  0.000000  0.000000  0.000000  0.863612  0.136388  
0.000000  0.000000  0.000000  0.000000  0.000000  0.000000  0.000000  0.000000  0.000000  0.000000  0.000000  0.000000  0.000000  0.000000  0.000000  

~h "four"
<BEGINHMM>
<NUMSTATES> 15
<STATE> 2
<MEAN> 39
-2.991964  2.708371  4.166287  0.518630  0.972304  0.652679  2.728177  1.029343  0.738464  -0.072409  0.144530  -0.473468  13.656028  -0.631240  -0.302360  -0.142912  -0.095209  -0.179276  -0.158572  -0.064043  -0.030605  0.035660  -0.051383  -0.008566  -0.051076  0.188457  0.142461  -0.019845  -0.046556  -0.038026  -0.014697  -0.053197  -0.026947  -0.003428  -0.028306  -0.038838  -0.025232  -0.000440  0.061654  
<VARIANCE> 39
21.866803  20.360431  15.385676  18.149311  19.512737  23.873017  23.071569  26.374542  22.248203  20.163347  19.055097  16.892482  3.679563  1.685163  1.826069  1.585691  1.950155  2.190238  2.677377  2.560910  2.664842  2.599623  2.242897  2.106181  1.831337  0.234574  0.324428  0.320148  0.298165  0.352273  0.402651  0.504796  0.477965  0.471974  0.488282  0.425444  0.381940  0.328835  0.044581  

<STATE> 3
<MEAN> 39
-4.531380  -0.239414  2.169501  -1.485194  -1.043432  -1.413609  2.354945  0.990333  0.778476  -0.682500  0.075369  -0.975102  16.025641  2.634540  -0.823507  -1.652145  -0.930755  -0.370637  -1.272502  -1.274723  -0.803302  -0.815190  -0.761513  -0.647103  -0.112027  1.301038  1.353158  -0.029779  -1.201184  -0.353292  0.102664  -0.495275  -0.694748  -0.301960  -0.365556  -0.307750  -0.421662  -0.150203  0.332368  
<VARIANCE> 39
16.264676  15.842744  18.107821  20.300330  19.270376  19.808963  21.190305  21.800972  22.220533  20.316994  17.703281  17.816127  2.990697  5.484650  2.393868  4.261328  2.358972  2.742575  3.630824  3.803229  2.997631  2.627306  2.621961  2.706235  3.217328  0.459917  0.437679  0.520752  0.808699  0.579391  0.543960  0.703815  0.607320  0.609805  0.583285  0.568874  0.681827  0.708469  0.055496  

<STATE> 4
<MEAN> 39
6.232998  0.249971  -1.090410  -3.156720  -2.062581  -5.462717  -2.832896  -2.609362  -2.478970  -3.177735  -1.333273  -0.324452  19.958473  5.643105  -0.937469  -5.854664  -2.220679  0.163425  -2.508660  -3.067457  -1.341657  -1.465094  -1.259536  -2.038594  -0.860743  2.013509  -0.311930  -0.123839  -1.020551  -0.254791  0.245098  0.049966  -0.059978  -0.029469  -0.070852  0.006862  -0.405641  -0.443655  -0.108542  
<VARIANCE> 39
36.824381  16.172687  33.785686  24.164507  30.522902  27.224583  21.274592  17.303100  15.345246  14.931647  21.659527  25.198852  3.089327  1.433838  4.636820  3.152956  3.100879  3.765509  4.965961  3.311307  3.655319  3.620571  3.920935  4.304703  5.639154  0.211368  0.598582  0.297778  0.504316  0.525998  0.441787  0.451982  0.481505  0.369020  0.399321  0.427207  0.875197  0.383157  0.039642  

<STATE> 5
<MEAN> 39
15.414938  -3.593964  -16.531337  -8.511105  -0.688707  -10.441326  -8.448125  -3.915626  -4.439160  -5.526251  -6.273197  -3.035423  22.835668  3.200525  -1.227291  -5.827156  -2.048349  0.418874  -1.774721  -2.308265  -1.247594  -1.336348  -1.045662  -2.288203  -1.529580  1.400953  -1.609495  0.225918  0.985831  0.357772  0.031696  0.750634  0.717320  0.116853  0.220325  0.302008  0.260801  -0.127294  -0.484745  
<VARIANCE> 39
11.363473  33.304615  28.487287  20.228944  32.827376  52.601933  24.241268  31.199037  27.919252  29.181063  38.118255  65.109303  0.378194  2.764544  3.006338  2.778564  3.545795  2.671278  4.694164  3.560746  3.279610  3.583743  3.937761  7.014822  3.712711  0.235199  0.148675  0.320096  0.471098  0.310366  0.377317  0.495436  0.407634  0.452992  0.372909  0.373852  0.584923  0.909059  0.019126  

<STATE> 6
<MEAN> 39
13.750059  -4.889698  -20.406274  -9.322955  -0.206260  -10.690688  -9.080767  -5.276463  -6.471231  -6.465256  -9.258421  -5.317216  23.649130  -0.238218  -0.225754  -1.869727  -0.817151  0.103105  0.070316  -0.518266  -1.004481  -0.679258  -0.291649  -0.963315  -1.203890  0.308695  -0.895332  0.497538  1.484192  0.336755  -0.184797  0.677394  0.621009  0.030389  0.303350  0.325241  0.707838  0.261094  -0.404815  
<VARIANCE> 39
15.933713  43.237137  25.353774  27.565793  36.027945  60.158796  31.228238  40.007559  39.473136  42.216349  61.767987  57.708591  0.142713  0.499767  0.780243  1.726162  1.301429  1.164931  1.363712  1.875762  1.685187  1.238056  1.511252  3.822487  2.350845  0.030081  0.295923  0.288088  0.285830  0.318379  0.371821  0.499493  0.433160  0.483782  0.498006  0.504583  0.767577  0.657617  0.015906  

<STATE> 7
<MEAN> 39
13.235658  -5.947012  -23.826854  -9.952044  -1.524325  -11.373558  -11.453422  -9.806225  -7.295105  -7.417786  -10.934769  -6.356572  23.793624  0.347742  0.680799  -0.465763  -0.811324  -0.237210  0.758431  -0.163051  -0.942100  -0.282604  0.234877  0.282209  -0.683213  -0.007848  0.053656  0.150452  0.397962  0.047237  -0.086100  0.103145  0.234283  0.182044  0.017173  0.054206  0.247657  0.230607  -0.064907  
<VARIANCE> 39
13.344586  32.344993  26.312727  26.384034  30.073155  42.877318  28.636803  30.596244  30.202812  32.027109  48.948477  46.557930  0.089902  0.287121  0.397807  0.532030  0.674051  0.742794  0.964805  1.254584  0.957721  1.205599  1.017257  1.637178  1.345948  0.007428  0.066441  0.080296  0.160888  0.161323  0.141159  0.171688  0.165040  0.157147  0.203040  0.213019  0.307721  0.195679  0.004961  

<STATE> 8
<MEAN> 39
16.324060  -0.222232  -21.356821  -14.290398  -1.369713  -5.736062  -8.399766  -9.276566  -8.145432  -5.409974  -7.566361  -8.309893  23.420328  0.043127  -0.259160  0.308751  0.196204  0.273840  0.093503  -0.102180  0.347590  0.077277  -0.112486  -0.235121  0.041386  -0.050562  -0.077904  -0.298219  0.126313  0.257080  0.100917  -0.138003  -0.151802  0.221900  0.087334  -0.115465  -0.155285  0.064536  -0.002028  
<VARIANCE> 39
11.253941  30.539202  27.097620  20.651274  46.192109  45.780590  40.292179  39.634054  28.359870  26.514262  54.866876  27.177413  0.204639  0.289252  0.911433  0.465309  0.952940  1.114471  1.022087  1.137811  1.112695  1.173598  1.090299  1.307841  1.234460  0.006746  0.038487  0.058226  0.095711  0.094362  0.158554  0.149930  0.152884  0.194236  0.222494  0.199036  0.221993  0.220974  0.000944  

<STATE> 9
<MEAN> 39
14.583821  -8.891970  -15.829779  -7.530136  0.076179  -7.502040  -11.466275  -2.980251  -7.856998  -9.365033  -10.279673  -5.835701  23.072373  -0.339656  -1.907732  2.106613  1.528483  -1.164719  0.152730  0.072820  1.124384  -0.734690  -1.267264  0.432287  0.975670  -0.104113  0.028247  0.089910  0.270396  -0.018512  -0.574964  0.301991  0.341573  -0.422959  -0.194445  0.077952  0.385790  0.024827  -0.029404  
<VARIANCE> 39
18.976890  34.449498  32.507545  27.892183  37.438820  89.696036  43.187825  44.402235  117.239526  45.025312  49.043629  34.245526  0.371766  0.376275  0.676917  1.542363  2.379880  2.714348  2.998010  2.884410  4.106109  6.110203  4.575184  6.965634  3.982041  0.015255  0.054456  0.134799  0.168808  0.254304  0.246393  0.516702  0.513382  0.785277  0.995564  0.730687  0.789412  0.729050  0.001426  

<STATE> 10
<MEAN> 39
12.961111  -16.155368  -4.844657  -3.959420  -11.869061  -2.850935  -9.612705  -7.079324  -12.875150  -11.923658  -5.688479  -3.687052  22.386724  0.058069  -0.139303  1.516154  0.403310  -1.719473  0.927185  0.566756  -1.485891  0.131186  0.532702  0.369733  0.228846  -0.205604  0.050042  0.443181  -0.131958  -0.119222  0.361344  -0.188710  -0.190441  -0.089254  0.183427  0.245185  -0.198679  -0.046241  -0.025532  
<VARIANCE> 39
20.050819  20.912162  23.684972  64.334211  44.909419  45.171682  72.995521  57.710189  91.462092  48.797848  37.320249  43.122874  0.649869  0.390104  0.906331  1.246165  2.277940  1.923035  3.753860  3.877437  2.860808  3.832923  2.348469  2.313048  2.703787  0.012528  0.063686  0.123138  0.184104  0.201140  0.201411  0.383500  0.391248  0.447422  0.535744  0.559591  0.580551  0.509755  0.001544  

<STATE> 11
<MEAN> 39
14.640455  -11.474181  1.138986  -0.475625  -13.447544  -0.176498  -7.222611  -10.306459  -9.376940  -8.591293  -5.824094  -2.529935  20.993267  -0.296473  1.781131  2.249497  0.477067  0.339020  -0.140287  -0.775849  -1.032543  0.252953  0.703064  0.003538  0.036910  -0.370584  -0.374421  0.343138  0.312178  0.098419  0.567624  -0.085058  -0.213300  0.164225  0.174896  0.000215  -0.037227  -0.135214  -0.077552  
<VARIANCE> 39
16.102984  24.735806  39.206230  93.872475  53.750088  71.934676  119.635257  71.774192  40.739508  38.500817  35.750155  48.744217  1.124979  0.794104  1.744766  1.851700  1.926360  2.341333  3.225757  3.043327  2.638050  3.490754  3.374172  2.673124  2.709624  0.043843  0.153320  0.287647  0.282050  0.351661  0.408998  0.571152  0.496431  0.504591  0.489417  0.453919  0.348352  0.408297  0.008908  

<STATE> 12
<MEAN> 39
10.557669  -4.587658  9.457982  -0.763978  -10.580727  -4.071485  -14.119044  -13.613778  -8.501995  -6.968810  -6.049123  -2.265483  19.793002  -1.804311  1.573662  2.110474  1.352041  1.977844  0.641061  0.299719  0.586300  1.119458  1.069773  0.480285  0.031604  -0.823790  -0.305186  -0.508329  -0.665676  -0.065187  0.352016  0.561220  0.750416  0.709690  0.337927  0.323920  0.388750  0.146922  -0.157426  
<VARIANCE> 39
18.704932  21.859249  36.747891  103.016484  56.695120  76.631134  137.731398  55.461166  46.722959  71.643746  75.646023  87.776617  1.213577  1.037108  2.210384  3.193173  2.169062  2.851540  4.249180  4.304969  4.341155  3.302713  3.991539  3.672587  3.673215  0.124842  0.159637  0.301341  0.422963  0.526925  0.534222  0.676171  0.696734  0.652896  0.655100  0.882683  0.835598  0.808626  0.011175  

<STATE> 13
<MEAN> 39
4.826791  -4.092500  11.588408  3.934471  -3.041415  3.613590  -6.095487  -7.631367  -2.466341  -1.799334  -1.956706  -1.212215  16.535690  -1.271062  0.175068  -0.280739  -0.115618  1.370230  0.876334  1.327738  1.354796  1.341312  1.475292  1.145227  0.451632  -0.814848  0.459144  -0.073810  -0.469003  -0.290179  -0.374605  -0.327769  -0.057931  -0.052128  -0.207622  -0.194765  -0.091003  0.021638  0.116775  
<VARIANCE> 39
23.391812  29.764344  24.943503  63.788602  41.725985  62.640945  104.575062  55.308554  52.300208  52.987755  41.189749  38.941961  2.141365  1.889050  2.128003  2.542980  3.725585  4.198575  4.468565  6.523300  5.259086  4.504708  4.621368  4.172184  3.912958  0.166737  0.241438  0.468728  0.508360  0.519096  0.580837  0.615013  0.877299  0.785800  0.708367  0.706635  0.666434  0.553729  0.023297  

<STATE> 14
<MEAN> 39
4.339058  1.738257  7.933510  2.192687  0.448280  2.506829  -2.022441  -2.308916  0.256363  0.456922  -0.029942  -0.607740  14.221492  0.128547  0.674487  -0.305915  0.035797  0.287702  -0.119041  0.462370  0.283373  0.103170  0.100334  0.088632  0.086454  -0.211292  0.045501  -0.031637  0.036322  0.019865  -0.069447  -0.009020  -0.089953  -0.106367  -0.094768  -0.076367  -0.074318  -0.000985  0.047936  
<VARIANCE> 39
21.346135  52.276036  20.593551  27.323763  29.370890  35.263449  47.980114  41.443109  36.945104  40.144407  29.212530  28.537605  3.351974  0.513596  1.112077  1.082049  1.524580  1.931914  2.271453  2.680831  2.960603  2.715998  2.960301  2.599468  2.288624  0.057474  0.081315  0.143034  0.181698  0.247913  0.332697  0.375427  0.438537  0.481837  0.478146  0.525579  0.450598  0.413818  0.007640  

<TRANSP> 15
0.000000  1.000000  0.000000  0.000000  0.000000  0.000000  0.000000  0.000000  0.000000  0.000000  0.000000  0.000000  0.000000  0.000000  0.000000  
0.000000  0.889836  0.110164  0.000000  0.000000  0.000000  0.000000  0.000000  0.000000  0.000000  0.000000  0.000000  0.000000  0.000000  0.000000  
0.000000  0.000000  0.655305  0.344695  0.000000  0.000000  0.000000  0.000000  0.000000  0.000000  0.000000  0.000000  0.000000  0.000000  0.000000  
0.000000  0.000000  0.000000  0.123123  0.876877  0.000000  0.000000  0.000000  0.000000  0.000000  0.000000  0.000000  0.000000  0.000000  0.000000  
0.000000  0.000000  0.000000  0.000000  0.379909  0.620091  0.000000  0.000000  0.000000  0.000000  0.000000  0.000000  0.000000  0.000000  0.000000  
0.000000  0.000000  0.000000  0.000000  0.000000  0.390593  0.609407  0.000000  0.000000  0.000000  0.000000  0.000000  0.000000  0.000000  0.000000  
0.000000  0.000000  0.000000  0.000000  0.000000  0.000000  0.719041  0.280959  0.000000  0.000000  0.000000  0.000000  0.000000  0.000000  0.000000  
0.000000  0.000000  0.000000  0.000000  0.000000  0.000000  0.000000  0.872677  0.127323  0.000000  0.000000  0.000000  0.000000  0.000000  0.000000  
0.000000  0.000000  0.000000  0.000000  0.000000  0.000000  0.000000  0.000000  0.799969  0.200031  0.000000  0.000000  0.000000  0.000000  0.000000  
0.000000  0.000000  0.000000  0.000000  0.000000  0.000000  0.000000  0.000000  0.000000  0.792705  0.207295  0.000000  0.000000  0.000000  0.000000  
0.000000  0.000000  0.000000  0.000000  0.000000  0.000000  0.000000  0.000000  0.000000  0.000000  0.702902  0.297098  0.000000  0.000000  0.000000  
0.000000  0.000000  0.000000  0.000000  0.000000  0.000000  0.000000  0.000000  0.000000  0.000000  0.000000  0.620376  0.379624  0.000000  0.000000  
0.000000  0.000000  0.000000  0.000000  0.000000  0.000000  0.000000  0.000000  0.000000  0.000000  0.000000  0.000000  0.706797  0.293203  0.000000  
0.000000  0.000000  0.000000  0.000000  0.000000  0.000000  0.000000  0.000000  0.000000  0.000000  0.000000  0.000000  0.000000  0.845558  0.154442  
0.000000  0.000000  0.000000  0.000000  0.000000  0.000000  0.000000  0.000000  0.000000  0.000000  0.000000  0.000000  0.000000  0.000000  0.000000  

~h "five"
<BEGINHMM>
<NUMSTATES> 15
<STATE> 2
<MEAN> 39
-2.827539  3.348916  4.023155  0.718101  1.522136  1.286295  2.739075  1.235684  0.840491  -0.220506  -0.295559  -0.411763  13.106804  -0.625935  -0.347041  -0.146542  -0.145646  -0.183781  -0.262618  -0.079243  -0.102128  -0.008903  -0.044316  0.058729  -0.063341  0.283189  0.275725  -0.118575  -0.126397  -0.056907  -0.014094  -0.109244  -0.082041  -0.135605  -0.128358  -0.054404  -0.027158  0.017587  0.130059  
<VARIANCE> 39
23.187160  18.754434  14.311231  19.211167  20.308601  23.653686  27.250970  26.319288  24.934870  21.349450  19.468104  17.756408  3.701147  1.896833  1.830060  1.691732  2.217546  2.351679  2.871296  3.049593  2.958980  2.847241  2.420401  2.281883  1.936977  0.256658  0.475367  0.350985  0.370620  0.398917  0.457724  0.560101  0.562212  0.620223  0.615485  0.498528  0.434937  0.353720  0.058366  

<STATE> 3
<MEAN> 39
-1.420317  -0.084309  1.350406  -1.795763  -0.245408  -1.817832  0.707467  -1.354642  -0.684048  -1.267757  -0.405953  -0.465309  17.021432  3.400799  -2.565114  -2.487837  -0.706436  -0.435163  -2.104651  -1.358998  -1.985800  -2.604127  -0.917040  -0.555838  -0.070751  1.946163  0.371809  -0.675063  -0.571556  0.199317  0.065177  -0.470255  -0.207707  -0.465519  -0.727123  -0.205194  -0.226190  -0.152791  0.173180  
<VARIANCE> 39
38.049854  17.389693  19.373816  21.157499  17.910836  20.077620  21.144812  27.043324  30.764420  19.086466  19.831735  15.311529  6.065949  3.308323  3.771954  3.331544  2.892773  3.375184  3.855460  2.902470  7.541440  4.901808  4.159306  2.565843  2.720701  0.369576  1.047933  0.472794  0.586926  0.503619  0.586413  0.616305  0.629572  0.971619  0.778766  0.561007  0.635962  0.500808  0.102111  

<STATE> 4
<MEAN> 39
9.041446  -10.582876  -8.501322  -3.120958  -1.088130  -9.705441  -2.902431  -8.184804  -11.506768  -4.093532  -2.687134  -0.429243  22.476271  1.039548  -3.690502  -2.540337  0.252945  -0.125782  -2.638025  -1.369657  -2.702969  -3.266613  -1.033539  -1.311128  -0.922348  1.436983  -1.493722  0.556137  0.906507  0.494446  0.053290  0.402086  0.210120  0.290573  0.821888  0.139270  -0.069686  -0.309088  -0.527666  
<VARIANCE> 39
12.018764  25.311288  19.385641  19.610312  36.051053  33.053243  26.486034  89.099333  44.147953  40.364494  27.180084  24.235643  0.681738  3.530148  2.149911  2.679153  1.702588  3.721882  3.935631  3.098792  7.106799  3.535042  2.835509  4.829360  2.955749  0.353767  0.209549  0.365733  0.333508  0.278558  0.354196  0.356681  0.439932  0.972873  0.692615  1.052069  0.538692  0.555135  0.021626  

<STATE> 5
<MEAN> 39
5.026888  -14.172817  -9.068876  -0.907771  -1.187425  -12.266249  -5.276004  -12.437209  -13.543894  -5.554364  -5.277450  -3.873778  23.315530  -1.529459  -1.235257  0.185481  1.133096  -0.246355  -1.236222  -0.822002  -1.359449  -0.326883  -0.555069  -1.020288  -1.238300  0.264032  -0.461953  0.969917  0.912768  0.137917  -0.104286  0.552517  0.356995  0.670377  1.003677  0.255159  0.268446  0.134301  -0.405081  
<VARIANCE> 39
18.817602  25.281563  21.216745  19.934923  50.156113  52.769122  37.575037  102.719138  45.303267  31.758308  45.842252  24.967231  0.262228  0.630441  0.740246  0.818467  0.779666  1.675376  1.655052  1.813431  1.526045  1.880817  4.295638  3.326385  2.937225  0.025844  0.249224  0.184271  0.236107  0.219141  0.342668  0.348578  0.392320  0.961574  0.488714  0.556333  0.463932  0.339761  0.014916  

<STATE> 6
<MEAN> 39
3.743107  -15.008735  -7.580520  0.929690  -2.763641  -14.181768  -6.117399  -13.596143  -12.688019  -6.143804  -6.043198  -4.750157  23.392431  -0.534407  -0.177221  0.603061  0.609113  -0.584901  -0.495780  -0.138625  -0.484789  0.157551  -0.159665  -0.305399  -0.604606  0.002975  0.228191  0.310997  0.113419  -0.157089  -0.011548  0.261727  0.208199  0.241887  0.123822  0.111225  0.179571  0.174301  -0.071198  
<VARIANCE> 39
21.702522  24.427377  23.818011  20.229487  71.288626  68.061600  35.039261  78.571355  42.307243  37.412743  58.100186  31.479788  0.185846  0.342175  0.307864  0.489928  0.795191  1.202095  1.033723  1.030851  1.368421  1.444061  2.533255  1.233788  1.076872  0.011337  0.082084  0.114028  0.103892  0.121468  0.181257  0.206386  0.214924  0.222101  0.257091  0.291766  0.291435  0.249440  0.004768  

<STATE> 7
<MEAN> 39
2.310808  -14.350477  -4.240938  2.182319  -4.300798  -14.048747  -5.440121  -14.673454  -11.218778  -6.073880  -7.197801  -6.962403  23.054151  -0.050919  0.130893  0.438032  -0.178170  -0.082248  0.329689  -0.081805  -0.221705  0.260381  0.130001  -0.171484  -0.078772  -0.058520  0.033605  0.036492  -0.007311  -0.125798  0.064898  0.107082  -0.049955  -0.010551  0.041919  0.010783  -0.018269  0.061221  -0.008256  
<VARIANCE> 39
19.160478  22.380187  21.301901  22.860657  72.642219  54.468962  25.522694  65.730713  32.559198  39.371700  60.440257  30.936231  0.198690  0.129007  0.137853  0.248512  0.418260  0.427363  0.528781  0.458576  0.494964  0.567162  0.572072  0.562804  0.540379  0.004826  0.020322  0.021405  0.033680  0.048029  0.059080  0.066833  0.066639  0.074239  0.079479  0.078874  0.076277  0.068164  0.000522  

<STATE> 8
<MEAN> 39
2.705169  -11.157830  -0.621655  -4.529948  -2.237071  -8.226580  -10.281640  -17.194136  -6.765836  -7.248214  -9.078248  -5.480403  22.141495  0.188657  0.918356  -0.061155  -1.493726  0.950272  1.055664  -0.577361  0.121963  0.198121  -0.220263  0.396157  0.334439  -0.134503  0.071786  0.151794  -0.158258  -0.143165  0.020297  0.009214  0.125600  0.125597  -0.214853  -0.068819  0.138872  0.021873  -0.004543  
<VARIANCE> 39
17.740378  21.218034  17.233630  38.293330  34.880383  74.621148  55.532144  35.293191  40.233984  98.640368  40.333509  20.246111  0.653950  0.249944  0.377720  0.834653  1.086392  1.478984  1.136326  1.365470  0.988565  1.533294  1.311766  1.952562  1.388890  0.009810  0.033598  0.050132  0.075029  0.087810  0.151586  0.147801  0.237492  0.147731  0.193761  0.221856  0.204194  0.216839  0.000839  

<STATE> 9
<MEAN> 39
4.739232  -3.464783  -3.209356  -13.851077  2.958238  -1.985087  -8.177906  -13.600595  -9.767283  -6.947163  -4.941909  -3.233122  21.361611  0.594247  1.397400  -0.200812  -1.552101  -0.457638  0.407783  0.901619  0.866812  -0.445640  -0.496513  -0.156075  0.624493  -0.151102  0.106609  -0.021041  0.293338  0.264777  -0.470004  -0.290273  0.069444  0.152835  0.199441  0.015769  -0.274380  -0.064085  -0.019966  
<VARIANCE> 39
18.266793  27.274608  36.429212  52.001585  23.324614  88.619711  65.348831  42.732337  27.724734  67.145925  31.865999  38.611658  1.262110  0.470885  0.743210  1.189184  1.002516  1.724666  1.692675  1.609047  1.778415  2.178706  2.272345  2.037799  2.224085  0.017035  0.059725  0.117908  0.202477  0.168182  0.253686  0.231278  0.331047  0.267059  0.306266  0.319038  0.351598  0.389927  0.002577  

<STATE> 10
<MEAN> 39
7.445217  0.680077  -0.780151  -17.776019  -3.040715  -1.963616  -4.801132  -8.758099  -9.334980  -8.141490  -7.848102  -2.568799  20.847799  1.098674  1.293326  1.477118  0.399453  -1.756909  -0.669277  -0.011039  0.790490  0.648600  0.223512  -0.471309  -0.272742  -0.328632  -0.237348  0.196116  0.457196  1.119826  0.230567  -0.158092  -0.319578  -0.248192  0.257078  0.301638  0.282863  -0.185923  -0.134863  
<VARIANCE> 39
15.849146  36.540944  38.950819  65.293992  30.872956  92.893925  54.093282  63.254436  35.911120  56.470430  37.191936  53.301345  1.462384  0.828082  1.520586  1.403412  2.588887  2.135839  2.051429  1.860507  2.364379  1.913809  2.072677  2.655902  3.194964  0.032629  0.280122  0.271267  0.266854  0.459655  0.432375  0.460188  0.424701  0.437985  0.468139  0.436260  0.383120  0.535545  0.009426  

<STATE> 11
<MEAN> 39
10.211671  4.466807  3.814626  -12.238671  -7.164527  -6.110531  -7.713174  -10.025410  -7.755563  -7.350364  -8.157141  -3.792130  19.656259  -0.975487  2.058683  2.322928  3.790606  0.473022  -0.289924  -0.372708  0.235676  1.218400  0.780342  0.624735  -0.260221  -0.858451  -1.191869  -0.437695  -0.273246  0.499047  1.142795  0.765465  0.499784  0.353025  0.382623  0.216763  0.440483  0.218279  -0.208730  
<VARIANCE> 39
13.069606  24.136198  26.164926  51.789356  36.668589  70.067059  53.801222  61.029352  31.593275  53.382424  42.895769  55.580670  1.413879  2.591434  2.509150  1.718663  3.215568  3.818064  3.801214  3.640096  3.973059  3.317661  3.587642  2.837086  3.316306  0.126242  0.242677  0.545324  0.393711  0.695824  0.577996  0.630558  0.723931  1.036431  0.524992  0.576317  0.813693  0.717928  0.015400  

<STATE> 12
<MEAN> 39
3.108834  7.739453  9.004216  -1.544227  -0.530969  -2.573680  -6.064761  -8.084374  -3.981525  -4.416841  -5.066261  -3.097524  16.928991  -3.256245  -0.669900  0.125292  2.320013  2.314409  2.166990  1.802123  2.026471  2.129067  1.270118  1.325868  0.764781  -1.123311  -0.051347  -0.879735  -0.893417  -0.998925  -0.054641  0.354925  0.455528  0.393171  0.060516  0.047745  0.012308  0.182761  0.097726  
<VARIANCE> 39
28.014214  16.152352  18.857470  31.404008  31.102753  51.013498  46.697115  44.194944  36.913369  46.647763  31.794812  38.588319  2.389098  1.910592  3.328248  2.858968  4.115093  3.591203  5.443849  5.067527  7.515997  3.258143  3.154281  4.241239  3.563790  0.199559  0.501737  0.447332  0.306940  0.508812  0.708362  0.675194  0.646388  0.764557  0.646594  0.645464  0.537033  0.539494  0.031764  

<STATE> 13
<MEAN> 39
-3.443482  2.158675  4.659926  -1.679918  3.086083  3.105486  0.193572  -1.246581  2.577981  -1.591929  -1.914841  -0.068946  15.175321  -0.162310  -0.624276  -0.307756  0.093880  0.299130  0.552577  0.594981  0.464371  0.666071  0.442396  0.260355  0.284009  -0.182146  0.577324  0.172417  0.126589  -0.131607  -0.316055  -0.358284  -0.371624  -0.428825  -0.336161  -0.129926  -0.218879  -0.120358  0.127983  
<VARIANCE> 39
26.712987  18.510015  23.561934  23.564248  30.052329  35.526272  36.014828  32.845438  39.207366  44.418489  31.890892  23.543947  2.974673  3.133990  2.057645  2.431526  2.709188  3.110980  4.271222  4.071257  4.482551  3.985352  3.462898  2.881554  2.391807  0.242875  0.482465  0.377844  0.451795  0.653945  0.708650  0.834159  0.769631  0.887972  0.755745  0.726574  0.592849  0.487551  0.058578  

<STATE> 14
<MEAN> 39
1.510930  1.241763  5.280341  0.954295  2.082180  3.412082  -1.581028  -3.093322  1.833402  0.481376  -1.793632  -0.062209  14.088364  0.572336  0.070955  0.037916  0.286050  -0.097527  -0.054797  -0.183250  -0.061438  -0.105847  0.266201  0.109438  0.011986  -0.142127  -0.002788  0.064507  0.009931  -0.012038  0.030257  -0.003999  0.017326  0.042476  0.019814  -0.025307  0.030965  0.006630  0.005050  
<VARIANCE> 39
25.736935  26.125161  15.695999  26.200981  25.327127  30.730710  45.867857  42.382164  46.116779  42.048227  30.934782  26.001916  3.153518  0.894221  0.991809  1.152135  1.573306  1.989725  2.448112  2.949857  3.197241  2.917569  2.915166  2.351514  2.305190  0.059226  0.132194  0.159269  0.190160  0.277684  0.315306  0.431465  0.516249  0.566710  0.512926  0.500454  0.390742  0.405351  0.007592  

<TRANSP> 15
0.000000  1.000000  0.000000  0.000000  0.000000  0.000000  0.000000  0.000000  0.000000  0.000000  0.000000  0.000000  0.000000  0.000000  0.000000  
0.000000  0.880577  0.119423  0.000000  0.000000  0.000000  0.000000  0.000000  0.000000  0.000000  0.000000  0.000000  0.000000  0.000000  0.000000  
0.000000  0.000000  0.627729  0.372271  0.000000  0.000000  0.000000  0.000000  0.000000  0.000000  0.000000  0.000000  0.000000  0.000000  0.000000  
0.000000  0.000000  0.000000  0.488878  0.511122  0.000000  0.000000  0.000000  0.000000  0.000000  0.000000  0.000000  0.000000  0.000000  0.000000  
0.000000  0.000000  0.000000  0.000000  0.332013  0.667987  0.000000  0.000000  0.000000  0.000000  0.000000  0.000000  0.000000  0.000000  0.000000  
0.000000  0.000000  0.000000  0.000000  0.000000  0.661648  0.338352  0.000000  0.000000  0.000000  0.000000  0.000000  0.000000  0.000000  0.000000  
0.000000  0.000000  0.000000  0.000000  0.000000  0.000000  0.915609  0.084391  0.000000  0.000000  0.000000  0.000000  0.000000  0.000000  0.000000  
0.000000  0.000000  0.000000  0.000000  0.000000  0.000000  0.000000  0.837949  0.162051  0.000000  0.000000  0.000000  0.000000  0.000000  0.000000  
0.000000  0.000000  0.000000  0.000000  0.000000  0.000000  0.000000  0.000000  0.767716  0.232284  0.000000  0.000000  0.000000  0.000000  0.000000  
0.000000  0.000000  0.000000  0.000000  0.000000  0.000000  0.000000  0.000000  0.000000  0.633441  0.366559  0.000000  0.000000  0.000000  0.000000  
0.000000  0.000000  0.000000  0.000000  0.000000  0.000000  0.000000  0.000000  0.000000  0.000000  0.551172  0.448828  0.000000  0.000000  0.000000  
0.000000  0.000000  0.000000  0.000000  0.000000  0.000000  0.000000  0.000000  0.000000  0.000000  0.000000  0.562819  0.437181  0.000000  0.000000  
0.000000  0.000000  0.000000  0.000000  0.000000  0.000000  0.000000  0.000000  0.000000  0.000000  0.000000  0.000000  0.803894  0.196106  0.000000  
0.000000  0.000000  0.000000  0.000000  0.000000  0.000000  0.000000  0.000000  0.000000  0.000000  0.000000  0.000000  0.000000  0.878960  0.121040  
0.000000  0.000000  0.000000  0.000000  0.000000  0.000000  0.000000  0.000000  0.000000  0.000000  0.000000  0.000000  0.000000  0.000000  0.000000  

~h "six"
<BEGINHMM>
<NUMSTATES> 15
<STATE> 2
<MEAN> 39
-1.038831  4.208604  1.867293  0.128600  2.224105  1.998546  1.235165  1.890211  0.398818  -1.280956  -0.005429  -0.642179  13.885682  -0.967228  -0.176308  -0.330012  -0.086871  -0.285224  -0.093060  -0.306508  -0.101545  -0.065905  -0.062657  -0.151026  -0.114493  0.294884  -0.076872  0.016447  -0.059997  0.127535  -0.039735  0.030170  0.021701  0.037052  0.013158  0.023452  0.010866  0.034251  0.005907  
<VARIANCE> 39
18.400551  21.948027  18.355615  21.706817  22.376234  25.590055  27.536255  27.566985  26.616385  23.976245  24.588921  18.490975  4.806968  2.042251  2.180578  2.094579  2.614410  2.454296  2.620646  2.769568  3.015379  2.988832  2.245493  2.538638  1.987739  0.250360  0.275187  0.386301  0.364110  0.461649  0.411697  0.462311  0.499826  0.552944  0.549039  0.403478  0.424956  0.341539  0.034845  

<STATE> 3
<MEAN> 39
-8.619069  2.933942  -2.060027  1.211663  -0.830168  3.063280  0.346494  2.095437  1.138136  -0.336010  -1.727515  -0.122989  16.040687  -0.362031  -0.109459  -0.157673  0.039421  -0.089618  -0.055034  -0.012632  0.034378  -0.032846  0.046543  0.029780  -0.009234  0.160874  0.294614  0.056202  0.082575  -0.131304  0.046312  -0.060026  -0.018637  -0.064420  -0.036567  -0.054218  0.023884  0.001369  0.003119  
<VARIANCE> 39
8.717887  26.841537  22.633332  21.408381  26.186265  30.125051  29.072860  29.639483  25.918527  27.725833  35.003712  22.940796  1.822591  0.910946  0.975629  1.312386  1.703850  1.870186  2.358126  2.621682  2.880639  2.571641  2.247110  2.392230  2.104615  0.065404  0.153203  0.206680  0.267422  0.380611  0.399656  0.489851  0.551756  0.612525  0.529300  0.468320  0.512485  0.435026  0.018028  

<STATE> 4
<MEAN> 39
-7.583949  2.910019  -1.890330  -0.016484  0.279295  2.306059  0.462070  2.097390  0.743478  -1.095161  -0.915206  -0.479946  16.633303  2.186277  0.810121  -0.007117  -2.252449  -1.211490  -1.285669  -0.761289  -1.250773  -0.420254  -0.934562  -0.208286  0.053352  0.840773  0.886322  0.030600  -0.071632  -1.424542  -0.927901  -0.750212  -0.263270  -0.677615  -0.247425  -0.481431  -0.407311  -0.207337  0.410658  
<VARIANCE> 39
11.117574  18.241347  17.447807  20.240044  23.926697  27.275943  23.687814  21.245281  23.556340  32.057981  42.396214  29.117572  1.330744  2.492683  1.191048  2.382733  4.549052  3.301072  2.970666  2.878816  3.266320  2.662490  2.928351  3.404770  2.514235  0.354076  0.237741  0.304859  0.354136  0.563407  0.421840  0.509708  0.594728  0.528362  0.530890  0.606039  0.642539  0.667274  0.014714  

<STATE> 5
<MEAN> 39
3.460417  5.752255  -1.459385  -12.603503  -8.474866  -5.956346  -3.478425  -4.914225  -2.068150  -5.032473  -3.059017  -1.260988  20.984003  2.920147  -0.438578  -0.703478  -5.796730  -3.021015  -2.463234  -0.488101  -2.342094  -0.964201  -2.238560  -1.887724  -1.136191  1.691297  -0.951160  -0.565931  -0.354021  0.205205  0.586619  0.580963  0.302695  0.250059  -0.094651  -0.163428  -0.319754  -0.305637  -0.142988  
<VARIANCE> 39
27.918109  17.538193  18.830581  88.301286  43.465826  37.405121  33.128262  27.092580  28.406727  56.750522  93.671365  31.752902  4.099485  2.670696  2.632213  3.692251  4.220688  2.837374  3.195799  4.508177  3.216144  2.794143  5.501459  4.637075  4.589224  0.126670  0.480199  0.222843  0.247294  1.284343  0.775503  0.616340  0.417646  0.542741  0.630010  0.643559  0.850554  0.714412  0.078494  

<STATE> 6
<MEAN> 39
1.841076  1.306616  -8.018056  -24.038117  -7.326636  -8.511981  -5.104207  -9.595334  -7.159610  -13.547421  -7.603064  -6.751738  23.548549  -0.567386  -0.431981  -0.587729  -0.681898  0.948538  0.155420  -0.122425  -0.354042  -0.961492  -0.413678  -0.654353  -0.426761  0.118430  -0.153949  0.167868  0.245974  0.592135  0.402290  0.212680  0.022455  0.358030  0.110418  0.369524  0.312128  0.289885  -0.204706  
<VARIANCE> 39
19.929959  20.034383  36.232230  33.794146  30.322402  36.753966  45.657766  28.363207  34.152132  73.197943  50.290074  46.933632  0.115899  0.594696  0.847972  0.993687  2.147480  1.153934  1.511856  1.331187  1.586806  1.915956  2.578120  1.941490  2.416983  0.100390  0.358732  0.137168  0.155358  0.769187  0.459586  0.378858  0.335380  0.280424  0.324768  0.551748  0.405126  0.470840  0.037049  

<STATE> 7
<MEAN> 39
1.959107  2.490220  -4.433859  -23.548441  -2.584573  -4.570061  -2.862330  -5.712238  -7.840907  -9.559925  -9.177832  -4.620904  22.767112  0.527208  0.652194  1.167839  -0.336708  0.761971  0.207331  -0.190934  1.603689  0.266535  0.724150  0.599787  0.374188  -0.366791  0.227572  0.320106  0.386284  0.371993  -0.262678  -0.019144  -0.039756  0.368909  0.349134  0.271830  0.190828  -0.038911  -0.183516  
<VARIANCE> 39
14.970670  30.524842  50.047161  31.821821  42.544579  81.391234  41.459762  47.311238  35.871453  37.208478  31.705432  28.077809  0.575518  0.820486  1.088124  1.186621  1.032230  1.440958  2.178399  4.039339  2.499176  1.795640  3.319976  2.273242  2.372611  0.068112  0.144647  0.184111  0.195206  0.475138  0.256557  0.335926  0.365156  0.399008  0.346445  0.296686  0.320129  0.339444  0.019619  

<STATE> 8
<MEAN> 39
5.853719  7.474049  3.388655  -22.097178  -2.835452  -4.901744  -5.973573  2.213059  -5.083951  -5.356211  -5.550989  -3.657335  19.908250  0.655587  1.530089  2.046415  3.865619  -0.498245  0.723412  0.387926  1.767702  2.254060  1.653379  1.328922  0.321572  -1.629964  -0.448404  -0.332468  -0.452466  1.335255  0.057055  0.430913  0.679449  -0.471885  0.334114  0.030630  0.065571  0.016220  -0.301739  
<VARIANCE> 39
13.860643  33.165422  63.035356  55.912574  59.141874  123.468917  76.004415  62.227641  51.400691  32.944282  33.230873  29.746516  3.134981  2.071127  2.445840  3.657900  6.523221  3.542359  6.312851  6.096593  6.605721  5.043074  4.259360  3.830860  3.181042  0.301407  0.310772  0.476313  0.721434  0.791569  0.745197  1.312298  1.453701  0.970944  0.911925  0.745731  0.836410  0.632918  0.043101  

<STATE> 9
<MEAN> 39
4.569061  9.043450  5.011306  -4.526456  -2.203462  -0.277843  0.420608  4.667410  2.728140  -0.127180  -1.615790  -2.772640  13.555357  -0.929081  -0.402866  -0.023568  4.192790  1.071536  1.695640  2.004583  -0.132082  0.783076  0.583383  0.607096  0.513618  -1.315875  -0.200482  -0.738555  -0.256350  -1.022058  0.104600  -0.166830  -0.222417  -0.517910  -0.823688  -0.476622  -0.279603  0.061540  0.521168  
<VARIANCE> 39
12.739732  11.650522  20.552000  41.906290  34.680414  40.069546  44.343308  38.117723  36.919910  28.670327  25.757272  32.818154  4.356187  1.696261  2.850605  3.419605  4.658683  3.995973  7.014017  5.906150  5.214538  5.986742  3.545488  2.968207  2.896721  0.646910  0.420101  0.540812  0.602294  0.923709  0.903629  1.090074  1.064277  1.091618  1.025591  0.775749  0.642147  0.617283  0.102552  

<STATE> 10
<MEAN> 39
1.940333  1.451591  4.881581  1.026330  -0.885528  2.309222  3.515199  1.488518  0.314386  -0.976225  -1.091135  -0.607779  13.855037  -0.671886  -2.610562  0.173592  -0.351227  -1.204115  0.136264  -0.057744  -1.038465  -0.656397  -0.159143  -0.275250  -0.070161  0.923565  -0.256755  0.396385  0.019195  -0.595613  -0.232344  0.086757  -0.320246  -0.043596  0.063048  -0.035193  -0.218485  -0.147918  0.175330  
<VARIANCE> 39
12.855839  78.236854  17.540918  32.270599  37.665180  28.046160  24.740965  26.944301  22.603237  18.724108  18.111051  15.796115  8.590652  2.189747  6.116575  2.532949  3.426418  3.701804  3.736731  3.158547  3.438939  3.464101  2.819645  2.322209  2.297122  0.765349  0.541039  2.225248  0.460388  0.762719  1.036952  0.964754  0.712431  0.745848  0.691716  0.495872  0.477630  0.452223  0.243018  

<STATE> 11
<MEAN> 39
-4.278151  -1.080094  6.050141  -3.226053  -5.684022  5.981967  2.934881  -2.341588  -1.072990  -1.367891  -4.095493  -2.025290  17.220404  -2.911228  2.366757  -0.482018  -0.559774  0.823701  1.880173  -0.634142  -0.022196  0.843043  0.158836  -0.558682  0.238333  -0.104904  0.078979  0.613809  -0.453285  0.391050  0.690927  -0.217381  -0.175057  0.519079  0.387429  0.021794  0.263458  0.233748  -0.355845  
<VARIANCE> 39
30.906772  30.735360  15.125641  34.214430  39.178506  31.505510  36.736781  30.177861  32.569874  31.175809  23.693955  18.712360  1.878883  2.105762  3.232010  2.367384  3.300501  3.383891  3.332752  4.068852  3.199521  3.207879  2.751588  2.966694  2.323053  0.388949  0.607597  1.180607  0.369682  0.549924  0.530703  0.827634  0.688421  0.697815  0.719514  0.551119  0.532074  0.452627  0.075643  

<STATE> 12
<MEAN> 39
-10.663009  5.335646  -0.844372  0.332769  -4.379502  8.370601  -0.030449  0.201365  1.409625  1.197735  -4.408702  -1.894001  16.966415  -0.056317  0.406508  -0.721565  0.442255  0.661764  -0.304912  -0.379529  0.578786  0.068866  -0.122945  0.214326  0.140213  -0.213396  0.531352  -0.346067  0.155203  0.096798  -0.137703  -0.362935  0.138445  -0.012907  -0.284021  -0.089119  0.104170  -0.052695  -0.007606  
<VARIANCE> 39
16.960708  25.784900  27.676177  40.414145  44.620275  25.592838  39.808366  37.442586  37.177006  36.327226  34.244022  30.069844  2.269142  1.746655  1.189586  1.791880  2.049723  2.022879  2.352608  2.913780  2.913874  3.828612  2.755954  2.826256  2.461049  0.099052  0.308833  0.303730  0.324882  0.408344  0.449832  0.523660  0.609287  0.554839  0.718789  0.521718  0.553856  0.513462  0.016071  

<STATE> 13
<MEAN> 39
-6.897446  2.137726  0.585246  -0.801685  1.210844  4.002162  0.087135  1.009994  0.687252  -2.899278  -2.407385  -0.058859  15.268336  0.645268  0.012994  0.088985  -0.001166  0.028354  -0.387091  -0.172379  -0.292737  -0.205211  -0.011492  0.071738  0.068007  -0.052742  0.155299  -0.076013  0.116946  -0.069931  -0.052617  0.029554  -0.030948  -0.122422  0.037949  0.075558  -0.008807  0.020831  0.009384  
<VARIANCE> 39
11.621862  17.049225  16.426115  18.985180  28.274845  30.970164  32.891929  30.059220  30.875435  36.784742  29.974513  24.019088  1.182769  1.255956  1.037137  1.403633  1.768946  1.905163  2.660831  3.218548  3.111620  2.792569  2.718043  2.450112  2.230863  0.084163  0.175570  0.227719  0.257957  0.326917  0.394135  0.530151  0.636142  0.597830  0.565054  0.579869  0.504666  0.462051  0.015824  

<STATE> 14
<MEAN> 39
1.443445  0.613674  3.782488  -0.015832  0.666671  1.703182  -2.473539  -3.011508  0.304788  0.487344  -1.706528  0.199367  13.845832  0.786329  -0.224746  0.304409  0.451868  0.167522  -0.027681  0.116100  -0.080258  0.143959  0.314906  0.222146  0.052090  -0.263118  -0.132951  0.092911  -0.091673  0.060026  0.044488  0.052628  0.143542  0.101825  0.009313  -0.038668  -0.023596  -0.022024  0.023448  
<VARIANCE> 39
8.013385  20.957302  15.457661  29.099251  34.525426  41.309506  43.239399  46.056472  47.014021  38.342257  37.400452  28.263574  2.671771  1.092009  1.811189  1.478300  2.087071  2.666283  3.047705  3.297419  3.282817  3.266877  3.340131  2.759300  2.293288  0.099766  0.148700  0.278704  0.220046  0.353664  0.424254  0.517503  0.569734  0.541680  0.528618  0.459706  0.428476  0.353278  0.015444  

<TRANSP> 15
0.000000  1.000000  0.000000  0.000000  0.000000  0.000000  0.000000  0.000000  0.000000  0.000000  0.000000  0.000000  0.000000  0.000000  0.000000  
0.000000  0.873852  0.126148  0.000000  0.000000  0.000000  0.000000  0.000000  0.000000  0.000000  0.000000  0.000000  0.000000  0.000000  0.000000  
0.000000  0.000000  0.878352  0.121648  0.000000  0.000000  0.000000  0.000000  0.000000  0.000000  0.000000  0.000000  0.000000  0.000000  0.000000  
0.000000  0.000000  0.000000  0.608176  0.391824  0.000000  0.000000  0.000000  0.000000  0.000000  0.000000  0.000000  0.000000  0.000000  0.000000  
0.000000  0.000000  0.000000  0.000000  0.589856  0.410144  0.000000  0.000000  0.000000  0.000000  0.000000  0.000000  0.000000  0.000000  0.000000  
0.000000  0.000000  0.000000  0.000000  0.000000  0.828426  0.171574  0.000000  0.000000  0.000000  0.000000  0.000000  0.000000  0.000000  0.000000  
0.000000  0.000000  0.000000  0.000000  0.000000  0.000000  0.793494  0.206506  0.000000  0.000000  0.000000  0.000000  0.000000  0.000000  0.000000  
0.000000  0.000000  0.000000  0.000000  0.000000  0.000000  0.000000  0.649926  0.350074  0.000000  0.000000  0.000000  0.000000  0.000000  0.000000  
0.000000  0.000000  0.000000  0.000000  0.000000  0.000000  0.000000  0.000000  0.681623  0.318377  0.000000  0.000000  0.000000  0.000000  0.000000  
0.000000  0.000000  0.000000  0.000000  0.000000  0.000000  0.000000  0.000000  0.000000  0.773192  0.226808  0.000000  0.000000  0.000000  0.000000  
0.000000  0.000000  0.000000  0.000000  0.000000  0.000000  0.000000  0.000000  0.000000  0.000000  0.596706  0.403294  0.000000  0.000000  0.000000  
0.000000  0.000000  0.000000  0.000000  0.000000  0.000000  0.000000  0.000000  0.000000  0.000000  0.000000  0.753163  0.246837  0.000000  0.000000  
0.000000  0.000000  0.000000  0.000000  0.000000  0.000000  0.000000  0.000000  0.000000  0.000000  0.000000  0.000000  0.894455  0.105545  0.000000  
0.000000  0.000000  0.000000  0.000000  0.000000  0.000000  0.000000  0.000000  0.000000  0.000000  0.000000  0.000000  0.000000  0.837439  0.162561  
0.000000  0.000000  0.000000  0.000000  0.000000  0.000000  0.000000  0.000000  0.000000  0.000000  0.000000  0.000000  0.000000  0.000000  0.000000  

~h "seven"
<BEGINHMM>
<NUMSTATES> 15
<STATE> 2
<MEAN> 39
-1.074387  3.916818  1.932546  -0.068399  2.044808  2.020669  1.040990  1.561968  0.741470  -1.323790  -0.460215  -0.298742  13.461435  -0.973047  -0.177821  -0.343739  -0.004306  -0.202018  -0.051393  -0.139525  0.027064  -0.034310  -0.019128  -0.019590  -0.108891  0.266734  -0.064557  0.027407  -0.051353  0.078123  -0.035197  0.026352  0.043791  0.054463  0.034343  0.029716  0.009378  0.022083  0.007569  
<VARIANCE> 39
18.793405  21.005692  16.614692  20.121817  23.531226  28.063009  29.007918  29.151769  25.657861  25.584639  22.091046  18.903366  4.002970  2.063177  2.016383  1.969630  2.298868  2.468398  2.821950  3.098740  2.939240  2.789705  2.843927  2.323224  2.162212  0.225055  0.295089  0.331966  0.296730  0.389620  0.414426  0.482026  0.525513  0.512492  0.531016  0.515757  0.412965  0.373242  0.031686  

<STATE> 3
<MEAN> 39
-8.485259  3.185073  -2.415137  1.687551  -1.037848  3.205104  0.791534  2.056925  0.861086  -0.330537  -1.782174  -0.283982  15.747388  -0.362065  -0.091121  -0.130864  0.091063  -0.086169  -0.040510  -0.003492  -0.016763  -0.037219  -0.004673  -0.063618  0.032260  0.169865  0.398280  0.045578  0.110508  -0.191508  0.022026  -0.080093  -0.041228  -0.143808  -0.066953  -0.080523  -0.020839  -0.006950  0.018739  
<VARIANCE> 39
9.404900  30.681230  21.040430  25.926459  26.651739  27.958818  30.673386  27.394177  27.006175  28.210006  34.556978  23.713810  1.856278  1.111137  1.014879  1.340267  1.626743  1.866253  2.117113  2.498602  2.712066  2.671299  2.449616  2.586104  2.008669  0.073525  0.179285  0.218145  0.291495  0.346732  0.390478  0.442922  0.544324  0.558715  0.574048  0.540880  0.535974  0.440531  0.025645  

<STATE> 4
<MEAN> 39
-7.151937  2.504472  -1.468119  0.414617  0.262975  2.354963  0.182382  1.507461  0.769464  -1.269146  -1.089106  -0.375445  16.134921  2.435831  0.498490  -0.142656  -2.061084  -1.081369  -1.007527  -0.394327  -1.367339  -0.576627  -0.773200  -0.324551  -0.145186  0.904445  0.949304  -0.205532  -0.215213  -1.278900  -0.770842  -0.471775  -0.061206  -0.830042  -0.395743  -0.511776  -0.363476  -0.103852  0.435241  
<VARIANCE> 39
10.213814  17.519408  18.991654  18.201235  23.746741  24.163530  22.923743  27.102648  23.346038  29.791758  43.430739  22.401761  1.649183  2.568901  1.495339  2.327974  3.450531  2.503940  2.335529  3.151537  3.183464  2.867538  2.894352  3.377292  2.427854  0.318859  0.202041  0.356621  0.368922  0.557622  0.355540  0.423934  0.712328  0.798249  0.585294  0.535438  0.573235  0.523774  0.016187  

<STATE> 5
<MEAN> 39
0.611695  5.409900  -0.506524  -4.760386  -3.052911  -1.264829  -1.035547  -2.540161  -1.482279  -3.182959  -2.425429  -0.685808  18.765702  3.964289  -0.756534  -0.688075  -5.024864  -2.688890  -1.934785  -0.181972  -3.296527  -1.347169  -2.045860  -1.359856  -0.387273  1.832022  -0.526303  -0.906230  -0.483704  -0.454740  0.089634  0.223005  -0.022241  -0.565745  -0.367826  -0.444218  -0.284737  -0.159993  0.105635  
<VARIANCE> 39
26.761103  16.179876  18.275838  34.036361  36.751044  28.174520  27.447517  31.083769  28.309880  46.119364  73.910282  20.304174  3.926138  1.305974  2.370472  3.993092  4.850317  2.373657  2.421606  6.243488  5.214656  3.603851  4.552716  3.962033  3.901778  0.141339  0.391725  0.298279  0.273492  0.695296  0.493690  0.533196  0.536475  0.789040  0.473500  0.539463  0.528249  0.391744  0.044351  

<STATE> 6
<MEAN> 39
6.454227  -0.372964  -4.564670  -17.744476  -9.570501  -4.242521  -0.879233  -10.305213  -4.637777  -8.715260  -6.357031  -1.920355  22.644942  0.529978  -2.515249  -1.548120  -3.221694  -0.366908  -0.115800  -0.636751  -3.284497  -1.915971  -2.187564  -1.208555  -0.722932  1.190814  -1.370154  -0.249157  0.037478  1.490881  1.208084  0.619755  -0.359706  0.326959  -0.025987  0.408261  0.407675  -0.016622  -0.420926  
<VARIANCE> 39
12.842848  19.306756  23.352196  53.717623  20.374000  21.700248  65.747258  41.296478  40.949299  88.844351  73.748179  33.111590  0.539025  3.407284  1.806375  2.009879  5.886679  4.226055  3.002212  6.310281  5.229951  2.203073  4.124172  2.665802  2.409434  0.352587  0.185556  0.376750  0.365543  0.640199  0.327668  0.497824  0.436486  0.579817  0.502288  0.778008  0.646362  0.719881  0.019346  

<STATE> 7
<MEAN> 39
2.063347  -5.410640  -7.327739  -17.189435  -4.068894  -1.926180  -4.902902  -16.077919  -9.631117  -11.375675  -5.899560  -2.986186  23.454998  -0.963298  -1.302031  -0.363864  0.874679  1.585355  0.176208  -1.535359  -1.462316  -1.137178  -0.035487  0.350856  -0.367370  0.132070  0.079629  0.429629  0.427511  0.602236  -0.040580  -0.168731  0.062205  0.642093  0.443239  0.523442  0.142973  0.032750  -0.196647  
<VARIANCE> 39
16.329969  21.767238  24.091640  46.118414  22.872616  33.349790  125.994352  44.876034  28.929273  81.096102  59.270858  29.476945  0.136297  0.536004  0.668066  0.608138  0.989936  0.940288  1.913673  1.770651  1.072003  1.547628  1.980135  2.371516  2.068266  0.018521  0.188212  0.138116  0.138126  0.558599  0.379146  0.241437  0.430327  0.355081  0.281756  0.420158  0.390196  0.297313  0.021873  

<STATE> 8
<MEAN> 39
1.510568  -8.580214  -6.344735  -14.680413  -2.295029  -4.009796  -8.605561  -19.165261  -9.574119  -10.889924  -7.150146  -4.503271  23.350441  0.507954  0.026377  0.495488  0.356427  -0.639920  -0.286579  0.678724  0.311115  -0.309709  0.416074  -0.632734  0.005013  -0.124789  0.291362  0.377609  0.212363  0.033915  -0.417492  -0.199965  0.313035  0.424092  -0.010905  0.031217  -0.060202  -0.011056  -0.078985  
<VARIANCE> 39
16.540314  22.336650  17.774349  36.341304  21.368531  37.424546  126.582597  41.514919  38.040448  62.160326  31.906337  39.833667  0.155700  0.562660  0.747372  0.679808  0.864878  1.577048  1.268604  2.253738  2.323087  1.555601  1.602608  2.240300  1.730057  0.029649  0.044083  0.153150  0.168265  0.238350  0.141245  0.292330  0.324383  0.318524  0.250832  0.259773  0.301723  0.302082  0.004737  

<STATE> 9
<MEAN> 39
6.551256  -2.075495  -0.640442  -12.269417  -10.031015  -8.652565  -6.308364  -16.337851  -10.369620  -9.736374  -11.247194  -4.190349  21.329690  0.276434  0.676254  0.239614  0.330553  -0.042258  -0.055671  -0.586785  0.644640  0.362009  -0.409016  0.689342  -0.286933  -0.128117  -0.132503  -0.153255  -0.213684  -0.091258  0.296355  0.148694  -0.394625  -0.128937  0.217761  -0.192751  0.276729  -0.031890  0.049326  
<VARIANCE> 39
15.171137  35.175143  29.493695  37.575807  31.498977  40.734542  58.505050  58.088431  38.993800  48.230390  41.992122  28.939753  1.556951  2.025167  5.782695  5.137238  4.353876  3.861825  5.225286  3.740519  5.071830  2.861563  3.927416  3.778116  2.819002  0.282496  0.351207  1.031960  0.813919  0.781855  0.583130  0.852236  0.626538  0.778433  0.510773  0.648030  0.608992  0.521944  0.041849  

<STATE> 10
<MEAN> 39
8.865483  -0.706953  -0.416104  -6.457286  -6.931527  -3.482862  -2.841611  -6.096161  -9.934101  -6.678043  -3.585968  -5.834707  21.328030  0.441091  0.656651  0.367239  -0.076505  0.118695  0.001664  -0.686246  -0.130397  0.521606  0.243794  -0.165620  0.148281  -0.096170  0.050343  0.206057  0.155568  -0.180718  0.092711  -0.261763  0.091350  -0.083121  -0.063235  0.157739  -0.303065  0.186620  0.003697  
<VARIANCE> 39
15.831912  14.017870  25.651969  41.500794  24.995126  39.329480  110.566875  115.860147  49.866295  71.328119  40.026316  26.927046  1.203702  1.036495  1.654708  2.044010  1.924804  1.500264  4.976056  3.638072  5.275912  3.410120  2.299162  3.309384  1.972169  0.113393  0.204622  0.350985  0.426429  0.372946  0.301076  1.134787  0.862099  0.964303  0.629910  0.481606  0.581223  0.366482  0.023783  

<STATE> 11
<MEAN> 39
10.432380  3.984264  -0.775426  -14.274054  -5.736271  -12.039905  -13.347354  -11.804850  -7.043019  -10.397883  -7.284564  -3.758894  21.499675  0.728488  1.523625  0.856235  -0.126166  0.152003  -2.166253  -0.195125  0.562934  0.024586  0.351992  -0.244637  0.523996  -0.102970  -0.166920  -0.091334  0.029161  0.203920  -0.088174  0.200083  0.077650  -0.198127  -0.086973  -0.042867  0.126096  -0.035901  -0.011752  
<VARIANCE> 39
11.673605  18.038717  35.321937  43.642423  38.784831  99.939742  83.810068  56.511059  43.455113  70.400848  64.003527  75.244520  1.081060  0.693407  1.414507  1.503891  1.954092  2.742066  5.515506  4.319570  2.920441  2.651074  3.459802  3.008096  2.735654  0.017124  0.119024  0.219409  0.220249  0.271895  0.308968  1.026861  0.571070  0.460855  0.426677  0.452958  0.489457  0.451772  0.002881  

<STATE> 12
<MEAN> 39
12.135566  9.754462  5.050703  -10.878439  -5.358794  -14.620220  -11.801392  -10.988058  -7.210925  -8.838985  -7.563067  -3.470518  20.673316  -0.196320  0.733094  1.072855  0.893719  0.230339  0.106366  -0.611943  -0.509919  0.020560  0.036778  0.013434  -0.053120  -0.243729  -0.238728  -0.256338  0.021474  0.269650  0.244643  0.537717  0.140629  0.001314  0.110856  0.121388  0.058596  -0.014852  -0.093679  
<VARIANCE> 39
8.622176  12.405908  36.440630  30.220658  51.664520  59.738131  71.567905  53.149261  53.831196  78.149007  51.849062  60.186784  1.038872  0.462948  0.814362  1.144426  1.413003  1.692660  2.321400  1.841943  1.930833  2.288204  1.929959  1.976975  1.994040  0.040139  0.093393  0.143499  0.202591  0.264136  0.424136  0.475492  0.496506  0.448580  0.416193  0.389972  0.361740  0.394954  0.009638  

<STATE> 13
<MEAN> 39
9.549996  10.329196  8.820781  -6.579275  -2.773379  -11.610143  -13.679498  -12.386392  -5.471851  -6.788938  -6.512853  -2.176915  18.882483  -1.191635  -0.393141  0.960841  1.532935  1.736814  2.295531  1.396049  1.174847  1.618768  1.458213  0.990809  0.314154  -0.941789  -0.145526  -0.393407  -0.347816  -0.058963  0.078457  0.493259  0.615615  0.522541  0.378767  0.316480  0.222094  0.044176  -0.122753  
<VARIANCE> 39
10.344013  14.342353  41.600421  41.966248  49.923911  70.026526  72.608625  49.148943  53.281864  82.855342  73.634486  65.729394  1.852409  0.823699  1.283921  1.642088  1.969165  2.649349  3.795346  3.574436  4.162908  3.586647  3.978123  3.008234  3.308815  0.152934  0.131730  0.206755  0.331454  0.381202  0.502056  0.699713  0.545737  0.610333  0.643201  0.631006  0.611345  0.551989  0.021229  

<STATE> 14
<MEAN> 39
7.406519  8.345761  9.295369  -0.027067  2.243414  -0.638343  -2.874002  -3.563196  0.758727  -0.116164  -2.403220  -1.067480  15.339288  -0.195997  -0.226907  -0.259881  0.391387  0.083321  0.636430  0.616749  0.453513  0.305650  0.378139  0.300915  0.050370  -0.322673  0.090719  0.055853  -0.066976  -0.134534  -0.168895  -0.223261  -0.166317  -0.134824  -0.161681  -0.104833  -0.060417  -0.038759  0.064706  
<VARIANCE> 39
26.125451  26.786247  28.403523  27.593473  28.695141  36.564086  47.717964  41.311137  37.422557  35.592352  32.762550  25.195184  3.457398  0.906128  1.201631  1.518216  2.000731  2.196524  2.975846  3.129017  3.291430  3.151495  2.926041  2.625120  2.352910  0.179045  0.141634  0.187989  0.252758  0.328515  0.349602  0.458990  0.517766  0.542653  0.541692  0.461122  0.455991  0.405833  0.024071  

<TRANSP> 15
0.000000  1.000000  0.000000  0.000000  0.000000  0.000000  0.000000  0.000000  0.000000  0.000000  0.000000  0.000000  0.000000  0.000000  0.000000  
0.000000  0.873925  0.126075  0.000000  0.000000  0.000000  0.000000  0.000000  0.000000  0.000000  0.000000  0.000000  0.000000  0.000000  0.000000  
0.000000  0.000000  0.852726  0.147274  0.000000  0.000000  0.000000  0.000000  0.000000  0.000000  0.000000  0.000000  0.000000  0.000000  0.000000  
0.000000  0.000000  0.000000  0.542558  0.457442  0.000000  0.000000  0.000000  0.000000  0.000000  0.000000  0.000000  0.000000  0.000000  0.000000  
0.000000  0.000000  0.000000  0.000000  0.268942  0.731058  0.000000  0.000000  0.000000  0.000000  0.000000  0.000000  0.000000  0.000000  0.000000  
0.000000  0.000000  0.000000  0.000000  0.000000  0.567971  0.432029  0.000000  0.000000  0.000000  0.000000  0.000000  0.000000  0.000000  0.000000  
0.000000  0.000000  0.000000  0.000000  0.000000  0.000000  0.651474  0.348526  0.000000  0.000000  0.000000  0.000000  0.000000  0.000000  0.000000  
0.000000  0.000000  0.000000  0.000000  0.000000  0.000000  0.000000  0.844612  0.155388  0.000000  0.000000  0.000000  0.000000  0.000000  0.000000  
0.000000  0.000000  0.000000  0.000000  0.000000  0.000000  0.000000  0.000000  0.837334  0.162666  0.000000  0.000000  0.000000  0.000000  0.000000  
0.000000  0.000000  0.000000  0.000000  0.000000  0.000000  0.000000  0.000000  0.000000  0.825531  0.174469  0.000000  0.000000  0.000000  0.000000  
0.000000  0.000000  0.000000  0.000000  0.000000  0.000000  0.000000  0.000000  0.000000  0.000000  0.757275  0.242725  0.000000  0.000000  0.000000  
0.000000  0.000000  0.000000  0.000000  0.000000  0.000000  0.000000  0.000000  0.000000  0.000000  0.000000  0.746549  0.253451  0.000000  0.000000  
0.000000  0.000000  0.000000  0.000000  0.000000  0.000000  0.000000  0.000000  0.000000  0.000000  0.000000  0.000000  0.671665  0.328335  0.000000  
0.000000  0.000000  0.000000  0.000000  0.000000  0.000000  0.000000  0.000000  0.000000  0.000000  0.000000  0.000000  0.000000  0.863025  0.136975  
0.000000  0.000000  0.000000  0.000000  0.000000  0.000000  0.000000  0.000000  0.000000  0.000000  0.000000  0.000000  0.000000  0.000000  0.000000  

~h "eight"
<BEGINHMM>
<NUMSTATES> 15
<STATE> 2
<MEAN> 39
-0.293233  6.673959  2.900680  -0.949430  3.393024  3.985513  3.424971  2.291476  1.074034  -0.535520  0.047705  0.477860  12.259060  -0.171368  -0.212229  -0.854848  -1.597599  0.270393  -0.801932  -0.784036  -1.021980  -0.863460  -0.415079  -0.172846  -0.191501  0.864089  0.112678  -0.059533  -0.281035  -0.395905  -0.077243  -0.263525  -0.237227  -0.319662  -0.265785  -0.194387  -0.090842  -0.065873  0.262004  
<VARIANCE> 39
14.890073  18.876403  21.456407  44.234412  32.053449  26.643727  30.803188  30.095634  30.840739  27.178901  28.925184  23.995983  4.576532  1.985910  2.628822  4.147798  6.480871  3.029493  4.273133  4.467197  5.103717  4.026063  3.120709  3.264321  2.520750  1.284609  0.312195  0.426709  0.542626  0.793579  0.505372  0.521951  0.571991  0.639724  0.573583  0.514755  0.525954  0.408524  0.115443  

<STATE> 3
<MEAN> 39
0.156622  3.371772  -6.367125  -14.008103  5.020785  -4.034863  -3.810546  -8.119617  -6.237320  -4.504506  -0.867639  -1.002558  20.100643  0.387516  -0.771030  -2.420052  -3.485254  -0.483423  -2.113671  -1.967126  -2.719468  -2.360883  -2.115066  -1.283463  -1.103414  2.032661  0.028310  0.169160  0.343392  0.574601  -0.322630  0.320189  0.454185  0.545930  0.276411  -0.088887  -0.307184  -0.184697  -0.368173  
<VARIANCE> 39
21.889622  33.114182  56.458804  41.486280  35.737281  48.846234  44.305983  39.054759  29.244036  31.689254  49.188189  24.939484  4.171474  2.416824  2.721458  3.960287  4.869212  3.319960  4.993837  4.206290  5.169895  3.964329  3.539465  4.208119  2.825809  0.702794  0.454741  0.397626  0.537859  0.583652  0.608787  0.633883  0.565195  0.672919  0.589689  0.652513  0.782728  0.573959  0.089874  

<STATE> 4
<MEAN> 39
0.706175  3.222532  -9.261754  -19.491104  1.964721  -5.955304  -5.325090  -9.935449  -10.141552  -10.295914  -5.820679  -4.996573  22.732286  -0.150240  0.146025  -0.849725  -1.260614  -0.900112  -0.926596  -0.200553  -0.351668  -0.751072  -1.241149  -1.170722  -0.993380  0.520915  -0.071142  0.334323  0.440509  0.674385  0.040161  0.179545  0.437242  0.557891  0.550797  0.573820  0.330673  0.264431  -0.392969  
<VARIANCE> 39
17.670594  39.773376  60.136849  31.339792  24.362194  68.755002  54.181713  77.988201  37.296912  22.186962  27.438816  20.587486  0.648884  0.924912  1.038794  1.238454  1.233534  1.355498  1.590180  1.735124  3.193996  2.610476  1.920729  2.282776  1.994399  0.118315  0.211575  0.218077  0.258280  0.471109  0.239777  0.416112  0.422826  0.419594  0.385547  0.312552  0.317434  0.320306  0.057048  

<STATE> 5
<MEAN> 39
0.194104  3.166096  -15.032901  -20.786469  -0.533167  -12.622873  -5.405733  -14.180565  -13.069404  -12.428338  -8.505419  -6.041629  23.408911  0.243367  1.082693  -0.237777  -0.173335  -0.972282  -0.765171  0.862999  0.474869  0.583562  -0.126764  -0.663337  -0.264956  0.017933  0.026592  0.167545  0.112003  0.159405  -0.053900  -0.056220  0.016530  0.121102  0.280650  0.210395  0.146711  0.009227  -0.050452  
<VARIANCE> 39
17.199759  28.016693  39.813670  20.493760  23.684266  45.598040  38.659897  45.785509  25.905467  17.907900  26.171096  24.394015  0.167231  0.293855  0.541012  0.403604  0.709848  0.879809  0.987305  1.188579  0.945984  1.437021  0.996132  1.046310  1.329640  0.017073  0.060493  0.065136  0.074217  0.121164  0.121897  0.164458  0.219849  0.158397  0.181965  0.176828  0.176443  0.231588  0.004164  

<STATE> 6
<MEAN> 39
1.924563  14.673605  -8.331338  -20.361524  -5.713227  -14.076298  -1.604630  -4.703744  -3.879480  -8.155825  -7.496885  -7.838584  23.059609  0.157057  1.228169  0.255331  0.491207  -0.735646  -1.197811  -0.355739  0.013611  0.714727  0.710732  0.544683  -0.044272  -0.094243  0.062121  -0.040598  0.069199  0.095183  0.085171  0.088593  -0.058986  -0.114740  -0.100100  -0.020083  0.075719  0.188108  -0.045626  
<VARIANCE> 39
11.946808  19.171705  82.679233  25.971118  37.343221  62.626642  17.656445  85.572637  28.482956  38.055145  29.877701  16.165310  0.343388  0.302256  0.532370  0.349767  0.546790  0.927574  1.013044  0.795843  1.005793  1.419498  1.027262  0.738285  0.995709  0.017965  0.048313  0.055798  0.057365  0.091725  0.102651  0.118210  0.109679  0.157740  0.132315  0.131395  0.144361  0.144981  0.001879  

<STATE> 7
<MEAN> 39
3.183252  18.102648  -11.297358  -16.653849  -10.893273  -20.418434  -3.114957  -9.630814  -2.382959  -8.345449  -6.521884  -5.709364  22.265420  0.607709  1.001833  0.903381  0.716860  0.113661  -0.325085  0.155032  -0.004454  0.696736  0.647074  1.068894  1.162422  -0.373313  0.160250  -0.297240  0.361992  0.065011  0.351571  0.339526  0.034199  0.162974  -0.049355  0.276088  0.184082  0.216944  -0.122297  
<VARIANCE> 39
12.396595  23.982252  58.405087  32.409440  48.037758  31.784144  23.324810  56.022461  28.136212  52.103201  38.159863  35.702608  0.807306  0.861359  1.124066  0.796155  0.908558  1.378825  1.246512  1.426074  2.039634  2.339884  1.827981  1.950002  1.794564  0.028412  0.160870  0.196055  0.202002  0.226699  0.272476  0.260836  0.243903  0.418028  0.400961  0.448088  0.416594  0.394518  0.008284  

<STATE> 8
<MEAN> 39
5.239342  20.670095  -6.983802  -16.333787  -7.816167  -21.032198  -0.839201  -8.044556  0.395925  -4.610843  -2.664308  -2.160767  20.940928  1.111485  -0.553074  2.362859  1.277717  0.658752  1.098392  -0.520010  1.001473  0.270888  1.790535  1.268135  1.189435  -0.884071  -0.132963  -0.892329  0.419596  0.729186  0.117724  1.118538  -0.274161  0.398766  -0.299521  0.035646  -0.138892  -0.161105  -0.307277  
<VARIANCE> 39
11.893104  18.026527  51.166472  28.413189  38.902668  32.720233  39.978389  47.070061  40.991899  40.135354  33.656725  24.579945  1.338831  1.084564  2.539171  2.202032  2.273276  2.247031  3.081177  2.670710  3.752189  4.139190  4.804418  3.556946  2.958265  0.175762  0.287803  0.300500  0.315343  0.488856  0.407805  0.531048  0.505429  0.700866  0.591624  0.623065  0.446105  0.418533  0.023981  

<STATE> 9
<MEAN> 39
