~o
<STREAMINFO> 1 39
<VECSIZE> 39<NULLD><MFCC_E_D_A><DIAGC>
~h "Sil"
<BEGINHMM>
<NUMSTATES> 3
<STATE> 2
<MEAN> 39
 -5.470872e+02 -2.753550e-02 2.553463e-03 1.702709e-01 1.649254e-01 1.664559e-01 1.596974e-01 1.949993e-01 1.983648e-01 1.940477e-01 2.011823e-01 1.916105e-01 1.963188e-01 1.712388e-01 1.708985e-01 4.620088e-07 2.515611e-06 8.936448e-06 3.005815e-06 -1.548556e-05 -1.820775e-05 -9.880969e-06 -1.784094e-06 3.734306e-06 -4.812522e-06 -4.138681e-06 -3.957495e-06 6.366667e-06 5.517853e-06 5.533235e-06 5.778667e-06 5.208698e-06 4.500340e-06 6.873714e-06 9.265204e-06 5.671711e-06 3.162757e-06 5.286071e-06 5.911570e-06
<VARIANCE> 39
 3.442059e+04 9.516749e+01 5.299340e+00 7.441089e-02 6.145783e-02 8.114698e-02 5.458605e-02 9.495033e-02 8.554130e-02 7.935490e-02 1.023389e-01 6.872872e-02 9.925019e-02 6.532513e-02 7.159328e-02 4.748340e-04 3.735914e-04 5.265105e-04 3.486500e-04 5.932298e-04 5.330637e-04 5.095133e-04 6.182468e-04 4.465938e-04 5.530582e-04 3.867881e-04 5.025449e-04 2.324255e-05 1.898407e-05 2.639261e-05 1.804787e-05 2.988688e-05 2.737811e-05 2.685829e-05 3.155935e-05 2.365475e-05 2.743651e-05 1.972203e-05 2.601660e-05
<GCONST> -1.614648e+02
<TRANSP> 3
 0.000000e+00 1.000000e+00 0.000000e+00
 0.000000e+00 9.993529e-01 6.471361e-04
 0.000000e+00 0.000000e+00 0.000000e+00
<ENDHMM>
~h "Tab0000"
<BEGINHMM>
<NUMSTATES> 3
<STATE> 2
<MEAN> 39
 -4.466984e+02 -2.688632e-01 3.988416e-01 1.518379e-01 1.322317e-01 1.415194e-01 2.796212e-01 4.442821e-01 3.930856e-01 3.220304e-01 2.869340e-01 2.442487e-01 2.148459e-01 1.979914e-01 1.822011e-01 1.398089e-03 2.248354e-03 3.126256e-03 5.064252e-04 -6.603611e-04 -1.902506e-03 1.116006e-04 3.419677e-03 1.147430e-03 -8.549204e-04 3.033182e-03 2.477653e-03 7.638872e-04 6.837507e-04 8.875896e-04 3.461270e-04 -7.206115e-04 -5.485950e-04 6.050391e-05 8.390091e-04 1.401454e-03 1.540522e-03 1.541824e-03 1.244274e-03
<VARIANCE> 39
 2.212837e+04 1.549189e+02 1.069704e+01 5.301110e-02 2.807813e-02 3.856459e-02 6.633146e-02 1.682383e-01 1.052906e-01 1.015600e-01 9.351269e-02 7.924651e-02 8.570229e-02 7.415814e-02 7.081682e-02 6.088287e-04 4.735147e-04 7.166571e-04 1.042004e-03 2.509503e-03 1.226943e-03 1.234047e-03 1.620990e-03 1.459063e-03 1.313741e-03 1.154642e-03 7.723552e-04 3.894639e-05 2.776351e-05 4.561987e-05 5.704115e-05 1.372258e-04 7.250944e-05 6.577312e-05 7.620555e-05 7.378180e-05 8.489600e-05 7.198723e-05 5.665831e-05
<GCONST> -1.405451e+02
<TRANSP> 3
 0.000000e+00 1.000000e+00 0.000000e+00
 0.000000e+00 5.909522e-01 4.090478e-01
 0.000000e+00 0.000000e+00 0.000000e+00
<ENDHMM>
~h "Tab0001"
<BEGINHMM>
<NUMSTATES> 3
<STATE> 2
<MEAN> 39
 -2.991473e+02 -6.766033e-01 1.674699e-01 9.279049e-02 1.644835e-01 4.230514e-01 5.037557e-01 3.140837e-01 2.870870e-01 4.042972e-01 4.951767e-01 4.853408e-01 2.909097e-01 1.690483e-01 1.182032e-01 5.443495e-04 1.208245e-04 -8.298396e-04 -1.344049e-03 -4.718440e-04 1.339983e-03 2.535822e-03 1.768723e-03 -2.404610e-04 -8.249752e-04 4.093820e-04 5.754228e-04 5.454725e-04 3.942772e-04 -3.777121e-05 3.442042e-04 9.314850e-04 5.624990e-04 1.224389e-05 -1.527129e-04 8.992785e-05 3.563118e-04 5.156630e-04 6.239467e-04
<VARIANCE> 39
 1.034968e+04 1.484767e+02 9.586283e+00 1.543270e-02 4.322266e-02 1.203380e-01 1.641710e-01 5.961107e-02 5.063350e-02 1.038364e-01 7.923599e-02 1.154346e-01 5.133383e-02 2.933466e-02 2.224739e-02 1.247923e-04 2.446106e-04 4.991809e-04 5.118049e-04 9.034358e-04 1.353795e-03 1.616757e-03 1.734043e-03 2.300523e-03 7.739664e-04 2.294213e-04 1.755581e-04 9.391850e-06 1.679799e-05 2.687334e-05 2.781873e-05 5.792337e-05 8.444821e-05 8.689558e-05 1.005717e-04 1.323825e-04 4.377620e-05 1.403886e-05 1.201781e-05
<GCONST> -1.580146e+02
<TRANSP> 3
 0.000000e+00 1.000000e+00 0.000000e+00
 0.000000e+00 8.650182e-01 1.349818e-01
 0.000000e+00 0.000000e+00 0.000000e+00
<ENDHMM>
~h "Tab0002"
<BEGINHMM>
<NUMSTATES> 3
<STATE> 2
<MEAN> 39
 -4.290560e+02 5.594452e-01 -1.489050e-01 3.149229e-01 2.475627e-01 2.051948e-01 1.571854e-01 1.418017e-01 1.631086e-01 3.461314e-01 5.552678e-01 4.156972e-01 2.460470e-01 1.950480e-01 2.460949e-01 2.935949e-03 -2.157870e-03 -5.094276e-03 -2.033452e-03 1.084025e-03 1.121755e-03 -1.718722e-03 -3.789211e-03 5.579171e-04 7.045827e-03 6.623541e-03 3.995824e-03 1.737488e-04 2.779412e-04 3.167577e-04 5.810707e-04 6.243109e-04 1.680891e-04 -8.867573e-04 -1.394431e-03 -6.525404e-04 3.966251e-04 3.451488e-04 -2.393951e-04
<VARIANCE> 39
 1.085672e+04 7.619379e+01 4.229252e+00 1.440203e-01 5.912524e-02 8.228762e-02 4.353181e-02 4.668389e-02 5.822751e-02 5.682574e-02 1.736417e-01 6.361467e-02 9.654737e-02 6.224680e-02 6.989501e-02 5.670553e-03 1.871885e-03 2.018576e-03 1.096500e-03 8.756671e-04 1.119355e-03 1.467425e-03 4.923489e-03 1.865126e-03 2.827755e-03 1.403319e-03 2.093238e-03 3.436703e-04 1.121957e-04 1.067186e-04 5.548940e-05 4.180980e-05 5.811073e-05 8.286299e-05 2.668936e-04 9.967873e-05 1.186798e-04 5.490091e-05 1.148731e-04
<GCONST> -1.303600e+02
<TRANSP> 3
 0.000000e+00 1.000000e+00 0.000000e+00
 0.000000e+00 7.587528e-01 2.412471e-01
 0.000000e+00 0.000000e+00 0.000000e+00
<ENDHMM>
~h "Tab0003"
<BEGINHMM>
<NUMSTATES> 3
<STATE> 2
<MEAN> 39
 -4.195383e+02 3.207488e-02 1.270321e-01 1.277595e-01 4.235466e-01 6.753145e-01 4.537628e-01 2.976248e-01 2.813714e-01 2.805939e-01 2.877721e-01 3.254540e-01 4.118510e-01 2.558888e-01 1.074614e-01 1.896966e-04 4.408701e-04 1.609049e-03 2.368705e-03 1.368475e-03 -1.608337e-03 -2.986083e-03 -1.307116e-03 1.492901e-03 2.614069e-03 1.781138e-03 9.500645e-04 2.303569e-04 -6.493887e-04 -1.266559e-03 -4.040280e-04 4.859185e-04 5.537448e-04 6.830303e-04 5.848408e-04 5.176400e-04 4.532653e-04 4.828836e-04 4.537396e-04
<VARIANCE> 39
 2.233102e+04 1.169031e+02 7.536129e+00 2.636065e-02 6.320470e-02 1.433679e-01 4.913968e-02 7.428978e-02 6.536044e-02 7.737506e-02 1.140658e-01 5.288426e-02 1.242752e-01 4.532284e-02 1.846924e-02 3.710896e-04 7.932882e-04 1.629491e-03 6.787935e-04 9.371184e-04 7.560668e-04 6.960362e-04 8.029837e-04 6.834429e-04 8.855384e-04 3.923206e-04 2.564956e-04 2.204259e-05 4.141914e-05 8.327577e-05 3.489607e-05 5.618911e-05 4.430053e-05 3.692810e-05 4.488210e-05 3.593436e-05 4.589386e-05 2.264635e-05 1.804619e-05
<GCONST> -1.551300e+02
<TRANSP> 3
 0.000000e+00 1.000000e+00 0.000000e+00
 0.000000e+00 8.484280e-01 1.515721e-01
 0.000000e+00 0.000000e+00 0.000000e+00
<ENDHMM>
~h "Tab0004"
<BEGINHMM>
<NUMSTATES> 3
<STATE> 2
<MEAN> 39
 -3.623155e+02 8.961216e-01 -1.172125e-01 3.489703e-01 2.906366e-01 2.722788e-01 3.125668e-01 3.728081e-01 3.375064e-01 3.221120e-01 3.446118e-01 3.952769e-01 4.878873e-01 4.222374e-01 3.822874e-01 3.202880e-03 1.098655e-05 -1.718917e-03 -1.134310e-03 1.763304e-04 2.332063e-04 5.704489e-04 -1.591732e-04 -2.216499e-04 5.910605e-04 8.314367e-04 3.261924e-03 2.725104e-04 2.574599e-04 1.531014e-04 6.930684e-06 1.949450e-05 -4.376424e-06 -7.998440e-05 -2.052214e-04 -2.771520e-04 -6.290123e-04 -5.360742e-04 -2.944683e-05
<VARIANCE> 39
 2.065445e+04 2.999496e+02 1.731511e+01 1.202062e-01 5.122330e-02 8.870559e-02 5.560182e-02 9.263512e-02 6.992736e-02 6.913517e-02 8.236926e-02 7.916502e-02 1.299408e-01 8.343538e-02 8.914761e-02 2.268815e-03 9.460355e-04 1.729415e-03 1.200478e-03 1.772725e-03 1.351377e-03 1.641507e-03 2.495229e-03 1.569821e-03 2.705374e-03 1.968753e-03 1.661615e-03 1.309205e-04 4.920318e-05 8.672567e-05 6.754326e-05 1.059017e-04 8.118098e-05 8.818495e-05 1.327106e-04 8.585851e-05 1.386503e-04 1.094964e-04 7.752542e-05
<GCONST> -1.278855e+02
<TRANSP> 3
 0.000000e+00 1.000000e+00 0.000000e+00
 0.000000e+00 7.921579e-01 2.078421e-01
 0.000000e+00 0.000000e+00 0.000000e+00
<ENDHMM>
~h "Tab0005"
<BEGINHMM>
<NUMSTATES> 3
<STATE> 2
<MEAN> 39
 -3.511683e+02 4.025270e-01 -4.330936e-02 1.994269e-01 3.130298e-01 4.070488e-01 5.012416e-01 6.038688e-01 6.186229e-01 6.171114e-01 4.861822e-01 3.062437e-01 2.346724e-01 1.930038e-01 1.910873e-01 -1.288041e-04 2.020538e-04 1.595582e-05 1.432895e-05 9.172196e-04 4.946079e-04 -2.600527e-04 3.016686e-04 7.752028e-04 6.803444e-04 -6.047920e-04 -1.186026e-03 -6.533233e-05 -1.265493e-04 -2.241430e-04 -3.158474e-04 -3.865424e-04 -3.754383e-04 -2.717720e-04 -1.100146e-04 -1.151947e-04 1.934520e-04 8.241623e-05 -1.702066e-04
<VARIANCE> 39
 6.500938e+03 1.183912e+02 8.668869e+00 4.211964e-02 7.526939e-02 1.075865e-01 8.874395e-02 1.240187e-01 4.785439e-02 1.028901e-01 7.657466e-02 5.919737e-02 7.102417e-02 3.595318e-02 5.292185e-02 9.547120e-04 1.741674e-03 2.320139e-03 2.352088e-03 5.773218e-03 1.844879e-03 3.324290e-03 2.724320e-03 1.786507e-03 1.145643e-03 3.562650e-04 9.933711e-04 5.941533e-05 8.280266e-05 9.710565e-05 1.210245e-04 3.678117e-04 1.079502e-04 2.024206e-04 1.587636e-04 1.124810e-04 6.644502e-05 2.058006e-05 6.494037e-05
<GCONST> -1.319917e+02
<TRANSP> 3
 0.000000e+00 1.000000e+00 0.000000e+00
 0.000000e+00 9.774969e-01 2.250310e-02
 0.000000e+00 0.000000e+00 0.000000e+00
<ENDHMM>
~h "Tab0006"
<BEGINHMM>
<NUMSTATES> 3
<STATE> 2
<MEAN> 39
 -2.258669e+02 3.709789e+00 5.727384e-01 3.737935e-01 3.203969e-01 3.304324e-01 4.789655e-01 6.532905e-01 5.266079e-01 3.097136e-01 2.905897e-01 4.370293e-01 5.943483e-01 4.288736e-01 3.422343e-01 -2.272340e-03 6.320200e-03 2.267887e-02 2.019994e-02 1.852975e-02 1.957258e-02 1.712407e-02 1.504697e-02 5.943372e-04 -1.720218e-02 -5.863508e-03 5.919897e-03 5.229697e-05 4.669648e-04 5.823097e-04 -4.001051e-05 7.514743e-04 -6.637302e-05 4.782604e-04 4.560938e-04 -1.391099e-03 -2.488125e-03 -1.616823e-03 2.149644e-04
<VARIANCE> 39
 4.072016e+03 1.979330e+02 1.664955e+01 7.826530e-02 3.658277e-02 6.097321e-02 8.343005e-02 1.410702e-01 7.488883e-02 5.616592e-02 4.366934e-02 4.215802e-02 1.169503e-01 2.733152e-02 5.735625e-02 3.279931e-03 7.852938e-04 1.791330e-03 1.501480e-03 2.515691e-03 2.190933e-03 1.311235e-03 1.023269e-03 8.422742e-04 1.955338e-03 5.716553e-04 1.487309e-03 9.847723e-05 3.021313e-05 9.546102e-05 9.697781e-05 1.182529e-04 1.180083e-04 1.011987e-04 9.952474e-05 7.693074e-05 1.176479e-04 3.947967e-05 5.447245e-05
<GCONST> -1.371085e+02
<TRANSP> 3
 0.000000e+00 1.000000e+00 0.000000e+00
 0.000000e+00 6.490487e-01 3.509513e-01
 0.000000e+00 0.000000e+00 0.000000e+00
<ENDHMM>
~h "Tab0007"
<BEGINHMM>
<NUMSTATES> 3
<STATE> 2
<MEAN> 39
 -2.236170e+02 -2.526455e-01 -2.771013e-01 3.897465e-01 2.863835e-01 3.398947e-01 5.377759e-01 7.603630e-01 6.208487e-01 4.630177e-01 4.168561e-01 4.435040e-01 5.080024e-01 4.601805e-01 5.040919e-01 1.056092e-03 5.662748e-04 1.815526e-04 -2.110581e-04 -8.201416e-04 -1.660461e-03 -8.589035e-04 -1.459776e-03 -4.104769e-03 -4.270582e-03 -2.023821e-03 3.234209e-04 -3.961937e-04 -4.865879e-04 -7.129202e-04 -7.357502e-04 -9.269989e-04 -1.068631e-03 -8.658803e-04 -9.530033e-04 -4.610737e-04 5.495389e-04 1.919095e-04 -4.210817e-04
<VARIANCE> 39
 3.801293e+03 2.103899e+02 1.635427e+01 7.027251e-02 3.866387e-02 4.297143e-02 6.604892e-02 1.014459e-01 5.691791e-02 4.525334e-02 4.301488e-02 7.986674e-02 1.266743e-01 1.713702e-02 9.246939e-02 2.394527e-03 1.512274e-03 1.511305e-03 2.496094e-03 4.574302e-03 2.589513e-03 8.913441e-04 1.185128e-03 2.128649e-03 3.486367e-03 4.977933e-04 3.069067e-03 1.518888e-04 9.536326e-05 9.157147e-05 1.447395e-04 2.764203e-04 1.489536e-04 4.553385e-05 6.927758e-05 1.192525e-04 1.908327e-04 2.895770e-05 2.036499e-04
<GCONST> -1.307859e+02
<TRANSP> 3
 0.000000e+00 1.000000e+00 0.000000e+00
 0.000000e+00 9.084125e-01 9.158754e-02
 0.000000e+00 0.000000e+00 0.000000e+00
<ENDHMM>
~h "Tab0008"
<BEGINHMM>
<NUMSTATES> 3
<STATE> 2
<MEAN> 39
 -3.156857e+02 -1.688037e+00 -1.225219e-01 2.239345e-01 2.321563e-01 2.928179e-01 4.302232e-01 5.289589e-01 4.713501e-01 4.365419e-01 3.502102e-01 2.856610e-01 2.537422e-01 2.411475e-01 2.695742e-01 3.176837e-03 4.118600e-03 1.824633e-03 -3.444475e-03 -2.753016e-03 -1.307487e-03 -1.763920e-03 -5.161646e-04 -9.003757e-04 -3.992394e-03 -9.966157e-04 2.072684e-03 8.365649e-04 8.508455e-04 4.554511e-04 -8.818130e-04 -1.467151e-03 3.009866e-04 3.985729e-04 5.540469e-04 1.090241e-03 7.415821e-04 4.029895e-04 5.631909e-04
<VARIANCE> 39
 9.606931e+03 1.791737e+02 1.111887e+01 4.819933e-02 7.326549e-02 8.055335e-02 1.003892e-01 1.284086e-01 6.380710e-02 1.329269e-01 5.996286e-02 6.822748e-02 7.599062e-02 6.067663e-02 1.091116e-01 8.506613e-04 9.458393e-04 9.245804e-04 1.688142e-03 2.591871e-03 1.286262e-03 1.168690e-03 9.210134e-04 1.198232e-03 1.316963e-03 8.904382e-04 1.603131e-03 4.303357e-05 5.394729e-05 5.721917e-05 8.581456e-05 1.306953e-04 9.092220e-05 8.829601e-05 5.572856e-05 6.122169e-05 5.731776e-05 4.266323e-05 6.589892e-05
<GCONST> -1.380591e+02
<TRANSP> 3
 0.000000e+00 1.000000e+00 0.000000e+00
 0.000000e+00 6.559548e-01 3.440452e-01
 0.000000e+00 0.000000e+00 0.000000e+00
<ENDHMM>
~h "Tab0009"
<BEGINHMM>
<NUMSTATES> 3
<STATE> 2
<MEAN> 39
 -2.098438e+02 -9.212554e-03 -1.190917e-01 3.376449e-01 2.701488e-01 4.466941e-01 5.892195e-01 7.822915e-01 6.641241e-01 4.258559e-01 3.034605e-01 3.053552e-01 3.784675e-01 4.758041e-01 5.248093e-01 -9.172380e-04 -8.297079e-04 -1.080185e-03 -2.183504e-03 -2.708758e-03 -8.932857e-04 1.299280e-03 2.540726e-03 3.356806e-04 -1.746146e-03 -1.425574e-03 -1.181600e-03 -4.125433e-04 -3.528701e-04 -5.550160e-04 -3.968328e-04 -3.098632e-04 -9.290003e-04 -8.861005e-04 -3.092390e-04 -2.906946e-04 -3.343540e-04 -3.811265e-04 -4.223247e-04
<VARIANCE> 39
 4.573139e+03 2.468028e+02 1.909564e+01 4.228535e-02 4.291672e-02 7.285466e-02 5.454894e-02 6.482772e-02 5.703689e-02 4.526610e-02 3.384621e-02 5.640733e-02 1.222021e-01 4.978134e-02 1.281213e-01 1.013406e-03 7.617373e-04 1.660394e-03 1.600737e-03 2.701573e-03 2.817906e-03 1.768808e-03 9.835152e-04 9.572466e-04 1.866293e-03 2.029485e-03 2.825779e-03 5.759446e-05 4.525749e-05 9.748669e-05 1.042321e-04 1.644817e-04 1.730811e-04 1.051307e-04 5.810586e-05 6.144858e-05 1.141195e-04 1.228079e-04 1.741409e-04
<GCONST> -1.335479e+02
<TRANSP> 3
 0.000000e+00 1.000000e+00 0.000000e+00
 0.000000e+00 9.633489e-01 3.665110e-02
 0.000000e+00 0.000000e+00 0.000000e+00
<ENDHMM>
~h "Tab0010"
<BEGINHMM>
<NUMSTATES> 3
<STATE> 2
<MEAN> 39
 -2.479157e+02 -3.840954e-01 1.968051e-01 1.326917e-01 2.022127e-01 3.001473e-01 4.093533e-01 5.161530e-01 4.618346e-01 6.116647e-01 8.027175e-01 6.215944e-01 4.298535e-01 2.593102e-01 1.673361e-01 -9.134954e-04 -2.328590e-03 -3.912605e-03 -4.048869e-03 -2.087167e-03 3.440555e-04 -2.488489e-03 -5.624579e-03 1.600361e-03 1.054488e-02 5.484175e-03 -6.288164e-04 -5.529829e-04 -9.348500e-04 -1.295470e-03 -1.994818e-03 -1.825822e-03 -2.340585e-03 -2.258346e-03 -1.303596e-03 -1.131628e-03 -1.418890e-05 -1.059390e-04 -7.557013e-04
<VARIANCE> 39
 5.786338e+03 3.099493e+02 2.374767e+01 1.249312e-02 1.560438e-02 2.454025e-02 5.742658e-02 8.340914e-02 4.661620e-02 5.635016e-02 9.877794e-02 2.928118e-02 9.145713e-02 3.701618e-02 1.326211e-02 3.702269e-04 6.674131e-04 1.068833e-03 1.911322e-03 2.595174e-03 1.802429e-03 8.338084e-04 8.361547e-04 9.644587e-04 1.436708e-03 4.186589e-04 4.176328e-04 2.411910e-05 4.162332e-05 5.990796e-05 1.030632e-04 1.399305e-04 1.025978e-04 5.015589e-05 3.341779e-05 6.505724e-05 6.510304e-05 2.093000e-05 2.696277e-05
<GCONST> -1.524214e+02
<TRANSP> 3
 0.000000e+00 1.000000e+00 0.000000e+00
 0.000000e+00 8.961757e-01 1.038244e-01
 0.000000e+00 0.000000e+00 0.000000e+00
<ENDHMM>
~h "Tab0011"
<BEGINHMM>
<NUMSTATES> 3
<STATE> 2
<MEAN> 39
 -4.902301e+02 9.220623e-01 -9.603420e-02 3.425591e-01 2.391173e-01 1.594960e-01 1.536043e-01 2.111005e-01 2.646250e-01 4.172584e-01 5.716308e-01 4.658588e-01 3.376932e-01 2.668724e-01 3.024007e-01 3.478576e-04 3.498544e-04 9.125769e-05 9.098840e-04 2.008354e-03 1.132252e-03 6.698206e-04 5.478053e-04 5.318579e-04 -1.105312e-03 -4.280697e-04 3.817411e-04 -5.503317e-04 -2.713903e-04 1.162084e-04 6.719393e-05 9.201332e-05 3.296261e-04 -3.767801e-04 -1.043242e-03 -7.627344e-04 -1.534624e-04 -2.193665e-04 -5.461938e-04
<VARIANCE> 39
 1.383276e+04 2.038269e+02 1.155396e+01 1.474598e-01 5.735608e-02 4.318104e-02 3.629362e-02 5.917027e-02 9.072327e-02 7.326839e-02 1.620948e-01 6.740439e-02 1.299936e-01 7.729143e-02 9.475587e-02 5.544742e-03 1.990677e-03 8.836100e-04 6.700853e-04 1.443201e-03 3.321925e-03 1.943604e-03 4.987777e-03 2.033938e-03 3.643677e-03 2.303389e-03 3.813912e-03 2.933140e-04 1.136286e-04 4.760261e-05 4.067021e-05 8.063378e-05 1.728036e-04 1.009582e-04 2.271466e-04 9.778632e-05 1.823975e-04 1.111239e-04 2.065763e-04
<GCONST> -1.229610e+02
<TRANSP> 3
 0.000000e+00 1.000000e+00 0.000000e+00
 0.000000e+00 9.113054e-01 8.869456e-02
 0.000000e+00 0.000000e+00 0.000000e+00
<ENDHMM>
~h "Tab0012"
<BEGINHMM>
<NUMSTATES> 3
<STATE> 2
<MEAN> 39
 -2.435445e+02 1.430254e+00 5.226657e-01 1.840803e-01 1.964979e-01 2.088054e-01 3.552724e-01 5.528566e-01 4.492876e-01 3.538614e-01 3.899511e-01 6.236993e-01 8.591667e-01 5.278012e-01 2.559111e-01 -7.807475e-03 -8.073451e-03 -1.119374e-02 -1.793023e-02 -2.927473e-02 -1.971040e-02 -3.803827e-03 3.670654e-03 1.054804e-02 1.290218e-02 7.417870e-04 -9.502670e-03 -2.783975e-04 1.565633e-04 6.672307e-04 1.086436e-03 1.115325e-03 9.044603e-04 -9.351774e-04 -1.384859e-03 -1.065701e-03 -9.069836e-04 -5.219658e-04 -6.608662e-04
<VARIANCE> 39
 3.823863e+03 1.975488e+02 1.580827e+01 2.514568e-02 4.020557e-02 4.486504e-02 7.064387e-02 1.573805e-01 8.163202e-02 3.941494e-02 5.547806e-02 4.448721e-02 3.754885e-02 1.596861e-02 2.850819e-02 1.064247e-03 1.058218e-03 1.174747e-03 2.413113e-03 4.904122e-03 2.410231e-03 1.108130e-03 1.934585e-03 1.769303e-03 8.424204e-04 4.058434e-04 1.179051e-03 5.705348e-05 6.540644e-05 6.960193e-05 1.315496e-04 2.357824e-04 1.101282e-04 5.846340e-05 1.195580e-04 1.257916e-04 5.283152e-05 2.454760e-05 6.129577e-05
<GCONST> -1.413900e+02
<TRANSP> 3
 0.000000e+00 1.000000e+00 0.000000e+00
 0.000000e+00 6.940935e-01 3.059064e-01
 0.000000e+00 0.000000e+00 0.000000e+00
<ENDHMM>
~h "Tab0013"
<BEGINHMM>
<NUMSTATES> 3
<STATE> 2
<MEAN> 39
 -2.232404e+02 1.874991e-01 -7.589123e-02 2.396710e-01 2.434370e-01 2.808886e-01 4.991738e-01 7.620091e-01 5.799864e-01 3.170166e-01 3.068249e-01 5.684693e-01 7.988578e-01 5.088506e-01 2.730621e-01 8.263738e-04 8.712695e-04 1.477256e-03 2.497929e-03 4.018255e-03 3.053854e-03 1.217235e-03 5.061321e-04 -6.842819e-04 -1.690356e-03 -4.055758e-04 1.211721e-03 -5.104227e-05 -6.533832e-05 -1.462478e-04 -3.298207e-04 -4.443581e-04 -2.935723e-04 1.007559e-04 1.434885e-04 -1.467622e-05 8.512413e-05 -3.492572e-05 -7.598790e-05
<VARIANCE> 39
 3.789926e+03 2.120434e+02 1.619454e+01 2.091365e-02 2.653383e-02 3.499807e-02 7.080302e-02 1.194562e-01 5.715011e-02 4.009109e-02 4.814796e-02 4.553010e-02 3.364711e-02 1.328418e-02 1.824594e-02 8.507647e-04 9.826561e-04 1.337052e-03 2.625904e-03 4.839774e-03 2.197041e-03 9.010195e-04 1.305012e-03 1.533895e-03 1.175937e-03 3.764361e-04 7.623733e-04 5.656156e-05 6.067320e-05 8.554121e-05 1.601651e-04 2.870410e-04 1.189019e-04 4.508068e-05 7.228119e-05 1.046367e-04 8.179295e-05 2.648409e-05 4.982936e-05
<GCONST> -1.447835e+02
<TRANSP> 3
 0.000000e+00 1.000000e+00 0.000000e+00
 0.000000e+00 9.935582e-01 6.441766e-03
 0.000000e+00 0.000000e+00 0.000000e+00
<ENDHMM>
~h "Tab0014"
<BEGINHMM>
<NUMSTATES> 3
<STATE> 2
<MEAN> 39
 -2.448243e+02 -1.930273e-01 -1.099070e-01 3.207408e-01 2.123338e-01 1.534949e-01 1.744917e-01 2.117490e-01 2.481342e-01 2.970950e-01 4.041200e-01 5.501730e-01 5.986623e-01 4.076870e-01 3.406281e-01 -3.590533e-03 -2.228995e-03 -9.203618e-04 -9.710084e-04 -8.559782e-04 -4.043904e-04 4.386884e-04 9.979440e-04 1.521210e-03 1.903358e-03 6.985076e-04 -1.908377e-03 -8.110164e-05 1.208745e-04 3.331248e-04 2.397337e-04 1.674729e-04 6.232707e-05 3.818840e-05 1.698434e-04 1.746715e-04 1.317272e-04 2.912222e-05 -6.581730e-05
<VARIANCE> 39
 1.211828e+04 7.082853e+02 4.981888e+01 1.464900e-01 6.377542e-02 4.539024e-02 3.995514e-02 4.319892e-02 4.044860e-02 5.919329e-02 8.329883e-02 7.919780e-02 1.565828e-01 6.054960e-02 9.947395e-02 8.726519e-04 5.219271e-04 6.948436e-04 5.588681e-04 7.050328e-04 8.140517e-04 8.499422e-04 1.436794e-03 1.189257e-03 1.142712e-03 1.082591e-03 1.156716e-03 4.729104e-05 2.836393e-05 4.316417e-05 3.628414e-05 4.686992e-05 5.464546e-05 4.548097e-05 7.500748e-05 7.348818e-05 7.124586e-05 5.979566e-05 6.071571e-05
<GCONST> -1.435327e+02
<TRANSP> 3
 0.000000e+00 1.000000e+00 0.000000e+00
 0.000000e+00 9.501750e-01 4.982498e-02
 0.000000e+00 0.000000e+00 0.000000e+00
<ENDHMM>
~h "Tab0015"
<BEGINHMM>
<NUMSTATES> 3
<STATE> 2
<MEAN> 39
 -2.518695e+02 2.218449e+00 6.789987e-02 3.661147e-01 3.495061e-01 3.504933e-01 3.978881e-01 4.221759e-01 3.855377e-01 3.521289e-01 4.006635e-01 4.455993e-01 3.843316e-01 2.249403e-01 2.487852e-01 8.670712e-03 4.819377e-03 -5.794007e-04 -3.381986e-03 -4.184549e-03 -1.317344e-03 9.992772e-04 1.412855e-03 -2.172170e-03 -5.978894e-03 -3.928134e-03 3.427747e-03 -1.547866e-03 -5.233359e-04 1.550157e-04 -4.806078e-04 -1.278185e-03 -1.097752e-03 -3.925710e-04 -3.323082e-04 -1.827519e-04 1.277963e-04 1.747576e-04 -8.140485e-04
<VARIANCE> 39
 1.159080e+04 6.650756e+02 4.867426e+01 1.640871e-01 7.866386e-02 1.135233e-01 9.087870e-02 1.109803e-01 5.631276e-02 5.040488e-02 9.404072e-02 6.362358e-02 1.097712e-01 4.121268e-02 5.070769e-02 3.513060e-03 1.147589e-03 2.381596e-03 1.822538e-03 2.485061e-03 1.693483e-03 1.169426e-03 1.411609e-03 1.570444e-03 3.033730e-03 1.076202e-03 1.042503e-03 1.294084e-04 4.704071e-05 1.116605e-04 1.016760e-04 1.570322e-04 1.169199e-04 7.714739e-05 8.114715e-05 8.577776e-05 1.385988e-04 5.225642e-05 4.388249e-05
<GCONST> -1.275358e+02
<TRANSP> 3
 0.000000e+00 1.000000e+00 0.000000e+00
 0.000000e+00 9.123814e-01 8.761867e-02
 0.000000e+00 0.000000e+00 0.000000e+00
<ENDHMM>
~h "Tab0016"
<BEGINHMM>
<NUMSTATES> 3
<STATE> 2
<MEAN> 39
 -2.737089e+02 -2.698032e-01 2.931996e-02 2.752246e-01 4.215233e-01 5.791621e-01 4.251010e-01 2.698093e-01 2.533776e-01 2.612882e-01 2.485568e-01 3.438523e-01 4.262739e-01 2.676400e-01 1.967289e-01 3.909460e-04 -3.023026e-04 -8.589957e-04 -3.048063e-04 1.942119e-04 5.224110e-05 -1.756309e-04 -2.141751e-04 3.486793e-04 1.023693e-03 8.278282e-04 4.518998e-04 3.359640e-04 1.996083e-05 -2.522399e-04 -4.196123e-05 1.847002e-04 2.099733e-04 1.191542e-04 8.714458e-05 4.747674e-05 8.496780e-06 1.576250e-05 2.192681e-04
<VARIANCE> 39
 1.121803e+04 6.377632e+02 4.453748e+01 1.199220e-01 5.151267e-02 1.856715e-01 6.313568e-02 4.564594e-02 4.708795e-02 3.485359e-02 2.920857e-02 5.595045e-02 1.418515e-01 4.962034e-02 3.462864e-02 1.875293e-03 4.617328e-04 1.121976e-03 7.499917e-04 1.974647e-03 1.978470e-03 1.235854e-03 1.046538e-03 9.020552e-04 9.303137e-04 4.409278e-04 6.466816e-04 8.301449e-05 2.343872e-05 6.154604e-05 5.028129e-05 1.362847e-04 1.345359e-04 8.222475e-05 6.708077e-05 5.518715e-05 4.314331e-05 2.219626e-05 3.255998e-05
<GCONST> -1.429164e+02
<TRANSP> 3
 0.000000e+00 1.000000e+00 0.000000e+00
 0.000000e+00 9.725732e-01 2.742681e-02
 0.000000e+00 0.000000e+00 0.000000e+00
<ENDHMM>
~h "Tab0017"
<BEGINHMM>
<NUMSTATES> 3
<STATE> 2
<MEAN> 39
 -3.928710e+02 -3.329436e+00 4.226464e-01 7.481970e-02 8.532636e-02 7.370678e-02 1.266884e-01 1.933818e-01 1.468899e-01 1.413966e-01 1.823629e-01 5.143061e-01 7.984313e-01 4.659818e-01 1.165634e-01 4.543357e-04 -1.626189e-04 6.351802e-04 2.370552e-03 2.726220e-03 1.081758e-03 2.174035e-03 3.498083e-03 2.276255e-03 2.277013e-03 9.080152e-04 1.427810e-03 6.714457e-04 8.671198e-04 1.120091e-03 7.856957e-04 7.936459e-04 9.993912e-04 7.438519e-04 6.737230e-04 7.943843e-04 2.038407e-05 2.689714e-04 7.338573e-04
<VARIANCE> 39
 4.143327e+04 4.457336e+02 2.780566e+01 2.332305e-03 2.741829e-03 2.445439e-03 6.457069e-03 1.609959e-02 8.427250e-03 1.803275e-02 4.831403e-02 6.281413e-02 1.528048e-01 6.293740e-02 9.163786e-03 5.734526e-05 6.336747e-05 7.408161e-05 1.841178e-04 3.837842e-04 1.825054e-04 3.859873e-04 5.067707e-04 3.936853e-04 1.437265e-04 2.718640e-04 2.301959e-04 5.818114e-06 5.829672e-06 9.154202e-06 1.247088e-05 2.210722e-05 1.500982e-05 2.950556e-05 4.355263e-05 3.017056e-05 1.522120e-05 1.816617e-05 1.914537e-05
<GCONST> -1.946564e+02
<TRANSP> 3
 0.000000e+00 1.000000e+00 0.000000e+00
 0.000000e+00 7.123793e-01 2.876207e-01
 0.000000e+00 0.000000e+00 0.000000e+00
<ENDHMM>
~h "Tab0018"
<BEGINHMM>
<NUMSTATES> 3
<STATE> 2
<MEAN> 39
 -2.567007e+02 1.029099e+00 6.802437e-03 1.799884e-01 1.307701e-01 9.707264e-02 1.521871e-01 2.127039e-01 2.111452e-01 2.370954e-01 3.426791e-01 6.644377e-01 8.546736e-01 4.896481e-01 2.038718e-01 -5.504123e-04 -5.595330e-04 -7.061077e-04 -1.681209e-03 -2.818095e-03 -3.243365e-03 -2.310034e-03 2.460277e-04 3.268232e-04 -5.615057e-04 -4.818294e-04 -7.443479e-04 -1.103924e-04 -3.972349e-05 -8.997755e-05 -2.101821e-04 -2.516828e-04 -8.780452e-05 8.323765e-05 -1.042283e-04 -4.319725e-04 -5.873356e-04 -3.249124e-04 -1.702741e-04
<VARIANCE> 39
 1.142569e+04 6.567542e+02 4.753429e+01 7.520115e-02 2.787147e-02 9.271557e-03 1.536459e-02 2.598606e-02 2.523232e-02 3.520528e-02 7.586206e-02 4.922483e-02 8.494590e-02 3.766009e-02 2.602667e-02 1.786127e-03 5.438700e-04 3.520494e-04 6.392472e-04 9.672507e-04 8.793536e-04 1.120308e-03 2.009371e-03 1.550181e-03 2.583492e-03 1.031470e-03 8.106168e-04 7.778589e-05 2.242275e-05 2.433606e-05 4.583101e-05 6.867867e-05 5.941760e-05 5.829478e-05 9.198065e-05 9.551601e-05 1.039663e-04 4.156565e-05 4.426498e-05
<GCONST> -1.495534e+02
<TRANSP> 3
 0.000000e+00 1.000000e+00 0.000000e+00
 0.000000e+00 9.685500e-01 3.145002e-02
 0.000000e+00 0.000000e+00 0.000000e+00
<ENDHMM>
~h "Tab0019"
<BEGINHMM>
<NUMSTATES> 3
<STATE> 2
<MEAN> 39
 -2.682330e+02 2.807397e-01 -5.687953e-02 7.508975e-02 5.820839e-02 6.974652e-02 9.397097e-02 1.200416e-01 1.353243e-01 2.377602e-01 4.219551e-01 7.203836e-01 8.452007e-01 4.685904e-01 1.713744e-01 3.081427e-04 -1.160175e-03 -2.315128e-03 -8.558619e-04 7.378045e-04 1.417920e-03 3.255298e-03 2.791590e-03 1.803857e-03 4.109858e-04 4.006841e-04 7.002401e-04 5.217818e-05 -3.314870e-05 -1.029228e-04 -2.321906e-05 5.674012e-06 -2.266285e-05 5.357367e-05 6.314907e-05 2.232823e-04 1.440225e-04 1.100931e-04 9.674519e-05
<VARIANCE> 39
 1.330796e+04 6.824532e+02 4.597158e+01 4.201218e-03 5.009467e-03 1.859163e-02 5.799009e-03 3.193397e-03 8.934237e-03 5.439956e-02 9.816401e-02 4.171616e-02 9.698977e-02 4.146638e-02 1.794357e-02 1.380050e-04 1.063792e-04 3.191336e-04 1.380198e-04 1.195924e-04 2.763666e-04 8.045597e-04 1.506981e-03 1.247663e-03 6.229839e-05 2.148364e-04 6.281548e-04 9.211916e-06 4.299993e-06 1.167735e-05 6.931822e-06 7.828041e-06 1.734927e-05 4.379536e-05 8.333669e-05 8.102972e-05 6.250271e-06 1.342411e-05 4.140514e-05
<GCONST> -1.868502e+02
<TRANSP> 3
 0.000000e+00 1.000000e+00 0.000000e+00
 0.000000e+00 9.507303e-01 4.926970e-02
 0.000000e+00 0.000000e+00 0.000000e+00
<ENDHMM>
~h "Tab0020"
<BEGINHMM>
<NUMSTATES> 3
<STATE> 2
<MEAN> 39
 -6.446998e+02 8.718079e-02 4.481927e-03 2.557362e-01 1.509576e-01 5.098663e-02 4.226100e-02 3.936079e-02 2.760583e-02 5.803682e-02 9.910181e-02 8.415072e-02 7.387729e-02 7.016383e-02 1.640634e-01 2.091017e-05 1.387212e-04 5.494343e-05 -1.274365e-05 -1.131957e-04 -1.425235e-04 -1.822423e-04 -3.076030e-04 -1.219397e-04 -1.225263e-04 -1.836173e-04 1.863916e-04 4.503174e-05 1.031432e-04 4.477791e-05 4.255716e-05 7.512033e-05 7.893375e-05 4.528368e-05 2.692916e-05 7.260282e-06 -3.232114e-06 4.723796e-05 6.923589e-06
<VARIANCE> 39
 4.258829e+04 2.249099e+01 1.290301e+00 1.870470e-01 6.045743e-02 1.304426e-02 6.238028e-03 5.309163e-03 2.719006e-03 1.088141e-02 3.939620e-02 2.560299e-02 3.367358e-02 1.886757e-02 7.585728e-02 7.738464e-06 4.585056e-05 3.165146e-05 1.707527e-05 2.170599e-05 1.504559e-05 3.902416e-05 9.375130e-05 4.949167e-05 4.481192e-05 7.414420e-05 6.525859e-05 5.828185e-07 2.875702e-06 1.816715e-06 1.049277e-06 1.598499e-06 1.147862e-06 2.473285e-06 5.836464e-06 2.959512e-06 2.821959e-06 4.460522e-06 4.212568e-06
<GCONST> -2.404322e+02
<TRANSP> 3
 0.000000e+00 1.000000e+00 0.000000e+00
 0.000000e+00 9.758793e-01 2.412079e-02
 0.000000e+00 0.000000e+00 0.000000e+00
<ENDHMM>
~h "Tab0021"
<BEGINHMM>
<NUMSTATES> 3
<STATE> 2
<MEAN> 39
 -2.331001e+02 3.175080e-02 -1.094767e-02 6.433227e-01 3.536226e-01 2.112443e-01 2.747431e-01 3.398669e-01 3.384645e-01 4.305367e-01 4.100321e-01 3.672028e-01 4.435727e-01 5.825824e-01 7.892232e-01 1.834742e-04 -5.723158e-05 -2.664563e-04 -2.555602e-04 3.363559e-05 2.542447e-04 -2.734321e-04 -6.333560e-04 7.731005e-04 2.473748e-03 1.371954e-03 5.191307e-04 -3.845798e-05 -2.201424e-05 1.675655e-05 2.060167e-05 7.736153e-06 -3.374898e-05 2.523717e-06 1.819589e-05 -6.130175e-05 -1.354798e-05 -5.175582e-05 -6.567882e-05
<VARIANCE> 39
 5.625566e+02 1.107272e+01 4.910836e-01 7.869127e-02 4.756817e-02 6.909506e-03 4.053566e-02 8.246257e-02 1.955773e-02 4.363877e-02 4.568091e-02 3.999689e-02 7.430338e-02 5.709621e-02 5.698145e-02 7.910753e-04 4.775200e-04 1.906706e-04 3.835376e-04 6.408007e-04 4.154299e-04 9.780853e-04 1.065143e-03 8.749100e-04 6.956219e-04 9.636053e-04 6.302689e-04 4.567012e-05 2.663508e-05 1.163574e-05 1.973869e-05 3.035942e-05 2.471535e-05 6.135282e-05 6.267492e-05 5.494026e-05 4.092453e-05 5.388229e-05 3.733725e-05
<GCONST> -1.700653e+02
<TRANSP> 3
 0.000000e+00 1.000000e+00 0.000000e+00
 0.000000e+00 9.482979e-01 5.170208e-02
 0.000000e+00 0.000000e+00 0.000000e+00
<ENDHMM>
~h "Tab0022"
<BEGINHMM>
<NUMSTATES> 3
<STATE> 2
<MEAN> 39
 -4.907069e+02 -7.046477e+00 1.260231e+00 1.283193e-01 1.240077e-01 5.428423e-02 3.295562e-01 5.484364e-01 2.856089e-01 1.872044e-01 3.069154e-01 3.791150e-01 3.443602e-01 4.019305e-01 1.580269e-01 1.040979e-02 1.066907e-02 1.356561e-03 8.047740e-03 1.663682e-02 7.485393e-03 8.815396e-03 9.546977e-03 3.673586e-03 3.922321e-03 2.441561e-02 1.057616e-02 1.789513e-03 8.217538e-04 1.903970e-03 1.392666e-03 7.925792e-04 1.547270e-03 1.035496e-03 8.493398e-05 -1.771061e-03 -1.705544e-03 -1.158135e-03 2.067877e-03
<VARIANCE> 39
 4.406723e+04 2.438187e+02 2.207744e+01 3.007375e-02 2.858972e-02 1.811020e-03 5.895546e-02 1.623399e-01 4.363048e-02 3.272937e-02 9.779698e-02 6.512289e-02 1.365427e-01 1.407766e-01 2.449539e-02 6.576548e-04 6.019581e-04 8.727504e-05 5.278472e-04 9.257155e-04 1.997441e-04 4.184413e-04 1.019105e-03 1.012516e-03 2.043489e-04 3.010388e-03 5.807150e-04 6.279832e-05 3.758690e-05 1.635892e-05 5.058226e-05 1.007714e-04 3.556328e-05 3.581469e-05 5.669550e-05 3.854027e-05 3.557453e-05 1.245722e-04 5.387540e-05
<GCONST> -1.562494e+02
<TRANSP> 3
 0.000000e+00 1.000000e+00 0.000000e+00
 0.000000e+00 5.785435e-01 4.214565e-01
 0.000000e+00 0.000000e+00 0.000000e+00
<ENDHMM>
~h "Tab0023"
<BEGINHMM>
<NUMSTATES> 3
<STATE> 2
<MEAN> 39
 -2.902292e+02 -1.274032e+00 -5.046175e-02 2.779939e-01 2.299341e-01 2.102311e-01 3.603851e-01 4.732613e-01 4.139869e-01 3.985496e-01 4.472422e-01 5.314921e-01 5.450462e-01 3.137268e-01 2.349736e-01 -1.591528e-03 1.963685e-03 8.674522e-03 1.962004e-02 2.413298e-02 1.404733e-02 -8.390477e-03 -1.663709e-02 -1.018947e-02 -3.833079e-04 5.233206e-04 -2.814610e-03 1.292800e-03 3.952037e-04 -2.317576e-05 -4.339880e-04 -7.400373e-04 -8.545457e-04 -6.744097e-04 2.473521e-05 -1.890174e-04 -1.862142e-03 -7.616755e-04 8.223242e-04
<VARIANCE> 39
 1.331379e+04 6.716715e+02 4.277571e+01 1.225404e-01 5.252577e-02 2.370732e-02 9.308852e-02 1.251436e-01 5.416828e-02 6.770898e-02 9.878889e-02 7.803829e-02 1.599176e-01 5.862549e-02 4.847815e-02 3.330398e-03 1.150174e-03 6.381073e-04 2.084170e-03 2.965666e-03 1.819223e-03 2.320256e-03 2.648248e-03 1.979213e-03 3.253887e-03 8.925126e-04 1.015250e-03 1.465450e-04 5.250553e-05 3.193528e-05 1.041059e-04 1.475027e-04 1.019378e-04 1.495717e-04 1.411619e-04 1.120847e-04 1.471998e-04 4.739253e-05 4.652289e-05
<GCONST> -1.277139e+02
<TRANSP> 3
 0.000000e+00 1.000000e+00 0.000000e+00
 0.000000e+00 5.415469e-01 4.584531e-01
 0.000000e+00 0.000000e+00 0.000000e+00
<ENDHMM>
~h "Tab0024"
<BEGINHMM>
<NUMSTATES> 3
<STATE> 2
<MEAN> 39
 -4.081058e+02 -1.829092e-01 6.626684e-02 4.270172e-01 6.166561e-01 4.166661e-01 1.904513e-01 1.165684e-01 1.028121e-01 1.867049e-01 3.090033e-01 3.574161e-01 2.522776e-01 1.949895e-01 2.129224e-01 2.690292e-03 2.228652e-03 1.785841e-03 5.285096e-04 4.034927e-04 1.660331e-03 -7.207263e-04 -5.366525e-03 -5.233471e-03 -1.780464e-03 6.387479e-04 1.980814e-03 -2.678902e-04 -1.347152e-03 -1.453305e-04 9.733577e-04 8.855726e-04 1.076701e-03 9.773435e-04 6.789095e-04 2.940307e-04 1.479175e-04 5.408647e-04 1.026719e-03
<VARIANCE> 39
 1.122703e+04 1.004301e+02 7.146098e+00 8.371826e-02 1.891904e-01 6.307523e-02 4.332258e-02 1.853544e-02 2.100212e-02 7.026339e-02 9.998196e-02 1.205009e-01 5.156285e-02 3.693672e-02 4.931881e-02 5.329121e-04 1.769142e-03 7.852106e-04 9.591391e-04 3.823566e-04 3.874452e-04 8.541670e-04 6.229801e-04 7.561677e-04 5.616088e-04 9.145890e-04 1.803398e-03 3.228109e-05 7.562398e-05 3.221180e-05 5.168899e-05 2.391425e-05 2.999149e-05 4.238336e-05 3.485646e-05 4.328732e-05 3.672679e-05 4.676484e-05 7.877782e-05
<GCONST> -1.539108e+02
<TRANSP> 3
 0.000000e+00 1.000000e+00 0.000000e+00
 0.000000e+00 8.317107e-01 1.682893e-01
 0.000000e+00 0.000000e+00 0.000000e+00
<ENDHMM>
~h "Tab0025"
<BEGINHMM>
<NUMSTATES> 3
<STATE> 2
<MEAN> 39
 -2.346375e+02 5.085472e-01 -1.403457e-01 4.951746e-01 3.455113e-01 2.650898e-01 2.378455e-01 2.685787e-01 2.887671e-01 5.468949e-01 7.438998e-01 7.937420e-01 5.055047e-01 3.568962e-01 5.903059e-01 -1.275542e-03 -3.114801e-03 -1.152706e-03 5.431364e-04 9.399469e-04 1.436154e-03 3.693752e-03 4.362983e-03 3.496114e-03 2.333756e-03 1.566471e-03 1.918768e-03 2.286754e-04 3.744683e-04 -6.554097e-05 -3.174453e-04 -1.651782e-04 -1.619311e-04 -2.656437e-04 -5.462613e-04 -8.493465e-04 -5.434752e-04 -2.276730e-04 -1.909669e-04
<VARIANCE> 39
 3.856142e+03 2.083488e+02 1.607889e+01 2.601297e-02 1.243886e-01 4.009531e-02 9.981710e-03 1.478097e-02 2.151481e-02 4.636037e-02 4.716117e-02 6.068426e-02 3.483642e-02 2.993252e-02 1.112024e-01 1.043707e-03 4.517818e-03 1.293276e-03 3.879681e-04 6.852706e-04 8.642281e-04 1.903836e-03 1.746539e-03 2.307824e-03 1.357916e-03 1.100967e-03 4.176171e-03 6.698811e-05 2.712781e-04 8.027996e-05 2.077902e-05 4.187420e-05 5.133048e-05 1.157799e-04 1.084278e-04 1.358412e-04 7.648933e-05 6.939424e-05 2.756527e-04
<GCONST> -1.425761e+02
<TRANSP> 3
 0.000000e+00 1.000000e+00 0.000000e+00
 0.000000e+00 9.381629e-01 6.183711e-02
 0.000000e+00 0.000000e+00 0.000000e+00
<ENDHMM>
~h "Tab0026"
<BEGINHMM>
<NUMSTATES> 3
<STATE> 2
<MEAN> 39
 -2.148101e+02 7.414532e-01 -7.920068e-02 2.843618e-01 3.925911e-01 3.664059e-01 4.524058e-01 5.125314e-01 5.148339e-01 5.843756e-01 5.976464e-01 4.980132e-01 5.419220e-01 6.865923e-01 4.810931e-01 -1.628395e-03 -3.204584e-04 1.177184e-04 2.117238e-03 2.422339e-03 1.677829e-03 3.706589e-04 -2.414297e-04 -3.853743e-04 1.074555e-03 3.590496e-03 9.036863e-05 -1.394114e-04 1.152289e-04 -2.146391e-04 -5.275246e-04 -4.080962e-04 -6.354971e-04 -7.718176e-04 -6.875838e-04 -4.874394e-04 -3.169248e-04 -4.100440e-04 -5.000786e-04
<VARIANCE> 39
 4.133703e+03 2.115906e+02 1.685743e+01 4.734166e-02 1.235254e-01 4.282461e-02 5.317040e-02 7.346845e-02 6.377281e-02 7.019770e-02 7.914220e-02 4.044377e-02 4.945026e-02 1.466661e-01 5.120012e-02 1.624011e-03 4.988337e-03 1.602738e-03 2.398230e-03 3.293453e-03 3.205521e-03 4.409010e-03 4.206236e-03 1.974153e-03 1.944519e-03 5.696401e-03 2.069548e-03 1.030875e-04 2.845204e-04 1.067619e-04 1.509868e-04 2.044927e-04 1.909660e-04 3.333284e-04 3.080799e-04 1.257024e-04 1.075658e-04 3.644353e-04 1.215009e-04
<GCONST> -1.185603e+02
<TRANSP> 3
 0.000000e+00 1.000000e+00 0.000000e+00
 0.000000e+00 9.353647e-01 6.463532e-02
 0.000000e+00 0.000000e+00 0.000000e+00
<ENDHMM>
~h "Tab0027"
<BEGINHMM>
<NUMSTATES> 3
<STATE> 2
<MEAN> 39
 -2.121211e+02 -3.183688e-01 -1.436722e-01 2.412756e-01 1.906670e-01 2.749860e-01 5.041327e-01 7.657005e-01 6.137133e-01 3.742238e-01 3.438959e-01 5.890258e-01 8.206415e-01 5.992184e-01 4.238248e-01 2.171350e-04 5.956773e-04 1.088818e-03 1.305792e-04 -3.668610e-04 3.475946e-04 2.142550e-03 2.393387e-03 2.680352e-04 -2.667808e-05 -2.541741e-03 -1.825617e-03 -3.160333e-04 -1.104401e-04 -2.060856e-04 -6.516373e-04 -1.253537e-03 -1.350254e-03 -4.425469e-04 -5.330803e-04 -7.736375e-04 8.905053e-05 -2.142259e-04 -5.754510e-04
<VARIANCE> 39
 4.511434e+03 2.401860e+02 1.819715e+01 1.628932e-02 1.329763e-02 3.056654e-02 6.568616e-02 1.013177e-01 4.811343e-02 3.834667e-02 5.610189e-02 3.702409e-02 3.084023e-02 3.145765e-02 3.571968e-02 5.822381e-04 5.009608e-04 1.284190e-03 2.855430e-03 4.965437e-03 2.427850e-03 1.159051e-03 1.797471e-03 1.324500e-03 1.163076e-03 6.988897e-04 1.491937e-03 3.669794e-05 2.872824e-05 7.635423e-05 1.638568e-04 2.845082e-04 1.242935e-04 7.199743e-05 1.193160e-04 8.975386e-05 7.698590e-05 4.559277e-05 8.950809e-05
<GCONST> -1.430385e+02
<TRANSP> 3
 0.000000e+00 1.000000e+00 0.000000e+00
 0.000000e+00 9.371164e-01 6.288356e-02
 0.000000e+00 0.000000e+00 0.000000e+00
<ENDHMM>
~h "Tab0028"
<BEGINHMM>
<NUMSTATES> 3
<STATE> 2
<MEAN> 39
 -2.188581e+02 1.094260e-01 -1.922999e-01 4.477204e-01 6.037377e-01 5.957644e-01 6.437393e-01 7.115624e-01 5.300993e-01 3.611621e-01 4.946486e-01 5.962831e-01 3.811592e-01 2.499445e-01 3.863930e-01 8.863793e-04 1.940927e-03 5.814589e-04 -1.894550e-03 -2.484953e-03 -1.588625e-03 1.244125e-03 2.896136e-03 6.673887e-04 -1.286967e-03 -9.884707e-04 -1.409391e-04 6.449620e-06 1.650860e-04 -2.925776e-04 -8.889798e-04 -7.768864e-04 -5.924366e-04 -3.621573e-04 -3.154995e-04 -5.106055e-04 -1.413130e-04 -6.410026e-05 -2.602995e-04
<VARIANCE> 39
 4.739825e+03 2.608819e+02 1.973151e+01 2.500229e-02 9.122530e-02 5.085257e-02 8.850504e-02 1.208014e-01 5.583001e-02 4.462751e-02 4.027807e-02 7.613285e-02 3.622661e-02 2.183204e-02 3.942126e-02 8.426535e-04 2.500475e-03 1.052856e-03 3.492462e-03 5.125302e-03 2.452967e-03 1.603236e-03 1.566991e-03 2.720918e-03 1.304676e-03 8.939814e-04 1.813796e-03 5.256821e-05 1.537694e-04 6.612405e-05 1.719603e-04 2.985793e-04 1.374211e-04 1.019064e-04 1.037406e-04 1.919076e-04 8.161944e-05 5.388201e-05 1.114747e-04
<GCONST> -1.319157e+02
<TRANSP> 3
 0.000000e+00 1.000000e+00 0.000000e+00
 0.000000e+00 9.452439e-01 5.475604e-02
 0.000000e+00 0.000000e+00 0.000000e+00
<ENDHMM>
~h "Tab0029"
<BEGINHMM>
<NUMSTATES> 3
<STATE> 2
<MEAN> 39
 -3.178160e+02 4.296761e-01 -8.639269e-02 2.497144e-01 1.293177e-01 1.375435e-01 2.735951e-01 3.532425e-01 2.765097e-01 2.846529e-01 3.224998e-01 4.032597e-01 3.806139e-01 3.518842e-01 4.023020e-01 -7.664243e-05 -5.522247e-05 1.278061e-03 1.374197e-03 -8.200658e-04 -9.481969e-04 3.461576e-04 5.405019e-04 2.632239e-04 -3.898902e-04 -4.136947e-04 -1.598073e-04 -2.094143e-05 -5.198179e-05 -2.511428e-05 -3.498249e-05 -9.828885e-05 -1.578783e-04 -2.153524e-04 -1.863591e-04 -1.046590e-04 -3.527138e-05 -4.561358e-05 -2.725029e-05
<VARIANCE> 39
 6.788307e+03 3.889970e+02 3.080736e+01 5.253332e-02 5.117096e-02 3.692998e-02 8.903959e-02 1.646409e-01 5.429662e-02 8.873545e-02 5.622095e-02 8.882235e-02 9.674737e-02 5.629970e-02 1.548175e-01 1.300919e-03 1.151935e-03 8.531626e-04 2.013014e-03 3.832449e-03 1.243423e-03 2.118728e-03 1.701913e-03 2.892861e-03 2.804526e-03 1.472483e-03 3.806256e-03 5.704668e-05 4.976060e-05 3.637494e-05 8.484619e-05 1.600064e-04 5.613951e-05 9.476920e-05 1.002765e-04 1.617932e-04 1.407430e-04 7.869289e-05 1.668038e-04
<GCONST> -1.285710e+02
<TRANSP> 3
 0.000000e+00 1.000000e+00 0.000000e+00
 0.000000e+00 9.952445e-01 4.755470e-03
 0.000000e+00 0.000000e+00 0.000000e+00
<ENDHMM>
~h "Tab0030"
<BEGINHMM>
<NUMSTATES> 3
<STATE> 2
<MEAN> 39
 -3.699311e+02 6.240093e-01 -1.740518e-01 4.023662e-01 2.483469e-01 2.296901e-01 2.555217e-01 2.761357e-01 2.595913e-01 2.896534e-01 2.964509e-01 3.042778e-01 3.164755e-01 4.089738e-01 5.379186e-01 5.472531e-04 1.140460e-03 1.318701e-03 1.652001e-03 2.279846e-03 1.447484e-03 -7.171911e-04 -1.170220e-03 7.260432e-04 1.786820e-03 4.684894e-04 -3.015728e-04 -7.405041e-04 2.200414e-04 2.057989e-04 -1.608198e-04 -2.523628e-04 -5.446255e-04 -4.284521e-04 -1.897211e-04 -7.260915e-05 7.946387e-06 -9.043103e-04 -1.695339e-03
<VARIANCE> 39
 2.046832e+04 1.732664e+02 1.125018e+01 8.697695e-02 7.688668e-02 7.691558e-02 7.081111e-02 1.041456e-01 5.978674e-02 6.639151e-02 6.587485e-02 7.327814e-02 9.229944e-02 6.933746e-02 1.593712e-01 2.523318e-03 1.273193e-03 2.050308e-03 2.345196e-03 3.491049e-03 1.616648e-03 1.777115e-03 1.613785e-03 1.756566e-03 2.359288e-03 1.430078e-03 4.943042e-03 1.196836e-04 7.074564e-05 1.076999e-04 1.308532e-04 1.869916e-04 9.460287e-05 1.125901e-04 9.292349e-05 9.790872e-05 1.175220e-04 6.695632e-05 2.476131e-04
<GCONST> -1.241338e+02
<TRANSP> 3
 0.000000e+00 1.000000e+00 0.000000e+00
 0.000000e+00 5.773029e-01 4.226971e-01
 0.000000e+00 0.000000e+00 0.000000e+00
<ENDHMM>
~h "Tab0031"
<BEGINHMM>
<NUMSTATES> 3
<STATE> 2
<MEAN> 39
 -4.991923e+02 1.238490e+00 -7.995547e-02 3.684902e-01 2.996922e-01 2.668972e-01 2.656251e-01 3.025060e-01 2.266477e-01 1.946077e-01 2.197086e-01 2.868338e-01 3.482660e-01 3.107459e-01 3.490636e-01 -5.351486e-03 -4.218339e-03 -7.864976e-04 -3.049555e-04 7.665945e-05 1.440863e-03 7.968733e-04 -2.312660e-03 3.918478e-04 6.199476e-03 4.628542e-03 -1.989391e-03 4.213999e-04 5.327275e-04 4.314578e-04 -3.844007e-04 -9.950836e-04 -3.064227e-04 2.412074e-04 5.694140e-04 1.900216e-04 -3.945243e-05 1.055217e-04 4.234419e-04
<VARIANCE> 39
 2.865916e+04 2.735765e+02 1.785318e+01 1.369864e-01 7.428233e-02 1.128590e-01 6.462198e-02 1.252141e-01 6.979604e-02 4.744268e-02 6.987481e-02 7.371445e-02 1.446788e-01 7.292685e-02 1.127526e-01 1.831060e-03 1.471996e-03 2.645373e-03 1.191096e-03 2.446412e-03 1.369730e-03 9.667373e-04 1.511249e-03 1.281054e-03 2.126119e-03 1.616572e-03 1.636510e-03 8.695389e-05 7.604079e-05 1.259137e-04 5.840699e-05 1.140946e-04 5.658306e-05 4.634716e-05 7.650385e-05 7.274850e-05 1.120135e-04 8.021192e-05 8.337600e-05
<GCONST> -1.293824e+02
<TRANSP> 3
 0.000000e+00 1.000000e+00 0.000000e+00
 0.000000e+00 6.981211e-01 3.018789e-01
 0.000000e+00 0.000000e+00 0.000000e+00
<ENDHMM>
~h "Tab0032"
<BEGINHMM>
<NUMSTATES> 3
<STATE> 2
<MEAN> 39
 -3.354151e+02 1.596185e+00 -2.915825e-01 2.155886e-01 1.143303e-01 1.677915e-01 4.186184e-01 5.103099e-01 2.504038e-01 1.237191e-01 2.274208e-01 4.022108e-01 4.184022e-01 3.479043e-01 3.492692e-01 6.542307e-03 3.250286e-03 -2.631559e-04 3.522632e-03 1.113946e-02 6.277493e-03 6.428136e-04 -3.160937e-03 -6.201647e-03 -3.216728e-03 4.398660e-03 1.003839e-02 1.531058e-05 4.280748e-04 3.339927e-04 -4.566944e-04 -1.036497e-03 -6.755216e-04 -2.256794e-04 -2.964018e-04 -4.462356e-04 -8.127204e-04 -7.468198e-04 -3.815094e-04
<VARIANCE> 39
 7.327758e+03 4.417461e+02 3.580481e+01 6.198905e-02 4.216269e-02 3.549979e-02 1.142018e-01 1.737692e-01 5.035204e-02 7.253862e-03 3.138231e-02 8.838163e-02 9.276445e-02 4.675288e-02 1.303169e-01 1.354944e-03 1.180460e-03 1.051694e-03 3.487686e-03 5.763417e-03 1.603833e-03 2.833135e-04 1.138707e-03 3.737955e-03 3.620855e-03 1.171816e-03 2.396211e-03 5.917018e-05 3.477990e-05 3.935688e-05 1.335381e-04 2.273494e-04 6.947143e-05 1.928406e-05 6.915867e-05 1.801883e-04 1.551813e-04 6.233538e-05 1.159562e-04
<GCONST> -1.342362e+02
<TRANSP> 3
 0.000000e+00 1.000000e+00 0.000000e+00
 0.000000e+00 9.674937e-01 3.250631e-02
 0.000000e+00 0.000000e+00 0.000000e+00
<ENDHMM>
~h "Tab0033"
<BEGINHMM>
<NUMSTATES> 3
<STATE> 2
<MEAN> 39
 -4.182220e+02 -1.078047e+00 5.470865e-02 1.508458e-01 3.147685e-01 4.913929e-01 3.191113e-01 1.277567e-01 9.687121e-02 1.176434e-01 1.480245e-01 3.748603e-01 6.055497e-01 3.836174e-01 1.517963e-01 -2.768130e-03 -6.981774e-04 2.196197e-03 9.586254e-04 -1.145075e-03 -1.513703e-03 -2.404718e-03 -2.470273e-03 -3.029374e-03 -3.160364e-03 -2.587817e-03 -2.002800e-03 2.667130e-04 7.427891e-04 9.464901e-04 3.532245e-04 3.107402e-04 4.928845e-04 3.815391e-04 8.006061e-04 2.663390e-04 -6.157149e-04 -3.643130e-04 5.695955e-05
<VARIANCE> 39
 9.105830e+03 6.405236e+01 4.561661e+00 6.812082e-02 5.529596e-02 1.627707e-01 6.246527e-02 4.311149e-02 2.958191e-02 4.046955e-02 4.659842e-02 5.373234e-02 1.567309e-01 5.674350e-02 4.168507e-02 7.273111e-04 1.721257e-03 5.470562e-03 1.622951e-03 2.507007e-04 1.962766e-04 4.063082e-04 4.622563e-04 1.731958e-03 5.131629e-03 1.535377e-03 5.403979e-04 3.594161e-05 1.093691e-04 3.501734e-04 1.024193e-04 2.123938e-05 1.405740e-05 2.642020e-05 3.209419e-05 1.198244e-04 3.408988e-04 1.042783e-04 2.463295e-05
<GCONST> -1.467428e+02
<TRANSP> 3
 0.000000e+00 1.000000e+00 0.000000e+00
 0.000000e+00 7.820436e-01 2.179564e-01
 0.000000e+00 0.000000e+00 0.000000e+00
<ENDHMM>
~h "Tab0034"
<BEGINHMM>
<NUMSTATES> 3
<STATE> 2
<MEAN> 39
 -3.189724e+02 7.578074e-01 -1.312265e-01 2.902674e-01 3.331481e-01 2.680870e-01 3.378895e-01 3.708751e-01 2.003337e-01 1.519346e-01 2.966610e-01 5.158454e-01 4.769758e-01 2.875777e-01 2.335826e-01 -1.321080e-03 -7.452941e-04 -4.640108e-03 -5.563894e-03 -1.973173e-03 1.037055e-03 2.528771e-03 3.572644e-03 7.013553e-03 6.095155e-03 6.124939e-04 -2.766103e-03 -3.416702e-04 -7.141282e-04 -2.095958e-04 -1.832125e-05 -3.302465e-04 -4.469148e-04 -2.926879e-04 -1.544254e-04 -2.321108e-04 -5.935553e-04 -3.410220e-04 1.752585e-04
<VARIANCE> 39
 6.108656e+03 3.591097e+02 2.850355e+01 1.072439e-01 1.682903e-01 5.675019e-02 1.045035e-01 1.222112e-01 3.310367e-02 1.480438e-02 4.784382e-02 1.000806e-01 9.696153e-02 4.427205e-02 6.938350e-02 2.809448e-03 3.996370e-03 1.585963e-03 2.508654e-03 3.415250e-03 1.077652e-03 5.242039e-04 1.521692e-03 3.671209e-03 3.475398e-03 1.272118e-03 1.737987e-03 1.117851e-04 1.553779e-04 6.707657e-05 1.085950e-04 1.414520e-04 5.074296e-05 3.735135e-05 9.480362e-05 1.795068e-04 1.580769e-04 6.905890e-05 8.420129e-05
<GCONST> -1.285325e+02
<TRANSP> 3
 0.000000e+00 1.000000e+00 0.000000e+00
 0.000000e+00 9.729876e-01 2.701239e-02
 0.000000e+00 0.000000e+00 0.000000e+00
<ENDHMM>
~h "Tab0035"
<BEGINHMM>
<NUMSTATES> 3
<STATE> 2
<MEAN> 39
 -2.837833e+02 3.391299e+00 -4.546841e-01 3.796898e-01 3.474545e-01 2.419557e-01 2.545013e-01 3.038031e-01 2.762600e-01 3.327194e-01 4.161693e-01 5.060962e-01 4.361968e-01 3.394010e-01 3.518991e-01 -3.343645e-03 -7.076185e-03 -5.555868e-04 4.533013e-03 3.293272e-03 2.956566e-03 4.660066e-03 6.074704e-03 5.908236e-03 1.193152e-03 -2.707909e-03 -3.034340e-04 -1.445860e-04 -2.374818e-04 -3.993890e-04 -8.648275e-04 -7.652707e-04 -3.424612e-04 -7.279579e-04 -1.725913e-03 -1.801259e-03 -7.664318e-04 -3.765843e-04 -6.960375e-05
<VARIANCE> 39
 7.152407e+03 2.255178e+02 1.598778e+01 1.219918e-01 1.370431e-01 5.864957e-02 7.403030e-02 9.467437e-02 4.889585e-02 5.466010e-02 7.765336e-02 1.090762e-01 8.829352e-02 9.449245e-02 9.759920e-02 3.233523e-03 3.560285e-03 1.711529e-03 1.913263e-03 2.560368e-03 1.604181e-03 1.434410e-03 2.281294e-03 4.017856e-03 3.084684e-03 3.334382e-03 3.247668e-03 1.709770e-04 1.999691e-04 9.663768e-05 1.022064e-04 1.037902e-04 9.164076e-05 8.559909e-05 1.307677e-04 2.303860e-04 1.586110e-04 1.500446e-04 1.396924e-04
<GCONST> -1.199288e+02
<TRANSP> 3
 0.000000e+00 1.000000e+00 0.000000e+00
 0.000000e+00 9.032019e-01 9.679806e-02
 0.000000e+00 0.000000e+00 0.000000e+00
<ENDHMM>
~h "Tab0036"
<BEGINHMM>
<NUMSTATES> 3
<STATE> 2
<MEAN> 39
 -2.940662e+02 -1.206221e-04 -3.857819e-02 4.523753e-01 1.479221e-01 1.568837e-01 2.655093e-01 2.266517e-01 1.812126e-01 2.204019e-01 1.999169e-01 2.199373e-01 2.541407e-01 5.343795e-01 7.544274e-01 1.570311e-04 2.901863e-05 -8.537452e-05 -2.107175e-04 -2.261104e-04 -1.173862e-04 -6.763830e-05 -7.520830e-06 1.225637e-04 7.160028e-05 1.351138e-04 2.141301e-04 -1.473175e-04 5.038202e-05 5.257387e-05 1.255468e-05 5.362202e-05 1.446289e-04 1.985839e-04 1.290220e-04 6.635657e-05 5.151810e-05 -1.271781e-04 -2.962711e-04
<VARIANCE> 39
 2.074771e+03 3.847107e+01 1.449596e+00 4.539953e-02 9.404559e-03 2.698722e-02 8.961209e-02 8.746403e-02 2.433752e-02 3.552036e-02 2.086481e-02 6.609523e-02 6.044464e-02 4.299328e-02 1.246564e-01 1.616230e-03 1.677226e-04 1.225750e-03 3.788182e-03 3.780194e-03 1.161287e-03 1.613360e-03 9.224856e-04 2.790267e-03 2.309866e-03 1.014220e-03 5.839968e-03 8.467712e-05 6.196369e-06 7.770636e-05 2.302117e-04 2.291144e-04 7.212787e-05 9.997391e-05 5.539020e-05 1.703166e-04 1.380285e-04 4.614916e-05 3.339342e-04
<GCONST> -1.433940e+02
<TRANSP> 3
 0.000000e+00 1.000000e+00 0.000000e+00
 0.000000e+00 9.673380e-01 3.266192e-02
 0.000000e+00 0.000000e+00 0.000000e+00
<ENDHMM>
~h "Tab0037"
<BEGINHMM>
<NUMSTATES> 3
<STATE> 2
<MEAN> 39
 -3.198708e+02 1.044722e+00 -4.340181e-01 2.967357e-01 8.002076e-02 7.554326e-02 2.593517e-01 3.818465e-01 2.261549e-01 1.508304e-01 2.448564e-01 4.156686e-01 4.196696e-01 4.329467e-01 5.283362e-01 3.459369e-03 2.240278e-03 1.075311e-03 -3.363652e-03 -6.780703e-03 -3.368875e-03 -5.464230e-04 -1.993584e-03 -1.186120e-03 1.406529e-03 2.543213e-03 4.013919e-03 -1.751053e-04 1.141552e-04 3.324177e-05 -7.417647e-04 -1.070490e-03 -5.706158e-04 -3.435306e-04 -6.160761e-04 -2.334006e-04 6.347779e-04 -1.117827e-05 -4.445545e-04
<VARIANCE> 39
 7.659188e+03 4.413152e+02 3.461053e+01 5.201145e-02 1.103852e-02 5.380481e-03 6.344589e-02 1.771951e-01 4.545634e-02 1.632294e-02 3.938137e-02 1.045865e-01 1.100043e-01 5.267729e-02 1.718848e-01 1.662832e-03 3.213507e-04 1.831592e-04 1.705503e-03 4.988706e-03 1.275025e-03 4.692693e-04 1.307770e-03 3.905159e-03 4.130282e-03 1.831147e-03 5.238087e-03 7.230123e-05 1.423224e-05 1.003070e-05 7.078593e-05 1.974305e-04 5.326437e-05 3.014618e-05 7.568788e-05 2.003893e-04 1.909198e-04 9.742906e-05 2.138827e-04
<GCONST> -1.396054e+02
<TRANSP> 3
 0.000000e+00 1.000000e+00 0.000000e+00
 0.000000e+00 9.701801e-01 2.981988e-02
 0.000000e+00 0.000000e+00 0.000000e+00
<ENDHMM>
~h "Tab0038"
<BEGINHMM>
<NUMSTATES> 3
<STATE> 2
<MEAN> 39
 -5.922700e+02 -7.125267e-01 6.274335e-02 3.590246e-02 2.720200e-02 2.299814e-02 2.865746e-02 3.896887e-02 3.522366e-02 4.122411e-02 4.447000e-02 5.881763e-02 6.512620e-02 4.602988e-02 3.868860e-02 1.088653e-03 1.066908e-04 -4.337744e-04 -3.981121e-04 -4.403661e-04 -2.335644e-05 -1.049855e-04 -8.731698e-04 -9.190641e-04 -9.669535e-04 -3.023224e-04 1.230846e-03 1.725689e-04 3.084591e-04 5.673828e-04 7.001376e-04 9.287966e-04 6.000309e-04 2.981209e-04 2.823307e-04 2.259619e-04 2.874402e-04 5.383163e-04 3.046762e-04
<VARIANCE> 39
 5.399512e+03 2.824362e+01 2.012294e+00 2.247819e-02 1.102873e-02 1.076442e-02 1.123059e-02 2.711469e-02 1.583827e-02 2.822630e-02 2.540179e-02 3.439388e-02 4.984605e-02 2.186595e-02 2.485180e-02 2.368611e-04 1.289893e-04 1.199423e-04 1.060415e-04 2.220322e-04 1.330570e-04 1.503552e-04 2.213242e-04 2.077766e-04 2.249713e-04 1.794842e-04 2.231155e-04 1.319996e-05 7.822025e-06 1.576531e-05 1.191045e-05 2.385639e-05 1.313748e-05 8.571871e-06 1.311437e-05 1.153284e-05 1.591351e-05 1.516663e-05 1.752459e-05
<GCONST> -2.004921e+02
<TRANSP> 3
 0.000000e+00 1.000000e+00 0.000000e+00
 0.000000e+00 8.610248e-01 1.389752e-01
 0.000000e+00 0.000000e+00 0.000000e+00
<ENDHMM>
~h "Tab0039"
<BEGINHMM>
<NUMSTATES> 3
<STATE> 2
<MEAN> 39
 -3.268800e+02 7.349533e-01 1.683441e-01 3.131519e-01 9.167995e-02 8.478002e-02 1.218423e-01 1.186482e-01 7.668892e-02 9.366564e-02 2.898707e-01 5.345278e-01 4.893713e-01 4.435772e-01 5.343860e-01 -1.128880e-03 5.223501e-03 2.901326e-04 -1.657320e-03 5.093983e-04 6.200480e-04 1.237307e-04 7.227097e-03 1.179231e-02 -1.537477e-04 -7.911474e-03 -7.145902e-03 1.058240e-04 6.091072e-04 2.822249e-04 1.764763e-04 3.557223e-04 5.176601e-04 4.767690e-04 8.043117e-04 1.194870e-03 -1.941936e-04 -9.898429e-04 -1.020881e-03
<VARIANCE> 39
 8.667785e+03 4.702967e+02 3.806834e+01 5.309245e-02 1.043165e-02 6.781080e-03 1.075687e-02 2.201508e-02 6.622974e-03 9.549236e-03 6.867237e-02 1.405702e-01 1.155929e-01 5.505123e-02 1.803214e-01 1.608320e-03 1.868239e-04 1.208957e-04 2.709899e-04 3.649688e-04 1.719174e-04 4.265814e-04 1.747152e-03 3.888950e-03 3.695799e-03 1.635074e-03 5.954001e-03 7.200762e-05 2.185969e-05 9.939658e-06 1.603338e-05 1.873311e-05 1.418755e-05 3.727069e-05 1.058086e-04 1.671997e-04 1.704927e-04 9.289329e-05 2.314229e-04
<GCONST> -1.562753e+02
<TRANSP> 3
 0.000000e+00 1.000000e+00 0.000000e+00
 0.000000e+00 9.253173e-01 7.468271e-02
 0.000000e+00 0.000000e+00 0.000000e+00
<ENDHMM>
~h "Tab0040"
<BEGINHMM>
<NUMSTATES> 3
<STATE> 2
<MEAN> 39
 -3.385099e+02 4.804615e+00 3.920062e-01 4.582813e-01 5.662605e-01 3.592104e-01 1.939318e-01 2.552087e-01 3.805010e-01 4.702985e-01 4.428651e-01 4.467099e-01 3.589755e-01 3.181279e-01 3.506646e-01 1.019196e-03 -1.283890e-03 -1.901933e-03 -1.485640e-03 -2.487311e-03 -1.628541e-03 2.314084e-03 2.608144e-03 -2.836953e-03 -3.814683e-03 -9.160853e-04 7.056137e-04 -1.049319e-03 -1.939603e-03 -1.324039e-03 -8.757929e-04 -1.024709e-03 -1.862076e-03 -1.619081e-03 -1.800623e-03 -2.921945e-03 -2.525112e-03 -7.262848e-04 1.801276e-04
<VARIANCE> 39
 1.437453e+04 3.204637e+02 2.229630e+01 5.201273e-02 1.481166e-01 5.123613e-02 2.375183e-02 4.007643e-02 7.649414e-02 1.152040e-01 5.434841e-02 9.330796e-02 7.488128e-02 9.097773e-02 1.412471e-01 1.414597e-03 3.457693e-03 1.329125e-03 5.541678e-04 1.162387e-03 2.124012e-03 3.289459e-03 1.572887e-03 3.540154e-03 2.393099e-03 1.098891e-03 1.105569e-03 7.286522e-05 1.813293e-04 7.249132e-05 3.049929e-05 6.546012e-05 1.332945e-04 2.182285e-04 9.273064e-05 1.988726e-04 1.396083e-04 5.016970e-05 5.539871e-05
<GCONST> -1.298097e+02
<TRANSP> 3
 0.000000e+00 1.000000e+00 0.000000e+00
 0.000000e+00 8.983621e-01 1.016379e-01
 0.000000e+00 0.000000e+00 0.000000e+00
<ENDHMM>
~h "Tab0041"
<BEGINHMM>
<NUMSTATES> 3
<STATE> 2
<MEAN> 39
 -3.230403e+02 3.690936e-01 -1.996808e-01 2.707587e-01 2.514983e-01 2.346013e-01 1.924257e-01 1.892049e-01 1.879492e-01 3.244301e-01 4.053371e-01 4.238791e-01 4.136229e-01 3.794000e-01 3.659250e-01 -1.159619e-03 -9.542934e-04 -4.663936e-04 5.686487e-05 1.334156e-04 -1.980809e-03 -3.118629e-03 -6.505593e-04 2.781132e-03 3.976132e-03 1.248386e-03 -1.176094e-03 -3.481906e-04 -2.486479e-04 -1.234909e-04 -6.614677e-05 -1.176458e-04 -9.155830e-05 -1.143366e-04 -2.923658e-04 -1.689608e-04 1.263134e-04 -1.877653e-04 -4.511223e-04
<VARIANCE> 39
 6.100274e+03 3.340361e+02 2.566359e+01 5.832336e-02 1.073066e-01 9.139775e-02 5.055311e-02 9.143167e-02 4.108207e-02 6.965657e-02 1.023365e-01 7.225157e-02 1.208426e-01 5.682082e-02 1.550947e-01 1.538402e-03 2.976539e-03 2.220480e-03 1.049514e-03 1.934123e-03 1.171236e-03 2.450489e-03 3.314719e-03 2.804302e-03 3.873077e-03 2.234933e-03 4.149229e-03 6.154762e-05 1.236040e-04 9.228915e-05 4.487576e-05 7.957593e-05 5.864050e-05 1.183035e-04 1.649523e-04 1.655703e-04 1.896721e-04 1.175773e-04 1.742088e-04
<GCONST> -1.239140e+02
<TRANSP> 3
 0.000000e+00 1.000000e+00 0.000000e+00
 0.000000e+00 9.924099e-01 7.590136e-03
 0.000000e+00 0.000000e+00 0.000000e+00
<ENDHMM>
~h "Tab0042"
<BEGINHMM>
<NUMSTATES> 3
<STATE> 2
<MEAN> 39
 -3.828905e+02 -3.909578e-01 4.276162e-02 1.625811e-01 3.981223e-01 5.132326e-01 3.605227e-01 2.327792e-01 2.120249e-01 1.347610e-01 8.833733e-02 2.389738e-01 6.134442e-01 6.247010e-01 2.575200e-01 8.395747e-04 8.165818e-04 -7.859342e-04 -9.687295e-05 5.365278e-04 4.116219e-04 3.280256e-04 -4.438210e-04 -2.814912e-04 -4.920660e-05 -7.342092e-04 -6.335553e-04 8.656476e-06 -1.067449e-03 -7.086897e-04 6.868662e-05 5.442710e-04 5.765587e-04 4.542863e-04 4.060649e-04 1.342500e-04 -3.198387e-04 1.898124e-04 8.963691e-04
<VARIANCE> 39
 2.660175e+04 6.662431e+01 4.528365e+00 3.255147e-02 1.054504e-01 1.067028e-01 8.047163e-02 3.819728e-02 4.029840e-02 2.136948e-02 1.656763e-02 4.636984e-02 9.505148e-02 1.084335e-01 4.601848e-02 4.427728e-04 1.443155e-03 1.128607e-03 7.659310e-04 6.798733e-04 7.341161e-04 4.152192e-04 2.661002e-04 3.055933e-04 3.808249e-04 5.847344e-04 6.714883e-04 2.163698e-05 7.688630e-05 5.566987e-05 3.691515e-05 3.404240e-05 3.920883e-05 2.415327e-05 1.838601e-05 2.011074e-05 2.282000e-05 2.923786e-05 3.390709e-05
<GCONST> -1.618949e+02
<TRANSP> 3
 0.000000e+00 1.000000e+00 0.000000e+00
 0.000000e+00 9.301336e-01 6.986633e-02
 0.000000e+00 0.000000e+00 0.000000e+00
<ENDHMM>
~h "Tab0043"
<BEGINHMM>
<NUMSTATES> 3
<STATE> 2
<MEAN> 39
 -3.225852e+02 2.381532e+00 -1.704808e+00 2.835175e-01 2.214238e-01 2.120999e-01 2.959310e-01 3.059068e-01 1.533213e-01 9.797874e-02 1.657993e-01 3.902279e-01 5.114618e-01 4.193264e-01 3.609543e-01 6.392700e-03 -8.700985e-03 -9.033896e-03 -1.404139e-03 4.714833e-03 2.303592e-03 -7.970863e-04 -2.850957e-03 -1.179848e-02 -1.826388e-02 7.673891e-04 2.030810e-02 1.496422e-04 1.839434e-03 1.028612e-03 -9.995543e-04 -1.264488e-03 -7.475979e-04 -3.568430e-04 -1.543059e-03 -2.877222e-03 -2.465922e-03 -1.908365e-03 -1.196601e-03
<VARIANCE> 39
 8.388933e+03 4.299812e+02 3.144573e+01 5.981874e-02 1.113204e-01 5.500646e-02 1.149719e-01 1.295687e-01 3.124249e-02 3.102247e-03 1.420735e-02 5.904264e-02 1.433865e-01 5.246696e-02 1.405437e-01 2.678685e-03 4.999632e-03 2.584960e-03 2.289488e-03 2.515904e-03 7.049288e-04 1.118718e-04 5.854906e-04 1.822735e-03 5.058364e-03 1.301199e-03 3.633610e-03 1.031298e-04 1.506324e-04 7.857779e-05 8.429051e-05 8.998892e-05 2.610105e-05 6.716999e-06 3.049392e-05 8.529505e-05 1.716342e-04 4.948008e-05 1.533397e-04
<GCONST> -1.376975e+02
<TRANSP> 3
 0.000000e+00 1.000000e+00 0.000000e+00
 0.000000e+00 9.200469e-01 7.995307e-02
 0.000000e+00 0.000000e+00 0.000000e+00
<ENDHMM>
~h "Tab0044"
<BEGINHMM>
<NUMSTATES> 3
<STATE> 2
<MEAN> 39
 -3.139275e+02 2.373770e+00 -6.357737e-01 3.359416e-01 9.232989e-02 7.496579e-02 2.533754e-01 3.992871e-01 2.500974e-01 2.157173e-01 2.743334e-01 3.572093e-01 3.612226e-01 4.638384e-01 6.075166e-01 -8.416323e-03 -5.680508e-03 -2.766605e-03 3.038670e-03 6.020857e-03 3.568343e-03 3.032627e-03 4.145607e-03 7.057986e-03 1.110284e-02 5.352147e-04 -1.072777e-02 -9.206708e-04 1.679490e-05 -1.372424e-04 -6.858237e-04 -8.707053e-04 -7.217837e-04 -7.342978e-04 -7.695333e-04 3.054985e-04 1.071451e-03 -7.651870e-04 -1.877666e-03
<VARIANCE> 39
 7.826126e+03 4.413128e+02 3.552670e+01 4.399123e-02 2.351652e-02 9.734230e-03 6.904081e-02 1.890757e-01 4.482165e-02 1.930339e-02 3.463444e-02 7.745068e-02 9.591665e-02 5.564186e-02 1.590878e-01 1.689197e-03 7.725602e-04 2.505753e-04 1.904580e-03 5.154961e-03 1.254677e-03 5.773844e-04 1.583652e-03 3.393956e-03 4.077838e-03 1.741733e-03 5.591378e-03 6.845484e-05 2.668538e-05 1.109358e-05 7.496784e-05 1.895058e-04 4.870466e-05 3.392043e-05 1.040526e-04 2.064135e-04 2.156895e-04 9.812856e-05 2.192487e-04
<GCONST> -1.358458e+02
<TRANSP> 3
 0.000000e+00 1.000000e+00 0.000000e+00
 0.000000e+00 9.541172e-01 4.588276e-02
 0.000000e+00 0.000000e+00 0.000000e+00
<ENDHMM>
~h "Tab0045"
<BEGINHMM>
<NUMSTATES> 3
<STATE> 2
<MEAN> 39
 -4.992933e+02 -1.029266e+00 2.907969e-01 2.190820e-01 1.710184e-01 1.847669e-01 2.710546e-01 3.683023e-01 2.985816e-01 2.162005e-01 2.313374e-01 3.229769e-01 3.953124e-01 3.173490e-01 2.262985e-01 -2.651891e-03 -1.639790e-03 -6.327326e-04 -5.869725e-04 -8.423433e-04 -2.299487e-04 -7.891981e-04 -1.504809e-03 -1.768648e-03 -2.020528e-04 -7.282179e-04 -1.328822e-03 8.620107e-04 7.305201e-04 6.993492e-04 5.504326e-04 7.616107e-05 -1.570185e-05 3.798739e-04 6.019037e-04 5.199426e-04 1.270503e-04 4.412077e-04 7.784361e-04
<VARIANCE> 39
 2.615697e+04 1.360770e+02 9.264741e+00 9.473719e-02 4.378117e-02 7.079899e-02 8.469771e-02 1.389067e-01 1.055296e-01 5.981135e-02 8.400870e-02 7.372264e-02 1.613656e-01 7.999281e-02 6.733178e-02 8.081612e-04 5.178245e-04 8.297352e-04 7.593612e-04 1.293902e-03 1.161821e-03 9.688659e-04 1.153102e-03 1.082081e-03 1.192164e-03 1.074019e-03 8.039549e-04 4.278172e-05 2.725695e-05 4.043520e-05 4.137500e-05 7.379136e-05 6.417454e-05 5.371696e-05 6.368328e-05 6.160989e-05 7.004403e-05 5.862553e-05 5.187614e-05
<GCONST> -1.426965e+02
<TRANSP> 3
 0.000000e+00 1.000000e+00 0.000000e+00
 0.000000e+00 5.414675e-01 4.585326e-01
 0.000000e+00 0.000000e+00 0.000000e+00
<ENDHMM>
~h "Tab0046"
<BEGINHMM>
<NUMSTATES> 3
<STATE> 2
<MEAN> 39
 -2.927344e+02 2.251111e+00 1.271027e-01 1.505671e-01 1.467461e-01 3.253878e-01 5.066231e-01 4.497983e-01 2.547383e-01 2.053975e-01 3.775487e-01 5.863319e-01 5.833039e-01 4.730000e-01 3.102487e-01 4.861371e-04 4.900379e-04 -3.687681e-03 -7.168574e-03 3.858075e-03 7.321791e-03 5.441297e-03 4.221892e-03 -4.904936e-04 -1.755206e-02 -1.119583e-02 2.514480e-03 -2.189184e-04 5.825544e-04 7.730643e-04 -3.405821e-04 -2.136466e-03 -8.498851e-04 2.485886e-04 -7.074645e-04 -2.560140e-03 -2.438209e-03 -1.853252e-03 -1.897862e-03
<VARIANCE> 39
 1.153302e+04 2.318803e+02 2.160988e+01 2.768844e-02 1.755318e-02 9.190958e-02 1.443893e-01 1.112576e-01 3.291248e-02 3.087364e-02 5.654410e-02 9.900467e-02 9.567084e-02 8.224672e-02 8.511321e-02 4.274906e-04 8.346324e-04 1.091051e-03 2.579755e-03 3.116458e-03 7.105399e-04 1.194699e-03 1.067498e-03 2.362171e-03 2.726727e-03 1.594824e-03 1.990296e-03 2.245281e-05 4.301637e-05 4.372128e-05 1.013338e-04 1.278634e-04 4.133548e-05 5.211476e-05 7.866112e-05 1.435244e-04 1.368994e-04 1.099744e-04 1.396424e-04
<GCONST> -1.369169e+02
<TRANSP> 3
 0.000000e+00 1.000000e+00 0.000000e+00
 0.000000e+00 8.746533e-01 1.253467e-01
 0.000000e+00 0.000000e+00 0.000000e+00
<ENDHMM>
~h "Tab0047"
<BEGINHMM>
<NUMSTATES> 3
<STATE> 2
<MEAN> 39
 -3.321177e+02 5.455271e+00 -8.847157e-01 2.997295e-01 1.275178e-01 9.491208e-02 3.555096e-01 6.033533e-01 3.330289e-01 9.880055e-02 1.519884e-01 2.876543e-01 3.301394e-01 3.979011e-01 4.990562e-01 -1.475517e-02 -4.364706e-03 2.473587e-04 2.101253e-02 3.548830e-02 1.724163e-02 2.168210e-03 -2.887028e-04 2.950900e-03 1.114120e-02 -3.198574e-03 -2.158911e-02 5.195598e-04 4.984110e-04 1.139855e-03 -5.669608e-04 -2.813478e-03 -1.701916e-03 1.270520e-04 -1.150103e-04 -1.266073e-03 -1.997085e-03 -1.274961e-03 2.025001e-04
<VARIANCE> 39
 1.124394e+04 5.937097e+02 4.910200e+01 5.551053e-02 3.954731e-02 1.275908e-02 6.094997e-02 2.021433e-01 5.031284e-02 1.111158e-02 1.950703e-02 6.490830e-02 5.459100e-02 4.632296e-02 1.386904e-01 1.663989e-03 1.283886e-03 5.781052e-04 2.687644e-03 8.900520e-03 2.145340e-03 3.301266e-04 4.772267e-04 1.705141e-03 2.048702e-03 1.586222e-03 3.487034e-03 8.087556e-05 3.293922e-05 2.683821e-05 1.116910e-04 3.403042e-04 8.711234e-05 1.967589e-05 3.615336e-05 8.882184e-05 1.043389e-04 8.965303e-05 1.758144e-04
<GCONST> -1.375707e+02
<TRANSP> 3
 0.000000e+00 1.000000e+00 0.000000e+00
 0.000000e+00 8.944927e-01 1.055073e-01
 0.000000e+00 0.000000e+00 0.000000e+00
<ENDHMM>
~h "Tab0048"
<BEGINHMM>
<NUMSTATES> 3
<STATE> 2
<MEAN> 39
 -4.092782e+02 -2.017944e-01 -8.356959e-02 6.899511e-01 3.694798e-01 2.351032e-01 3.833064e-01 4.933509e-01 3.291764e-01 3.656353e-01 4.009178e-01 2.841659e-01 2.411277e-01 4.925993e-01 8.015713e-01 -1.190861e-02 -7.798522e-03 7.763603e-03 3.532131e-04 3.448597e-04 1.261800e-03 -3.738440e-03 -9.912859e-03 -1.836698e-03 7.016196e-03 7.611198e-03 4.225423e-03 -1.678693e-03 -1.444077e-03 5.111048e-05 6.223298e-04 8.383063e-04 -5.015520e-04 -1.745936e-03 -1.663535e-03 -2.954621e-04 5.743449e-05 1.057104e-04 -3.480334e-04
<VARIANCE> 39
 1.079173e+04 5.695163e+01 4.110785e+00 9.355921e-02 4.425015e-02 5.241644e-02 4.034443e-02 7.311974e-02 2.546615e-02 4.616878e-02 3.672787e-02 1.620497e-02 3.170652e-02 5.051998e-02 8.669624e-02 2.712813e-03 1.789832e-03 1.444824e-03 1.371135e-03 2.106225e-03 5.293362e-04 1.420713e-03 1.466086e-03 6.049743e-04 1.107946e-03 1.781959e-03 1.862256e-03 1.378170e-04 9.000316e-05 7.287622e-05 6.940999e-05 1.099027e-04 2.558472e-05 6.411720e-05 6.374660e-05 3.708763e-05 6.802606e-05 7.940705e-05 9.584143e-05
<GCONST> -1.446877e+02
<TRANSP> 3
 0.000000e+00 1.000000e+00 0.000000e+00
 0.000000e+00 8.926569e-01 1.073431e-01
 0.000000e+00 0.000000e+00 0.000000e+00
<ENDHMM>
~h "Tab0049"
<BEGINHMM>
<NUMSTATES> 3
<STATE> 2
<MEAN> 39
 -3.099441e+02 7.882124e-01 -5.690114e-01 3.084622e-01 3.247933e-01 2.581317e-01 2.960124e-01 3.290522e-01 1.767187e-01 1.284644e-01 2.586076e-01 4.972408e-01 5.242395e-01 3.753278e-01 3.068692e-01 -1.419401e-04 6.886081e-03 -6.765731e-03 -1.634543e-02 -4.908848e-03 2.436107e-03 1.788059e-03 7.863787e-03 1.521516e-02 1.018083e-02 -1.130506e-03 -6.987293e-03 -8.548145e-04 -1.237412e-03 -1.851982e-04 2.936620e-04 -5.058938e-04 -6.788046e-04 -4.890858e-04 -6.172106e-04 -1.000048e-03 -1.741500e-03 -1.616566e-03 -7.396925e-04
<VARIANCE> 39
 6.273597e+03 3.439816e+02 2.656553e+01 6.936017e-02 1.699970e-01 5.562552e-02 9.177221e-02 8.928806e-02 2.075921e-02 9.124013e-03 3.573797e-02 9.408706e-02 1.276801e-01 5.195146e-02 1.047454e-01 2.084048e-03 4.543932e-03 2.004919e-03 3.011012e-03 3.010502e-03 6.918926e-04 3.132736e-04 1.247244e-03 3.884252e-03 5.018106e-03 1.866111e-03 2.821965e-03 8.250133e-05 1.694363e-04 7.637206e-05 1.299540e-04 1.344384e-04 3.399257e-05 2.269912e-05 8.429462e-05 1.940469e-04 1.937004e-04 7.123203e-05 1.163181e-04
<GCONST> -1.300501e+02
<TRANSP> 3
 0.000000e+00 1.000000e+00 0.000000e+00
 0.000000e+00 9.586422e-01 4.135783e-02
 0.000000e+00 0.000000e+00 0.000000e+00
<ENDHMM>
~h "Tab0050"
<BEGINHMM>
<NUMSTATES> 3
<STATE> 2
<MEAN> 39
 -3.254747e+02 8.309877e-01 -1.356462e-01 2.841712e-01 1.017111e-01 9.208383e-02 2.209778e-01 2.889614e-01 1.867663e-01 1.720020e-01 3.372700e-01 5.596768e-01 4.917052e-01 3.875726e-01 4.501766e-01 -4.439943e-03 -4.321984e-03 -1.637977e-04 3.273064e-03 2.451625e-03 1.529092e-03 2.710844e-03 2.182378e-03 7.501305e-04 3.818479e-04 -1.106180e-03 -3.266084e-03 -2.337807e-05 2.944983e-04 1.283071e-04 -5.220836e-05 2.525598e-04 4.361746e-06 -4.118977e-04 -6.255291e-04 -8.632141e-04 -6.879500e-04 -2.876597e-04 -1.330279e-04
<VARIANCE> 39
 7.679149e+03 4.274190e+02 3.379873e+01 7.838041e-02 3.427025e-02 1.533082e-02 5.035478e-02 1.270504e-01 3.856093e-02 2.769060e-02 5.848411e-02 1.350962e-01 9.753963e-02 5.441517e-02 1.608791e-01 2.218958e-03 1.067353e-03 5.985694e-04 1.269619e-03 3.633840e-03 1.222813e-03 8.533901e-04 1.583109e-03 4.768521e-03 3.547171e-03 1.843133e-03 3.976802e-03 8.809654e-05 4.240892e-05 2.348930e-05 5.955425e-05 1.492426e-04 5.857110e-05 5.205640e-05 9.090806e-05 2.251336e-04 1.650351e-04 9.061139e-05 1.524473e-04
<GCONST> -1.321120e+02
<TRANSP> 3
 0.000000e+00 1.000000e+00 0.000000e+00
 0.000000e+00 9.798043e-01 2.019577e-02
 0.000000e+00 0.000000e+00 0.000000e+00
<ENDHMM>
~h "Tab0051"
<BEGINHMM>
<NUMSTATES> 3
<STATE> 2
<MEAN> 39
 -3.235234e+02 1.341742e+00 -5.483833e-02 3.361073e-01 1.303631e-01 7.283743e-02 1.808766e-01 2.558508e-01 1.799676e-01 1.898207e-01 3.294435e-01 5.417806e-01 5.115483e-01 3.942670e-01 4.491606e-01 2.476347e-03 1.796249e-03 9.938389e-04 1.334766e-03 2.698485e-03 2.199229e-03 8.707115e-04 -3.139951e-03 -4.504113e-03 4.180226e-03 7.148427e-03 3.675238e-03 6.378614e-05 -3.016979e-04 -1.536008e-04 3.199924e-04 5.918351e-04 2.599321e-04 1.009547e-04 -5.540882e-04 -9.993321e-04 -1.198129e-03 -5.509745e-04 3.947221e-04
<VARIANCE> 39
 7.716351e+03 4.108107e+02 3.227476e+01 9.752022e-02 2.604356e-02 3.491813e-03 4.604623e-02 9.556063e-02 2.914222e-02 2.530072e-02 6.385222e-02 1.299171e-01 1.168863e-01 6.377953e-02 1.688003e-01 3.400437e-03 6.329495e-04 1.175496e-04 1.374330e-03 3.009836e-03 1.127151e-03 8.603627e-04 1.779409e-03 5.053085e-03 4.297131e-03 2.433205e-03 6.225294e-03 1.446247e-04 3.025071e-05 8.645514e-06 6.131759e-05 1.230584e-04 5.527923e-05 5.252651e-05 1.053685e-04 2.387068e-04 1.981645e-04 1.322477e-04 2.585607e-04
<GCONST> -1.346084e+02
<TRANSP> 3
 0.000000e+00 1.000000e+00 0.000000e+00
 0.000000e+00 9.725900e-01 2.740999e-02
 0.000000e+00 0.000000e+00 0.000000e+00
<ENDHMM>
~h "Tab0052"
<BEGINHMM>
<NUMSTATES> 3
<STATE> 2
<MEAN> 39
 -3.053347e+02 4.943849e-01 -3.025278e-01 2.036641e-01 6.362760e-02 1.608585e-01 4.316472e-01 5.106201e-01 4.171456e-01 4.172626e-01 3.187034e-01 2.534585e-01 2.342671e-01 2.778895e-01 3.659967e-01 -2.870885e-04 -1.593696e-04 2.969562e-04 -5.609821e-04 -1.632575e-03 -2.864894e-03 -2.314096e-03 3.260215e-04 2.967692e-03 5.358123e-03 2.984591e-03 -1.802782e-04 -2.475970e-04 -7.557459e-05 -4.575290e-04 -7.621522e-04 -2.876721e-04 -1.487117e-04 -4.086331e-04 -2.948112e-04 2.692215e-05 2.834274e-04 -1.636341e-04 -5.001388e-04
<VARIANCE> 39
 5.820756e+03 3.556914e+02 2.738742e+01 4.130298e-02 1.832284e-03 3.343112e-02 1.256504e-01 1.749317e-01 4.837799e-02 1.507805e-01 3.735427e-02 2.950308e-02 4.939993e-02 4.422531e-02 1.327692e-01 9.815969e-04 6.881541e-05 8.681239e-04 3.733150e-03 4.913494e-03 1.207100e-03 3.945225e-03 1.249384e-03 1.377548e-03 1.836763e-03 1.313029e-03 3.166469e-03 4.179365e-05 4.857404e-06 3.557151e-05 1.486167e-04 2.008325e-04 5.315455e-05 1.508524e-04 7.764203e-05 9.805796e-05 9.665551e-05 5.892878e-05 1.286557e-04
<GCONST> -1.409002e+02
<TRANSP> 3
 0.000000e+00 1.000000e+00 0.000000e+00
 0.000000e+00 9.866056e-01 1.339444e-02
 0.000000e+00 0.000000e+00 0.000000e+00
<ENDHMM>
~h "Tab0053"
<BEGINHMM>
<NUMSTATES> 3
<STATE> 2
<MEAN> 39
 -4.449285e+02 -1.094616e+00 2.233053e-01 3.325964e-01 3.821837e-01 4.422507e-01 4.035972e-01 4.171780e-01 3.100815e-01 1.956046e-01 1.910985e-01 1.980520e-01 2.047955e-01 2.065599e-01 2.825474e-01 1.540416e-03 -1.378235e-03 -4.025937e-03 5.455501e-04 1.925126e-03 2.000589e-03 1.192818e-03 -4.876811e-05 3.289455e-04 -7.614326e-04 -2.363348e-03 -1.801721e-03 5.814820e-04 1.366022e-03 2.427345e-03 5.791947e-04 -1.706889e-03 -3.795792e-04 5.370991e-04 2.947036e-04 3.735933e-04 5.430274e-04 4.338264e-04 4.276656e-04
<VARIANCE> 39
 2.284498e+04 1.949694e+02 8.979561e+00 1.331975e-01 9.307529e-02 1.804628e-01 6.061450e-02 1.537226e-01 8.077593e-02 4.570480e-02 7.032853e-02 4.612232e-02 5.859992e-02 4.774910e-02 8.855306e-02 2.523111e-03 9.718367e-04 2.838993e-03 1.323894e-03 1.318177e-03 9.735749e-04 5.373953e-04 5.438938e-04 5.326708e-04 6.719119e-04 7.801414e-04 1.321263e-03 1.103265e-04 6.408450e-05 1.575388e-04 7.032904e-05 8.671082e-05 5.330856e-05 3.125363e-05 3.322377e-05 3.136736e-05 4.106144e-05 3.674523e-05 6.570081e-05
<GCONST> -1.411579e+02
<TRANSP> 3
 0.000000e+00 1.000000e+00 0.000000e+00
 0.000000e+00 7.219388e-01 2.780612e-01
 0.000000e+00 0.000000e+00 0.000000e+00
<ENDHMM>
~h "Tab0054"
<BEGINHMM>
<NUMSTATES> 3
<STATE> 2
<MEAN> 39
 -3.562117e+02 -2.390106e-01 1.535741e-02 2.807710e-01 5.622747e-02 4.971299e-02 3.244283e-01 5.468423e-01 3.039378e-01 1.614843e-01 2.166003e-01 3.751255e-01 4.084151e-01 4.582977e-01 5.451588e-01 7.911758e-04 -1.353523e-04 -1.134310e-04 6.970176e-04 1.196263e-03 6.089503e-04 8.539406e-05 9.737997e-04 9.545122e-04 -1.971605e-03 -7.776894e-04 1.648044e-03 2.419525e-04 4.857785e-04 2.439237e-04 -1.884707e-04 -4.044730e-04 -2.104864e-04 -4.171181e-05 -4.819774e-06 -2.110575e-05 -1.887756e-04 -1.877622e-04 -4.459767e-05
<VARIANCE> 39
 8.901447e+03 3.225586e+02 2.378334e+01 3.441564e-02 1.903303e-03 1.877742e-03 6.919349e-02 2.034799e-01 4.282219e-02 1.384254e-02 3.092400e-02 8.581793e-02 1.299012e-01 3.667737e-02 1.327076e-01 9.570853e-04 2.625216e-04 1.190487e-04 1.116774e-03 3.062661e-03 7.462513e-04 3.281956e-04 7.946119e-04 1.840561e-03 2.649605e-03 1.108944e-03 3.251447e-03 4.096290e-05 1.016824e-05 5.919655e-06 4.773417e-05 1.219588e-04 3.211610e-05 1.983237e-05 5.213331e-05 1.073008e-04 1.312457e-04 6.542727e-05 1.423202e-04
<GCONST> -1.553333e+02
<TRANSP> 3
 0.000000e+00 1.000000e+00 0.000000e+00
 0.000000e+00 9.940456e-01 5.954435e-03
 0.000000e+00 0.000000e+00 0.000000e+00
<ENDHMM>
~h "Tab0055"
<BEGINHMM>
<NUMSTATES> 3
<STATE> 2
<MEAN> 39
 -4.738464e+02 -4.394224e+00 3.451418e+00 5.455208e-01 4.612951e-01 3.688447e-01 1.054655e-01 6.519297e-02 7.853855e-02 8.223873e-02 1.142738e-01 2.742297e-01 3.604713e-01 3.409921e-01 3.745089e-01 -1.039304e-02 4.134776e-04 8.043386e-03 -4.958200e-04 1.301916e-04 -7.105295e-04 3.234300e-03 4.600109e-03 7.900137e-03 1.860728e-03 9.388834e-04 -2.570487e-03 -2.136259e-03 -1.575227e-03 -1.633620e-03 1.977229e-03 3.084146e-03 2.703427e-03 3.564735e-03 5.469328e-03 3.736194e-03 3.877867e-03 4.076796e-03 6.486563e-04
<VARIANCE> 39
 1.406112e+04 1.478395e+02 1.226657e+01 9.101731e-02 9.116920e-02 1.086909e-01 1.702169e-02 8.194089e-03 1.607734e-02 7.428949e-03 1.181887e-02 2.825982e-02 1.398794e-01 3.739568e-02 1.542862e-01 1.240777e-03 9.454862e-04 2.580286e-03 2.390959e-04 1.112171e-04 1.419222e-04 3.246344e-04 6.882048e-04 7.782231e-04 1.571263e-04 4.406224e-04 2.093249e-04 7.009372e-05 7.103710e-05 5.930720e-05 1.048370e-05 1.933982e-05 2.657987e-05 1.807390e-05 2.801356e-05 3.530015e-05 3.905472e-05 2.701310e-05 5.281832e-05
<GCONST> -1.685442e+02
<TRANSP> 3
 0.000000e+00 1.000000e+00 0.000000e+00
 0.000000e+00 3.257134e-01 6.742865e-01
 0.000000e+00 0.000000e+00 0.000000e+00
<ENDHMM>
~h "Tab0056"
<BEGINHMM>
<NUMSTATES> 3
<STATE> 2
<MEAN> 39
 -3.713013e+02 -5.875509e+00 -1.496741e-01 1.761668e-01 2.196846e-01 1.349145e-01 2.081170e-01 3.424137e-01 2.081843e-01 8.767819e-02 2.679585e-01 6.134642e-01 5.852494e-01 2.470601e-01 1.048637e-01 -1.611260e-03 3.323326e-03 9.819616e-04 2.320981e-04 -2.289909e-04 -5.614987e-03 -4.910613e-03 -2.707154e-03 1.925678e-03 5.805878e-03 -5.889700e-04 -5.901583e-03 1.223170e-03 1.432665e-04 1.519298e-03 2.591766e-03 1.104406e-03 1.483895e-03 2.306057e-03 2.520880e-03 -1.787986e-04 -1.849895e-03 6.406933e-04 1.620835e-03
<VARIANCE> 39
 1.614971e+04 3.415743e+02 2.585559e+01 3.059001e-02 8.327890e-02 2.240907e-02 3.752119e-02 1.586704e-01 4.641645e-02 3.804557e-03 5.693318e-02 1.369317e-01 1.161045e-01 4.441816e-02 5.426377e-03 4.275461e-04 6.473754e-04 1.975992e-04 2.631395e-04 3.208783e-04 2.240019e-04 2.760650e-04 2.878672e-04 1.645584e-04 2.916474e-04 1.623713e-04 2.302085e-04 1.596941e-05 1.978427e-05 1.420419e-05 5.542737e-05 5.922284e-05 1.670973e-05 1.645918e-05 3.193075e-05 2.847775e-05 7.438590e-05 2.255850e-05 2.318146e-05
<GCONST> -1.733264e+02
<TRANSP> 3
 0.000000e+00 1.000000e+00 0.000000e+00
 0.000000e+00 7.113659e-01 2.886341e-01
 0.000000e+00 0.000000e+00 0.000000e+00
<ENDHMM>
~h "Tab0057"
<BEGINHMM>
<NUMSTATES> 3
<STATE> 2
<MEAN> 39
 -3.336830e+02 -4.264163e-01 -2.215207e-01 2.421183e-01 2.000645e-01 2.244689e-01 4.698049e-01 5.792743e-01 3.444527e-01 2.228458e-01 2.066689e-01 2.068610e-01 1.947787e-01 2.418388e-01 2.888587e-01 1.518784e-03 -3.330961e-03 -1.823802e-03 -3.574253e-05 -5.385529e-04 -3.974915e-04 3.690136e-04 4.258566e-04 -3.420505e-03 -5.249268e-03 2.808049e-04 5.323277e-03 -4.883729e-05 3.249268e-05 -6.703233e-05 -2.387909e-04 -2.335847e-04 -7.726828e-05 -4.281306e-05 -1.211565e-04 -2.173341e-04 -4.146140e-05 1.126498e-04 9.261582e-05
<VARIANCE> 39
 5.970853e+03 3.581059e+02 2.924186e+01 5.899606e-02 1.007495e-01 4.727655e-02 1.023660e-01 1.664304e-01 4.943212e-02 7.396418e-02 2.850452e-02 3.487352e-02 5.269454e-02 5.303996e-02 1.377340e-01 1.835243e-03 2.416305e-03 1.323477e-03 2.877463e-03 5.019742e-03 1.402608e-03 1.558581e-03 8.052927e-04 7.237720e-04 8.445965e-04 1.270934e-03 3.547654e-03 7.726769e-05 9.250070e-05 5.754641e-05 1.245215e-04 2.079284e-04 6.341371e-05 7.497197e-05 4.912776e-05 4.345596e-05 4.614721e-05 5.442123e-05 1.444824e-04
<GCONST> -1.336450e+02
<TRANSP> 3
 0.000000e+00 1.000000e+00 0.000000e+00
 0.000000e+00 9.810907e-01 1.890931e-02
 0.000000e+00 0.000000e+00 0.000000e+00
<ENDHMM>
~h "Tab0058"
<BEGINHMM>
<NUMSTATES> 3
<STATE> 2
<MEAN> 39
 -3.202021e+02 2.260925e-01 -5.806946e-02 3.306955e-01 2.104232e-01 2.599129e-01 4.232687e-01 3.884937e-01 2.329185e-01 2.180339e-01 2.685571e-01 3.717042e-01 3.373522e-01 3.468588e-01 4.483736e-01 1.083308e-03 1.784853e-03 1.766763e-03 1.598968e-03 7.370526e-04 -1.876701e-05 1.684863e-05 8.582829e-05 -4.897523e-04 -1.342482e-03 -6.829776e-04 3.583651e-04 -1.345897e-04 -1.082098e-04 -5.834367e-05 -8.892612e-05 -1.533162e-04 -8.525691e-05 -3.690525e-05 -7.520718e-05 -1.246033e-04 -3.428078e-05 -6.686383e-05 -1.518150e-04
<VARIANCE> 39
 7.123963e+03 4.036172e+02 3.135806e+01 6.317225e-02 9.969470e-02 5.556958e-02 1.430873e-01 1.180137e-01 4.974313e-02 8.231604e-02 3.962450e-02 8.128817e-02 6.685969e-02 5.163389e-02 1.564508e-01 1.928324e-03 2.138163e-03 9.660227e-04 3.654931e-03 2.632176e-03 8.207772e-04 1.292781e-03 9.410994e-04 1.775400e-03 1.515133e-03 1.147057e-03 3.943151e-03 8.841725e-05 8.374550e-05 3.965994e-05 1.562716e-04 1.163398e-04 3.601381e-05 5.621347e-05 5.656315e-05 1.054540e-04 8.067139e-05 6.061881e-05 1.731309e-04
<GCONST> -1.309864e+02
<TRANSP> 3
 0.000000e+00 1.000000e+00 0.000000e+00
 0.000000e+00 9.924768e-01 7.523254e-03
 0.000000e+00 0.000000e+00 0.000000e+00
<ENDHMM>
~h "Tab0059"
<BEGINHMM>
<NUMSTATES> 3
<STATE> 2
<MEAN> 39
 -5.178765e+02 -1.332795e+00 2.020738e-01 3.927210e-01 7.271524e-01 3.997786e-01 6.928261e-02 6.543043e-02 4.607334e-02 6.484322e-02 1.458666e-01 2.568785e-01 2.754726e-01 1.489746e-01 6.880173e-02 -2.961932e-04 -7.919004e-04 -1.795412e-05 4.932147e-04 -1.435480e-04 -2.577425e-04 -2.226291e-04 -3.135773e-04 -4.743446e-04 -5.953337e-04 -4.441714e-04 -1.081442e-04 -1.937164e-04 -3.408244e-04 1.803388e-04 4.027142e-04 2.099951e-04 1.777689e-04 1.860834e-04 1.125656e-04 3.960747e-05 3.507249e-05 1.572019e-04 1.819941e-04
<VARIANCE> 39
 9.606796e+03 1.261799e+02 8.083242e+00 3.918786e-02 1.725533e-01 5.119194e-02 8.328596e-03 1.397444e-02 7.685420e-03 1.829699e-02 7.327661e-02 7.284337e-02 1.353783e-01 4.022483e-02 8.653359e-03 4.497173e-05 1.393640e-04 2.758701e-05 1.307765e-04 8.927521e-05 3.711661e-05 2.849865e-05 1.792761e-05 4.393102e-05 5.764884e-05 3.019906e-05 4.240097e-05 3.732944e-06 8.944017e-06 3.726406e-06 8.202887e-06 4.991131e-06 2.352373e-06 1.755153e-06 2.475467e-06 3.271383e-06 4.760979e-06 3.611239e-06 4.080282e-06
<GCONST> -2.223257e+02
<TRANSP> 3
 0.000000e+00 1.000000e+00 0.000000e+00
 0.000000e+00 8.817035e-01 1.182966e-01
 0.000000e+00 0.000000e+00 0.000000e+00
<ENDHMM>
~h "Tab0060"
<BEGINHMM>
<NUMSTATES> 3
<STATE> 2
<MEAN> 39
 -3.735975e+02 4.052110e-01 -2.380529e-01 2.485918e-01 1.772528e-01 2.260363e-01 3.216201e-01 3.859070e-01 3.459920e-01 3.207098e-01 2.953278e-01 3.605654e-01 4.353714e-01 3.928675e-01 3.657945e-01 1.309059e-03 -2.878052e-04 -6.896462e-04 5.972891e-04 2.568342e-03 1.396476e-03 -2.758493e-03 -3.538042e-03 -4.234788e-03 -4.427650e-03 -1.765311e-03 1.312605e-03 6.507672e-04 4.450617e-05 -6.262892e-04 -1.087890e-03 -1.132099e-03 -6.583613e-04 -3.106355e-04 -4.614756e-04 -5.855939e-04 -6.867653e-04 -1.253015e-04 4.241613e-04
<VARIANCE> 39
 1.219992e+04 2.445033e+02 1.539548e+01 6.908412e-02 3.932688e-02 7.827707e-02 7.151345e-02 1.327175e-01 7.418901e-02 8.770786e-02 6.728588e-02 8.187685e-02 1.416751e-01 5.977321e-02 1.370044e-01 1.299432e-03 8.889477e-04 2.244513e-03 2.425608e-03 4.198913e-03 1.974358e-03 2.194162e-03 1.613028e-03 2.313646e-03 4.719987e-03 1.695329e-03 3.062390e-03 7.051849e-05 4.880150e-05 1.302233e-04 1.422349e-04 2.339317e-04 1.116488e-04 1.383689e-04 9.659170e-05 1.352494e-04 2.517955e-04 8.869301e-05 1.708469e-04
<GCONST> -1.225097e+02
<TRANSP> 3
 0.000000e+00 1.000000e+00 0.000000e+00
 0.000000e+00 7.482947e-01 2.517053e-01
 0.000000e+00 0.000000e+00 0.000000e+00
<ENDHMM>
~h "Tab0061"
<BEGINHMM>
<NUMSTATES> 3
<STATE> 2
<MEAN> 39
 -4.376100e+02 -4.041894e-01 5.777566e-02 2.069537e-01 2.941875e-01 3.319190e-01 3.498491e-01 4.340118e-01 3.058161e-01 2.042862e-01 2.218657e-01 4.016635e-01 5.920775e-01 3.859582e-01 2.053332e-01 -5.923362e-04 4.439506e-04 -1.868539e-03 -4.535441e-03 -7.441978e-03 -5.760761e-03 -9.134272e-04 1.735591e-03 7.081762e-03 1.215757e-02 4.909241e-03 -2.608375e-03 4.996924e-04 4.483981e-04 4.312996e-04 -2.271318e-04 -9.572210e-04 -3.417631e-04 6.923974e-04 1.220014e-03 1.273527e-05 -1.068114e-03 -4.317870e-04 5.080833e-04
<VARIANCE> 39
 1.321984e+04 1.895252e+02 1.325851e+01 5.665453e-02 6.289528e-02 1.339673e-01 4.577513e-02 9.614393e-02 5.065656e-02 4.263290e-02 6.195768e-02 5.507026e-02 1.683682e-01 5.408301e-02 3.441285e-02 1.009424e-03 1.223390e-03 1.856097e-03 8.649359e-04 1.853717e-03 1.169648e-03 1.026354e-03 1.660997e-03 1.447135e-03 3.649507e-03 1.257404e-03 6.137216e-04 4.347537e-05 6.521672e-05 9.735876e-05 4.729925e-05 1.006832e-04 5.894580e-05 5.766805e-05 1.075809e-04 8.718546e-05 1.918460e-04 6.189899e-05 3.373571e-05
<GCONST> -1.380711e+02
<TRANSP> 3
 0.000000e+00 1.000000e+00 0.000000e+00
 0.000000e+00 8.679287e-01 1.320713e-01
 0.000000e+00 0.000000e+00 0.000000e+00
<ENDHMM>
~h "Tab0062"
<BEGINHMM>
<NUMSTATES> 3
<STATE> 2
<MEAN> 39
 -5.369193e+02 4.895222e-01 -1.452463e-01 2.705538e-01 3.511124e-01 4.585468e-01 4.934524e-01 5.113719e-01 3.128998e-01 1.362444e-01 1.288403e-01 1.081559e-01 9.610683e-02 1.200975e-01 2.205592e-01 -4.833639e-04 1.081381e-04 2.540440e-04 8.204356e-04 1.964841e-03 1.387112e-03 9.777056e-04 9.392411e-04 5.542832e-04 1.063904e-04 -2.249359e-04 -7.217360e-04 3.155232e-04 -2.129801e-04 -7.021156e-04 -5.256388e-04 2.975222e-05 1.558478e-04 2.835498e-04 4.478282e-04 4.296634e-04 3.244038e-04 2.596848e-04 3.755179e-04
<VARIANCE> 39
 1.066854e+04 1.583162e+02 8.539545e+00 1.167931e-01 7.937381e-02 1.795824e-01 6.880340e-02 1.779382e-01 7.089853e-02 2.737824e-02 4.955190e-02 2.875446e-02 2.316379e-02 3.372199e-02 8.331776e-02 3.244815e-03 2.802838e-03 5.838394e-03 1.415980e-03 5.365566e-03 2.163674e-03 9.920226e-04 1.724794e-03 9.316506e-04 7.131440e-04 1.090682e-03 2.575066e-03 1.790949e-04 1.551292e-04 3.082458e-04 6.742418e-05 2.800705e-04 1.167250e-04 6.199547e-05 1.050272e-04 5.943005e-05 4.565456e-05 6.450835e-05 1.417094e-04
<GCONST> -1.294472e+02
<TRANSP> 3
 0.000000e+00 1.000000e+00 0.000000e+00
 0.000000e+00 9.548991e-01 4.510090e-02
 0.000000e+00 0.000000e+00 0.000000e+00
<ENDHMM>
~h "Tab0063"
<BEGINHMM>
<NUMSTATES> 3
<STATE> 2
<MEAN> 39
 -3.750104e+02 4.735525e-01 -2.832822e-01 3.720477e-01 2.280517e-01 1.779158e-01 2.556384e-01 3.324703e-01 3.477201e-01 3.152399e-01 2.380616e-01 1.992882e-01 1.872414e-01 2.953740e-01 4.503425e-01 2.792052e-03 8.612667e-03 3.755304e-03 2.547506e-04 -8.242611e-04 -1.821380e-03 1.967113e-03 4.571967e-03 3.491068e-03 2.868173e-03 2.062164e-03 -6.484918e-04 -3.928632e-04 -1.952086e-04 6.954813e-05 1.646262e-04 -3.261773e-05 -1.803138e-04 -2.510097e-04 -1.332281e-04 2.601446e-04 3.788728e-04 2.938027e-04 -3.360193e-04
<VARIANCE> 39
 1.397989e+04 3.439332e+02 2.228192e+01 9.373933e-02 7.166132e-02 4.395052e-02 9.517718e-02 1.050723e-01 9.545443e-02 9.226163e-02 4.183978e-02 5.729763e-02 3.968140e-02 6.005958e-02 1.561581e-01 3.112850e-03 1.381346e-03 8.343995e-04 3.232187e-03 2.909087e-03 1.948812e-03 1.933649e-03 1.236854e-03 1.091435e-03 9.757075e-04 6.660669e-04 3.233666e-03 1.089723e-04 5.822969e-05 4.625880e-05 1.364281e-04 1.724853e-04 8.923309e-05 1.109730e-04 7.521590e-05 7.629745e-05 6.183110e-05 2.770607e-05 1.349749e-04
<GCONST> -1.311566e+02
<TRANSP> 3
 0.000000e+00 1.000000e+00 0.000000e+00
 0.000000e+00 4.161241e-01 5.838758e-01
 0.000000e+00 0.000000e+00 0.000000e+00
<ENDHMM>
~h "Tab0064"
<BEGINHMM>
<NUMSTATES> 3
<STATE> 2
<MEAN> 39
 -4.096430e+02 9.372033e-01 -4.539520e-02 4.317803e-01 3.219194e-01 3.523920e-01 3.586330e-01 3.489802e-01 3.344464e-01 3.753588e-01 3.463408e-01 3.448168e-01 3.769530e-01 4.479812e-01 5.735743e-01 -1.368129e-04 6.408084e-04 4.359257e-04 -1.275726e-03 -1.573141e-03 -3.674121e-04 1.598011e-03 1.230965e-03 -1.392273e-03 -3.238756e-03 -2.025439e-03 -4.175620e-04 -1.026665e-04 2.439009e-04 6.837445e-06 9.130991e-05 3.862958e-04 1.513200e-04 1.413196e-04 6.645876e-04 4.263986e-04 2.582537e-04 4.152593e-05 -5.134047e-04
<VARIANCE> 39
 3.296262e+04 3.173131e+02 1.564119e+01 8.224711e-02 6.413738e-02 9.306570e-02 7.130677e-02 1.165910e-01 6.422691e-02 9.602015e-02 7.350717e-02 7.801671e-02 1.032060e-01 7.601897e-02 1.481675e-01 1.137453e-03 1.289253e-03 1.548116e-03 9.409756e-04 8.890905e-04 8.502126e-04 1.451088e-03 1.215026e-03 1.247060e-03 1.305047e-03 1.342568e-03 1.528379e-03 5.207285e-05 6.262388e-05 7.803243e-05 4.942759e-05 4.716827e-05 4.609497e-05 6.994203e-05 6.093562e-05 6.487147e-05 6.979088e-05 7.079261e-05 7.507409e-05
<GCONST> -1.358674e+02
<TRANSP> 3
 0.000000e+00 1.000000e+00 0.000000e+00
 0.000000e+00 7.925130e-01 2.074870e-01
 0.000000e+00 0.000000e+00 0.000000e+00
<ENDHMM>
~h "Tab0065"
<BEGINHMM>
<NUMSTATES> 3
<STATE> 2
<MEAN> 39
 -4.548619e+02 -1.140042e-02 5.808319e-04 2.717569e-01 2.589890e-01 2.598633e-01 2.530417e-01 2.904299e-01 2.805820e-01 2.783154e-01 2.934853e-01 3.012489e-01 3.159406e-01 2.777686e-01 2.845387e-01 9.135426e-07 -1.114758e-06 -5.127020e-06 -3.477763e-06 -5.146512e-06 -4.045977e-06 -2.704007e-06 -2.625926e-06 2.284148e-07 -2.455553e-06 -3.303057e-06 -3.432895e-06 1.716960e-06 1.590000e-06 1.165124e-06 1.896423e-06 1.543451e-06 1.756088e-06 2.096551e-06 2.216106e-06 1.673395e-06 9.923498e-07 1.687240e-06 1.989734e-06
<VARIANCE> 39
 3.872017e+04 1.648368e+02 9.713050e+00 9.574932e-02 7.507265e-02 1.011769e-01 6.844017e-02 1.068953e-01 8.484249e-02 8.535165e-02 1.088234e-01 8.611441e-02 1.215130e-01 7.854612e-02 1.012177e-01 7.738464e-04 5.756516e-04 8.173934e-04 6.020874e-04 9.842092e-04 7.769793e-04 7.680383e-04 9.380563e-04 7.292997e-04 9.102586e-04 6.066088e-04 8.300907e-04 4.039318e-05 3.075810e-05 4.262554e-05 3.326209e-05 5.388901e-05 4.357443e-05 4.302722e-05 5.102124e-05 4.137804e-05 4.840365e-05 3.307438e-05 4.497233e-05
<GCONST> -1.462089e+02
<TRANSP> 3
 0.000000e+00 1.000000e+00 0.000000e+00
 0.000000e+00 8.000000e-01 2.000000e-01
 0.000000e+00 0.000000e+00 0.000000e+00
<ENDHMM>
~h "Tab0066"
<BEGINHMM>
<NUMSTATES> 3
<STATE> 2
<MEAN> 39
 -4.392413e+02 1.076049e+00 2.213652e-01 3.693011e-01 4.107773e-01 5.283200e-01 3.854980e-01 3.063432e-01 3.159285e-01 3.471251e-01 3.966680e-01 3.853028e-01 3.664950e-01 3.594940e-01 4.192584e-01 5.330417e-04 6.868893e-04 2.247257e-03 -2.326685e-03 -6.727402e-03 -3.457474e-03 -1.757040e-03 -1.920853e-03 -5.265450e-04 6.974081e-04 1.889507e-03 3.015017e-03 -6.258842e-04 -1.275553e-03 -1.336335e-03 -6.105494e-04 -4.348777e-04 -7.811924e-04 -1.008446e-03 -1.217689e-03 -1.627870e-03 -1.702399e-03 -1.296653e-03 -4.125918e-04
<VARIANCE> 39
 2.777693e+04 3.090658e+02 1.618657e+01 9.735716e-02 5.814518e-02 1.391081e-01 5.584932e-02 9.353862e-02 7.596593e-02 6.636015e-02 1.124773e-01 7.673991e-02 8.064710e-02 6.777640e-02 1.133468e-01 2.290026e-03 1.482727e-03 3.458259e-03 1.579029e-03 2.400125e-03 1.902957e-03 1.644108e-03 2.412847e-03 2.074569e-03 2.143147e-03 1.743686e-03 2.818024e-03 1.061028e-04 7.556270e-05 1.596968e-04 6.853160e-05 1.012434e-04 9.726342e-05 9.134583e-05 1.312713e-04 1.144115e-04 1.082435e-04 8.865360e-05 1.219920e-04
<GCONST> -1.235917e+02
<TRANSP> 3
 0.000000e+00 1.000000e+00 0.000000e+00
 0.000000e+00 8.519415e-01 1.480585e-01
 0.000000e+00 0.000000e+00 0.000000e+00
<ENDHMM>
~h "Tab0067"
<BEGINHMM>
<NUMSTATES> 3
<STATE> 2
<MEAN> 39
 -4.548619e+02 -1.140042e-02 5.808319e-04 2.717569e-01 2.589890e-01 2.598633e-01 2.530417e-01 2.904299e-01 2.805820e-01 2.783154e-01 2.934853e-01 3.012489e-01 3.159406e-01 2.777686e-01 2.845387e-01 9.135426e-07 -1.114758e-06 -5.127020e-06 -3.477763e-06 -5.146512e-06 -4.045977e-06 -2.704007e-06 -2.625926e-06 2.284148e-07 -2.455553e-06 -3.303057e-06 -3.432895e-06 1.716960e-06 1.590000e-06 1.165124e-06 1.896423e-06 1.543451e-06 1.756088e-06 2.096551e-06 2.216106e-06 1.673395e-06 9.923498e-07 1.687240e-06 1.989734e-06
<VARIANCE> 39
 3.872017e+04 1.648368e+02 9.713050e+00 9.574932e-02 7.507265e-02 1.011769e-01 6.844017e-02 1.068953e-01 8.484249e-02 8.535165e-02 1.088234e-01 8.611441e-02 1.215130e-01 7.854612e-02 1.012177e-01 7.738464e-04 5.756516e-04 8.173934e-04 6.020874e-04 9.842092e-04 7.769793e-04 7.680383e-04 9.380563e-04 7.292997e-04 9.102586e-04 6.066088e-04 8.300907e-04 4.039318e-05 3.075810e-05 4.262554e-05 3.326209e-05 5.388901e-05 4.357443e-05 4.302722e-05 5.102124e-05 4.137804e-05 4.840365e-05 3.307438e-05 4.497233e-05
<GCONST> -1.462089e+02
<TRANSP> 3
 0.000000e+00 1.000000e+00 0.000000e+00
 0.000000e+00 8.000000e-01 2.000000e-01
 0.000000e+00 0.000000e+00 0.000000e+00
<ENDHMM>
~h "Tab0068"
<BEGINHMM>
<NUMSTATES> 3
<STATE> 2
<MEAN> 39
 -3.674052e+02 -1.239818e+00 -5.197908e-02 2.450680e-01 3.423259e-01 2.729466e-01 2.122927e-01 2.178355e-01 2.971284e-01 4.165635e-01 5.025128e-01 6.167314e-01 4.445819e-01 2.132822e-01 1.613023e-01 2.518696e-04 1.924129e-03 -3.182168e-04 -1.444051e-03 -9.113573e-04 9.420332e-04 2.225840e-03 -1.509959e-03 -3.336641e-03 -2.892733e-03 -3.028012e-03 -2.459377e-03 1.022278e-03 7.567377e-04 -2.026206e-04 -5.157371e-04 -1.279266e-04 2.167570e-04 3.343921e-04 8.173863e-05 -5.774390e-04 -6.739846e-04 -1.871168e-04 3.558010e-04
<VARIANCE> 39
 1.015746e+04 1.090814e+02 6.526326e+00 6.146822e-02 1.403224e-01 6.625248e-02 5.743404e-02 5.302439e-02 8.850754e-02 1.226316e-01 6.092181e-02 1.424187e-01 6.229142e-02 5.416276e-02 4.238810e-02 1.150648e-03 2.226571e-03 1.084150e-03 8.719647e-04 8.216075e-04 1.601825e-03 2.635142e-03 1.373366e-03 2.707443e-03 1.402041e-03 5.163376e-04 7.789297e-04 6.250339e-05 1.089784e-04 5.236032e-05 3.847984e-05 4.449609e-05 8.936403e-05 1.262971e-04 7.763434e-05 1.348647e-04 7.004374e-05 2.530928e-05 4.106800e-05
<GCONST> -1.397108e+02
<TRANSP> 3
 0.000000e+00 1.000000e+00 0.000000e+00
 0.000000e+00 9.018958e-01 9.810423e-02
 0.000000e+00 0.000000e+00 0.000000e+00
<ENDHMM>
~h "Tab0069"
<BEGINHMM>
<NUMSTATES> 3
<STATE> 2
<MEAN> 39
 -4.548619e+02 -1.140042e-02 5.808319e-04 2.717569e-01 2.589890e-01 2.598633e-01 2.530417e-01 2.904299e-01 2.805820e-01 2.783154e-01 2.934853e-01 3.012489e-01 3.159406e-01 2.777686e-01 2.845387e-01 9.135426e-07 -1.114758e-06 -5.127020e-06 -3.477763e-06 -5.146512e-06 -4.045977e-06 -2.704007e-06 -2.625926e-06 2.284148e-07 -2.455553e-06 -3.303057e-06 -3.432895e-06 1.716960e-06 1.590000e-06 1.165124e-06 1.896423e-06 1.543451e-06 1.756088e-06 2.096551e-06 2.216106e-06 1.673395e-06 9.923498e-07 1.687240e-06 1.989734e-06
<VARIANCE> 39
 3.872017e+04 1.648368e+02 9.713050e+00 9.574932e-02 7.507265e-02 1.011769e-01 6.844017e-02 1.068953e-01 8.484249e-02 8.535165e-02 1.088234e-01 8.611441e-02 1.215130e-01 7.854612e-02 1.012177e-01 7.738464e-04 5.756516e-04 8.173934e-04 6.020874e-04 9.842092e-04 7.769793e-04 7.680383e-04 9.380563e-04 7.292997e-04 9.102586e-04 6.066088e-04 8.300907e-04 4.039318e-05 3.075810e-05 4.262554e-05 3.326209e-05 5.388901e-05 4.357443e-05 4.302722e-05 5.102124e-05 4.137804e-05 4.840365e-05 3.307438e-05 4.497233e-05
<GCONST> -1.462089e+02
<TRANSP> 3
 0.000000e+00 1.000000e+00 0.000000e+00
 0.000000e+00 8.000000e-01 2.000000e-01
 0.000000e+00 0.000000e+00 0.000000e+00
<ENDHMM>
~h "Tab0070"
<BEGINHMM>
<NUMSTATES> 3
<STATE> 2
<MEAN> 39
 -4.548619e+02 -1.140042e-02 5.808319e-04 2.717569e-01 2.589890e-01 2.598633e-01 2.530417e-01 2.904299e-01 2.805820e-01 2.783154e-01 2.934853e-01 3.012489e-01 3.159406e-01 2.777686e-01 2.845387e-01 9.135426e-07 -1.114758e-06 -5.127020e-06 -3.477763e-06 -5.146512e-06 -4.045977e-06 -2.704007e-06 -2.625926e-06 2.284148e-07 -2.455553e-06 -3.303057e-06 -3.432895e-06 1.716960e-06 1.590000e-06 1.165124e-06 1.896423e-06 1.543451e-06 1.756088e-06 2.096551e-06 2.216106e-06 1.673395e-06 9.923498e-07 1.687240e-06 1.989734e-06
<VARIANCE> 39
 3.872017e+04 1.648368e+02 9.713050e+00 9.574932e-02 7.507265e-02 1.011769e-01 6.844017e-02 1.068953e-01 8.484249e-02 8.535165e-02 1.088234e-01 8.611441e-02 1.215130e-01 7.854612e-02 1.012177e-01 7.738464e-04 5.756516e-04 8.173934e-04 6.020874e-04 9.842092e-04 7.769793e-04 7.680383e-04 9.380563e-04 7.292997e-04 9.102586e-04 6.066088e-04 8.300907e-04 4.039318e-05 3.075810e-05 4.262554e-05 3.326209e-05 5.388901e-05 4.357443e-05 4.302722e-05 5.102124e-05 4.137804e-05 4.840365e-05 3.307438e-05 4.497233e-05
<GCONST> -1.462089e+02
<TRANSP> 3
 0.000000e+00 1.000000e+00 0.000000e+00
 0.000000e+00 8.000000e-01 2.000000e-01
 0.000000e+00 0.000000e+00 0.000000e+00
<ENDHMM>
~h "Tab0071"
<BEGINHMM>
<NUMSTATES> 3
<STATE> 2
<MEAN> 39
 -3.159698e+02 2.613387e+00 -4.152957e-01 3.317301e-01 2.492140e-01 3.206471e-01 3.797711e-01 3.961357e-01 4.432711e-01 4.845375e-01 3.726352e-01 3.253440e-01 3.659856e-01 4.646658e-01 5.276328e-01 1.348420e-03 -6.840532e-04 8.918270e-04 1.266217e-03 -8.819793e-04 3.028029e-03 4.838012e-03 2.552727e-03 1.781886e-03 -1.631162e-03 -3.345415e-03 1.149709e-03 -5.080099e-04 1.681373e-04 2.249736e-04 -6.541237e-04 -9.692293e-04 -9.330370e-04 -1.411330e-03 -1.247803e-03 -2.211009e-04 -5.380498e-04 -9.658005e-04 -7.950066e-04
<VARIANCE> 39
 1.382516e+04 4.597674e+02 2.612947e+01 5.471849e-02 4.393054e-02 7.829763e-02 6.637279e-02 9.710924e-02 6.839218e-02 1.146487e-01 5.632320e-02 6.885885e-02 1.081728e-01 6.483071e-02 1.476500e-01 9.795194e-04 7.762793e-04 1.522133e-03 1.428342e-03 2.353534e-03 1.826450e-03 3.410213e-03 1.956886e-03 1.973832e-03 1.667929e-03 1.606417e-03 3.307706e-03 4.045137e-05 3.884955e-05 7.810515e-05 8.117823e-05 1.150785e-04 9.973829e-05 1.945810e-04 9.854593e-05 9.376973e-05 7.010621e-05 6.837367e-05 1.453347e-04
<GCONST> -1.289301e+02
<TRANSP> 3
 0.000000e+00 1.000000e+00 0.000000e+00
 0.000000e+00 9.411851e-01 5.881489e-02
 0.000000e+00 0.000000e+00 0.000000e+00
<ENDHMM>
~h "Tab0072"
<BEGINHMM>
<NUMSTATES> 3
<STATE> 2
<MEAN> 39
 -3.335200e+02 -1.670259e+00 1.868579e-01 3.487678e-01 1.956921e-01 2.845687e-01 4.293799e-01 5.351969e-01 4.109233e-01 3.071447e-01 2.977295e-01 2.578444e-01 2.313303e-01 4.092768e-01 5.910188e-01 3.824594e-04 -1.647583e-04 -5.803988e-04 -1.879471e-03 -2.461959e-03 -2.885143e-03 -2.349338e-03 -1.701761e-03 -1.953948e-03 -1.654880e-03 2.723917e-04 1.282712e-03 2.175897e-04 3.981067e-04 3.215379e-04 4.887688e-04 4.646588e-04 2.968236e-04 2.829169e-04 3.494683e-04 4.908519e-04 5.492187e-04 2.183859e-04 -2.915820e-05
<VARIANCE> 39
 1.003719e+04 4.022364e+01 2.861650e+00 4.156487e-02 2.059158e-02 7.585377e-02 6.485970e-02 1.641684e-01 7.724348e-02 4.518970e-02 6.095042e-02 5.076675e-02 5.189206e-02 4.950046e-02 1.263782e-01 2.257488e-04 1.490447e-04 2.536865e-04 3.452762e-04 3.135100e-04 3.211840e-04 3.594706e-04 2.560763e-04 2.521373e-04 2.624622e-04 1.997738e-04 5.299239e-04 1.240948e-05 1.042302e-05 1.654620e-05 2.029748e-05 2.301243e-05 1.866108e-05 1.750149e-05 1.297980e-05 1.211773e-05 1.481917e-05 1.130255e-05 2.673308e-05
<GCONST> -1.790957e+02
<TRANSP> 3
 0.000000e+00 1.000000e+00 0.000000e+00
 0.000000e+00 8.668916e-01 1.331085e-01
 0.000000e+00 0.000000e+00 0.000000e+00
<ENDHMM>
~h "Tab0073"
<BEGINHMM>
<NUMSTATES> 3
<STATE> 2
<MEAN> 39
 -4.548619e+02 -1.140042e-02 5.808319e-04 2.717569e-01 2.589890e-01 2.598633e-01 2.530417e-01 2.904299e-01 2.805820e-01 2.783154e-01 2.934853e-01 3.012489e-01 3.159406e-01 2.777686e-01 2.845387e-01 9.135426e-07 -1.114758e-06 -5.127020e-06 -3.477763e-06 -5.146512e-06 -4.045977e-06 -2.704007e-06 -2.625926e-06 2.284148e-07 -2.455553e-06 -3.303057e-06 -3.432895e-06 1.716960e-06 1.590000e-06 1.165124e-06 1.896423e-06 1.543451e-06 1.756088e-06 2.096551e-06 2.216106e-06 1.673395e-06 9.923498e-07 1.687240e-06 1.989734e-06
<VARIANCE> 39
 3.872017e+04 1.648368e+02 9.713050e+00 9.574932e-02 7.507265e-02 1.011769e-01 6.844017e-02 1.068953e-01 8.484249e-02 8.535165e-02 1.088234e-01 8.611441e-02 1.215130e-01 7.854612e-02 1.012177e-01 7.738464e-04 5.756516e-04 8.173934e-04 6.020874e-04 9.842092e-04 7.769793e-04 7.680383e-04 9.380563e-04 7.292997e-04 9.102586e-04 6.066088e-04 8.300907e-04 4.039318e-05 3.075810e-05 4.262554e-05 3.326209e-05 5.388901e-05 4.357443e-05 4.302722e-05 5.102124e-05 4.137804e-05 4.840365e-05 3.307438e-05 4.497233e-05
<GCONST> -1.462089e+02
<TRANSP> 3
 0.000000e+00 1.000000e+00 0.000000e+00
 0.000000e+00 8.000000e-01 2.000000e-01
 0.000000e+00 0.000000e+00 0.000000e+00
<ENDHMM>
~h "Tab0074"
<BEGINHMM>
<NUMSTATES> 3
<STATE> 2
<MEAN> 39
 -3.738318e+02 -1.269448e+00 1.995859e-01 4.955236e-01 6.265147e-01 4.092555e-01 1.388664e-01 1.059324e-01 1.940323e-01 3.458521e-01 3.331461e-01 2.314427e-01 1.914599e-01 2.879394e-01 3.814363e-01 -9.300005e-04 -4.714417e-04 6.603596e-04 9.968212e-05 -9.628144e-04 -2.267610e-03 -4.796898e-03 -4.223213e-03 -1.363873e-03 -1.068130e-03 -1.586365e-03 -5.471127e-04 -8.745398e-05 3.130015e-04 6.538875e-04 8.173163e-04 1.027085e-03 1.058194e-03 5.834421e-04 8.483193e-04 1.747403e-03 1.559205e-03 4.239263e-04 -1.614676e-04
<VARIANCE> 39
 1.138212e+04 1.045244e+02 7.128539e+00 4.770022e-02 1.489411e-01 5.700886e-02 1.662129e-02 1.075025e-02 2.928074e-02 1.010545e-01 6.252946e-02 3.988781e-02 3.313088e-02 8.260017e-02 1.494853e-01 5.429598e-04 5.115220e-04 4.475444e-04 2.577870e-04 3.157421e-04 5.060462e-04 7.503649e-04 7.086800e-04 8.135296e-04 7.834279e-04 5.307636e-04 7.056646e-04 3.141888e-05 3.076158e-05 2.586662e-05 1.660866e-05 2.303885e-05 3.241937e-05 4.355799e-05 4.118734e-05 5.432294e-05 4.841008e-05 3.110827e-05 4.843152e-05
<GCONST> -1.622101e+02
<TRANSP> 3
 0.000000e+00 1.000000e+00 0.000000e+00
 0.000000e+00 8.031981e-01 1.968019e-01
 0.000000e+00 0.000000e+00 0.000000e+00
<ENDHMM>
~h "Tab0075"
<BEGINHMM>
<NUMSTATES> 3
<STATE> 2
<MEAN> 39
 -3.928695e+02 -1.120210e+00 6.025735e-02 2.133119e-01 2.613488e-01 1.813717e-01 1.104482e-01 9.915103e-02 1.764753e-01 3.101139e-01 4.517392e-01 5.668263e-01 4.107608e-01 2.912486e-01 2.340398e-01 1.071437e-03 -1.375203e-03 4.996502e-04 1.915303e-03 4.365839e-04 -4.531116e-03 -8.901910e-03 -1.235592e-03 9.372425e-03 4.938911e-03 -5.924379e-04 3.178639e-03 1.182755e-03 1.017571e-03 1.536040e-03 1.557830e-03 1.542718e-03 9.876599e-04 -1.872199e-04 1.961373e-05 3.989214e-04 6.629042e-05 3.678568e-04 1.281092e-03
<VARIANCE> 39
 1.116528e+04 5.723766e+01 3.160920e+00 5.144634e-02 1.060236e-01 3.983169e-02 1.140687e-02 1.067998e-02 3.543985e-02 1.095889e-01 8.381268e-02 1.777633e-01 6.264976e-02 1.114898e-01 8.490489e-02 5.375766e-04 1.191055e-03 7.435472e-04 3.271025e-04 2.751835e-04 6.394584e-04 2.195603e-03 1.156570e-03 2.375670e-03 1.141783e-03 2.291159e-03 1.569866e-03 2.795490e-05 7.325069e-05 3.370836e-05 2.185002e-05 1.919590e-05 4.113623e-05 1.331310e-04 5.803228e-05 1.380854e-04 6.354066e-05 1.110128e-04 8.367436e-05
<GCONST> -1.494391e+02
<TRANSP> 3
 0.000000e+00 1.000000e+00 0.000000e+00
 0.000000e+00 7.611208e-01 2.388792e-01
 0.000000e+00 0.000000e+00 0.000000e+00
<ENDHMM>
~h "Tab0076"
<BEGINHMM>
<NUMSTATES> 3
<STATE> 2
<MEAN> 39
 -5.400331e+02 -2.053189e-01 -1.628536e-02 2.656004e-01 5.867202e-01 6.258323e-01 3.448535e-01 2.394611e-01 2.455997e-01 1.372795e-01 1.002714e-01 4.824796e-01 8.397527e-01 5.031207e-01 1.223689e-01 -3.015157e-04 -1.076689e-03 -1.260772e-03 -2.607884e-05 7.613358e-04 6.789982e-05 -1.109616e-04 3.099837e-04 3.025184e-04 4.377415e-04 4.368326e-04 2.180044e-04 1.256646e-04 7.673680e-05 -4.692869e-05 2.560002e-06 9.045762e-05 7.415096e-05 7.797634e-05 1.169065e-04 -5.287542e-05 -2.218481e-04 -1.762902e-05 1.488678e-04
<VARIANCE> 39
 4.968557e+03 1.698011e+02 9.753353e+00 6.543180e-02 1.070850e-01 6.990109e-02 4.514385e-02 4.047690e-02 6.310377e-02 2.880960e-02 2.499278e-02 2.083820e-02 3.078889e-02 1.702180e-02 2.131373e-02 8.936680e-04 1.523089e-03 9.244810e-04 6.444988e-04 7.747010e-04 7.383594e-04 5.397549e-04 9.476512e-04 6.057715e-04 8.059655e-04 4.515155e-04 7.239497e-04 4.829298e-05 8.800343e-05 4.629806e-05 3.625271e-05 4.618699e-05 4.017643e-05 3.385573e-05 6.152027e-05 3.665770e-05 4.427453e-05 2.602038e-05 4.802497e-05
<GCONST> -1.580810e+02
<TRANSP> 3
 0.000000e+00 1.000000e+00 0.000000e+00
 0.000000e+00 9.668707e-01 3.312931e-02
 0.000000e+00 0.000000e+00 0.000000e+00
<ENDHMM>
~h "Tab0077"
<BEGINHMM>
<NUMSTATES> 3
<STATE> 2
<MEAN> 39
 -4.034680e+02 -5.916998e+00 -2.834454e-01 4.725167e-01 1.758913e-01 1.734269e-01 2.568318e-01 3.313255e-01 2.027210e-01 2.609706e-01 4.382797e-01 2.774030e-01 1.153177e-01 3.955460e-01 7.350563e-01 -9.617438e-03 -9.942085e-03 1.112457e-03 -1.737376e-03 -5.532913e-03 -2.663607e-03 -2.754956e-04 1.255568e-03 -3.003388e-03 -5.358852e-03 9.133792e-03 1.009761e-02 1.347393e-03 1.394843e-03 1.125125e-03 1.302101e-03 1.612959e-03 1.602009e-03 1.241811e-03 -1.751601e-03 -1.314667e-04 2.645818e-03 1.229319e-03 1.165196e-04
<VARIANCE> 39
 1.151606e+04 1.244253e+02 6.837247e+00 5.425423e-02 4.039215e-02 6.065009e-02 1.782817e-02 7.278001e-02 1.412607e-02 5.509634e-02 1.998520e-01 5.910213e-02 1.072904e-02 3.885426e-02 1.134091e-01 4.201533e-04 3.994816e-04 7.797073e-05 1.100874e-04 2.856900e-04 2.921649e-04 2.541144e-04 2.968884e-04 1.931617e-04 4.713265e-05 6.652311e-04 6.268028e-04 3.200411e-05 1.654741e-05 4.031222e-05 1.268063e-05 8.734594e-06 1.784803e-05 2.597732e-05 6.458128e-05 1.337173e-05 2.719249e-05 2.463698e-05 2.394634e-05
<GCONST> -1.779588e+02
<TRANSP> 3
 0.000000e+00 1.000000e+00 0.000000e+00
 0.000000e+00 6.727303e-01 3.272697e-01
 0.000000e+00 0.000000e+00 0.000000e+00
<ENDHMM>
~h "Tab0078"
