~o
<STREAMINFO> 1 39
<VECSIZE> 39<NULLD><MFCC_E_D_A><DIAGC>
~h "Sil"
<BEGINHMM>
<NUMSTATES> 3
<STATE> 2
<MEAN> 39
 -5.816104e+02 -7.710299e-01 8.860106e-02 1.144006e-01 1.320540e-01 1.502485e-01 1.342764e-01 1.478036e-01 1.410915e-01 1.260005e-01 1.196709e-01 1.391115e-01 1.698349e-01 1.295628e-01 1.102231e-01 1.499070e-04 4.036815e-05 -3.593719e-04 -1.802569e-04 -7.046918e-05 -6.974350e-05 -9.034038e-05 -3.043649e-04 6.395515e-06 -2.448282e-04 -1.127887e-04 -6.594076e-06 2.317876e-04 2.121455e-04 1.412706e-04 2.433969e-04 2.069816e-04 2.274094e-04 2.516638e-04 2.727404e-04 2.091353e-04 1.242758e-04 2.219133e-04 2.676270e-04
<VARIANCE> 39
 3.197177e+04 5.382475e+01 2.428248e+00 5.334394e-02 5.232547e-02 8.424327e-02 4.881766e-02 8.144785e-02 6.160445e-02 6.193692e-02 6.042498e-02 5.915435e-02 9.943288e-02 5.096054e-02 4.778855e-02 2.513812e-04 2.384325e-04 3.973680e-04 2.423411e-04 3.838093e-04 2.745356e-04 3.102607e-04 3.232149e-04 2.531754e-04 2.818712e-04 2.065514e-04 3.006705e-04 1.187349e-05 1.124035e-05 1.896255e-05 1.139326e-05 1.788051e-05 1.202541e-05 1.353345e-05 1.453015e-05 1.221797e-05 1.347560e-05 1.049247e-05 1.423497e-05
<GCONST> -1.792600e+02
<TRANSP> 3
