~o
<STREAMINFO> 1 39
<VECSIZE> 39<NULLD><MFCC_E_D_A><DIAGC>
~h "Sil"
<BEGINHMM>
<NUMSTATES> 3
<STATE> 2
<MEAN> 39
 -5.816071e+02 -7.709846e-01 8.859536e-02 1.144026e-01 1.320554e-01 1.502500e-01 1.342793e-01 1.478052e-01 1.410949e-01 1.260023e-01 1.196738e-01 1.391145e-01 1.698368e-01 1.295648e-01 1.102263e-01 1.498982e-04 4.036974e-05 -3.593600e-04 -1.802359e-04 -7.044472e-05 -6.971804e-05 -9.032994e-05 -3.043474e-04 6.394086e-06 -2.448196e-04 -1.127831e-04 -6.592929e-06 2.317761e-04 2.121352e-04 1.412647e-04 2.433854e-04 2.069701e-04 2.273981e-04 2.516506e-04 2.727265e-04 2.091240e-04 1.242690e-04 2.219023e-04 2.676124e-04
<VARIANCE> 39
 3.197238e+04 5.382430e+01 2.428223e+00 5.334443e-02 5.232557e-02 8.424340e-02 4.881820e-02 8.144803e-02 6.160526e-02 6.193763e-02 6.042613e-02 5.915525e-02 9.943350e-02 5.096177e-02 4.779024e-02 2.513790e-04 2.384302e-04 3.973642e-04 2.423395e-04 3.838046e-04 2.745339e-04 3.102581e-04 3.232126e-04 2.531737e-04 2.818684e-04 2.065494e-04 3.006687e-04 1.187338e-05 1.124024e-05 1.896238e-05 1.139315e-05 1.788039e-05 1.202529e-05 1.353336e-05 1.453006e-05 1.221787e-05 1.347543e-05 1.049238e-05 1.423483e-05
<GCONST> -1.792600e+02
<TRANSP> 3
