~o
<STREAMINFO> 1 39
<VECSIZE> 39<NULLD><MFCC_E_D_A><DIAGC>
~h "Sil"
<BEGINHMM>
<NUMSTATES> 3
<STATE> 2
<MEAN> 39
 -5.067531e+02 -1.134362e-02 2.745847e-03 2.185935e-01 2.139315e-01 2.128358e-01 2.004867e-01 2.482677e-01 2.594416e-01 2.447985e-01 2.385170e-01 2.385357e-01 2.581617e-01 2.213758e-01 2.184393e-01 3.453897e-05 2.029136e-05 9.331846e-06 -4.202732e-06 -1.390560e-05 4.416808e-06 2.384672e-05 2.102643e-05 6.201919e-06 -1.343749e-05 6.210558e-06 2.958768e-05 5.818725e-06 6.130116e-06 4.900700e-06 7.131244e-06 6.746922e-06 4.793095e-06 5.027509e-06 7.313582e-06 5.608877e-06 4.862799e-06 6.768530e-06 7.565666e-06
<VARIANCE> 39
 3.800444e+04 1.154606e+02 6.451351e+00 8.376526e-02 6.877016e-02 9.582509e-02 5.886142e-02 1.032988e-01 9.630439e-02 8.854944e-02 1.035110e-01 7.504020e-02 1.176332e-01 7.194772e-02 8.473402e-02 5.419203e-04 4.677674e-04 6.181097e-04 4.095960e-04 7.242465e-04 6.509584e-04 6.116644e-04 7.019519e-04 5.246134e-04 6.365886e-04 4.307330e-04 5.650833e-04 2.666832e-05 2.378550e-05 3.050024e-05 2.079908e-05 3.681743e-05 3.341821e-05 3.226481e-05 3.515984e-05 2.752941e-05 3.118919e-05 2.192283e-05 2.834408e-05
<GCONST> -1.559223e+02
<TRANSP> 3
 0.000000e+00 1.000000e+00 0.000000e+00
 0.000000e+00 9.992294e-01 7.706003e-04
 0.000000e+00 0.000000e+00 0.000000e+00
<ENDHMM>
~h "Tab0000"
<BEGINHMM>
<NUMSTATES> 3
<STATE> 2
<MEAN> 39
 -3.488824e+02 7.195317e-01 -1.423546e-02 2.195876e-01 2.414385e-01 3.077524e-01 4.411254e-01 5.926185e-01 5.263922e-01 4.628285e-01 3.754720e-01 3.284618e-01 3.420233e-01 3.035471e-01 2.747696e-01 -5.805229e-04 1.379516e-04 1.147991e-03 6.233644e-04 -1.582714e-04 6.249947e-04 2.094103e-03 1.906064e-03 -4.409882e-04 -1.171595e-03 2.087138e-04 3.216847e-04 3.006512e-04 2.581779e-04 1.294723e-04 -7.175289e-04 -1.311099e-03 -8.842471e-04 -2.402733e-04 1.174191e-04 1.799575e-04 2.881417e-04 2.132197e-04 2.060435e-04
<VARIANCE> 39
 1.832217e+04 1.745828e+02 1.227195e+01 4.530668e-02 5.851866e-02 8.179464e-02 7.841055e-02 1.608342e-01 6.448741e-02 1.071940e-01 6.261855e-02 7.146154e-02 1.129043e-01 5.982989e-02 9.076309e-02 7.869728e-04 9.986415e-04 1.454259e-03 1.671614e-03 3.524248e-03 1.716251e-03 1.729209e-03 1.512819e-03 1.369529e-03 1.583255e-03 1.010516e-03 1.399306e-03 4.571057e-05 5.017347e-05 7.231103e-05 8.634566e-05 1.875235e-04 9.562028e-05 9.692954e-05 8.012655e-05 7.647903e-05 7.959067e-05 5.607277e-05 8.288224e-05
<GCONST> -1.331903e+02
<TRANSP> 3
 0.000000e+00 1.000000e+00 0.000000e+00
 0.000000e+00 9.285381e-01 7.146189e-02
 0.000000e+00 0.000000e+00 0.000000e+00
<ENDHMM>
~h "Tab0001"
<BEGINHMM>
<NUMSTATES> 3
<STATE> 2
<MEAN> 39
 -2.749525e+02 -1.331371e+00 -1.110881e-02 7.418355e-02 1.240158e-01 3.457713e-01 4.544077e-01 3.067247e-01 2.908858e-01 4.274472e-01 5.756847e-01 5.824724e-01 3.135386e-01 1.375476e-01 9.048164e-02 6.788002e-04 8.852888e-04 1.058469e-03 3.486928e-04 1.925132e-04 1.292645e-03 7.134297e-04 -5.795504e-06 1.195249e-03 8.303477e-04 3.887982e-05 4.654430e-04 4.363393e-04 4.441075e-04 3.099079e-04 3.445966e-04 7.399116e-04 7.209093e-04 1.765034e-04 -1.153267e-04 1.634510e-04 3.987428e-04 3.891237e-04 3.633887e-04
<VARIANCE> 39
 6.119150e+03 9.535123e+01 6.783446e+00 6.090689e-03 1.685740e-02 8.838812e-02 1.522197e-01 4.598553e-02 6.006990e-02 1.054487e-01 7.601799e-02 1.189944e-01 5.133788e-02 1.418122e-02 7.743367e-03 8.257808e-05 2.318462e-04 3.716566e-04 6.694070e-04 9.975670e-04 1.291530e-03 1.395637e-03 1.522030e-03 1.763379e-03 5.579955e-04 1.180616e-04 7.945834e-05 5.869952e-06 1.362437e-05 2.389602e-05 4.147221e-05 6.702297e-05 7.865783e-05 8.376399e-05 9.050257e-05 1.092649e-04 3.356967e-05 8.080628e-06 5.853454e-06
<GCONST> -1.684133e+02
<TRANSP> 3
 0.000000e+00 1.000000e+00 0.000000e+00
 0.000000e+00 9.179977e-01 8.200235e-02
 0.000000e+00 0.000000e+00 0.000000e+00
<ENDHMM>
~h "Tab0002"
<BEGINHMM>
<NUMSTATES> 3
<STATE> 2
<MEAN> 39
 -3.857344e+02 2.273864e-01 -1.086853e-01 3.321683e-01 3.505464e-01 3.882108e-01 2.722184e-01 2.195938e-01 2.448478e-01 2.835588e-01 3.338217e-01 3.711947e-01 4.241495e-01 3.695307e-01 3.278658e-01 -3.778882e-04 -9.729807e-04 -1.385743e-03 -1.151977e-03 -1.571443e-03 -1.265468e-03 -1.413778e-03 -2.436257e-03 -4.917433e-04 2.143367e-03 1.536711e-03 5.087822e-04 -3.773591e-04 -2.123350e-04 -4.403146e-05 4.019428e-05 -1.709260e-04 -2.377119e-04 -4.499621e-04 -5.462671e-04 -5.804079e-04 -5.188982e-04 -7.521413e-04 -4.799207e-04
<VARIANCE> 39
 2.479556e+04 2.264576e+02 1.499622e+01 1.433010e-01 6.787662e-02 1.608946e-01 5.776196e-02 5.487336e-02 5.118769e-02 5.305722e-02 1.116655e-01 5.398319e-02 1.294907e-01 8.637338e-02 1.023681e-01 3.075822e-03 1.365001e-03 1.985870e-03 1.006379e-03 1.332537e-03 1.155703e-03 1.176334e-03 2.511891e-03 1.389683e-03 3.611318e-03 2.414728e-03 2.654912e-03 1.540741e-04 7.691130e-05 1.075368e-04 5.773686e-05 7.934913e-05 6.898430e-05 6.848761e-05 1.315662e-04 7.673064e-05 1.730476e-04 1.097842e-04 1.361009e-04
<GCONST> -1.267126e+02
<TRANSP> 3
 0.000000e+00 1.000000e+00 0.000000e+00
 0.000000e+00 9.184731e-01 8.152682e-02
 0.000000e+00 0.000000e+00 0.000000e+00
<ENDHMM>
~h "Tab0003"
<BEGINHMM>
<NUMSTATES> 3
<STATE> 2
<MEAN> 39
 -3.899526e+02 -4.003108e-01 3.947261e-02 1.635723e-01 4.525366e-01 6.901790e-01 4.848434e-01 2.988898e-01 2.776411e-01 3.005665e-01 3.009696e-01 3.475566e-01 4.330587e-01 2.832648e-01 1.370701e-01 6.461847e-04 5.694460e-04 -3.908575e-05 1.392400e-03 1.930485e-03 6.461338e-04 -5.277409e-04 -9.435053e-04 -5.948966e-04 -1.880809e-04 -1.154098e-04 1.463328e-04 2.808765e-04 -4.634998e-04 -1.115953e-03 -3.453662e-04 6.070188e-04 6.285702e-04 5.543918e-04 5.977330e-04 4.105171e-04 2.914797e-04 4.047524e-04 3.881920e-04
<VARIANCE> 39
 1.992624e+04 2.215690e+02 1.448715e+01 3.449658e-02 5.878720e-02 1.326732e-01 5.847487e-02 8.470085e-02 6.193954e-02 7.616539e-02 9.520558e-02 5.962235e-02 1.203464e-01 5.154803e-02 2.169072e-02 6.161968e-04 7.764981e-04 1.392525e-03 7.250875e-04 1.345474e-03 1.018712e-03 8.571831e-04 1.107117e-03 7.813052e-04 9.295567e-04 5.107517e-04 3.965360e-04 3.480872e-05 3.981838e-05 7.413769e-05 3.885163e-05 7.779024e-05 5.813673e-05 4.772649e-05 6.170837e-05 4.468168e-05 5.152273e-05 2.956743e-05 2.604733e-05
<GCONST> -1.483864e+02
<TRANSP> 3
 0.000000e+00 1.000000e+00 0.000000e+00
 0.000000e+00 9.067755e-01 9.322452e-02
 0.000000e+00 0.000000e+00 0.000000e+00
<ENDHMM>
~h "Tab0004"
<BEGINHMM>
<NUMSTATES> 3
<STATE> 2
<MEAN> 39
 -4.203095e+02 1.048752e+00 6.169274e-02 4.159065e-01 3.547412e-01 3.774071e-01 3.821895e-01 3.881036e-01 3.327761e-01 3.489744e-01 3.677429e-01 3.913767e-01 4.457833e-01 4.033369e-01 4.440359e-01 3.643276e-06 -1.542461e-03 -8.106580e-04 -2.104154e-04 1.122610e-03 2.306362e-03 3.679713e-03 2.950000e-03 1.503589e-03 7.293743e-04 2.046530e-03 2.522496e-03 -5.156894e-04 -1.975309e-04 3.311813e-05 -4.359877e-04 -6.830253e-04 -5.516127e-04 -3.224323e-04 -3.398186e-04 -8.282115e-04 -7.938452e-04 -6.016945e-04 -5.621659e-04
<VARIANCE> 39
 3.415832e+04 3.668701e+02 1.721641e+01 1.175234e-01 6.442648e-02 1.232177e-01 6.467187e-02 1.035247e-01 5.962039e-02 7.644636e-02 7.583357e-02 7.819492e-02 1.155150e-01 6.745710e-02 1.111556e-01 2.275496e-03 1.401177e-03 2.825573e-03 1.546562e-03 2.122746e-03 1.464144e-03 2.053096e-03 1.999981e-03 1.684297e-03 2.547563e-03 1.614175e-03 2.852689e-03 1.111427e-04 7.229722e-05 1.445758e-04 8.413522e-05 1.167657e-04 8.185605e-05 1.017329e-04 1.027639e-04 9.028972e-05 1.245133e-04 8.784145e-05 1.370732e-04
<GCONST> -1.236605e+02
<TRANSP> 3
 0.000000e+00 1.000000e+00 0.000000e+00
 0.000000e+00 8.627558e-01 1.372442e-01
 0.000000e+00 0.000000e+00 0.000000e+00
<ENDHMM>
~h "Tab0005"
<BEGINHMM>
<NUMSTATES> 3
<STATE> 2
<MEAN> 39
 -2.446883e+02 -5.420458e-01 -1.203407e+00 4.658480e-01 4.479684e-01 4.113584e-01 3.732027e-01 3.606613e-01 3.817047e-01 3.447384e-01 3.441728e-01 3.778592e-01 3.988664e-01 2.490290e-01 2.897422e-01 3.356692e-03 -9.391712e-03 -2.012539e-02 -2.285171e-02 -2.786464e-02 -2.626017e-02 -1.521014e-02 -1.099908e-02 -7.425369e-03 6.467011e-04 -2.505910e-03 -7.829472e-04 -6.545109e-04 -9.329965e-04 1.623690e-03 2.334568e-03 1.813636e-03 -3.915734e-04 -1.473712e-03 -2.903468e-03 -8.788354e-04 2.033380e-03 2.183146e-03 9.191023e-04
<VARIANCE> 39
 8.259003e+03 6.037427e+02 4.484826e+01 1.784148e-01 5.152735e-02 1.600208e-01 6.673221e-02 5.434288e-02 5.627977e-02 4.354309e-02 4.472756e-02 6.525689e-02 1.340899e-01 4.059463e-02 3.947409e-02 2.059672e-03 5.895355e-04 1.610507e-03 1.343919e-03 2.599725e-03 2.058318e-03 9.146290e-04 1.117862e-03 7.342816e-04 4.730648e-04 3.175942e-04 8.235066e-04 1.659098e-04 6.136596e-05 1.432656e-04 1.307061e-04 2.303660e-04 1.857376e-04 7.236096e-05 6.626343e-05 7.760285e-05 1.091804e-04 3.754969e-05 5.045403e-05
<GCONST> -1.351474e+02
<TRANSP> 3
 0.000000e+00 1.000000e+00 0.000000e+00
 0.000000e+00 4.811138e-01 5.188862e-01
 0.000000e+00 0.000000e+00 0.000000e+00
<ENDHMM>
~h "Tab0006"
<BEGINHMM>
<NUMSTATES> 3
<STATE> 2
<MEAN> 39
 -2.455618e+02 -2.903849e+00 -4.347472e-02 1.362138e-01 1.270628e-01 1.357829e-01 2.450267e-01 3.738641e-01 2.917955e-01 2.049423e-01 2.554911e-01 6.293177e-01 9.178120e-01 5.410529e-01 1.988216e-01 3.509756e-03 3.350597e-03 3.547485e-03 5.020865e-03 6.500473e-03 5.061293e-03 2.387228e-03 8.687540e-04 1.129834e-03 -1.226180e-03 7.639889e-05 3.390405e-03 1.210700e-03 9.507955e-04 8.120301e-04 7.816597e-04 9.134188e-04 1.081974e-03 1.261775e-03 1.323161e-03 5.835792e-04 -9.165799e-04 -5.751693e-04 7.704275e-04
<VARIANCE> 39
 8.604652e+03 4.665515e+02 3.577559e+01 1.260043e-02 1.210530e-02 2.066764e-02 5.731198e-02 1.261149e-01 5.952132e-02 2.231517e-02 3.506641e-02 3.645090e-02 2.438655e-02 1.363090e-02 1.584239e-02 3.489222e-04 2.524071e-04 4.640280e-04 9.059720e-04 1.780179e-03 8.272931e-04 6.489715e-04 1.105009e-03 1.115719e-03 4.477854e-04 2.979101e-04 5.574002e-04 3.101916e-05 1.647586e-05 2.580341e-05 5.237566e-05 1.047482e-04 5.091438e-05 3.683199e-05 5.998598e-05 7.366070e-05 3.711158e-05 2.096048e-05 3.752815e-05
<GCONST> -1.626790e+02
<TRANSP> 3
 0.000000e+00 1.000000e+00 0.000000e+00
 0.000000e+00 9.439204e-01 5.607951e-02
 0.000000e+00 0.000000e+00 0.000000e+00
<ENDHMM>
~h "Tab0007"
<BEGINHMM>
<NUMSTATES> 3
<STATE> 2
<MEAN> 39
 -2.411585e+02 1.386225e+01 -9.284812e-01 4.929255e-01 3.876830e-01 3.304060e-01 4.463084e-01 6.011372e-01 5.723401e-01 4.977620e-01 4.661040e-01 5.721636e-01 5.748509e-01 3.838419e-01 4.126128e-01 3.752097e-02 2.349304e-02 9.687746e-03 6.575845e-03 6.065182e-03 7.386105e-03 3.418990e-03 3.568752e-03 -3.198387e-02 -5.736063e-02 -2.924218e-02 1.403811e-02 -3.956742e-03 -4.068477e-03 -6.024899e-03 -7.724652e-03 -1.032992e-02 -9.957006e-03 -8.266146e-03 -6.344888e-03 -4.608780e-03 9.098611e-04 7.553208e-04 -3.284706e-03
<VARIANCE> 39
 1.076504e+04 3.824432e+02 3.685217e+01 1.308785e-01 5.956398e-02 4.877385e-02 5.626264e-02 8.607423e-02 6.684976e-02 5.250222e-02 5.266816e-02 6.912991e-02 1.172739e-01 4.388298e-02 4.456161e-02 6.706764e-03 1.970626e-03 2.930931e-03 3.146801e-03 4.324884e-03 3.109281e-03 1.492941e-03 1.264077e-03 1.858925e-03 4.274799e-03 1.224620e-03 2.559667e-03 1.834136e-04 8.804351e-05 9.093755e-05 1.353869e-04 2.070650e-04 1.459348e-04 5.457980e-05 5.821886e-05 9.550399e-05 2.048193e-04 4.921576e-05 9.254944e-05
<GCONST> -1.239720e+02
<TRANSP> 3
 0.000000e+00 1.000000e+00 0.000000e+00
 0.000000e+00 6.709285e-01 3.290716e-01
 0.000000e+00 0.000000e+00 0.000000e+00
<ENDHMM>
~h "Tab0008"
<BEGINHMM>
<NUMSTATES> 3
<STATE> 2
<MEAN> 39
 -3.110332e+02 -8.043275e-01 -6.949546e-01 2.060339e-01 2.141108e-01 2.685311e-01 4.096522e-01 5.146221e-01 5.373517e-01 5.368816e-01 3.909405e-01 2.584387e-01 2.279033e-01 2.189844e-01 2.483689e-01 8.570054e-04 3.266386e-03 -6.005724e-04 -8.141157e-03 -5.576895e-03 -4.844954e-04 3.035789e-03 1.262093e-03 -2.903864e-03 -6.983811e-03 -4.929414e-03 -2.356220e-03 1.272116e-03 1.770040e-03 4.847358e-04 -1.795015e-03 -2.130516e-03 -1.837387e-03 -2.472335e-03 -6.721393e-04 1.577677e-03 1.467592e-03 6.273751e-04 5.001378e-04
<VARIANCE> 39
 1.027784e+04 2.005409e+02 1.349024e+01 4.195279e-02 5.015788e-02 7.324111e-02 1.067326e-01 1.343450e-01 7.156446e-02 1.289836e-01 6.856322e-02 6.145113e-02 6.253153e-02 5.750623e-02 9.176099e-02 1.354715e-03 1.267229e-03 1.242433e-03 2.071948e-03 3.308647e-03 1.787918e-03 1.452823e-03 9.926519e-04 1.550312e-03 1.925839e-03 1.147637e-03 2.034081e-03 5.748479e-05 6.977204e-05 6.774848e-05 9.854033e-05 1.508876e-04 1.012459e-04 9.046000e-05 4.971702e-05 7.264977e-05 9.629621e-05 5.160186e-05 7.984362e-05
<GCONST> -1.331587e+02
<TRANSP> 3
 0.000000e+00 1.000000e+00 0.000000e+00
 0.000000e+00 6.549090e-01 3.450911e-01
 0.000000e+00 0.000000e+00 0.000000e+00
<ENDHMM>
~h "Tab0009"
<BEGINHMM>
<NUMSTATES> 3
<STATE> 2
<MEAN> 39
 -2.478295e+02 6.492980e+00 -1.854572e+00 1.206430e-01 4.951735e-01 9.070058e-01 6.475170e-01 3.355717e-01 3.033727e-01 3.253696e-01 3.193453e-01 2.827014e-01 2.388223e-01 1.478112e-01 9.214919e-02 -1.041067e-02 2.030988e-03 1.052084e-02 5.533189e-03 -1.087893e-02 -1.774449e-02 -2.296758e-02 -2.213585e-02 -1.308825e-02 -8.092317e-03 -6.193418e-03 -8.215942e-03 3.228230e-03 -1.388407e-03 -4.931936e-03 -1.927267e-03 1.687660e-04 -2.012020e-04 -1.117332e-03 -1.457243e-03 -1.411307e-03 -1.296133e-03 -2.274358e-04 2.260762e-03
<VARIANCE> 39
 1.432098e+04 6.727667e+02 4.614671e+01 1.168124e-02 3.650549e-02 5.347902e-02 1.611617e-02 9.667887e-02 5.765890e-02 3.441313e-02 3.636460e-02 3.574372e-02 1.722639e-02 6.562162e-03 3.933105e-03 1.317090e-03 9.037510e-04 8.657703e-04 1.038423e-03 3.828880e-03 2.893004e-03 2.205266e-03 1.956450e-03 1.189216e-03 5.392698e-04 2.518579e-04 3.959442e-04 9.594032e-05 2.920883e-05 6.219633e-05 3.770376e-05 1.725166e-04 1.414540e-04 1.080352e-04 9.457699e-05 6.405014e-05 4.114232e-05 2.094546e-05 3.349331e-05
<GCONST> -1.510887e+02
<TRANSP> 3
 0.000000e+00 1.000000e+00 0.000000e+00
 0.000000e+00 2.819921e-01 7.180079e-01
 0.000000e+00 0.000000e+00 0.000000e+00
<ENDHMM>
~h "Tab0010"
<BEGINHMM>
<NUMSTATES> 3
<STATE> 2
<MEAN> 39
 -3.337390e+02 3.619621e+01 3.391994e+00 2.505994e-01 6.232185e-01 9.030142e-01 6.921859e-01 5.850710e-01 6.103902e-01 5.497197e-01 4.793751e-01 4.211141e-01 3.061922e-01 2.138810e-01 1.530750e-01 -1.564827e-03 5.115283e-03 -5.787348e-03 -1.223881e-02 -1.202964e-02 6.887283e-03 2.384655e-02 2.855409e-02 8.461383e-03 -6.951845e-03 -1.273553e-02 -1.057768e-02 -5.180492e-03 -4.461125e-03 3.181621e-03 -3.244095e-03 -1.841226e-02 -1.956028e-02 -1.253394e-02 -9.979191e-03 -9.225557e-03 -4.866326e-03 -4.159055e-03 -2.492135e-03
<VARIANCE> 39
 1.653797e+04 1.633764e+02 3.579070e+01 1.875005e-02 3.105773e-02 3.919474e-02 1.391578e-02 3.916518e-02 7.642324e-02 7.263941e-02 5.225125e-02 3.407681e-02 1.861258e-02 1.556041e-02 4.223149e-03 6.876697e-04 3.125212e-04 2.474806e-04 1.074084e-04 1.742807e-03 1.915538e-03 8.196674e-04 4.909529e-04 3.635342e-04 1.446942e-04 1.999112e-04 4.494719e-04 2.422690e-05 2.031008e-05 4.810031e-05 1.184076e-05 3.000264e-05 5.749707e-05 3.903134e-05 3.862174e-05 1.132961e-05 9.361431e-06 1.372427e-05 1.125645e-05
<GCONST> -1.751615e+02
<TRANSP> 3
 0.000000e+00 1.000000e+00 0.000000e+00
 0.000000e+00 4.568270e-01 5.431730e-01
 0.000000e+00 0.000000e+00 0.000000e+00
<ENDHMM>
~h "Tab0011"
<BEGINHMM>
<NUMSTATES> 3
<STATE> 2
<MEAN> 39
 -4.963439e+02 1.494590e+00 -1.849711e-03 3.904151e-01 2.896639e-01 2.135072e-01 2.052270e-01 2.667091e-01 3.175056e-01 4.163990e-01 5.237082e-01 4.245060e-01 3.023289e-01 2.680580e-01 3.413810e-01 -1.017076e-03 -7.902067e-04 -7.088283e-04 -4.251965e-05 5.627724e-04 3.420317e-04 7.256334e-04 1.982639e-03 1.035713e-03 2.206024e-04 3.411504e-04 -5.247121e-04 -8.812433e-04 -5.416584e-04 -8.343851e-05 -1.201305e-04 -2.024328e-04 -4.409783e-04 -7.050572e-04 -5.858222e-04 -4.474117e-04 1.319945e-04 -7.896527e-05 -7.511100e-04
<VARIANCE> 39
 1.931970e+04 2.733618e+02 1.456711e+01 1.458573e-01 6.462678e-02 7.091964e-02 5.702312e-02 7.929963e-02 1.061867e-01 7.770834e-02 1.548515e-01 8.148415e-02 1.055831e-01 7.951167e-02 9.768493e-02 4.428917e-03 1.810256e-03 1.536882e-03 9.613660e-04 1.858355e-03 3.369940e-03 2.050671e-03 4.671761e-03 1.969195e-03 2.941320e-03 1.890728e-03 2.919873e-03 2.226455e-04 9.905129e-05 7.867008e-05 4.704270e-05 9.344317e-05 1.734341e-04 1.084234e-04 2.247140e-04 1.003210e-04 1.404240e-04 8.898624e-05 1.553704e-04
<GCONST> -1.206988e+02
<TRANSP> 3
 0.000000e+00 1.000000e+00 0.000000e+00
 0.000000e+00 8.775903e-01 1.224097e-01
 0.000000e+00 0.000000e+00 0.000000e+00
<ENDHMM>
~h "Tab0012"
<BEGINHMM>
<NUMSTATES> 3
<STATE> 2
<MEAN> 39
 -2.482793e+02 -1.065711e+01 -9.491722e-01 4.420771e-01 4.405224e-01 4.584076e-01 3.457762e-01 2.552729e-01 2.921789e-01 3.281737e-01 3.519047e-01 2.968433e-01 2.607533e-01 1.781260e-01 2.578203e-01 1.822804e-02 -2.050708e-03 -1.574271e-02 -8.042563e-03 -4.630091e-03 -1.076034e-02 -1.245091e-02 -1.324403e-02 -8.680867e-03 -1.504793e-03 2.053767e-03 1.303092e-02 3.170590e-03 1.449644e-03 7.959459e-04 3.043910e-03 6.391210e-03 5.582297e-03 3.278870e-03 1.729389e-03 1.809023e-03 6.125111e-04 1.099690e-03 3.203141e-03
<VARIANCE> 39
 5.596337e+03 3.904573e+02 4.312997e+01 1.953137e-01 5.302041e-02 1.774130e-01 6.742436e-02 2.993534e-02 3.230024e-02 4.733239e-02 8.359540e-02 3.700439e-02 7.667862e-02 2.375799e-02 4.518986e-02 1.946570e-03 1.644233e-04 2.086887e-03 1.310291e-03 2.452186e-03 2.184985e-03 5.942979e-04 2.675316e-04 3.506867e-04 5.751030e-04 2.745609e-04 6.415623e-04 1.420914e-04 2.168455e-05 1.634653e-04 1.140696e-04 1.404986e-04 1.234255e-04 4.138575e-05 3.025977e-05 2.559373e-05 6.778797e-05 2.738797e-05 3.712579e-05
<GCONST> -1.473000e+02
<TRANSP> 3
 0.000000e+00 1.000000e+00 0.000000e+00
 0.000000e+00 7.612146e-01 2.387854e-01
 0.000000e+00 0.000000e+00 0.000000e+00
<ENDHMM>
~h "Tab0014"
<BEGINHMM>
<NUMSTATES> 3
<STATE> 2
<MEAN> 39
 -2.594273e+02 -1.338798e+00 6.753592e-02 1.859150e-01 1.210370e-01 8.949988e-02 1.157434e-01 1.660387e-01 1.964981e-01 2.971852e-01 4.397691e-01 6.240675e-01 7.048600e-01 4.332918e-01 2.380785e-01 -1.454679e-03 -5.568495e-04 8.842255e-04 9.752289e-04 4.808450e-04 -9.172437e-04 4.249159e-04 2.364766e-03 8.739495e-04 -7.886281e-04 2.945957e-04 -3.954389e-04 6.673788e-04 7.296342e-04 1.003978e-03 1.320451e-03 1.638804e-03 1.434497e-03 6.751743e-04 9.518894e-05 2.578094e-04 2.095913e-04 2.217687e-04 5.586311e-04
<VARIANCE> 39
 1.055580e+04 6.151551e+02 4.276683e+01 8.426272e-02 2.801732e-02 7.241176e-03 6.653616e-03 1.620687e-02 2.251621e-02 6.316981e-02 1.157712e-01 5.513634e-02 1.491349e-01 5.577734e-02 6.709702e-02 3.633443e-04 2.021622e-04 2.349933e-04 3.597674e-04 5.671199e-04 7.416764e-04 8.975604e-04 1.349317e-03 9.329318e-04 7.869261e-04 7.213286e-04 7.366267e-04 3.205392e-05 1.619597e-05 2.004725e-05 2.705243e-05 4.088700e-05 4.867367e-05 5.057501e-05 7.336673e-05 6.263683e-05 5.318722e-05 3.940220e-05 4.571184e-05
<GCONST> -1.594992e+02
<TRANSP> 3
 0.000000e+00 1.000000e+00 0.000000e+00
 0.000000e+00 9.097176e-01 9.028235e-02
 0.000000e+00 0.000000e+00 0.000000e+00
<ENDHMM>
~h "Tab0015"
<BEGINHMM>
<NUMSTATES> 3
<STATE> 2
<MEAN> 39
 -2.192847e+02 8.721162e-01 -9.677204e-02 3.655093e-01 2.868319e-01 3.928575e-01 5.658147e-01 7.698029e-01 6.318918e-01 4.007673e-01 3.098830e-01 3.452453e-01 4.203822e-01 4.411825e-01 4.773900e-01 5.546706e-04 1.368219e-04 -4.494969e-04 -1.804334e-03 -2.352487e-03 -3.490161e-04 1.435218e-03 1.939345e-03 -5.797266e-04 -2.364377e-03 -1.810778e-03 -2.767241e-04 -7.716913e-04 -4.070423e-04 -2.917580e-04 -8.835619e-04 -1.580154e-03 -1.555751e-03 -8.514785e-04 -3.863299e-04 -2.559398e-04 -1.224032e-04 -2.789253e-04 -6.219400e-04
<VARIANCE> 39
 5.661042e+03 3.004928e+02 2.274819e+01 6.801942e-02 4.667054e-02 6.712616e-02 6.177638e-02 7.863576e-02 5.612754e-02 4.620153e-02 3.602868e-02 6.582043e-02 1.279233e-01 4.810129e-02 1.083708e-01 1.878215e-03 1.060460e-03 1.890664e-03 2.019055e-03 3.174824e-03 2.658340e-03 1.489048e-03 1.128132e-03 1.322197e-03 2.312919e-03 1.553582e-03 2.495690e-03 8.969381e-05 5.764922e-05 1.060968e-04 1.240385e-04 1.882600e-04 1.580096e-04 8.832436e-05 6.566544e-05 8.292975e-05 1.255393e-04 9.181316e-05 1.489241e-04
<GCONST> -1.296950e+02
<TRANSP> 3
 0.000000e+00 1.000000e+00 0.000000e+00
 0.000000e+00 9.709783e-01 2.902168e-02
 0.000000e+00 0.000000e+00 0.000000e+00
<ENDHMM>
~h "Tab0016"
<BEGINHMM>
<NUMSTATES> 3
<STATE> 2
<MEAN> 39
 -2.655063e+02 -3.972443e+00 5.116442e-01 1.268431e-01 4.901846e-01 8.372674e-01 5.620268e-01 2.561946e-01 2.251004e-01 2.493347e-01 2.474916e-01 2.814121e-01 3.026345e-01 1.855928e-01 1.050411e-01 5.308756e-03 3.446845e-03 -1.591465e-04 5.094796e-03 6.182284e-03 1.897650e-03 -2.216867e-03 -3.745617e-03 -2.211277e-03 -1.295310e-03 5.276015e-04 2.993377e-03 3.043634e-03 6.750372e-04 -8.451447e-04 1.349626e-03 4.312570e-03 4.987423e-03 3.789115e-03 2.988113e-03 1.722545e-03 3.857029e-04 9.159489e-04 2.430340e-03
<VARIANCE> 39
 8.950085e+03 4.968256e+02 3.653908e+01 1.387012e-02 4.430006e-02 1.173580e-01 3.675912e-02 6.197843e-02 4.152812e-02 3.154977e-02 2.579482e-02 4.339631e-02 7.220434e-02 2.336437e-02 5.528500e-03 6.544557e-04 4.564954e-04 2.766158e-04 4.694557e-04 2.332694e-03 2.034623e-03 1.291625e-03 1.216534e-03 8.397920e-04 3.988813e-04 2.483105e-04 2.877757e-04 6.315120e-05 3.441925e-05 4.427171e-05 4.188937e-05 1.748105e-04 1.535638e-04 8.295302e-05 6.909129e-05 5.252051e-05 3.954208e-05 2.295376e-05 3.181798e-05
<GCONST> -1.554122e+02
<TRANSP> 3
 0.000000e+00 1.000000e+00 0.000000e+00
 0.000000e+00 7.405434e-01 2.594567e-01
 0.000000e+00 0.000000e+00 0.000000e+00
<ENDHMM>
~h "Tab0017"
<BEGINHMM>
<NUMSTATES> 3
<STATE> 2
<MEAN> 39
 -7.415212e+02 8.433840e-02 -1.443561e-01 1.227804e-02 5.592687e-03 4.189612e-03 6.003670e-03 8.829914e-03 7.662781e-03 1.329780e-02 1.801521e-02 2.133092e-02 2.412060e-02 2.160923e-02 2.061913e-02 -4.817148e-04 -3.333093e-04 -3.726658e-05 -1.469065e-04 -3.641140e-04 -3.752899e-04 -3.038014e-04 -3.557977e-04 -2.732218e-05 6.570519e-05 8.158719e-04 1.846617e-04 1.839799e-04 1.829894e-04 7.345185e-05 5.948521e-05 9.075309e-05 6.353082e-05 5.100253e-05 3.379109e-05 3.745152e-05 9.457428e-06 -1.009015e-04 -5.404690e-05
<VARIANCE> 39
 9.264891e+03 1.972232e+01 2.317898e+00 5.931560e-03 1.141233e-03 1.011769e-03 9.966856e-04 2.557726e-03 1.403226e-03 5.513480e-03 1.388685e-02 1.190014e-02 2.127796e-02 1.115620e-02 1.737819e-02 5.209076e-05 5.043293e-05 8.173934e-06 6.037209e-06 9.842092e-06 1.118012e-05 2.337785e-05 1.214951e-05 7.292997e-06 9.102586e-06 7.349826e-05 2.956846e-05 2.078405e-06 1.918883e-06 4.262554e-07 3.355660e-07 8.879236e-07 1.215914e-06 1.259008e-06 5.102124e-07 4.137804e-07 4.840364e-07 2.071592e-06 1.743994e-06
<GCONST> -2.787424e+02
<TRANSP> 3
 0.000000e+00 1.000000e+00 0.000000e+00
 0.000000e+00 9.395410e-01 6.045895e-02
 0.000000e+00 0.000000e+00 0.000000e+00
<ENDHMM>
~h "Tab0020"
<BEGINHMM>
<NUMSTATES> 3
<STATE> 2
<MEAN> 39
 -3.310836e+02 -3.397807e-02 -3.122886e-02 8.446289e-01 4.958726e-01 1.535551e-01 1.669392e-01 2.286972e-01 1.862999e-01 1.969476e-01 2.592612e-01 1.820496e-01 1.334356e-01 1.706939e-01 5.303843e-01 2.600271e-03 -8.100702e-05 -2.825830e-03 -1.001017e-03 7.120869e-05 -4.611169e-04 -5.871152e-04 -4.019217e-04 -5.845736e-04 -1.054321e-03 -5.721751e-04 1.217897e-03 -3.927468e-05 1.733365e-04 2.188400e-04 1.264301e-04 -7.818016e-07 7.903276e-05 7.530891e-05 4.341302e-05 6.751972e-05 5.499320e-05 1.049243e-04 -8.909608e-05
<VARIANCE> 39
 3.823541e+03 5.864508e+01 2.877728e+00 1.004617e-01 2.951135e-02 2.358695e-02 2.114264e-02 6.426818e-02 6.637248e-02 1.583737e-02 2.901576e-02 9.048671e-03 4.138282e-03 5.976136e-03 3.238679e-02 1.628675e-03 4.872048e-04 3.850924e-04 6.487665e-04 1.354123e-03 1.418967e-03 3.819583e-04 2.684935e-04 1.153647e-04 1.419978e-04 1.686399e-04 4.727544e-04 7.126500e-05 2.243749e-05 1.609945e-05 3.827880e-05 6.416500e-05 6.731154e-05 2.358682e-05 1.677904e-05 7.477991e-06 9.327338e-06 9.830758e-06 2.209485e-05
<GCONST> -1.810392e+02
<TRANSP> 3
 0.000000e+00 1.000000e+00 0.000000e+00
 0.000000e+00 9.240513e-01 7.594871e-02
 0.000000e+00 0.000000e+00 0.000000e+00
<ENDHMM>
~h "Tab0021"
<BEGINHMM>
<NUMSTATES> 3
<STATE> 2
<MEAN> 39
 -2.797681e+02 -7.915626e-01 3.317073e-03 1.285718e-01 2.035024e-01 2.614222e-01 1.771863e-01 1.195064e-01 1.522369e-01 5.675973e-01 9.903782e-01 5.519162e-01 1.318169e-01 1.043649e-01 1.318482e-01 1.740374e-04 2.743551e-04 5.181426e-04 5.183035e-04 2.833284e-04 3.880612e-04 5.181085e-04 -1.196414e-04 2.287258e-04 2.612583e-04 2.118863e-04 3.454830e-04 5.090501e-05 3.901742e-05 7.442728e-05 1.222884e-04 1.822516e-04 2.935409e-04 2.947554e-04 7.963722e-05 -2.007256e-04 5.586867e-05 6.430500e-05 3.385078e-05
<VARIANCE> 39
 3.872017e+02 2.554527e+01 1.116482e+00 8.093266e-03 3.505376e-03 2.005558e-03 2.887884e-03 3.820252e-03 5.004074e-03 1.078886e-02 8.099019e-03 7.623242e-03 2.197251e-03 7.854612e-04 2.833712e-03 7.738464e-06 1.125893e-05 4.588430e-05 9.875106e-05 9.217164e-05 2.015870e-04 2.236101e-04 9.380564e-06 7.284219e-05 2.366649e-05 7.371488e-06 2.200032e-05 4.039318e-07 4.181819e-07 2.391420e-06 6.853948e-06 6.258573e-06 1.460316e-05 1.336836e-05 5.102124e-07 5.867819e-06 2.312641e-06 3.307438e-07 1.010750e-06
<GCONST> -2.654662e+02
<TRANSP> 3
 0.000000e+00 1.000000e+00 0.000000e+00
 0.000000e+00 6.622471e-01 3.377529e-01
 0.000000e+00 0.000000e+00 0.000000e+00
<ENDHMM>
~h "Tab0023"
<BEGINHMM>
<NUMSTATES> 3
<STATE> 2
<MEAN> 39
 -2.560143e+02 2.067184e-01 -1.773974e-01 8.590757e-02 6.252988e-02 5.703804e-02 1.080911e-01 1.582830e-01 1.424078e-01 1.737108e-01 2.992261e-01 7.122957e-01 9.919707e-01 5.593855e-01 1.772890e-01 3.435076e-04 5.156389e-04 4.338557e-04 2.078822e-03 4.137328e-03 1.405380e-03 -2.859457e-03 -4.566752e-03 -1.482495e-03 1.431946e-03 7.298215e-04 2.242538e-04 7.296314e-04 6.881887e-04 6.689641e-04 9.192846e-04 1.291872e-03 1.244730e-03 8.266105e-04 8.105274e-04 4.659442e-05 -1.098397e-03 -3.122014e-04 6.311290e-04
<VARIANCE> 39
 1.109226e+04 6.555612e+02 4.507562e+01 3.811464e-03 1.390619e-03 2.300475e-03 7.459024e-03 1.302505e-02 8.764246e-03 1.970315e-02 4.288062e-02 3.041813e-02 1.720129e-03 1.114314e-02 1.593574e-02 1.550337e-04 5.725275e-05 1.017908e-04 2.882984e-04 7.481131e-04 5.436940e-04 7.902245e-04 1.547688e-03 1.239761e-03 1.173222e-04 2.819785e-04 6.355789e-04 1.666496e-05 6.602579e-06 8.316317e-06 1.735847e-05 3.423200e-05 2.796109e-05 4.526403e-05 8.388617e-05 8.179972e-05 1.321890e-05 1.489368e-05 4.155169e-05
<GCONST> -1.895688e+02
<TRANSP> 3
 0.000000e+00 1.000000e+00 0.000000e+00
 0.000000e+00 8.541206e-01 1.458795e-01
 0.000000e+00 0.000000e+00 0.000000e+00
<ENDHMM>
~h "Tab0024"
<BEGINHMM>
<NUMSTATES> 3
<STATE> 2
<MEAN> 39
 -4.330702e+02 -1.090387e+00 1.910766e-01 5.322142e-01 7.229177e-01 4.096086e-01 1.166930e-01 7.426332e-02 7.736938e-02 1.257995e-01 2.593239e-01 3.452179e-01 2.076943e-01 1.653593e-01 2.626264e-01 8.720384e-04 3.239730e-03 3.295237e-03 1.153721e-03 -1.420371e-04 -6.787628e-04 -2.807857e-03 -3.732793e-03 -1.303431e-03 4.478913e-04 -2.010600e-03 -2.017390e-03 -6.628126e-04 -1.078763e-03 5.526829e-04 1.757603e-03 1.417836e-03 1.497729e-03 1.419051e-03 1.323073e-03 1.105574e-03 1.651604e-03 1.381511e-03 5.244997e-04
<VARIANCE> 39
 1.256763e+04 7.560546e+01 6.096447e+00 5.884738e-02 1.453372e-01 5.251076e-02 1.089466e-02 8.645929e-03 8.789146e-03 2.773560e-02 7.384497e-02 1.343608e-01 3.343063e-02 3.038420e-02 7.463426e-02 4.328765e-04 1.394009e-03 5.784029e-04 2.402789e-04 1.184539e-04 9.456256e-05 2.882181e-04 3.593023e-04 2.236398e-04 2.887226e-04 6.223096e-04 1.603327e-03 3.378360e-05 8.104587e-05 3.234128e-05 2.807868e-05 1.582561e-05 1.891649e-05 3.408320e-05 3.580738e-05 3.297155e-05 3.023223e-05 4.254715e-05 9.509260e-05
<GCONST> -1.700630e+02
<TRANSP> 3
 0.000000e+00 1.000000e+00 0.000000e+00
 0.000000e+00 7.435192e-01 2.564807e-01
 0.000000e+00 0.000000e+00 0.000000e+00
<ENDHMM>
~h "Tab0025"
<BEGINHMM>
<NUMSTATES> 3
<STATE> 2
<MEAN> 39
 -2.360019e+02 4.407268e-01 -1.413193e-01 4.994439e-01 3.505033e-01 2.681116e-01 2.392352e-01 2.698804e-01 2.960476e-01 5.612167e-01 7.531598e-01 7.940350e-01 5.058690e-01 3.569104e-01 5.889020e-01 -6.837244e-04 9.118941e-04 4.667371e-04 -4.453823e-04 -2.418818e-04 -7.064124e-06 2.082287e-03 2.737944e-03 8.098705e-04 -3.991835e-05 1.542375e-04 -5.482518e-04 6.096088e-05 4.677409e-04 -9.853108e-05 -5.255534e-04 -3.504634e-04 -5.216117e-04 -9.380631e-04 -1.191413e-03 -1.303281e-03 -8.500724e-04 -4.384748e-04 -4.961433e-04
<VARIANCE> 39
 4.055756e+03 2.153682e+02 1.654916e+01 2.725819e-02 1.247974e-01 4.065232e-02 9.837070e-03 1.471717e-02 2.236005e-02 4.611930e-02 4.381559e-02 5.810689e-02 3.380370e-02 2.913164e-02 1.082663e-01 1.053956e-03 4.743445e-03 1.337877e-03 4.003204e-04 7.268583e-04 9.686789e-04 2.004270e-03 1.802351e-03 2.384054e-03 1.409204e-03 1.160756e-03 4.284016e-03 6.688085e-05 2.702123e-04 8.057489e-05 2.018606e-05 4.267474e-05 5.465370e-05 1.131354e-04 9.690458e-05 1.236552e-04 7.150659e-05 7.041468e-05 2.796781e-04
<GCONST> -1.422756e+02
<TRANSP> 3
 0.000000e+00 1.000000e+00 0.000000e+00
 0.000000e+00 9.405517e-01 5.944832e-02
 0.000000e+00 0.000000e+00 0.000000e+00
<ENDHMM>
~h "Tab0026"
<BEGINHMM>
<NUMSTATES> 3
<STATE> 2
<MEAN> 39
 -2.143876e+02 2.500695e-01 -5.593579e-02 2.607733e-01 3.613521e-01 3.577671e-01 4.759461e-01 5.428783e-01 5.363349e-01 5.799674e-01 5.855913e-01 4.958401e-01 5.604675e-01 7.243821e-01 4.914725e-01 -1.901636e-03 -4.511074e-03 -2.115534e-03 1.627931e-03 2.553246e-03 2.661508e-03 2.716564e-03 2.071252e-03 2.802427e-03 3.443146e-03 4.292408e-03 2.307153e-03 2.152896e-04 4.615835e-04 -2.402036e-05 -5.728027e-04 -5.361148e-04 -5.836737e-04 -2.546482e-04 -1.957325e-04 -2.224864e-04 -2.449240e-04 -5.431799e-04 -4.635639e-04
<VARIANCE> 39
 4.138947e+03 2.320577e+02 1.804397e+01 4.019077e-02 1.119039e-01 4.088660e-02 5.179770e-02 7.168873e-02 6.329234e-02 6.926201e-02 7.911341e-02 3.878039e-02 4.741922e-02 1.387337e-01 4.590049e-02 1.576621e-03 4.376801e-03 1.520574e-03 2.353059e-03 3.188264e-03 3.063781e-03 4.434322e-03 4.341345e-03 1.906629e-03 1.806533e-03 5.476414e-03 1.752278e-03 9.850825e-05 2.542895e-04 1.036047e-04 1.462105e-04 1.952895e-04 1.815919e-04 3.338185e-04 3.206244e-04 1.304501e-04 1.025579e-04 3.434071e-04 1.041935e-04
<GCONST> -1.201136e+02
<TRANSP> 3
 0.000000e+00 1.000000e+00 0.000000e+00
 0.000000e+00 9.382709e-01 6.172908e-02
 0.000000e+00 0.000000e+00 0.000000e+00
<ENDHMM>
~h "Tab0027"
<BEGINHMM>
<NUMSTATES> 3
<STATE> 2
<MEAN> 39
 -2.076221e+02 -4.356113e-01 -4.073934e-01 2.254668e-01 1.758064e-01 2.499867e-01 4.606536e-01 7.210288e-01 5.601978e-01 3.215959e-01 2.943955e-01 5.664379e-01 8.428722e-01 5.631453e-01 3.757943e-01 2.102824e-03 2.201449e-03 2.358580e-03 4.626262e-03 4.877808e-03 2.544790e-03 -1.206887e-03 -2.877906e-03 -2.551285e-03 -1.355205e-03 -3.439381e-04 1.656365e-03 3.377240e-04 5.977142e-04 7.624956e-04 7.702623e-04 3.137578e-04 3.371899e-04 9.200265e-04 8.561733e-04 6.708010e-04 -2.813702e-04 1.179792e-04 5.299406e-04
<VARIANCE> 39
 3.361389e+03 2.229062e+02 1.559844e+01 1.660078e-02 1.066657e-02 2.834943e-02 7.785166e-02 1.365924e-01 6.553851e-02 2.326099e-02 3.922078e-02 3.406651e-02 3.011207e-02 2.070915e-02 3.979084e-02 4.791218e-04 4.514460e-04 1.192646e-03 2.439295e-03 4.458422e-03 2.220397e-03 1.004575e-03 1.518716e-03 1.266849e-03 1.101953e-03 5.426864e-04 1.328890e-03 3.067782e-05 2.395261e-05 6.359250e-05 1.542026e-04 2.858591e-04 1.283369e-04 4.961907e-05 9.112097e-05 8.659197e-05 7.359442e-05 3.930843e-05 8.689924e-05
<GCONST> -1.473105e+02
<TRANSP> 3
 0.000000e+00 1.000000e+00 0.000000e+00
 0.000000e+00 9.390321e-01 6.096789e-02
 0.000000e+00 0.000000e+00 0.000000e+00
<ENDHMM>
~h "Tab0028"
<BEGINHMM>
<NUMSTATES> 3
<STATE> 2
<MEAN> 39
 -2.187721e+02 -3.131725e-01 -1.146396e-01 4.547295e-01 6.148178e-01 5.920794e-01 6.283968e-01 6.938278e-01 5.154569e-01 3.562711e-01 5.062642e-01 6.021676e-01 3.686098e-01 2.368818e-01 3.827471e-01 1.193080e-03 2.479691e-03 1.328563e-03 -1.642618e-03 -2.966405e-03 -1.459166e-03 1.556200e-03 2.513000e-03 7.350980e-04 -9.611127e-04 -9.916720e-04 -2.174893e-04 -8.443780e-05 1.207459e-04 -1.866810e-05 -5.880633e-04 -5.447576e-04 -4.514759e-04 -3.810493e-04 -4.941967e-04 -5.481883e-04 -2.380725e-04 -1.710006e-04 -3.394600e-04
<VARIANCE> 39
 4.479747e+03 2.439039e+02 1.782692e+01 2.436144e-02 9.393766e-02 5.160370e-02 9.215765e-02 1.259214e-01 5.770488e-02 4.414055e-02 3.745779e-02 7.786041e-02 3.527915e-02 1.944697e-02 4.124051e-02 8.559530e-04 2.558466e-03 1.021717e-03 3.560242e-03 5.274884e-03 2.524911e-03 1.622626e-03 1.617352e-03 2.754378e-03 1.304457e-03 8.776168e-04 1.855097e-03 5.330629e-05 1.548171e-04 6.128002e-05 1.761344e-04 3.086088e-04 1.422478e-04 9.820050e-05 1.021574e-04 1.905754e-04 8.325281e-05 5.385773e-05 1.150328e-04
<GCONST> -1.319934e+02
<TRANSP> 3
 0.000000e+00 1.000000e+00 0.000000e+00
 0.000000e+00 9.434822e-01 5.651788e-02
 0.000000e+00 0.000000e+00 0.000000e+00
<ENDHMM>
~h "Tab0030"
<BEGINHMM>
<NUMSTATES> 3
<STATE> 2
<MEAN> 39
 -3.416079e+02 1.273882e-01 -6.366188e-02 3.285256e-01 2.143260e-01 2.033445e-01 2.695703e-01 3.059680e-01 2.310667e-01 2.323521e-01 2.842352e-01 3.874176e-01 4.029974e-01 3.872874e-01 4.461704e-01 -3.549332e-04 3.350198e-04 2.278246e-04 -5.124125e-04 -5.756309e-04 -2.435694e-04 -2.203461e-04 -2.441078e-05 4.666817e-04 5.385837e-04 -1.297444e-04 -7.072107e-04 -1.658776e-04 2.048697e-05 -1.966691e-05 1.944462e-05 7.670246e-05 -1.215580e-06 -1.758682e-04 -1.235435e-04 7.218761e-05 6.272379e-05 -2.080188e-04 -4.178116e-04
<VARIANCE> 39
 1.265834e+04 3.185420e+02 2.389748e+01 7.838255e-02 8.171577e-02 6.832924e-02 8.106416e-02 1.269304e-01 4.590297e-02 6.127465e-02 5.584883e-02 9.196950e-02 1.071008e-01 6.237489e-02 1.572391e-01 1.956534e-03 1.484677e-03 1.538560e-03 1.962200e-03 2.912720e-03 1.134848e-03 1.439816e-03 1.449823e-03 2.368838e-03 2.563414e-03 1.392593e-03 3.770141e-03 9.408526e-05 7.069376e-05 7.971700e-05 9.708518e-05 1.336440e-04 5.559975e-05 7.538239e-05 8.284135e-05 1.284220e-04 1.270810e-04 7.506397e-05 1.759701e-04
<GCONST> -1.267695e+02
<TRANSP> 3
 0.000000e+00 1.000000e+00 0.000000e+00
 0.000000e+00 8.496918e-01 1.503081e-01
 0.000000e+00 0.000000e+00 0.000000e+00
<ENDHMM>
~h "Tab0031"
<BEGINHMM>
<NUMSTATES> 3
<STATE> 2
<MEAN> 39
 -4.628364e+02 1.033457e+00 -3.371223e-01 3.478434e-01 3.517383e-01 3.287654e-01 3.178076e-01 3.568905e-01 2.730516e-01 2.175219e-01 2.437128e-01 3.069466e-01 3.594598e-01 3.281735e-01 3.249412e-01 1.700241e-04 4.329788e-05 -7.290012e-04 1.073560e-03 1.805642e-03 3.816993e-04 -1.803393e-03 -2.101708e-03 3.661881e-04 -2.523097e-04 -2.674057e-03 -3.017868e-03 -1.179009e-04 -2.047690e-04 -2.584950e-04 -1.095259e-03 -1.481298e-03 -6.170282e-04 3.146415e-04 6.074427e-04 5.161848e-05 -7.627299e-06 -4.643178e-05 -6.789305e-05
<VARIANCE> 39
 2.806268e+04 3.377296e+02 1.987584e+01 1.223678e-01 9.265750e-02 1.260185e-01 6.900989e-02 1.339969e-01 7.413912e-02 6.148517e-02 8.151393e-02 8.387407e-02 1.242453e-01 8.074736e-02 9.241796e-02 1.890346e-03 2.106067e-03 3.089807e-03 1.615963e-03 3.021543e-03 1.453815e-03 1.603991e-03 2.755195e-03 1.643375e-03 2.352706e-03 1.917089e-03 1.909041e-03 9.250723e-05 1.087899e-04 1.422473e-04 7.235610e-05 1.412499e-04 6.782570e-05 7.044368e-05 1.194144e-04 7.833739e-05 1.147903e-04 8.650053e-05 1.001788e-04
<GCONST> -1.231047e+02
<TRANSP> 3
 0.000000e+00 1.000000e+00 0.000000e+00
 0.000000e+00 7.369107e-01 2.630893e-01
 0.000000e+00 0.000000e+00 0.000000e+00
<ENDHMM>
~h "Tab0033"
<BEGINHMM>
<NUMSTATES> 3
<STATE> 2
<MEAN> 39
 -4.761007e+02 -2.334775e-01 5.067829e-02 9.168602e-02 2.367423e-01 3.713403e-01 2.483048e-01 1.837474e-01 1.974462e-01 1.111447e-01 7.002488e-02 1.958138e-01 3.248001e-01 2.001737e-01 8.595207e-02 -7.788762e-04 -1.895921e-04 9.047706e-05 3.226183e-05 1.061318e-05 8.575071e-05 -4.475432e-04 -8.801562e-04 2.850483e-04 1.253118e-03 6.804361e-04 -1.993272e-04 3.435367e-04 1.794332e-04 -6.110981e-05 4.780196e-05 1.686672e-04 1.022571e-04 1.504582e-04 2.140425e-04 2.422405e-05 -1.131652e-04 8.751731e-05 2.151592e-04
<VARIANCE> 39
 2.908771e+04 4.340166e+01 2.326222e+00 2.822879e-02 6.973580e-02 1.984095e-01 6.689720e-02 6.983536e-02 8.099285e-02 2.600620e-02 2.154551e-02 4.968672e-02 1.481447e-01 5.413976e-02 1.758162e-02 3.940835e-04 7.066077e-04 1.401778e-03 4.955870e-04 4.088798e-04 2.045331e-04 1.295187e-04 1.795093e-04 7.137549e-04 2.051623e-03 5.806494e-04 1.475509e-04 2.969429e-05 4.427665e-05 9.306828e-05 3.145984e-05 2.493731e-05 1.281234e-05 8.275401e-06 1.195584e-05 4.396979e-05 1.260050e-04 3.616732e-05 1.229642e-05
<GCONST> -1.669117e+02
<TRANSP> 3
 0.000000e+00 1.000000e+00 0.000000e+00
 0.000000e+00 9.468257e-01 5.317426e-02
 0.000000e+00 0.000000e+00 0.000000e+00
<ENDHMM>
~h "Tab0035"
<BEGINHMM>
<NUMSTATES> 3
<STATE> 2
<MEAN> 39
 -4.449878e+02 -8.797574e-02 1.536545e-01 3.899797e-01 2.889258e-01 2.952372e-01 2.109812e-01 2.109426e-01 2.292513e-01 1.385727e-01 8.958751e-02 2.106827e-01 3.038800e-01 3.256170e-01 4.634311e-01 -5.845185e-03 -3.447845e-03 6.928304e-05 3.377520e-03 3.145547e-03 -2.750613e-03 -1.809560e-03 -2.012234e-04 -1.734917e-03 -2.119089e-03 4.760707e-04 -1.858652e-03 2.419167e-04 -1.297354e-05 -4.270831e-04 -3.623476e-05 9.213215e-04 7.085889e-04 2.361687e-04 3.541499e-04 1.252849e-04 -6.059172e-04 -3.700662e-04 1.902680e-04
<VARIANCE> 39
 4.624871e+03 8.206981e+01 7.456290e+00 8.966684e-02 6.802012e-02 1.439240e-01 6.021495e-02 6.258195e-02 5.653360e-02 2.872442e-02 2.037788e-02 5.360269e-02 1.134945e-01 5.135811e-02 1.488503e-01 1.791014e-03 1.528451e-03 3.169511e-03 8.148240e-04 1.629174e-03 8.038793e-04 4.337431e-04 2.441548e-04 9.769215e-04 1.900295e-03 1.099816e-03 3.634895e-03 9.144488e-05 7.052886e-05 1.292728e-04 3.705278e-05 6.789060e-05 3.271436e-05 2.183354e-05 2.135281e-05 6.109233e-05 9.069581e-05 5.236411e-05 1.698855e-04
<GCONST> -1.442631e+02
<TRANSP> 3
 0.000000e+00 1.000000e+00 0.000000e+00
 0.000000e+00 7.383104e-01 2.616896e-01
 0.000000e+00 0.000000e+00 0.000000e+00
<ENDHMM>
~h "Tab0036"
<BEGINHMM>
<NUMSTATES> 3
<STATE> 2
<MEAN> 39
 -2.927968e+02 2.211242e-02 3.687481e-03 4.567516e-01 1.481143e-01 1.545238e-01 2.623469e-01 2.257279e-01 1.777372e-01 2.125081e-01 1.958409e-01 2.207337e-01 2.548696e-01 5.379340e-01 7.619542e-01 8.644427e-05 1.176483e-05 -6.667037e-05 2.663951e-05 1.168923e-04 2.886821e-05 -3.241824e-05 -2.740384e-05 6.230400e-05 2.852373e-05 7.473643e-05 5.873471e-05 -1.988502e-04 2.905891e-05 1.178140e-05 -3.791017e-05 -3.668742e-05 2.683539e-04 5.524906e-04 2.566635e-04 -6.406299e-06 2.572993e-05 -1.251042e-04 -3.843836e-04
<VARIANCE> 39
 1.633104e+03 2.592866e+01 6.224946e-01 4.378488e-02 9.209625e-03 2.578123e-02 8.760092e-02 8.834068e-02 2.299421e-02 2.919871e-02 1.966125e-02 6.678699e-02 6.220960e-02 4.122518e-02 1.208451e-01 1.605634e-03 1.561898e-04 1.153907e-03 3.684737e-03 3.766105e-03 1.122147e-03 1.472002e-03 8.656679e-04 2.854742e-03 2.397380e-03 1.000681e-03 5.802025e-03 8.408698e-05 5.422086e-06 7.347859e-05 2.259258e-04 2.318636e-04 6.952240e-05 8.711241e-05 5.368572e-05 1.761538e-04 1.446654e-04 4.475235e-05 3.338474e-04
<GCONST> -1.460133e+02
<TRANSP> 3
 0.000000e+00 1.000000e+00 0.000000e+00
 0.000000e+00 9.664423e-01 3.355760e-02
 0.000000e+00 0.000000e+00 0.000000e+00
<ENDHMM>
~h "Tab0038"
<BEGINHMM>
<NUMSTATES> 3
<STATE> 2
<MEAN> 39
 -6.908661e+02 1.242595e-02 -3.895413e-03 1.043538e-03 7.249436e-04 7.126143e-04 9.081318e-04 1.119253e-03 9.960399e-04 1.095252e-03 1.085656e-03 1.081758e-03 1.082469e-03 1.133890e-03 1.431217e-03 4.478079e-05 -8.879009e-06 -3.087283e-05 -1.690653e-05 -1.116526e-05 1.922794e-05 3.356004e-05 3.058815e-05 2.106715e-05 -1.732031e-06 -5.305332e-06 4.371761e-05 1.234657e-07 7.081877e-06 7.798763e-06 7.990870e-06 9.593105e-06 8.170562e-06 5.174228e-06 3.395526e-06 3.042156e-06 4.303808e-06 -1.391896e-06 -6.259093e-06
<VARIANCE> 39
 3.568487e+03 1.648368e+00 9.713050e-02 9.574931e-04 7.507265e-04 1.011769e-03 6.844017e-04 1.068953e-03 8.484249e-04 8.535165e-04 1.088234e-03 8.611440e-04 1.215130e-03 7.854612e-04 1.105426e-03 8.758803e-06 5.771790e-06 8.173934e-06 6.075373e-06 1.277033e-05 7.769793e-06 8.492219e-06 9.634898e-06 1.162684e-05 1.427058e-05 8.275329e-06 1.329255e-05 4.499511e-07 3.075810e-07 4.262554e-07 3.326209e-07 6.535564e-07 4.357443e-07 4.302722e-07 5.102124e-07 4.137804e-07 5.504287e-07 5.255608e-07 7.025489e-07
<GCONST> -3.199423e+02
<TRANSP> 3
 0.000000e+00 1.000000e+00 0.000000e+00
 0.000000e+00 9.950050e-01 4.994927e-03
 0.000000e+00 0.000000e+00 0.000000e+00
<ENDHMM>
~h "Tab0040"
<BEGINHMM>
<NUMSTATES> 3
<STATE> 2
<MEAN> 39
 -3.643824e+02 5.322972e+00 4.396265e-01 3.994518e-01 5.232843e-01 3.862850e-01 2.639939e-01 3.451347e-01 4.278965e-01 4.540542e-01 4.317138e-01 4.973877e-01 4.392861e-01 3.367577e-01 3.139304e-01 1.048036e-04 -3.288343e-03 -3.407692e-03 -2.426292e-03 -1.870109e-03 -3.557701e-04 3.078409e-03 3.084148e-03 -3.034778e-03 -4.489418e-03 -5.528242e-04 1.623288e-03 -1.423643e-03 -2.654771e-03 -2.090441e-03 -1.691802e-03 -2.030259e-03 -2.397120e-03 -9.667248e-04 -1.288874e-03 -3.161540e-03 -2.493167e-03 -6.451850e-04 -2.294738e-05
<VARIANCE> 39
 2.312967e+04 2.960858e+02 1.837446e+01 5.051496e-02 1.308000e-01 6.655507e-02 3.081042e-02 6.899158e-02 7.018413e-02 1.105335e-01 6.150384e-02 9.827869e-02 9.442194e-02 9.040143e-02 1.135651e-01 1.416400e-03 3.771842e-03 1.994031e-03 6.921258e-04 1.626532e-03 2.319428e-03 3.380749e-03 1.599650e-03 3.251764e-03 2.450209e-03 1.017044e-03 1.127510e-03 7.438270e-05 2.015090e-04 1.031608e-04 4.013567e-05 9.222721e-05 1.490780e-04 2.237339e-04 8.897218e-05 1.746634e-04 1.261021e-04 4.609245e-05 5.455669e-05
<GCONST> -1.267142e+02
<TRANSP> 3
 0.000000e+00 1.000000e+00 0.000000e+00
 0.000000e+00 9.050761e-01 9.492389e-02
 0.000000e+00 0.000000e+00 0.000000e+00
<ENDHMM>
~h "Tab0042"
<BEGINHMM>
<NUMSTATES> 3
<STATE> 2
<MEAN> 39
 -2.627409e+02 -6.384900e-01 5.870882e-02 8.639020e-02 1.186482e-01 2.044380e-01 2.585413e-01 2.903259e-01 2.931961e-01 1.701347e-01 8.548911e-02 1.020050e-01 5.630363e-01 8.933687e-01 4.655075e-01 4.973699e-05 4.308304e-04 3.619252e-04 -1.245287e-03 -1.716386e-03 -9.584286e-04 -4.476300e-04 -5.278195e-04 -9.363703e-04 -3.197646e-04 -3.002606e-04 -3.986339e-05 2.056888e-04 1.680890e-04 3.049428e-04 4.302751e-04 3.516310e-04 2.842517e-04 3.199801e-04 3.641402e-04 4.081422e-04 7.371054e-06 -2.728261e-04 4.729489e-05
<VARIANCE> 39
 8.548125e+03 6.070649e+01 4.679784e+00 1.038989e-02 1.888561e-02 4.255435e-02 3.520316e-02 6.240151e-02 3.562973e-02 1.447896e-02 8.368270e-03 1.786776e-02 3.106945e-02 5.752407e-02 2.028291e-02 6.979910e-05 4.843900e-05 9.797024e-05 3.573373e-04 4.972504e-04 5.338380e-04 3.112902e-04 1.372383e-04 1.688710e-04 1.049637e-04 4.065015e-05 7.473981e-05 5.153708e-06 4.432968e-06 6.694014e-06 2.124179e-05 2.881685e-05 3.597198e-05 2.258381e-05 1.272830e-05 1.378763e-05 6.607143e-06 4.380005e-06 5.088747e-06
<GCONST> -2.017596e+02
<TRANSP> 3
 0.000000e+00 1.000000e+00 0.000000e+00
 0.000000e+00 9.310501e-01 6.894987e-02
 0.000000e+00 0.000000e+00 0.000000e+00
<ENDHMM>
~h "Tab0045"
<BEGINHMM>
<NUMSTATES> 3
<STATE> 2
<MEAN> 39
 -5.375142e+02 -1.274823e+00 2.062461e-01 2.178498e-01 1.327768e-01 7.160608e-02 1.201596e-01 1.940687e-01 1.819679e-01 1.628503e-01 1.740745e-01 2.425416e-01 3.484621e-01 2.818367e-01 2.230173e-01 -2.148446e-04 2.322004e-04 2.828405e-04 6.333067e-04 9.032431e-04 -2.596999e-05 -8.541064e-04 -1.455583e-03 -1.113511e-03 -4.354439e-05 6.971817e-04 4.215520e-05 3.635936e-04 3.890427e-04 4.162401e-04 5.479350e-04 6.049798e-04 5.648230e-04 5.995523e-04 6.644947e-04 3.880340e-04 -1.419926e-04 1.706513e-04 4.493626e-04
<VARIANCE> 39
 3.875498e+04 8.731976e+01 5.683621e+00 1.150881e-01 3.747417e-02 1.711741e-02 2.965679e-02 9.015199e-02 6.792898e-02 5.830615e-02 7.563489e-02 8.259785e-02 1.761606e-01 1.048452e-01 8.341245e-02 1.860429e-04 1.291621e-04 1.101868e-04 1.985340e-04 3.859431e-04 3.067479e-04 2.764548e-04 3.817782e-04 3.848214e-04 2.454491e-04 2.419446e-04 2.453602e-04 1.791402e-05 1.021939e-05 1.004010e-05 1.442110e-05 2.622036e-05 2.230540e-05 2.098012e-05 3.224090e-05 2.857818e-05 2.759369e-05 2.034714e-05 2.168366e-05
<GCONST> -1.740344e+02
<TRANSP> 3
 0.000000e+00 1.000000e+00 0.000000e+00
 0.000000e+00 8.876671e-01 1.123329e-01
 0.000000e+00 0.000000e+00 0.000000e+00
<ENDHMM>
~h "Tab0053"
<BEGINHMM>
<NUMSTATES> 3
<STATE> 2
<MEAN> 39
 -4.682175e+02 -1.789911e+00 4.926430e-02 3.522296e-01 4.409011e-01 5.544674e-01 4.035725e-01 2.791184e-01 2.333337e-01 1.516448e-01 1.173966e-01 1.205659e-01 1.552814e-01 1.581727e-01 2.759442e-01 -2.587044e-03 -1.388878e-03 4.095535e-04 7.938222e-04 2.341408e-03 1.985227e-03 2.336153e-04 -6.036673e-04 -4.174847e-04 -1.679417e-04 -1.533300e-04 -1.775079e-03 4.717016e-04 2.584314e-04 -2.610810e-04 6.788934e-05 6.096538e-04 7.876339e-04 5.650558e-04 4.264171e-04 5.378129e-04 6.322813e-04 8.892117e-04 7.033309e-04
<VARIANCE> 39
 1.918268e+04 8.786287e+01 4.898935e+00 1.439749e-01 6.351545e-02 2.015780e-01 6.936995e-02 1.066202e-01 7.522403e-02 3.390022e-02 3.140384e-02 2.206183e-02 3.852873e-02 2.726304e-02 9.288010e-02 1.671238e-03 7.236111e-04 1.870804e-03 7.720418e-04 1.074235e-03 7.283815e-04 3.115121e-04 2.527258e-04 2.420477e-04 3.933242e-04 3.292088e-04 7.722349e-04 8.399936e-05 4.302320e-05 9.933096e-05 3.814983e-05 5.463804e-05 3.594971e-05 1.803993e-05 1.633982e-05 1.433629e-05 2.599774e-05 2.530507e-05 4.668284e-05
<GCONST> -1.580136e+02
<TRANSP> 3
 0.000000e+00 1.000000e+00 0.000000e+00
 0.000000e+00 8.873449e-01 1.126551e-01
 0.000000e+00 0.000000e+00 0.000000e+00
<ENDHMM>
~h "Tab0059"
<BEGINHMM>
<NUMSTATES> 3
<STATE> 2
<MEAN> 39
 -4.763239e+02 -3.097206e-01 3.571182e-03 3.074659e-01 4.634145e-01 2.811420e-01 9.041069e-02 6.818687e-02 6.646077e-02 9.190647e-02 2.848887e-01 5.018633e-01 3.750965e-01 2.224450e-01 2.088261e-01 -4.339243e-04 -7.558264e-04 -4.370195e-04 5.052229e-05 1.354426e-04 8.882335e-05 5.486041e-05 1.400034e-04 2.647882e-04 1.274617e-04 -3.378096e-05 3.835653e-05 2.300876e-05 2.660840e-05 2.418300e-05 2.486067e-05 1.504949e-05 2.676279e-06 1.118005e-05 2.668501e-06 -2.515893e-05 -2.275952e-05 6.583909e-06 4.653634e-05
<VARIANCE> 39
 8.280394e+03 2.297125e+02 1.455289e+01 3.074648e-02 2.070730e-01 5.654583e-02 1.504491e-02 1.194520e-02 1.641569e-02 4.700850e-02 6.241294e-02 1.944058e-01 8.811144e-02 7.671381e-02 3.626258e-02 9.410815e-05 3.984954e-04 1.229758e-04 1.977087e-04 1.101501e-04 1.277530e-04 2.484032e-04 1.080797e-04 3.827399e-04 6.834913e-05 2.910323e-04 1.866574e-04 4.030464e-06 1.924001e-05 5.997070e-06 1.014266e-05 5.067589e-06 6.507599e-06 1.154166e-05 5.617251e-06 1.642243e-05 3.787987e-06 1.254652e-05 9.129375e-06
<GCONST> -1.927514e+02
<TRANSP> 3
 0.000000e+00 1.000000e+00 0.000000e+00
 0.000000e+00 9.572905e-01 4.270951e-02
 0.000000e+00 0.000000e+00 0.000000e+00
<ENDHMM>
~h "Tab0060"
<BEGINHMM>
<NUMSTATES> 3
<STATE> 2
<MEAN> 39
 -3.637536e+02 2.566579e+00 -3.685211e-01 2.366772e-01 1.693575e-01 1.922153e-01 3.044504e-01 3.916914e-01 3.666501e-01 3.318899e-01 3.032659e-01 3.692436e-01 4.422783e-01 3.697958e-01 3.259445e-01 -1.958888e-03 -1.766310e-03 -1.148837e-03 1.417661e-03 4.452464e-03 4.541201e-03 1.556372e-03 6.753509e-05 -1.271355e-03 -2.075425e-03 -1.566103e-03 -1.606461e-03 7.368833e-04 -2.125409e-05 -1.146980e-04 -1.632807e-04 -8.844183e-05 -1.269578e-03 -2.372495e-03 -1.362873e-03 -4.151817e-04 -2.581214e-04 3.033232e-04 1.185606e-03
<VARIANCE> 39
 9.783630e+03 2.468206e+02 1.545786e+01 6.149613e-02 3.297028e-02 4.894716e-02 6.939305e-02 1.323022e-01 8.918528e-02 1.003051e-01 8.508544e-02 7.808439e-02 1.371778e-01 6.132367e-02 1.157411e-01 1.050310e-03 8.246591e-04 1.290084e-03 1.902075e-03 3.321162e-03 2.189021e-03 2.088448e-03 2.120930e-03 2.355722e-03 4.561236e-03 1.685076e-03 2.338862e-03 5.415279e-05 4.102681e-05 7.104663e-05 1.101832e-04 1.673794e-04 1.322698e-04 1.598085e-04 1.101099e-04 1.198789e-04 2.391570e-04 8.733781e-05 1.400028e-04
<GCONST> -1.260414e+02
<TRANSP> 3
 0.000000e+00 1.000000e+00 0.000000e+00
 0.000000e+00 7.896349e-01 2.103651e-01
 0.000000e+00 0.000000e+00 0.000000e+00
<ENDHMM>
~h "Tab0061"
<BEGINHMM>
<NUMSTATES> 3
<STATE> 2
<MEAN> 39
 -4.735749e+02 -1.973580e+00 6.985601e-01 1.364300e-01 2.081998e-01 2.069557e-01 3.256112e-01 5.156713e-01 3.160076e-01 1.204562e-01 1.166174e-01 4.409140e-01 7.783106e-01 4.529419e-01 1.614770e-01 1.734922e-04 4.539278e-04 -1.599730e-03 -7.094737e-03 -1.302050e-02 -7.463899e-03 -4.210684e-04 2.911458e-04 6.921901e-03 1.330439e-02 5.967507e-03 -1.226465e-03 9.860238e-04 1.578920e-03 2.708238e-03 5.673819e-04 -1.985304e-03 -4.958192e-04 2.633434e-03 4.298632e-03 3.463441e-04 -3.288240e-03 -6.342353e-04 1.708508e-03
<VARIANCE> 39
 8.907833e+03 1.308305e+02 7.964274e+00 9.364979e-03 2.882669e-02 8.065229e-02 3.125194e-02 8.485563e-02 3.949593e-02 1.101729e-02 9.551896e-03 3.849675e-02 1.376788e-01 3.221094e-02 1.183717e-02 2.257850e-04 5.371568e-04 6.296983e-04 4.056492e-04 1.080258e-03 4.409181e-04 3.956772e-04 9.478481e-04 8.012793e-04 2.826890e-03 5.918713e-04 4.694086e-04 1.564553e-05 4.046483e-05 4.619783e-05 3.564523e-05 8.878869e-05 3.555570e-05 3.164317e-05 7.860028e-05 6.107021e-05 1.825194e-04 3.972435e-05 2.743412e-05
<GCONST> -1.627425e+02
<TRANSP> 3
 0.000000e+00 1.000000e+00 0.000000e+00
 0.000000e+00 8.738280e-01 1.261720e-01
 0.000000e+00 0.000000e+00 0.000000e+00
<ENDHMM>
~h "Tab0062"
<BEGINHMM>
<NUMSTATES> 3
<STATE> 2
<MEAN> 39
 -5.540010e+02 8.457623e-01 -7.135126e-02 2.463265e-01 3.403579e-01 4.484896e-01 5.147385e-01 5.657759e-01 3.572531e-01 1.682395e-01 1.547405e-01 1.325004e-01 1.182640e-01 1.349923e-01 2.082963e-01 -1.844572e-04 3.364266e-04 1.141807e-03 4.507224e-04 -1.119297e-03 -9.043566e-04 -4.009833e-04 -2.113965e-05 1.994618e-04 -1.255196e-04 -6.213353e-04 -5.272591e-04 1.810089e-04 -3.530060e-04 -3.379681e-04 -9.192744e-04 -1.125309e-03 -6.274827e-04 4.207072e-04 1.060074e-03 6.682767e-04 2.034193e-04 3.112611e-04 4.744116e-04
<VARIANCE> 39
 1.059274e+04 2.015522e+02 1.152592e+01 1.016497e-01 9.140301e-02 1.738833e-01 6.715211e-02 1.685841e-01 6.920306e-02 3.235745e-02 5.636347e-02 3.801955e-02 3.014778e-02 3.852572e-02 7.600943e-02 3.516145e-03 2.880643e-03 5.699272e-03 1.464911e-03 4.788118e-03 2.124181e-03 1.344152e-03 2.298434e-03 1.354330e-03 9.173687e-04 1.384028e-03 2.846034e-03 1.958558e-04 1.486628e-04 2.714873e-04 6.913447e-05 2.286399e-04 1.081893e-04 8.052486e-05 1.288163e-04 8.194971e-05 6.094374e-05 8.140825e-05 1.646748e-04
<GCONST> -1.255002e+02
<TRANSP> 3
 0.000000e+00 1.000000e+00 0.000000e+00
 0.000000e+00 8.930486e-01 1.069515e-01
 0.000000e+00 0.000000e+00 0.000000e+00
<ENDHMM>
~h "Tab0063"
<BEGINHMM>
<NUMSTATES> 3
<STATE> 2
<MEAN> 39
 -3.726980e+02 2.992743e+00 -4.629706e-01 3.220968e-01 1.774832e-01 1.735856e-01 3.259648e-01 4.417745e-01 3.887849e-01 2.969119e-01 2.037375e-01 1.751168e-01 1.983429e-01 3.134103e-01 4.387004e-01 -9.046993e-04 2.444148e-03 5.859400e-03 7.335267e-03 2.046687e-03 -2.818217e-03 -1.722323e-04 2.014784e-03 5.618583e-04 7.050000e-04 1.241016e-03 -8.422493e-04 8.039752e-04 1.209427e-03 9.180738e-04 -5.953828e-04 -1.952223e-03 -1.740449e-03 -2.709416e-04 7.280698e-04 1.006011e-03 6.509565e-04 -5.701490e-05 2.359648e-04
<VARIANCE> 39
 1.464548e+04 4.617865e+02 2.802138e+01 8.721308e-02 4.752381e-02 5.124490e-02 1.005677e-01 1.398377e-01 9.672322e-02 8.582613e-02 4.197546e-02 3.657040e-02 3.616035e-02 6.188582e-02 1.560468e-01 2.765126e-03 9.749030e-04 2.018624e-03 3.313579e-03 3.839771e-03 2.253530e-03 2.423610e-03 1.345131e-03 1.286926e-03 1.160440e-03 9.209369e-04 3.797208e-03 9.967115e-05 4.374807e-05 8.984768e-05 1.623118e-04 1.923555e-04 1.062966e-04 1.312868e-04 7.756522e-05 6.918181e-05 5.903685e-05 4.171449e-05 1.589202e-04
<GCONST> -1.277727e+02
<TRANSP> 3
 0.000000e+00 1.000000e+00 0.000000e+00
 0.000000e+00 5.310219e-01 4.689781e-01
 0.000000e+00 0.000000e+00 0.000000e+00
<ENDHMM>
~h "Tab0064"
<BEGINHMM>
<NUMSTATES> 3
<STATE> 2
<MEAN> 39
 -4.351079e+02 1.261067e-02 -3.516958e-01 3.857689e-01 3.926617e-01 4.703769e-01 3.686625e-01 2.865064e-01 2.499522e-01 3.508272e-01 4.108457e-01 3.176238e-01 3.019113e-01 3.950963e-01 4.651758e-01 -9.725537e-04 6.536543e-04 3.671111e-04 -9.747423e-04 -1.992713e-03 -1.416161e-03 -1.718520e-03 -2.554741e-03 -2.911701e-03 -3.588177e-03 -3.716467e-03 -2.861916e-03 -4.918592e-04 1.076423e-04 1.315619e-04 3.095936e-04 5.534221e-04 2.407766e-04 -2.657904e-04 -1.613534e-04 1.452473e-04 1.155841e-04 -7.990809e-04 -1.143264e-03
<VARIANCE> 39
 2.911285e+04 2.122356e+02 1.143980e+01 9.064732e-02 7.819986e-02 1.309839e-01 5.786091e-02 8.934516e-02 3.870134e-02 7.315823e-02 1.188328e-01 7.095083e-02 8.378284e-02 8.639002e-02 1.365474e-01 1.094542e-03 1.336018e-03 1.755613e-03 9.626223e-04 1.166913e-03 6.427111e-04 7.697669e-04 1.283760e-03 9.328153e-04 1.355663e-03 1.269690e-03 1.698586e-03 5.035401e-05 6.441669e-05 9.164666e-05 5.047550e-05 5.983386e-05 3.213660e-05 4.106356e-05 6.252118e-05 5.086108e-05 7.317248e-05 6.134436e-05 7.958845e-05
<GCONST> -1.384776e+02
<TRANSP> 3
 0.000000e+00 1.000000e+00 0.000000e+00
 0.000000e+00 8.045465e-01 1.954535e-01
 0.000000e+00 0.000000e+00 0.000000e+00
<ENDHMM>
~h "Tab0066"
<BEGINHMM>
<NUMSTATES> 3
<STATE> 2
<MEAN> 39
 -4.009442e+02 1.538698e+00 1.647046e-01 4.408470e-01 3.970640e-01 3.803372e-01 3.270484e-01 4.140182e-01 4.261738e-01 3.293231e-01 2.902557e-01 2.778098e-01 2.963608e-01 2.861584e-01 3.694404e-01 1.425880e-03 -1.206971e-05 -8.752246e-04 -1.331217e-03 -1.687611e-03 -8.175271e-04 8.481123e-04 1.664675e-03 9.127766e-04 6.292572e-04 1.176822e-03 1.732879e-03 -4.438303e-04 -6.601466e-04 -2.993509e-04 -3.067863e-04 -6.001083e-04 -4.994061e-04 -4.332685e-04 -6.265822e-04 -7.130184e-04 -6.703914e-04 -6.671550e-04 -2.903813e-04
<VARIANCE> 39
 2.942655e+04 2.832646e+02 1.472546e+01 1.224012e-01 6.593191e-02 1.341916e-01 6.633131e-02 1.078343e-01 1.250839e-01 5.960208e-02 9.232640e-02 5.357600e-02 8.036122e-02 6.551396e-02 8.659669e-02 2.951887e-03 1.506926e-03 3.116039e-03 1.276577e-03 2.815189e-03 1.966761e-03 1.246692e-03 2.088876e-03 1.405489e-03 1.649768e-03 1.476694e-03 2.250490e-03 1.380515e-04 7.660586e-05 1.398434e-04 6.146832e-05 1.369222e-04 1.055998e-04 6.882093e-05 1.156664e-04 7.989301e-05 8.397273e-05 7.151578e-05 9.799800e-05
<GCONST> -1.259094e+02
<TRANSP> 3
 0.000000e+00 1.000000e+00 0.000000e+00
 0.000000e+00 9.275315e-01 7.246849e-02
 0.000000e+00 0.000000e+00 0.000000e+00
<ENDHMM>
~h "Tab0068"
<BEGINHMM>
<NUMSTATES> 3
<STATE> 2
<MEAN> 39
 -3.505341e+02 -5.512496e-01 -2.070372e-01 1.667430e-01 3.074091e-01 3.166836e-01 2.314424e-01 2.161990e-01 3.514819e-01 5.449079e-01 5.582731e-01 5.718068e-01 4.115847e-01 1.760970e-01 1.100424e-01 -7.597150e-04 -8.506239e-04 5.841174e-04 3.417443e-04 -1.461218e-03 -2.185608e-03 -2.523718e-03 -1.255548e-03 2.870645e-03 1.246102e-03 -1.223543e-03 -1.786418e-04 1.340895e-03 9.407065e-04 4.372429e-05 -1.525616e-04 2.866875e-04 1.553649e-04 -4.295274e-04 -6.894033e-04 -9.233927e-04 -4.823336e-04 -3.489564e-06 5.529912e-04
<VARIANCE> 39
 1.172561e+04 1.510418e+02 9.019635e+00 3.133220e-02 9.593412e-02 1.115249e-01 5.112932e-02 4.200462e-02 8.833069e-02 1.335580e-01 5.755194e-02 1.397982e-01 6.491628e-02 2.815494e-02 1.938833e-02 7.766326e-04 1.686508e-03 1.445487e-03 8.719360e-04 8.182771e-04 1.665277e-03 2.685836e-03 1.561657e-03 2.395042e-03 1.307421e-03 4.725936e-04 3.521105e-04 4.618688e-05 7.958057e-05 6.630716e-05 4.435644e-05 4.539016e-05 8.537257e-05 1.309974e-04 9.591111e-05 1.343901e-04 6.842162e-05 2.265582e-05 2.180251e-05
<GCONST> -1.432514e+02
<TRANSP> 3
 0.000000e+00 1.000000e+00 0.000000e+00
 0.000000e+00 9.064183e-01 9.358172e-02
 0.000000e+00 0.000000e+00 0.000000e+00
<ENDHMM>
~h "Tab0071"
<BEGINHMM>
<NUMSTATES> 3
<STATE> 2
<MEAN> 39
 -2.935502e+02 -3.059783e+00 3.665801e-01 1.364538e-01 2.372567e-01 5.042311e-01 5.206926e-01 3.453023e-01 4.019703e-01 3.971727e-01 2.631395e-01 2.134702e-01 3.983718e-01 5.898312e-01 4.102128e-01 2.115520e-03 -2.305236e-03 -3.579650e-04 -3.142756e-03 -4.577770e-03 3.949512e-03 4.302721e-03 2.024920e-03 -6.919075e-05 1.610093e-02 3.303608e-02 2.026869e-02 1.384898e-03 1.241709e-03 -2.355324e-04 7.230727e-04 3.596550e-04 -3.377282e-03 -2.650673e-03 4.537291e-04 1.307133e-03 -2.104307e-03 -3.207677e-03 -5.308772e-04
<VARIANCE> 39
 1.453700e+04 6.688393e+01 1.023362e+01 2.636844e-02 3.114244e-02 1.709380e-01 1.484109e-01 6.114294e-02 5.857939e-02 8.149210e-02 3.682015e-02 6.019491e-02 6.561144e-02 1.111344e-01 9.521125e-02 2.270380e-04 3.020962e-04 6.044435e-04 4.387422e-04 9.574740e-04 2.114609e-03 1.719047e-03 7.148700e-04 1.173040e-03 9.489409e-04 1.865854e-03 9.059364e-04 2.432579e-05 2.624445e-05 3.698585e-05 4.716298e-05 7.779140e-05 9.273664e-05 9.680811e-05 4.130026e-05 5.653158e-05 7.397376e-05 1.150471e-04 1.060893e-04
<GCONST> -1.468062e+02
<TRANSP> 3
 0.000000e+00 1.000000e+00 0.000000e+00
 0.000000e+00 3.715058e-01 6.284943e-01
 0.000000e+00 0.000000e+00 0.000000e+00
<ENDHMM>
~h "Tab0072"
<BEGINHMM>
<NUMSTATES> 3
<STATE> 2
<MEAN> 39
 -3.628350e+02 -8.402770e-01 1.007519e-01 3.737574e-01 2.519239e-01 2.550244e-01 3.361040e-01 4.815927e-01 3.705671e-01 2.574045e-01 2.804080e-01 3.328981e-01 4.174394e-01 3.941349e-01 4.508040e-01 -2.451865e-04 -1.096543e-04 2.200389e-05 -6.040939e-04 -9.450452e-04 -2.674755e-04 -6.999794e-04 -1.340786e-03 -7.984831e-04 1.325307e-04 1.480486e-04 -4.315137e-04 2.696234e-04 2.997874e-04 2.918172e-04 2.087756e-04 1.503277e-04 1.125276e-04 2.212306e-04 2.423703e-04 2.273484e-04 4.652102e-05 1.172842e-04 1.722876e-04
<VARIANCE> 39
 1.893230e+04 2.222484e+01 1.293693e+00 5.613451e-02 2.373777e-02 7.115480e-02 4.194405e-02 1.407627e-01 7.640035e-02 3.729488e-02 9.010933e-02 5.805230e-02 1.595751e-01 5.811189e-02 1.001972e-01 3.031213e-04 2.367588e-04 4.620866e-04 3.251162e-04 5.977876e-04 3.549075e-04 1.761948e-04 2.052412e-04 1.732781e-04 1.501852e-04 2.116584e-04 3.941689e-04 1.693882e-05 1.361350e-05 2.338552e-05 2.002370e-05 3.735230e-05 2.031852e-05 1.097539e-05 1.164672e-05 1.277523e-05 1.081154e-05 1.254927e-05 2.529172e-05
<GCONST> -1.780574e+02
<TRANSP> 3
 0.000000e+00 1.000000e+00 0.000000e+00
 0.000000e+00 8.993118e-01 1.006883e-01
 0.000000e+00 0.000000e+00 0.000000e+00
<ENDHMM>
~h "Tab0074"
<BEGINHMM>
<NUMSTATES> 3
<STATE> 2
<MEAN> 39
 -3.450138e+02 -1.432710e+00 -1.201439e-01 4.993614e-01 6.469076e-01 3.903226e-01 1.310076e-01 1.213405e-01 1.799418e-01 2.902331e-01 3.038665e-01 2.645420e-01 2.212302e-01 2.781501e-01 3.517754e-01 -1.931080e-04 1.182031e-04 5.529670e-05 -5.168982e-05 -3.218223e-04 -1.669950e-03 -4.543283e-03 -3.987906e-03 -6.538692e-04 -2.347977e-04 -2.213778e-03 -1.159820e-03 -1.112805e-04 -1.337605e-04 4.974984e-04 9.910095e-04 1.376168e-03 1.234172e-03 2.237052e-04 5.376146e-04 1.835398e-03 1.471048e-03 2.946853e-04 3.670880e-05
<VARIANCE> 39
 1.676354e+04 1.254934e+02 8.656825e+00 4.225996e-02 1.617381e-01 5.316855e-02 1.217946e-02 1.386792e-02 2.330760e-02 6.558015e-02 5.226916e-02 5.103981e-02 3.757183e-02 8.766527e-02 1.485378e-01 4.133502e-04 3.164014e-04 4.006823e-04 3.158374e-04 4.435069e-04 5.676178e-04 7.455521e-04 6.760238e-04 1.269477e-03 1.119618e-03 4.647799e-04 5.799687e-04 2.375676e-05 2.001326e-05 2.526149e-05 1.874818e-05 2.991912e-05 3.291865e-05 4.202491e-05 4.258072e-05 7.688940e-05 6.787788e-05 2.844946e-05 3.789796e-05
<GCONST> -1.617984e+02
<TRANSP> 3
 0.000000e+00 1.000000e+00 0.000000e+00
 0.000000e+00 8.396122e-01 1.603877e-01
 0.000000e+00 0.000000e+00 0.000000e+00
<ENDHMM>
~h "Tab0075"
<BEGINHMM>
<NUMSTATES> 3
<STATE> 2
<MEAN> 39
 -4.262685e+02 -1.014212e+00 6.492842e-02 1.698941e-01 2.474216e-01 1.823740e-01 1.175087e-01 1.377439e-01 2.035764e-01 2.590184e-01 5.188290e-01 7.206745e-01 5.390656e-01 3.647274e-01 2.338736e-01 -2.168569e-04 -1.571133e-03 -7.203656e-04 -6.197407e-05 -2.005868e-04 -6.478542e-04 -1.760215e-03 7.721950e-04 4.658844e-03 2.878098e-03 1.328252e-04 5.122410e-04 1.098921e-03 1.686651e-03 1.482195e-03 1.055866e-03 8.362097e-04 8.576048e-04 1.113656e-03 5.568460e-04 1.614279e-04 -3.103759e-04 -4.125911e-04 1.381182e-04
<VARIANCE> 39
 1.546772e+04 9.349154e+01 5.804877e+00 2.839340e-02 7.540021e-02 2.791571e-02 4.831570e-03 9.852036e-03 2.149815e-02 4.162478e-02 9.908583e-02 1.450948e-01 3.616853e-02 1.337075e-01 5.717821e-02 3.605206e-04 1.150668e-03 4.974247e-04 1.621699e-04 2.693272e-04 4.989957e-04 8.260385e-04 1.006895e-03 1.815541e-03 7.921011e-04 2.237873e-03 1.028139e-03 1.827182e-05 5.803668e-05 2.573976e-05 1.185953e-05 2.065671e-05 3.250498e-05 4.610481e-05 4.784954e-05 8.911014e-05 4.892307e-05 1.162313e-04 5.001061e-05
<GCONST> -1.606389e+02
<TRANSP> 3
 0.000000e+00 1.000000e+00 0.000000e+00
 0.000000e+00 7.927646e-01 2.072354e-01
 0.000000e+00 0.000000e+00 0.000000e+00
<ENDHMM>
~h "Tab0076"
<BEGINHMM>
<NUMSTATES> 3
<STATE> 2
<MEAN> 39
 -5.788381e+02 -1.237306e+00 -1.089663e-01 2.718219e-01 5.632850e-01 5.745554e-01 3.052014e-01 1.729339e-01 1.397384e-01 8.313408e-02 9.906586e-02 5.117380e-01 8.809663e-01 5.458017e-01 1.434597e-01 -1.665932e-03 -2.399670e-03 -2.236914e-04 -8.334420e-05 -1.935452e-03 -1.994789e-03 -4.275826e-04 1.471511e-03 8.662695e-04 1.364455e-03 7.751345e-04 1.743135e-04 4.995397e-04 2.851684e-04 -4.209167e-04 -9.837974e-05 4.515479e-04 3.635242e-04 5.095457e-04 7.496227e-04 2.745487e-04 -2.386838e-04 -1.351269e-04 2.985237e-04
<VARIANCE> 39
 8.640750e+03 1.343638e+02 7.899568e+00 7.609519e-02 1.072221e-01 3.548933e-02 3.224137e-02 2.418191e-02 3.479188e-02 1.194487e-02 1.170136e-02 2.127698e-02 2.477824e-02 1.557676e-02 2.994978e-02 4.931275e-04 1.819447e-03 1.109912e-03 8.293151e-04 9.271473e-04 7.045146e-04 2.940440e-04 5.686709e-04 6.376116e-04 3.690911e-04 5.349956e-04 9.305913e-04 2.679744e-05 1.279841e-04 5.422276e-05 5.444853e-05 6.751841e-05 4.204933e-05 2.419205e-05 4.370838e-05 3.947668e-05 2.827949e-05 3.966779e-05 7.183111e-05
<GCONST> -1.622579e+02
<TRANSP> 3
 0.000000e+00 1.000000e+00 0.000000e+00
 0.000000e+00 8.186016e-01 1.813983e-01
 0.000000e+00 0.000000e+00 0.000000e+00
<ENDHMM>
~h "Tab0078"
<BEGINHMM>
<NUMSTATES> 3
<STATE> 2
<MEAN> 39
 -6.123346e+02 -2.916186e-01 2.784541e-02 1.639035e-02 2.582264e-02 2.733627e-02 2.624809e-02 2.239129e-02 4.810245e-02 7.841109e-02 1.790111e-01 2.508608e-01 1.285175e-01 4.008317e-02 2.158860e-02 1.749423e-04 3.609967e-04 3.959253e-04 3.530001e-04 3.591193e-04 2.688030e-04 7.130242e-04 9.926558e-04 8.960601e-04 4.275058e-04 7.027906e-04 2.023474e-04 6.914033e-05 1.377138e-04 1.178015e-04 3.434169e-05 1.325237e-05 1.481920e-04 3.152461e-04 -7.482677e-05 -1.081991e-04 3.504841e-05 -6.105169e-05 1.097089e-05
<VARIANCE> 39
 6.400553e+03 1.177319e+01 6.446046e-01 1.327690e-03 5.179659e-03 4.156697e-03 2.329614e-03 1.814359e-03 1.356816e-02 3.614773e-02 9.955426e-02 1.843961e-01 5.204871e-02 1.055281e-02 2.948645e-03 7.738464e-06 2.585860e-05 1.820357e-05 1.068130e-05 1.136786e-05 1.348230e-04 5.144853e-04 1.520636e-04 1.294401e-04 1.240416e-04 1.053934e-04 1.920257e-05 6.897762e-07 1.593914e-06 1.119788e-06 6.949716e-07 7.609418e-07 8.988468e-06 3.521757e-05 9.904504e-06 9.414802e-06 7.727458e-06 8.843484e-06 1.368303e-06
<GCONST> -2.429305e+02
<TRANSP> 3
 0.000000e+00 1.000000e+00 0.000000e+00
 0.000000e+00 9.840028e-01 1.599721e-02
 0.000000e+00 0.000000e+00 0.000000e+00
<ENDHMM>
~h "Tab0079"
<BEGINHMM>
<NUMSTATES> 3
<STATE> 2
<MEAN> 39
 -4.204933e+02 3.222562e+00 -3.331214e-01 5.681201e-01 3.744081e-01 1.763962e-01 2.369553e-01 3.638147e-01 3.672740e-01 3.285049e-01 3.442402e-01 3.773179e-01 3.711830e-01 3.068234e-01 4.085329e-01 3.316314e-03 7.018672e-04 -1.224220e-03 -1.139010e-03 -2.617022e-03 -2.562112e-03 -8.329554e-04 2.387683e-04 2.150968e-03 1.888465e-03 8.344809e-04 2.155926e-03 -2.172219e-03 -1.605023e-03 -4.916684e-04 -5.613192e-04 -5.229166e-04 -5.862530e-04 -8.075594e-04 -9.121416e-04 -6.414946e-04 -1.053024e-04 -5.259592e-04 -1.228535e-03
<VARIANCE> 39
 3.654084e+04 3.719249e+02 2.276374e+01 1.608241e-01 6.712912e-02 4.943534e-02 5.175840e-02 1.068827e-01 1.057216e-01 6.619279e-02 9.482667e-02 8.043031e-02 1.154506e-01 7.249577e-02 7.653559e-02 5.442548e-03 2.095202e-03 1.289144e-03 1.437127e-03 3.295629e-03 2.708338e-03 1.650631e-03 2.773475e-03 2.711785e-03 3.477232e-03 2.142872e-03 2.510243e-03 2.160597e-04 9.490035e-05 6.084120e-05 6.891909e-05 1.491681e-04 1.122749e-04 7.901021e-05 1.308981e-04 1.418542e-04 1.561980e-04 1.058640e-04 1.110104e-04
<GCONST> -1.200717e+02
<TRANSP> 3
 0.000000e+00 1.000000e+00 0.000000e+00
 0.000000e+00 8.117531e-01 1.882469e-01
 0.000000e+00 0.000000e+00 0.000000e+00
<ENDHMM>
~h "Tab0083"
<BEGINHMM>
<NUMSTATES> 3
<STATE> 2
<MEAN> 39
 -2.521259e+02 -1.020266e-01 -6.866261e-03 5.424590e-01 3.612606e-01 4.648336e-01 6.873987e-01 9.006305e-01 6.502873e-01 4.884182e-01 5.623701e-01 7.509099e-01 6.426841e-01 6.470941e-01 8.044602e-01 -8.246705e-04 -1.068100e-03 -1.846502e-03 -1.762443e-04 5.361227e-04 1.643910e-04 -2.339418e-04 -8.746966e-04 -1.261347e-03 -9.910923e-04 -1.416121e-03 -1.297020e-03 5.610847e-06 2.371227e-04 3.832665e-04 -1.500549e-04 -4.479159e-04 -8.449377e-05 1.119173e-04 9.679359e-05 -3.827066e-05 2.130933e-05 4.126525e-04 1.445601e-04
<VARIANCE> 39
 3.872017e+02 1.648368e+00 9.713050e-02 2.298978e-02 2.485220e-02 4.714853e-02 4.397330e-02 2.272451e-02 1.704938e-02 1.651820e-02 4.110485e-02 5.745004e-02 6.255778e-02 3.711687e-02 3.695310e-02 3.808246e-04 2.159965e-04 2.185160e-04 5.686082e-04 2.904924e-04 4.194164e-04 2.186364e-04 3.537544e-04 3.930683e-04 3.647590e-04 6.518528e-04 8.313259e-04 2.512825e-05 9.910097e-06 1.230564e-05 2.587981e-05 1.855629e-05 2.851912e-05 1.223009e-05 2.191617e-05 2.004623e-05 1.744691e-05 3.563347e-05 5.560365e-05
<GCONST> -1.891028e+02
<TRANSP> 3
 0.000000e+00 1.000000e+00 0.000000e+00
 0.000000e+00 7.986490e-01 2.013510e-01
 0.000000e+00 0.000000e+00 0.000000e+00
<ENDHMM>
~h "Tab0084"
<BEGINHMM>
<NUMSTATES> 3
<STATE> 2
<MEAN> 39
 -3.975840e+02 3.040866e+00 -3.260844e-01 3.185267e-01 3.533247e-01 2.959091e-01 2.425577e-01 2.359791e-01 2.922148e-01 3.738099e-01 3.222761e-01 2.822461e-01 2.655559e-01 2.804050e-01 3.025064e-01 3.436696e-03 7.621094e-03 3.229424e-03 -1.371701e-03 8.033558e-04 -9.949228e-04 -5.031356e-03 -3.871457e-04 4.183917e-03 1.885625e-03 2.356850e-03 2.062468e-03 -4.648076e-04 -7.298820e-04 -4.818705e-04 -1.998195e-04 5.479903e-05 8.670357e-05 -2.379405e-04 -3.893350e-04 -8.548220e-05 1.262569e-04 -3.222252e-05 -1.331772e-04
<VARIANCE> 39
 1.839990e+04 3.654445e+02 2.356487e+01 8.789954e-02 1.424270e-01 7.947502e-02 9.396958e-02 6.510230e-02 6.055187e-02 1.221746e-01 6.777636e-02 7.177979e-02 7.352600e-02 7.620702e-02 1.176493e-01 1.941082e-03 3.894744e-03 1.870511e-03 2.389179e-03 1.556408e-03 1.493635e-03 3.010248e-03 1.727150e-03 1.997226e-03 1.618515e-03 1.491143e-03 1.935354e-03 8.890437e-05 1.683120e-04 9.383565e-05 1.180971e-04 9.031729e-05 7.574575e-05 1.274686e-04 8.786771e-05 1.255486e-04 8.807404e-05 8.059535e-05 1.038186e-04
<GCONST> -1.240181e+02
<TRANSP> 3
 0.000000e+00 1.000000e+00 0.000000e+00
 0.000000e+00 7.390316e-01 2.609684e-01
 0.000000e+00 0.000000e+00 0.000000e+00
<ENDHMM>
~h "Tab0085"
<BEGINHMM>
<NUMSTATES> 3
<STATE> 2
<MEAN> 39
 -4.454054e+02 -1.634006e+00 1.751761e-01 2.372204e-01 1.435362e-01 2.103858e-01 2.864528e-01 3.452556e-01 3.101803e-01 3.499672e-01 3.973413e-01 2.621714e-01 1.646066e-01 2.751245e-01 4.028808e-01 2.309773e-05 -5.690114e-04 -1.853466e-03 -3.287506e-04 1.381658e-03 1.475903e-03 1.409275e-03 -8.110855e-04 -2.291584e-03 -9.726089e-04 -3.512648e-04 -8.739905e-04 -1.731420e-04 1.717471e-04 1.553522e-04 5.349856e-04 6.046767e-04 1.995891e-04 1.087268e-04 -3.522536e-05 2.813222e-04 5.313457e-04 2.286329e-04 -4.112566e-04
<VARIANCE> 39
 1.633445e+04 2.289400e+02 1.410155e+01 6.611376e-02 3.442695e-02 9.878358e-02 8.213038e-02 1.426006e-01 9.084707e-02 9.291756e-02 1.537484e-01 7.128732e-02 3.592408e-02 6.683065e-02 1.445161e-01 2.682135e-04 2.164986e-04 7.091368e-04 6.977206e-04 1.255887e-03 1.163437e-03 1.325719e-03 1.167865e-03 7.287401e-04 4.396900e-04 3.407150e-04 5.966348e-04 2.019215e-05 1.930681e-05 4.820863e-05 4.336189e-05 6.819193e-05 6.888909e-05 7.818066e-05 5.841550e-05 3.772312e-05 2.260655e-05 2.734709e-05 4.262663e-05
<GCONST> -1.504857e+02
<TRANSP> 3
 0.000000e+00 1.000000e+00 0.000000e+00
 0.000000e+00 7.664747e-01 2.335253e-01
 0.000000e+00 0.000000e+00 0.000000e+00
<ENDHMM>
~h "Tab0086"
<BEGINHMM>
<NUMSTATES> 3
<STATE> 2
<MEAN> 39
 -3.729997e+02 2.819427e+00 -4.578255e-01 2.962645e-01 1.717477e-01 1.384324e-01 2.253900e-01 3.251327e-01 3.096165e-01 3.360889e-01 3.979752e-01 4.694009e-01 4.665550e-01 3.880638e-01 3.874421e-01 -8.448071e-04 -1.513538e-03 -1.511955e-03 -1.381010e-03 -7.171648e-04 8.494609e-04 1.880308e-03 3.060631e-03 4.277933e-03 4.021912e-03 2.797029e-03 1.256841e-03 -7.210525e-06 -2.326322e-05 9.016677e-05 -3.501731e-05 -6.589637e-05 -4.732475e-04 -8.742721e-04 -6.882077e-04 -8.355576e-04 -8.246082e-04 -5.418737e-04 -1.191196e-04
<VARIANCE> 39
 1.695843e+04 5.084778e+02 3.291769e+01 9.919562e-02 3.941165e-02 3.771368e-02 5.066692e-02 1.190548e-01 7.282886e-02 8.725305e-02 1.068199e-01 9.248917e-02 1.250461e-01 7.240930e-02 1.235630e-01 2.097758e-03 7.575984e-04 8.352639e-04 1.239659e-03 2.847312e-03 1.580413e-03 2.537107e-03 3.103515e-03 2.502173e-03 3.771613e-03 1.608040e-03 2.539820e-03 8.658920e-05 3.514555e-05 4.074999e-05 6.226011e-05 1.248967e-04 7.380711e-05 1.365144e-04 1.561992e-04 1.297690e-04 1.857061e-04 7.914168e-05 1.172411e-04
<GCONST> -1.260433e+02
<TRANSP> 3
 0.000000e+00 1.000000e+00 0.000000e+00
 0.000000e+00 8.563835e-01 1.436165e-01
 0.000000e+00 0.000000e+00 0.000000e+00
<ENDHMM>
~h "Tab0087"
<BEGINHMM>
<NUMSTATES> 3
<STATE> 2
<MEAN> 39
 -5.023245e+02 -3.089170e+00 2.901230e-01 1.091062e-01 2.264945e-01 3.167338e-01 3.754125e-01 3.247212e-01 3.713381e-01 3.998113e-01 2.065455e-01 8.186922e-02 7.745355e-02 8.272845e-02 5.930001e-02 -6.286337e-04 -6.917817e-04 -1.098812e-04 -5.192765e-04 -1.289267e-03 -1.142148e-03 -8.050220e-04 -1.132161e-03 -1.609913e-03 -1.492382e-03 -1.783799e-03 -1.392078e-03 2.527169e-04 3.122598e-04 1.768763e-04 7.863759e-05 1.441957e-04 1.587927e-04 5.185128e-06 4.713715e-05 2.044291e-04 1.652311e-04 1.478549e-04 1.679228e-04
<VARIANCE> 39
 9.979472e+03 2.794131e+01 2.258076e+00 2.960694e-02 1.137900e-01 9.622405e-02 1.705369e-01 7.806894e-02 9.960112e-02 1.718364e-01 4.708146e-02 7.949312e-03 5.149261e-03 6.776982e-03 5.249578e-03 2.071388e-05 2.579386e-05 1.650809e-05 1.272729e-05 8.586250e-05 1.171523e-04 4.768632e-05 4.094534e-05 9.135225e-05 5.893314e-05 5.481797e-05 3.059088e-05 3.550571e-06 4.446118e-06 2.338312e-06 2.033837e-06 6.463690e-06 9.242302e-06 4.638196e-06 3.336731e-06 5.426575e-06 3.804043e-06 4.379818e-06 4.676885e-06
<GCONST> -2.247341e+02
<TRANSP> 3
 0.000000e+00 1.000000e+00 0.000000e+00
 0.000000e+00 9.468639e-01 5.313611e-02
 0.000000e+00 0.000000e+00 0.000000e+00
<ENDHMM>
~h "Tab0088"
<BEGINHMM>
<NUMSTATES> 3
<STATE> 2
<MEAN> 39
 -6.541334e+02 -1.211862e+00 2.697373e-01 1.748985e-01 2.162021e-01 1.417319e-01 4.841278e-02 3.654024e-02 5.618366e-02 1.567612e-01 2.183786e-01 1.870328e-01 1.647801e-01 1.517168e-01 1.529637e-01 7.333648e-05 5.952026e-05 2.912203e-04 1.049907e-04 -5.906643e-05 3.763361e-04 7.233327e-04 -1.819642e-04 -7.551471e-04 -7.762235e-04 -5.525136e-04 4.176698e-05 1.416059e-04 2.804579e-04 3.568003e-04 3.050358e-04 2.705644e-04 3.045036e-04 2.667141e-04 1.653959e-04 1.971730e-04 2.694182e-04 1.511166e-04 9.428372e-05
<VARIANCE> 39
 1.228981e+04 3.158221e+01 1.682188e+00 5.647977e-02 1.365259e-01 4.714610e-02 9.129492e-03 1.040332e-02 1.537688e-02 6.975399e-02 1.239124e-01 7.528345e-02 1.090645e-01 6.294474e-02 9.546760e-02 7.725784e-05 4.511396e-05 8.415311e-05 1.446765e-04 1.635204e-04 7.715399e-05 1.291473e-04 9.736054e-05 1.131827e-04 5.895305e-05 6.942493e-05 1.673550e-04 6.860124e-06 3.484816e-06 6.998968e-06 6.354465e-06 6.910852e-06 5.505252e-06 1.069598e-05 1.022105e-05 9.359551e-06 7.897165e-06 4.892102e-06 1.687932e-05
<GCONST> -2.038995e+02
<TRANSP> 3
 0.000000e+00 1.000000e+00 0.000000e+00
 0.000000e+00 9.199172e-01 8.008286e-02
 0.000000e+00 0.000000e+00 0.000000e+00
<ENDHMM>
~h "Tab0089"
<BEGINHMM>
<NUMSTATES> 3
<STATE> 2
<MEAN> 39
 -3.682126e+02 -8.421487e-01 8.776923e-02 4.346840e-01 2.329655e-01 7.444375e-02 1.245114e-01 1.798317e-01 1.164103e-01 1.172116e-01 1.564284e-01 3.594112e-01 6.092898e-01 4.465009e-01 4.045295e-01 -6.057102e-06 -1.057534e-04 -3.523049e-05 -2.526112e-04 -5.483574e-04 -5.342284e-04 -1.498683e-03 -1.536611e-03 -8.757022e-04 -6.184931e-04 1.723803e-04 3.925381e-04 1.254390e-05 4.038086e-05 7.379882e-05 9.636787e-05 1.059264e-04 9.467902e-05 1.722648e-04 2.568563e-04 1.294279e-04 1.012375e-05 5.788603e-05 8.749941e-05
<VARIANCE> 39
 1.867942e+04 1.754355e+01 7.790362e-01 1.743271e-01 3.606488e-02 4.534717e-03 5.843538e-03 1.328900e-02 5.137523e-03 3.961891e-03 1.065956e-02 4.821156e-02 1.855025e-01 6.873323e-02 8.173198e-02 2.669881e-05 1.350235e-05 1.110964e-05 4.025092e-05 8.278365e-05 5.500577e-05 4.554203e-05 4.363031e-05 1.151793e-04 3.117076e-05 4.499034e-05 1.157723e-04 1.950212e-06 9.825491e-07 8.721911e-07 3.043652e-06 6.263076e-06 4.283580e-06 2.255196e-06 1.538340e-06 8.410801e-06 1.684050e-06 1.910568e-06 9.323574e-06
<GCONST> -2.361723e+02
<TRANSP> 3
 0.000000e+00 1.000000e+00 0.000000e+00
 0.000000e+00 9.563602e-01 4.363989e-02
 0.000000e+00 0.000000e+00 0.000000e+00
<ENDHMM>
~h "Tab0090"
<BEGINHMM>
<NUMSTATES> 3
<STATE> 2
<MEAN> 39
 -4.625385e+02 1.170894e+00 -1.667691e-01 3.052490e-01 1.703753e-01 1.496368e-01 2.881558e-01 4.445819e-01 3.746209e-01 2.923799e-01 2.718070e-01 1.897323e-01 1.390778e-01 2.396328e-01 4.126225e-01 8.929261e-04 6.581592e-04 -2.635484e-05 8.104987e-04 2.247026e-03 1.386965e-03 -7.377547e-04 -1.445216e-03 -7.252485e-05 1.287693e-03 5.760413e-04 4.529417e-04 -4.992557e-05 1.426280e-04 1.795843e-04 -9.523220e-05 -3.966342e-04 -3.573908e-04 -5.733746e-06 1.570162e-04 1.758182e-04 2.338085e-04 -6.196002e-06 -2.560152e-04
<VARIANCE> 39
 1.500131e+04 5.113024e+02 3.219794e+01 1.070240e-01 3.957702e-02 5.815249e-02 6.312305e-02 1.717776e-01 1.007251e-01 8.919447e-02 9.578580e-02 3.668452e-02 4.484559e-02 4.761768e-02 1.101387e-01 1.578594e-03 8.086409e-04 1.394808e-03 1.373319e-03 4.053927e-03 1.732220e-03 1.612186e-03 1.952417e-03 5.494815e-04 5.725179e-04 8.078580e-04 1.625664e-03 7.055860e-05 3.869637e-05 7.182381e-05 7.632577e-05 2.041845e-04 8.623947e-05 8.823505e-05 1.023240e-04 2.969137e-05 2.554828e-05 3.949898e-05 8.010527e-05
<GCONST> -1.360261e+02
<TRANSP> 3
 0.000000e+00 1.000000e+00 0.000000e+00
 0.000000e+00 9.257632e-01 7.423674e-02
 0.000000e+00 0.000000e+00 0.000000e+00
<ENDHMM>
~h "Tab0091"
<BEGINHMM>
<NUMSTATES> 3
<STATE> 2
<MEAN> 39
 -5.095426e+02 -4.967618e+00 6.852264e-01 2.012494e-01 8.511457e-02 4.114692e-02 6.107070e-02 8.924941e-02 7.438393e-02 1.329941e-01 3.108718e-01 5.089777e-01 4.903200e-01 3.005717e-01 2.512377e-01 -8.704696e-04 -1.000659e-03 -2.181140e-04 -1.004428e-03 -1.919908e-03 -1.301286e-03 -1.819694e-03 -3.494679e-03 -3.402946e-03 -3.694501e-03 -2.707108e-03 -1.377982e-03 3.044101e-05 2.910994e-04 4.680575e-04 6.217044e-04 6.555474e-04 6.228609e-04 6.365557e-04 6.626574e-04 4.912321e-04 2.905493e-04 3.368934e-04 2.348178e-04
<VARIANCE> 39
 1.253510e+04 3.475056e+01 1.241746e+00 9.681405e-02 2.630910e-02 6.470624e-03 9.842758e-03 3.230734e-02 1.326662e-02 3.022652e-02 9.465849e-02 1.133114e-01 1.568005e-01 5.185735e-02 1.371497e-01 5.035702e-05 1.720550e-05 6.076713e-05 4.173582e-05 1.676750e-04 8.934853e-05 1.155606e-04 1.167576e-04 9.291554e-05 7.249343e-05 5.523826e-05 6.974231e-05 2.521220e-06 2.407266e-06 3.720347e-06 4.256363e-06 9.005045e-06 4.236910e-06 6.320265e-06 6.905707e-06 5.335472e-06 4.607577e-06 3.798727e-06 5.024757e-06
<GCONST> -2.159830e+02
<TRANSP> 3
 0.000000e+00 1.000000e+00 0.000000e+00
 0.000000e+00 8.218789e-01 1.781212e-01
 0.000000e+00 0.000000e+00 0.000000e+00
<ENDHMM>
~h "Tab0092"
<BEGINHMM>
<NUMSTATES> 3
<STATE> 2
<MEAN> 39
 -6.735522e+02 -5.174655e-01 3.571511e-02 7.907018e-03 1.199801e-02 7.723770e-02 1.542204e-01 1.286655e-01 1.239448e-01 1.428089e-01 6.722762e-02 9.076064e-03 8.950988e-03 1.030178e-02 6.874526e-03 -1.151377e-04 -1.629895e-04 -6.528076e-05 -9.093771e-05 -1.575635e-04 -7.656746e-05 -5.629247e-05 -1.181601e-04 -1.489855e-04 -2.125887e-04 -2.590756e-04 -1.603596e-04 1.138494e-05 1.268680e-05 1.187847e-05 8.178633e-06 1.401510e-05 1.410726e-05 -6.599003e-07 1.189113e-05 2.298016e-05 3.493441e-05 4.735767e-05 2.716334e-05
<VARIANCE> 39
 5.285017e+03 2.452916e+00 9.713050e-02 1.394153e-03 3.262653e-03 3.396287e-02 1.171068e-01 6.348776e-02 6.692053e-02 1.070353e-01 2.849476e-02 8.611440e-04 1.215130e-03 7.854612e-04 1.012177e-03 7.738464e-06 5.756516e-06 8.173934e-06 6.020874e-06 9.842092e-06 7.769793e-06 7.680384e-06 9.380564e-06 7.292997e-06 9.102586e-06 6.066088e-06 8.300907e-06 4.039318e-07 3.075810e-07 4.262554e-07 3.326209e-07 5.388900e-07 4.357443e-07 4.302722e-07 5.102124e-07 4.137804e-07 4.840364e-07 3.307438e-07 4.497233e-07
<GCONST> -2.957498e+02
<TRANSP> 3
 0.000000e+00 1.000000e+00 0.000000e+00
 0.000000e+00 9.817360e-01 1.826399e-02
 0.000000e+00 0.000000e+00 0.000000e+00
<ENDHMM>
~h "Tab0094"
<BEGINHMM>
<NUMSTATES> 3
<STATE> 2
<MEAN> 39
 -4.607045e+02 -7.956195e-02 -2.983688e-02 2.956027e-01 2.982961e-01 3.448994e-01 3.281224e-01 2.945891e-01 2.157816e-01 2.514447e-01 3.842013e-01 2.907951e-01 1.555695e-01 1.589300e-01 2.621425e-01 -7.440733e-04 4.309784e-04 2.057686e-03 6.000634e-04 -4.390243e-04 -1.393444e-04 3.544114e-04 5.373661e-04 5.333773e-04 3.599920e-04 5.528373e-04 3.312874e-04 -2.188323e-04 -7.978721e-05 1.064115e-04 1.500985e-04 2.555707e-04 1.945548e-04 1.422303e-04 1.762235e-04 9.757103e-05 4.623149e-05 7.291365e-05 -1.104489e-04
<VARIANCE> 39
 6.833154e+03 8.386900e+01 5.273171e+00 1.021590e-01 5.245213e-02 1.571543e-01 7.991344e-02 1.494218e-01 7.722206e-02 6.251214e-02 1.851908e-01 7.814120e-02 5.617269e-02 5.106710e-02 9.449376e-02 1.396990e-03 1.294559e-03 3.458200e-03 1.311083e-03 3.598672e-03 1.391547e-03 9.907248e-04 2.647171e-03 1.061507e-03 1.689423e-03 1.078375e-03 1.316185e-03 6.113498e-05 7.819501e-05 2.153973e-04 5.733706e-05 1.969450e-04 7.734996e-05 5.387086e-05 1.239446e-04 5.138709e-05 1.004340e-04 5.708745e-05 5.939863e-05
<GCONST> -1.327475e+02
<TRANSP> 3
 0.000000e+00 1.000000e+00 0.000000e+00
 0.000000e+00 9.316312e-01 6.836881e-02
 0.000000e+00 0.000000e+00 0.000000e+00
<ENDHMM>
~h "Tab0096"
<BEGINHMM>
<NUMSTATES> 3
<STATE> 2
<MEAN> 39
 -4.933292e+02 2.408954e+00 -7.245407e-02 3.231334e-01 3.794767e-01 3.014882e-01 2.635255e-01 3.472702e-01 3.455075e-01 3.490607e-01 3.220458e-01 3.335807e-01 3.483035e-01 3.010021e-01 3.298818e-01 1.829282e-03 2.504010e-03 1.428683e-03 7.512611e-04 1.165835e-03 -9.286434e-04 -3.008825e-03 -1.007075e-03 3.658575e-03 6.093465e-03 3.726803e-03 1.534718e-03 -3.848365e-04 -5.026000e-04 -5.754562e-04 -6.884440e-04 -9.140869e-04 -5.235705e-04 2.111246e-05 -4.415623e-04 -8.896286e-04 -2.900191e-04 -6.656836e-05 -4.862051e-04
<VARIANCE> 39
 2.662666e+04 5.485720e+02 2.720311e+01 7.099820e-02 1.407399e-01 8.532532e-02 6.833704e-02 1.287491e-01 7.957231e-02 1.390171e-01 8.244092e-02 9.078499e-02 1.223763e-01 7.045931e-02 1.257518e-01 1.573245e-03 2.885094e-03 2.121049e-03 1.981178e-03 3.986737e-03 1.745856e-03 3.877722e-03 2.224885e-03 2.528951e-03 3.201226e-03 1.597300e-03 3.662364e-03 7.388125e-05 1.425405e-04 9.964033e-05 1.042130e-04 2.232155e-04 9.373248e-05 2.117223e-04 1.224752e-04 1.397495e-04 1.698100e-04 8.243789e-05 1.972859e-04
<GCONST> -1.159338e+02
<TRANSP> 3
 0.000000e+00 1.000000e+00 0.000000e+00
 0.000000e+00 9.490905e-01 5.090947e-02
 0.000000e+00 0.000000e+00 0.000000e+00
<ENDHMM>
~h "Tab0097"
<BEGINHMM>
<NUMSTATES> 3
<STATE> 2
<MEAN> 39
 -5.564998e+02 -1.524012e-01 1.773392e-02 1.301782e-01 8.459958e-02 1.029513e-01 7.565214e-02 4.475354e-02 8.447643e-02 2.363067e-01 2.861894e-01 2.023787e-01 1.785846e-01 1.696398e-01 1.832823e-01 2.197775e-04 1.582405e-04 1.045204e-05 -1.359925e-04 -1.231418e-04 -6.383436e-05 1.882615e-04 4.822920e-04 2.606234e-05 -1.350121e-04 -2.384177e-05 9.009705e-05 3.626332e-05 5.359534e-05 8.010463e-05 6.901378e-05 8.969533e-05 8.746987e-05 3.197067e-05 2.785939e-05 5.501565e-05 5.483093e-05 5.517781e-05 5.141224e-05
<VARIANCE> 39
 3.042618e+04 4.345047e+01 2.622703e+00 5.689608e-02 2.162960e-02 5.283878e-02 2.285675e-02 1.124816e-02 2.408395e-02 1.089917e-01 1.564479e-01 6.811845e-02 1.049666e-01 4.985334e-02 1.198371e-01 2.819884e-04 1.483745e-04 3.752038e-04 1.855062e-04 1.124493e-04 1.349710e-04 3.090440e-04 3.678094e-04 2.193740e-04 4.933611e-04 2.170035e-04 5.002029e-04 1.260798e-05 7.030111e-06 1.686029e-05 8.405162e-06 5.699401e-06 6.581889e-06 1.436266e-05 1.806261e-05 1.133720e-05 2.211516e-05 9.854212e-06 2.234941e-05
<GCONST> -1.848133e+02
<TRANSP> 3
 0.000000e+00 1.000000e+00 0.000000e+00
 0.000000e+00 9.577846e-01 4.221542e-02
 0.000000e+00 0.000000e+00 0.000000e+00
<ENDHMM>
~h "Tab0098"
<BEGINHMM>
<NUMSTATES> 3
<STATE> 2
<MEAN> 39
 -7.437878e+02 -1.016244e-01 1.298236e-02 1.604300e-02 1.890325e-02 2.374306e-02 1.453636e-02 4.408382e-03 3.038787e-03 4.295227e-03 6.616358e-03 4.897615e-03 3.305910e-03 4.511043e-03 1.125462e-02 3.009305e-05 3.694075e-05 7.808223e-05 4.133231e-05 -8.045814e-05 -1.198825e-04 -5.621490e-05 -3.327168e-05 -1.294102e-05 -2.276830e-05 -2.882200e-05 -2.258676e-07 9.195772e-06 8.026709e-06 7.713672e-06 2.636702e-06 7.941519e-06 1.807904e-05 1.542504e-05 9.692008e-06 1.140020e-05 1.375288e-05 1.166841e-05 9.702029e-06
<VARIANCE> 39
 7.990699e+03 1.648368e+00 1.152017e-01 1.299889e-02 1.003805e-02 2.126463e-02 8.007174e-03 1.979895e-03 1.226363e-03 1.552104e-03 4.644560e-03 1.988761e-03 1.215130e-03 1.731504e-03 7.147949e-03 1.038632e-05 8.251495e-06 1.819341e-05 8.867039e-06 2.133133e-05 1.817395e-05 7.680384e-06 9.380564e-06 7.292997e-06 9.102586e-06 6.066088e-06 8.300907e-06 5.703577e-07 3.280082e-07 7.345754e-07 4.915526e-07 1.345120e-06 7.465557e-07 4.302722e-07 5.102124e-07 4.137804e-07 4.840364e-07 3.307438e-07 4.497233e-07
<GCONST> -2.990283e+02
<TRANSP> 3
 0.000000e+00 1.000000e+00 0.000000e+00
 0.000000e+00 9.766067e-01 2.339328e-02
 0.000000e+00 0.000000e+00 0.000000e+00
<ENDHMM>
~h "Tab0099"
<BEGINHMM>
<NUMSTATES> 3
<STATE> 2
<MEAN> 39
 -3.089098e+02 2.498294e-01 9.466335e-04 4.069673e-01 2.761439e-01 1.666208e-01 1.812693e-01 2.261324e-01 2.003667e-01 2.423086e-01 3.680927e-01 4.569864e-01 5.742516e-01 4.413781e-01 3.934059e-01 2.647896e-04 -1.169437e-04 -5.988994e-04 -4.719262e-04 -3.512037e-04 -4.409127e-04 -4.513382e-04 -6.983284e-04 -3.260665e-04 2.995512e-04 1.562922e-05 1.074995e-04 1.835265e-05 1.258498e-05 3.056501e-05 1.303407e-05 7.062023e-06 3.231087e-05 4.647960e-05 8.203789e-05 6.641155e-05 4.615198e-06 4.213620e-06 1.509301e-05
<VARIANCE> 39
 9.891574e+03 7.249172e+01 3.954518e+00 1.382106e-01 2.825710e-02 2.589208e-02 9.341636e-03 1.035896e-02 1.836672e-02 3.683794e-02 1.140028e-01 5.055370e-02 1.661941e-01 8.636335e-02 3.946664e-02 3.380688e-04 1.184403e-04 2.420505e-04 1.839670e-04 2.549282e-04 2.239906e-04 5.702445e-04 1.706290e-03 3.161110e-04 1.179189e-03 6.592489e-04 1.740189e-04 2.290578e-05 7.060512e-06 1.488568e-05 1.217442e-05 1.736073e-05 1.464571e-05 3.729558e-05 1.107158e-04 1.881865e-05 7.559743e-05 4.043015e-05 7.956175e-06
<GCONST> -1.757056e+02
<TRANSP> 3
 0.000000e+00 1.000000e+00 0.000000e+00
 0.000000e+00 9.874898e-01 1.251017e-02
 0.000000e+00 0.000000e+00 0.000000e+00
<ENDHMM>
~h "Tab0100"
<BEGINHMM>
<NUMSTATES> 3
<STATE> 2
<MEAN> 39
 -3.137724e+02 -2.595142e-01 -1.414403e-03 3.499161e-01 4.012408e-01 4.606724e-01 4.334954e-01 4.571016e-01 3.908059e-01 4.209210e-01 5.071270e-01 5.401366e-01 6.071358e-01 4.393232e-01 3.611250e-01 -8.753355e-06 3.531519e-04 7.005910e-04 3.350124e-04 -6.362284e-05 -3.510137e-05 -1.990111e-04 -4.998436e-04 -1.496195e-04 3.520125e-04 2.969817e-04 4.869740e-05 2.973065e-05 -5.936029e-05 -1.418214e-04 -2.365923e-05 7.337151e-05 6.465528e-05 -4.040738e-05 -1.277853e-04 -4.772929e-05 3.872939e-05 6.338724e-05 5.443775e-05
<VARIANCE> 39
 1.918477e+04 7.235032e+02 5.610464e+01 8.117566e-02 3.439597e-02 1.115239e-01 3.711619e-02 8.715884e-02 5.411769e-02 5.421022e-02 9.708751e-02 5.939650e-02 1.262593e-01 5.023555e-02 4.622896e-02 4.221016e-04 4.400655e-04 9.892154e-04 4.962999e-04 8.885781e-04 7.545232e-04 1.185475e-03 1.769772e-03 6.580854e-04 1.013344e-03 4.921232e-04 5.319251e-04 2.479638e-05 2.217115e-05 4.775566e-05 2.921860e-05 4.991076e-05 4.894478e-05 7.566518e-05 1.104465e-04 4.158992e-05 6.090984e-05 2.603634e-05 3.238913e-05
<GCONST> -1.483010e+02
<TRANSP> 3
 0.000000e+00 1.000000e+00 0.000000e+00
 0.000000e+00 9.750829e-01 2.491705e-02
 0.000000e+00 0.000000e+00 0.000000e+00
<ENDHMM>
~h "Tab0101"
<BEGINHMM>
<NUMSTATES> 3
<STATE> 2
<MEAN> 39
 -3.886471e+02 -4.814820e-01 1.681973e-01 3.996654e-01 2.690010e-01 1.591953e-01 2.417948e-01 4.167984e-01 4.552691e-01 3.796231e-01 3.413953e-01 3.148342e-01 3.338000e-01 2.605786e-01 3.089504e-01 -8.689798e-05 1.761504e-04 3.984949e-04 2.953961e-04 3.637300e-04 3.157157e-04 7.772160e-04 9.225145e-04 7.813674e-05 -5.722725e-04 5.410728e-05 3.035666e-04 -2.168689e-04 8.376942e-05 3.008228e-04 2.481100e-04 1.356213e-04 1.142569e-04 1.779313e-04 2.266749e-04 3.972710e-04 4.446477e-04 2.599904e-04 -7.210126e-05
<VARIANCE> 39
 2.104542e+04 2.349558e+02 1.559847e+01 1.573205e-01 4.870434e-02 4.352646e-02 5.217076e-02 8.871137e-02 1.250172e-01 8.017057e-02 8.852886e-02 6.377098e-02 1.065978e-01 5.189344e-02 6.676595e-02 1.385909e-03 3.954968e-04 5.459572e-04 7.279080e-04 1.252038e-03 1.011443e-03 1.057682e-03 1.440029e-03 1.365352e-03 1.759517e-03 9.354872e-04 3.970367e-04 8.037502e-05 2.282529e-05 3.127471e-05 4.373556e-05 7.019762e-05 5.774190e-05 6.584255e-05 8.748386e-05 8.513236e-05 1.028996e-04 5.839049e-05 1.973520e-05
<GCONST> -1.430581e+02
<TRANSP> 3
 0.000000e+00 1.000000e+00 0.000000e+00
 0.000000e+00 8.424590e-01 1.575410e-01
 0.000000e+00 0.000000e+00 0.000000e+00
<ENDHMM>
~h "Tab0102"
<BEGINHMM>
<NUMSTATES> 3
<STATE> 2
<MEAN> 39
 -4.031317e+02 -3.601007e-01 1.681135e-01 3.479517e-01 3.855494e-01 4.521739e-01 3.920875e-01 2.632109e-01 2.217123e-01 2.671165e-01 2.786871e-01 2.643796e-01 3.185155e-01 2.977170e-01 3.538952e-01 -1.584307e-03 -1.142188e-03 2.233947e-04 -1.072440e-03 -3.127872e-03 -2.145387e-03 -6.299895e-04 -8.405589e-04 -2.739529e-04 2.708875e-04 -6.882360e-04 -4.913165e-04 3.816633e-04 -2.892604e-04 -6.223886e-04 1.016565e-04 9.599828e-04 4.423076e-04 -9.769876e-05 1.189619e-04 4.333197e-04 3.645279e-04 4.143841e-04 4.194113e-04
<VARIANCE> 39
 1.524034e+04 2.694451e+02 1.595817e+01 1.562646e-01 5.901595e-02 1.647701e-01 8.046745e-02 8.245157e-02 4.034637e-02 5.611159e-02 6.595062e-02 4.322537e-02 7.411142e-02 5.943445e-02 7.894407e-02 2.325193e-03 7.559521e-04 1.820214e-03 1.232416e-03 1.782347e-03 8.983359e-04 8.877584e-04 1.281516e-03 8.461859e-04 1.729266e-03 1.208107e-03 1.117339e-03 1.218103e-04 3.922185e-05 9.972609e-05 6.851178e-05 9.354217e-05 5.326698e-05 5.192764e-05 7.911816e-05 5.398289e-05 1.008293e-04 7.374088e-05 6.234764e-05
<GCONST> -1.366003e+02
<TRANSP> 3
 0.000000e+00 1.000000e+00 0.000000e+00
 0.000000e+00 7.432227e-01 2.567773e-01
 0.000000e+00 0.000000e+00 0.000000e+00
<ENDHMM>
~h "Tab0103"
<BEGINHMM>
<NUMSTATES> 3
<STATE> 2
<MEAN> 39
 -6.976119e+02 -3.102127e-03 1.154045e-03 1.270737e-03 8.098669e-04 2.624624e-04 2.740670e-04 4.284321e-04 3.306422e-04 2.302974e-04 2.668536e-04 2.744136e-04 3.001856e-04 2.828714e-04 7.523224e-04 6.895477e-06 -8.716414e-06 -2.048341e-05 -7.568062e-06 2.986818e-06 -6.981582e-06 -1.303433e-05 -8.559748e-06 2.894951e-06 1.335895e-05 7.765924e-06 1.151412e-06 1.953460e-06 4.318096e-06 7.857352e-06 4.444083e-06 -5.062350e-07 3.875789e-08 5.112684e-06 5.892942e-06 3.125740e-06 1.055379e-06 2.683328e-06 1.122768e-06
<VARIANCE> 39
 3.987637e+03 1.648368e+00 9.713050e-02 1.187001e-03 7.507265e-04 1.011769e-03 6.844017e-04 1.068953e-03 8.484249e-04 8.535165e-04 1.088234e-03 8.611440e-04 1.215130e-03 7.854612e-04 1.012177e-03 7.738464e-06 5.756516e-06 8.173934e-06 6.020874e-06 9.842092e-06 7.769793e-06 7.680384e-06 9.380564e-06 7.292997e-06 9.102586e-06 6.066088e-06 8.300907e-06 4.039318e-07 3.075810e-07 4.262554e-07 3.326209e-07 5.388900e-07 4.357443e-07 4.302722e-07 5.102124e-07 4.137804e-07 4.840364e-07 3.307438e-07 4.497233e-07
<GCONST> -3.232637e+02
<TRANSP> 3
 0.000000e+00 1.000000e+00 0.000000e+00
 0.000000e+00 9.960384e-01 3.961567e-03
 0.000000e+00 0.000000e+00 0.000000e+00
<ENDHMM>
~h "Tab0104"
<BEGINHMM>
<NUMSTATES> 3
<STATE> 2
<MEAN> 39
 -3.917940e+02 4.341502e-01 -4.696473e-02 4.085939e-01 3.696361e-01 3.705426e-01 3.431999e-01 3.375842e-01 2.770832e-01 3.847618e-01 5.182342e-01 4.004022e-01 2.945494e-01 3.024667e-01 3.858155e-01 -8.570345e-04 -1.621324e-04 6.442241e-04 5.314172e-04 1.487589e-04 2.905011e-04 8.119858e-04 9.135942e-04 8.115968e-04 8.186578e-04 3.570986e-04 -7.847321e-04 -8.447439e-05 -1.931678e-04 -2.188838e-04 -1.801500e-04 -1.704978e-04 -1.073814e-04 7.619150e-06 9.682297e-05 5.840254e-05 -7.070310e-06 -3.295357e-05 -1.638025e-05
<VARIANCE> 39
 2.097928e+04 3.330729e+02 1.897400e+01 1.369619e-01 6.274207e-02 1.240667e-01 6.528731e-02 1.105622e-01 5.559528e-02 6.196572e-02 1.311731e-01 6.086513e-02 7.170939e-02 5.527407e-02 9.578250e-02 2.413688e-03 1.230988e-03 2.009111e-03 1.126875e-03 1.607370e-03 9.378993e-04 1.111714e-03 2.125036e-03 1.141838e-03 1.323085e-03 1.028357e-03 1.475296e-03 1.193749e-04 6.309108e-05 1.052256e-04 5.636903e-05 7.960377e-05 4.840035e-05 5.918508e-05 1.132904e-04 5.960416e-05 6.869178e-05 5.074948e-05 7.815407e-05
<GCONST> -1.331608e+02
<TRANSP> 3
 0.000000e+00 1.000000e+00 0.000000e+00
 0.000000e+00 9.738689e-01 2.613110e-02
 0.000000e+00 0.000000e+00 0.000000e+00
<ENDHMM>
~h "Tab0105"
<BEGINHMM>
<NUMSTATES> 3
<STATE> 2
<MEAN> 39
 -4.802434e+02 6.165789e-01 -2.842370e-01 2.519121e-01 1.959935e-01 2.494556e-01 2.367602e-01 2.051574e-01 1.874112e-01 3.274945e-01 4.790453e-01 4.786426e-01 4.805418e-01 4.362124e-01 3.176112e-01 3.925907e-03 1.564762e-05 -2.737761e-03 -1.902436e-03 4.471256e-04 -7.568978e-04 -3.337544e-03 -3.254371e-03 -1.601036e-03 -1.222680e-03 1.191157e-03 4.185018e-03 1.058738e-03 8.701564e-04 1.114170e-04 3.885335e-04 1.155619e-03 1.114441e-03 -3.769469e-04 -1.624756e-03 -1.442510e-03 -1.258777e-03 -1.133375e-03 8.159725e-06
<VARIANCE> 39
 1.901984e+04 1.925264e+02 1.175823e+01 8.933406e-02 5.460179e-02 9.086684e-02 7.525227e-02 6.100785e-02 4.497770e-02 7.575046e-02 1.438986e-01 8.556668e-02 1.401078e-01 9.262978e-02 1.080433e-01 2.031894e-03 1.079698e-03 2.157878e-03 1.379033e-03 1.447946e-03 1.170570e-03 1.602162e-03 3.027552e-03 1.807397e-03 3.293630e-03 2.265299e-03 1.879546e-03 8.578557e-05 6.095739e-05 1.161198e-04 7.028975e-05 8.536091e-05 6.243832e-05 9.561754e-05 1.815996e-04 1.013927e-04 1.851801e-04 1.191642e-04 8.745729e-05
<GCONST> -1.269578e+02
<TRANSP> 3
 0.000000e+00 1.000000e+00 0.000000e+00
 0.000000e+00 8.932129e-01 1.067872e-01
 0.000000e+00 0.000000e+00 0.000000e+00
<ENDHMM>
~h "Tab0106"
<BEGINHMM>
<NUMSTATES> 3
<STATE> 2
<MEAN> 39
 -4.691632e+02 -1.556639e-01 2.273211e-02 5.844679e-01 1.731392e-01 1.201565e-01 4.618041e-01 7.316962e-01 4.121442e-01 1.576829e-01 1.512953e-01 1.829100e-01 2.034341e-01 5.160451e-01 9.196407e-01 -3.480762e-04 -3.840530e-04 -4.205350e-04 2.756653e-04 6.129090e-04 2.273173e-04 -5.650061e-04 -5.309288e-04 -4.523639e-04 -4.152126e-04 -2.768844e-04 -1.714970e-04 -1.069467e-05 4.381698e-05 5.315646e-05 1.229816e-04 8.226002e-05 6.480003e-05 5.281464e-05 3.607695e-05 3.375157e-05 1.837474e-05 7.621309e-06 -9.537231e-05
<VARIANCE> 39
 8.818949e+02 2.792026e+01 1.856336e+00 3.199577e-02 3.002021e-02 7.167873e-03 2.788422e-02 6.727738e-02 1.922132e-02 3.975171e-02 2.103204e-02 1.284025e-02 3.772560e-02 1.960074e-02 2.394503e-02 3.072655e-04 1.362268e-04 1.462055e-04 6.270464e-04 1.042685e-03 3.394909e-04 2.736677e-04 9.343401e-05 1.089138e-04 2.465087e-04 4.536989e-04 6.537029e-04 1.809867e-05 7.569685e-06 8.727701e-06 4.337151e-05 6.924910e-05 2.130999e-05 1.283537e-05 3.948230e-06 6.175928e-06 1.462004e-05 2.920836e-05 3.986356e-05
<GCONST> -1.922312e+02
<TRANSP> 3
 0.000000e+00 1.000000e+00 0.000000e+00
 0.000000e+00 7.117554e-01 2.882446e-01
 0.000000e+00 0.000000e+00 0.000000e+00
<ENDHMM>
~h "Tab0107"
<BEGINHMM>
<NUMSTATES> 3
<STATE> 2
<MEAN> 39
 -4.700392e+02 -7.129129e-02 -1.396789e-02 5.144250e-01 9.062585e-02 1.129498e-01 5.218923e-01 8.359563e-01 4.424941e-01 8.850058e-02 9.822617e-02 1.415745e-01 1.339830e-01 5.169742e-01 9.469063e-01 -1.732900e-04 -8.536609e-05 -1.666048e-04 1.261933e-04 4.276757e-04 -2.146132e-05 -2.286533e-04 -1.360099e-04 -8.920259e-05 -1.239388e-04 -1.088899e-04 -1.852682e-04 -6.013599e-05 8.211557e-06 1.217822e-05 4.909528e-05 1.007176e-04 9.311566e-05 4.292710e-05 8.675019e-06 -8.033798e-06 -2.009967e-07 -6.679939e-05 -1.240697e-04
<VARIANCE> 39
 5.455521e+02 2.835462e+01 1.927555e+00 5.001107e-03 7.507265e-04 2.893494e-03 1.333810e-02 2.173031e-02 1.004191e-02 2.859079e-03 1.088234e-03 2.341215e-03 4.202866e-03 7.017558e-03 1.208912e-02 1.823323e-04 1.666501e-05 9.453756e-05 7.312247e-04 1.048967e-03 3.329382e-04 1.198786e-04 3.460111e-05 7.230960e-05 8.432753e-05 2.539075e-04 5.714771e-04 1.135485e-05 1.100630e-06 5.936728e-06 5.085643e-05 7.120952e-05 2.045155e-05 8.277465e-06 2.267916e-06 3.718525e-06 4.266399e-06 1.602169e-05 3.653525e-05
<GCONST> -2.258159e+02
<TRANSP> 3
 0.000000e+00 1.000000e+00 0.000000e+00
 0.000000e+00 9.488529e-01 5.114711e-02
 0.000000e+00 0.000000e+00 0.000000e+00
<ENDHMM>
~h "Tab0109"
<BEGINHMM>
<NUMSTATES> 3
<STATE> 2
<MEAN> 39
 -4.752571e+02 -1.999684e-01 6.538175e-02 4.772859e-01 8.564533e-02 1.084490e-01 5.253117e-01 8.434107e-01 4.458351e-01 8.808290e-02 9.273893e-02 1.295237e-01 1.244373e-01 4.813159e-01 8.801892e-01 -3.902379e-04 1.463954e-04 2.120817e-04 5.910587e-04 8.530475e-04 3.482742e-04 -7.492075e-05 -9.761484e-05 -5.807596e-05 -5.601469e-06 -8.599604e-04 -1.255041e-03 1.171007e-04 1.515541e-04 1.813764e-04 -1.103262e-04 -3.665974e-04 -6.644009e-05 1.562763e-04 9.102190e-05 9.767300e-05 1.834624e-04 9.947887e-05 1.296998e-04
<VARIANCE> 39
 1.305279e+03 2.670398e+01 1.741265e+00 1.849042e-02 8.698670e-04 3.452293e-03 1.135850e-02 2.371920e-02 9.052438e-03 3.737709e-03 1.503502e-03 3.380420e-03 5.432962e-03 2.029294e-02 5.795132e-02 1.749085e-04 2.124410e-05 9.270824e-05 5.732034e-04 9.253011e-04 3.019322e-04 1.138518e-04 3.308427e-05 6.550188e-05 9.034234e-05 2.431028e-04 5.518699e-04 1.044114e-05 1.657886e-06 6.346989e-06 4.187705e-05 6.386248e-05 1.923921e-05 7.023911e-06 2.139521e-06 3.438506e-06 4.795542e-06 1.566749e-05 3.582113e-05
<GCONST> -2.204935e+02
<TRANSP> 3
 0.000000e+00 1.000000e+00 0.000000e+00
 0.000000e+00 9.748462e-01 2.515383e-02
 0.000000e+00 0.000000e+00 0.000000e+00
<ENDHMM>
~h "Tab0110"
<BEGINHMM>
<NUMSTATES> 3
<STATE> 2
<MEAN> 39
 -4.036378e+02 2.148293e-01 -9.055923e-02 5.201544e-01 2.545406e-01 1.648865e-01 2.497550e-01 3.245945e-01 2.789753e-01 3.201899e-01 3.498111e-01 4.302426e-01 4.593554e-01 5.007462e-01 6.874670e-01 4.599271e-04 5.094878e-04 1.471598e-03 -1.878720e-03 -2.596058e-03 -1.454479e-03 -8.335917e-04 -5.184838e-04 5.724935e-04 1.800294e-03 8.348457e-04 2.048444e-03 -1.136079e-04 -3.997847e-05 5.413899e-05 2.902437e-04 4.780410e-04 2.071557e-04 -1.472754e-04 -2.251223e-04 -1.076528e-04 -1.308589e-04 -5.158360e-05 -1.394444e-05
<VARIANCE> 39
 9.032772e+03 2.466306e+02 1.488183e+01 8.996020e-02 3.662889e-02 2.604050e-02 4.024554e-02 7.595137e-02 4.189906e-02 8.532228e-02 6.495525e-02 7.915130e-02 1.160561e-01 5.040107e-02 1.051599e-01 1.356240e-03 6.564189e-04 8.355716e-04 7.597747e-04 1.452190e-03 5.985174e-04 9.834748e-04 1.497560e-03 1.225824e-03 2.060257e-03 1.061431e-03 1.540448e-03 6.484066e-05 3.129925e-05 4.597840e-05 3.923138e-05 8.098091e-05 3.392915e-05 4.793964e-05 7.738687e-05 6.621343e-05 1.120685e-04 5.914034e-05 8.746464e-05
<GCONST> -1.433291e+02
<TRANSP> 3
 0.000000e+00 1.000000e+00 0.000000e+00
 0.000000e+00 9.758410e-01 2.415900e-02
 0.000000e+00 0.000000e+00 0.000000e+00
<ENDHMM>
~h "Tab0111"
<BEGINHMM>
<NUMSTATES> 3
<STATE> 2
<MEAN> 39
 -3.569708e+02 -9.021715e-01 2.357820e-01 5.387329e-02 9.922586e-02 1.351290e-01 1.397630e-01 1.748363e-01 2.550830e-01 3.617766e-01 3.824892e-01 4.660185e-01 5.033652e-01 2.707023e-01 7.819101e-02 2.463160e-04 4.523474e-04 2.133182e-04 1.743642e-04 5.695391e-04 6.556045e-04 -1.274371e-03 -2.402028e-03 -9.852053e-04 2.039483e-03 1.607644e-03 2.109740e-04 1.837017e-04 2.095406e-04 2.096495e-04 3.634131e-04 4.425603e-04 4.198538e-04 3.302190e-04 5.741736e-04 4.152994e-04 1.444811e-04 1.669597e-04 2.213097e-04
<VARIANCE> 39
 1.483598e+04 1.079797e+02 8.304449e+00 9.425912e-03 1.992959e-02 4.009649e-02 1.984057e-02 2.546963e-02 5.959298e-02 1.613270e-01 9.089246e-02 1.234154e-01 1.465503e-01 6.527346e-02 1.286471e-02 4.239302e-05 4.498241e-05 8.930248e-05 1.278795e-04 2.755275e-04 2.388164e-04 1.886511e-04 2.689509e-04 2.092514e-04 2.716349e-04 1.802230e-04 6.582243e-05 2.898606e-06 3.137149e-06 7.643916e-06 8.974431e-06 1.667394e-05 1.626275e-05 1.465021e-05 1.954704e-05 1.631015e-05 1.730300e-05 1.119877e-05 4.063088e-06
<GCONST> -1.947052e+02
<TRANSP> 3
 0.000000e+00 1.000000e+00 0.000000e+00
 0.000000e+00 9.332599e-01 6.674004e-02
 0.000000e+00 0.000000e+00 0.000000e+00
<ENDHMM>
~h "Tab0112"
<BEGINHMM>
<NUMSTATES> 3
<STATE> 2
<MEAN> 39
 -4.136517e+02 1.311378e+00 -1.489567e-01 3.385227e-01 3.587201e-01 3.977256e-01 3.159693e-01 2.813712e-01 2.589571e-01 3.465188e-01 4.679881e-01 4.005727e-01 3.762272e-01 3.469840e-01 3.696346e-01 -2.260630e-03 -1.509299e-03 -8.937560e-04 3.370003e-03 7.761412e-03 5.513035e-03 5.988103e-04 -1.672262e-03 -1.064363e-03 -9.316416e-04 -2.507982e-03 -2.702865e-03 4.800460e-04 -1.530272e-06 -1.109941e-03 1.600296e-04 1.625495e-03 6.312835e-04 -1.929234e-03 -3.548835e-03 -1.157131e-03 1.074127e-03 -1.002307e-04 -8.384510e-04
<VARIANCE> 39
 2.109797e+04 3.658970e+02 2.120482e+01 1.106817e-01 6.107014e-02 1.207042e-01 4.847874e-02 7.208570e-02 6.063414e-02 5.274898e-02 1.469162e-01 5.431234e-02 1.009352e-01 5.947036e-02 6.912560e-02 2.432353e-03 1.261263e-03 2.223643e-03 1.055452e-03 2.747906e-03 1.698711e-03 1.801964e-03 4.819864e-03 1.413974e-03 3.278798e-03 1.509366e-03 1.487636e-03 1.075295e-04 6.233137e-05 1.090872e-04 5.215671e-05 1.209630e-04 8.286018e-05 8.878831e-05 2.238667e-04 6.935956e-05 1.388061e-04 7.009282e-05 7.086807e-05
<GCONST> -1.269508e+02
<TRANSP> 3
 0.000000e+00 1.000000e+00 0.000000e+00
 0.000000e+00 9.560438e-01 4.395615e-02
 0.000000e+00 0.000000e+00 0.000000e+00
<ENDHMM>
~h "Tab0113"
<BEGINHMM>
<NUMSTATES> 3
<STATE> 2
<MEAN> 39
 -3.940399e+02 6.666635e-01 -2.039444e-01 2.999277e-01 3.652058e-01 4.350904e-01 4.311539e-01 4.851526e-01 4.254516e-01 4.012101e-01 4.312244e-01 4.688654e-01 5.180189e-01 3.494852e-01 2.667929e-01 -3.017164e-04 -9.447253e-04 -1.216055e-03 -9.395502e-04 -7.930181e-04 -7.313820e-04 1.225560e-03 2.448894e-03 1.272953e-03 -1.105670e-03 -1.585532e-03 -6.852524e-04 -8.264677e-06 -1.943302e-04 -3.710699e-04 -3.312667e-04 -2.972849e-04 -3.728237e-04 -4.314498e-04 -4.716628e-04 -3.402033e-04 -2.756513e-04 -2.242374e-04 -6.714836e-05
<VARIANCE> 39
 2.046526e+04 2.923442e+02 1.651757e+01 1.019810e-01 5.258391e-02 1.204009e-01 6.850295e-02 1.184215e-01 7.460605e-02 9.412600e-02 1.127865e-01 5.538522e-02 1.300741e-01 5.237303e-02 5.513264e-02 8.296123e-04 9.134552e-04 2.461636e-03 1.500797e-03 1.888787e-03 1.313459e-03 1.486672e-03 2.014855e-03 1.565820e-03 3.124280e-03 1.424791e-03 8.475938e-04 3.726809e-05 4.463585e-05 1.175664e-04 7.345955e-05 9.600293e-05 6.821951e-05 7.185846e-05 9.547300e-05 8.009393e-05 1.472006e-04 6.957743e-05 4.885451e-05
<GCONST> -1.322553e+02
<TRANSP> 3
 0.000000e+00 1.000000e+00 0.000000e+00
 0.000000e+00 8.884996e-01 1.115004e-01
 0.000000e+00 0.000000e+00 0.000000e+00
<ENDHMM>
~h "Tab0114"
<BEGINHMM>
<NUMSTATES> 3
<STATE> 2
<MEAN> 39
